78 128
11 0.013800 -0.121468 0.056923 -0.164937 0.045644 0.016339 0.088736 0.138348 -0.041621 0.073468 0.003989 0.198311 0.030382 0.019867 -0.059055 -0.160093 0.059189 -0.058203 0.077741 0.152072 0.071218 -0.035882 0.094389 0.116613 0.090597 0.021489 -0.295975 0.000177 -0.030694 -0.042283 0.015124 -0.073534 -0.028062 -0.199519 -0.105897 -0.120937 0.174409 0.055315 0.002786 0.033559 -0.059605 0.196980 0.139283 -0.076931 -0.018780 0.222760 0.024618 -0.117743 0.041661 -0.039640 0.067820 -0.017018 0.054191 -0.118418 0.125877 -0.071123 0.121392 0.023020 -0.255814 0.005352 -0.108926 -0.066083 0.018925 0.071678 -0.077126 0.138664 -0.049116 0.000149 0.027769 -0.059466 0.027870 0.091285 0.231826 -0.104177 0.198242 -0.141107 0.032553 -0.052703 0.071868 0.124835 0.123290 0.036400 -0.093509 -0.025822 -0.083124 0.000389 0.266849 0.205405 0.077393 0.218875 -0.046837 0.057419 -0.044110 0.074322 -0.187499 0.092684 -0.008169 -0.117248 0.179797 -0.010733 -0.130290 0.235877 -0.122595 0.074020 0.169627 0.197105 0.148672 0.116937 -0.073996 0.098594 -0.009893 -0.066536 0.039691 -0.054805 -0.050589 0.062732 -0.126660 0.141109 0.044762 -0.008048 0.015917 -0.175641 0.026865 -0.107515 -0.031992 0.026717 0.104496 0.073646
56 0.015320 -0.114992 0.050295 -0.168552 0.044954 0.019987 0.091646 0.133992 -0.046825 0.076629 0.009184 0.196063 0.028335 0.022698 -0.063957 -0.155458 0.059559 -0.056728 0.074778 0.152528 0.065171 -0.038090 0.087834 0.114394 0.096968 0.021907 -0.295076 -0.000183 -0.030138 -0.039536 0.011390 -0.069168 -0.027196 -0.195068 -0.110999 -0.123055 0.171065 0.055080 0.003242 0.036337 -0.064897 0.195152 0.134661 -0.074716 -0.017998 0.221215 0.018535 -0.122891 0.043806 -0.041781 0.065855 -0.019818 0.055242 -0.115000 0.128434 -0.069639 0.119168 0.016999 -0.251391 0.002431 -0.104673 -0.059413 0.010591 0.068399 -0.069473 0.139407 -0.045568 0.000162 0.030094 -0.056082 0.029092 0.086255 0.239832 -0.104139 0.188902 -0.142740 0.030543 -0.052913 0.075754 0.128756 0.124604 0.037197 -0.094951 -0.019573 -0.079037 -0.004783 0.262219 0.203472 0.078731 0.219031 -0.041072 0.059359 -0.043234 0.072812 -0.189628 0.090106 -0.005866 -0.118998 0.178164 -0.014838 -0.131069 0.231750 -0.118663 0.077093 0.163175 0.197133 0.144611 0.120082 -0.078330 0.104074 -0.011481 -0.067671 0.046416 -0.049908 -0.046845 0.069968 -0.120882 0.138684 0.050800 -0.009032 0.011914 -0.167462 0.019067 -0.095082 -0.032497 0.031171 0.110761 0.074896
59 0.016050 -0.090407 0.046781 -0.134586 0.030131 0.020361 0.070610 0.102719 -0.032432 0.061257 0.006111 0.151866 0.029418 0.018848 -0.048602 -0.117494 0.049025 -0.043108 0.058027 0.124398 0.050947 -0.034574 0.066510 0.085622 0.078786 0.014369 -0.229664 -0.002495 -0.018782 -0.037360 0.006508 -0.053587 -0.019432 -0.152868 -0.089326 -0.093621 0.132493 0.038823 0.001735 0.024125 -0.050181 0.151720 0.100614 -0.063072 -0.005382 0.172884 0.012502 -0.098187 0.037340 -0.029355 0.053409 -0.014591 0.043108 -0.095348 0.102861 -0.045374 0.093712 0.014985 -0.193340 -0.000045 -0.087538 -0.049400 0.015595 0.051620 -0.052525 0.106380 -0.033689 -0.006075 0.025609 -0.037913 0.020499 0.062015 0.191217 -0.077863 0.149916 -0.113066 0.019002 -0.037046 0.060032 0.101737 0.095424 0.026838 -0.076720 -0.016984 -0.065742 -0.006083 0.201866 0.161616 0.057398 0.166813 -0.034690 0.050613 -0.036975 0.057315 -0.145105 0.069763 -0.009117 -0.092721 0.143543 -0.008957 -0.098587 0.177533 -0.088505 0.061567 0.122394 0.146619 0.108849 0.092991 -0.056935 0.080142 -0.013490 -0.058336 0.040100 -0.037585 -0.034781 0.055001 -0.098999 0.107579 0.040476 -0.008657 0.004984 -0.130308 0.016086 -0.075880 -0.023823 0.019570 0.087702 0.054367
26 0.020671 -0.107089 0.051939 -0.154903 0.041200 0.013395 0.084381 0.122171 -0.043191 0.070002 0.004268 0.179250 0.033726 0.013021 -0.056444 -0.140574 0.057890 -0.053207 0.072150 0.145163 0.065749 -0.032259 0.087508 0.107423 0.082607 0.019394 -0.275702 -0.004154 -0.026496 -0.032282 0.013906 -0.065056 -0.026121 -0.182026 -0.104184 -0.117397 0.158635 0.046921 0.001906 0.028084 -0.058252 0.174620 0.120164 -0.072609 -0.016830 0.207763 0.014426 -0.111196 0.038475 -0.034842 0.064850 -0.015103 0.047967 -0.112213 0.114004 -0.063433 0.113618 0.020267 -0.235954 0.003960 -0.096845 -0.060345 0.014306 0.068268 -0.066451 0.128170 -0.039755 -0.005485 0.023632 -0.050168 0.025095 0.084912 0.215534 -0.095505 0.182906 -0.132880 0.024151 -0.046219 0.066712 0.114093 0.109676 0.033511 -0.084190 -0.021240 -0.072885 0.003321 0.236932 0.188056 0.069694 0.197903 -0.039702 0.058101 -0.039664 0.069219 -0.171743 0.086609 -0.011275 -0.107124 0.171599 -0.017797 -0.121271 0.211300 -0.111784 0.070878 0.158536 0.182620 0.136517 0.110564 -0.063688 0.095631 -0.012435 -0.066129 0.041145 -0.044376 -0.043617 0.060466 -0.111988 0.126437 0.046124 -0.009522 0.012402 -0.161788 0.019307 -0.099604 -0.027677 0.030258 0.097326 0.063141
63 0.018792 -0.092100 0.049347 -0.144224 0.036685 0.022321 0.077228 0.112117 -0.033966 0.067634 0.009115 0.157341 0.031052 0.020780 -0.049961 -0.130293 0.051813 -0.048705 0.059465 0.129164 0.050794 -0.031113 0.068883 0.096819 0.080198 0.019464 -0.245258 0.000912 -0.021207 -0.037262 0.012709 -0.063782 -0.017221 -0.162335 -0.097666 -0.100364 0.142107 0.045108 0.005144 0.032718 -0.051076 0.165114 0.110792 -0.070645 -0.007637 0.182470 0.013284 -0.105859 0.041555 -0.029802 0.054730 -0.013623 0.049433 -0.098187 0.110465 -0.052110 0.099360 0.011584 -0.205432 0.003524 -0.089956 -0.057312 0.008549 0.051521 -0.059018 0.118662 -0.037277 -0.003761 0.022764 -0.036909 0.021399 0.072039 0.204330 -0.084974 0.163382 -0.124365 0.021548 -0.037928 0.059500 0.109338 0.101892 0.031329 -0.078941 -0.022785 -0.066952 -0.001180 0.217239 0.166307 0.066579 0.177017 -0.032589 0.054962 -0.039639 0.059740 -0.157229 0.075069 -0.006761 -0.103848 0.152497 -0.008657 -0.109049 0.188111 -0.096312 0.066102 0.135008 0.163224 0.114462 0.095256 -0.058040 0.087053 -0.013446 -0.060213 0.038880 -0.043241 -0.040399 0.059476 -0.103221 0.115386 0.044164 -0.011248 0.004726 -0.140230 0.019105 -0.079563 -0.026752 0.026633 0.096466 0.056101
27 0.018959 -0.115570 0.048856 -0.159607 0.041536 0.018321 0.087806 0.129922 -0.043440 0.072821 0.002951 0.182859 0.029255 0.020983 -0.058864 -0.148571 0.060880 -0.055517 0.071985 0.141157 0.066048 -0.030844 0.086199 0.111217 0.086905 0.018590 -0.279181 0.003525 -0.028218 -0.036859 0.012678 -0.071623 -0.029481 -0.187132 -0.098745 -0.117592 0.157456 0.048727 0.001410 0.025774 -0.060607 0.183320 0.126847 -0.071524 -0.014421 0.209461 0.023215 -0.114101 0.040571 -0.036293 0.064751 -0.014372 0.048455 -0.107399 0.117578 -0.067266 0.112835 0.020433 -0.232376 0.004756 -0.104261 -0.056012 0.011119 0.062615 -0.069307 0.129977 -0.044962 0.003611 0.023881 -0.051669 0.021786 0.088187 0.221930 -0.100153 0.178212 -0.137329 0.031443 -0.049504 0.067792 0.119621 0.111955 0.030987 -0.088064 -0.018055 -0.078162 -0.000312 0.250550 0.191512 0.067181 0.205825 -0.045105 0.052976 -0.042422 0.067516 -0.179730 0.088388 -0.007673 -0.113263 0.171649 -0.015706 -0.127696 0.218455 -0.108735 0.065229 0.160986 0.186272 0.141168 0.109756 -0.075063 0.098929 -0.007939 -0.066302 0.040185 -0.050602 -0.044841 0.059673 -0.116576 0.130768 0.040695 -0.006418 0.011055 -0.158399 0.023205 -0.098003 -0.031719 0.030542 0.101589 0.069190
28 0.014613 -0.113184 0.055436 -0.157303 0.039700 0.021120 0.085090 0.126049 -0.043685 0.071728 0.007014 0.187870 0.031191 0.018910 -0.059793 -0.146472 0.057068 -0.055621 0.074920 0.149482 0.059561 -0.034237 0.083537 0.106753 0.086262 0.024275 -0.280119 -0.000195 -0.022787 -0.039360 0.011126 -0.065756 -0.025226 -0.179808 -0.103843 -0.119508 0.163013 0.050794 0.004753 0.032024 -0.060706 0.179695 0.128596 -0.070351 -0.017943 0.204596 0.014789 -0.115561 0.037419 -0.041019 0.060075 -0.016174 0.053823 -0.113510 0.122196 -0.063717 0.108894 0.015968 -0.239854 0.003241 -0.101613 -0.063143 0.017095 0.067150 -0.068070 0.128653 -0.042643 0.001672 0.021884 -0.054841 0.023537 0.087604 0.219948 -0.098613 0.183554 -0.132977 0.026773 -0.043884 0.067000 0.121980 0.115928 0.028406 -0.086677 -0.022867 -0.075650 0.003863 0.246388 0.195326 0.072978 0.204699 -0.040583 0.059583 -0.046434 0.064242 -0.174348 0.088145 -0.009638 -0.109211 0.171160 -0.016854 -0.127265 0.219649 -0.116142 0.069032 0.160045 0.189089 0.138191 0.115786 -0.069607 0.091221 -0.009016 -0.065793 0.039968 -0.049615 -0.045098 0.060342 -0.118813 0.129240 0.043430 -0.007984 0.012496 -0.163023 0.021041 -0.093942 -0.031988 0.025242 0.103535 0.069908
60 0.021135 -0.095243 0.044420 -0.142240 0.031203 0.023494 0.075734 0.115083 -0.034172 0.064316 0.003162 0.160555 0.029887 0.020570 -0.050535 -0.124860 0.049460 -0.049418 0.058525 0.128024 0.051858 -0.037753 0.072591 0.093837 0.080259 0.019028 -0.242887 0.002070 -0.020572 -0.034761 0.008118 -0.058455 -0.016281 -0.162104 -0.096373 -0.102201 0.143451 0.045275 0.005272 0.031428 -0.054401 0.161976 0.109997 -0.069310 -0.011549 0.186718 0.012650 -0.104570 0.041488 -0.029668 0.057180 -0.014963 0.049199 -0.100087 0.108466 -0.054635 0.098863 0.011897 -0.207274 0.001332 -0.086223 -0.058110 0.011304 0.054298 -0.060320 0.116908 -0.031817 -0.000334 0.022585 -0.037814 0.016980 0.071820 0.203070 -0.080087 0.167272 -0.122520 0.017568 -0.040090 0.062567 0.110725 0.108077 0.032990 -0.078821 -0.024232 -0.065753 -0.000627 0.213244 0.170432 0.061305 0.177318 -0.031215 0.054115 -0.043339 0.058212 -0.155383 0.079409 -0.003541 -0.103331 0.156782 -0.010160 -0.109555 0.187154 -0.096097 0.067741 0.137496 0.159242 0.113358 0.101508 -0.058444 0.081675 -0.011749 -0.065043 0.036744 -0.043148 -0.039105 0.056536 -0.105011 0.116324 0.039653 -0.010379 0.004229 -0.135414 0.019525 -0.082495 -0.025740 0.026139 0.093726 0.061565
65 0.014195 -0.096097 0.044367 -0.142387 0.037764 0.016672 0.077042 0.112831 -0.032633 0.060601 0.009505 0.161336 0.033420 0.018739 -0.054347 -0.126850 0.051390 -0.045453 0.064958 0.132067 0.052377 -0.036808 0.075749 0.097075 0.084749 0.020478 -0.246760 0.002886 -0.021539 -0.034500 0.012062 -0.057366 -0.020815 -0.162859 -0.098613 -0.105159 0.141137 0.044062 0.002308 0.030710 -0.051565 0.163503 0.112215 -0.069758 -0.014605 0.181153 0.015200 -0.102784 0.041356 -0.032282 0.052067 -0.016787 0.048328 -0.100838 0.104008 -0.054902 0.098315 0.011782 -0.204244 -0.003012 -0.092291 -0.055598 0.010661 0.059971 -0.060316 0.118862 -0.031264 -0.002961 0.025641 -0.038581 0.020338 0.072411 0.203252 -0.083721 0.158932 -0.122711 0.024922 -0.044554 0.062921 0.110239 0.106409 0.032951 -0.084330 -0.020192 -0.064490 0.001945 0.218427 0.170097 0.065024 0.175669 -0.038412 0.054894 -0.039785 0.056803 -0.154472 0.073949 -0.006695 -0.104637 0.155570 -0.011984 -0.108627 0.185768 -0.094564 0.067813 0.138796 0.157425 0.117016 0.096452 -0.064129 0.084753 -0.014875 -0.064216 0.038350 -0.039557 -0.043386 0.057027 -0.101513 0.119254 0.043037 -0.004368 0.009641 -0.134815 0.019119 -0.085755 -0.027844 0.028867 0.091835 0.055986
24 0.027473 -0.123175 0.065787 -0.174396 0.038078 0.015868 0.091441 0.143581 -0.041195 0.090606 0.007141 0.214433 0.048425 0.009731 -0.065599 -0.166837 0.055470 -0.064111 0.091627 0.174235 0.078182 -0.044409 0.101661 0.135114 0.104324 0.039267 -0.316772 -0.010501 -0.029860 -0.035849 0.006953 -0.075725 -0.034470 -0.211676 -0.121266 -0.142632 0.189048 0.053081 0.000559 0.030361 -0.069301 0.211936 0.136662 -0.079557 -0.012522 0.245565 0.015098 -0.120492 0.052912 -0.050697 0.074790 -0.019665 0.053375 -0.132610 0.142426 -0.063280 0.131415 0.021696 -0.272013 -0.003402 -0.111750 -0.073649 0.026704 0.083864 -0.076657 0.142271 -0.048342 0.002012 0.024717 -0.049787 0.027872 0.098682 0.252024 -0.107775 0.214269 -0.150218 0.025740 -0.056820 0.082814 0.141512 0.135429 0.039285 -0.091315 -0.033515 -0.096049 -0.004877 0.273367 0.223067 0.084038 0.230395 -0.044547 0.073059 -0.045907 0.074765 -0.204233 0.108440 -0.008265 -0.121958 0.196114 -0.018767 -0.146064 0.248402 -0.127688 0.086746 0.177556 0.217029 0.147078 0.127656 -0.078954 0.110625 -0.006814 -0.079010 0.049413 -0.054865 -0.059374 0.071201 -0.135441 0.151692 0.050876 -0.001683 0.017554 -0.189958 0.025854 -0.122561 -0.025871 0.033477 0.111093 0.079801
49 0.020779 -0.109996 0.054848 -0.154453 0.038258 0.017824 0.082551 0.121530 -0.036138 0.068714 0.010650 0.183084 0.029539 0.018170 -0.054648 -0.145580 0.052562 -0.053087 0.071447 0.148973 0.061694 -0.038882 0.082953 0.101749 0.091328 0.022959 -0.274168 -0.005082 -0.023763 -0.042948 0.007741 -0.069029 -0.022744 -0.177289 -0.104475 -0.111341 0.157804 0.046424 0.001721 0.033969 -0.060102 0.180476 0.123481 -0.070645 -0.011740 0.206838 0.012876 -0.115931 0.039811 -0.034054 0.059888 -0.017115 0.055483 -0.107441 0.114068 -0.057913 0.110026 0.021130 -0.231827 -0.000552 -0.101839 -0.058255 0.017458 0.061725 -0.070503 0.127015 -0.038262 -0.005558 0.029884 -0.049847 0.021413 0.075176 0.225482 -0.095565 0.179372 -0.134354 0.027499 -0.048493 0.072139 0.114627 0.110892 0.035574 -0.090585 -0.024428 -0.077797 -0.005370 0.237123 0.188475 0.070452 0.198668 -0.037680 0.059674 -0.047720 0.067017 -0.171722 0.084450 -0.011915 -0.109452 0.171939 -0.009950 -0.116972 0.207112 -0.109557 0.068446 0.151144 0.183252 0.130239 0.114759 -0.071682 0.092052 -0.015090 -0.065436 0.048083 -0.045656 -0.042573 0.061449 -0.111908 0.129501 0.042841 -0.006599 0.007634 -0.153241 0.016646 -0.095365 -0.028816 0.025675 0.104957 0.063221
25 0.016631 -0.118781 0.052919 -0.166754 0.037504 0.016648 0.086571 0.131630 -0.040299 0.076218 0.004340 0.194052 0.033860 0.019468 -0.060328 -0.157825 0.062715 -0.059331 0.081007 0.160209 0.069489 -0.036983 0.092650 0.116678 0.094184 0.019693 -0.291935 -0.003615 -0.030146 -0.037299 0.013878 -0.072389 -0.028141 -0.195121 -0.114644 -0.122666 0.167444 0.055321 0.000748 0.030422 -0.066702 0.192998 0.131481 -0.079426 -0.013343 0.222968 0.020650 -0.117538 0.045584 -0.041055 0.063953 -0.015452 0.055965 -0.116062 0.120123 -0.068255 0.121055 0.016738 -0.251377 0.007486 -0.108381 -0.061335 0.018154 0.069315 -0.075355 0.135626 -0.045309 0.000994 0.021578 -0.054743 0.025203 0.087266 0.237173 -0.097846 0.194434 -0.144001 0.026125 -0.047731 0.076621 0.123820 0.122533 0.031417 -0.092194 -0.028660 -0.080127 -0.000653 0.257527 0.199985 0.073794 0.210271 -0.046675 0.062586 -0.042728 0.068721 -0.188958 0.097232 -0.011283 -0.116987 0.182481 -0.014673 -0.136366 0.228694 -0.123865 0.074952 0.168989 0.195328 0.142538 0.121141 -0.071887 0.097286 -0.012329 -0.069663 0.046169 -0.053745 -0.052290 0.065145 -0.119378 0.138349 0.045107 -0.007213 0.014055 -0.167694 0.021660 -0.106176 -0.032916 0.034344 0.104981 0.072707
2 0.024928 -0.122917 0.062577 -0.178579 0.046010 0.019727 0.096252 0.151761 -0.052144 0.076030 0.009493 0.212471 0.037455 0.005661 -0.066836 -0.175174 0.064774 -0.059896 0.082227 0.167021 0.071075 -0.037410 0.099249 0.124421 0.098222 0.020640 -0.316803 -0.001114 -0.016456 -0.039236 0.014289 -0.084740 -0.040446 -0.196767 -0.128315 -0.132169 0.188084 0.051212 0.007399 0.033132 -0.064263 0.202982 0.151166 -0.075242 -0.020832 0.230915 0.020019 -0.137459 0.045282 -0.045936 0.080110 -0.027637 0.058851 -0.118541 0.121872 -0.070269 0.131105 0.027456 -0.274240 0.013829 -0.120181 -0.066451 0.018461 0.076992 -0.077584 0.152975 -0.043559 -0.001047 0.018955 -0.067900 0.030881 0.095298 0.256557 -0.107752 0.213299 -0.149626 0.040417 -0.054600 0.081625 0.132868 0.126387 0.030369 -0.109626 -0.028683 -0.078581 0.006782 0.275703 0.218298 0.086630 0.223754 -0.045139 0.075899 -0.049539 0.071029 -0.211512 0.107366 -0.022309 -0.128691 0.193857 -0.008425 -0.142617 0.238150 -0.126705 0.073129 0.174851 0.206499 0.154600 0.137899 -0.082367 0.101854 -0.012275 -0.072877 0.053070 -0.060338 -0.057147 0.072344 -0.128681 0.155038 0.043788 -0.007724 0.008852 -0.191950 0.021893 -0.124611 -0.035505 0.037035 0.125549 0.079924
62 0.021553 -0.096147 0.043350 -0.145592 0.031755 0.017816 0.072615 0.117673 -0.033924 0.062788 0.009524 0.165076 0.031243 0.019402 -0.054264 -0.127585 0.050683 -0.046940 0.066245 0.135296 0.053737 -0.035099 0.072035 0.098518 0.083883 0.019508 -0.250917 -0.003026 -0.025040 -0.037252 0.007534 -0.063388 -0.021719 -0.164985 -0.097611 -0.101823 0.143761 0.043905 0.005639 0.034580 -0.058702 0.162709 0.108255 -0.068415 -0.010219 0.186244 0.012757 -0.100955 0.039566 -0.035639 0.055298 -0.013841 0.047456 -0.097066 0.112395 -0.057227 0.096405 0.017938 -0.210743 0.002428 -0.088286 -0.056821 0.012191 0.057999 -0.064974 0.120560 -0.035257 -0.005424 0.028246 -0.041648 0.016596 0.070905 0.210143 -0.081749 0.163249 -0.120166 0.022441 -0.044767 0.062263 0.109786 0.109882 0.031595 -0.080133 -0.022959 -0.072134 -0.001716 0.221502 0.176584 0.068782 0.178729 -0.031894 0.051699 -0.044441 0.064257 -0.160192 0.081254 -0.004453 -0.103081 0.158555 -0.011198 -0.112645 0.194220 -0.100373 0.067524 0.138931 0.168198 0.120727 0.097968 -0.060066 0.088987 -0.016745 -0.062267 0.041685 -0.040391 -0.036511 0.056101 -0.108777 0.114648 0.046273 -0.010418 0.008276 -0.140015 0.017756 -0.087310 -0.027984 0.025049 0.095430 0.056693
66 0.019459 -0.097747 0.047708 -0.140896 0.028664 0.014179 0.071726 0.112707 -0.033871 0.063663 0.005420 0.157510 0.032698 0.019236 -0.045767 -0.122613 0.048450 -0.043090 0.065079 0.132223 0.053991 -0.031953 0.070954 0.095182 0.080153 0.016161 -0.239227 -0.001004 -0.021409 -0.038275 0.012246 -0.059765 -0.020315 -0.156357 -0.096604 -0.097320 0.141125 0.043871 0.003604 0.032972 -0.054295 0.157561 0.110245 -0.064037 -0.010034 0.183482 0.010111 -0.102258 0.034247 -0.030417 0.053151 -0.012369 0.049284 -0.097023 0.104485 -0.055989 0.092888 0.016463 -0.205450 0.004330 -0.085195 -0.054732 0.015320 0.052063 -0.057541 0.109132 -0.037209 -0.003706 0.028318 -0.037982 0.022192 0.066893 0.196651 -0.081016 0.158793 -0.120773 0.022369 -0.041136 0.060282 0.105560 0.101426 0.030090 -0.081598 -0.020775 -0.065530 -0.003479 0.206540 0.167079 0.065837 0.175647 -0.030434 0.056236 -0.042310 0.062887 -0.151727 0.077819 -0.003951 -0.096514 0.152938 -0.015117 -0.102204 0.185607 -0.098255 0.063646 0.132652 0.159291 0.109475 0.094946 -0.057001 0.085155 -0.012601 -0.059126 0.040718 -0.044727 -0.034559 0.058465 -0.096334 0.115705 0.037832 -0.008566 0.006637 -0.134065 0.019455 -0.078190 -0.028328 0.024224 0.094226 0.057433
70 0.021397 -0.109967 0.048270 -0.153798 0.039297 0.015524 0.078294 0.124452 -0.036827 0.073622 0.001725 0.182338 0.029202 0.017599 -0.055116 -0.139497 0.055931 -0.053356 0.073779 0.145531 0.062773 -0.032936 0.080725 0.100066 0.085294 0.021563 -0.268544 -0.004734 -0.023991 -0.033309 0.013829 -0.063324 -0.028418 -0.176574 -0.100619 -0.114251 0.157712 0.048948 0.002510 0.034226 -0.057410 0.171738 0.116947 -0.070609 -0.017476 0.200859 0.014993 -0.108631 0.036301 -0.040378 0.064754 -0.016215 0.053231 -0.105081 0.116083 -0.057778 0.111140 0.021477 -0.231930 0.003917 -0.094916 -0.055834 0.010556 0.062673 -0.069078 0.128729 -0.038510 -0.003530 0.025362 -0.047868 0.023912 0.082791 0.218290 -0.095144 0.176836 -0.126527 0.028363 -0.042948 0.067742 0.111587 0.113601 0.027732 -0.085565 -0.019646 -0.070308 -0.001151 0.239407 0.182954 0.070436 0.195276 -0.036400 0.058215 -0.045062 0.068281 -0.171597 0.086760 -0.008168 -0.108968 0.168368 -0.018297 -0.123520 0.209131 -0.111010 0.069143 0.153244 0.177413 0.129581 0.110188 -0.068634 0.090536 -0.012837 -0.062723 0.039853 -0.046855 -0.041377 0.060774 -0.112590 0.125737 0.038551 -0.002440 0.014895 -0.158845 0.024616 -0.092702 -0.031319 0.025883 0.098657 0.062872
64 0.017620 -0.090897 0.046088 -0.133875 0.031491 0.018090 0.075977 0.111060 -0.032456 0.059335 0.006492 0.156659 0.029068 0.015769 -0.045088 -0.121529 0.045255 -0.047015 0.058125 0.125863 0.055061 -0.031167 0.069546 0.090062 0.077586 0.016684 -0.231853 -0.002294 -0.019921 -0.033679 0.007537 -0.061326 -0.016360 -0.158282 -0.093897 -0.101813 0.137600 0.041560 0.003920 0.029150 -0.048279 0.156139 0.105602 -0.067340 -0.012362 0.180780 0.016762 -0.100384 0.033769 -0.029336 0.055920 -0.014702 0.041939 -0.092993 0.107269 -0.053388 0.091234 0.013702 -0.198228 0.002463 -0.087847 -0.052819 0.010497 0.055362 -0.058814 0.113737 -0.036307 -0.004714 0.026461 -0.039800 0.022312 0.071283 0.195298 -0.082316 0.159591 -0.116520 0.021295 -0.036074 0.063710 0.099596 0.098044 0.029271 -0.075387 -0.022339 -0.063296 0.002237 0.208220 0.161569 0.063760 0.173133 -0.035145 0.052082 -0.036589 0.061945 -0.148123 0.077740 -0.004847 -0.095981 0.144375 -0.012236 -0.105172 0.183717 -0.096198 0.059060 0.132274 0.157820 0.115036 0.098271 -0.056973 0.079892 -0.010455 -0.059476 0.041295 -0.039280 -0.038416 0.053581 -0.100907 0.112904 0.040055 -0.005448 0.005768 -0.130193 0.015040 -0.075915 -0.024489 0.021931 0.089061 0.060665
21 0.022845 -0.119392 0.063642 -0.180696 0.032038 0.014205 0.088513 0.139592 -0.040660 0.093310 0.003699 0.214237 0.048325 0.006713 -0.066124 -0.163153 0.054369 -0.063878 0.094000 0.176702 0.081063 -0.047267 0.100214 0.135949 0.104063 0.036546 -0.312077 -0.009408 -0.028709 -0.036720 0.012989 -0.077049 -0.030624 -0.208078 -0.127387 -0.145656 0.184302 0.058626 0.003655 0.034256 -0.073743 0.209887 0.131342 -0.081748 -0.014498 0.244476 0.017525 -0.120538 0.054789 -0.049037 0.074496 -0.019334 0.059295 -0.139789 0.138757 -0.064131 0.126384 0.017796 -0.273521 0.000261 -0.111959 -0.074238 0.028195 0.088682 -0.068382 0.141650 -0.046630 -0.003665 0.024171 -0.054900 0.029565 0.091349 0.254708 -0.105736 0.215409 -0.148221 0.026569 -0.056865 0.085437 0.139791 0.129372 0.036368 -0.091224 -0.042932 -0.098292 -0.003020 0.271792 0.214773 0.086276 0.223364 -0.038193 0.074020 -0.048803 0.080411 -0.206208 0.103259 -0.013908 -0.119522 0.197424 -0.017549 -0.144941 0.241204 -0.130574 0.088681 0.181518 0.216198 0.143168 0.122223 -0.079700 0.106078 -0.006612 -0.073169 0.048300 -0.053877 -0.058508 0.075652 -0.137727 0.153286 0.049479 -0.000089 0.016856 -0.187846 0.024468 -0.127512 -0.026570 0.032807 0.112351 0.072429
22 0.030905 -0.125007 0.064129 -0.176658 0.030098 0.009486 0.086284 0.140136 -0.041235 0.093199 -0.001166 0.218944 0.056159 0.004741 -0.063927 -0.164515 0.045895 -0.067457 0.100656 0.184843 0.086677 -0.051026 0.109017 0.140856 0.101794 0.048936 -0.316362 -0.017980 -0.028594 -0.030191 0.009169 -0.077646 -0.033582 -0.212480 -0.127188 -0.152564 0.186607 0.052993 -0.003563 0.027909 -0.069514 0.202870 0.126884 -0.075650 -0.006579 0.252863 0.012410 -0.114256 0.057130 -0.053249 0.068375 -0.024113 0.051512 -0.145781 0.147327 -0.062295 0.129462 0.024608 -0.269731 -0.009919 -0.105649 -0.075737 0.035448 0.095195 -0.070926 0.141616 -0.051663 0.003435 0.028861 -0.044621 0.023177 0.098127 0.253627 -0.110310 0.220258 -0.144927 0.024789 -0.052337 0.088756 0.137840 0.128793 0.033965 -0.080760 -0.049239 -0.101756 -0.003703 0.277632 0.213881 0.085035 0.225823 -0.037262 0.072458 -0.045540 0.074050 -0.209641 0.107038 -0.011591 -0.118387 0.201064 -0.019973 -0.145692 0.244580 -0.130520 0.091010 0.180597 0.220215 0.139930 0.126538 -0.077755 0.110469 -0.005695 -0.076209 0.051750 -0.052691 -0.061184 0.071560 -0.138991 0.156889 0.044703 -0.002840 0.022011 -0.191312 0.027634 -0.132581 -0.025040 0.032177 0.107043 0.076233
69 0.017458 -0.106590 0.048630 -0.147548 0.034433 0.017546 0.081401 0.120178 -0.040036 0.069981 0.005121 0.182332 0.030040 0.018768 -0.052237 -0.135591 0.052311 -0.051236 0.075880 0.141497 0.061356 -0.030053 0.086058 0.099563 0.081767 0.022932 -0.269158 -0.005853 -0.028770 -0.033527 0.007853 -0.061577 -0.028232 -0.172121 -0.096656 -0.114287 0.155459 0.048682 -0.000238 0.033770 -0.055535 0.174289 0.123676 -0.074209 -0.014333 0.203554 0.018833 -0.112707 0.043880 -0.040439 0.058493 -0.019391 0.046000 -0.107677 0.108548 -0.057405 0.112282 0.016865 -0.229513 0.001737 -0.093830 -0.054493 0.013133 0.061983 -0.062488 0.125328 -0.043726 -0.003848 0.019699 -0.052633 0.026694 0.080019 0.215569 -0.093951 0.182102 -0.125203 0.028619 -0.048459 0.069046 0.111798 0.114587 0.035141 -0.079795 -0.019763 -0.076973 -0.001444 0.231160 0.186894 0.069929 0.192512 -0.042154 0.056162 -0.042349 0.065887 -0.172491 0.088517 -0.011773 -0.107821 0.165831 -0.018662 -0.119318 0.207637 -0.112061 0.068946 0.156098 0.177679 0.125025 0.105847 -0.066418 0.087066 -0.008562 -0.063021 0.038573 -0.045416 -0.045136 0.062016 -0.108678 0.125379 0.037191 -0.003516 0.012837 -0.152105 0.024693 -0.090183 -0.024630 0.025067 0.101194 0.066859
4 0.020328 -0.112893 0.059493 -0.167421 0.048187 0.015591 0.087717 0.146376 -0.045341 0.070468 0.012545 0.201641 0.036790 0.007010 -0.065103 -0.165907 0.064056 -0.062437 0.079219 0.161202 0.069363 -0.037044 0.089562 0.118065 0.098608 0.021230 -0.302788 0.001465 -0.015777 -0.040290 0.009309 -0.082433 -0.036324 -0.193244 -0.120419 -0.128925 0.181145 0.053797 0.006870 0.034298 -0.060885 0.188575 0.146277 -0.067646 -0.016448 0.218301 0.021680 -0.133455 0.038748 -0.044606 0.078626 -0.025668 0.054948 -0.114335 0.118233 -0.065893 0.124847 0.024026 -0.257381 0.008054 -0.108355 -0.067219 0.019014 0.075667 -0.070790 0.146574 -0.046001 0.002917 0.021352 -0.065319 0.031986 0.093008 0.243957 -0.106879 0.205433 -0.146328 0.041983 -0.048063 0.075650 0.131027 0.123611 0.026895 -0.102237 -0.026074 -0.075578 0.002939 0.269523 0.206009 0.082398 0.217168 -0.047857 0.067872 -0.050914 0.070472 -0.200215 0.101867 -0.022180 -0.123467 0.186559 -0.009578 -0.141160 0.232162 -0.118422 0.075828 0.163501 0.202223 0.143011 0.129291 -0.078098 0.096365 -0.005479 -0.071708 0.048939 -0.054984 -0.052684 0.072338 -0.124367 0.147671 0.044224 -0.005826 0.012007 -0.180662 0.016270 -0.119172 -0.039178 0.034945 0.119301 0.078606
18 0.027506 -0.122900 0.059764 -0.178133 0.036747 0.014040 0.085910 0.144511 -0.038652 0.093733 0.002595 0.216636 0.051504 0.010099 -0.064366 -0.166680 0.052384 -0.062303 0.088790 0.180046 0.082527 -0.047873 0.105725 0.134055 0.107046 0.041371 -0.313042 -0.010282 -0.026801 -0.036139 0.009881 -0.073474 -0.028737 -0.207231 -0.122294 -0.144917 0.183945 0.054578 0.001671 0.035946 -0.072325 0.209661 0.130350 -0.081343 -0.011677 0.246155 0.013202 -0.120863 0.054234 -0.050349 0.070341 -0.024528 0.059979 -0.134076 0.139824 -0.061769 0.126690 0.017066 -0.271127 -0.004134 -0.107665 -0.078151 0.028179 0.085090 -0.068543 0.143674 -0.046017 -0.002081 0.029636 -0.046623 0.023149 0.095065 0.256588 -0.111024 0.217203 -0.145628 0.031855 -0.051185 0.085274 0.137238 0.127591 0.038112 -0.087308 -0.042813 -0.098455 0.000254 0.276799 0.216276 0.080201 0.229245 -0.040937 0.069706 -0.043447 0.073218 -0.209401 0.106498 -0.013183 -0.118661 0.198537 -0.019523 -0.144726 0.245034 -0.129895 0.087102 0.177999 0.214761 0.140152 0.121670 -0.078960 0.105288 -0.012501 -0.078697 0.046486 -0.057350 -0.056014 0.069201 -0.133972 0.150373 0.051383 -0.004790 0.016597 -0.189224 0.023899 -0.125083 -0.026511 0.027906 0.106433 0.073522
3 0.017299 -0.115272 0.063862 -0.167133 0.045011 0.018228 0.092128 0.141172 -0.049518 0.071586 0.010560 0.196435 0.030628 0.004539 -0.064563 -0.165454 0.065943 -0.061816 0.077327 0.156035 0.063630 -0.034586 0.091114 0.122321 0.099533 0.019475 -0.297660 0.001229 -0.015043 -0.034931 0.009264 -0.081477 -0.037937 -0.187093 -0.119244 -0.130364 0.178519 0.053592 0.006574 0.034608 -0.061384 0.186775 0.142910 -0.067803 -0.019633 0.219361 0.023895 -0.131662 0.037821 -0.039038 0.078295 -0.024030 0.050249 -0.115042 0.117795 -0.068787 0.119693 0.023708 -0.259326 0.013207 -0.114927 -0.063422 0.016863 0.078695 -0.072393 0.138897 -0.037565 0.003965 0.022346 -0.065124 0.032669 0.091575 0.237249 -0.098847 0.204497 -0.146260 0.040227 -0.050788 0.080015 0.126353 0.121314 0.033611 -0.100939 -0.030062 -0.075430 0.004987 0.261896 0.208577 0.076795 0.213923 -0.045928 0.070426 -0.048265 0.072176 -0.199690 0.103041 -0.022397 -0.116722 0.188639 -0.009853 -0.140148 0.229864 -0.124816 0.071374 0.167959 0.203228 0.142327 0.126983 -0.072459 0.094664 -0.006201 -0.070796 0.048953 -0.055546 -0.051065 0.070950 -0.123872 0.147078 0.047133 -0.005764 0.008214 -0.183296 0.018664 -0.114482 -0.037576 0.034185 0.116230 0.077338
19 0.030145 -0.129824 0.069155 -0.186090 0.035728 0.016837 0.092222 0.144863 -0.041211 0.093196 0.000983 0.223878 0.047406 0.012627 -0.068363 -0.168087 0.053777 -0.069266 0.097366 0.185404 0.081780 -0.051385 0.105257 0.139000 0.107616 0.041411 -0.326188 -0.010196 -0.031272 -0.040680 0.011009 -0.077568 -0.029736 -0.220969 -0.129319 -0.147641 0.187947 0.058859 0.003522 0.035627 -0.073592 0.212458 0.139717 -0.084150 -0.008404 0.253363 0.019913 -0.129744 0.052571 -0.048221 0.073014 -0.022860 0.055575 -0.143563 0.148546 -0.065554 0.127694 0.023558 -0.276391 -0.003865 -0.114788 -0.078649 0.031122 0.090249 -0.075399 0.145454 -0.044877 -0.001442 0.025370 -0.055435 0.027631 0.097873 0.263985 -0.110228 0.219244 -0.157902 0.032383 -0.053043 0.083093 0.138913 0.135033 0.037910 -0.093432 -0.042914 -0.099907 -0.001703 0.287094 0.227114 0.083411 0.233861 -0.044039 0.077928 -0.044902 0.082036 -0.214670 0.110909 -0.012586 -0.125931 0.204679 -0.020746 -0.145658 0.253120 -0.137517 0.085494 0.183232 0.222098 0.148510 0.131005 -0.082161 0.111224 -0.013302 -0.079129 0.052523 -0.059943 -0.055065 0.077238 -0.134408 0.161569 0.047408 -0.001322 0.016769 -0.194572 0.023787 -0.129078 -0.034169 0.033838 0.110671 0.076101
23 0.026121 -0.118806 0.059269 -0.173312 0.034437 0.018340 0.088283 0.143236 -0.039505 0.086302 0.002708 0.209839 0.046556 0.008655 -0.066560 -0.158891 0.054040 -0.059340 0.090792 0.175893 0.074216 -0.046993 0.096140 0.132874 0.103325 0.034823 -0.311373 -0.011999 -0.031136 -0.035219 0.009619 -0.074775 -0.029692 -0.205899 -0.125385 -0.141556 0.183492 0.051482 -0.001793 0.032443 -0.070529 0.202317 0.135388 -0.076799 -0.008358 0.236488 0.015470 -0.118032 0.048344 -0.047200 0.071408 -0.021793 0.058632 -0.137665 0.136855 -0.067649 0.121547 0.020191 -0.265145 -0.004841 -0.108603 -0.074410 0.028953 0.084355 -0.068725 0.140628 -0.042769 0.003516 0.027637 -0.047579 0.025542 0.093529 0.254094 -0.104213 0.205886 -0.146663 0.031011 -0.051192 0.085178 0.136488 0.132161 0.032642 -0.086771 -0.038367 -0.093092 0.001329 0.267672 0.215801 0.078863 0.222188 -0.040038 0.072364 -0.049146 0.075897 -0.205181 0.100661 -0.011229 -0.121261 0.191715 -0.012626 -0.141510 0.236641 -0.124620 0.079640 0.173363 0.206793 0.138304 0.123401 -0.075660 0.108269 -0.014404 -0.077688 0.047629 -0.058234 -0.056012 0.069783 -0.133428 0.152144 0.047791 -0.003947 0.017748 -0.180320 0.021932 -0.121737 -0.027389 0.028779 0.108252 0.074865
50 0.013828 -0.108313 0.046144 -0.146914 0.035791 0.014758 0.085362 0.123024 -0.038720 0.071272 0.004065 0.177106 0.032635 0.014148 -0.057097 -0.138779 0.058925 -0.049121 0.071169 0.141504 0.058202 -0.032306 0.079992 0.103910 0.086475 0.022441 -0.265241 0.002225 -0.025363 -0.037610 0.009565 -0.066896 -0.028939 -0.177380 -0.095069 -0.108799 0.151218 0.050071 0.002586 0.030241 -0.053083 0.177781 0.119807 -0.072563 -0.012208 0.195684 0.018698 -0.112803 0.039816 -0.038382 0.057204 -0.015970 0.051740 -0.108761 0.109960 -0.065190 0.108399 0.020888 -0.225779 0.001886 -0.094499 -0.061015 0.012655 0.057994 -0.065863 0.120471 -0.041384 -0.002318 0.024533 -0.046098 0.022277 0.081966 0.213559 -0.089302 0.170821 -0.126954 0.025560 -0.042362 0.069354 0.113694 0.106150 0.034634 -0.084816 -0.020360 -0.072261 -0.001946 0.233529 0.184507 0.066848 0.197938 -0.043594 0.056285 -0.042534 0.063547 -0.172193 0.085724 -0.006356 -0.109546 0.166274 -0.012133 -0.122571 0.210557 -0.106444 0.067829 0.152745 0.174478 0.133983 0.104115 -0.070320 0.092874 -0.007440 -0.067165 0.041869 -0.043151 -0.044560 0.062804 -0.114218 0.128721 0.045078 -0.001993 0.016831 -0.151250 0.017522 -0.095565 -0.030626 0.022630 0.096244 0.069232
71 0.021881 -0.103855 0.048846 -0.149134 0.034589 0.015273 0.074174 0.115856 -0.034440 0.071447 0.002926 0.178470 0.033682 0.015682 -0.048886 -0.139536 0.053612 -0.050410 0.072169 0.141618 0.058023 -0.031165 0.078009 0.103673 0.079764 0.017997 -0.257418 -0.002861 -0.023915 -0.033805 0.010083 -0.064184 -0.023587 -0.172812 -0.099711 -0.108401 0.148323 0.042179 0.006288 0.027929 -0.057040 0.169595 0.117064 -0.071345 -0.010578 0.199424 0.014466 -0.110741 0.038053 -0.035256 0.058103 -0.017204 0.046430 -0.109806 0.109567 -0.060931 0.105829 0.017395 -0.223359 0.000181 -0.090780 -0.058779 0.012198 0.065265 -0.065921 0.126115 -0.037711 -0.004962 0.019763 -0.050146 0.024962 0.081963 0.208303 -0.089107 0.175797 -0.124979 0.023065 -0.046588 0.063752 0.107641 0.112611 0.028719 -0.080491 -0.024320 -0.072311 0.003411 0.230627 0.182200 0.067089 0.192014 -0.040437 0.056355 -0.042771 0.066851 -0.165198 0.088696 -0.010689 -0.106106 0.164938 -0.016141 -0.118295 0.199847 -0.111414 0.068009 0.148477 0.171786 0.122401 0.108480 -0.061603 0.086781 -0.008450 -0.066694 0.037369 -0.047715 -0.043090 0.060248 -0.104742 0.126701 0.039687 -0.003136 0.009807 -0.150720 0.017622 -0.090430 -0.026203 0.026461 0.093741 0.063001
52 0.015484 -0.111299 0.056127 -0.164133 0.036918 0.016297 0.090452 0.129488 -0.041384 0.070453 0.006046 0.190598 0.032035 0.018247 -0.063781 -0.153204 0.059251 -0.051542 0.071841 0.150767 0.067464 -0.036239 0.084469 0.107834 0.086487 0.025862 -0.284236 0.001648 -0.023278 -0.041002 0.014334 -0.069253 -0.024249 -0.185567 -0.103911 -0.118418 0.163043 0.050113 0.004431 0.030982 -0.059118 0.190353 0.127848 -0.072812 -0.014309 0.212104 0.020260 -0.115194 0.039643 -0.042128 0.065056 -0.021729 0.055086 -0.116680 0.125373 -0.062751 0.117109 0.016598 -0.243989 -0.000041 -0.104561 -0.058195 0.012334 0.064342 -0.074940 0.134448 -0.038954 0.003167 0.023142 -0.048853 0.024676 0.087375 0.230962 -0.096082 0.188482 -0.139809 0.026878 -0.049519 0.073131 0.120453 0.121339 0.030355 -0.090354 -0.024606 -0.073222 -0.001157 0.255020 0.201415 0.070968 0.213069 -0.040510 0.061196 -0.046297 0.066535 -0.183585 0.088772 -0.010137 -0.111590 0.172151 -0.010641 -0.124117 0.224903 -0.113641 0.073467 0.166203 0.189322 0.141600 0.117351 -0.076461 0.101834 -0.011750 -0.070792 0.047023 -0.052484 -0.048356 0.064487 -0.122140 0.137521 0.043037 -0.007168 0.012769 -0.166964 0.017058 -0.098819 -0.028422 0.028096 0.104475 0.069164
17 0.024932 -0.121749 0.062598 -0.171225 0.031093 0.012150 0.090919 0.141408 -0.036830 0.091023 0.004576 0.213653 0.048813 0.013414 -0.065988 -0.157585 0.052803 -0.066772 0.087550 0.174861 0.077131 -0.049952 0.102349 0.128144 0.105037 0.039585 -0.308985 -0.009533 -0.026572 -0.033163 0.010818 -0.074009 -0.027173 -0.206511 -0.122903 -0.143352 0.183934 0.055219 -0.000174 0.034064 -0.070676 0.198189 0.129490 -0.075635 -0.012755 0.237315 0.018089 -0.116643 0.049975 -0.045662 0.067765 -0.022703 0.055880 -0.138158 0.139715 -0.065379 0.120304 0.024256 -0.261540 -0.006726 -0.106496 -0.073985 0.028876 0.082020 -0.070351 0.142913 -0.046468 -0.000537 0.027198 -0.047446 0.022727 0.092712 0.249524 -0.107949 0.211983 -0.141676 0.025469 -0.054834 0.083210 0.131590 0.130182 0.035373 -0.084784 -0.035047 -0.096952 -0.001355 0.272565 0.210858 0.084702 0.221169 -0.043519 0.070551 -0.046856 0.078560 -0.202882 0.101843 -0.007227 -0.117441 0.195292 -0.014124 -0.138737 0.237520 -0.129590 0.085642 0.174369 0.208576 0.141763 0.120804 -0.078698 0.109605 -0.010344 -0.073838 0.052219 -0.052360 -0.055210 0.070020 -0.132614 0.153687 0.046856 -0.007275 0.019879 -0.179379 0.026562 -0.117799 -0.031858 0.029495 0.107120 0.077587
20 0.025475 -0.122965 0.062199 -0.173961 0.032121 0.011312 0.091991 0.142014 -0.043838 0.086777 0.001073 0.208630 0.051057 0.009605 -0.066228 -0.162090 0.050508 -0.062069 0.088949 0.170885 0.079745 -0.048004 0.102493 0.131962 0.103962 0.039889 -0.305400 -0.010887 -0.026961 -0.039632 0.007226 -0.076452 -0.029346 -0.207599 -0.120197 -0.139357 0.186703 0.051232 -0.001672 0.028445 -0.073651 0.200665 0.130011 -0.078125 -0.009589 0.239522 0.019968 -0.120099 0.051919 -0.050635 0.067064 -0.020560 0.058153 -0.138268 0.137540 -0.063775 0.124495 0.017062 -0.269322 -0.000606 -0.104305 -0.072021 0.028767 0.085492 -0.071971 0.140224 -0.046025 0.002307 0.023305 -0.047629 0.023389 0.095120 0.248227 -0.106619 0.210437 -0.144027 0.030238 -0.053356 0.083947 0.138129 0.129950 0.031471 -0.089362 -0.042250 -0.091180 0.002509 0.268049 0.215382 0.079696 0.224880 -0.038614 0.072017 -0.045803 0.074641 -0.201770 0.102924 -0.009186 -0.120477 0.191194 -0.013181 -0.143937 0.236313 -0.131418 0.087369 0.174238 0.213962 0.141180 0.124460 -0.074470 0.109873 -0.012075 -0.072924 0.049664 -0.052952 -0.058153 0.069024 -0.128989 0.153257 0.048170 -0.002668 0.016450 -0.180703 0.024261 -0.124554 -0.027665 0.033891 0.105356 0.075934
77 0.035883 -0.159342 0.079372 -0.208967 0.036068 0.023873 0.104164 0.173550 -0.060210 0.109630 0.014836 0.241825 0.042780 0.027683 -0.063674 -0.183719 0.081916 -0.059670 0.109493 0.204744 0.067758 -0.043993 0.114258 0.140869 0.120591 0.032540 -0.366758 -0.009592 -0.028301 -0.058407 0.011107 -0.095914 -0.026212 -0.236403 -0.146556 -0.157213 0.213361 0.070982 -0.000195 0.036883 -0.089308 0.242456 0.169963 -0.103005 -0.010607 0.271187 0.010964 -0.144826 0.064051 -0.050108 0.075814 -0.021752 0.070749 -0.163777 0.161721 -0.086950 0.147196 0.021071 -0.317387 0.012213 -0.138245 -0.085648 0.026293 0.094121 -0.087320 0.179086 -0.047758 0.003962 0.032411 -0.056493 0.014863 0.112187 0.305716 -0.110949 0.250105 -0.179894 0.025244 -0.061250 0.086875 0.164486 0.154176 0.045288 -0.113544 -0.038373 -0.093808 -0.013791 0.304479 0.267748 0.100017 0.281686 -0.052113 0.085252 -0.050359 0.088142 -0.222733 0.127032 -0.014393 -0.141929 0.229123 -0.035492 -0.166181 0.272345 -0.150212 0.099468 0.211635 0.252625 0.163925 0.156685 -0.097822 0.129526 -0.021442 -0.088964 0.056232 -0.063928 -0.047332 0.084741 -0.148652 0.173126 0.052673 -0.012425 0.015608 -0.206658 0.030065 -0.124133 -0.040428 0.036409 0.134995 0.094730
42 0.016319 -0.103230 0.050237 -0.155550 0.040640 0.015325 0.081048 0.124452 -0.036203 0.074677 0.007017 0.180649 0.029432 0.019987 -0.051561 -0.142073 0.052599 -0.055506 0.075746 0.143844 0.062874 -0.036447 0.084584 0.107507 0.088538 0.019528 -0.271944 0.000417 -0.026065 -0.032696 0.011497 -0.064249 -0.024413 -0.177205 -0.099881 -0.114575 0.156786 0.042975 0.001157 0.027714 -0.059492 0.176722 0.121169 -0.070441 -0.009835 0.205197 0.018552 -0.109663 0.039230 -0.036532 0.063942 -0.019494 0.050446 -0.107952 0.112474 -0.060330 0.113453 0.019291 -0.233405 -0.000739 -0.095487 -0.055747 0.011977 0.064465 -0.063039 0.127834 -0.042067 -0.001750 0.022742 -0.048735 0.025203 0.080562 0.219998 -0.091987 0.181135 -0.129829 0.024515 -0.040871 0.064980 0.118323 0.110523 0.033627 -0.087480 -0.020536 -0.074293 0.002274 0.241005 0.182675 0.068838 0.197256 -0.038232 0.060484 -0.046470 0.063481 -0.176019 0.086107 -0.010994 -0.111476 0.170836 -0.017074 -0.120144 0.207889 -0.114594 0.065242 0.155641 0.174722 0.133279 0.111822 -0.066436 0.092902 -0.006437 -0.065305 0.042426 -0.045486 -0.048760 0.063674 -0.112544 0.127390 0.042854 -0.005530 0.013031 -0.155474 0.019808 -0.093147 -0.029531 0.024674 0.101217 0.069050
61 0.013936 -0.091610 0.043934 -0.134728 0.029833 0.014993 0.070248 0.105010 -0.029795 0.058567 0.003724 0.150993 0.026484 0.015898 -0.048805 -0.120991 0.048379 -0.042812 0.057100 0.121936 0.049512 -0.034761 0.067467 0.086080 0.079019 0.013992 -0.230056 -0.001415 -0.020222 -0.037192 0.008262 -0.059740 -0.022659 -0.154943 -0.089514 -0.094969 0.136297 0.036746 0.005571 0.026718 -0.048109 0.149374 0.105937 -0.062483 -0.011400 0.174753 0.010760 -0.093859 0.037885 -0.029693 0.054538 -0.013761 0.048036 -0.092166 0.096738 -0.047100 0.089824 0.014386 -0.197711 -0.002732 -0.086590 -0.055648 0.016339 0.056043 -0.057111 0.108059 -0.034061 -0.007887 0.027183 -0.037902 0.016399 0.069459 0.190633 -0.077872 0.155235 -0.109512 0.019995 -0.038010 0.060519 0.099804 0.101542 0.027525 -0.078211 -0.022634 -0.066114 -0.001576 0.206021 0.155421 0.063457 0.169810 -0.033583 0.053481 -0.038170 0.054495 -0.146182 0.076340 -0.003554 -0.095637 0.142519 -0.012286 -0.102237 0.178529 -0.089499 0.063096 0.127825 0.148656 0.106388 0.092064 -0.058337 0.078656 -0.013499 -0.055147 0.041408 -0.040542 -0.041336 0.055814 -0.100295 0.110718 0.036315 -0.005732 0.007181 -0.126642 0.015356 -0.077948 -0.021511 0.027510 0.084504 0.057712
72 0.019498 -0.105152 0.048402 -0.148117 0.034939 0.019347 0.074400 0.114624 -0.037189 0.068468 0.006222 0.175149 0.027420 0.012403 -0.050731 -0.130107 0.055060 -0.045620 0.067454 0.136404 0.055742 -0.031810 0.077554 0.096401 0.082122 0.023235 -0.253892 -0.002071 -0.025615 -0.037328 0.008581 -0.064065 -0.023742 -0.170916 -0.096305 -0.110179 0.148798 0.042562 0.000695 0.026927 -0.053206 0.171773 0.113863 -0.070717 -0.011733 0.190578 0.014669 -0.105356 0.038679 -0.039867 0.055578 -0.012785 0.049369 -0.104015 0.107335 -0.058574 0.100783 0.019838 -0.217165 0.002975 -0.095712 -0.059530 0.011820 0.062289 -0.059017 0.120081 -0.034851 -0.006016 0.020030 -0.049768 0.018958 0.079965 0.210431 -0.087251 0.173781 -0.124129 0.024120 -0.044547 0.068421 0.110338 0.108506 0.029132 -0.082492 -0.023894 -0.073315 0.001576 0.229567 0.175436 0.070947 0.189044 -0.036720 0.058012 -0.042870 0.061084 -0.162074 0.083620 -0.010341 -0.105562 0.159563 -0.012951 -0.114335 0.200022 -0.108026 0.066390 0.148838 0.172669 0.119502 0.105777 -0.066843 0.086418 -0.006874 -0.063176 0.042164 -0.048305 -0.039130 0.056270 -0.105140 0.122904 0.040902 -0.008056 0.011332 -0.150959 0.020453 -0.088645 -0.026070 0.029005 0.090391 0.064265
35 0.022178 -0.140300 0.064678 -0.196522 0.043582 0.021837 0.106237 0.154402 -0.051109 0.096349 0.004283 0.234725 0.039740 0.019788 -0.073554 -0.182945 0.070001 -0.063239 0.093526 0.188410 0.083462 -0.043673 0.108808 0.142634 0.112896 0.031874 -0.339270 -0.002691 -0.035547 -0.047267 0.015840 -0.090244 -0.034307 -0.235527 -0.128020 -0.147410 0.202444 0.057427 0.005889 0.031045 -0.077597 0.229180 0.164391 -0.090100 -0.016989 0.257476 0.022954 -0.141433 0.051794 -0.050562 0.078068 -0.024691 0.063292 -0.147527 0.156066 -0.080163 0.141508 0.022249 -0.297992 0.002705 -0.130503 -0.081921 0.023967 0.082309 -0.090495 0.158024 -0.052736 0.004327 0.032707 -0.061577 0.029908 0.105727 0.280508 -0.118870 0.229089 -0.172147 0.038546 -0.051157 0.087922 0.149431 0.139739 0.034018 -0.106733 -0.038323 -0.092760 0.002199 0.313380 0.242008 0.087672 0.261701 -0.047960 0.068419 -0.056514 0.084832 -0.225524 0.108636 -0.015362 -0.132598 0.213532 -0.012593 -0.150256 0.271197 -0.145729 0.082219 0.203323 0.230826 0.166521 0.147887 -0.086832 0.124589 -0.012322 -0.086562 0.053595 -0.066357 -0.061694 0.078242 -0.144498 0.164233 0.051451 -0.003695 0.020275 -0.204956 0.029732 -0.121126 -0.033281 0.038965 0.122964 0.088590
36 0.028060 -0.143087 0.069845 -0.200948 0.048139 0.017804 0.110441 0.161929 -0.048799 0.097083 0.002664 0.232965 0.038783 0.020565 -0.071459 -0.183864 0.067765 -0.070727 0.091145 0.183868 0.080575 -0.039676 0.111894 0.143121 0.112907 0.025858 -0.343338 -0.008189 -0.035194 -0.048865 0.017847 -0.094178 -0.033349 -0.237561 -0.133891 -0.149006 0.203961 0.059668 0.000980 0.030765 -0.072601 0.229927 0.166811 -0.089253 -0.015657 0.262115 0.028089 -0.143301 0.054765 -0.046047 0.080665 -0.021234 0.065301 -0.146911 0.154993 -0.074116 0.139677 0.023660 -0.302010 0.007770 -0.130296 -0.083256 0.023746 0.084264 -0.090684 0.164944 -0.052415 0.001922 0.033971 -0.067248 0.029610 0.102925 0.284899 -0.121377 0.229658 -0.173181 0.041355 -0.055612 0.091877 0.147782 0.142891 0.037716 -0.107403 -0.036736 -0.095128 0.000424 0.316084 0.249237 0.096273 0.264079 -0.051685 0.068257 -0.054680 0.091228 -0.221349 0.115586 -0.014151 -0.133826 0.210609 -0.011124 -0.156359 0.275713 -0.139598 0.089021 0.205285 0.238143 0.168854 0.145581 -0.089689 0.124611 -0.014718 -0.084293 0.049555 -0.068873 -0.064622 0.073538 -0.148555 0.164844 0.055300 -0.001650 0.017305 -0.205567 0.031185 -0.120058 -0.035482 0.037081 0.124783 0.089196
254 0.029660 -0.137771 0.070399 -0.181631 0.028178 0.018995 0.091879 0.145535 -0.050485 0.096545 0.018480 0.204482 0.038140 0.022795 -0.052999 -0.151670 0.069108 -0.048377 0.092734 0.171330 0.055456 -0.039245 0.099773 0.117487 0.103654 0.024540 -0.313829 -0.012218 -0.018446 -0.054309 0.009983 -0.079827 -0.016360 -0.207096 -0.125299 -0.127844 0.174162 0.062132 0.003286 0.033431 -0.080136 0.205145 0.140924 -0.090407 -0.004357 0.234454 0.007445 -0.128022 0.057047 -0.037194 0.067185 -0.021326 0.063770 -0.139019 0.141337 -0.075622 0.118427 0.011469 -0.269368 0.012205 -0.122634 -0.070898 0.023730 0.075345 -0.069542 0.153676 -0.036284 -0.001892 0.032858 -0.047191 0.011153 0.094607 0.260301 -0.091716 0.209496 -0.152786 0.023954 -0.048576 0.078728 0.139161 0.126757 0.041939 -0.092245 -0.036363 -0.083565 -0.013240 0.259886 0.230359 0.088527 0.241304 -0.045818 0.073952 -0.037562 0.074543 -0.193720 0.109986 -0.017508 -0.119655 0.199582 -0.033895 -0.142739 0.234644 -0.130934 0.080048 0.179226 0.214017 0.142460 0.131383 -0.079419 0.115369 -0.023136 -0.077473 0.052843 -0.060225 -0.035676 0.068225 -0.123059 0.149909 0.046217 -0.009946 0.017662 -0.181259 0.025921 -0.112033 -0.036944 0.024601 0.117353 0.078876
67 0.013893 -0.079788 0.042183 -0.119162 0.031524 0.014411 0.063743 0.091314 -0.025710 0.055925 0.008825 0.135557 0.022664 0.010107 -0.039519 -0.112947 0.043242 -0.042763 0.053008 0.110119 0.043702 -0.032459 0.062962 0.077982 0.071418 0.018990 -0.204790 -0.003617 -0.015498 -0.034583 0.004236 -0.054420 -0.020005 -0.141102 -0.081483 -0.087235 0.119810 0.036714 0.005807 0.024616 -0.046008 0.141296 0.098025 -0.051943 -0.009995 0.156634 0.013332 -0.084791 0.035310 -0.029242 0.047566 -0.011535 0.038981 -0.086188 0.089313 -0.045636 0.086327 0.016464 -0.180710 0.003724 -0.073774 -0.047376 0.012425 0.051878 -0.055437 0.097740 -0.027655 -0.003498 0.023019 -0.035337 0.021337 0.064431 0.174377 -0.069134 0.139546 -0.103543 0.018356 -0.032605 0.057977 0.091976 0.087683 0.024285 -0.070492 -0.016217 -0.061243 -0.000578 0.180227 0.143404 0.058884 0.148718 -0.028001 0.049098 -0.035523 0.050484 -0.131678 0.063964 -0.005714 -0.085475 0.127757 -0.012971 -0.090333 0.162606 -0.082348 0.054371 0.114768 0.134994 0.101384 0.088378 -0.052169 0.068302 -0.014025 -0.048404 0.031943 -0.033051 -0.035324 0.051423 -0.090702 0.095836 0.036704 -0.007598 0.004458 -0.119847 0.014739 -0.069841 -0.022264 0.024270 0.081710 0.053942
58 0.016245 -0.089774 0.041739 -0.135134 0.028959 0.019160 0.070760 0.107138 -0.031957 0.060915 0.008035 0.151399 0.031160 0.019727 -0.046881 -0.123748 0.044123 -0.043736 0.059051 0.120074 0.048351 -0.036132 0.066868 0.086202 0.079208 0.014181 -0.232239 -0.003242 -0.019992 -0.030314 0.009298 -0.058322 -0.017686 -0.151100 -0.087756 -0.094623 0.132603 0.043297 -0.000085 0.029512 -0.052290 0.147267 0.101507 -0.063852 -0.013142 0.173131 0.016361 -0.093421 0.035304 -0.034406 0.053046 -0.016701 0.047671 -0.090699 0.099024 -0.047331 0.091049 0.012555 -0.191933 0.002833 -0.080429 -0.053698 0.012777 0.050960 -0.056705 0.107307 -0.030050 -0.006297 0.026602 -0.035614 0.018080 0.063160 0.189618 -0.081185 0.152279 -0.115780 0.017293 -0.039674 0.060147 0.096524 0.095698 0.024937 -0.075764 -0.018559 -0.059819 0.001019 0.205701 0.154749 0.058013 0.164784 -0.035337 0.049345 -0.039710 0.060630 -0.148229 0.074529 -0.010620 -0.097722 0.146162 -0.012211 -0.100695 0.176879 -0.088953 0.063469 0.123328 0.152965 0.105878 0.096327 -0.056051 0.078614 -0.013285 -0.058876 0.039358 -0.042387 -0.042065 0.051953 -0.098781 0.107617 0.035351 -0.005460 0.010849 -0.126755 0.013825 -0.076518 -0.024531 0.024296 0.087734 0.058553
29 0.019063 -0.117920 0.055281 -0.169347 0.042999 0.016321 0.089069 0.133005 -0.043275 0.078269 0.008694 0.201784 0.032889 0.013476 -0.061278 -0.159603 0.056482 -0.061280 0.080901 0.157997 0.069377 -0.039399 0.087438 0.115671 0.091737 0.022126 -0.295119 -0.004728 -0.021675 -0.038452 0.014508 -0.075939 -0.027059 -0.194439 -0.116332 -0.124666 0.176226 0.053486 0.005847 0.028065 -0.060303 0.195910 0.131916 -0.079227 -0.013156 0.225126 0.017316 -0.123308 0.041399 -0.041103 0.067528 -0.020291 0.052635 -0.119435 0.121655 -0.062341 0.123528 0.023127 -0.251915 0.005772 -0.107557 -0.069349 0.015279 0.071899 -0.076705 0.136362 -0.046696 -0.002053 0.028351 -0.051380 0.023324 0.089876 0.235069 -0.098597 0.199113 -0.139346 0.034168 -0.048961 0.077131 0.127001 0.118743 0.035200 -0.092338 -0.030724 -0.079298 0.001619 0.263425 0.202212 0.077959 0.212314 -0.042177 0.061751 -0.047662 0.072854 -0.186377 0.100093 -0.015485 -0.114714 0.182961 -0.017566 -0.135972 0.231488 -0.121690 0.075353 0.169054 0.198000 0.139303 0.119196 -0.074179 0.101734 -0.009189 -0.070586 0.043264 -0.055303 -0.053280 0.063180 -0.125738 0.137437 0.049313 -0.006796 0.011106 -0.174670 0.018902 -0.109109 -0.028473 0.033165 0.108114 0.069748
76 0.013761 -0.097415 0.042932 -0.136022 0.036436 0.011089 0.074907 0.110332 -0.032719 0.064138 0.004283 0.165287 0.028811 0.011496 -0.044226 -0.128144 0.052979 -0.047162 0.069249 0.132891 0.051590 -0.034232 0.072859 0.090035 0.078850 0.018153 -0.245846 -0.004613 -0.023346 -0.036399 0.013434 -0.058804 -0.022205 -0.156904 -0.088797 -0.099241 0.137147 0.038378 0.005442 0.027390 -0.056973 0.155778 0.111727 -0.064942 -0.012432 0.182663 0.014754 -0.099785 0.036715 -0.032321 0.056022 -0.017137 0.046067 -0.099536 0.103231 -0.054187 0.101504 0.019464 -0.205196 0.004315 -0.090323 -0.049746 0.009197 0.055398 -0.059310 0.114910 -0.039095 -0.004536 0.020061 -0.042841 0.024909 0.071286 0.200072 -0.084522 0.166379 -0.114082 0.020813 -0.039164 0.059383 0.101970 0.103619 0.031786 -0.079682 -0.020757 -0.064332 0.001495 0.215182 0.166883 0.063985 0.173832 -0.037865 0.056400 -0.040124 0.060504 -0.157129 0.077232 -0.009677 -0.098149 0.153243 -0.015701 -0.106184 0.184626 -0.100681 0.058820 0.140197 0.164485 0.119224 0.103037 -0.056651 0.080022 -0.008485 -0.054575 0.036981 -0.038565 -0.038391 0.059291 -0.100154 0.111907 0.038513 -0.003172 0.007809 -0.140235 0.021821 -0.080760 -0.024428 0.027438 0.093322 0.062330
30 0.026271 -0.133628 0.060015 -0.177269 0.038857 0.020705 0.099661 0.144012 -0.045922 0.088649 0.000734 0.214333 0.037248 0.014957 -0.068493 -0.170939 0.063792 -0.061649 0.081955 0.175707 0.074032 -0.040979 0.106120 0.125016 0.102807 0.025317 -0.312726 -0.005460 -0.033330 -0.043043 0.013321 -0.086679 -0.029567 -0.218223 -0.124160 -0.133619 0.187166 0.058348 0.003594 0.026714 -0.068895 0.213142 0.150601 -0.079725 -0.015324 0.242064 0.021941 -0.133769 0.049805 -0.043168 0.071371 -0.017461 0.061195 -0.138358 0.142338 -0.069769 0.124818 0.022733 -0.272523 0.006072 -0.118981 -0.077346 0.024344 0.078221 -0.076664 0.147841 -0.048180 0.000798 0.031548 -0.060822 0.028934 0.097684 0.257439 -0.108879 0.212759 -0.157521 0.035141 -0.046976 0.082701 0.140999 0.127470 0.032657 -0.102783 -0.034483 -0.086678 0.002934 0.282246 0.227315 0.082622 0.240017 -0.043216 0.062440 -0.049015 0.081847 -0.200883 0.105851 -0.015984 -0.121427 0.196378 -0.016649 -0.138879 0.251170 -0.133400 0.074967 0.183653 0.214675 0.155064 0.134803 -0.086834 0.111193 -0.015428 -0.080616 0.046154 -0.063264 -0.052227 0.067850 -0.137749 0.149197 0.046394 -0.001130 0.013226 -0.188124 0.027220 -0.111487 -0.028907 0.036626 0.118509 0.080284
39 0.018862 -0.127093 0.062708 -0.180439 0.046948 0.021820 0.098318 0.148037 -0.045747 0.085089 0.002422 0.211503 0.038530 0.016250 -0.066588 -0.169732 0.059461 -0.060474 0.082083 0.173582 0.075298 -0.037497 0.105675 0.130671 0.098280 0.028668 -0.316673 -0.000840 -0.033022 -0.044662 0.016354 -0.085969 -0.031738 -0.218005 -0.117900 -0.136885 0.186820 0.056214 0.001386 0.028347 -0.066684 0.211561 0.148833 -0.086271 -0.014706 0.244600 0.023717 -0.129306 0.052230 -0.041522 0.070510 -0.017289 0.059553 -0.135735 0.140280 -0.068400 0.126261 0.024569 -0.270164 0.005395 -0.122639 -0.069823 0.017553 0.075318 -0.082575 0.148176 -0.043044 0.005073 0.032348 -0.059008 0.031636 0.098144 0.255079 -0.107647 0.212893 -0.152691 0.035356 -0.048793 0.085428 0.135198 0.134543 0.036158 -0.100064 -0.035603 -0.085935 0.000905 0.289065 0.227876 0.083967 0.240726 -0.047770 0.067353 -0.046856 0.080744 -0.205226 0.105682 -0.013357 -0.124137 0.195284 -0.010823 -0.145483 0.254048 -0.134573 0.077175 0.187945 0.213077 0.151989 0.136541 -0.083770 0.107282 -0.013521 -0.073387 0.048643 -0.060641 -0.059435 0.069188 -0.136931 0.147224 0.043957 -0.008227 0.016200 -0.189136 0.029741 -0.113265 -0.028358 0.037037 0.114842 0.077527
38 0.027602 -0.139801 0.068304 -0.190706 0.042084 0.018938 0.099235 0.152170 -0.044236 0.089066 0.004824 0.226996 0.044430 0.016289 -0.074140 -0.177206 0.065089 -0.063574 0.091780 0.181641 0.075037 -0.040612 0.109764 0.134972 0.104592 0.030347 -0.331919 -0.008411 -0.030731 -0.048684 0.012309 -0.090853 -0.034041 -0.232225 -0.131329 -0.146492 0.196104 0.055309 0.001492 0.030413 -0.073430 0.222794 0.160107 -0.085126 -0.019147 0.258103 0.024884 -0.142309 0.055203 -0.049566 0.074204 -0.023288 0.058591 -0.144019 0.145855 -0.078934 0.139252 0.023149 -0.293402 0.006338 -0.128549 -0.079622 0.023122 0.077623 -0.083058 0.161045 -0.045559 0.003085 0.028623 -0.059599 0.026368 0.102089 0.269764 -0.117346 0.220781 -0.163559 0.039783 -0.049809 0.087654 0.144694 0.139588 0.036849 -0.103999 -0.034164 -0.095821 -0.000247 0.303101 0.235269 0.087647 0.251014 -0.047390 0.068280 -0.054709 0.084533 -0.220486 0.109606 -0.014091 -0.134704 0.206686 -0.012864 -0.149769 0.265704 -0.135000 0.080010 0.190836 0.225369 0.160585 0.141586 -0.088663 0.120183 -0.015053 -0.078517 0.053665 -0.064919 -0.060814 0.072404 -0.142691 0.158727 0.047368 -0.003066 0.018664 -0.201594 0.024822 -0.119698 -0.036394 0.038909 0.118633 0.085244
37 0.016874 -0.119127 0.060962 -0.166226 0.041312 0.021316 0.087305 0.135697 -0.038737 0.080010 0.005169 0.201274 0.037085 0.012855 -0.063754 -0.154184 0.056123 -0.057024 0.081131 0.154914 0.063849 -0.034608 0.096772 0.121416 0.094055 0.024943 -0.288978 -0.004656 -0.024991 -0.041601 0.013682 -0.078542 -0.030706 -0.202574 -0.108386 -0.127591 0.174661 0.050344 0.003534 0.030964 -0.061033 0.199170 0.141088 -0.078939 -0.018430 0.222460 0.019814 -0.119128 0.046449 -0.042196 0.067150 -0.018904 0.057209 -0.119055 0.126565 -0.062936 0.122035 0.018782 -0.254999 0.008171 -0.114698 -0.069816 0.016672 0.071532 -0.074811 0.139726 -0.040858 0.004300 0.027214 -0.051475 0.028899 0.089576 0.237754 -0.098689 0.197782 -0.144720 0.033138 -0.046949 0.074222 0.129266 0.120290 0.029463 -0.095495 -0.032258 -0.077861 -0.000790 0.265945 0.211314 0.078297 0.221115 -0.047216 0.058037 -0.049384 0.076708 -0.187420 0.095487 -0.013390 -0.119335 0.177781 -0.011773 -0.129408 0.228977 -0.122864 0.069899 0.173221 0.200419 0.145497 0.126165 -0.080243 0.106095 -0.008697 -0.070827 0.048487 -0.059142 -0.050489 0.063747 -0.121669 0.134915 0.041548 -0.007363 0.017568 -0.177793 0.027835 -0.106460 -0.028487 0.030757 0.104349 0.071457
32 0.020225 -0.124797 0.055894 -0.173551 0.040501 0.017895 0.093166 0.139107 -0.045054 0.083710 0.003833 0.208922 0.038534 0.015715 -0.063016 -0.159300 0.059951 -0.062327 0.080952 0.167549 0.072865 -0.038671 0.093233 0.122306 0.095986 0.028067 -0.307960 -0.002001 -0.027006 -0.042704 0.010754 -0.076237 -0.025892 -0.201268 -0.120620 -0.133039 0.182669 0.057425 0.001681 0.030705 -0.070569 0.203443 0.136196 -0.080166 -0.017482 0.231839 0.021757 -0.122027 0.046996 -0.047599 0.069781 -0.018335 0.055107 -0.125797 0.130511 -0.070107 0.121975 0.020517 -0.263090 0.000119 -0.109292 -0.069297 0.018070 0.080718 -0.078173 0.140876 -0.048319 0.001693 0.027553 -0.057441 0.023185 0.096014 0.248160 -0.106526 0.204423 -0.144605 0.030747 -0.051466 0.079044 0.132417 0.127089 0.033548 -0.090946 -0.031687 -0.087021 0.003704 0.271757 0.213585 0.082076 0.220696 -0.042933 0.070463 -0.045688 0.072438 -0.196098 0.100505 -0.010673 -0.122273 0.187529 -0.019892 -0.136875 0.235010 -0.129371 0.077694 0.177150 0.210775 0.148486 0.121710 -0.080807 0.106505 -0.010780 -0.076480 0.049619 -0.051666 -0.050242 0.071793 -0.129560 0.149911 0.051652 -0.006881 0.013305 -0.184011 0.023512 -0.111535 -0.027799 0.028482 0.107121 0.077329
47 0.021845 -0.141199 0.065096 -0.200892 0.042560 0.022213 0.099230 0.161397 -0.054068 0.094080 0.002727 0.234026 0.049366 0.015933 -0.067105 -0.179135 0.071053 -0.069770 0.097873 0.196628 0.081238 -0.045948 0.103623 0.141245 0.120146 0.031905 -0.345443 -0.003553 -0.038595 -0.054593 0.013745 -0.086199 -0.027394 -0.235424 -0.135800 -0.149521 0.205068 0.058442 -0.001826 0.042604 -0.077054 0.231275 0.155814 -0.092409 -0.009606 0.262567 0.018360 -0.146441 0.049196 -0.048924 0.087593 -0.017027 0.067894 -0.147191 0.153980 -0.075917 0.134215 0.024861 -0.295463 -0.003390 -0.127315 -0.082791 0.022185 0.084821 -0.088817 0.157267 -0.050288 0.003131 0.030324 -0.057007 0.027302 0.096727 0.285624 -0.111602 0.231478 -0.173781 0.026666 -0.056035 0.090366 0.149603 0.148190 0.037199 -0.110065 -0.038116 -0.091476 -0.003148 0.304424 0.245515 0.096746 0.252251 -0.053432 0.080685 -0.058941 0.087369 -0.220580 0.112093 -0.016422 -0.142770 0.213883 -0.015542 -0.156645 0.270478 -0.138879 0.090051 0.191104 0.238239 0.157259 0.148510 -0.095898 0.122730 -0.010301 -0.086349 0.058780 -0.067270 -0.060380 0.082715 -0.148093 0.159876 0.054580 -0.005354 0.017232 -0.202326 0.023045 -0.125441 -0.038366 0.039009 0.126901 0.087727
44 0.020584 -0.102658 0.046022 -0.149240 0.034155 0.016181 0.077067 0.119299 -0.034544 0.071220 0.006392 0.175436 0.029267 0.015213 -0.051670 -0.133963 0.049179 -0.054246 0.069460 0.141819 0.059226 -0.030459 0.076858 0.104876 0.087430 0.022732 -0.256747 -0.000672 -0.020566 -0.035139 0.010926 -0.067777 -0.027844 -0.173880 -0.098484 -0.111851 0.148843 0.049603 0.001855 0.024779 -0.059645 0.174387 0.115549 -0.068254 -0.011871 0.195259 0.013284 -0.103289 0.036217 -0.038339 0.056808 -0.015605 0.048942 -0.109352 0.114598 -0.058902 0.106945 0.014274 -0.219414 -0.001823 -0.095356 -0.060236 0.017820 0.059181 -0.061622 0.124330 -0.042161 0.002386 0.024864 -0.042578 0.025399 0.077874 0.209713 -0.090401 0.172632 -0.122717 0.022050 -0.046855 0.068723 0.114918 0.106738 0.026734 -0.082273 -0.027908 -0.073621 -0.004306 0.231055 0.179582 0.064472 0.189321 -0.040051 0.056937 -0.042175 0.060363 -0.169878 0.087095 -0.006670 -0.100716 0.157601 -0.011358 -0.115649 0.204753 -0.105799 0.068297 0.147892 0.177506 0.126728 0.106556 -0.069067 0.089820 -0.008483 -0.066227 0.036583 -0.044288 -0.044295 0.061887 -0.110864 0.121366 0.041064 -0.007268 0.014010 -0.153472 0.018648 -0.088851 -0.023713 0.023325 0.092151 0.061133
45 0.021583 -0.109581 0.050376 -0.155824 0.039602 0.017196 0.084790 0.129311 -0.036484 0.072691 0.002997 0.185001 0.035929 0.014551 -0.056651 -0.146074 0.057617 -0.051109 0.071759 0.149914 0.060465 -0.036147 0.085904 0.105286 0.086665 0.025358 -0.275927 -0.004802 -0.023174 -0.034309 0.011819 -0.068095 -0.030168 -0.178277 -0.103676 -0.112886 0.156343 0.050346 0.004532 0.027326 -0.060784 0.177849 0.125714 -0.071995 -0.015895 0.201644 0.019473 -0.110371 0.042407 -0.035386 0.064773 -0.018093 0.047075 -0.109594 0.116466 -0.064427 0.112963 0.018092 -0.235556 0.004803 -0.101521 -0.061381 0.016912 0.067708 -0.068670 0.129942 -0.041321 0.000546 0.021827 -0.048349 0.026663 0.087509 0.218033 -0.097012 0.186665 -0.128423 0.031110 -0.044427 0.072141 0.120972 0.113459 0.029157 -0.088850 -0.022151 -0.076602 0.000621 0.242033 0.191053 0.070570 0.198269 -0.040747 0.060412 -0.044796 0.066852 -0.177310 0.092282 -0.009313 -0.109441 0.172626 -0.010314 -0.127353 0.210708 -0.115066 0.072348 0.156066 0.181482 0.134084 0.114122 -0.068540 0.096668 -0.010867 -0.062517 0.041858 -0.047511 -0.045877 0.060185 -0.114877 0.127642 0.041039 -0.003596 0.014320 -0.164030 0.020910 -0.097553 -0.027574 0.030983 0.103957 0.066382
48 0.027554 -0.175436 0.084639 -0.250761 0.049805 0.029244 0.127574 0.195184 -0.067079 0.114586 -0.000427 0.295657 0.061929 0.027623 -0.085490 -0.232605 0.087235 -0.088555 0.121965 0.246212 0.101183 -0.057237 0.127697 0.171778 0.146637 0.041524 -0.440440 -0.010481 -0.049031 -0.068033 0.021028 -0.111427 -0.034067 -0.289688 -0.174957 -0.190028 0.258712 0.072465 -0.001048 0.053984 -0.102239 0.285017 0.200606 -0.115200 -0.012221 0.334405 0.026373 -0.185464 0.058536 -0.066203 0.109115 -0.019249 0.083619 -0.178041 0.187424 -0.091897 0.165788 0.035185 -0.373718 -0.002325 -0.156190 -0.098082 0.030562 0.108710 -0.109404 0.199407 -0.067182 0.001467 0.044635 -0.076674 0.031600 0.122134 0.350177 -0.138243 0.296818 -0.211141 0.034129 -0.073378 0.116569 0.191384 0.190002 0.050843 -0.132708 -0.046238 -0.115035 -0.008458 0.383949 0.312492 0.120355 0.323689 -0.067479 0.104165 -0.076493 0.111524 -0.274200 0.137762 -0.015402 -0.177868 0.275523 -0.017703 -0.195751 0.334662 -0.174410 0.110293 0.238762 0.299799 0.196016 0.185062 -0.120992 0.147051 -0.019630 -0.110538 0.072625 -0.082108 -0.079645 0.102073 -0.180754 0.206001 0.070634 -0.011172 0.023824 -0.257221 0.035056 -0.153573 -0.048397 0.050385 0.163632 0.106923
40 0.010967 -0.084539 0.039813 -0.119591 0.031699 0.014661 0.060263 0.100337 -0.032147 0.052833 0.006936 0.140255 0.024409 0.007663 -0.047452 -0.114375 0.042620 -0.042995 0.054307 0.112044 0.052999 -0.026870 0.069097 0.084831 0.065437 0.017848 -0.214098 -0.007432 -0.023806 -0.033840 0.007385 -0.052637 -0.021950 -0.137325 -0.080328 -0.092532 0.119906 0.041096 0.002633 0.022582 -0.050661 0.141522 0.095687 -0.052565 -0.012545 0.155498 0.012876 -0.088719 0.035155 -0.027831 0.046355 -0.016776 0.037264 -0.086872 0.096176 -0.051387 0.083581 0.012021 -0.178780 -0.000005 -0.076635 -0.043490 0.011213 0.049313 -0.052570 0.098460 -0.032947 -0.002494 0.022059 -0.035840 0.014475 0.064551 0.170342 -0.075120 0.143249 -0.105074 0.021468 -0.036425 0.051001 0.089561 0.089283 0.023546 -0.066313 -0.023701 -0.054834 0.003198 0.189284 0.143462 0.052969 0.159951 -0.035632 0.041411 -0.033131 0.050607 -0.132599 0.073188 -0.006028 -0.087054 0.133338 -0.013474 -0.092212 0.161799 -0.082332 0.055107 0.124186 0.141868 0.104756 0.083056 -0.055255 0.071221 -0.009917 -0.053801 0.031063 -0.037347 -0.034070 0.046406 -0.085959 0.098129 0.036540 -0.006946 0.013168 -0.121211 0.013697 -0.080202 -0.023405 0.025180 0.079048 0.047736
53 0.015678 -0.088451 0.038011 -0.128217 0.035520 0.015572 0.062086 0.104429 -0.036508 0.056603 0.000683 0.151999 0.021907 0.008888 -0.049358 -0.114403 0.048700 -0.037859 0.057406 0.122336 0.056262 -0.026996 0.065208 0.083966 0.069120 0.013609 -0.216864 -0.005766 -0.022109 -0.036865 0.009579 -0.056455 -0.024299 -0.151671 -0.087284 -0.091224 0.130649 0.036640 0.003030 0.023320 -0.050754 0.151194 0.095521 -0.059645 -0.014913 0.163216 0.015794 -0.086893 0.034273 -0.033364 0.052873 -0.017946 0.045486 -0.085863 0.101688 -0.054416 0.086563 0.010855 -0.190770 0.002875 -0.082618 -0.046831 0.017006 0.050833 -0.057385 0.104591 -0.028113 -0.001900 0.018199 -0.044236 0.022583 0.070116 0.174265 -0.071805 0.152661 -0.104986 0.020307 -0.042544 0.057239 0.093250 0.092818 0.021905 -0.074027 -0.017696 -0.057399 0.004078 0.196548 0.154634 0.062049 0.163548 -0.035694 0.044912 -0.030917 0.052071 -0.139658 0.071520 -0.007182 -0.088428 0.138335 -0.016981 -0.102118 0.172042 -0.090396 0.060541 0.130138 0.148910 0.106308 0.084724 -0.055411 0.073771 -0.012861 -0.056140 0.033657 -0.041239 -0.037340 0.051037 -0.087647 0.100276 0.039732 -0.001506 0.009690 -0.129795 0.011361 -0.083669 -0.020812 0.019171 0.084549 0.047890
55 0.018966 -0.110654 0.052760 -0.155146 0.037139 0.015492 0.085699 0.123444 -0.036328 0.074475 0.007841 0.184048 0.029245 0.018463 -0.058344 -0.143472 0.055120 -0.049553 0.071769 0.145497 0.065152 -0.033982 0.081948 0.105685 0.089855 0.021945 -0.275286 -0.005041 -0.026443 -0.036080 0.012716 -0.068837 -0.021915 -0.181115 -0.100846 -0.113338 0.153974 0.048164 -0.000260 0.027333 -0.057007 0.182973 0.126292 -0.074015 -0.010279 0.207279 0.019462 -0.112456 0.041970 -0.040110 0.059522 -0.016574 0.055199 -0.109748 0.113990 -0.062875 0.111863 0.018142 -0.232772 0.000001 -0.096895 -0.061049 0.017437 0.062410 -0.065086 0.130777 -0.038306 -0.004153 0.026770 -0.049615 0.022269 0.083972 0.223510 -0.089629 0.184467 -0.131492 0.028002 -0.049017 0.066969 0.120990 0.114198 0.028514 -0.084371 -0.027434 -0.077317 0.000406 0.240471 0.185883 0.067884 0.201014 -0.036467 0.062319 -0.040610 0.062395 -0.177405 0.086222 -0.011967 -0.106666 0.169611 -0.013842 -0.119487 0.213140 -0.111438 0.068420 0.154711 0.184490 0.131967 0.112075 -0.066674 0.095552 -0.014377 -0.062619 0.045723 -0.049785 -0.041853 0.059489 -0.110808 0.126455 0.046944 -0.009703 0.015316 -0.155952 0.017077 -0.099486 -0.029856 0.028662 0.098032 0.068938
43 0.013982 -0.087658 0.042586 -0.129046 0.031036 0.010365 0.070365 0.103298 -0.031047 0.060715 0.005772 0.151871 0.024858 0.012732 -0.042372 -0.117479 0.041489 -0.042674 0.057849 0.120924 0.052532 -0.029456 0.072319 0.085646 0.071096 0.023169 -0.224681 -0.002182 -0.021574 -0.030279 0.012187 -0.051548 -0.021341 -0.145001 -0.082364 -0.094513 0.129204 0.039451 0.005106 0.026000 -0.045875 0.148891 0.103687 -0.059046 -0.013015 0.168598 0.016765 -0.093557 0.033121 -0.033731 0.052956 -0.011257 0.042514 -0.092148 0.095070 -0.050709 0.094160 0.015767 -0.195531 -0.000922 -0.081705 -0.047971 0.012415 0.058069 -0.056161 0.102999 -0.030553 -0.002922 0.021242 -0.036506 0.021952 0.071250 0.184417 -0.077476 0.150428 -0.111560 0.021826 -0.039788 0.055022 0.099698 0.096797 0.028637 -0.068722 -0.019591 -0.064171 -0.002566 0.198667 0.160493 0.058942 0.165278 -0.030859 0.052147 -0.033167 0.057925 -0.144514 0.074164 -0.008923 -0.089405 0.140134 -0.011000 -0.097705 0.176456 -0.092390 0.056832 0.130214 0.149291 0.110051 0.090743 -0.052914 0.075177 -0.009062 -0.053976 0.032836 -0.038769 -0.040467 0.048771 -0.096100 0.105046 0.037074 -0.004500 0.012799 -0.134456 0.016246 -0.078967 -0.022857 0.023159 0.083714 0.054251
74 0.019032 -0.117069 0.054541 -0.171863 0.038504 0.023731 0.085581 0.135334 -0.043517 0.074919 0.008890 0.198244 0.032120 0.020700 -0.058968 -0.157700 0.062601 -0.055518 0.082425 0.155475 0.063882 -0.040474 0.087953 0.119624 0.091819 0.029153 -0.293371 -0.002042 -0.023510 -0.039542 0.014400 -0.067934 -0.029409 -0.191689 -0.109764 -0.126866 0.169568 0.047915 0.002340 0.035806 -0.068594 0.195614 0.129510 -0.075455 -0.010277 0.221788 0.016509 -0.124027 0.045879 -0.043384 0.067862 -0.018783 0.053199 -0.119309 0.127426 -0.060207 0.118797 0.021596 -0.253737 0.001246 -0.108645 -0.069342 0.021417 0.069483 -0.074771 0.135737 -0.039030 -0.006106 0.023285 -0.053586 0.027811 0.086784 0.239852 -0.102726 0.199054 -0.143038 0.030820 -0.051287 0.078504 0.125084 0.121446 0.031357 -0.095221 -0.024802 -0.080819 -0.004824 0.254799 0.208223 0.073546 0.215508 -0.040130 0.065436 -0.044940 0.067976 -0.192451 0.093745 -0.007005 -0.116256 0.186721 -0.017395 -0.130423 0.222779 -0.118105 0.073632 0.167733 0.196846 0.135104 0.123120 -0.078155 0.098519 -0.016769 -0.074795 0.051326 -0.054748 -0.049588 0.065025 -0.125960 0.136922 0.047916 -0.010026 0.008643 -0.172602 0.022171 -0.101190 -0.033498 0.028421 0.105023 0.069160
73 0.010796 -0.078476 0.039193 -0.115831 0.029770 0.012389 0.061849 0.092588 -0.032664 0.049834 0.000949 0.132405 0.024758 0.014270 -0.041080 -0.106140 0.037960 -0.041033 0.050459 0.105303 0.047208 -0.027544 0.059625 0.075284 0.062569 0.017329 -0.196622 0.001065 -0.015637 -0.031225 0.005446 -0.050689 -0.014826 -0.134898 -0.077647 -0.087177 0.113746 0.033443 -0.000376 0.018668 -0.047047 0.127898 0.092290 -0.052222 -0.011884 0.151986 0.013979 -0.080978 0.031770 -0.027580 0.042116 -0.011372 0.039521 -0.079328 0.086607 -0.047085 0.078910 0.012939 -0.166800 0.003358 -0.074725 -0.047924 0.016090 0.044958 -0.051080 0.095019 -0.030315 -0.001464 0.019047 -0.033184 0.019084 0.061993 0.160972 -0.063797 0.134161 -0.099225 0.019024 -0.036548 0.054621 0.087469 0.085672 0.018928 -0.059763 -0.020380 -0.052569 -0.003613 0.172062 0.136463 0.055575 0.146288 -0.029203 0.042543 -0.033356 0.048108 -0.127723 0.066383 -0.003405 -0.080543 0.126004 -0.011489 -0.091507 0.153165 -0.084191 0.049623 0.115177 0.133288 0.093625 0.079714 -0.050791 0.064889 -0.009446 -0.048641 0.032215 -0.036112 -0.033719 0.043936 -0.085578 0.097358 0.034507 -0.004740 0.011986 -0.112434 0.013559 -0.070274 -0.017380 0.020740 0.074270 0.050282
75 0.026203 -0.119711 0.056642 -0.178067 0.040353 0.024065 0.093536 0.136734 -0.045661 0.079374 0.011942 0.198575 0.034802 0.019745 -0.063439 -0.161183 0.063213 -0.060793 0.082600 0.167351 0.070849 -0.043668 0.088637 0.117769 0.097213 0.021812 -0.305192 0.000528 -0.026302 -0.043951 0.009825 -0.070142 -0.027074 -0.196748 -0.115299 -0.129248 0.179329 0.053207 0.002881 0.034549 -0.065258 0.195869 0.137406 -0.081480 -0.010572 0.229317 0.021879 -0.124556 0.049266 -0.039525 0.069544 -0.017803 0.056933 -0.126951 0.135463 -0.063357 0.121157 0.022107 -0.257517 0.000979 -0.112506 -0.068407 0.022654 0.069990 -0.076598 0.143212 -0.039499 -0.006815 0.027197 -0.054507 0.029489 0.087048 0.246876 -0.104903 0.205278 -0.148468 0.024860 -0.047533 0.079372 0.129538 0.129514 0.039407 -0.098074 -0.027036 -0.082798 -0.001428 0.270014 0.215298 0.079072 0.218244 -0.047007 0.071810 -0.049216 0.071415 -0.198888 0.095132 -0.010598 -0.119524 0.191596 -0.015353 -0.135813 0.231650 -0.124553 0.080082 0.166867 0.203187 0.145983 0.121571 -0.080730 0.101079 -0.014126 -0.071728 0.052647 -0.053073 -0.048871 0.066664 -0.128407 0.144414 0.045722 -0.003434 0.007560 -0.179343 0.025654 -0.105797 -0.028867 0.034479 0.110666 0.073776
31 0.021251 -0.105878 0.055544 -0.150347 0.033313 0.011973 0.078631 0.119395 -0.041387 0.074472 0.007525 0.186444 0.039686 0.009172 -0.055663 -0.145106 0.047230 -0.051911 0.076584 0.147720 0.065330 -0.038643 0.081755 0.112668 0.089349 0.027663 -0.267027 -0.001445 -0.024902 -0.035243 0.007362 -0.062529 -0.029479 -0.176122 -0.102374 -0.115121 0.157432 0.046924 0.005315 0.025461 -0.059490 0.180329 0.119546 -0.071987 -0.013776 0.205675 0.013262 -0.111492 0.040924 -0.037716 0.058297 -0.014166 0.050119 -0.114269 0.118599 -0.061106 0.109878 0.015927 -0.235131 -0.003283 -0.093449 -0.062601 0.015437 0.065113 -0.067768 0.122978 -0.044216 -0.002721 0.021538 -0.046973 0.022992 0.079027 0.218179 -0.091818 0.184352 -0.129041 0.029235 -0.047088 0.074033 0.119229 0.114558 0.029398 -0.084313 -0.030875 -0.075707 -0.000680 0.234002 0.184686 0.071726 0.193453 -0.042115 0.063784 -0.038204 0.064863 -0.178239 0.089047 -0.012475 -0.107066 0.167548 -0.011207 -0.126225 0.209050 -0.110903 0.067522 0.151201 0.183366 0.128533 0.111876 -0.066525 0.092734 -0.012607 -0.069303 0.040219 -0.050438 -0.045647 0.064453 -0.117037 0.132946 0.038788 -0.002477 0.010926 -0.160772 0.018427 -0.103793 -0.027581 0.030173 0.093562 0.065852
13 0.016823 -0.079696 0.040123 -0.115231 0.024567 0.010850 0.060516 0.088336 -0.027811 0.056386 0.001082 0.131074 0.026626 0.006902 -0.039704 -0.104721 0.036107 -0.039996 0.053149 0.104742 0.049927 -0.025712 0.058527 0.080743 0.060207 0.017997 -0.194220 -0.000360 -0.017256 -0.026795 0.005304 -0.047846 -0.020266 -0.134283 -0.076025 -0.087991 0.119573 0.038947 0.002028 0.019881 -0.041641 0.131235 0.089983 -0.049777 -0.009226 0.153721 0.013518 -0.079888 0.028551 -0.026001 0.042733 -0.009761 0.038654 -0.080026 0.083301 -0.047027 0.076873 0.010869 -0.167936 -0.000943 -0.069846 -0.044484 0.010893 0.046129 -0.045930 0.089494 -0.031834 -0.002026 0.020554 -0.038820 0.014253 0.058560 0.159934 -0.069693 0.134285 -0.099118 0.018491 -0.035021 0.048241 0.083134 0.082851 0.019717 -0.062214 -0.021851 -0.058990 -0.000961 0.177205 0.138083 0.049378 0.149938 -0.024898 0.041664 -0.033240 0.045229 -0.127037 0.063242 -0.007528 -0.082183 0.120402 -0.010282 -0.086847 0.154679 -0.082336 0.050970 0.112060 0.130152 0.097417 0.079057 -0.051220 0.064681 -0.003809 -0.048733 0.029812 -0.032944 -0.037055 0.042158 -0.086392 0.097906 0.031829 -0.005876 0.010524 -0.113891 0.019032 -0.070525 -0.021685 0.023157 0.073660 0.052084
34 0.007619 -0.057108 0.028804 -0.075647 0.022497 0.006703 0.044926 0.062422 -0.022770 0.036656 -0.000921 0.092806 0.017719 0.006683 -0.031186 -0.074051 0.031525 -0.025552 0.039872 0.077337 0.031893 -0.018602 0.046491 0.051901 0.044684 0.007871 -0.135331 -0.003497 -0.013575 -0.016765 0.009211 -0.033365 -0.016012 -0.090556 -0.051703 -0.055933 0.084340 0.026124 0.002070 0.016778 -0.032345 0.094410 0.065144 -0.034554 -0.008240 0.100732 0.011080 -0.059182 0.023536 -0.016533 0.033060 -0.008305 0.027960 -0.053710 0.057602 -0.035032 0.055629 0.009381 -0.118171 0.000118 -0.052170 -0.028662 0.004776 0.034266 -0.033495 0.062882 -0.021855 -0.004487 0.016112 -0.024576 0.010320 0.041813 0.108058 -0.044579 0.092545 -0.067085 0.010695 -0.019610 0.036442 0.061393 0.054437 0.013807 -0.042209 -0.015216 -0.035567 0.003224 0.121610 0.097042 0.033907 0.103129 -0.023444 0.030424 -0.021944 0.033109 -0.090161 0.047320 -0.006733 -0.052289 0.084359 -0.008738 -0.063766 0.110559 -0.056947 0.032717 0.075032 0.092615 0.068724 0.054998 -0.035912 0.048832 -0.004117 -0.033070 0.021696 -0.021285 -0.023565 0.029978 -0.056288 0.069141 0.021001 0.000785 0.005711 -0.081781 0.011931 -0.049425 -0.017384 0.016831 0.052841 0.034398
57 0.012747 -0.064091 0.027618 -0.095301 0.022384 0.011974 0.046644 0.073047 -0.022322 0.044101 0.003017 0.107039 0.022538 0.010248 -0.035112 -0.087935 0.030014 -0.031045 0.042524 0.087749 0.035057 -0.021615 0.052259 0.062522 0.050938 0.016323 -0.162260 0.001939 -0.013450 -0.024260 0.003723 -0.036660 -0.013985 -0.106297 -0.062053 -0.065552 0.089867 0.026574 -0.000406 0.020444 -0.033366 0.105974 0.072726 -0.044079 -0.007087 0.124258 0.011627 -0.066432 0.025920 -0.020210 0.033050 -0.008866 0.028224 -0.068010 0.069226 -0.038315 0.064845 0.013874 -0.136704 0.002472 -0.061330 -0.032872 0.006221 0.040011 -0.037460 0.072707 -0.023458 -0.002294 0.014132 -0.026799 0.016243 0.049899 0.133259 -0.056987 0.111182 -0.080442 0.016056 -0.026191 0.045045 0.072034 0.068402 0.022441 -0.046699 -0.013898 -0.041392 0.000617 0.142645 0.110072 0.040437 0.120685 -0.020905 0.037517 -0.028459 0.041697 -0.106552 0.052659 -0.004591 -0.062794 0.102159 -0.010773 -0.070225 0.126279 -0.068511 0.039176 0.089862 0.111821 0.078225 0.069162 -0.042127 0.057815 -0.004988 -0.039006 0.021729 -0.027076 -0.028243 0.036792 -0.064528 0.073814 0.024831 -0.003729 0.008993 -0.095289 0.009048 -0.056678 -0.014485 0.013954 0.058845 0.037889
9 0.012347 -0.074410 0.033603 -0.107765 0.025516 0.011693 0.055585 0.089265 -0.024102 0.048786 0.005312 0.129322 0.023300 0.005120 -0.039786 -0.100867 0.036754 -0.033885 0.049182 0.103395 0.039148 -0.020946 0.062081 0.070981 0.059818 0.017681 -0.189818 -0.006392 -0.016489 -0.024009 0.008350 -0.044641 -0.020875 -0.125472 -0.070072 -0.082823 0.113614 0.032905 -0.001534 0.023621 -0.044689 0.119009 0.087801 -0.045120 -0.011834 0.139118 0.012123 -0.080781 0.026684 -0.030238 0.041923 -0.011941 0.032701 -0.075714 0.083228 -0.043037 0.074158 0.012715 -0.162482 0.000951 -0.069036 -0.042111 0.009006 0.048397 -0.043595 0.087064 -0.025061 -0.000450 0.014706 -0.034992 0.018285 0.059795 0.156125 -0.065062 0.130448 -0.093010 0.016985 -0.027731 0.045413 0.083307 0.080991 0.020142 -0.063717 -0.022190 -0.052060 -0.000444 0.165614 0.131602 0.047907 0.139046 -0.025769 0.040955 -0.025566 0.049556 -0.122379 0.058595 -0.006856 -0.075258 0.117545 -0.007838 -0.089035 0.141656 -0.080060 0.048811 0.107152 0.126586 0.087317 0.081507 -0.051893 0.060268 -0.004382 -0.045027 0.033452 -0.035555 -0.031788 0.041136 -0.081292 0.093364 0.027383 -0.000815 0.006291 -0.112852 0.012233 -0.068254 -0.022727 0.023252 0.070876 0.048198
46 0.008386 -0.065827 0.033136 -0.086575 0.022156 0.013295 0.049936 0.073779 -0.026482 0.043589 0.006271 0.108662 0.016184 0.012061 -0.034114 -0.085191 0.033828 -0.030679 0.041462 0.087513 0.032950 -0.022109 0.048990 0.065477 0.053634 0.010074 -0.160633 -0.003822 -0.013455 -0.024606 0.004389 -0.038286 -0.016921 -0.101075 -0.060061 -0.068514 0.089890 0.026151 0.004886 0.019302 -0.036289 0.102649 0.074885 -0.040947 -0.010847 0.121709 0.010380 -0.064576 0.020697 -0.024937 0.039765 -0.008720 0.027724 -0.064279 0.065645 -0.032788 0.065183 0.009960 -0.139109 -0.000963 -0.057020 -0.037084 0.006337 0.036815 -0.041022 0.073402 -0.023682 -0.002505 0.015874 -0.029843 0.010406 0.046528 0.127000 -0.052695 0.109612 -0.075238 0.011852 -0.028057 0.039338 0.064488 0.069523 0.016115 -0.052447 -0.017238 -0.041553 -0.003392 0.139194 0.112192 0.038580 0.120312 -0.019786 0.035858 -0.022772 0.042486 -0.099985 0.053098 -0.006289 -0.060183 0.096212 -0.008414 -0.075094 0.119632 -0.067706 0.040164 0.088677 0.105666 0.075865 0.066161 -0.037694 0.057175 -0.007842 -0.034863 0.026567 -0.026286 -0.029589 0.032967 -0.063864 0.072894 0.020538 -0.002938 0.003721 -0.095689 0.014762 -0.052682 -0.013114 0.013637 0.054502 0.037475
10 0.010918 -0.055475 0.025355 -0.077694 0.019784 0.012280 0.043448 0.063535 -0.016925 0.033923 0.005458 0.094659 0.014473 0.009836 -0.029686 -0.069639 0.029188 -0.024187 0.035279 0.075479 0.032982 -0.018524 0.043340 0.058391 0.043527 0.010568 -0.136245 -0.004767 -0.012515 -0.021622 0.002176 -0.038326 -0.011670 -0.087764 -0.056949 -0.059759 0.083464 0.020956 -0.001530 0.011840 -0.032615 0.088696 0.066318 -0.032419 -0.003206 0.107441 0.012298 -0.058117 0.025037 -0.022317 0.032677 -0.007945 0.028948 -0.058235 0.057819 -0.028097 0.057043 0.005848 -0.121876 0.003754 -0.049323 -0.031242 0.005241 0.035147 -0.033237 0.065972 -0.021408 -0.002664 0.008782 -0.028023 0.014404 0.038253 0.115662 -0.046559 0.096574 -0.065402 0.013748 -0.024694 0.032410 0.059432 0.053588 0.013333 -0.043490 -0.011222 -0.040503 0.000368 0.118116 0.093910 0.036578 0.099273 -0.016859 0.031805 -0.018078 0.036759 -0.088379 0.048038 -0.006714 -0.058431 0.086933 -0.004663 -0.063871 0.104665 -0.056310 0.036423 0.075877 0.091759 0.068660 0.060836 -0.038046 0.048883 -0.002275 -0.037264 0.023933 -0.026326 -0.021330 0.031843 -0.056460 0.068868 0.020404 -0.005801 0.005693 -0.082549 0.010226 -0.050027 -0.011034 0.013390 0.049102 0.035192
68 0.009211 -0.063861 0.033730 -0.095133 0.025232 0.012810 0.053286 0.075721 -0.026786 0.043385 0.001273 0.116012 0.022685 0.007587 -0.032693 -0.087044 0.030289 -0.032068 0.046136 0.093690 0.037264 -0.020703 0.051072 0.069681 0.053154 0.014322 -0.171869 -0.001227 -0.014230 -0.022797 0.008482 -0.041051 -0.014527 -0.109225 -0.062356 -0.072689 0.095838 0.031598 0.003058 0.018518 -0.033917 0.114321 0.074449 -0.047751 -0.004373 0.125492 0.012290 -0.066932 0.022245 -0.020545 0.038730 -0.012768 0.029384 -0.069247 0.070904 -0.034764 0.067356 0.008127 -0.143075 0.001502 -0.058940 -0.040122 0.013897 0.042176 -0.038099 0.080874 -0.026748 -0.001127 0.018855 -0.026376 0.010647 0.046741 0.136182 -0.060153 0.110633 -0.079792 0.019081 -0.028677 0.040394 0.074131 0.070414 0.023394 -0.055275 -0.014650 -0.043862 -0.000716 0.148145 0.115494 0.046401 0.126446 -0.021091 0.038320 -0.027557 0.044160 -0.108871 0.054458 -0.006860 -0.067855 0.103090 -0.009412 -0.076570 0.127740 -0.069948 0.045475 0.093568 0.113162 0.081538 0.067283 -0.046567 0.061948 -0.006630 -0.037823 0.023110 -0.026976 -0.027538 0.038524 -0.068698 0.079267 0.025363 -0.002179 0.003093 -0.093996 0.016152 -0.057071 -0.014101 0.020326 0.058665 0.043213
1 0.005854 -0.057777 0.030336 -0.080102 0.020097 0.004944 0.040370 0.065667 -0.016484 0.035942 0.001044 0.090198 0.018954 0.005186 -0.030271 -0.074506 0.029508 -0.028168 0.039899 0.071371 0.032244 -0.018149 0.042529 0.055629 0.045415 0.012345 -0.133069 0.002237 -0.009532 -0.020777 0.001393 -0.032462 -0.013653 -0.088652 -0.054755 -0.061009 0.075877 0.022191 0.005092 0.010982 -0.032100 0.086041 0.064959 -0.032557 -0.007747 0.099337 0.006335 -0.056360 0.024133 -0.016012 0.028480 -0.005812 0.024042 -0.051591 0.054831 -0.029192 0.054431 0.012703 -0.118985 0.003638 -0.048212 -0.034531 0.005757 0.033120 -0.036001 0.064918 -0.018471 0.001846 0.008569 -0.024558 0.012032 0.037140 0.114025 -0.046349 0.088442 -0.068408 0.017165 -0.024812 0.037199 0.055223 0.054771 0.011906 -0.043490 -0.016239 -0.038616 -0.003348 0.118551 0.094134 0.038657 0.100042 -0.018960 0.030763 -0.020823 0.032823 -0.088882 0.043716 -0.006441 -0.057092 0.087537 -0.004475 -0.063836 0.107787 -0.052966 0.033617 0.078291 0.094457 0.067381 0.058679 -0.036467 0.047292 -0.006900 -0.034955 0.022886 -0.021307 -0.024930 0.029402 -0.053927 0.066957 0.018030 -0.004733 0.005097 -0.077538 0.006664 -0.048853 -0.015981 0.013458 0.049541 0.034732
5 0.011912 -0.066240 0.027047 -0.089713 0.024011 0.008558 0.050712 0.069819 -0.019768 0.038743 0.006751 0.108699 0.016515 0.008388 -0.030504 -0.087100 0.030096 -0.033856 0.041412 0.087524 0.037829 -0.017301 0.044874 0.066524 0.052865 0.010488 -0.158187 -0.004966 -0.013970 -0.022393 0.003767 -0.041503 -0.017814 -0.101936 -0.059401 -0.070633 0.093795 0.029475 0.000774 0.017640 -0.031149 0.102144 0.070211 -0.040625 -0.010117 0.118742 0.010499 -0.066583 0.023495 -0.024146 0.036364 -0.007333 0.032601 -0.067883 0.069598 -0.037414 0.065525 0.009657 -0.132739 -0.001344 -0.059500 -0.038034 0.012476 0.041822 -0.041441 0.074627 -0.019393 -0.000811 0.014997 -0.031950 0.012037 0.048094 0.125264 -0.056485 0.107332 -0.079201 0.014142 -0.029435 0.037641 0.064807 0.063029 0.017990 -0.051917 -0.015533 -0.044883 -0.003905 0.140953 0.113738 0.043834 0.115121 -0.020126 0.034244 -0.023097 0.039539 -0.104934 0.053172 -0.010250 -0.065441 0.101715 -0.003958 -0.075773 0.121802 -0.066375 0.036520 0.085117 0.105034 0.075964 0.065499 -0.043686 0.052143 -0.008547 -0.037783 0.026530 -0.031385 -0.028928 0.039658 -0.062576 0.076254 0.027621 -0.001708 0.006114 -0.091351 0.012330 -0.061361 -0.020402 0.018923 0.057061 0.043088
8 0.014876 -0.082890 0.041254 -0.112347 0.024303 0.013848 0.061693 0.093404 -0.029591 0.055000 0.003320 0.133263 0.021744 0.009746 -0.037779 -0.108138 0.043042 -0.038375 0.057157 0.110142 0.043317 -0.025634 0.060523 0.075085 0.066263 0.019598 -0.199062 0.000619 -0.017666 -0.025375 0.006572 -0.050638 -0.018539 -0.128268 -0.079329 -0.086076 0.120473 0.034204 0.005726 0.025762 -0.044598 0.129673 0.089286 -0.048307 -0.008609 0.151779 0.009867 -0.084095 0.028175 -0.025665 0.044924 -0.015607 0.041425 -0.078679 0.081554 -0.044424 0.076428 0.012331 -0.172837 0.001263 -0.075638 -0.048237 0.013192 0.050290 -0.046597 0.091440 -0.025139 -0.001626 0.016969 -0.039919 0.014740 0.058222 0.159806 -0.067278 0.133596 -0.095456 0.018408 -0.033709 0.050462 0.085666 0.085126 0.018640 -0.066606 -0.017729 -0.056531 0.003664 0.177771 0.140083 0.054290 0.142943 -0.027259 0.042315 -0.031929 0.048431 -0.129874 0.063065 -0.010733 -0.083334 0.121512 -0.012663 -0.087558 0.150117 -0.085119 0.049267 0.114881 0.130629 0.096307 0.079427 -0.052620 0.065091 -0.011846 -0.046142 0.033862 -0.036665 -0.037086 0.049100 -0.084510 0.094241 0.028413 -0.004369 0.005936 -0.120258 0.017602 -0.071707 -0.019993 0.017622 0.077360 0.047365
15 0.009365 -0.076354 0.038645 -0.108269 0.025332 0.015333 0.057428 0.080666 -0.026631 0.047787 0.005417 0.123055 0.022553 0.012052 -0.036107 -0.098450 0.034066 -0.037768 0.046734 0.095926 0.045176 -0.022199 0.056967 0.073914 0.056643 0.015760 -0.186280 -0.002325 -0.016021 -0.028829 0.005207 -0.044031 -0.013901 -0.122729 -0.070202 -0.078233 0.105797 0.032463 0.005528 0.021507 -0.043213 0.121280 0.083210 -0.047803 -0.005688 0.142435 0.007514 -0.076576 0.027037 -0.027430 0.041892 -0.011253 0.034295 -0.074203 0.076947 -0.044723 0.070199 0.008833 -0.156893 0.004598 -0.064062 -0.038606 0.012349 0.041258 -0.044253 0.089641 -0.025658 -0.001229 0.020137 -0.029715 0.017643 0.053168 0.151087 -0.065856 0.120789 -0.090534 0.019725 -0.030442 0.043150 0.076550 0.076819 0.023482 -0.057862 -0.020805 -0.053478 -0.003478 0.161010 0.125293 0.048525 0.137811 -0.024955 0.042790 -0.025943 0.042686 -0.121580 0.062109 -0.005562 -0.069682 0.115903 -0.006014 -0.079403 0.142432 -0.077930 0.048164 0.106457 0.120524 0.090333 0.077288 -0.047622 0.059747 -0.007566 -0.045588 0.027482 -0.036285 -0.033228 0.045010 -0.075399 0.091328 0.025622 -0.001355 0.010935 -0.111066 0.017581 -0.062989 -0.023251 0.019507 0.069436 0.047704
54 0.008091 -0.070601 0.034311 -0.092679 0.020373 0.009167 0.050670 0.073523 -0.023503 0.041515 0.000482 0.109793 0.021368 0.012119 -0.037023 -0.086165 0.031837 -0.033674 0.046351 0.087389 0.036718 -0.021262 0.053094 0.068692 0.054442 0.009469 -0.168542 -0.002541 -0.017448 -0.027512 0.006346 -0.038380 -0.015696 -0.113967 -0.061226 -0.069909 0.095328 0.031424 0.005135 0.017751 -0.036838 0.109862 0.076411 -0.043146 -0.007599 0.126559 0.007866 -0.069826 0.027294 -0.021629 0.033843 -0.011291 0.035527 -0.069034 0.073284 -0.040882 0.067172 0.011855 -0.141808 0.002761 -0.063358 -0.036551 0.007826 0.038148 -0.042567 0.076210 -0.023823 -0.003866 0.017328 -0.026185 0.017819 0.050520 0.135945 -0.053419 0.112097 -0.078745 0.013931 -0.028430 0.042219 0.071297 0.069236 0.019168 -0.054467 -0.018909 -0.044311 -0.003780 0.146796 0.115083 0.042038 0.124779 -0.021080 0.035426 -0.028325 0.040607 -0.103941 0.056910 -0.009298 -0.069713 0.105414 -0.011219 -0.074764 0.126869 -0.064670 0.041866 0.093744 0.109935 0.084245 0.071199 -0.046520 0.061900 -0.010904 -0.041160 0.026022 -0.028086 -0.030790 0.034417 -0.067334 0.077082 0.028662 -0.003570 0.006677 -0.093863 0.011519 -0.060764 -0.017424 0.017668 0.065801 0.041433
12 0.007326 -0.063241 0.029695 -0.087694 0.016674 0.007597 0.041692 0.064704 -0.023983 0.043390 0.006673 0.104283 0.017933 0.009837 -0.030202 -0.075364 0.026020 -0.027550 0.043697 0.077919 0.035659 -0.016436 0.047978 0.057639 0.044852 0.012058 -0.146843 -0.001792 -0.013167 -0.021273 0.007386 -0.036004 -0.017513 -0.098171 -0.056590 -0.061628 0.085969 0.028989 0.001046 0.018126 -0.033360 0.098164 0.069295 -0.040135 -0.007260 0.116772 0.010621 -0.061773 0.020046 -0.022829 0.032455 -0.007845 0.027109 -0.066431 0.062162 -0.036580 0.060230 0.010218 -0.128237 0.002700 -0.051710 -0.032269 0.007489 0.039173 -0.039287 0.070140 -0.019206 -0.000521 0.016755 -0.022402 0.016172 0.047061 0.122439 -0.048960 0.101264 -0.072603 0.017775 -0.021576 0.039137 0.068387 0.061487 0.018044 -0.049092 -0.017508 -0.044302 0.002375 0.130313 0.103880 0.036980 0.107033 -0.021816 0.035888 -0.024396 0.035462 -0.094079 0.046675 -0.003211 -0.062784 0.094329 -0.008477 -0.071088 0.112209 -0.060832 0.039446 0.085171 0.097117 0.070756 0.060892 -0.034718 0.048274 -0.009554 -0.036696 0.023561 -0.024630 -0.023975 0.037092 -0.063768 0.074365 0.019519 -0.006259 0.005652 -0.089496 0.013040 -0.051454 -0.016929 0.015719 0.050587 0.036700
7 0.013615 -0.055786 0.024038 -0.080604 0.015656 0.011476 0.042902 0.065672 -0.016986 0.036209 0.001311 0.094665 0.017807 0.003233 -0.025795 -0.073657 0.029514 -0.027698 0.035038 0.075139 0.032565 -0.019842 0.043678 0.058163 0.048603 0.008691 -0.143816 -0.003786 -0.014150 -0.020723 0.008126 -0.032350 -0.016088 -0.095356 -0.056880 -0.060151 0.079996 0.021104 0.000164 0.013187 -0.034363 0.092585 0.065619 -0.033940 -0.006653 0.107382 0.010099 -0.058260 0.023903 -0.019002 0.030465 -0.006081 0.026176 -0.053813 0.056943 -0.028883 0.056960 0.007390 -0.117513 0.005857 -0.050122 -0.031303 0.009722 0.036547 -0.035484 0.067332 -0.018939 0.003335 0.012564 -0.028680 0.010878 0.045047 0.110504 -0.045996 0.095859 -0.066795 0.013228 -0.021364 0.036122 0.057736 0.058839 0.018962 -0.045647 -0.009984 -0.039233 -0.002985 0.120136 0.098823 0.035073 0.104894 -0.016958 0.031311 -0.019141 0.033536 -0.091028 0.049026 -0.003316 -0.059439 0.084642 -0.006499 -0.065064 0.109443 -0.061170 0.034645 0.078237 0.091094 0.063540 0.058686 -0.032353 0.048067 -0.003952 -0.030184 0.020668 -0.028461 -0.025763 0.031438 -0.059232 0.064709 0.018297 0.000654 0.004084 -0.079340 0.013625 -0.049568 -0.017385 0.012674 0.055484 0.038127
6 0.008509 -0.042932 0.021500 -0.055984 0.014239 0.007634 0.033260 0.050546 -0.015714 0.028448 0.003650 0.069387 0.011602 0.003785 -0.019267 -0.054989 0.020000 -0.022811 0.030316 0.053970 0.022349 -0.015927 0.031434 0.038449 0.036752 0.006889 -0.103135 -0.005001 -0.008722 -0.011167 0.004627 -0.029290 -0.007732 -0.069825 -0.039253 -0.044582 0.061659 0.021643 -0.002533 0.007334 -0.024882 0.070881 0.051379 -0.029622 -0.008314 0.079938 0.008870 -0.046700 0.019626 -0.011623 0.023887 -0.004835 0.015901 -0.042931 0.048034 -0.025563 0.041917 0.005109 -0.087140 -0.002271 -0.034599 -0.020995 0.006586 0.025830 -0.025208 0.045997 -0.017851 0.000511 0.006625 -0.021395 0.010910 0.030867 0.082671 -0.031631 0.072272 -0.051315 0.012371 -0.013907 0.025798 0.046462 0.040307 0.014871 -0.030843 -0.009011 -0.024809 -0.004119 0.094978 0.071851 0.026508 0.077238 -0.012667 0.024486 -0.014428 0.027898 -0.067274 0.035384 -0.003034 -0.045557 0.067622 -0.007292 -0.044313 0.079189 -0.042441 0.026996 0.057033 0.072943 0.048909 0.046991 -0.024628 0.034804 -0.001403 -0.023666 0.015780 -0.016901 -0.016692 0.027340 -0.041822 0.047783 0.016423 -0.002882 0.005564 -0.063213 0.010401 -0.041576 -0.014586 0.012005 0.042333 0.022287
14 0.007196 -0.052391 0.027851 -0.074304 0.018373 0.009444 0.035195 0.055545 -0.020080 0.035616 -0.001003 0.084698 0.013804 0.007329 -0.025455 -0.063565 0.027197 -0.023808 0.034441 0.064825 0.030545 -0.012583 0.038149 0.051348 0.039114 0.012721 -0.121292 0.002387 -0.014902 -0.014722 0.006969 -0.029531 -0.012589 -0.079747 -0.045019 -0.054190 0.070700 0.022105 -0.000175 0.013472 -0.030736 0.082294 0.057880 -0.030645 -0.005645 0.094710 0.008442 -0.048660 0.019443 -0.013670 0.026571 -0.007692 0.022449 -0.049435 0.054479 -0.029139 0.046739 0.011908 -0.108821 -0.000995 -0.045949 -0.031218 0.010181 0.026457 -0.033178 0.060633 -0.015582 -0.003262 0.011160 -0.023254 0.007437 0.039948 0.098118 -0.038406 0.085874 -0.058553 0.013160 -0.021221 0.031198 0.050710 0.049996 0.015103 -0.036625 -0.008267 -0.037218 0.002274 0.107909 0.085627 0.034761 0.090734 -0.018908 0.026395 -0.019184 0.029337 -0.081600 0.044073 -0.006879 -0.046249 0.080366 -0.005791 -0.058745 0.096455 -0.050914 0.034199 0.067034 0.085599 0.062703 0.054406 -0.035699 0.042249 -0.009159 -0.033125 0.017441 -0.020562 -0.017095 0.026815 -0.054801 0.057891 0.018455 -0.001543 0.005719 -0.074441 0.008940 -0.046945 -0.011209 0.011324 0.043210 0.030608
33 0.009203 -0.053788 0.025729 -0.069969 0.019873 0.004335 0.037687 0.062588 -0.015938 0.034493 0.004198 0.086541 0.017008 0.004005 -0.023458 -0.065669 0.024060 -0.022752 0.031978 0.069662 0.033049 -0.017349 0.042669 0.048897 0.039624 0.011579 -0.130654 -0.001672 -0.009912 -0.015812 0.004405 -0.028932 -0.012568 -0.082450 -0.052983 -0.058316 0.074745 0.022368 -0.002410 0.017283 -0.029532 0.086451 0.059965 -0.036069 -0.007310 0.099658 0.006847 -0.055424 0.016886 -0.018830 0.028383 -0.004647 0.026249 -0.055378 0.052356 -0.026758 0.049815 0.009837 -0.107217 0.002956 -0.042846 -0.033571 0.005981 0.033296 -0.028597 0.057146 -0.015325 -0.002480 0.013276 -0.019644 0.014369 0.038121 0.105659 -0.042270 0.084107 -0.059799 0.013680 -0.021777 0.034466 0.055348 0.057602 0.012765 -0.041586 -0.015430 -0.035622 0.002264 0.112665 0.089151 0.033975 0.095393 -0.015278 0.031110 -0.020692 0.030002 -0.080092 0.045430 -0.007263 -0.054446 0.083433 -0.007503 -0.060982 0.097600 -0.053968 0.037257 0.074339 0.083682 0.062364 0.053792 -0.030540 0.042581 -0.006086 -0.030803 0.021091 -0.025993 -0.020527 0.030061 -0.054415 0.057833 0.017046 -0.005712 0.007760 -0.075662 0.012503 -0.045343 -0.011861 0.012158 0.044141 0.029215
41 0.006402 -0.059428 0.028304 -0.078790 0.021289 0.008567 0.044635 0.062970 -0.019074 0.034135 0.002849 0.096400 0.015138 0.009146 -0.027890 -0.070624 0.027687 -0.026829 0.039091 0.078073 0.031741 -0.022103 0.042014 0.055110 0.046406 0.013885 -0.144494 -0.000570 -0.013093 -0.020368 0.004573 -0.031292 -0.016810 -0.091829 -0.054459 -0.058011 0.083405 0.023499 -0.002203 0.014933 -0.028173 0.091172 0.064067 -0.040561 -0.005882 0.108788 0.011573 -0.053829 0.022265 -0.022453 0.032995 -0.009753 0.024022 -0.061399 0.064273 -0.033017 0.058655 0.012755 -0.120111 -0.002908 -0.050671 -0.030010 0.009858 0.037385 -0.033446 0.066647 -0.024992 -0.001349 0.014319 -0.023076 0.013508 0.039974 0.115341 -0.046548 0.092468 -0.069786 0.016200 -0.023526 0.036248 0.064480 0.060544 0.014660 -0.045249 -0.014095 -0.035399 -0.004160 0.123567 0.098890 0.037279 0.102014 -0.022245 0.030657 -0.021020 0.032368 -0.092475 0.048109 -0.006690 -0.052326 0.088684 -0.004115 -0.067072 0.106452 -0.054711 0.034026 0.083503 0.096167 0.067326 0.056175 -0.039643 0.050095 -0.005469 -0.035032 0.018719 -0.027820 -0.027752 0.029138 -0.062654 0.067223 0.022524 -0.003933 0.003525 -0.085394 0.011501 -0.046873 -0.016263 0.013945 0.053512 0.030920
16 0.009547 -0.055314 0.028124 -0.080290 0.017556 0.008428 0.044858 0.063698 -0.019932 0.038691 0.000463 0.096380 0.015725 0.011275 -0.025759 -0.076140 0.024684 -0.031228 0.034422 0.072993 0.031728 -0.017313 0.046046 0.054327 0.047265 0.012781 -0.139762 -0.002465 -0.014188 -0.023278 0.002834 -0.033073 -0.014235 -0.097280 -0.052299 -0.058517 0.085759 0.022064 -0.001078 0.011767 -0.033359 0.096374 0.065922 -0.037111 -0.004556 0.105253 0.010817 -0.054773 0.018994 -0.016220 0.034980 -0.007956 0.027222 -0.056564 0.062933 -0.031121 0.056706 0.009973 -0.120151 -0.002350 -0.049161 -0.035568 0.007475 0.030586 -0.032969 0.064961 -0.020851 0.002778 0.011472 -0.027589 0.014746 0.038921 0.115596 -0.050226 0.097886 -0.069688 0.016741 -0.026063 0.034339 0.062392 0.062795 0.014478 -0.043451 -0.015192 -0.038254 0.002941 0.124697 0.101624 0.039009 0.104411 -0.023851 0.032417 -0.025874 0.035925 -0.089976 0.048489 -0.001784 -0.057864 0.086037 -0.011570 -0.060046 0.111469 -0.053825 0.034383 0.078031 0.092003 0.065230 0.056968 -0.033138 0.050038 -0.007046 -0.030595 0.018325 -0.022992 -0.021800 0.034333 -0.060585 0.069680 0.023012 -0.005318 0.005670 -0.080459 0.008922 -0.052259 -0.011515 0.016601 0.052110 0.038448
51 0.009938 -0.051047 0.023606 -0.072970 0.017298 0.009425 0.038103 0.056918 -0.018610 0.037393 0.004058 0.087579 0.014453 0.005911 -0.027017 -0.069310 0.026703 -0.022625 0.032295 0.066945 0.028268 -0.018084 0.041590 0.048763 0.043990 0.011520 -0.129468 -0.002918 -0.008373 -0.014859 0.004351 -0.030990 -0.011020 -0.084182 -0.050486 -0.055228 0.079914 0.022653 -0.002018 0.017497 -0.027804 0.087390 0.055778 -0.037055 -0.005603 0.100736 0.010948 -0.055438 0.021752 -0.018008 0.030019 -0.010144 0.027168 -0.057530 0.054609 -0.030882 0.054590 0.005070 -0.109930 0.001611 -0.044697 -0.029670 0.005034 0.035379 -0.031510 0.064789 -0.021267 0.001158 0.010291 -0.023857 0.013108 0.037590 0.105550 -0.047238 0.089139 -0.064851 0.015250 -0.022498 0.030712 0.052705 0.056613 0.015031 -0.040599 -0.016122 -0.033552 0.000626 0.114034 0.093114 0.030878 0.095020 -0.023013 0.032509 -0.018285 0.032943 -0.086932 0.038798 -0.008306 -0.051535 0.079136 -0.004986 -0.057849 0.104279 -0.052894 0.035183 0.073048 0.084443 0.065256 0.057182 -0.033808 0.043628 -0.003855 -0.029771 0.017007 -0.021448 -0.018953 0.032374 -0.052630 0.063657 0.019311 -0.001438 0.007482 -0.078536 0.008818 -0.048049 -0.012007 0.016871 0.047312 0.030643
