62 128
46 -0.130304 -0.108474 0.024789 -0.033244 -0.057261 -0.027279 0.110657 0.064453 0.050549 0.025371 -0.072931 0.229775 0.020966 -0.023725 -0.127421 -0.175389 -0.103600 -0.060534 -0.101796 0.041879 0.161299 -0.125780 0.139206 0.074648 0.111592 0.017444 -0.112455 0.046733 0.057157 0.061195 0.021067 0.046014 -0.071103 0.042449 0.004381 -0.038120 0.055599 0.001532 0.040979 -0.038180 -0.159944 0.084551 0.097640 0.035868 -0.084614 0.209457 0.073731 0.001504 -0.017838 -0.079631 0.012322 -0.037943 0.152035 -0.001581 -0.115329 -0.054564 0.083300 -0.048971 -0.136212 -0.142253 0.176545 -0.156619 -0.065889 -0.050068 -0.083219 0.074737 0.000228 0.027038 0.018950 0.062893 -0.062142 -0.033391 0.085555 0.069881 0.302303 0.006004 -0.007933 -0.037181 -0.034995 -0.002262 0.087369 -0.192901 -0.070873 -0.296637 0.038404 0.062196 0.136847 -0.059269 -0.150785 0.097016 0.109291 0.093482 -0.021785 -0.048572 -0.273275 0.230092 -0.132226 0.026105 0.103458 0.143349 -0.147130 0.090955 -0.063510 0.061279 0.043656 0.010051 0.156301 0.247993 -0.063506 0.073827 -0.014978 -0.014585 -0.009427 -0.037141 -0.213820 -0.030377 -0.103208 0.056476 -0.197332 -0.021533 0.030824 -0.136109 -0.081068 -0.207196 0.036933 0.072730 0.010351 0.046388
15 -0.143175 -0.119851 0.025232 -0.043178 -0.060357 -0.027783 0.119492 0.061824 0.057385 0.028488 -0.083885 0.242450 0.030718 -0.031434 -0.132417 -0.179923 -0.114181 -0.063419 -0.108916 0.040468 0.180227 -0.128908 0.150971 0.076065 0.112411 0.023170 -0.116259 0.053209 0.061032 0.068470 0.025047 0.047137 -0.073238 0.038756 0.005614 -0.038630 0.061536 0.004932 0.042197 -0.043184 -0.175911 0.092967 0.096056 0.033626 -0.085716 0.223305 0.075285 0.001660 -0.010318 -0.080905 0.003835 -0.043307 0.164688 -0.004894 -0.124830 -0.078196 0.077928 -0.054121 -0.137703 -0.143301 0.187881 -0.158048 -0.064120 -0.060106 -0.082763 0.086895 0.000585 0.027190 0.026523 0.077227 -0.058958 -0.037622 0.089433 0.068833 0.312468 0.011154 -0.000890 -0.034748 -0.035968 -0.004373 0.081872 -0.200067 -0.069462 -0.316839 0.032452 0.069300 0.145529 -0.075519 -0.156550 0.099288 0.109537 0.101381 -0.023224 -0.060466 -0.305509 0.246902 -0.139723 0.033032 0.118816 0.162802 -0.149211 0.100498 -0.072183 0.065626 0.054796 0.005829 0.173280 0.263124 -0.074489 0.071155 -0.011943 -0.019876 -0.015808 -0.042444 -0.230936 -0.024281 -0.112534 0.066593 -0.210348 -0.017419 0.047235 -0.147934 -0.080465 -0.219250 0.027530 0.080347 0.021324 0.052090
58 -0.124435 -0.112447 0.017541 -0.041973 -0.055780 -0.024392 0.110296 0.076405 0.059735 0.030966 -0.070150 0.227743 0.028498 -0.024641 -0.120220 -0.174962 -0.106768 -0.049312 -0.102218 0.028425 0.163151 -0.128412 0.142618 0.070085 0.117338 0.013113 -0.124764 0.045591 0.056284 0.076656 0.023840 0.041770 -0.065644 0.051013 0.007929 -0.040062 0.056394 -0.001861 0.020149 -0.042009 -0.170250 0.082794 0.097830 0.034061 -0.089476 0.216888 0.077727 0.005488 -0.005245 -0.083327 0.001312 -0.042957 0.168965 0.007650 -0.128469 -0.053755 0.080286 -0.053659 -0.138123 -0.132879 0.183209 -0.159164 -0.061264 -0.049108 -0.072077 0.079369 0.008227 0.014658 0.021822 0.066179 -0.066586 -0.028636 0.089146 0.065448 0.303675 0.013979 -0.005157 -0.038099 -0.036190 -0.000950 0.071896 -0.191884 -0.069128 -0.276631 0.031293 0.078823 0.137171 -0.077927 -0.153604 0.092517 0.113152 0.094275 -0.022527 -0.055266 -0.283702 0.238100 -0.142365 0.006500 0.117812 0.135531 -0.144495 0.086495 -0.064166 0.065471 0.038008 0.013941 0.161270 0.256601 -0.064633 0.071492 -0.018002 -0.020639 -0.006249 -0.045987 -0.212860 -0.032707 -0.108184 0.047497 -0.196071 -0.026670 0.043397 -0.126450 -0.084973 -0.213122 0.037089 0.063065 0.016254 0.054809
14 -0.139152 -0.127191 0.024696 -0.046530 -0.056084 -0.028269 0.119691 0.080610 0.064265 0.035476 -0.083336 0.252864 0.026043 -0.031752 -0.131748 -0.187057 -0.112729 -0.053998 -0.112568 0.031563 0.186631 -0.133262 0.158083 0.081503 0.126439 0.018986 -0.130894 0.056018 0.056877 0.084407 0.027697 0.047787 -0.075385 0.058846 0.009996 -0.046293 0.061007 -0.006911 0.022513 -0.049288 -0.188375 0.096084 0.112155 0.041194 -0.095244 0.240952 0.084719 0.004995 -0.004648 -0.083957 -0.001099 -0.044148 0.183146 0.009174 -0.142499 -0.063609 0.084405 -0.053028 -0.157651 -0.150942 0.198539 -0.176079 -0.064185 -0.055332 -0.081132 0.090665 0.008307 0.013667 0.021057 0.066772 -0.073822 -0.025149 0.094565 0.079864 0.337856 0.022732 0.000173 -0.041050 -0.041058 -0.001658 0.077449 -0.207648 -0.073209 -0.301624 0.026875 0.089236 0.146156 -0.085830 -0.163766 0.102685 0.126942 0.106416 -0.021528 -0.067202 -0.313740 0.265022 -0.156094 0.013718 0.130452 0.152322 -0.162270 0.094928 -0.074969 0.071035 0.041664 0.015216 0.185538 0.283968 -0.076771 0.077337 -0.022414 -0.022961 -0.009544 -0.046496 -0.226847 -0.034430 -0.119349 0.051493 -0.213692 -0.028880 0.045619 -0.144510 -0.091293 -0.239864 0.043255 0.066998 0.014004 0.057927
38 -0.137412 -0.121381 0.025600 -0.039413 -0.065706 -0.034017 0.115401 0.063820 0.061808 0.026290 -0.086386 0.247170 0.033603 -0.033790 -0.140501 -0.182267 -0.115189 -0.062613 -0.105747 0.044453 0.176565 -0.131979 0.154366 0.074927 0.113433 0.024577 -0.113812 0.049848 0.062712 0.069584 0.025082 0.043877 -0.078530 0.035859 0.002529 -0.041010 0.062597 0.001863 0.038600 -0.047247 -0.174987 0.093164 0.101978 0.037956 -0.091622 0.225826 0.081782 -0.001555 -0.009318 -0.083914 0.002766 -0.046127 0.163249 -0.007921 -0.124764 -0.075830 0.087467 -0.051282 -0.143908 -0.147983 0.185729 -0.165846 -0.064771 -0.060612 -0.084448 0.086855 0.002709 0.030791 0.019874 0.075988 -0.065516 -0.036170 0.086811 0.071659 0.316583 0.011167 0.000072 -0.032096 -0.033528 -0.000728 0.085537 -0.207158 -0.070278 -0.318965 0.034469 0.072147 0.151004 -0.073721 -0.161158 0.098143 0.112046 0.097685 -0.029405 -0.058502 -0.307472 0.247494 -0.143330 0.027225 0.116421 0.162107 -0.153461 0.103211 -0.065388 0.061836 0.048338 0.008440 0.170720 0.266547 -0.076092 0.078493 -0.014215 -0.016334 -0.012291 -0.042073 -0.233149 -0.031049 -0.115548 0.063193 -0.213812 -0.018464 0.044559 -0.148038 -0.089515 -0.225598 0.029821 0.084540 0.015887 0.051566
34 -0.138151 -0.116257 0.024371 -0.035836 -0.056895 -0.032734 0.118447 0.062747 0.053286 0.028448 -0.086395 0.237548 0.031022 -0.031840 -0.134106 -0.176371 -0.104802 -0.059104 -0.100473 0.046482 0.172649 -0.128954 0.150406 0.070436 0.113027 0.019337 -0.109510 0.050053 0.058444 0.071627 0.029971 0.045558 -0.077065 0.039706 0.007024 -0.034944 0.065171 0.006488 0.038512 -0.041696 -0.170494 0.093370 0.097776 0.034971 -0.087023 0.210528 0.078522 -0.000154 -0.007700 -0.075439 0.005933 -0.042280 0.163216 -0.003767 -0.120079 -0.075081 0.080904 -0.049167 -0.134931 -0.145055 0.178917 -0.155438 -0.066945 -0.054645 -0.082093 0.079196 -0.002773 0.024253 0.025952 0.073410 -0.061836 -0.034313 0.083099 0.072745 0.307952 0.010430 -0.006632 -0.029813 -0.030737 0.001455 0.077152 -0.200657 -0.066752 -0.308768 0.037882 0.072681 0.143268 -0.068924 -0.156022 0.097322 0.102496 0.096870 -0.026907 -0.058012 -0.295500 0.240791 -0.139092 0.031629 0.112734 0.153940 -0.150237 0.101844 -0.067145 0.060485 0.047320 0.009125 0.168690 0.255407 -0.073362 0.075483 -0.009822 -0.018666 -0.012666 -0.035413 -0.223099 -0.028351 -0.110206 0.065300 -0.203584 -0.016516 0.042495 -0.141326 -0.081155 -0.216151 0.027469 0.081076 0.020920 0.050403
10 -0.143552 -0.131127 0.020201 -0.044465 -0.058599 -0.027340 0.129203 0.087104 0.073220 0.032241 -0.080455 0.265747 0.025816 -0.030008 -0.139512 -0.194522 -0.118266 -0.053644 -0.121062 0.036235 0.194165 -0.144409 0.166057 0.087151 0.132243 0.016732 -0.139688 0.052698 0.062921 0.082886 0.023441 0.045951 -0.076089 0.062983 0.004792 -0.048918 0.067714 -0.010648 0.021825 -0.054035 -0.195588 0.098760 0.120002 0.044449 -0.097089 0.255373 0.091059 0.001877 -0.001553 -0.095066 0.001595 -0.044369 0.196607 0.005926 -0.151125 -0.060479 0.093738 -0.062893 -0.166588 -0.154674 0.210074 -0.183639 -0.074123 -0.052335 -0.082117 0.092669 0.004930 0.014877 0.018351 0.068128 -0.071997 -0.031396 0.106254 0.079855 0.355034 0.023540 -0.001832 -0.043989 -0.045848 0.001216 0.079933 -0.220573 -0.079467 -0.316618 0.027869 0.090916 0.152002 -0.090471 -0.173689 0.107327 0.138221 0.113597 -0.019632 -0.066280 -0.324842 0.276952 -0.162170 0.006110 0.134800 0.159631 -0.170250 0.098438 -0.077541 0.074544 0.044797 0.012875 0.194315 0.298301 -0.079418 0.083817 -0.015576 -0.025017 -0.005332 -0.051864 -0.238722 -0.034673 -0.122631 0.056940 -0.224353 -0.034984 0.046946 -0.150615 -0.095863 -0.248324 0.048553 0.069363 0.013780 0.061938
18 -0.143574 -0.130556 0.019436 -0.048193 -0.058692 -0.032290 0.124873 0.088612 0.068189 0.037956 -0.086077 0.267181 0.034162 -0.033799 -0.139706 -0.202981 -0.121314 -0.058070 -0.122309 0.041619 0.198804 -0.144017 0.171863 0.086370 0.135259 0.022597 -0.142009 0.056326 0.066564 0.085951 0.027713 0.053286 -0.076661 0.060688 0.008089 -0.052196 0.066083 -0.006443 0.029849 -0.047207 -0.196157 0.102932 0.111199 0.040409 -0.102876 0.253491 0.081498 0.003131 -0.006210 -0.093351 0.002953 -0.049334 0.195216 0.010436 -0.148080 -0.062287 0.092953 -0.063155 -0.166561 -0.157106 0.210036 -0.186719 -0.070707 -0.053542 -0.081168 0.092942 0.005828 0.018323 0.024407 0.075106 -0.078742 -0.029469 0.104685 0.072461 0.354383 0.021014 0.001739 -0.040247 -0.041980 0.000288 0.079295 -0.218011 -0.076476 -0.325659 0.029786 0.092965 0.159289 -0.085162 -0.176643 0.112415 0.133177 0.107958 -0.019851 -0.071635 -0.330247 0.274465 -0.163437 0.015797 0.135247 0.156842 -0.169815 0.104541 -0.076878 0.072990 0.051315 0.015959 0.190485 0.290631 -0.077998 0.079699 -0.021881 -0.024824 -0.012676 -0.052012 -0.242237 -0.038963 -0.123438 0.053181 -0.220243 -0.034509 0.045291 -0.155804 -0.096432 -0.251809 0.044919 0.069361 0.014000 0.056870
55 -0.132964 -0.124891 0.022365 -0.042598 -0.058668 -0.032455 0.124977 0.080252 0.065574 0.037186 -0.076997 0.249272 0.025499 -0.029706 -0.130720 -0.187760 -0.114104 -0.050825 -0.109853 0.033271 0.185219 -0.132751 0.154370 0.078151 0.129220 0.018528 -0.136105 0.049532 0.056590 0.083968 0.027245 0.045145 -0.068377 0.055120 0.011335 -0.042464 0.058276 -0.008709 0.020934 -0.052108 -0.179375 0.097979 0.110240 0.036637 -0.088659 0.237868 0.083383 0.000795 -0.005900 -0.088488 -0.003095 -0.043470 0.185449 0.009246 -0.144410 -0.062288 0.087964 -0.054359 -0.155117 -0.148681 0.198343 -0.170746 -0.061944 -0.053197 -0.074011 0.089477 0.007306 0.013161 0.021434 0.065063 -0.073580 -0.024187 0.098343 0.078170 0.331968 0.021455 0.000975 -0.043497 -0.042479 0.007937 0.077719 -0.208551 -0.072819 -0.302044 0.026283 0.089364 0.143962 -0.084807 -0.166222 0.102176 0.130306 0.108658 -0.019429 -0.070680 -0.310040 0.252999 -0.154265 0.012874 0.124882 0.148904 -0.153012 0.093380 -0.076769 0.063237 0.045009 0.016968 0.180527 0.275669 -0.067634 0.079383 -0.023797 -0.015696 -0.003739 -0.049367 -0.223236 -0.036384 -0.110672 0.048684 -0.202484 -0.033197 0.046572 -0.137433 -0.091958 -0.238613 0.038725 0.067204 0.014641 0.060240
52 -0.127572 -0.101284 0.024791 -0.038091 -0.061786 -0.032051 0.108536 0.058838 0.053744 0.020073 -0.074110 0.222042 0.023419 -0.025582 -0.126698 -0.172515 -0.102790 -0.056407 -0.100328 0.039170 0.163615 -0.122394 0.132985 0.067541 0.101967 0.023460 -0.106282 0.050385 0.057856 0.060884 0.025028 0.044798 -0.064090 0.039851 0.006008 -0.034909 0.053807 0.004534 0.038684 -0.040054 -0.152091 0.087903 0.089360 0.034998 -0.078006 0.202639 0.072527 0.004133 -0.015526 -0.077209 0.008077 -0.040764 0.151856 -0.005955 -0.106368 -0.053486 0.081819 -0.050597 -0.129706 -0.139408 0.171158 -0.147511 -0.063462 -0.049542 -0.083826 0.074399 0.003166 0.032433 0.014626 0.066652 -0.057836 -0.031144 0.085667 0.069900 0.291919 0.002552 -0.006817 -0.036091 -0.031092 -0.000675 0.084948 -0.188164 -0.065583 -0.289989 0.038748 0.060907 0.136082 -0.056401 -0.147193 0.093766 0.105071 0.091178 -0.024043 -0.053708 -0.269343 0.221576 -0.129098 0.026368 0.099197 0.143515 -0.137141 0.096131 -0.057301 0.062482 0.048129 0.009991 0.154313 0.241713 -0.067991 0.072571 -0.013120 -0.019429 -0.008855 -0.040376 -0.207137 -0.026270 -0.107308 0.060723 -0.191571 -0.021339 0.033415 -0.131344 -0.085293 -0.205332 0.034827 0.073629 0.012716 0.045218
19 -0.117196 -0.102400 0.024816 -0.036579 -0.057202 -0.027610 0.101224 0.054828 0.053440 0.023018 -0.075339 0.216186 0.020017 -0.023722 -0.119655 -0.162903 -0.102741 -0.060776 -0.092273 0.041573 0.156671 -0.120833 0.131146 0.069876 0.102293 0.022072 -0.102939 0.045854 0.050980 0.058074 0.021639 0.043529 -0.063506 0.031917 0.002213 -0.033972 0.048957 0.006559 0.038746 -0.037977 -0.148808 0.081367 0.088430 0.031344 -0.072114 0.198234 0.072294 -0.000664 -0.013901 -0.070388 0.006313 -0.036638 0.140687 -0.004889 -0.101947 -0.050976 0.073986 -0.044305 -0.120131 -0.132930 0.164931 -0.147526 -0.056156 -0.043694 -0.078124 0.066676 0.003636 0.027085 0.014291 0.058237 -0.054230 -0.031429 0.082137 0.067232 0.279299 -0.000343 -0.001659 -0.030962 -0.034317 -0.003144 0.078369 -0.178725 -0.063461 -0.282588 0.032171 0.059680 0.131424 -0.055696 -0.143260 0.086085 0.099763 0.089972 -0.017055 -0.046825 -0.260605 0.219453 -0.124679 0.024108 0.099614 0.131998 -0.132606 0.092045 -0.060858 0.055322 0.041833 0.009846 0.145682 0.232656 -0.062605 0.065333 -0.015007 -0.017221 -0.010412 -0.039649 -0.195617 -0.023041 -0.095828 0.059094 -0.186153 -0.016703 0.030114 -0.126531 -0.080636 -0.200411 0.028980 0.072555 0.008560 0.042035
7 -0.123297 -0.115390 0.015911 -0.041645 -0.055852 -0.024342 0.113889 0.079582 0.064973 0.030704 -0.074597 0.234005 0.026764 -0.032507 -0.118609 -0.174922 -0.105640 -0.050325 -0.107694 0.029376 0.171518 -0.128942 0.147476 0.077435 0.122443 0.013218 -0.130499 0.046765 0.053417 0.075069 0.026372 0.047853 -0.070087 0.050945 0.004996 -0.043250 0.056179 -0.011467 0.019687 -0.047353 -0.176495 0.089415 0.104795 0.039435 -0.088864 0.224550 0.078640 0.002160 -0.002074 -0.081115 -0.001958 -0.038019 0.171738 0.012310 -0.136582 -0.054030 0.082252 -0.054967 -0.143436 -0.133621 0.186832 -0.161296 -0.061079 -0.045247 -0.072941 0.083477 0.007263 0.018287 0.019236 0.059563 -0.069193 -0.021864 0.087636 0.071197 0.312397 0.020946 -0.001597 -0.036128 -0.038887 0.000007 0.073147 -0.189417 -0.071012 -0.276192 0.025770 0.079064 0.132991 -0.077345 -0.155996 0.098579 0.123711 0.098976 -0.017324 -0.062444 -0.289292 0.244685 -0.140285 0.003945 0.116164 0.139730 -0.150061 0.087778 -0.073175 0.062198 0.039970 0.009971 0.166641 0.260869 -0.063678 0.073374 -0.016464 -0.015279 -0.008749 -0.048310 -0.215352 -0.033273 -0.108880 0.044930 -0.199031 -0.025773 0.039773 -0.128370 -0.081369 -0.219616 0.036006 0.058731 0.018580 0.057940
39 -0.133688 -0.106491 0.021406 -0.038305 -0.052576 -0.027522 0.110554 0.064694 0.053980 0.026572 -0.079702 0.224745 0.027473 -0.031066 -0.124128 -0.170029 -0.107350 -0.055575 -0.101915 0.041953 0.167939 -0.121256 0.143110 0.072867 0.105300 0.022309 -0.110998 0.053000 0.053983 0.066435 0.028292 0.040174 -0.070986 0.037321 0.007439 -0.037340 0.059574 0.004699 0.033833 -0.044032 -0.159214 0.087803 0.091015 0.028092 -0.081153 0.210575 0.075485 0.004685 -0.007077 -0.071864 0.003209 -0.037276 0.156057 -0.006750 -0.115047 -0.063027 0.075557 -0.044562 -0.128112 -0.136227 0.170066 -0.148052 -0.063405 -0.051265 -0.081118 0.076462 0.002892 0.028024 0.024350 0.067540 -0.054531 -0.030514 0.080563 0.069849 0.297786 0.014430 -0.001710 -0.033221 -0.027653 -0.001925 0.079783 -0.186739 -0.066106 -0.294010 0.033658 0.067878 0.140244 -0.063857 -0.146232 0.093460 0.101579 0.095164 -0.020819 -0.053012 -0.280785 0.230370 -0.133373 0.026299 0.109625 0.149721 -0.146453 0.097457 -0.067599 0.059970 0.051870 0.008292 0.157919 0.247560 -0.069838 0.066300 -0.013148 -0.014684 -0.013285 -0.038320 -0.216579 -0.027465 -0.109685 0.054369 -0.195986 -0.023728 0.040412 -0.135341 -0.077149 -0.209867 0.035033 0.075437 0.017560 0.043962
48 -0.142143 -0.112385 0.026156 -0.041308 -0.062208 -0.035129 0.113851 0.062510 0.056556 0.026462 -0.083822 0.240490 0.029742 -0.029311 -0.126464 -0.187361 -0.112209 -0.063875 -0.101389 0.041814 0.174641 -0.129615 0.140260 0.073212 0.116195 0.023347 -0.120679 0.049906 0.054578 0.065317 0.031107 0.043634 -0.068719 0.047419 0.000699 -0.040319 0.064819 0.002762 0.039081 -0.040552 -0.171089 0.089670 0.101768 0.033409 -0.085143 0.221123 0.080272 -0.001508 -0.018423 -0.080780 0.010811 -0.032895 0.163178 0.000953 -0.128920 -0.059470 0.078793 -0.043326 -0.145675 -0.143507 0.184104 -0.159850 -0.063638 -0.045095 -0.087258 0.076803 -0.005142 0.024640 0.026567 0.067220 -0.064376 -0.037607 0.082102 0.078269 0.316750 0.014759 -0.002415 -0.042328 -0.028830 0.003528 0.087288 -0.192651 -0.066555 -0.307183 0.035356 0.064385 0.144015 -0.062755 -0.148329 0.098120 0.106737 0.103188 -0.028344 -0.048265 -0.285569 0.236918 -0.140529 0.023676 0.117588 0.157442 -0.151469 0.096060 -0.066468 0.062039 0.045947 0.017581 0.163110 0.256983 -0.074886 0.069252 -0.016866 -0.019815 -0.014997 -0.041808 -0.229538 -0.030068 -0.112844 0.059638 -0.197411 -0.024097 0.042778 -0.145486 -0.083379 -0.220681 0.034199 0.078405 0.018990 0.045396
17 -0.126666 -0.107077 0.021199 -0.034674 -0.058675 -0.031106 0.109231 0.062174 0.055122 0.030123 -0.075318 0.223952 0.028899 -0.026298 -0.123077 -0.160630 -0.100445 -0.059310 -0.097751 0.041980 0.160681 -0.122440 0.138807 0.065815 0.108224 0.022942 -0.106585 0.048157 0.056005 0.067876 0.026306 0.041917 -0.066276 0.037156 0.003304 -0.038429 0.059186 0.005770 0.033603 -0.038558 -0.158228 0.080432 0.086294 0.033375 -0.081845 0.197353 0.073153 0.004719 -0.009772 -0.070531 0.002444 -0.041384 0.150902 -0.008256 -0.108625 -0.066279 0.071374 -0.042233 -0.124350 -0.136153 0.168250 -0.147199 -0.056776 -0.051689 -0.075694 0.077458 -0.000931 0.023765 0.021390 0.068160 -0.059171 -0.031876 0.080455 0.063124 0.288987 0.014138 -0.005209 -0.034573 -0.028418 -0.003360 0.074734 -0.183323 -0.060014 -0.279260 0.029137 0.066022 0.136107 -0.066646 -0.138610 0.087300 0.095610 0.089412 -0.024211 -0.049539 -0.273645 0.221304 -0.125343 0.027243 0.109148 0.145234 -0.136598 0.089755 -0.064462 0.060062 0.047406 0.008113 0.155414 0.234960 -0.069113 0.071182 -0.012370 -0.017193 -0.009050 -0.035012 -0.206466 -0.026299 -0.104269 0.059453 -0.187292 -0.022693 0.042105 -0.127481 -0.075006 -0.199481 0.025560 0.069705 0.017481 0.047915
30 -0.117270 -0.105047 0.018548 -0.030475 -0.060264 -0.027341 0.105665 0.056238 0.050192 0.025058 -0.076821 0.215150 0.020458 -0.026357 -0.121216 -0.167184 -0.098869 -0.058066 -0.099069 0.042520 0.157124 -0.119917 0.136230 0.063871 0.104200 0.017383 -0.099620 0.045552 0.049699 0.062283 0.020594 0.039963 -0.064095 0.034256 0.001177 -0.031414 0.053872 0.006579 0.037335 -0.042326 -0.150070 0.083492 0.090192 0.037099 -0.075817 0.197756 0.069204 -0.001401 -0.014608 -0.070976 0.007334 -0.034588 0.147425 -0.007171 -0.103136 -0.053089 0.073038 -0.045348 -0.122605 -0.132597 0.167441 -0.149772 -0.055819 -0.045792 -0.073556 0.068437 -0.000898 0.026772 0.018274 0.058715 -0.054133 -0.030442 0.082056 0.065783 0.283354 0.001451 -0.004917 -0.029550 -0.031701 0.003579 0.075486 -0.183640 -0.067977 -0.281595 0.035373 0.064481 0.126631 -0.056024 -0.143593 0.089498 0.103893 0.084115 -0.021169 -0.048096 -0.256712 0.218467 -0.127478 0.026861 0.100308 0.132453 -0.130943 0.090795 -0.060098 0.054108 0.041683 0.008534 0.149876 0.235503 -0.066056 0.066548 -0.015884 -0.021548 -0.013013 -0.039639 -0.195594 -0.027217 -0.102681 0.055092 -0.185950 -0.016331 0.028777 -0.124981 -0.078922 -0.196783 0.035263 0.073757 0.016022 0.046031
41 -0.133971 -0.112610 0.023999 -0.036020 -0.053817 -0.029709 0.112013 0.060301 0.055882 0.022553 -0.077946 0.229989 0.024182 -0.028552 -0.124888 -0.166442 -0.105403 -0.057239 -0.098503 0.041885 0.164954 -0.126938 0.138395 0.069148 0.109449 0.022169 -0.112333 0.050143 0.056967 0.064794 0.023658 0.046236 -0.074147 0.039981 0.003841 -0.033966 0.060961 0.002343 0.032780 -0.042374 -0.158742 0.085786 0.094113 0.029070 -0.081618 0.209690 0.076779 0.005296 -0.009567 -0.078321 0.005890 -0.041303 0.153251 -0.006796 -0.112392 -0.066916 0.080319 -0.044598 -0.131587 -0.141516 0.174707 -0.150510 -0.059947 -0.048263 -0.077742 0.079003 -0.004479 0.024770 0.022877 0.069594 -0.056354 -0.035173 0.085195 0.070448 0.295170 0.008440 0.000907 -0.033626 -0.031589 0.004686 0.080232 -0.192502 -0.068022 -0.294785 0.037415 0.063458 0.136751 -0.065808 -0.147094 0.090311 0.101296 0.093116 -0.022996 -0.056894 -0.282749 0.232141 -0.135008 0.029809 0.109868 0.150764 -0.146659 0.090878 -0.060865 0.058031 0.050894 0.011395 0.159451 0.245061 -0.072771 0.071543 -0.012634 -0.019078 -0.015718 -0.041588 -0.217099 -0.029724 -0.110023 0.058787 -0.193351 -0.021496 0.036219 -0.138553 -0.079931 -0.205747 0.028881 0.074281 0.019352 0.042971
21 -0.143832 -0.108623 0.023323 -0.044905 -0.062636 -0.034605 0.113129 0.062965 0.058424 0.032982 -0.080497 0.240889 0.028431 -0.036338 -0.129819 -0.181286 -0.111558 -0.062076 -0.102400 0.040887 0.177568 -0.130361 0.143513 0.077042 0.114870 0.020497 -0.114019 0.053030 0.059837 0.068974 0.031918 0.043774 -0.072701 0.046326 0.000763 -0.042077 0.062671 0.009011 0.042915 -0.041709 -0.172006 0.095932 0.094407 0.029794 -0.091978 0.220511 0.080043 0.002990 -0.009798 -0.079224 0.011568 -0.035779 0.165762 -0.006168 -0.125875 -0.062506 0.083113 -0.051597 -0.145951 -0.139511 0.180644 -0.161616 -0.065363 -0.046334 -0.082107 0.078179 -0.003008 0.021890 0.021229 0.066324 -0.057412 -0.039001 0.085806 0.075677 0.318201 0.013744 -0.003567 -0.042841 -0.029255 0.003779 0.081653 -0.194435 -0.070771 -0.312756 0.031456 0.065822 0.142319 -0.070080 -0.147424 0.092613 0.111752 0.100431 -0.028214 -0.047278 -0.290971 0.239698 -0.144182 0.029135 0.117220 0.155642 -0.155263 0.097242 -0.068801 0.069288 0.055202 0.015324 0.165942 0.253430 -0.073813 0.069722 -0.007954 -0.014747 -0.017554 -0.038996 -0.229097 -0.026121 -0.119537 0.058023 -0.200113 -0.017699 0.041085 -0.146007 -0.084415 -0.226026 0.038559 0.079179 0.021012 0.042357
25 -0.127155 -0.105909 0.019460 -0.037161 -0.060342 -0.030504 0.103749 0.058014 0.056407 0.023273 -0.076007 0.218435 0.023327 -0.023112 -0.123438 -0.171502 -0.100248 -0.060102 -0.095237 0.042571 0.163682 -0.122417 0.138766 0.072459 0.106989 0.016265 -0.105567 0.045852 0.050831 0.064982 0.024593 0.043177 -0.066091 0.034421 0.000385 -0.034442 0.052285 0.006571 0.033627 -0.042643 -0.158055 0.085982 0.089755 0.030715 -0.076669 0.206294 0.073128 0.005039 -0.009613 -0.074299 0.003426 -0.035605 0.151986 -0.001321 -0.113250 -0.057961 0.081802 -0.051414 -0.129527 -0.132527 0.169055 -0.147568 -0.058673 -0.049006 -0.081959 0.071225 -0.000116 0.029528 0.014069 0.063947 -0.058490 -0.033333 0.086000 0.070168 0.289277 0.001684 -0.007659 -0.031324 -0.030268 -0.000860 0.079903 -0.188073 -0.065335 -0.289984 0.034402 0.063091 0.133435 -0.064822 -0.148612 0.086974 0.101123 0.088758 -0.018945 -0.054506 -0.269765 0.224962 -0.129048 0.023042 0.104409 0.140362 -0.142338 0.093455 -0.062976 0.060491 0.046355 0.009318 0.153532 0.242309 -0.061913 0.067853 -0.015154 -0.017781 -0.009147 -0.040406 -0.208978 -0.028234 -0.100234 0.055895 -0.189212 -0.022834 0.034966 -0.125862 -0.082379 -0.207261 0.030926 0.077105 0.010010 0.046094
43 -0.140287 -0.106463 0.025102 -0.042219 -0.054850 -0.039679 0.113651 0.065749 0.058139 0.025884 -0.076727 0.233826 0.021888 -0.029820 -0.120168 -0.181900 -0.113287 -0.061394 -0.103418 0.035097 0.172400 -0.127650 0.142511 0.070848 0.111524 0.024433 -0.115267 0.054241 0.054480 0.066848 0.032104 0.049028 -0.069359 0.049333 0.007866 -0.036242 0.059938 0.003723 0.044334 -0.039415 -0.158900 0.090199 0.100677 0.033659 -0.089110 0.212539 0.081725 -0.001220 -0.016527 -0.076400 0.010377 -0.032136 0.158970 0.001717 -0.126771 -0.061390 0.085238 -0.042460 -0.146336 -0.141519 0.177649 -0.154868 -0.065220 -0.041593 -0.088468 0.074094 0.000071 0.021539 0.024394 0.068892 -0.057351 -0.030854 0.085806 0.071318 0.306886 0.008008 0.001834 -0.044658 -0.032740 0.003300 0.086188 -0.184539 -0.066304 -0.295891 0.030027 0.063521 0.142808 -0.060926 -0.145886 0.093341 0.107280 0.099844 -0.023024 -0.044864 -0.282260 0.233839 -0.139008 0.022875 0.113807 0.153800 -0.143718 0.100089 -0.065411 0.059978 0.050147 0.012826 0.166343 0.247505 -0.063793 0.066795 -0.015614 -0.017090 -0.018687 -0.038778 -0.224959 -0.033032 -0.114316 0.056432 -0.191332 -0.022857 0.041706 -0.143109 -0.085426 -0.216520 0.033702 0.074595 0.018390 0.044216
2 -0.135068 -0.124866 0.022300 -0.045473 -0.060070 -0.031997 0.124975 0.082575 0.056369 0.032526 -0.084195 0.253058 0.032665 -0.035439 -0.134146 -0.194177 -0.117354 -0.056229 -0.111312 0.036970 0.186347 -0.134236 0.161418 0.080725 0.122584 0.020348 -0.134964 0.055087 0.062850 0.080846 0.029449 0.047404 -0.078017 0.056864 0.003745 -0.042881 0.065470 -0.008532 0.032121 -0.049762 -0.181973 0.097462 0.108534 0.038685 -0.096441 0.234581 0.078175 0.000058 -0.008343 -0.087936 0.003133 -0.047202 0.182408 0.009736 -0.142781 -0.064821 0.089181 -0.051024 -0.158946 -0.144834 0.194558 -0.170440 -0.066561 -0.054047 -0.081925 0.089716 0.002583 0.018743 0.016263 0.067066 -0.073302 -0.029045 0.098549 0.072505 0.330086 0.019919 0.001410 -0.042157 -0.039213 0.002362 0.077831 -0.211911 -0.078665 -0.308745 0.034657 0.090301 0.147069 -0.078420 -0.160722 0.100281 0.126079 0.108097 -0.022640 -0.069132 -0.314060 0.257615 -0.153923 0.013412 0.122031 0.156114 -0.156782 0.094057 -0.072681 0.061560 0.049097 0.011742 0.187139 0.279790 -0.075915 0.079292 -0.023281 -0.018291 -0.009032 -0.048162 -0.235294 -0.035441 -0.115268 0.056759 -0.212595 -0.030580 0.041347 -0.147487 -0.089228 -0.242129 0.040079 0.073284 0.021535 0.055969
9 -0.131582 -0.109304 0.019231 -0.038402 -0.058180 -0.030487 0.110357 0.068389 0.059960 0.025591 -0.076792 0.235825 0.026804 -0.032457 -0.128750 -0.176328 -0.109742 -0.057093 -0.104319 0.040824 0.163989 -0.123295 0.146732 0.068678 0.110079 0.023742 -0.114969 0.045794 0.057587 0.068658 0.024723 0.048009 -0.073225 0.039061 0.008111 -0.040904 0.063342 0.002085 0.032699 -0.039310 -0.167136 0.083779 0.099443 0.038852 -0.087286 0.210263 0.074976 -0.001315 -0.014368 -0.083039 0.004815 -0.039821 0.156705 -0.000853 -0.115304 -0.060896 0.081391 -0.050064 -0.137710 -0.143631 0.180239 -0.159167 -0.066137 -0.048356 -0.077824 0.076714 0.002508 0.027414 0.017168 0.067005 -0.059662 -0.028204 0.090974 0.068090 0.308843 0.006760 -0.005753 -0.031440 -0.037502 0.005267 0.085831 -0.196385 -0.072740 -0.302143 0.034172 0.068536 0.139842 -0.065654 -0.153049 0.096459 0.110917 0.093408 -0.021346 -0.051513 -0.283127 0.231359 -0.133940 0.022141 0.109565 0.148272 -0.150867 0.090751 -0.066034 0.063927 0.046749 0.010991 0.158496 0.256460 -0.072244 0.068868 -0.010089 -0.017838 -0.008120 -0.041785 -0.216386 -0.030947 -0.111837 0.061322 -0.199726 -0.019830 0.035639 -0.137959 -0.085925 -0.214437 0.032015 0.078516 0.015719 0.051354
1 -0.119665 -0.098713 0.024555 -0.036399 -0.047850 -0.032631 0.094501 0.058517 0.050929 0.022683 -0.069580 0.198914 0.024619 -0.027479 -0.109654 -0.154824 -0.090686 -0.053810 -0.082511 0.030855 0.147071 -0.109009 0.121845 0.064510 0.096889 0.019227 -0.095431 0.048043 0.050129 0.054359 0.018525 0.041109 -0.060558 0.037683 0.001685 -0.035572 0.048345 0.000807 0.037039 -0.039571 -0.142896 0.072900 0.086032 0.031396 -0.074080 0.179881 0.062882 0.000931 -0.008841 -0.062892 0.003303 -0.028487 0.134563 0.002821 -0.107835 -0.051555 0.069262 -0.036168 -0.122582 -0.117781 0.155051 -0.139263 -0.057306 -0.040438 -0.074780 0.066460 -0.000265 0.023862 0.014356 0.057310 -0.052014 -0.032129 0.076730 0.061019 0.258433 0.006193 0.002476 -0.035342 -0.025490 -0.002565 0.069220 -0.167477 -0.058554 -0.259038 0.027256 0.054448 0.118622 -0.056028 -0.124248 0.081112 0.091915 0.082924 -0.020544 -0.044494 -0.242414 0.199843 -0.118222 0.017129 0.098483 0.129809 -0.128975 0.084925 -0.053299 0.051714 0.043455 0.014483 0.142402 0.216909 -0.060682 0.061743 -0.013676 -0.017825 -0.011173 -0.031419 -0.189762 -0.027086 -0.091735 0.051817 -0.171042 -0.020922 0.032482 -0.116540 -0.075151 -0.184861 0.027329 0.063032 0.012433 0.041112
22 -0.105742 -0.094374 0.017310 -0.031656 -0.050805 -0.028106 0.092163 0.053189 0.044233 0.020980 -0.066745 0.194677 0.023273 -0.025585 -0.104417 -0.147965 -0.091982 -0.050883 -0.081995 0.036917 0.143612 -0.106353 0.122869 0.061682 0.090877 0.020529 -0.095136 0.037418 0.049506 0.058888 0.019610 0.034695 -0.061460 0.033852 0.002706 -0.034510 0.047573 0.000713 0.027102 -0.038985 -0.133216 0.070064 0.077010 0.032366 -0.067107 0.182060 0.059412 0.003923 -0.007069 -0.067149 0.002865 -0.035826 0.129801 -0.004040 -0.093938 -0.049416 0.071388 -0.039068 -0.110877 -0.121585 0.151893 -0.130451 -0.050686 -0.038668 -0.068701 0.065389 -0.002341 0.025149 0.018578 0.058642 -0.052777 -0.024623 0.073353 0.057691 0.258555 0.007591 -0.006655 -0.027480 -0.025600 -0.000276 0.065387 -0.163831 -0.054854 -0.253142 0.029540 0.055181 0.119085 -0.058197 -0.124798 0.079015 0.093571 0.077746 -0.019253 -0.049875 -0.236871 0.197216 -0.114519 0.019261 0.094749 0.118817 -0.122883 0.080589 -0.051362 0.055496 0.039702 0.011656 0.133955 0.214127 -0.056640 0.061442 -0.009006 -0.015518 -0.006430 -0.031027 -0.180933 -0.023463 -0.093053 0.048847 -0.167782 -0.019779 0.032373 -0.114346 -0.069777 -0.182450 0.030074 0.063324 0.014137 0.042197
42 -0.135056 -0.116439 0.020996 -0.043874 -0.053660 -0.031512 0.117207 0.079795 0.063561 0.035253 -0.075618 0.241876 0.025018 -0.027056 -0.124242 -0.182736 -0.112842 -0.056131 -0.103173 0.033713 0.178497 -0.132924 0.152810 0.079738 0.125289 0.015945 -0.130134 0.053962 0.056416 0.080268 0.025296 0.046778 -0.070532 0.053124 0.009351 -0.042935 0.061224 -0.009585 0.024000 -0.048891 -0.177834 0.092999 0.104579 0.038203 -0.086515 0.230293 0.081101 0.002902 -0.007745 -0.082658 0.002602 -0.045020 0.175924 0.007059 -0.137272 -0.061524 0.087400 -0.052292 -0.152650 -0.146480 0.192044 -0.162609 -0.065545 -0.050292 -0.073646 0.085629 0.002578 0.017453 0.019486 0.066499 -0.067553 -0.028444 0.094907 0.074261 0.321469 0.019215 -0.002505 -0.035309 -0.041598 0.005602 0.074694 -0.198087 -0.075598 -0.292276 0.029298 0.083930 0.144875 -0.082242 -0.159459 0.100176 0.122398 0.104464 -0.024763 -0.065716 -0.302559 0.248140 -0.147868 0.008818 0.124099 0.144930 -0.152379 0.090814 -0.075752 0.061597 0.045852 0.009155 0.178562 0.269295 -0.069721 0.077078 -0.014992 -0.019465 -0.006806 -0.043800 -0.225836 -0.029482 -0.111940 0.052054 -0.202272 -0.027421 0.044371 -0.136324 -0.088189 -0.226915 0.036456 0.063565 0.018113 0.058086
11 -0.133680 -0.107076 0.025970 -0.036967 -0.052371 -0.036092 0.102042 0.064741 0.056603 0.021696 -0.074486 0.221537 0.021797 -0.026591 -0.113629 -0.174983 -0.105463 -0.059386 -0.094162 0.031060 0.164835 -0.121582 0.136098 0.071293 0.106044 0.017719 -0.110935 0.049916 0.049962 0.060012 0.028158 0.042213 -0.063515 0.039091 0.005972 -0.032571 0.060980 0.005634 0.037883 -0.035768 -0.151830 0.086999 0.096522 0.031606 -0.082195 0.205908 0.077089 0.003227 -0.015512 -0.069698 0.009346 -0.032076 0.149824 -0.000196 -0.118377 -0.060018 0.078207 -0.038563 -0.138864 -0.130595 0.169199 -0.152029 -0.056861 -0.039950 -0.084731 0.073050 -0.006024 0.021789 0.023955 0.059255 -0.056885 -0.033297 0.077121 0.067740 0.294065 0.011456 0.002015 -0.042360 -0.032165 -0.001354 0.080081 -0.174505 -0.064902 -0.284562 0.026730 0.061435 0.137173 -0.060888 -0.137201 0.089002 0.099071 0.089578 -0.021537 -0.042854 -0.265541 0.219567 -0.129659 0.021078 0.106266 0.146936 -0.136248 0.096303 -0.062894 0.059027 0.043839 0.013040 0.157463 0.233912 -0.063015 0.063692 -0.014678 -0.013475 -0.018790 -0.039995 -0.210014 -0.030808 -0.108833 0.056830 -0.185165 -0.023691 0.038688 -0.135235 -0.076385 -0.210488 0.030695 0.067090 0.012518 0.043718
51 -0.126646 -0.103680 0.020228 -0.036038 -0.056391 -0.029088 0.105116 0.057704 0.054044 0.028262 -0.074525 0.222106 0.024319 -0.030255 -0.121942 -0.167871 -0.103163 -0.055097 -0.100560 0.034246 0.160562 -0.121509 0.137481 0.066755 0.107541 0.021413 -0.105244 0.047186 0.058624 0.067390 0.024207 0.043939 -0.066613 0.040728 0.004045 -0.035516 0.060874 0.004062 0.033215 -0.037310 -0.155912 0.086223 0.087019 0.029521 -0.080331 0.204544 0.075743 0.000700 -0.009464 -0.072789 0.006227 -0.040067 0.153589 -0.007279 -0.114660 -0.063501 0.079350 -0.049815 -0.127595 -0.133702 0.173232 -0.149867 -0.063011 -0.044944 -0.078412 0.078617 -0.001958 0.027871 0.018721 0.065212 -0.055051 -0.033782 0.080605 0.064335 0.292592 0.007430 0.000300 -0.035775 -0.033419 -0.003760 0.079765 -0.184066 -0.063334 -0.290545 0.034934 0.065316 0.133043 -0.061278 -0.146708 0.088184 0.096821 0.094508 -0.021387 -0.049846 -0.275306 0.220077 -0.133358 0.025660 0.103969 0.145814 -0.138623 0.095697 -0.060636 0.061469 0.045235 0.007049 0.157540 0.243027 -0.066463 0.066807 -0.010936 -0.015559 -0.017291 -0.035499 -0.205895 -0.024443 -0.103137 0.058053 -0.189375 -0.019045 0.039905 -0.134263 -0.080939 -0.207019 0.032780 0.076061 0.015236 0.043820
28 -0.162563 -0.145827 0.030563 -0.051928 -0.066608 -0.032380 0.142467 0.091178 0.062681 0.036093 -0.095268 0.292818 0.036610 -0.034491 -0.159856 -0.220963 -0.132284 -0.071321 -0.127900 0.047528 0.210587 -0.156534 0.184977 0.092627 0.139870 0.026858 -0.159294 0.064890 0.076615 0.090679 0.030309 0.060971 -0.084664 0.064642 0.005701 -0.059168 0.079823 -0.003054 0.039633 -0.052887 -0.214200 0.104055 0.123625 0.048478 -0.116106 0.268718 0.085650 0.001548 -0.016492 -0.101387 0.002907 -0.050335 0.209805 0.002584 -0.153403 -0.075347 0.097154 -0.067574 -0.184432 -0.170528 0.225622 -0.202443 -0.074867 -0.054281 -0.092521 0.099300 0.001680 0.029510 0.019321 0.075230 -0.085324 -0.029421 0.106620 0.075179 0.381726 0.018210 -0.001745 -0.043341 -0.051103 0.005585 0.092213 -0.248242 -0.083809 -0.357990 0.038283 0.104739 0.173601 -0.083789 -0.189071 0.121093 0.142218 0.119523 -0.028628 -0.077029 -0.353657 0.294144 -0.176236 0.022950 0.143430 0.171798 -0.188567 0.117613 -0.086182 0.075095 0.062311 0.022500 0.216505 0.322225 -0.084515 0.087494 -0.020830 -0.022724 -0.017343 -0.053425 -0.266361 -0.043638 -0.138258 0.063218 -0.244808 -0.038512 0.047554 -0.172835 -0.104290 -0.272222 0.041857 0.081165 0.021615 0.063335
16 -0.121004 -0.098463 0.022017 -0.034360 -0.055366 -0.028107 0.103732 0.058254 0.051389 0.024076 -0.074018 0.214541 0.021137 -0.022405 -0.114109 -0.163488 -0.102738 -0.060222 -0.097739 0.033590 0.153460 -0.114904 0.132961 0.065914 0.103651 0.019970 -0.101582 0.045392 0.051091 0.056554 0.019252 0.043255 -0.065552 0.032973 0.005386 -0.033133 0.057907 0.000155 0.032705 -0.041854 -0.151738 0.084047 0.091423 0.032734 -0.074516 0.193506 0.070883 0.004310 -0.015205 -0.067991 0.010455 -0.035860 0.145436 -0.000372 -0.105592 -0.054548 0.075708 -0.044659 -0.124309 -0.133600 0.166633 -0.148384 -0.059425 -0.049932 -0.073519 0.070387 0.000580 0.030036 0.015878 0.058044 -0.052439 -0.034097 0.081357 0.062795 0.283287 0.004694 -0.000275 -0.035313 -0.033016 0.002788 0.081253 -0.179885 -0.062323 -0.277004 0.034193 0.064612 0.128537 -0.055443 -0.136470 0.087850 0.095808 0.088025 -0.026352 -0.047919 -0.257992 0.217197 -0.120774 0.020514 0.097977 0.131526 -0.130425 0.089399 -0.053903 0.054981 0.040634 0.007202 0.144338 0.230758 -0.059650 0.067134 -0.013678 -0.013439 -0.015135 -0.034798 -0.196849 -0.023821 -0.100541 0.056648 -0.180596 -0.023094 0.032702 -0.123476 -0.079193 -0.198747 0.034438 0.071739 0.014242 0.048317
20 -0.131084 -0.118584 0.022493 -0.039825 -0.060144 -0.035127 0.120275 0.075598 0.053727 0.030302 -0.080483 0.233608 0.032113 -0.031406 -0.126409 -0.181474 -0.112506 -0.053652 -0.103678 0.031879 0.176030 -0.128694 0.150422 0.075716 0.120525 0.024153 -0.119174 0.050565 0.056833 0.071664 0.022065 0.044085 -0.068723 0.048977 0.010567 -0.038584 0.064759 -0.007480 0.026737 -0.049896 -0.175273 0.087880 0.097793 0.036966 -0.084476 0.220718 0.080392 0.000404 -0.008821 -0.083575 -0.002855 -0.041065 0.172045 0.001431 -0.131716 -0.061585 0.081741 -0.053944 -0.150349 -0.138121 0.188974 -0.159630 -0.060328 -0.047858 -0.076900 0.080286 0.003052 0.021591 0.015925 0.067511 -0.069534 -0.026162 0.087217 0.070284 0.311115 0.018888 0.002331 -0.039441 -0.035682 0.007309 0.077298 -0.200978 -0.071508 -0.295935 0.032517 0.084850 0.136087 -0.071735 -0.156545 0.097269 0.118961 0.099827 -0.021381 -0.061918 -0.291454 0.239341 -0.141358 0.014525 0.112908 0.149761 -0.150543 0.086982 -0.075074 0.063395 0.045058 0.016493 0.170973 0.259727 -0.065701 0.076883 -0.021871 -0.015136 -0.008980 -0.041805 -0.221553 -0.033730 -0.105950 0.054961 -0.196305 -0.025242 0.040053 -0.133280 -0.084859 -0.227189 0.036642 0.070405 0.014197 0.054025
44 -0.118944 -0.101530 0.015592 -0.037410 -0.052709 -0.027351 0.101269 0.060331 0.053020 0.027295 -0.071441 0.213159 0.023375 -0.027732 -0.114293 -0.155435 -0.099214 -0.056622 -0.092685 0.038186 0.154325 -0.110863 0.127999 0.069012 0.105679 0.019066 -0.100910 0.049419 0.055085 0.063188 0.024044 0.036599 -0.068793 0.034879 0.005857 -0.035773 0.052462 0.005893 0.031833 -0.042340 -0.154152 0.084582 0.084943 0.029864 -0.076995 0.193106 0.065667 0.004020 -0.012454 -0.071844 0.002003 -0.036420 0.146385 -0.005588 -0.106989 -0.062309 0.075017 -0.047174 -0.121668 -0.130644 0.161044 -0.144037 -0.055190 -0.050894 -0.071085 0.075352 -0.003487 0.026003 0.020827 0.066270 -0.051366 -0.029958 0.078028 0.061516 0.275088 0.013030 -0.005034 -0.035044 -0.027491 0.003025 0.069498 -0.179352 -0.063135 -0.273685 0.028788 0.060814 0.130011 -0.063542 -0.140823 0.084587 0.094278 0.086851 -0.024173 -0.053833 -0.265479 0.216796 -0.122340 0.024362 0.099787 0.138596 -0.132292 0.090227 -0.060319 0.057529 0.045471 0.013165 0.153149 0.230599 -0.067055 0.066493 -0.009775 -0.020879 -0.015286 -0.034330 -0.198968 -0.022204 -0.101725 0.050397 -0.179188 -0.021383 0.039977 -0.127606 -0.075794 -0.192086 0.031887 0.064056 0.013393 0.041481
31 -0.126737 -0.108657 0.025398 -0.036798 -0.055690 -0.035024 0.108841 0.063329 0.051455 0.030044 -0.072155 0.230117 0.029181 -0.033468 -0.119193 -0.176810 -0.109233 -0.053566 -0.096107 0.033800 0.167259 -0.123575 0.136364 0.074828 0.112657 0.021019 -0.112197 0.053455 0.053505 0.068793 0.023139 0.047102 -0.070283 0.049131 0.007961 -0.035022 0.057819 -0.001711 0.035849 -0.046435 -0.161333 0.089339 0.095460 0.031530 -0.084457 0.210066 0.071687 -0.002636 -0.012173 -0.073180 -0.000063 -0.033755 0.159214 0.000941 -0.123032 -0.060802 0.079247 -0.047850 -0.143109 -0.137346 0.178648 -0.155478 -0.063710 -0.049020 -0.080025 0.074042 -0.003029 0.017623 0.017614 0.062197 -0.061782 -0.031655 0.083379 0.069301 0.299921 0.014705 0.004578 -0.039016 -0.029494 0.004041 0.076669 -0.187015 -0.068897 -0.285671 0.030493 0.072129 0.130891 -0.069900 -0.144351 0.087802 0.104330 0.098149 -0.018243 -0.054365 -0.280542 0.228837 -0.138932 0.017517 0.109942 0.145371 -0.146218 0.089561 -0.066805 0.055289 0.043268 0.013846 0.163307 0.247728 -0.064218 0.069144 -0.019762 -0.020777 -0.014310 -0.043362 -0.210070 -0.026943 -0.109558 0.055970 -0.192087 -0.021002 0.036561 -0.135175 -0.083100 -0.216670 0.033381 0.070002 0.011956 0.047536
60 -0.117872 -0.098569 0.019080 -0.033968 -0.058181 -0.024948 0.102643 0.063736 0.053108 0.023133 -0.076068 0.215408 0.024025 -0.024530 -0.120388 -0.160564 -0.101643 -0.060799 -0.099944 0.034665 0.154304 -0.122033 0.132487 0.067417 0.101700 0.021075 -0.101879 0.049372 0.056976 0.062896 0.020641 0.043441 -0.062655 0.037346 0.002043 -0.036132 0.055885 0.005896 0.038959 -0.037471 -0.152063 0.080446 0.090494 0.032354 -0.079064 0.198485 0.067916 -0.000698 -0.010319 -0.071675 0.010914 -0.038884 0.147009 -0.003377 -0.107641 -0.055046 0.080358 -0.049793 -0.126174 -0.132611 0.171710 -0.150433 -0.060994 -0.048648 -0.075951 0.073807 0.003090 0.032372 0.012883 0.065339 -0.059711 -0.029042 0.082702 0.068865 0.289614 0.004343 -0.007274 -0.031637 -0.032157 0.006569 0.083909 -0.179960 -0.062803 -0.284052 0.036452 0.062268 0.127499 -0.059785 -0.144190 0.086567 0.104908 0.087146 -0.027168 -0.052698 -0.261379 0.220924 -0.122116 0.020097 0.103845 0.138758 -0.138579 0.085760 -0.055470 0.062358 0.045524 0.007209 0.143700 0.236455 -0.059726 0.064277 -0.009513 -0.021358 -0.014741 -0.038293 -0.201030 -0.026494 -0.102554 0.056637 -0.186848 -0.022928 0.030162 -0.124165 -0.077560 -0.201416 0.032025 0.072442 0.014796 0.047638
29 -0.133976 -0.106022 0.020721 -0.040920 -0.053465 -0.035872 0.107417 0.060150 0.055162 0.029365 -0.073592 0.231284 0.024559 -0.033319 -0.120426 -0.176484 -0.110825 -0.061871 -0.094975 0.035277 0.167602 -0.124483 0.132605 0.070272 0.106139 0.019193 -0.111856 0.047830 0.058563 0.068010 0.030704 0.042065 -0.065259 0.043968 0.001430 -0.036607 0.064797 0.005162 0.039701 -0.044014 -0.155713 0.089405 0.089336 0.026808 -0.081699 0.211934 0.073179 0.000127 -0.015478 -0.074167 0.005748 -0.035428 0.153172 -0.000378 -0.125676 -0.053723 0.082599 -0.041872 -0.135933 -0.131869 0.174897 -0.157483 -0.064956 -0.043832 -0.084567 0.071647 -0.006038 0.020901 0.024324 0.068070 -0.061951 -0.032397 0.076849 0.072765 0.299871 0.017596 0.004255 -0.038826 -0.028267 0.002192 0.075612 -0.180934 -0.063540 -0.293372 0.032310 0.066506 0.138547 -0.067388 -0.141182 0.085919 0.104676 0.091156 -0.024670 -0.045942 -0.269682 0.230416 -0.138237 0.026150 0.108846 0.143269 -0.148381 0.094921 -0.066149 0.062163 0.048920 0.014322 0.154196 0.239061 -0.066270 0.068852 -0.010657 -0.015152 -0.018765 -0.041619 -0.218417 -0.032910 -0.111056 0.050972 -0.185249 -0.021273 0.037314 -0.137016 -0.083295 -0.214907 0.037307 0.074782 0.014793 0.040113
35 -0.126951 -0.105679 0.017614 -0.037193 -0.056709 -0.027714 0.105805 0.057127 0.048792 0.028161 -0.075308 0.220451 0.025452 -0.027705 -0.119902 -0.162088 -0.097342 -0.051072 -0.093330 0.040681 0.162243 -0.117883 0.132621 0.070802 0.106091 0.022518 -0.102938 0.050518 0.051960 0.063549 0.024583 0.041652 -0.068230 0.036591 0.008140 -0.034665 0.056922 0.000149 0.036841 -0.041705 -0.158545 0.083192 0.091946 0.030238 -0.079116 0.193925 0.068775 0.001274 -0.011973 -0.074393 0.004324 -0.041462 0.148568 -0.005938 -0.107437 -0.067586 0.076551 -0.046835 -0.127888 -0.133280 0.165043 -0.147760 -0.056966 -0.050357 -0.078944 0.070960 -0.002722 0.026513 0.019766 0.066474 -0.057019 -0.029862 0.081453 0.064054 0.282619 0.006921 -0.001017 -0.028838 -0.032147 0.000630 0.071216 -0.185524 -0.062280 -0.281918 0.034053 0.067613 0.134696 -0.065475 -0.143699 0.090965 0.100372 0.086988 -0.026111 -0.055031 -0.272959 0.215894 -0.129141 0.025988 0.106515 0.143086 -0.133363 0.088971 -0.065088 0.054226 0.049540 0.007895 0.153828 0.239418 -0.063474 0.070784 -0.010172 -0.020477 -0.011326 -0.037829 -0.204988 -0.023408 -0.100423 0.056373 -0.185641 -0.018381 0.041339 -0.129871 -0.075936 -0.199382 0.029931 0.072043 0.015399 0.047770
8 -0.134011 -0.121449 0.024993 -0.041163 -0.061105 -0.031430 0.120110 0.075084 0.057898 0.033960 -0.081816 0.241425 0.026701 -0.031627 -0.125812 -0.187038 -0.109737 -0.057005 -0.101424 0.039209 0.176240 -0.130548 0.150128 0.073165 0.121027 0.025230 -0.125103 0.054931 0.056255 0.077445 0.025300 0.046753 -0.070709 0.052329 0.005411 -0.042811 0.065945 -0.003867 0.035195 -0.042297 -0.176000 0.091397 0.099063 0.039823 -0.088403 0.227773 0.076179 0.000211 -0.012010 -0.080188 0.000659 -0.043886 0.175511 0.006155 -0.135305 -0.062785 0.080200 -0.052543 -0.151706 -0.145432 0.186189 -0.167957 -0.063158 -0.047861 -0.077852 0.079391 0.005732 0.019066 0.019167 0.063917 -0.070378 -0.030635 0.088390 0.072104 0.318220 0.017397 -0.002784 -0.040151 -0.037259 0.003268 0.081516 -0.204289 -0.074606 -0.299054 0.028352 0.084173 0.145612 -0.072809 -0.155537 0.094874 0.119796 0.098978 -0.023427 -0.060161 -0.298678 0.242162 -0.146845 0.013309 0.116012 0.146856 -0.149790 0.090147 -0.075728 0.062104 0.050437 0.011234 0.175928 0.260305 -0.071988 0.072978 -0.022709 -0.016150 -0.008219 -0.043855 -0.228525 -0.028929 -0.113765 0.054026 -0.203772 -0.026389 0.039238 -0.144231 -0.084027 -0.227951 0.038410 0.067877 0.019561 0.050026
6 -0.128898 -0.115502 0.021024 -0.036371 -0.054884 -0.027851 0.114479 0.075816 0.060231 0.030457 -0.074201 0.233102 0.024800 -0.031769 -0.122184 -0.175709 -0.108581 -0.055705 -0.103144 0.031253 0.169992 -0.129908 0.145351 0.070446 0.119646 0.015165 -0.119624 0.045618 0.057272 0.077233 0.025312 0.040373 -0.067280 0.048440 0.007740 -0.040936 0.059338 0.000403 0.022914 -0.048765 -0.171874 0.091585 0.104647 0.033065 -0.091514 0.222025 0.079879 -0.001384 -0.002672 -0.077443 0.001930 -0.038187 0.164951 0.003933 -0.126179 -0.061172 0.081464 -0.053556 -0.139822 -0.142650 0.187540 -0.158419 -0.062376 -0.048775 -0.075241 0.077742 0.001321 0.018723 0.017868 0.062854 -0.062126 -0.028242 0.087182 0.074996 0.313230 0.016604 0.000394 -0.033577 -0.036914 0.002772 0.072568 -0.190691 -0.067641 -0.288193 0.033122 0.072838 0.141608 -0.077045 -0.154519 0.096089 0.118776 0.099808 -0.019880 -0.056814 -0.288618 0.242754 -0.140592 0.010125 0.120036 0.141644 -0.145863 0.089501 -0.067781 0.064878 0.041303 0.014895 0.166582 0.262685 -0.066326 0.070955 -0.013020 -0.017048 -0.009528 -0.041567 -0.214624 -0.027202 -0.108372 0.048638 -0.197598 -0.027045 0.042739 -0.136138 -0.082055 -0.223823 0.034064 0.068433 0.019206 0.048419
26 -0.154921 -0.142067 0.026739 -0.055727 -0.064977 -0.037894 0.145805 0.092820 0.059364 0.033654 -0.099576 0.287334 0.042375 -0.040430 -0.161073 -0.219581 -0.129296 -0.069950 -0.133190 0.047989 0.221168 -0.155669 0.191706 0.098226 0.139875 0.021479 -0.164539 0.061665 0.071028 0.095522 0.034108 0.059141 -0.085850 0.057666 0.000171 -0.061078 0.079327 -0.007103 0.036405 -0.056128 -0.215600 0.102785 0.118371 0.045806 -0.116208 0.277910 0.085247 0.001946 -0.014765 -0.096208 0.010971 -0.049053 0.207193 0.002843 -0.157798 -0.077476 0.102393 -0.063806 -0.186538 -0.170068 0.229164 -0.202375 -0.077182 -0.052517 -0.093347 0.102284 0.004954 0.023016 0.022308 0.079171 -0.085674 -0.030509 0.108981 0.075937 0.386890 0.012985 -0.005348 -0.046576 -0.050245 0.000263 0.087827 -0.243965 -0.084638 -0.357471 0.041195 0.106430 0.170168 -0.086577 -0.191545 0.120489 0.144378 0.120304 -0.022229 -0.071187 -0.357006 0.295321 -0.178051 0.020819 0.148896 0.172409 -0.186310 0.114935 -0.081631 0.079182 0.063157 0.021557 0.219729 0.321992 -0.081430 0.096415 -0.027221 -0.026218 -0.013379 -0.049865 -0.267359 -0.042526 -0.134556 0.062343 -0.240119 -0.042993 0.046420 -0.174862 -0.108494 -0.282867 0.044960 0.088620 0.019579 0.058202
37 -0.136387 -0.111334 0.025715 -0.036925 -0.055939 -0.027563 0.108877 0.066158 0.059506 0.028694 -0.078276 0.236587 0.030607 -0.034119 -0.129166 -0.171235 -0.110161 -0.058235 -0.098084 0.035819 0.165440 -0.123920 0.146317 0.075957 0.111587 0.022144 -0.110372 0.049132 0.060705 0.068604 0.025827 0.042332 -0.073625 0.038435 0.008510 -0.041197 0.063962 0.000691 0.035645 -0.040179 -0.163033 0.091819 0.098975 0.032125 -0.088924 0.212287 0.074457 0.004334 -0.010230 -0.079831 0.004987 -0.041325 0.162698 0.001619 -0.123266 -0.061686 0.082643 -0.050073 -0.138716 -0.136079 0.174659 -0.159095 -0.063628 -0.048920 -0.078950 0.080279 0.001861 0.027719 0.020533 0.070507 -0.057693 -0.031556 0.084316 0.071048 0.304659 0.012495 0.000046 -0.035475 -0.035179 0.004002 0.077105 -0.197055 -0.070352 -0.298693 0.034914 0.070301 0.141548 -0.065652 -0.148846 0.094233 0.103206 0.092199 -0.028182 -0.052621 -0.283586 0.233595 -0.137960 0.019912 0.108091 0.149849 -0.144514 0.091107 -0.067786 0.058967 0.050620 0.013055 0.166520 0.254016 -0.074009 0.075084 -0.009323 -0.017398 -0.008829 -0.043646 -0.216551 -0.029476 -0.106148 0.053638 -0.199772 -0.024341 0.044010 -0.140871 -0.078487 -0.217346 0.033902 0.072298 0.014150 0.046480
45 -0.130953 -0.110536 0.018904 -0.040347 -0.054404 -0.031419 0.113180 0.069626 0.059520 0.028333 -0.081200 0.232159 0.031017 -0.030781 -0.125467 -0.175259 -0.104369 -0.055614 -0.102424 0.041772 0.166695 -0.126928 0.142714 0.070305 0.111104 0.023033 -0.116658 0.048920 0.056969 0.070580 0.026892 0.044562 -0.073900 0.044885 0.005824 -0.034608 0.056136 0.004614 0.037045 -0.043946 -0.165551 0.086197 0.095165 0.031017 -0.087023 0.207566 0.077535 0.004446 -0.009186 -0.073260 0.007555 -0.038982 0.155700 -0.000663 -0.120770 -0.065869 0.081444 -0.047782 -0.138103 -0.137036 0.175859 -0.156605 -0.062265 -0.047083 -0.082096 0.078626 -0.000994 0.024429 0.019732 0.069835 -0.056963 -0.028056 0.082538 0.066727 0.305634 0.016370 0.001672 -0.035301 -0.028729 0.003804 0.078828 -0.192146 -0.070200 -0.291582 0.030806 0.069617 0.139617 -0.067331 -0.148807 0.090405 0.106029 0.096335 -0.026506 -0.052576 -0.284250 0.236285 -0.135110 0.021987 0.115918 0.151977 -0.151520 0.092397 -0.068315 0.065755 0.048694 0.009764 0.164830 0.250880 -0.068224 0.074645 -0.014051 -0.014656 -0.013509 -0.037876 -0.217317 -0.030058 -0.110661 0.053462 -0.195487 -0.019305 0.042447 -0.139655 -0.082632 -0.213783 0.034958 0.075443 0.020176 0.045464
53 -0.102426 -0.087995 0.013349 -0.032720 -0.041712 -0.022712 0.085751 0.052970 0.040151 0.021539 -0.066097 0.185894 0.018434 -0.026146 -0.102030 -0.134953 -0.080656 -0.041857 -0.080969 0.034613 0.136230 -0.097669 0.109867 0.054853 0.086532 0.012806 -0.085078 0.038119 0.044874 0.050796 0.021544 0.033526 -0.058851 0.028766 0.001363 -0.027567 0.049597 0.000220 0.028622 -0.033657 -0.131572 0.073088 0.070856 0.025012 -0.070502 0.164500 0.060764 0.005213 -0.008136 -0.062686 0.005604 -0.033957 0.129427 0.001348 -0.089999 -0.054616 0.060883 -0.041282 -0.108797 -0.108189 0.138721 -0.122014 -0.045716 -0.041294 -0.065419 0.062455 0.003884 0.019305 0.014339 0.049332 -0.044260 -0.022426 0.062949 0.057253 0.242199 0.011262 -0.003534 -0.031530 -0.024408 -0.001251 0.061432 -0.154537 -0.056666 -0.230389 0.028236 0.058603 0.109883 -0.052726 -0.114483 0.073134 0.082714 0.073654 -0.016005 -0.044767 -0.224028 0.183412 -0.106131 0.019762 0.088555 0.113100 -0.118210 0.075130 -0.053537 0.051862 0.040560 0.009209 0.128260 0.193811 -0.053486 0.054760 -0.012873 -0.015400 -0.010391 -0.032303 -0.171123 -0.020736 -0.082498 0.042862 -0.151860 -0.013533 0.030624 -0.109090 -0.067774 -0.171387 0.027363 0.055099 0.015599 0.034138
27 -0.127933 -0.119206 0.019530 -0.045284 -0.054527 -0.028004 0.116795 0.076127 0.050923 0.030005 -0.080753 0.233520 0.027788 -0.026755 -0.128248 -0.181243 -0.103657 -0.059315 -0.105312 0.033560 0.176992 -0.125223 0.150672 0.079679 0.115412 0.016520 -0.127997 0.054621 0.056544 0.074264 0.025897 0.043643 -0.071916 0.045754 0.006479 -0.046173 0.060113 -0.003257 0.030522 -0.046700 -0.174499 0.087610 0.097546 0.037479 -0.088508 0.222552 0.077586 0.001150 -0.010655 -0.077293 0.008191 -0.038611 0.164623 0.006448 -0.127033 -0.064724 0.080533 -0.050497 -0.142088 -0.137680 0.180626 -0.157671 -0.064963 -0.047149 -0.076586 0.081381 -0.000655 0.024737 0.017858 0.063604 -0.070156 -0.024916 0.089403 0.061883 0.308188 0.009417 0.001589 -0.040393 -0.039710 0.002536 0.073298 -0.198054 -0.069374 -0.289825 0.028322 0.080379 0.143811 -0.071154 -0.157440 0.097444 0.110714 0.093936 -0.020549 -0.058241 -0.292334 0.239748 -0.141230 0.015474 0.119000 0.140805 -0.153876 0.093885 -0.064260 0.058353 0.050672 0.016373 0.174919 0.255039 -0.071946 0.076097 -0.015956 -0.019393 -0.013079 -0.044029 -0.215565 -0.034135 -0.110003 0.054786 -0.200031 -0.028956 0.036057 -0.136119 -0.083200 -0.225737 0.032880 0.072459 0.017696 0.050080
3 -0.117498 -0.094004 0.023275 -0.034214 -0.047199 -0.028322 0.096913 0.058406 0.044754 0.021872 -0.064383 0.195035 0.018465 -0.029530 -0.107907 -0.154687 -0.088609 -0.053182 -0.087289 0.028493 0.142524 -0.106689 0.120932 0.067403 0.100774 0.015466 -0.100085 0.046951 0.052040 0.062306 0.020253 0.035618 -0.062804 0.042986 0.003032 -0.036889 0.051830 0.003618 0.031843 -0.034158 -0.140742 0.071226 0.084253 0.032780 -0.075764 0.183177 0.068112 -0.001296 -0.013944 -0.062994 0.008908 -0.033619 0.133564 0.001931 -0.108540 -0.053950 0.067390 -0.039031 -0.122803 -0.114466 0.149755 -0.133165 -0.054901 -0.035932 -0.069683 0.063703 0.004034 0.022047 0.018792 0.053190 -0.050149 -0.026022 0.071137 0.063100 0.263277 0.008960 0.003346 -0.034697 -0.024608 -0.000251 0.067632 -0.159608 -0.059631 -0.253269 0.028445 0.061286 0.119139 -0.056592 -0.129551 0.079048 0.092190 0.084589 -0.021435 -0.044326 -0.245659 0.204172 -0.122311 0.019981 0.101268 0.126101 -0.129373 0.081823 -0.059523 0.052212 0.042069 0.015722 0.140525 0.214838 -0.055253 0.058512 -0.010723 -0.015785 -0.010728 -0.033863 -0.185512 -0.023885 -0.095399 0.048990 -0.163087 -0.020321 0.031880 -0.120935 -0.073462 -0.187080 0.027140 0.061804 0.015282 0.042053
33 -0.129478 -0.116462 0.021642 -0.035303 -0.051633 -0.032941 0.110409 0.077188 0.062540 0.028702 -0.072507 0.232074 0.025790 -0.032500 -0.120087 -0.172536 -0.107238 -0.049577 -0.107218 0.033275 0.172139 -0.127069 0.147507 0.069803 0.113546 0.016798 -0.122489 0.049075 0.058757 0.073477 0.022692 0.046773 -0.070150 0.052565 0.002437 -0.043422 0.058186 -0.004057 0.023270 -0.040545 -0.169507 0.089894 0.103468 0.033405 -0.088737 0.220663 0.075087 -0.000597 -0.009886 -0.080729 0.002053 -0.036113 0.169240 0.002082 -0.132325 -0.055556 0.079038 -0.049632 -0.138768 -0.136763 0.186339 -0.164860 -0.064852 -0.045821 -0.072935 0.076853 0.007517 0.016078 0.021451 0.067304 -0.060649 -0.028102 0.090758 0.072965 0.305903 0.019510 -0.000611 -0.037549 -0.034682 0.000827 0.081398 -0.194926 -0.071936 -0.290049 0.029995 0.077648 0.136161 -0.074455 -0.150999 0.096908 0.118524 0.101319 -0.021810 -0.060482 -0.281940 0.243603 -0.142751 0.009702 0.118676 0.140918 -0.151521 0.087292 -0.067906 0.068694 0.044077 0.008317 0.166959 0.258237 -0.066064 0.070193 -0.016903 -0.017776 -0.006737 -0.046063 -0.212352 -0.029116 -0.109301 0.047975 -0.200688 -0.029194 0.042391 -0.133335 -0.081460 -0.216737 0.039471 0.065464 0.011596 0.049469
50 -0.127275 -0.108445 0.015422 -0.032025 -0.057269 -0.031300 0.110044 0.065421 0.053150 0.029388 -0.075184 0.217868 0.030384 -0.033418 -0.118646 -0.160288 -0.094315 -0.050895 -0.092406 0.038973 0.156100 -0.117634 0.133030 0.071133 0.110078 0.020953 -0.107847 0.051578 0.051782 0.063744 0.021595 0.039100 -0.070540 0.038516 0.010080 -0.033314 0.052940 0.003102 0.031264 -0.038631 -0.150662 0.086062 0.088852 0.027845 -0.076686 0.196758 0.071001 -0.003544 -0.008767 -0.074639 0.001618 -0.036336 0.154008 -0.006221 -0.118410 -0.064490 0.076020 -0.041088 -0.128850 -0.131828 0.170194 -0.152813 -0.059595 -0.050801 -0.075689 0.067649 -0.001024 0.019719 0.019668 0.067471 -0.058805 -0.028482 0.082570 0.069146 0.279387 0.013155 -0.004410 -0.029145 -0.027809 -0.000273 0.067320 -0.176709 -0.065456 -0.274676 0.030410 0.065700 0.127158 -0.064577 -0.142613 0.089826 0.098095 0.091284 -0.024934 -0.052744 -0.270981 0.222779 -0.127604 0.015724 0.109188 0.140942 -0.141980 0.091511 -0.061351 0.058636 0.046339 0.008102 0.158712 0.234677 -0.067650 0.070854 -0.008488 -0.021859 -0.008170 -0.034284 -0.204503 -0.022506 -0.107709 0.055160 -0.180813 -0.015485 0.043453 -0.124188 -0.080317 -0.205562 0.028707 0.062439 0.014078 0.051634
47 -0.126791 -0.107562 0.017167 -0.035916 -0.055027 -0.030143 0.101998 0.065706 0.050323 0.027885 -0.074964 0.217082 0.030150 -0.034070 -0.114820 -0.157164 -0.097221 -0.054282 -0.091952 0.041160 0.158186 -0.116941 0.132156 0.072012 0.110839 0.020182 -0.103261 0.051080 0.049629 0.060234 0.021683 0.042248 -0.064734 0.035255 0.007541 -0.034762 0.055348 0.000627 0.029441 -0.037296 -0.151825 0.085314 0.087856 0.030644 -0.076305 0.195873 0.067724 -0.000788 -0.012229 -0.072018 0.008160 -0.035365 0.152452 -0.007070 -0.111242 -0.062641 0.073204 -0.044223 -0.126559 -0.134628 0.166812 -0.152110 -0.059761 -0.048752 -0.077849 0.068664 0.001156 0.025516 0.016727 0.068562 -0.057404 -0.033225 0.084500 0.068988 0.279206 0.007217 -0.006427 -0.029824 -0.031090 -0.001932 0.071752 -0.182814 -0.065711 -0.278206 0.033989 0.066213 0.127297 -0.064647 -0.137850 0.084421 0.098628 0.090655 -0.025321 -0.051459 -0.266695 0.220407 -0.131861 0.017410 0.101759 0.140113 -0.137799 0.090460 -0.060030 0.057823 0.042030 0.011901 0.151491 0.239481 -0.069361 0.072221 -0.007061 -0.018812 -0.008748 -0.040088 -0.203059 -0.023533 -0.106032 0.048707 -0.184004 -0.016968 0.040267 -0.126092 -0.081724 -0.202878 0.028939 0.066912 0.013073 0.049812
4 -0.113874 -0.091090 0.019608 -0.031373 -0.048023 -0.028969 0.092793 0.063128 0.049882 0.020264 -0.063722 0.204438 0.025180 -0.026183 -0.112459 -0.154327 -0.093551 -0.054899 -0.089335 0.035947 0.147721 -0.111447 0.122251 0.061911 0.099693 0.019172 -0.102661 0.045294 0.054447 0.056726 0.018742 0.036357 -0.062114 0.036585 0.001908 -0.035592 0.055425 0.004150 0.033144 -0.034195 -0.142005 0.072748 0.089513 0.035158 -0.073121 0.182918 0.064795 -0.002430 -0.013708 -0.071796 0.010655 -0.038598 0.140020 0.000951 -0.106209 -0.049955 0.074931 -0.043173 -0.119197 -0.125178 0.161616 -0.141042 -0.054046 -0.042478 -0.067224 0.072891 -0.002974 0.025721 0.015863 0.055950 -0.053252 -0.025694 0.079414 0.057352 0.271154 0.006510 0.001176 -0.029674 -0.032241 0.006268 0.074753 -0.173652 -0.061232 -0.258843 0.033096 0.059379 0.125729 -0.059481 -0.128698 0.084242 0.092866 0.082064 -0.025553 -0.048601 -0.247557 0.206944 -0.122214 0.016638 0.096658 0.127667 -0.131748 0.082527 -0.050425 0.059041 0.036823 0.012315 0.137179 0.222585 -0.060971 0.061245 -0.008271 -0.017173 -0.010341 -0.034250 -0.188587 -0.022852 -0.095426 0.051510 -0.172937 -0.020897 0.033919 -0.118242 -0.077855 -0.193127 0.026802 0.066226 0.017350 0.045451
62 -0.129580 -0.112432 0.018913 -0.040252 -0.060980 -0.032568 0.109101 0.071013 0.058755 0.024218 -0.077206 0.234511 0.028532 -0.029651 -0.131345 -0.173857 -0.109132 -0.057128 -0.100796 0.038859 0.170059 -0.126793 0.143860 0.077461 0.114624 0.020698 -0.117186 0.049919 0.054726 0.069605 0.022998 0.042192 -0.073302 0.043555 0.005997 -0.036607 0.058653 0.000650 0.036957 -0.039973 -0.171565 0.086550 0.094267 0.035125 -0.085865 0.214660 0.075688 0.005135 -0.009959 -0.081220 0.002633 -0.038758 0.161705 0.003120 -0.119991 -0.067345 0.077949 -0.046215 -0.139011 -0.138899 0.183954 -0.160447 -0.064518 -0.050253 -0.085077 0.082092 0.002202 0.023048 0.022344 0.067711 -0.065667 -0.033269 0.090966 0.074643 0.305180 0.015254 -0.000480 -0.039494 -0.036552 0.001018 0.083381 -0.194978 -0.068209 -0.300299 0.029361 0.071959 0.142722 -0.065900 -0.149838 0.091618 0.114524 0.093131 -0.028256 -0.053408 -0.290813 0.241740 -0.137549 0.020588 0.116688 0.150806 -0.150716 0.097560 -0.067237 0.063416 0.047579 0.015365 0.169888 0.253485 -0.067800 0.076721 -0.018169 -0.018536 -0.010974 -0.038743 -0.215105 -0.032017 -0.114355 0.052903 -0.195033 -0.025614 0.041200 -0.137344 -0.084991 -0.222529 0.032190 0.073137 0.017502 0.046017
24 -0.073758 -0.062625 0.015686 -0.018897 -0.032210 -0.018664 0.064129 0.039897 0.033691 0.017274 -0.041575 0.134641 0.018653 -0.020763 -0.073555 -0.103909 -0.064032 -0.034808 -0.058368 0.021441 0.098855 -0.071759 0.083463 0.046095 0.066242 0.015236 -0.067828 0.026602 0.032919 0.041799 0.010945 0.026854 -0.044626 0.023606 0.004162 -0.023759 0.038477 -0.001119 0.020316 -0.026880 -0.094659 0.054965 0.055750 0.021967 -0.050211 0.125256 0.040497 0.004128 -0.005905 -0.048086 0.007247 -0.021878 0.089617 0.003263 -0.066550 -0.031825 0.050420 -0.028338 -0.080992 -0.082396 0.104019 -0.092361 -0.035605 -0.028052 -0.049665 0.043193 -0.000571 0.017111 0.009787 0.041037 -0.034220 -0.015771 0.047190 0.040610 0.177259 0.005733 -0.004482 -0.023852 -0.020328 0.004548 0.050131 -0.109808 -0.039359 -0.169545 0.018249 0.037816 0.078111 -0.034589 -0.085182 0.056193 0.062040 0.056236 -0.012611 -0.033544 -0.162403 0.140129 -0.077084 0.013780 0.063174 0.083684 -0.088145 0.058182 -0.034802 0.038484 0.025599 0.009861 0.095145 0.147492 -0.039458 0.043727 -0.004483 -0.012665 -0.007035 -0.023225 -0.129189 -0.018266 -0.064424 0.030827 -0.111721 -0.010363 0.023091 -0.082692 -0.047910 -0.127563 0.023442 0.044137 0.009537 0.030884
54 -0.152381 -0.129610 0.027816 -0.041083 -0.067881 -0.037475 0.125442 0.072246 0.065431 0.027155 -0.091289 0.259254 0.032952 -0.032123 -0.145210 -0.195651 -0.123281 -0.067131 -0.111843 0.039813 0.189513 -0.142197 0.163304 0.086939 0.128209 0.018445 -0.131950 0.056384 0.061604 0.074302 0.027669 0.053168 -0.080201 0.046361 0.008550 -0.042740 0.064779 0.002911 0.042846 -0.048841 -0.187430 0.098297 0.109120 0.040110 -0.095441 0.242424 0.082596 0.000715 -0.010143 -0.085848 0.001222 -0.044938 0.185344 -0.000993 -0.137629 -0.073860 0.090671 -0.052579 -0.155246 -0.155765 0.200312 -0.177297 -0.072957 -0.057008 -0.092328 0.085580 0.002145 0.022877 0.024507 0.079709 -0.065381 -0.035421 0.097781 0.084146 0.344156 0.017016 -0.004051 -0.042056 -0.038031 -0.000023 0.088721 -0.217055 -0.078624 -0.336433 0.037472 0.076594 0.155546 -0.079189 -0.171500 0.105831 0.127007 0.108281 -0.030140 -0.062116 -0.318755 0.269773 -0.159445 0.020048 0.130245 0.163806 -0.165805 0.103053 -0.070204 0.068757 0.050748 0.011327 0.189863 0.288179 -0.081364 0.086193 -0.020832 -0.021808 -0.013071 -0.043327 -0.247670 -0.036444 -0.121273 0.060784 -0.218707 -0.025960 0.044353 -0.150518 -0.095972 -0.247407 0.038029 0.082580 0.022795 0.054911
61 -0.119370 -0.103216 0.020302 -0.037197 -0.051598 -0.029099 0.100695 0.062989 0.054702 0.024109 -0.070176 0.206786 0.021104 -0.026352 -0.113622 -0.158173 -0.093040 -0.046746 -0.095923 0.029894 0.150424 -0.116045 0.129349 0.062637 0.105893 0.012306 -0.107375 0.044525 0.052072 0.059802 0.021144 0.036149 -0.066603 0.039365 0.004541 -0.035083 0.055554 -0.005779 0.029381 -0.040807 -0.148808 0.076323 0.092834 0.032050 -0.079008 0.196749 0.065770 0.004244 -0.005310 -0.070119 0.006148 -0.035288 0.151143 0.002274 -0.116961 -0.049925 0.071451 -0.046203 -0.129449 -0.128800 0.159475 -0.146392 -0.052447 -0.039798 -0.069780 0.071994 0.001333 0.014873 0.021654 0.059414 -0.060351 -0.022608 0.080717 0.063477 0.278330 0.016095 -0.002189 -0.032840 -0.030947 0.000937 0.075237 -0.174333 -0.066057 -0.263130 0.024997 0.064835 0.127543 -0.067639 -0.133331 0.089583 0.100264 0.090529 -0.019136 -0.054127 -0.255906 0.217505 -0.121839 0.013509 0.100926 0.127976 -0.133777 0.083370 -0.056961 0.060029 0.040052 0.006736 0.146028 0.228613 -0.062024 0.065091 -0.015983 -0.014158 -0.004423 -0.038469 -0.196480 -0.023502 -0.100635 0.050663 -0.180050 -0.021646 0.035668 -0.117364 -0.076323 -0.194509 0.035622 0.066736 0.010901 0.047740
32 -0.103078 -0.091786 0.012671 -0.031155 -0.042381 -0.022196 0.090353 0.055829 0.042562 0.023534 -0.060902 0.183710 0.020206 -0.022116 -0.097444 -0.134412 -0.081538 -0.043942 -0.084286 0.028529 0.132256 -0.095656 0.110835 0.055722 0.086306 0.013794 -0.096314 0.042891 0.046390 0.053784 0.018061 0.034733 -0.050896 0.039732 0.001933 -0.032505 0.049999 0.001394 0.022631 -0.035856 -0.134658 0.069400 0.076784 0.027281 -0.071911 0.167882 0.061288 0.002875 -0.007791 -0.065516 0.002927 -0.030160 0.127729 0.004159 -0.101530 -0.049272 0.061448 -0.039737 -0.111185 -0.108725 0.142219 -0.124440 -0.052085 -0.033424 -0.062789 0.061187 -0.000440 0.018837 0.015641 0.047232 -0.053730 -0.018754 0.069915 0.051307 0.237091 0.013996 -0.000202 -0.027870 -0.028586 0.001289 0.058511 -0.153131 -0.051030 -0.225356 0.023956 0.063205 0.109670 -0.054596 -0.117216 0.071920 0.089142 0.078061 -0.015504 -0.047596 -0.221643 0.185306 -0.108770 0.011602 0.086077 0.108093 -0.114414 0.068471 -0.055385 0.046489 0.038521 0.013847 0.133736 0.196984 -0.057306 0.058329 -0.011553 -0.016903 -0.005709 -0.030074 -0.165204 -0.022050 -0.085628 0.044349 -0.150133 -0.021941 0.029550 -0.109629 -0.065493 -0.168116 0.030866 0.049570 0.008611 0.042099
56 -0.063838 -0.050242 0.007363 -0.019983 -0.024529 -0.015115 0.052479 0.030689 0.022644 0.013470 -0.034302 0.109704 0.008405 -0.011302 -0.060884 -0.083689 -0.051756 -0.028351 -0.047377 0.016601 0.078396 -0.060404 0.066475 0.036543 0.055861 0.009934 -0.056592 0.023285 0.023391 0.033813 0.011044 0.023237 -0.032370 0.018036 0.000144 -0.020009 0.029812 0.003577 0.016365 -0.016809 -0.078318 0.042501 0.046668 0.018931 -0.041131 0.102759 0.034305 -0.000909 -0.005306 -0.037882 0.003252 -0.019653 0.073986 0.000236 -0.053886 -0.030249 0.038833 -0.024360 -0.067188 -0.065743 0.085727 -0.069773 -0.032317 -0.019685 -0.034021 0.038068 -0.001399 0.013941 0.011432 0.027426 -0.025772 -0.016602 0.043785 0.029650 0.138451 0.004085 0.001286 -0.020371 -0.013773 0.003395 0.040697 -0.087019 -0.032392 -0.135414 0.015117 0.028081 0.068107 -0.030223 -0.066794 0.047655 0.053304 0.043077 -0.007540 -0.023279 -0.134887 0.106995 -0.061201 0.009242 0.049566 0.068401 -0.069276 0.047727 -0.030907 0.031709 0.018786 0.008629 0.075706 0.119161 -0.034960 0.036242 -0.005767 -0.004831 -0.004731 -0.018427 -0.099718 -0.009804 -0.048900 0.028526 -0.088704 -0.012215 0.017545 -0.063251 -0.041034 -0.096889 0.014394 0.036851 0.008441 0.025586
40 -0.079297 -0.065219 0.012227 -0.022364 -0.030449 -0.016445 0.062991 0.043332 0.031923 0.012985 -0.042430 0.133344 0.015064 -0.020052 -0.076208 -0.105433 -0.062729 -0.035959 -0.061907 0.019354 0.101709 -0.073236 0.087270 0.043874 0.064079 0.012015 -0.071717 0.025601 0.029369 0.036819 0.013587 0.026384 -0.041699 0.029310 0.003862 -0.025448 0.031780 0.003307 0.019847 -0.024638 -0.100575 0.052086 0.057760 0.023463 -0.051887 0.121930 0.043447 -0.002027 -0.004135 -0.043790 0.000929 -0.026199 0.092224 0.000597 -0.068238 -0.038473 0.046014 -0.030290 -0.079363 -0.082986 0.105938 -0.088791 -0.038908 -0.030018 -0.046111 0.045528 -0.001097 0.012210 0.014042 0.040628 -0.040469 -0.017149 0.051087 0.036840 0.178667 0.004055 -0.000045 -0.021445 -0.023773 -0.000266 0.047194 -0.113039 -0.039918 -0.173598 0.022065 0.045798 0.083496 -0.043842 -0.090718 0.058810 0.060627 0.052394 -0.014218 -0.033412 -0.163399 0.140980 -0.078515 0.007868 0.067017 0.082782 -0.082246 0.051624 -0.034533 0.036163 0.029467 0.007037 0.099015 0.145354 -0.041139 0.041024 -0.009994 -0.012489 -0.007871 -0.023521 -0.124177 -0.018536 -0.060866 0.030715 -0.111748 -0.017110 0.025491 -0.076498 -0.050526 -0.129482 0.018032 0.045120 0.010478 0.026065
49 -0.046869 -0.045682 0.011258 -0.012237 -0.020156 -0.012971 0.042303 0.024588 0.024540 0.008830 -0.025463 0.091347 0.007452 -0.011887 -0.046694 -0.069339 -0.043677 -0.020930 -0.038526 0.017040 0.065589 -0.049131 0.057181 0.024775 0.045085 0.009027 -0.048067 0.015553 0.022255 0.024430 0.006041 0.014625 -0.026087 0.020270 0.002531 -0.013270 0.022522 -0.001914 0.009726 -0.014789 -0.064296 0.034612 0.038182 0.016018 -0.033266 0.084521 0.025414 -0.001253 -0.005394 -0.027852 -0.001527 -0.016284 0.065593 0.003371 -0.051228 -0.021659 0.031905 -0.016165 -0.054270 -0.054264 0.066165 -0.057447 -0.021585 -0.019969 -0.031853 0.029504 0.001513 0.006446 0.009803 0.021292 -0.025757 -0.014832 0.035808 0.022390 0.114813 0.004431 0.001949 -0.017351 -0.011477 -0.002993 0.025432 -0.070516 -0.028355 -0.110136 0.007923 0.025043 0.050021 -0.027432 -0.058807 0.036937 0.044079 0.035820 -0.011508 -0.021358 -0.107176 0.088534 -0.056110 0.007788 0.045257 0.057767 -0.052915 0.032776 -0.026286 0.021341 0.017107 0.008224 0.064186 0.100313 -0.028422 0.026402 -0.006937 -0.005517 -0.000326 -0.014342 -0.079511 -0.012770 -0.038469 0.021781 -0.076835 -0.008279 0.013384 -0.048830 -0.035159 -0.084443 0.013828 0.023009 0.009011 0.016781
23 -0.080037 -0.067822 0.009390 -0.023851 -0.034647 -0.015565 0.068984 0.048152 0.037114 0.016474 -0.049001 0.145299 0.017938 -0.021388 -0.080780 -0.106947 -0.066340 -0.031303 -0.062301 0.026211 0.104587 -0.079865 0.087410 0.048765 0.072302 0.010900 -0.078819 0.027959 0.032202 0.046917 0.014765 0.028753 -0.044180 0.029733 -0.000276 -0.028690 0.039277 -0.004067 0.015725 -0.026295 -0.105960 0.054437 0.063085 0.024144 -0.052556 0.133518 0.045026 0.004151 -0.007978 -0.050324 0.003741 -0.026110 0.105673 -0.001196 -0.078915 -0.040608 0.048224 -0.031905 -0.089135 -0.089409 0.113072 -0.101031 -0.036025 -0.028284 -0.044570 0.049017 0.003469 0.015805 0.013361 0.043204 -0.040074 -0.016746 0.058516 0.042676 0.187659 0.009752 0.001236 -0.022030 -0.018897 0.002776 0.050760 -0.122843 -0.039888 -0.180174 0.017542 0.050594 0.084187 -0.043173 -0.096749 0.057703 0.071346 0.061266 -0.017144 -0.036000 -0.181590 0.145541 -0.085997 0.008322 0.070331 0.092464 -0.093712 0.055390 -0.038520 0.035594 0.027796 0.004969 0.101146 0.156879 -0.040917 0.046352 -0.013417 -0.014321 -0.007639 -0.029163 -0.135204 -0.020255 -0.070251 0.034232 -0.121175 -0.016258 0.026238 -0.081811 -0.054533 -0.138160 0.024324 0.039214 0.009456 0.030860
12 -0.086176 -0.073296 0.014638 -0.026873 -0.038511 -0.020910 0.067850 0.038260 0.032647 0.019447 -0.045162 0.150457 0.015422 -0.016392 -0.079564 -0.108608 -0.071210 -0.035932 -0.062010 0.021040 0.107859 -0.076545 0.091819 0.044251 0.067100 0.011443 -0.070402 0.032426 0.036405 0.041863 0.016839 0.030098 -0.048252 0.028002 0.004094 -0.021665 0.036468 0.003244 0.022650 -0.024652 -0.103532 0.055206 0.063232 0.021127 -0.054497 0.138269 0.048935 -0.000094 -0.011305 -0.050890 0.002590 -0.022988 0.099991 -0.004361 -0.078752 -0.041103 0.052096 -0.030632 -0.087417 -0.086892 0.115785 -0.098426 -0.042349 -0.028361 -0.054115 0.049123 0.002897 0.015821 0.015163 0.045069 -0.034972 -0.017662 0.056259 0.044927 0.193073 0.005386 0.001967 -0.019719 -0.021186 0.004492 0.050542 -0.121310 -0.046894 -0.189135 0.018645 0.047458 0.086788 -0.042185 -0.097508 0.056613 0.068613 0.062998 -0.016025 -0.035577 -0.176221 0.145578 -0.083625 0.009905 0.071003 0.091939 -0.096562 0.056069 -0.040541 0.039888 0.029667 0.003416 0.103100 0.158745 -0.039195 0.042156 -0.012663 -0.011676 -0.007309 -0.023443 -0.135139 -0.015356 -0.069686 0.039310 -0.127882 -0.017735 0.021854 -0.088024 -0.051294 -0.133600 0.020386 0.046955 0.005435 0.030800
57 -0.053181 -0.047335 0.004840 -0.020014 -0.022098 -0.010656 0.045397 0.029356 0.025391 0.012946 -0.032282 0.097505 0.013550 -0.012282 -0.054422 -0.077471 -0.046979 -0.022939 -0.044428 0.016003 0.069975 -0.053546 0.064133 0.029911 0.046895 0.009943 -0.052061 0.024549 0.025285 0.028745 0.007743 0.021876 -0.029423 0.020512 0.002237 -0.013945 0.021000 -0.002567 0.010430 -0.015908 -0.068726 0.037162 0.041489 0.013172 -0.036742 0.094584 0.034065 0.000558 -0.002151 -0.031289 -0.001911 -0.015716 0.067324 -0.000603 -0.054084 -0.027765 0.034889 -0.018048 -0.058596 -0.056923 0.073737 -0.063486 -0.030192 -0.019021 -0.030624 0.030996 0.001255 0.006922 0.007304 0.028191 -0.023662 -0.010161 0.039569 0.027015 0.133694 0.004020 -0.000011 -0.014711 -0.011015 0.002623 0.033451 -0.077647 -0.025747 -0.120646 0.016071 0.033024 0.058985 -0.032573 -0.065948 0.042131 0.050076 0.043241 -0.012407 -0.022133 -0.124316 0.101513 -0.058046 0.008464 0.050622 0.057916 -0.060902 0.040347 -0.031583 0.024237 0.018094 0.008872 0.071643 0.111273 -0.029624 0.032333 -0.004350 -0.007271 -0.007951 -0.016153 -0.092077 -0.012428 -0.043184 0.019414 -0.083614 -0.010510 0.018616 -0.058945 -0.038440 -0.091826 0.017653 0.026614 0.006545 0.019684
5 -0.060542 -0.055804 0.006431 -0.018323 -0.023872 -0.015520 0.055588 0.028529 0.030117 0.010400 -0.033024 0.111863 0.009561 -0.012903 -0.056767 -0.085936 -0.052233 -0.030085 -0.049169 0.019489 0.081468 -0.055882 0.063910 0.038533 0.054417 0.006656 -0.055085 0.020005 0.025583 0.031494 0.009221 0.019766 -0.035040 0.022245 0.004801 -0.021484 0.028724 0.001760 0.014693 -0.019741 -0.074172 0.040861 0.043735 0.016185 -0.042500 0.100979 0.035781 -0.000216 -0.005403 -0.038783 0.001923 -0.015318 0.078820 -0.003385 -0.054736 -0.030326 0.040512 -0.024513 -0.062569 -0.069100 0.083014 -0.077028 -0.027216 -0.019981 -0.040248 0.036976 0.003678 0.010526 0.010445 0.027976 -0.031041 -0.013844 0.038495 0.029347 0.144079 0.002114 -0.003215 -0.020305 -0.019634 -0.002952 0.034515 -0.090169 -0.033708 -0.138047 0.013130 0.029767 0.067300 -0.028157 -0.068919 0.044454 0.054528 0.043582 -0.009181 -0.024762 -0.135701 0.111605 -0.067867 0.006795 0.055919 0.071664 -0.072778 0.044218 -0.032341 0.025495 0.017839 0.004450 0.078203 0.118850 -0.035105 0.032632 -0.009148 -0.008450 -0.004149 -0.022180 -0.103156 -0.010502 -0.047561 0.026639 -0.088821 -0.009668 0.017787 -0.062202 -0.038554 -0.105413 0.013149 0.035742 0.005214 0.027072
13 -0.025530 -0.023783 0.006273 -0.010982 -0.013474 -0.007266 0.025015 0.011046 0.012726 0.008668 -0.019282 0.047450 0.007575 -0.009762 -0.026142 -0.037666 -0.026069 -0.014000 -0.022931 0.005759 0.039930 -0.027193 0.027138 0.016451 0.020117 0.004652 -0.020392 0.013299 0.013365 0.014697 0.002962 0.011725 -0.016611 0.006489 0.001213 -0.010424 0.016550 0.004392 0.008521 -0.009819 -0.033253 0.019112 0.020431 0.008931 -0.018091 0.048763 0.017184 0.001168 -0.004311 -0.013990 -0.001588 -0.006066 0.035960 0.001906 -0.028045 -0.016553 0.013928 -0.012926 -0.026568 -0.032713 0.040629 -0.033051 -0.015499 -0.013692 -0.014780 0.014073 -0.002514 0.003083 0.007700 0.011166 -0.015504 -0.008550 0.018083 0.012479 0.066362 -0.001066 -0.001451 -0.009002 -0.009995 -0.002780 0.017478 -0.044216 -0.015451 -0.065878 0.003539 0.014663 0.032506 -0.015051 -0.035039 0.023959 0.026453 0.018735 -0.007706 -0.015212 -0.060651 0.048257 -0.029184 0.001672 0.021249 0.032104 -0.028606 0.020681 -0.015169 0.013302 0.009054 -0.001683 0.037879 0.051601 -0.015115 0.011461 0.000639 -0.004617 -0.003720 -0.005566 -0.049688 -0.008745 -0.026185 0.015935 -0.041168 -0.006561 0.009347 -0.026914 -0.013776 -0.044327 0.005418 0.018724 0.005256 0.013144
36 -0.040206 -0.038955 0.009466 -0.016222 -0.019228 -0.014229 0.041162 0.024492 0.019108 0.012616 -0.028404 0.075794 0.006093 -0.008186 -0.040183 -0.057486 -0.037189 -0.022738 -0.035195 0.009376 0.056550 -0.039065 0.048715 0.028198 0.039393 0.003167 -0.036042 0.013364 0.017415 0.022834 0.011164 0.012340 -0.022476 0.013602 -0.000011 -0.013186 0.019346 -0.000277 0.009379 -0.017879 -0.053197 0.027418 0.035780 0.012983 -0.025931 0.069328 0.028724 0.001298 -0.003344 -0.022881 0.003086 -0.012621 0.054415 -0.002089 -0.038431 -0.016569 0.025316 -0.016955 -0.048128 -0.044211 0.060360 -0.056106 -0.019048 -0.015066 -0.029559 0.026835 -0.000413 0.008808 0.007855 0.019158 -0.022714 -0.013933 0.032342 0.022589 0.099334 0.000247 0.002664 -0.011987 -0.009951 -0.002501 0.024821 -0.065438 -0.020428 -0.101192 0.012296 0.023730 0.049135 -0.019048 -0.046542 0.034976 0.035954 0.028547 -0.007168 -0.014538 -0.091933 0.080796 -0.046550 0.011037 0.033572 0.052461 -0.049830 0.031918 -0.018190 0.023374 0.019618 0.007395 0.054324 0.084363 -0.021993 0.027202 -0.005887 -0.006441 -0.007695 -0.016930 -0.075630 -0.013138 -0.036938 0.019648 -0.063436 -0.003818 0.012762 -0.044483 -0.026005 -0.069745 0.010762 0.023642 0.003021 0.018217
59 -0.038131 -0.032145 0.008145 -0.013822 -0.015951 -0.005318 0.032994 0.017357 0.014910 0.009096 -0.024580 0.069186 0.009833 -0.007432 -0.039482 -0.049099 -0.027872 -0.016497 -0.029447 0.014743 0.051083 -0.037884 0.040006 0.019416 0.034718 0.003032 -0.035697 0.012773 0.016063 0.017097 0.005446 0.015130 -0.022639 0.008633 0.000854 -0.010348 0.018512 -0.001330 0.008230 -0.015332 -0.047447 0.027121 0.025281 0.009456 -0.020382 0.062598 0.021843 -0.002825 -0.002148 -0.022289 0.004007 -0.012836 0.044052 -0.002862 -0.030215 -0.014768 0.026120 -0.012805 -0.039765 -0.041798 0.046862 -0.041527 -0.014563 -0.015273 -0.018981 0.020927 -0.002603 0.005080 0.007802 0.018050 -0.014441 -0.012602 0.027481 0.017549 0.085456 0.002100 -0.001045 -0.009355 -0.007489 0.002980 0.021909 -0.056985 -0.021808 -0.080640 0.005872 0.016754 0.043093 -0.015828 -0.045811 0.028050 0.027877 0.026251 -0.007378 -0.014414 -0.083461 0.063924 -0.041091 0.006811 0.033257 0.045015 -0.040415 0.030331 -0.017062 0.018608 0.010539 0.000315 0.048304 0.071453 -0.019745 0.022296 -0.004107 -0.007347 -0.000966 -0.009911 -0.060654 -0.005430 -0.034063 0.016587 -0.052895 -0.007026 0.009478 -0.041382 -0.023866 -0.060574 0.009733 0.017324 0.007415 0.012995
