115 128
80 0.022880 -0.209225 -0.003849 -0.151886 0.109496 -0.029559 0.042991 0.047233 0.149287 0.028474 -0.030378 0.046754 -0.009376 -0.206167 -0.072183 -0.074572 -0.066549 0.072876 -0.086037 0.023269 0.137512 -0.045242 0.075429 0.201201 -0.120648 -0.024978 -0.067818 -0.127027 -0.144716 -0.085116 0.182869 0.027662 -0.080058 -0.197162 -0.073296 -0.051744 -0.002419 0.054255 0.058548 -0.139418 -0.033367 0.275181 -0.008444 -0.037965 0.013375 0.028026 0.067842 -0.044307 0.028105 -0.098208 -0.183747 0.089323 -0.086981 -0.055974 -0.131866 -0.172813 0.084199 -0.063921 -0.108809 0.041735 0.040664 -0.218297 -0.030261 0.168762 -0.022700 -0.053560 -0.150480 0.011090 0.003214 -0.020076 0.089216 0.055411 0.182705 -0.052618 0.077503 -0.104804 0.155328 0.056959 0.047188 0.097543 0.080515 -0.122096 0.030856 -0.225435 0.064237 0.021208 0.186154 -0.087239 0.060936 0.006795 0.136162 0.054131 -0.084619 0.062934 -0.159793 0.261069 0.091364 -0.172318 0.037817 0.062876 -0.116668 0.018280 -0.124850 0.015165 0.183212 0.022188 0.169308 0.165843 -0.081039 0.132039 0.057269 -0.049349 0.132379 -0.273841 -0.049227 0.040919 -0.109368 -0.000112 0.004191 0.102260 0.074190 -0.015889 -0.126475 -0.066504 -0.066809 0.216397 0.044287 -0.060268
7 -0.007578 -0.049858 -0.074498 -0.103075 0.103608 0.103929 0.021510 0.153642 0.028441 -0.160306 -0.091465 -0.002860 -0.108711 -0.462782 0.116186 -0.103177 -0.120870 0.064795 -0.084781 0.084248 -0.109271 -0.001859 -0.012326 0.159356 -0.024880 -0.054694 -0.094858 -0.223230 0.058984 -0.150223 0.095686 0.128361 -0.030230 -0.064162 -0.165573 -0.199919 0.100588 0.035993 0.055724 -0.028281 0.091462 0.306804 -0.022965 0.084740 -0.002303 -0.098521 -0.061835 0.138623 0.003112 -0.023273 -0.151284 -0.063057 -0.049956 -0.072297 -0.167394 -0.164717 -0.076294 -0.172786 0.030790 -0.103454 0.069768 -0.262467 0.118639 0.387226 0.018609 -0.001374 -0.051021 0.105631 0.085237 0.019039 -0.065253 0.158001 0.251955 -0.042324 0.131722 -0.136243 0.066635 0.042947 -0.084652 -0.046331 0.141304 -0.100023 -0.118238 -0.312824 0.065578 -0.065618 -0.074376 -0.015234 0.228557 0.100640 0.306805 0.055921 -0.032537 0.059963 -0.176423 0.181687 -0.007630 -0.280443 -0.193055 0.053280 -0.166113 -0.197473 -0.213610 -0.042432 0.071530 -0.157275 -0.048968 0.208172 -0.209697 -0.046815 0.278476 0.160049 0.086009 -0.278511 -0.171170 0.100000 -0.371511 0.076941 -0.149492 0.233246 -0.015152 0.020409 -0.070186 -0.046586 -0.018783 0.128032 0.149866 0.107358
82 0.011557 -0.141911 -0.036118 -0.145727 0.103180 0.024273 0.006324 0.046152 0.081999 -0.037029 -0.064656 0.034946 -0.075765 -0.325583 -0.011244 -0.097460 -0.087156 0.115135 -0.100040 0.039228 0.030910 -0.019098 0.049707 0.160868 -0.104339 -0.058094 0.011602 -0.171458 -0.051084 -0.101383 0.159451 0.064047 -0.040301 -0.116910 -0.105157 -0.104461 0.031588 0.058779 0.087782 -0.116521 0.057717 0.307957 -0.018966 0.030504 0.026019 -0.049198 0.004828 0.028355 -0.019872 -0.026654 -0.150231 0.019701 -0.065427 -0.100562 -0.154496 -0.174506 0.010061 -0.099595 -0.047939 -0.058650 0.041396 -0.263723 0.029500 0.257245 -0.010295 -0.039462 -0.086724 -0.004984 0.037554 -0.050335 -0.021446 0.126362 0.175601 -0.022425 0.140203 -0.124310 0.104644 0.104043 -0.001716 0.035764 0.062874 -0.122668 -0.007550 -0.300336 0.051078 -0.002591 0.051993 -0.054553 0.098643 0.098185 0.218492 0.054087 -0.019024 0.042328 -0.161364 0.264803 0.000736 -0.183784 -0.072557 0.055180 -0.142770 -0.067151 -0.143848 -0.053414 0.125753 -0.086150 0.067845 0.220743 -0.167560 0.040583 0.149471 -0.010023 0.135726 -0.324558 -0.084204 0.053669 -0.225806 0.036370 -0.065355 0.142662 0.022048 0.001711 -0.157844 -0.053726 -0.038664 0.167253 0.061141 0.019985
69 -0.012684 -0.126158 -0.028754 -0.107554 0.061552 0.019554 0.086267 0.190138 0.166303 -0.151735 -0.001816 0.002794 -0.031475 -0.231069 0.019877 -0.077833 -0.077890 -0.015300 0.030441 0.062088 -0.036502 -0.052796 0.060681 0.202565 -0.015126 0.018396 -0.297494 -0.156469 -0.061355 -0.109488 0.128704 0.115973 -0.155020 -0.099924 -0.059494 -0.160822 0.183421 0.035408 -0.042311 0.016528 -0.054442 0.214579 0.020689 0.058219 -0.008530 -0.047141 -0.001991 0.075502 0.069339 -0.211811 -0.220777 -0.032938 -0.058600 -0.048708 -0.127517 -0.153319 0.047945 -0.097823 -0.058592 0.009394 0.047593 -0.149186 0.041334 0.293571 0.020244 0.009524 -0.134731 0.142063 0.011723 0.062718 0.101281 0.056524 0.289332 -0.156824 0.026993 -0.119580 0.148239 -0.098554 -0.045865 0.062143 0.213304 -0.051118 -0.078183 -0.120436 0.014798 -0.059133 0.121441 0.020829 0.205819 -0.042861 0.140662 -0.038420 -0.129289 0.121267 -0.146305 0.104851 0.095221 -0.267163 -0.060216 0.088616 -0.173052 -0.112781 -0.145331 0.046451 0.130440 0.020500 0.044790 0.067713 -0.153154 0.014830 0.184201 0.119510 0.036289 -0.145010 -0.154546 0.026368 -0.253852 0.035239 -0.055285 0.148632 0.058886 0.006700 0.007150 -0.107066 -0.095126 0.170849 0.107400 -0.002167
104 -0.007081 -0.082513 -0.039433 -0.134710 0.050679 0.048032 0.080462 0.200594 0.153095 -0.215599 -0.002317 -0.025884 -0.050326 -0.253943 0.070042 -0.090238 -0.073674 -0.011922 0.021693 0.068332 -0.116185 -0.050266 0.043979 0.171247 0.009731 0.006307 -0.306740 -0.148659 0.013240 -0.132319 0.132129 0.149813 -0.139744 -0.026740 -0.073421 -0.182690 0.235915 0.004528 -0.055077 0.047602 -0.040763 0.180554 0.010548 0.116804 -0.006281 -0.088083 -0.043651 0.114749 0.048531 -0.193563 -0.201605 -0.080811 -0.029582 -0.070485 -0.132136 -0.136805 0.019862 -0.109000 -0.023124 -0.038226 0.036926 -0.125009 0.047314 0.338909 0.027188 0.045851 -0.096288 0.135629 0.030316 0.074790 0.060369 0.082436 0.322531 -0.188663 0.054654 -0.139634 0.116521 -0.102907 -0.057783 0.055049 0.220655 -0.019396 -0.111001 -0.123451 0.015172 -0.066578 0.108478 0.049260 0.224922 -0.006245 0.156824 -0.030514 -0.104844 0.120240 -0.166678 0.073991 0.084038 -0.279751 -0.104973 0.117460 -0.184850 -0.160336 -0.131585 0.020402 0.078948 -0.023764 0.009785 0.107390 -0.203240 -0.025354 0.228251 0.132834 0.040612 -0.133415 -0.166549 0.030425 -0.295360 0.060435 -0.071292 0.126580 0.019345 -0.002947 0.022920 -0.105384 -0.109116 0.173742 0.104404 0.006530
61 0.041935 -0.168597 0.133829 -0.304999 0.116956 -0.201641 0.080400 -0.077553 0.060839 0.117541 -0.152827 -0.010498 0.072055 -0.101964 -0.010135 0.026260 -0.145302 0.041327 -0.174743 -0.161496 0.161929 0.015202 0.084984 0.125193 -0.137911 -0.148057 -0.091010 0.044167 -0.133233 -0.031080 0.262972 -0.010847 -0.060987 -0.145286 -0.036736 -0.026586 -0.015915 0.039257 0.112739 -0.162682 -0.033433 0.122322 0.014942 -0.053874 -0.092746 0.139654 0.034904 -0.091831 0.069186 0.111166 -0.111319 0.075978 -0.009427 -0.025812 -0.247716 -0.215628 0.163909 -0.066513 -0.135132 -0.092374 0.118220 -0.089733 -0.178519 0.072816 -0.091219 0.103763 0.032673 -0.146846 0.100112 0.127970 -0.050755 0.162344 0.277546 -0.144033 0.211128 -0.045605 0.156613 0.123294 -0.021069 0.133026 0.031316 0.063705 0.048137 -0.159594 -0.003774 0.108860 0.345395 -0.150972 -0.003850 0.086139 0.058671 0.173954 0.005059 -0.032453 -0.309266 0.272872 0.045751 -0.208756 0.085140 0.067195 -0.099152 -0.001948 -0.047385 -0.011679 0.075355 -0.119739 0.200350 0.283365 -0.005318 0.101304 0.064314 -0.000983 0.132579 -0.028902 0.013543 0.076025 -0.145507 0.123823 -0.026223 0.028975 0.022272 -0.025667 -0.039108 -0.131467 -0.141569 0.331687 -0.019563 -0.015688
38 0.035400 -0.162768 0.120812 -0.284030 0.115214 -0.186972 0.045719 -0.069141 0.077713 0.077883 -0.148083 -0.007400 0.044595 -0.142700 -0.014627 0.004838 -0.155665 0.063032 -0.138597 -0.149170 0.118966 0.027689 0.107592 0.130305 -0.141443 -0.124327 -0.043150 0.000120 -0.111509 -0.017432 0.261993 0.023429 -0.075118 -0.111372 -0.032305 -0.055120 0.002334 0.041581 0.109043 -0.137987 -0.001391 0.150476 0.024180 -0.021069 -0.078359 0.096541 0.031606 -0.067805 0.043836 0.106377 -0.126860 0.039337 -0.020213 -0.055719 -0.263322 -0.236126 0.147033 -0.059598 -0.145401 -0.109859 0.110602 -0.142356 -0.150257 0.117904 -0.089549 0.093402 0.051392 -0.154245 0.075100 0.096023 -0.064916 0.183307 0.256003 -0.126026 0.213154 -0.068258 0.177127 0.128635 -0.040799 0.118651 0.034501 0.034782 0.055151 -0.183062 -0.034797 0.109800 0.302982 -0.124638 0.017323 0.097224 0.074759 0.146872 0.007800 -0.029172 -0.294096 0.289215 0.002022 -0.218716 0.058828 0.084543 -0.139657 -0.029457 -0.050086 -0.035330 0.081294 -0.145184 0.186491 0.284238 -0.055831 0.071316 0.079759 -0.017332 0.116694 -0.087304 -0.025109 0.042353 -0.184807 0.112609 -0.046124 0.053388 0.033007 -0.030643 -0.084702 -0.143031 -0.148405 0.316644 -0.031562 -0.011938
2 0.011641 -0.093004 0.172214 -0.282499 0.174879 0.010022 0.006991 0.067802 0.049345 -0.139749 -0.057388 -0.016139 -0.050755 -0.235568 0.092259 -0.035251 -0.072391 0.071256 -0.182114 -0.148159 -0.049065 0.029708 -0.080477 0.083973 -0.182073 -0.203989 -0.061359 -0.031899 0.002528 -0.259582 0.089133 0.003094 -0.016961 -0.009727 -0.104858 -0.113790 0.002925 0.012414 0.078108 -0.135161 -0.058390 0.205126 0.005678 0.051063 -0.155035 0.040781 -0.008563 -0.032444 0.053297 0.040952 -0.044015 0.024067 0.013405 0.044817 -0.198636 -0.166875 0.074304 -0.129953 -0.106082 -0.061765 0.043509 -0.012553 -0.149888 0.121208 -0.112092 0.155491 0.090739 -0.046803 0.076621 -0.020014 -0.069499 0.133050 0.269810 -0.116917 0.292601 -0.079317 0.075272 0.077566 -0.029721 -0.034997 0.086469 -0.007205 -0.113792 -0.173097 0.053952 -0.051963 0.106846 -0.052157 0.045925 0.159725 0.182965 0.137190 -0.011253 -0.019828 -0.262152 0.226051 0.037715 -0.278712 -0.010980 0.096734 -0.070177 -0.149157 -0.099129 -0.113962 0.003065 -0.135796 0.020569 0.362101 -0.122762 -0.041237 0.191135 0.063193 0.200045 -0.120494 0.034380 0.128719 -0.201194 0.150821 -0.127979 -0.074777 -0.072498 -0.029035 0.029145 -0.092598 -0.084264 0.193259 0.114509 0.052288
43 0.042649 -0.177578 0.144134 -0.317689 0.137359 -0.237117 0.066158 -0.101839 0.063949 0.148774 -0.164895 -0.002466 0.075999 -0.106690 -0.028993 0.025777 -0.163289 0.066561 -0.184211 -0.181934 0.187204 0.027928 0.116498 0.138967 -0.163375 -0.146707 -0.039439 0.037257 -0.151671 -0.000512 0.299306 -0.002928 -0.060530 -0.139903 -0.026757 -0.020769 -0.046990 0.048982 0.139238 -0.175454 -0.012431 0.147314 0.016397 -0.068568 -0.094417 0.142540 0.054942 -0.113333 0.052512 0.142496 -0.113737 0.081492 -0.009266 -0.039338 -0.274000 -0.240175 0.182731 -0.056614 -0.159514 -0.100094 0.124419 -0.124359 -0.200517 0.077121 -0.112035 0.098695 0.063191 -0.192800 0.091293 0.120170 -0.058972 0.190351 0.260354 -0.123415 0.233651 -0.056594 0.179009 0.157455 -0.033493 0.145835 0.006458 0.052540 0.078250 -0.183798 -0.019782 0.139172 0.354165 -0.155981 -0.026573 0.104761 0.058290 0.188254 0.021264 -0.040495 -0.311299 0.322662 0.006152 -0.209603 0.103773 0.072589 -0.116483 0.004662 -0.044903 -0.021127 0.097635 -0.141403 0.230374 0.308322 0.001020 0.107452 0.047694 -0.036338 0.137016 -0.055830 0.014532 0.056909 -0.151652 0.113854 -0.019340 0.032882 0.040872 -0.032881 -0.084751 -0.144506 -0.145691 0.343802 -0.040400 -0.026142
6 0.022033 -0.107206 0.109580 -0.226101 0.150331 -0.042925 0.017851 0.035758 0.004666 0.022535 -0.168912 0.007566 -0.010555 -0.316348 0.068858 0.031847 -0.170139 0.058166 -0.213724 -0.100860 0.045828 0.054742 -0.003933 0.095310 -0.136791 -0.163014 0.028776 -0.059204 -0.020728 -0.086861 0.123743 -0.012296 0.027234 -0.126413 -0.114369 -0.092750 -0.051696 0.056121 0.128095 -0.149313 0.055276 0.228509 0.008827 -0.045665 -0.122902 0.056661 0.012825 -0.004308 0.057983 0.158874 -0.057169 0.041958 -0.032409 0.030756 -0.228934 -0.218081 0.007393 -0.144354 -0.036870 -0.127477 0.123971 -0.149082 -0.074177 0.154125 -0.074716 0.070042 0.073660 -0.047789 0.095741 0.060589 -0.122205 0.167222 0.275254 -0.036629 0.228011 -0.057530 0.125151 0.147562 -0.068403 -0.020936 0.033282 -0.049534 -0.029249 -0.279566 0.019701 0.031566 0.105724 -0.147956 0.086625 0.113578 0.207628 0.189626 0.005650 -0.038715 -0.254811 0.270009 0.003049 -0.286839 -0.037740 0.055273 -0.082468 -0.111015 -0.138671 -0.058645 0.034860 -0.219346 0.070643 0.347314 -0.051027 0.012101 0.185669 0.087297 0.154035 -0.136885 -0.024872 0.143276 -0.255503 0.137526 -0.138611 0.095636 -0.021770 -0.010837 -0.022535 -0.092714 -0.069767 0.210485 0.093119 0.085027
3 -0.003291 -0.115700 0.141301 -0.287391 0.189878 0.077866 -0.011144 0.101199 0.139791 -0.309085 0.115959 -0.024510 -0.137431 -0.183957 0.044267 -0.187716 0.082730 0.122304 -0.075265 -0.106745 -0.142054 -0.042980 -0.110898 0.132051 -0.196621 -0.178805 -0.146725 -0.097225 -0.010211 -0.395617 0.094441 0.064092 -0.095562 0.096799 -0.091835 -0.159154 0.107152 0.011051 0.007866 -0.117354 -0.149056 0.265267 -0.026883 0.180843 -0.093475 -0.039691 -0.025646 -0.064049 0.004935 -0.162185 -0.102129 0.001575 0.031817 -0.057360 -0.110944 -0.099766 0.156333 -0.116649 -0.182112 0.014660 -0.073069 0.016973 -0.163158 0.171562 -0.096808 0.143274 -0.007556 -0.037061 0.024269 -0.159898 0.049668 0.103684 0.180876 -0.182711 0.325865 -0.159985 0.023809 0.019158 0.035397 0.011088 0.126971 0.000204 -0.149398 -0.111499 0.118329 -0.155504 0.096391 0.094124 -0.019968 0.212205 0.169987 -0.000598 -0.023779 0.061252 -0.225249 0.211581 0.037495 -0.209931 0.014455 0.126440 -0.123241 -0.145403 -0.080223 -0.149631 0.059040 0.046106 -0.018928 0.308738 -0.262564 -0.060370 0.193571 -0.046430 0.231483 -0.243644 0.064307 0.073429 -0.143170 0.091042 -0.058330 -0.192400 -0.071170 -0.045597 -0.033468 -0.089736 -0.100527 0.155990 0.104909 -0.035035
47 0.009725 -0.088164 0.131683 -0.248135 0.155547 -0.005515 0.013794 0.052688 0.005468 -0.076916 -0.121035 -0.008400 -0.031748 -0.284284 0.115536 0.001215 -0.137555 0.040875 -0.191841 -0.110730 -0.011462 0.049841 -0.063829 0.082481 -0.134090 -0.185981 -0.043394 -0.045623 0.000673 -0.190994 0.087024 0.008552 0.015084 -0.074604 -0.118249 -0.115652 -0.007231 0.030019 0.095461 -0.122317 0.003948 0.203383 0.006015 0.017652 -0.140682 0.046414 -0.012872 -0.001939 0.045975 0.098812 -0.046636 0.020906 -0.014922 0.043173 -0.211381 -0.188554 0.023000 -0.137806 -0.055133 -0.117102 0.089754 -0.079197 -0.100255 0.155550 -0.092759 0.117745 0.085773 -0.020294 0.108201 0.048733 -0.099718 0.148933 0.281839 -0.086356 0.249124 -0.070372 0.087601 0.097781 -0.058300 -0.044590 0.083002 -0.020784 -0.092652 -0.235037 0.041702 -0.021886 0.088754 -0.101778 0.098334 0.120929 0.210298 0.161474 -0.016807 -0.022541 -0.261870 0.216943 0.022562 -0.285171 -0.054580 0.069864 -0.078250 -0.150954 -0.131763 -0.085478 -0.002170 -0.176464 0.015215 0.343998 -0.099276 -0.024926 0.203965 0.109086 0.156797 -0.110446 -0.014771 0.139055 -0.250192 0.150963 -0.137765 0.026687 -0.058219 -0.019988 0.017307 -0.087833 -0.074739 0.200174 0.109990 0.087653
100 0.019105 -0.122304 0.170584 -0.302068 0.185832 -0.027009 0.004176 0.033448 0.052799 -0.056137 -0.086550 -0.003249 -0.030279 -0.238788 0.052177 -0.011284 -0.074979 0.086633 -0.213278 -0.138033 0.017886 0.030152 -0.058624 0.089159 -0.210037 -0.202461 -0.011837 -0.010296 -0.036286 -0.214065 0.120115 -0.026454 0.001352 -0.061315 -0.103912 -0.078059 -0.051105 0.030375 0.108793 -0.170922 -0.042009 0.216068 -0.006713 0.005246 -0.145174 0.061228 0.010326 -0.056181 0.054786 0.080502 -0.048413 0.065880 0.010926 0.042103 -0.199203 -0.171223 0.079752 -0.122947 -0.107410 -0.059712 0.059877 -0.046618 -0.155298 0.088158 -0.106786 0.117693 0.078642 -0.073819 0.079272 -0.006008 -0.077076 0.130305 0.247660 -0.093209 0.277163 -0.057093 0.089005 0.120400 -0.007508 -0.009801 0.044828 -0.021531 -0.061922 -0.187325 0.059192 -0.014177 0.138943 -0.090136 0.009918 0.147077 0.162451 0.161106 -0.007288 -0.036702 -0.269558 0.259100 0.048512 -0.256190 0.026826 0.082351 -0.062550 -0.091175 -0.100448 -0.098627 0.025714 -0.135288 0.072699 0.366492 -0.081885 0.007181 0.160556 0.025499 0.215808 -0.134829 0.063582 0.137070 -0.169356 0.139531 -0.111234 -0.048127 -0.047588 -0.028775 0.001154 -0.083702 -0.086590 0.204696 0.091131 0.031996
67 -0.026207 -0.103594 0.008244 -0.099526 0.120098 0.116310 0.026209 0.163596 0.120301 -0.211183 0.034731 0.015420 -0.105310 -0.316527 0.081317 -0.136764 -0.070625 0.007828 -0.037746 0.061665 -0.075438 -0.035208 -0.042632 0.174555 -0.046115 -0.046115 -0.209124 -0.220464 -0.022730 -0.246756 0.049024 0.092415 -0.092367 -0.100136 -0.129210 -0.178155 0.108834 0.029451 0.011930 -0.035275 -0.040543 0.292001 0.019704 0.086869 -0.045088 -0.061307 -0.008154 0.073074 0.020534 -0.173969 -0.164181 -0.019925 -0.088522 -0.002817 -0.113195 -0.137460 0.007474 -0.112857 -0.060305 0.002031 0.010577 -0.156715 0.052439 0.316263 -0.022553 0.006316 -0.111822 0.148715 0.051630 -0.014484 0.077006 0.067401 0.230338 -0.088852 0.107749 -0.149122 0.096821 -0.050884 -0.022903 -0.021264 0.208960 -0.119092 -0.143721 -0.221105 0.081688 -0.118590 -0.003831 -0.016179 0.207814 0.018595 0.244788 -0.005764 -0.137239 0.110397 -0.120550 0.138450 0.085108 -0.250220 -0.102892 0.053093 -0.125628 -0.180548 -0.181106 -0.020459 0.094801 0.002814 -0.021077 0.148494 -0.187908 -0.018762 0.182545 0.127501 0.084307 -0.235770 -0.142675 0.064742 -0.255081 0.037115 -0.073047 0.092040 -0.001826 -0.008838 -0.035741 -0.065731 -0.028861 0.149890 0.164492 0.018137
64 0.013343 -0.088438 0.100479 -0.234797 0.143395 0.006615 0.040785 0.095744 0.042100 -0.065856 -0.113115 -0.007137 -0.023740 -0.289134 0.093857 0.008149 -0.119022 0.041244 -0.185835 -0.071958 -0.006781 0.029159 -0.032500 0.089865 -0.130288 -0.153135 -0.063655 -0.050803 0.001453 -0.156663 0.100293 0.004324 0.007703 -0.083732 -0.122144 -0.116978 0.009117 0.029836 0.074020 -0.113510 0.005712 0.207562 -0.002101 0.002722 -0.114003 0.033462 -0.001260 0.014436 0.059628 0.066372 -0.066552 0.024450 -0.012242 0.036107 -0.192284 -0.175509 0.011000 -0.142962 -0.030947 -0.084711 0.081339 -0.090372 -0.074672 0.163751 -0.056504 0.098300 0.044601 0.005428 0.090036 0.047192 -0.075983 0.127644 0.299930 -0.099984 0.206478 -0.066430 0.094888 0.084877 -0.042055 -0.026777 0.083607 -0.034405 -0.076495 -0.212734 0.041269 -0.012598 0.100338 -0.088209 0.106355 0.096150 0.196300 0.145497 -0.021846 -0.000298 -0.246091 0.211607 0.048066 -0.287451 -0.051220 0.077143 -0.084243 -0.123230 -0.131598 -0.062744 0.025099 -0.160359 0.043908 0.312768 -0.089844 -0.008528 0.206071 0.101296 0.160142 -0.118008 -0.021690 0.137030 -0.241338 0.138065 -0.127476 0.051637 -0.041575 -0.005116 0.026464 -0.068523 -0.075498 0.177965 0.120108 0.078705
5 -0.005661 -0.114564 0.056265 -0.207385 0.151968 0.114756 0.019200 0.155884 0.161146 -0.309180 0.114043 -0.011476 -0.126645 -0.225409 0.063990 -0.190583 0.048726 0.067625 -0.028719 -0.004194 -0.138512 -0.059643 -0.091304 0.155794 -0.129060 -0.106990 -0.223486 -0.155112 -0.012821 -0.352799 0.074166 0.093144 -0.110550 0.040255 -0.097094 -0.171928 0.150914 0.020996 -0.027049 -0.061938 -0.118103 0.270901 -0.023324 0.161321 -0.054798 -0.065586 -0.031512 -0.002613 0.017660 -0.228318 -0.150322 -0.009191 -0.002799 -0.064523 -0.075913 -0.088394 0.106073 -0.117821 -0.115660 0.020374 -0.053742 -0.041456 -0.057527 0.236451 -0.048914 0.082610 -0.087043 0.066040 0.021433 -0.109626 0.087314 0.067950 0.195019 -0.179992 0.216317 -0.164956 0.028857 -0.038764 0.013363 0.002711 0.177861 -0.030139 -0.156857 -0.122893 0.114721 -0.175640 0.061052 0.098327 0.076055 0.121351 0.193921 -0.041094 -0.073224 0.110433 -0.182000 0.153016 0.071618 -0.226695 -0.031573 0.116492 -0.139615 -0.153400 -0.121380 -0.092454 0.072855 0.067330 -0.031678 0.210424 -0.259541 -0.051306 0.206403 0.024865 0.162227 -0.252610 -0.026991 0.066411 -0.181345 0.058179 -0.058323 -0.075995 -0.035559 -0.030564 -0.014120 -0.083845 -0.086754 0.139274 0.135936 -0.025883
86 0.045010 -0.207249 0.053380 -0.222842 0.088547 -0.040388 0.103523 0.030903 0.175132 -0.011675 0.024237 0.010601 0.054439 -0.082961 -0.026708 -0.074469 -0.028710 -0.005188 -0.073976 0.004183 0.131872 -0.075722 0.028626 0.171821 -0.128756 -0.047044 -0.289261 -0.041203 -0.176767 -0.167320 0.188824 0.011342 -0.110830 -0.172739 -0.059566 -0.041142 0.075977 0.038163 -0.004838 -0.118430 -0.144589 0.179062 -0.000855 0.002586 -0.030776 0.091772 0.041074 -0.101275 0.083691 -0.199384 -0.201469 0.110773 -0.059560 -0.036373 -0.098188 -0.102866 0.190728 -0.049036 -0.122491 0.065691 0.028975 -0.042119 -0.109756 0.098415 -0.031497 0.019496 -0.184842 0.059597 0.027890 0.053561 0.166302 0.000522 0.241712 -0.207402 0.078036 -0.093215 0.111895 -0.010232 0.088411 0.155252 0.142979 0.011548 -0.002353 -0.094137 0.111338 -0.045072 0.308273 -0.056897 0.036939 -0.047300 0.083824 0.042829 -0.125202 0.104078 -0.240430 0.179293 0.195357 -0.163821 0.096243 0.084990 -0.080826 0.017282 -0.082720 0.039850 0.141451 0.146504 0.174778 0.158049 -0.072286 0.135787 0.052084 -0.008909 0.123085 -0.125778 -0.006393 0.069492 -0.048071 0.030440 0.040769 -0.004089 0.055085 -0.052676 0.003321 -0.091677 -0.124931 0.273556 0.075305 -0.116102
81 -0.005651 -0.140697 0.082389 -0.233993 0.180102 0.122761 -0.035071 0.105180 0.155974 -0.304638 0.129578 0.001403 -0.157622 -0.231251 0.023268 -0.215198 0.076615 0.143451 -0.055949 -0.033743 -0.117659 -0.060318 -0.102307 0.151680 -0.191471 -0.136679 -0.114795 -0.167223 -0.035026 -0.394639 0.094422 0.078707 -0.096575 0.051655 -0.103471 -0.154917 0.098940 0.021940 0.020966 -0.120747 -0.124397 0.336521 -0.033686 0.167713 -0.051331 -0.070775 -0.025175 -0.042847 -0.017196 -0.198807 -0.134914 0.008618 -0.005379 -0.084295 -0.088707 -0.096635 0.111022 -0.112081 -0.157255 0.017898 -0.083447 -0.060447 -0.090882 0.226865 -0.079629 0.073145 -0.075503 -0.004232 0.013342 -0.201594 0.069202 0.089301 0.138326 -0.134830 0.287209 -0.180054 0.026426 0.025975 0.051188 -0.002461 0.138029 -0.067978 -0.144170 -0.179880 0.138262 -0.171298 0.031839 0.092350 0.012222 0.204451 0.219933 -0.033569 -0.045130 0.083043 -0.175365 0.222004 0.038610 -0.187134 -0.027511 0.110655 -0.131976 -0.146319 -0.109542 -0.148248 0.091726 0.061338 -0.029227 0.278096 -0.299147 -0.051875 0.186765 -0.059526 0.222480 -0.351339 0.018069 0.056953 -0.153740 0.051932 -0.059576 -0.134034 -0.057507 -0.036536 -0.096745 -0.062421 -0.061540 0.134311 0.113850 -0.048988
44 0.066782 -0.245019 0.023997 -0.245317 0.092224 -0.070175 0.101745 0.002144 0.198681 0.060603 0.023243 0.026771 0.055249 -0.080534 -0.083039 -0.079803 -0.023404 0.020921 -0.089386 0.011839 0.198511 -0.083451 0.060784 0.192209 -0.149735 -0.037287 -0.224518 -0.035658 -0.207807 -0.122997 0.237152 -0.002184 -0.113816 -0.210691 -0.048122 -0.003605 0.036019 0.060538 0.012376 -0.167610 -0.133055 0.216028 -0.025521 -0.039233 0.011816 0.102431 0.064842 -0.131665 0.067757 -0.184658 -0.229530 0.146820 -0.069424 -0.069719 -0.094988 -0.114584 0.216098 -0.034804 -0.135164 0.087285 0.035254 -0.100335 -0.119998 0.052745 -0.020740 -0.021191 -0.225303 0.019723 0.010342 0.035952 0.184311 -0.013862 0.214426 -0.186981 0.067486 -0.088618 0.134203 0.025329 0.123370 0.194972 0.098617 -0.016167 0.053113 -0.121127 0.107456 0.000752 0.358870 -0.076340 -0.018283 -0.055655 0.047799 0.050828 -0.116909 0.090594 -0.243333 0.231380 0.192666 -0.127328 0.126829 0.085984 -0.078814 0.098312 -0.076338 0.046443 0.188738 0.165936 0.243314 0.147761 -0.048436 0.192306 0.004834 -0.087010 0.135590 -0.178923 0.015881 0.054057 -0.001974 -0.000453 0.079209 0.012941 0.083077 -0.053166 -0.054031 -0.084527 -0.123658 0.288427 0.032608 -0.157412
53 -0.009613 -0.162013 0.102020 -0.175133 0.172358 0.122818 0.033130 0.167601 0.173051 -0.254498 0.146247 0.026083 -0.091109 -0.176898 0.031757 -0.168720 0.035585 0.009907 -0.049060 0.006330 -0.026962 -0.069718 -0.121485 0.186465 -0.142996 -0.105952 -0.289369 -0.164525 -0.107801 -0.396849 0.031247 0.034107 -0.124099 -0.096553 -0.117210 -0.132840 0.073029 0.016798 -0.019849 -0.099783 -0.198918 0.293813 0.007766 0.082082 -0.104502 0.000878 0.043764 -0.048550 0.046649 -0.296751 -0.154024 0.062098 -0.071555 0.059290 -0.043925 -0.087534 0.130539 -0.094299 -0.159891 0.132956 -0.057131 -0.004841 -0.075464 0.170101 -0.077098 0.049382 -0.143510 0.152276 0.014930 -0.090650 0.198053 -0.018345 0.185697 -0.151522 0.158840 -0.143940 0.071833 -0.088271 0.061374 -0.000754 0.230252 -0.096619 -0.170752 -0.113667 0.166924 -0.189105 0.079527 0.016192 0.095979 0.015499 0.183335 -0.032051 -0.178798 0.137598 -0.131048 0.144179 0.175472 -0.210526 0.023206 0.066640 -0.073638 -0.131872 -0.149007 -0.034155 0.119961 0.176507 0.006075 0.154432 -0.163472 0.019348 0.118150 0.050329 0.155331 -0.214489 -0.015736 0.068960 -0.087896 0.010520 -0.009079 -0.091605 -0.007833 -0.040955 0.014294 -0.073070 -0.042066 0.153424 0.183726 -0.075378
0 -0.002784 -0.145828 -0.091380 -0.090242 0.026301 -0.013300 0.073717 0.170280 0.180856 -0.014055 -0.067666 0.022641 0.005271 -0.269741 -0.031624 -0.024699 -0.111548 0.007220 -0.004280 0.108868 0.034087 -0.050672 0.149832 0.214182 -0.010298 0.075099 -0.177893 -0.157768 -0.075492 0.017142 0.193170 0.104758 -0.131484 -0.178204 -0.051220 -0.121542 0.135162 0.037082 -0.000820 -0.004715 0.007300 0.221138 0.009688 -0.008708 0.050366 -0.057663 0.021510 0.101109 0.051653 -0.136811 -0.233608 -0.010485 -0.078840 -0.076101 -0.149014 -0.195694 -0.013697 -0.070774 -0.021295 0.006757 0.079864 -0.268831 0.090109 0.306574 0.051184 -0.064121 -0.145128 0.119075 -0.012067 0.090242 0.060493 0.054293 0.302644 -0.084593 -0.046699 -0.104145 0.196189 -0.037533 -0.036786 0.098199 0.163037 -0.124418 -0.000684 -0.176461 -0.033159 0.047045 0.148464 -0.045782 0.221835 -0.077951 0.120075 0.005606 -0.123089 0.090708 -0.120370 0.153938 0.095078 -0.254764 -0.053924 0.089355 -0.178471 -0.052148 -0.133464 0.090371 0.172298 -0.046050 0.137838 0.055980 -0.099854 0.090360 0.137955 0.077184 0.036328 -0.202547 -0.186073 0.010555 -0.252591 0.013885 -0.045656 0.258947 0.101411 0.022543 -0.064436 -0.085720 -0.092246 0.189909 0.066039 -0.004476
15 0.011232 -0.092742 0.135799 -0.250781 0.161754 0.014175 0.014772 0.052704 0.024973 -0.080192 -0.109097 -0.006178 -0.037846 -0.293349 0.105303 -0.012447 -0.125846 0.052756 -0.209518 -0.108551 -0.011710 0.045929 -0.063212 0.086004 -0.161210 -0.185611 -0.033412 -0.053456 0.004775 -0.201929 0.080682 0.002844 0.016347 -0.068550 -0.122898 -0.105921 -0.017490 0.027866 0.105143 -0.130158 0.003387 0.214808 0.006475 0.017478 -0.136483 0.046575 -0.010165 -0.003342 0.045348 0.081410 -0.047272 0.029795 -0.013186 0.050656 -0.212427 -0.177361 0.020438 -0.145282 -0.055717 -0.093112 0.079263 -0.075604 -0.094285 0.145310 -0.089238 0.110722 0.077541 -0.019614 0.100682 0.027588 -0.088449 0.141875 0.273334 -0.084633 0.248769 -0.070369 0.083921 0.104936 -0.046408 -0.047678 0.076232 -0.030680 -0.086445 -0.238405 0.043021 -0.033508 0.075593 -0.098668 0.085480 0.129608 0.215336 0.165046 -0.012944 -0.024002 -0.256543 0.236804 0.032977 -0.270108 -0.042663 0.075324 -0.070007 -0.142534 -0.134285 -0.086437 0.010192 -0.178434 0.027934 0.352586 -0.095383 -0.029079 0.198242 0.091469 0.167372 -0.133400 -0.011251 0.146950 -0.231300 0.149501 -0.143563 0.019408 -0.053834 -0.026730 0.017889 -0.072398 -0.066599 0.185015 0.123807 0.082787
58 0.020043 -0.169454 0.086937 -0.229157 0.115745 -0.046244 0.086406 0.101665 0.169646 -0.047793 0.020012 0.004093 0.023588 -0.092872 -0.020686 -0.058546 -0.038333 0.001640 -0.077121 -0.054628 0.073598 -0.058276 0.026993 0.170173 -0.111571 -0.083418 -0.251363 -0.058369 -0.142224 -0.156605 0.160445 0.015220 -0.108849 -0.139719 -0.056324 -0.076004 0.059414 0.043807 -0.004070 -0.106078 -0.144263 0.186279 0.003437 -0.000949 -0.074660 0.060895 0.059747 -0.062666 0.081788 -0.148825 -0.152027 0.072628 -0.032985 0.007817 -0.112880 -0.131644 0.151734 -0.077498 -0.121883 0.055787 0.030374 -0.047289 -0.123542 0.114209 -0.046238 0.057950 -0.085528 0.031732 0.031478 0.042519 0.114424 0.031562 0.258076 -0.181601 0.119245 -0.111321 0.127872 -0.021070 0.016946 0.094511 0.136954 -0.020890 -0.043857 -0.090624 0.066335 -0.034982 0.251682 -0.047611 0.044982 -0.003102 0.089106 0.027800 -0.103431 0.096527 -0.196749 0.176521 0.120676 -0.224228 0.077116 0.083079 -0.097047 -0.038430 -0.077143 0.021256 0.116793 0.065421 0.118318 0.167961 -0.064082 0.086672 0.081145 0.010142 0.126327 -0.110025 -0.015047 0.057721 -0.109162 0.049910 0.005136 -0.020488 0.037602 -0.020667 0.009183 -0.104789 -0.119073 0.225409 0.081454 -0.060672
111 -0.013832 -0.048680 -0.078519 -0.099052 0.086848 0.087001 0.044341 0.187980 0.039234 -0.162357 -0.102599 -0.013636 -0.087505 -0.456398 0.114081 -0.080466 -0.142607 0.023505 -0.055545 0.098494 -0.115554 -0.002045 0.007757 0.168880 0.006525 -0.024132 -0.159313 -0.217198 0.066363 -0.118505 0.096694 0.133813 -0.050600 -0.076560 -0.156049 -0.217039 0.146598 0.036343 0.030994 0.004344 0.082503 0.273734 -0.010643 0.085566 -0.001859 -0.108432 -0.068361 0.167627 0.030752 -0.050640 -0.172784 -0.085186 -0.059743 -0.065220 -0.162755 -0.184943 -0.088931 -0.165616 0.041964 -0.108579 0.089142 -0.250861 0.136167 0.406697 0.040163 0.005130 -0.064228 0.149842 0.085062 0.077958 -0.053451 0.141516 0.308646 -0.072705 0.074798 -0.131094 0.096470 -0.004901 -0.104382 -0.033347 0.175068 -0.095417 -0.127826 -0.285216 0.037742 -0.054104 -0.044320 -0.023312 0.286170 0.043352 0.285301 0.043120 -0.071978 0.074162 -0.178720 0.140357 0.022923 -0.313600 -0.195115 0.064543 -0.176567 -0.218710 -0.212986 -0.002424 0.074892 -0.144920 -0.039295 0.163143 -0.205175 -0.045469 0.293140 0.205379 0.058223 -0.224174 -0.204132 0.096986 -0.405680 0.091421 -0.149426 0.270904 0.006234 0.022055 -0.033163 -0.069010 -0.042671 0.149977 0.159927 0.111106
48 0.038786 -0.175966 0.025904 -0.217887 0.081584 0.020310 0.135088 0.094709 0.171979 -0.114747 0.069710 -0.013174 0.036199 -0.096756 0.021048 -0.123915 0.001811 -0.042433 -0.039220 0.050699 0.064389 -0.104524 -0.026662 0.171814 -0.092215 -0.041653 -0.412805 -0.065530 -0.141223 -0.248598 0.155165 0.042935 -0.120259 -0.133321 -0.087575 -0.078807 0.147139 0.034212 -0.062265 -0.078599 -0.184130 0.168781 -0.016293 0.053367 -0.018507 0.063620 0.013904 -0.074254 0.089406 -0.282488 -0.217291 0.085996 -0.053287 -0.040234 -0.046976 -0.056427 0.187382 -0.070350 -0.097372 0.084132 0.016901 0.005661 -0.083872 0.127516 0.004340 0.035286 -0.234696 0.138579 0.044962 0.067765 0.206868 -0.039145 0.259514 -0.260296 0.056085 -0.108962 0.069096 -0.080318 0.089422 0.146212 0.207338 0.041717 -0.060950 -0.057896 0.157766 -0.113917 0.282951 0.004078 0.072664 -0.066823 0.097145 0.003044 -0.157982 0.152714 -0.241130 0.098208 0.231686 -0.180999 0.068200 0.097308 -0.081195 -0.023509 -0.096821 0.047140 0.121565 0.212135 0.117260 0.109398 -0.113688 0.109888 0.096213 0.043879 0.105692 -0.103380 -0.026404 0.081232 -0.061719 0.034241 0.046798 -0.016451 0.033616 -0.056134 0.068318 -0.083638 -0.131298 0.258682 0.124080 -0.119581
91 0.048728 -0.214028 0.002342 -0.206360 0.072142 -0.032721 0.118366 0.039026 0.183258 0.009269 0.017318 0.008719 0.050656 -0.116371 -0.042739 -0.091564 -0.043675 -0.006841 -0.053909 0.047739 0.138622 -0.087196 0.061229 0.187270 -0.100947 -0.018565 -0.288350 -0.063496 -0.169581 -0.120025 0.211436 0.033548 -0.118652 -0.183125 -0.058288 -0.037487 0.101700 0.052725 -0.016109 -0.102409 -0.113795 0.200153 -0.013644 -0.005595 0.015449 0.070813 0.033654 -0.078215 0.075879 -0.207438 -0.240859 0.091652 -0.075281 -0.078527 -0.097341 -0.105180 0.172647 -0.044559 -0.105945 0.059690 0.049095 -0.098651 -0.068588 0.128116 0.004669 -0.022728 -0.228192 0.072795 0.023743 0.062842 0.174160 -0.008007 0.255073 -0.205816 0.036082 -0.098115 0.125294 -0.009111 0.088070 0.181160 0.148543 0.003581 0.014654 -0.115932 0.098891 -0.016001 0.315420 -0.052251 0.055103 -0.077843 0.078957 0.028339 -0.129387 0.117676 -0.236328 0.170605 0.191174 -0.162496 0.071506 0.086118 -0.101560 0.048184 -0.099036 0.053721 0.166809 0.148892 0.200757 0.119497 -0.076006 0.155371 0.052279 -0.012836 0.104501 -0.158911 -0.041034 0.054581 -0.065395 0.015270 0.055162 0.060912 0.067441 -0.046000 -0.022620 -0.091480 -0.132088 0.281191 0.058213 -0.123428
21 -0.010597 -0.033041 -0.042368 -0.131685 0.079092 0.029212 0.053584 0.142551 0.016445 -0.103142 -0.138972 -0.020686 -0.049421 -0.414405 0.124169 -0.034818 -0.164214 0.017397 -0.083108 0.053821 -0.075281 0.014182 0.020671 0.146319 -0.002977 -0.048217 -0.150331 -0.158657 0.055482 -0.088972 0.123907 0.113816 -0.039495 -0.073433 -0.144990 -0.196045 0.111951 0.040332 0.050361 -0.001191 0.078411 0.228802 -0.009709 0.054092 -0.033851 -0.065299 -0.063546 0.144390 0.046462 0.017348 -0.143176 -0.069475 -0.033587 -0.047695 -0.194896 -0.187371 -0.066210 -0.167376 0.035238 -0.126466 0.108473 -0.218896 0.099716 0.359948 0.025665 0.036361 -0.011376 0.090847 0.102408 0.108280 -0.087216 0.150251 0.318358 -0.080062 0.101078 -0.100811 0.090648 0.012616 -0.112405 -0.020976 0.141852 -0.046934 -0.108985 -0.260342 0.017872 -0.021598 -0.002611 -0.047267 0.256465 0.055691 0.253786 0.079306 -0.044914 0.048246 -0.203785 0.135200 0.007920 -0.302954 -0.167600 0.057750 -0.156086 -0.197875 -0.181791 0.003246 0.049476 -0.184631 -0.018011 0.182652 -0.161182 -0.044489 0.277180 0.208497 0.055441 -0.144904 -0.174150 0.107692 -0.388898 0.114170 -0.146928 0.251031 -0.004769 0.020121 -0.006256 -0.078487 -0.050588 0.168093 0.136091 0.109763
1 0.011208 -0.256904 0.013166 -0.151449 0.093561 -0.131290 0.053897 0.075337 0.205747 0.175270 -0.090003 0.075175 0.064217 -0.177520 -0.155975 0.023973 -0.115826 0.047602 -0.094361 0.012305 0.250574 -0.032672 0.185965 0.247203 -0.125136 0.036728 -0.030749 -0.087762 -0.216471 0.054179 0.232984 -0.006382 -0.113763 -0.305142 -0.038480 -0.022891 -0.067621 0.049136 0.088028 -0.144553 -0.038648 0.263886 0.028451 -0.145380 -0.000525 0.049367 0.130960 -0.037411 0.065832 -0.062711 -0.211625 0.135301 -0.102692 0.010174 -0.179907 -0.236537 0.079811 -0.025270 -0.124950 0.099378 0.081709 -0.281168 -0.046011 0.131795 -0.037922 -0.088491 -0.125586 0.017434 -0.041898 0.055765 0.097542 0.022030 0.239060 -0.013804 -0.016712 -0.060130 0.272932 0.059199 0.041409 0.135381 0.074217 -0.191760 0.100052 -0.211417 -0.015220 0.124690 0.276843 -0.175325 0.093034 -0.081546 0.065147 0.086025 -0.138017 0.041114 -0.126773 0.307722 0.132229 -0.218765 0.107192 0.071199 -0.125124 0.081323 -0.110506 0.100667 0.254951 -0.012682 0.293327 0.125656 0.022907 0.215604 -0.008384 -0.057918 0.122897 -0.220396 -0.072814 0.014293 -0.098827 -0.016684 0.013875 0.178571 0.162029 0.010255 -0.132957 -0.090686 -0.080726 0.257266 0.012576 -0.075692
60 0.028513 -0.120958 0.150997 -0.286947 0.161325 -0.033319 0.028704 0.050834 0.057434 -0.044242 -0.098232 -0.007265 -0.012637 -0.218343 0.057178 0.002451 -0.091441 0.057298 -0.203514 -0.140367 0.021599 0.022154 -0.038519 0.094873 -0.180642 -0.186440 -0.046677 -0.009487 -0.041502 -0.177584 0.119438 -0.016584 -0.003454 -0.077889 -0.096581 -0.083072 -0.021466 0.038575 0.090388 -0.152340 -0.041625 0.201369 -0.000312 -0.002388 -0.140485 0.071546 0.012917 -0.053722 0.069181 0.071649 -0.054429 0.060999 0.007558 0.035333 -0.195722 -0.174412 0.078670 -0.132598 -0.089806 -0.066906 0.073516 -0.052088 -0.146255 0.090407 -0.090412 0.117252 0.066251 -0.050241 0.075949 0.021807 -0.069203 0.125803 0.266005 -0.108776 0.256513 -0.064223 0.086788 0.105851 -0.024302 0.003414 0.061709 -0.001869 -0.056078 -0.187297 0.045003 -0.016623 0.152091 -0.084858 0.021713 0.125301 0.162154 0.149169 -0.009007 -0.023821 -0.267084 0.240923 0.050622 -0.265851 0.017575 0.087710 -0.071895 -0.091793 -0.096719 -0.074665 0.030283 -0.137918 0.064750 0.343372 -0.070802 0.003524 0.172743 0.041146 0.182318 -0.111213 0.040191 0.133404 -0.186776 0.140877 -0.104990 -0.028922 -0.041971 -0.022266 0.024437 -0.089701 -0.095663 0.201148 0.091177 0.049148
27 0.035134 -0.213479 0.101955 -0.282715 0.071980 -0.193460 0.171602 0.117929 0.200844 0.071420 -0.060058 -0.017425 0.138500 -0.001532 -0.059220 0.056978 -0.091718 -0.073125 -0.051925 -0.083520 0.176631 -0.058171 0.130055 0.209745 -0.074865 -0.023859 -0.378139 0.053154 -0.207154 -0.032678 0.263862 0.000530 -0.179487 -0.217817 -0.000193 -0.063120 0.088835 0.028502 -0.031830 -0.082212 -0.199690 0.074288 0.023944 -0.066521 -0.074215 0.120517 0.086238 -0.060036 0.162280 -0.134329 -0.204783 0.099732 -0.032159 0.022346 -0.158257 -0.204782 0.196534 -0.043875 -0.133141 0.078398 0.106007 -0.014301 -0.161680 0.085157 -0.028929 0.095181 -0.081702 0.056178 0.017229 0.199120 0.128776 0.012537 0.384714 -0.249935 0.006148 -0.051289 0.221977 -0.088442 -0.008810 0.196146 0.164558 0.041643 0.008155 0.035123 -0.015383 0.066277 0.442011 -0.091652 0.090621 -0.115781 -0.033078 0.051955 -0.138587 0.084819 -0.239524 0.119925 0.210399 -0.285165 0.142803 0.106816 -0.114856 0.017313 -0.031346 0.124191 0.143839 0.065294 0.235459 0.082793 0.033189 0.160643 0.057149 0.073544 0.078056 0.078095 -0.021208 0.040509 -0.114983 0.071026 0.033324 0.044769 0.091540 -0.006043 0.100217 -0.160529 -0.201813 0.327468 0.032739 -0.083615
31 0.038224 -0.154699 0.097994 -0.250616 0.131681 -0.154091 0.022119 -0.101522 0.021506 0.112685 -0.170358 0.018365 0.014753 -0.226075 -0.001110 -0.011458 -0.182153 0.092841 -0.187278 -0.126865 0.142791 0.041180 0.080132 0.131451 -0.142490 -0.147462 0.050633 -0.041611 -0.098870 -0.013437 0.236772 0.016218 -0.023157 -0.135754 -0.067063 -0.042960 -0.054778 0.057469 0.163411 -0.178122 0.061761 0.214060 0.008454 -0.048402 -0.068324 0.093728 0.021800 -0.067898 0.011671 0.171204 -0.103226 0.053612 -0.035445 -0.054874 -0.262506 -0.235684 0.097721 -0.081735 -0.115142 -0.141200 0.123688 -0.201519 -0.116628 0.135327 -0.093913 0.047113 0.041221 -0.167427 0.098269 0.066067 -0.099003 0.202038 0.215497 -0.053102 0.243209 -0.073721 0.155923 0.184530 -0.039261 0.080877 -0.007307 -0.012955 0.054207 -0.287806 -0.002184 0.109072 0.217155 -0.162802 0.014831 0.130323 0.137740 0.181408 0.038089 -0.046871 -0.276863 0.329046 -0.040180 -0.195536 0.018064 0.052442 -0.123056 -0.035496 -0.095534 -0.058377 0.080953 -0.184215 0.164019 0.327959 -0.047152 0.072043 0.080651 -0.023951 0.130419 -0.160537 -0.022239 0.071626 -0.198215 0.108320 -0.063455 0.095190 0.014717 -0.024232 -0.136255 -0.117773 -0.092359 0.293090 -0.018874 0.016059
34 0.048801 -0.190150 0.115510 -0.298562 0.131786 -0.206662 0.058877 -0.137312 0.047569 0.153088 -0.169509 0.005941 0.053269 -0.143389 -0.030947 -0.007659 -0.160055 0.081298 -0.190166 -0.151490 0.195762 0.025146 0.111995 0.133454 -0.158690 -0.160326 -0.003132 -0.001527 -0.149660 -0.002211 0.297662 0.000413 -0.042836 -0.158781 -0.048556 -0.014723 -0.041210 0.060950 0.151184 -0.194159 0.014391 0.184527 0.010075 -0.051697 -0.066165 0.131090 0.044796 -0.113206 0.032279 0.150988 -0.120971 0.079967 -0.029373 -0.064420 -0.269408 -0.236645 0.162220 -0.061211 -0.141895 -0.123350 0.116097 -0.162729 -0.172601 0.099641 -0.094047 0.063262 0.022523 -0.196396 0.104918 0.092078 -0.066320 0.194436 0.218014 -0.098979 0.236893 -0.069332 0.153894 0.184977 -0.012470 0.136475 -0.013063 0.034431 0.088561 -0.240262 0.004963 0.133502 0.320317 -0.164101 -0.028872 0.117991 0.089462 0.180227 0.027454 -0.037516 -0.308564 0.335224 -0.009009 -0.168657 0.073735 0.056356 -0.117839 0.010743 -0.061710 -0.038788 0.093192 -0.138423 0.219960 0.316336 -0.030829 0.114709 0.047347 -0.054643 0.137344 -0.114818 0.000877 0.057776 -0.144730 0.110007 -0.017200 0.058393 0.029303 -0.035379 -0.122442 -0.127300 -0.133173 0.346296 -0.036823 -0.022703
73 -0.036689 -0.097982 0.054220 -0.144003 0.175864 0.174856 -0.000300 0.186656 0.107891 -0.324730 0.094799 0.010340 -0.156054 -0.322432 0.100550 -0.199951 -0.003832 0.047309 -0.055314 0.028552 -0.126695 -0.043495 -0.133757 0.174443 -0.106988 -0.111193 -0.212424 -0.233583 -0.005797 -0.400413 0.009076 0.083975 -0.079625 -0.036219 -0.159427 -0.205008 0.088026 0.019992 0.009061 -0.070582 -0.099994 0.336347 0.001202 0.139514 -0.081478 -0.072417 -0.016878 0.041887 0.006893 -0.218094 -0.140850 -0.015060 -0.062597 0.014810 -0.082467 -0.109558 0.036739 -0.140721 -0.093819 0.039924 -0.049707 -0.096143 0.014396 0.302926 -0.060378 0.051308 -0.096414 0.140571 0.050581 -0.105167 0.091827 0.066967 0.189157 -0.093771 0.205617 -0.176149 0.040348 -0.053301 -0.001567 -0.071782 0.221929 -0.127021 -0.208194 -0.217502 0.156157 -0.207426 -0.066520 0.031279 0.167727 0.105022 0.289211 -0.024511 -0.130622 0.119165 -0.129594 0.159728 0.082226 -0.246935 -0.092221 0.056153 -0.110244 -0.227950 -0.192432 -0.083982 0.081722 0.046929 -0.088929 0.199854 -0.245120 -0.065173 0.214247 0.106989 0.151947 -0.288247 -0.084560 0.083518 -0.232438 0.047286 -0.085711 -0.012300 -0.038457 -0.013643 -0.034643 -0.053191 -0.003203 0.115642 0.209410 0.015211
17 0.032939 -0.177481 0.058155 -0.239240 0.042727 -0.172505 0.174957 0.132689 0.188933 0.069532 -0.079054 -0.013615 0.134530 -0.047040 -0.038875 0.069049 -0.114644 -0.085982 -0.050007 -0.038556 0.143024 -0.063152 0.140722 0.186835 -0.028919 0.004922 -0.369381 0.032837 -0.160433 0.010945 0.249097 0.027901 -0.155289 -0.207155 -0.020670 -0.082859 0.123107 0.035492 -0.037906 -0.047246 -0.148079 0.065567 0.018132 -0.053598 -0.056270 0.084946 0.058129 -0.015180 0.156617 -0.111683 -0.212758 0.064121 -0.027827 -0.004479 -0.149101 -0.194277 0.142022 -0.055050 -0.079298 0.033135 0.124882 -0.053206 -0.105479 0.120499 0.003746 0.084337 -0.087527 0.071796 0.028069 0.223619 0.101857 0.020640 0.407532 -0.245608 -0.012011 -0.050325 0.212073 -0.089788 -0.023611 0.173527 0.172121 0.040511 0.007692 0.001256 -0.030747 0.066197 0.404507 -0.086824 0.142858 -0.120852 -0.001941 0.058593 -0.130511 0.088913 -0.241707 0.101881 0.192355 -0.294398 0.092490 0.115761 -0.126238 0.001725 -0.055656 0.135513 0.131142 0.020585 0.212326 0.080376 0.011948 0.146299 0.089705 0.102246 0.058611 0.066868 -0.063189 0.048071 -0.165193 0.085576 0.015578 0.100341 0.091445 0.001408 0.102032 -0.144173 -0.200334 0.309515 0.043590 -0.052636
72 -0.011613 -0.123910 0.081296 -0.202871 0.159409 0.076771 -0.031865 0.099140 0.137952 -0.234818 0.064039 0.009072 -0.131769 -0.236930 0.026770 -0.146498 0.021114 0.123198 -0.064547 -0.054625 -0.098765 -0.026345 -0.055078 0.144063 -0.160616 -0.111133 -0.070146 -0.142712 -0.022890 -0.297434 0.095166 0.071716 -0.087803 0.016750 -0.082976 -0.145233 0.070888 0.013307 0.029096 -0.099721 -0.073390 0.297274 -0.012607 0.115579 -0.057042 -0.057499 -0.007613 -0.011097 -0.008638 -0.137300 -0.127782 0.001597 -0.010247 -0.047297 -0.136005 -0.136613 0.086019 -0.097693 -0.142727 0.011938 -0.043447 -0.102602 -0.081238 0.218186 -0.074542 0.071358 -0.026043 -0.014902 0.009803 -0.137206 0.028037 0.102627 0.172118 -0.099287 0.246398 -0.146235 0.074347 0.029039 0.015284 -0.000938 0.123558 -0.077747 -0.113844 -0.175500 0.072464 -0.099755 0.058515 0.035521 0.050639 0.159270 0.180935 0.006757 -0.050982 0.051243 -0.161589 0.225585 0.028152 -0.214018 -0.023102 0.106075 -0.127169 -0.128038 -0.108780 -0.108114 0.091290 -0.007438 0.003190 0.257114 -0.229606 -0.037511 0.170963 -0.026729 0.185798 -0.285796 -0.004645 0.045896 -0.177457 0.058814 -0.070968 -0.069607 -0.024587 -0.023310 -0.083779 -0.074819 -0.062425 0.148054 0.087181 -0.014904
22 -0.000689 -0.043860 -0.075625 -0.118049 0.075286 0.040595 0.057102 0.151069 0.020767 -0.118316 -0.138922 -0.020911 -0.054239 -0.432403 0.121915 -0.055210 -0.158648 0.023519 -0.067237 0.084017 -0.089266 0.003706 0.032210 0.154270 0.005424 -0.025934 -0.155250 -0.179283 0.064417 -0.076113 0.126893 0.125726 -0.043930 -0.071443 -0.144853 -0.200442 0.134105 0.037238 0.034594 0.002132 0.101190 0.228165 -0.020334 0.070407 -0.000572 -0.077781 -0.077205 0.159367 0.036167 -0.003751 -0.162547 -0.081564 -0.041756 -0.079985 -0.176328 -0.180625 -0.067853 -0.159921 0.051515 -0.134342 0.108109 -0.241193 0.122282 0.379064 0.039616 0.021968 -0.046243 0.103734 0.102346 0.116788 -0.083993 0.159507 0.315120 -0.085978 0.088821 -0.112269 0.084386 0.017726 -0.107746 -0.009877 0.140990 -0.052395 -0.095470 -0.273941 0.027987 -0.027184 0.003247 -0.036928 0.260272 0.055943 0.260420 0.068511 -0.039717 0.053450 -0.210092 0.144577 0.007592 -0.300395 -0.172897 0.061243 -0.173456 -0.188193 -0.187672 0.006220 0.059968 -0.170816 -0.013146 0.182986 -0.179823 -0.031731 0.287236 0.197595 0.054286 -0.176297 -0.188142 0.100144 -0.398612 0.104317 -0.146541 0.267359 0.007260 0.016336 -0.023206 -0.072794 -0.055418 0.170680 0.131551 0.109977
4 -0.010944 -0.077382 -0.042982 -0.130877 0.061665 0.029557 0.070053 0.190142 0.130398 -0.164165 -0.046898 -0.015911 -0.041511 -0.305196 0.069392 -0.068534 -0.109015 0.000065 -0.002876 0.064262 -0.091264 -0.033024 0.055951 0.166636 0.005170 0.002668 -0.250941 -0.150133 0.014784 -0.096502 0.137961 0.136050 -0.119319 -0.058756 -0.082261 -0.183595 0.205812 0.023833 -0.025139 0.029470 0.006374 0.199980 0.008835 0.089399 0.001704 -0.079848 -0.045377 0.119491 0.041911 -0.129723 -0.189297 -0.077413 -0.037498 -0.072976 -0.159427 -0.162557 -0.009762 -0.116342 -0.006508 -0.074698 0.070650 -0.181519 0.065667 0.344165 0.036106 0.036267 -0.081332 0.120343 0.045003 0.078861 0.014060 0.105863 0.322010 -0.153119 0.056746 -0.126211 0.131631 -0.056007 -0.076363 0.046202 0.197633 -0.043338 -0.093349 -0.168288 0.000603 -0.033334 0.092517 0.015630 0.232725 0.002859 0.171627 -0.003944 -0.087181 0.094228 -0.177116 0.104694 0.048557 -0.293000 -0.124424 0.100690 -0.190577 -0.155046 -0.136305 0.016119 0.076976 -0.075066 0.010553 0.122314 -0.188035 -0.021356 0.237362 0.142588 0.040607 -0.155177 -0.177547 0.048336 -0.328493 0.078403 -0.095416 0.177988 0.020398 0.009061 -0.007660 -0.104405 -0.101763 0.170133 0.105031 0.044152
11 -0.007531 -0.118300 0.040347 -0.179085 0.109535 0.051743 0.049834 0.190004 0.183838 -0.236223 0.061847 -0.017082 -0.063981 -0.197232 0.039915 -0.124075 0.003229 0.027861 -0.002006 -0.000150 -0.095549 -0.065176 -0.010763 0.176430 -0.086411 -0.052591 -0.273649 -0.129358 -0.042365 -0.248116 0.116907 0.093985 -0.135549 -0.025636 -0.068949 -0.157021 0.175256 0.024202 -0.045724 -0.022524 -0.118833 0.227849 -0.000860 0.113361 -0.044782 -0.049371 -0.009470 0.031384 0.054176 -0.222469 -0.178082 -0.012482 -0.009749 -0.047574 -0.103519 -0.125690 0.095022 -0.107306 -0.107742 0.037971 -0.004726 -0.069062 -0.038381 0.244304 -0.021517 0.075212 -0.095937 0.092274 0.011855 -0.023711 0.095558 0.050152 0.258287 -0.188883 0.125976 -0.135395 0.092283 -0.076139 -0.015399 0.047976 0.196650 -0.022291 -0.121205 -0.084095 0.054847 -0.109539 0.129506 0.064430 0.123225 0.043522 0.136509 -0.041880 -0.097509 0.116999 -0.165079 0.120199 0.103398 -0.257962 -0.024617 0.124116 -0.146538 -0.121265 -0.105131 -0.013917 0.095450 0.049240 0.020523 0.140373 -0.191301 -0.015311 0.192199 0.065255 0.107018 -0.174260 -0.064085 0.043789 -0.209235 0.056888 -0.051802 -0.001948 0.010400 -0.016583 0.024590 -0.106381 -0.113417 0.154777 0.113761 -0.025187
19 0.041114 -0.239812 0.006888 -0.178794 0.102878 -0.114728 0.034639 -0.026248 0.151242 0.163995 -0.096731 0.066675 0.028134 -0.193392 -0.129067 -0.028201 -0.111494 0.089547 -0.125805 -0.001195 0.227050 -0.028747 0.149193 0.215097 -0.150424 -0.025908 0.022610 -0.099598 -0.197485 0.020756 0.256232 0.001781 -0.073253 -0.258100 -0.055683 -0.008500 -0.072110 0.076121 0.123946 -0.179666 0.012194 0.290499 0.001038 -0.106168 0.018635 0.066159 0.100105 -0.075715 0.023254 -0.005059 -0.191277 0.122459 -0.090105 -0.067263 -0.184341 -0.212816 0.098037 -0.041076 -0.118982 0.020739 0.071017 -0.288119 -0.050304 0.140720 -0.039983 -0.084970 -0.115815 -0.065740 0.003360 0.007982 0.049652 0.088020 0.179916 -0.014369 0.084668 -0.091483 0.203080 0.137140 0.042157 0.132206 0.020854 -0.132333 0.105081 -0.270737 0.016481 0.106845 0.242931 -0.148288 0.019883 0.008791 0.107265 0.102317 -0.059250 0.025846 -0.177364 0.345807 0.054721 -0.158278 0.076168 0.050528 -0.121081 0.075316 -0.116338 0.024850 0.214673 -0.039614 0.249397 0.194558 -0.028526 0.177861 0.005095 -0.097676 0.139546 -0.283422 -0.041570 0.030879 -0.101782 0.002035 0.009991 0.150961 0.110907 -0.010094 -0.184200 -0.085239 -0.075160 0.258781 -0.009235 -0.067919
68 -0.021982 -0.035315 -0.065338 -0.105720 0.098262 0.113337 0.051738 0.190572 0.043286 -0.230311 -0.067278 -0.019985 -0.097290 -0.435434 0.146593 -0.115108 -0.116882 0.023294 -0.042434 0.094598 -0.150528 -0.013935 -0.026942 0.166604 0.001865 -0.037719 -0.222632 -0.210604 0.072446 -0.179901 0.082946 0.149288 -0.062197 -0.031619 -0.151956 -0.228715 0.171877 0.032766 0.009248 0.019243 0.055094 0.266024 -0.017131 0.121786 -0.009839 -0.108364 -0.081924 0.157693 0.017916 -0.092781 -0.171504 -0.096087 -0.046254 -0.071764 -0.151082 -0.144833 -0.057282 -0.177654 0.032610 -0.104428 0.065325 -0.204728 0.125641 0.407120 0.036284 0.031700 -0.075179 0.149273 0.094830 0.063618 -0.033595 0.136393 0.297057 -0.117168 0.109353 -0.144306 0.065585 -0.029002 -0.098223 -0.032463 0.198237 -0.055963 -0.158869 -0.256198 0.077060 -0.101213 -0.046664 0.017233 0.264671 0.075255 0.295427 0.022050 -0.067463 0.095047 -0.194680 0.117632 0.023651 -0.302526 -0.198522 0.067301 -0.176723 -0.236197 -0.206504 -0.024545 0.053777 -0.115119 -0.066267 0.174876 -0.240113 -0.067373 0.306684 0.206139 0.055592 -0.213039 -0.193227 0.098006 -0.393553 0.093649 -0.146262 0.213815 -0.021560 0.013848 -0.008848 -0.065644 -0.041056 0.141972 0.167471 0.097148
18 0.041728 -0.182367 0.130798 -0.301387 0.133999 -0.196635 0.051191 -0.083911 0.082330 0.123439 -0.135028 0.009533 0.061334 -0.116531 -0.031874 0.004070 -0.138702 0.069912 -0.175020 -0.156411 0.178548 0.017278 0.100313 0.145501 -0.162010 -0.142967 -0.051108 0.016783 -0.151191 -0.032980 0.272515 -0.003075 -0.060488 -0.144742 -0.034012 -0.031518 -0.040443 0.049842 0.121698 -0.175884 -0.031980 0.172333 0.008679 -0.056457 -0.088033 0.136313 0.043638 -0.110694 0.055768 0.099090 -0.125161 0.081372 -0.011122 -0.035156 -0.249152 -0.219483 0.177209 -0.066741 -0.162629 -0.076642 0.110234 -0.127963 -0.185972 0.071440 -0.098101 0.088885 0.028973 -0.166698 0.083097 0.089083 -0.037695 0.158130 0.250937 -0.129286 0.231033 -0.059297 0.170773 0.145137 -0.008146 0.130135 0.011944 0.035421 0.062329 -0.189491 -0.001609 0.108787 0.334500 -0.144991 -0.025187 0.101491 0.068087 0.161831 0.007075 -0.033113 -0.302822 0.313370 0.021715 -0.195262 0.101521 0.071961 -0.110681 0.012263 -0.054751 -0.020457 0.103119 -0.105412 0.212311 0.301527 -0.020638 0.104473 0.044092 -0.049015 0.143987 -0.089376 0.024302 0.061441 -0.129166 0.101066 -0.014951 0.018878 0.036307 -0.034408 -0.078351 -0.130358 -0.134653 0.318627 -0.029262 -0.031805
26 0.032485 -0.156538 0.208031 -0.345052 0.160147 -0.199409 0.062055 -0.064116 0.061530 0.055238 -0.121323 -0.022300 0.058269 -0.081956 0.009669 0.017010 -0.131382 0.044340 -0.177999 -0.220905 0.130966 0.030836 0.053302 0.126347 -0.176358 -0.191116 -0.103914 0.045432 -0.131294 -0.101369 0.246520 -0.010443 -0.066416 -0.101533 -0.039170 -0.056121 -0.027849 0.031497 0.108088 -0.169928 -0.083538 0.122571 0.022119 -0.027802 -0.146231 0.146667 0.040682 -0.113774 0.066048 0.111492 -0.083902 0.072133 0.003456 0.004521 -0.254986 -0.224844 0.200077 -0.068565 -0.189013 -0.073443 0.106932 -0.036111 -0.238909 0.059425 -0.135500 0.163237 0.095189 -0.168185 0.096310 0.097919 -0.043537 0.167594 0.277079 -0.165622 0.275467 -0.062076 0.154562 0.110963 -0.036048 0.105908 0.041889 0.073928 0.013722 -0.125852 0.001555 0.085297 0.335884 -0.131144 -0.023383 0.117690 0.058060 0.172645 0.002893 -0.030954 -0.311958 0.276082 0.033621 -0.233667 0.115179 0.079292 -0.095470 -0.044541 -0.033552 -0.036652 0.058641 -0.109727 0.183009 0.325541 -0.013613 0.070043 0.065409 -0.006314 0.156868 -0.002234 0.048862 0.073936 -0.134997 0.137223 -0.029841 -0.059387 0.003555 -0.036986 -0.021200 -0.152579 -0.154091 0.334737 -0.009031 -0.020299
98 0.005397 -0.131411 0.037527 -0.217357 0.149455 0.113429 0.023450 0.168182 0.181829 -0.297141 0.140695 -0.015452 -0.115111 -0.214681 0.029513 -0.205815 0.095498 0.092617 -0.019538 0.015517 -0.123663 -0.087951 -0.078771 0.175852 -0.149649 -0.088181 -0.237414 -0.150052 -0.038467 -0.372162 0.102003 0.094130 -0.126505 0.032932 -0.106646 -0.164222 0.150474 0.016197 -0.038121 -0.071728 -0.154419 0.293083 -0.045047 0.163022 -0.025799 -0.068538 -0.025235 -0.020770 0.021036 -0.273590 -0.175252 0.009319 0.006889 -0.081461 -0.056993 -0.079412 0.121290 -0.112859 -0.130726 0.074677 -0.072130 -0.036488 -0.069193 0.219865 -0.036503 0.067307 -0.121696 0.073212 0.002481 -0.130170 0.125727 0.041634 0.187616 -0.181078 0.194683 -0.170092 0.018916 -0.038526 0.050627 0.037042 0.181141 -0.045561 -0.146843 -0.102536 0.144303 -0.176874 0.076301 0.116635 0.053876 0.120732 0.183868 -0.061603 -0.077091 0.127679 -0.178617 0.161771 0.098078 -0.208269 -0.015761 0.116426 -0.137333 -0.126222 -0.114683 -0.085134 0.111335 0.119463 -0.016228 0.191515 -0.266334 -0.021780 0.196502 -0.005217 0.191387 -0.286225 0.006196 0.058314 -0.155000 0.032669 -0.037499 -0.086821 -0.020149 -0.027756 -0.029346 -0.066535 -0.082679 0.133173 0.139630 -0.060582
88 -0.025525 -0.155976 0.064256 -0.115747 0.143713 0.089782 0.019809 0.163110 0.139455 -0.186731 0.072619 0.034698 -0.087541 -0.234917 0.030298 -0.129435 -0.034558 0.011163 -0.047425 0.015017 -0.005368 -0.038888 -0.056809 0.204565 -0.098067 -0.067719 -0.202681 -0.201162 -0.088507 -0.276474 0.042013 0.052627 -0.099804 -0.134712 -0.113350 -0.143413 0.046681 0.035491 0.023146 -0.084082 -0.111969 0.303855 0.027541 0.047434 -0.079437 -0.019569 0.040430 -0.000033 0.024022 -0.201117 -0.149729 0.039050 -0.097230 0.042791 -0.090020 -0.136377 0.055819 -0.098650 -0.115341 0.072624 -0.017344 -0.115014 -0.015078 0.244332 -0.057418 0.006173 -0.114749 0.137340 0.027604 -0.051290 0.132916 0.036747 0.182538 -0.075981 0.122691 -0.136416 0.112017 -0.045558 0.001544 -0.018178 0.204039 -0.139387 -0.134183 -0.195120 0.111426 -0.122519 0.033460 -0.036778 0.146308 0.017817 0.215366 -0.015551 -0.158352 0.110703 -0.093944 0.163943 0.106273 -0.228147 -0.029268 0.049886 -0.098007 -0.150283 -0.164548 -0.012548 0.122064 0.062043 0.001222 0.138897 -0.143419 0.024212 0.129392 0.076831 0.117050 -0.235747 -0.087563 0.052711 -0.168549 0.018048 -0.043548 0.018258 0.017218 -0.016863 -0.034134 -0.072296 -0.023231 0.150813 0.153818 -0.021058
13 0.030417 -0.133019 0.149334 -0.268962 0.166043 -0.035311 0.012408 0.003737 0.031685 -0.001465 -0.111860 0.009247 -0.011519 -0.245032 0.056009 -0.001747 -0.124207 0.062853 -0.221816 -0.127265 0.073525 0.040103 -0.051127 0.094369 -0.189657 -0.181488 0.012736 -0.027165 -0.052562 -0.172105 0.110241 -0.029986 0.016622 -0.118691 -0.106657 -0.070211 -0.067715 0.044995 0.124332 -0.178128 -0.009944 0.219615 0.004094 -0.029165 -0.134111 0.089337 0.029387 -0.060485 0.043863 0.103025 -0.055107 0.081983 -0.028437 0.052066 -0.205048 -0.185132 0.060173 -0.118837 -0.086137 -0.074488 0.081839 -0.086390 -0.135700 0.082867 -0.104030 0.082975 0.048128 -0.060841 0.090532 0.015310 -0.069372 0.125153 0.243817 -0.071061 0.254171 -0.064839 0.107348 0.130734 -0.012045 -0.014277 0.046063 -0.046610 -0.039439 -0.244485 0.051395 -0.001168 0.145383 -0.135586 0.030414 0.120788 0.187508 0.176439 -0.022175 -0.032919 -0.260824 0.271571 0.050393 -0.248614 0.009969 0.062275 -0.053183 -0.084799 -0.118490 -0.077552 0.041332 -0.139261 0.090702 0.351740 -0.059529 0.025524 0.141513 0.035938 0.187094 -0.141828 0.023374 0.132360 -0.175941 0.129280 -0.099253 -0.003452 -0.031178 -0.027495 -0.016624 -0.079309 -0.068900 0.225532 0.090022 0.039495
8 -0.024434 -0.036047 -0.096198 -0.090221 0.070651 0.088439 0.056228 0.217848 0.060493 -0.192873 -0.096351 -0.021366 -0.093463 -0.456895 0.129541 -0.092485 -0.132214 0.027665 -0.022464 0.114594 -0.148386 -0.010161 0.026012 0.177273 0.024396 0.004134 -0.197691 -0.223309 0.073830 -0.117058 0.112809 0.165292 -0.079797 -0.048938 -0.143894 -0.238907 0.188984 0.026647 0.013906 0.043969 0.078096 0.269806 -0.015573 0.110323 0.013767 -0.130353 -0.084374 0.194618 0.023203 -0.076356 -0.190495 -0.110636 -0.038236 -0.083143 -0.170983 -0.184466 -0.089616 -0.173112 0.042025 -0.108029 0.079735 -0.263169 0.151380 0.440173 0.051363 0.010426 -0.061804 0.151962 0.075847 0.079820 -0.050791 0.146790 0.318894 -0.093497 0.066841 -0.137350 0.093498 -0.031555 -0.115289 -0.020472 0.196266 -0.086614 -0.134107 -0.256952 0.022129 -0.050059 -0.037211 0.013432 0.299381 0.043697 0.275405 0.014118 -0.069777 0.089284 -0.172410 0.115774 0.015538 -0.326896 -0.210066 0.071925 -0.194622 -0.225796 -0.204873 0.003836 0.079123 -0.153537 -0.041772 0.137252 -0.225084 -0.061955 0.302417 0.213715 0.043611 -0.214352 -0.226966 0.086263 -0.428380 0.086452 -0.151471 0.274949 0.009052 0.026839 -0.023777 -0.071459 -0.047226 0.138098 0.154856 0.107316
9 -0.011349 -0.048671 -0.056266 -0.129179 0.048861 0.030689 0.076605 0.190342 0.079178 -0.138994 -0.110726 -0.025229 -0.038507 -0.357621 0.111730 -0.026313 -0.156807 -0.013094 -0.039009 0.066712 -0.105600 -0.005282 0.053735 0.140535 0.025524 -0.006582 -0.230607 -0.148638 0.047751 -0.066045 0.130139 0.138655 -0.086365 -0.072035 -0.101389 -0.199362 0.196353 0.019766 -0.010275 0.038154 0.040306 0.174488 0.008675 0.079512 -0.015346 -0.083714 -0.060704 0.158376 0.053647 -0.056202 -0.169024 -0.088327 -0.041933 -0.056278 -0.171562 -0.183618 -0.060431 -0.137760 0.037599 -0.122126 0.106465 -0.189328 0.087973 0.364514 0.045778 0.042497 -0.040342 0.131529 0.073578 0.134788 -0.040429 0.127948 0.364664 -0.137542 0.050978 -0.108238 0.122257 -0.043100 -0.114943 0.018347 0.191336 -0.035397 -0.104859 -0.199191 -0.017153 -0.016686 0.063953 -0.013723 0.273504 0.000682 0.201666 0.035687 -0.067034 0.077370 -0.193535 0.083407 0.051648 -0.319751 -0.159222 0.094273 -0.185384 -0.192066 -0.157112 0.024975 0.049321 -0.146757 -0.004087 0.143864 -0.172294 -0.039205 0.274122 0.204876 0.028993 -0.114717 -0.196221 0.072236 -0.386780 0.111626 -0.130706 0.234883 0.004443 0.013207 0.024100 -0.093065 -0.098046 0.182309 0.117857 0.087945
40 -0.015682 -0.093995 0.055102 -0.221986 0.157677 0.116899 -0.010173 0.142963 0.135848 -0.317098 0.094901 -0.020955 -0.147512 -0.267723 0.062426 -0.197180 0.047243 0.108189 -0.045901 -0.020289 -0.161492 -0.050011 -0.079042 0.144725 -0.142808 -0.120709 -0.169435 -0.167316 0.011292 -0.362117 0.093451 0.106532 -0.096614 0.073092 -0.107028 -0.184300 0.139642 0.017321 -0.001267 -0.064574 -0.098668 0.286547 -0.028536 0.184794 -0.050292 -0.093904 -0.050474 0.008474 -0.000255 -0.180918 -0.136133 -0.039946 0.008570 -0.082263 -0.098731 -0.105394 0.079328 -0.128830 -0.112515 -0.008101 -0.057534 -0.060644 -0.053207 0.263799 -0.049976 0.095444 -0.053331 0.023358 0.032754 -0.129221 0.031969 0.103452 0.198238 -0.162993 0.255170 -0.175248 0.024243 -0.005638 -0.002778 -0.006886 0.157724 -0.038487 -0.163827 -0.158717 0.110449 -0.152092 0.028745 0.092369 0.070361 0.180396 0.206557 -0.033781 -0.043667 0.088986 -0.182364 0.176494 0.039649 -0.231050 -0.059674 0.113170 -0.139020 -0.179120 -0.110982 -0.119096 0.065738 0.012426 -0.044371 0.246307 -0.290286 -0.076398 0.228446 0.013275 0.182169 -0.282506 -0.018156 0.064125 -0.218141 0.075037 -0.079452 -0.075117 -0.049454 -0.021128 -0.049037 -0.078035 -0.077488 0.143022 0.129860 -0.013446
51 -0.006198 -0.053070 -0.087223 -0.109384 0.089757 0.082560 0.029139 0.131013 0.032638 -0.145308 -0.088562 -0.010473 -0.101567 -0.440206 0.101474 -0.110429 -0.111334 0.072769 -0.068756 0.085383 -0.108959 -0.007606 0.010729 0.156467 -0.017829 -0.039146 -0.109110 -0.210584 0.061074 -0.125403 0.119474 0.139719 -0.039431 -0.043768 -0.149785 -0.194898 0.131937 0.039280 0.042090 -0.012732 0.095881 0.288398 -0.034508 0.093118 0.020593 -0.100989 -0.072951 0.134508 0.001093 -0.035315 -0.166784 -0.073870 -0.037984 -0.111516 -0.165462 -0.162967 -0.055045 -0.165503 0.025945 -0.112055 0.070911 -0.261370 0.113357 0.383129 0.031569 0.002257 -0.071018 0.087863 0.080622 0.033190 -0.058034 0.158135 0.255564 -0.071652 0.123242 -0.138608 0.068592 0.040306 -0.080756 -0.013942 0.136800 -0.076495 -0.097375 -0.302434 0.063806 -0.050265 -0.036818 -0.000465 0.213166 0.097300 0.277852 0.050871 -0.024968 0.063156 -0.197325 0.176651 -0.011723 -0.261942 -0.180984 0.061716 -0.178344 -0.176929 -0.198764 -0.033344 0.082599 -0.142305 -0.020682 0.203232 -0.224158 -0.036969 0.273465 0.142209 0.078131 -0.268810 -0.164619 0.092582 -0.364105 0.078910 -0.133445 0.233771 -0.001929 0.013062 -0.079326 -0.055256 -0.037174 0.153587 0.128257 0.087851
70 0.034177 -0.173954 0.067289 -0.248371 0.068936 -0.142195 0.148456 0.130478 0.183794 0.005795 -0.045691 -0.018874 0.097682 -0.052893 -0.029998 0.020251 -0.073170 -0.053261 -0.031007 -0.048450 0.100996 -0.062538 0.097271 0.187641 -0.056719 -0.021956 -0.366974 0.011370 -0.150366 -0.060203 0.232266 0.036619 -0.163105 -0.158769 -0.020799 -0.093559 0.129560 0.034927 -0.042132 -0.049724 -0.163499 0.087769 0.005201 -0.015934 -0.060283 0.075190 0.041181 -0.027100 0.136407 -0.147617 -0.198249 0.056467 -0.007874 -0.013720 -0.133241 -0.168496 0.169775 -0.064955 -0.111329 0.051016 0.092608 -0.025276 -0.117470 0.121008 -0.016007 0.099647 -0.079038 0.058401 0.025455 0.168560 0.110390 0.029918 0.362333 -0.246430 0.028872 -0.063279 0.177283 -0.084526 -0.022443 0.159921 0.168248 0.047636 -0.022369 0.015710 0.002005 0.020887 0.362305 -0.042446 0.105214 -0.071961 0.015543 0.031292 -0.113440 0.092821 -0.231502 0.101592 0.169250 -0.271195 0.091381 0.107409 -0.131674 -0.012232 -0.052687 0.099962 0.120202 0.049504 0.169658 0.095058 -0.022238 0.108566 0.097236 0.085844 0.069106 0.040108 -0.031400 0.042761 -0.152078 0.072472 0.009335 0.057006 0.073901 -0.009573 0.094901 -0.142477 -0.186195 0.276085 0.046389 -0.059123
65 0.026471 -0.188914 0.068722 -0.254840 0.065959 -0.127048 0.183075 0.171202 0.223240 -0.021776 -0.006484 -0.024251 0.116946 -0.032505 -0.033389 0.017021 -0.061511 -0.083352 -0.015405 -0.028823 0.105356 -0.088833 0.097828 0.210364 -0.048436 -0.005123 -0.459549 0.019568 -0.174013 -0.092359 0.230364 0.037405 -0.184884 -0.184069 -0.024737 -0.095635 0.155373 0.031096 -0.076427 -0.043767 -0.213012 0.094712 0.017190 -0.020963 -0.064184 0.076980 0.055081 -0.035743 0.169638 -0.221361 -0.235214 0.071452 -0.024436 0.000615 -0.120434 -0.159818 0.182810 -0.070491 -0.103513 0.083926 0.079345 -0.001562 -0.120145 0.130766 0.001216 0.095903 -0.122654 0.121073 0.015182 0.178902 0.166305 -0.016497 0.393500 -0.282597 -0.013020 -0.073286 0.184250 -0.138612 -0.002545 0.177681 0.215385 0.056436 -0.046176 0.042991 0.020905 -0.003245 0.388043 -0.025254 0.128627 -0.127297 0.001143 0.006860 -0.155871 0.124439 -0.227955 0.064072 0.221976 -0.290735 0.098604 0.122400 -0.121909 -0.014772 -0.053047 0.124533 0.135010 0.106675 0.174868 0.056476 -0.024862 0.123407 0.099699 0.098166 0.064092 0.058532 -0.048490 0.049443 -0.133468 0.068662 0.031133 0.046560 0.077780 -0.006356 0.133093 -0.147078 -0.197161 0.286398 0.074445 -0.082574
92 0.052816 -0.161992 0.071364 -0.263805 0.121616 -0.001725 0.078298 0.004360 0.111439 -0.024619 -0.006213 0.001206 0.020569 -0.149602 0.028402 -0.072322 -0.043685 0.010794 -0.146540 -0.028937 0.087320 -0.045694 -0.032919 0.112087 -0.154519 -0.112922 -0.203778 -0.020620 -0.104176 -0.198845 0.153259 0.001025 -0.042006 -0.121108 -0.098802 -0.043280 0.033305 0.044482 0.027453 -0.143454 -0.087827 0.190441 -0.020139 0.012903 -0.060193 0.096489 0.015645 -0.100843 0.075205 -0.091128 -0.155371 0.097165 -0.039743 -0.027363 -0.116080 -0.091366 0.147665 -0.081054 -0.089132 0.004636 0.046976 -0.039390 -0.118612 0.076669 -0.037800 0.047377 -0.123080 0.022185 0.065677 0.031339 0.081159 0.028540 0.240623 -0.193589 0.159359 -0.087666 0.073385 0.047217 0.078035 0.089104 0.106769 0.029614 -0.031134 -0.148726 0.124982 -0.054189 0.241003 -0.059111 0.020967 0.018788 0.126185 0.096075 -0.079507 0.059886 -0.289222 0.199347 0.148433 -0.180200 0.052588 0.084015 -0.058033 -0.007400 -0.102674 -0.026614 0.084513 0.065119 0.128904 0.246831 -0.095608 0.083261 0.101096 0.003774 0.156246 -0.141918 0.029667 0.110297 -0.076842 0.079197 -0.008773 -0.017029 0.000078 -0.060783 0.013332 -0.070691 -0.110952 0.253066 0.093511 -0.071453
74 -0.019418 -0.134902 0.095907 -0.221177 0.183520 0.127871 -0.038779 0.143157 0.147591 -0.298927 0.114415 0.015870 -0.159490 -0.241150 0.032247 -0.189524 0.060983 0.125811 -0.061307 -0.044478 -0.124180 -0.041884 -0.108487 0.162003 -0.191281 -0.130801 -0.107756 -0.165325 -0.026145 -0.386847 0.066910 0.068988 -0.091865 0.026841 -0.104093 -0.162530 0.063424 0.011897 0.024693 -0.110756 -0.128567 0.333647 -0.017759 0.141314 -0.076299 -0.065442 -0.006592 -0.029353 -0.007534 -0.193427 -0.121402 0.015819 -0.014558 -0.025612 -0.100109 -0.111877 0.091159 -0.113224 -0.161174 0.045422 -0.074261 -0.068990 -0.084117 0.213990 -0.092946 0.073479 -0.042305 0.026080 0.003910 -0.182167 0.066446 0.077511 0.162141 -0.110445 0.269272 -0.162776 0.050253 0.007648 0.032696 -0.033458 0.150631 -0.105356 -0.159386 -0.174083 0.125502 -0.170594 0.009929 0.069764 0.038275 0.177366 0.224117 -0.017522 -0.067459 0.075173 -0.155860 0.217011 0.058705 -0.214497 -0.020775 0.096552 -0.116475 -0.160497 -0.125112 -0.133309 0.094418 0.041874 -0.040569 0.272654 -0.260602 -0.051574 0.182220 -0.021387 0.217762 -0.323654 0.010283 0.062371 -0.168752 0.049234 -0.074678 -0.119247 -0.046259 -0.029409 -0.067178 -0.060943 -0.052615 0.119732 0.132054 -0.023845
84 -0.017213 -0.132564 0.089969 -0.200902 0.175186 0.133541 -0.009759 0.136900 0.163063 -0.311799 0.147936 0.002617 -0.140570 -0.215535 0.038665 -0.210443 0.071175 0.096305 -0.036343 -0.023041 -0.121207 -0.061986 -0.105384 0.169245 -0.162509 -0.126438 -0.193474 -0.170931 -0.040553 -0.401483 0.067421 0.085378 -0.108974 0.025998 -0.100185 -0.158617 0.108513 0.026529 -0.008371 -0.095926 -0.148737 0.319736 -0.017770 0.156764 -0.065708 -0.056747 -0.012404 -0.033183 -0.000755 -0.245167 -0.143598 0.008922 -0.025692 -0.045877 -0.074075 -0.089473 0.122702 -0.108591 -0.158779 0.057628 -0.080203 -0.038467 -0.084818 0.227576 -0.068635 0.076146 -0.095908 0.051182 0.014605 -0.165070 0.109408 0.059297 0.150977 -0.148014 0.247685 -0.175417 0.036673 -0.019527 0.034125 -0.003429 0.179842 -0.064725 -0.164320 -0.143657 0.143630 -0.185057 0.037899 0.080553 0.044575 0.146072 0.203072 -0.044604 -0.084585 0.105455 -0.158663 0.185385 0.069369 -0.198648 -0.018420 0.102612 -0.113209 -0.155966 -0.122868 -0.110708 0.093081 0.092557 -0.039451 0.221745 -0.256304 -0.041431 0.171194 -0.014426 0.189759 -0.297655 -0.001629 0.058060 -0.144494 0.042791 -0.050481 -0.120857 -0.045744 -0.033494 -0.049453 -0.072397 -0.061560 0.129410 0.143017 -0.050392
35 0.043774 -0.220522 -0.025736 -0.187319 0.080032 -0.105071 0.063855 -0.033537 0.129085 0.134897 -0.093125 0.047914 0.029880 -0.189670 -0.091904 -0.048085 -0.106389 0.078106 -0.111478 0.017353 0.202557 -0.037717 0.135389 0.193666 -0.115078 -0.026453 -0.040731 -0.082619 -0.173087 0.020389 0.258228 0.023643 -0.071055 -0.225248 -0.054076 -0.015419 -0.003309 0.067079 0.095087 -0.157007 0.012574 0.252677 -0.005432 -0.066002 0.032988 0.057913 0.058254 -0.064838 0.019416 -0.026098 -0.196560 0.093214 -0.076815 -0.099905 -0.167617 -0.190810 0.104853 -0.050328 -0.092662 -0.024722 0.075073 -0.253632 -0.042676 0.150353 -0.017111 -0.073105 -0.141984 -0.050127 0.031888 0.038231 0.048182 0.094857 0.191805 -0.064945 0.081383 -0.096780 0.166999 0.121069 0.042800 0.151928 0.032208 -0.079489 0.095239 -0.253885 0.037709 0.089206 0.257487 -0.123087 0.028658 0.016185 0.118532 0.085527 -0.048894 0.037355 -0.211862 0.292301 0.057164 -0.141853 0.049267 0.057799 -0.125907 0.058372 -0.111987 0.015618 0.189066 -0.026726 0.223409 0.192942 -0.054952 0.164165 0.035817 -0.080987 0.115857 -0.253397 -0.058289 0.040215 -0.119499 0.019440 0.016358 0.148289 0.089895 -0.018981 -0.155840 -0.079817 -0.088560 0.263400 -0.001640 -0.060052
32 0.011872 -0.107880 0.124533 -0.242277 0.171292 -0.006013 0.007664 0.019378 0.002628 -0.052455 -0.113405 0.004601 -0.042632 -0.283646 0.087650 -0.021718 -0.125388 0.068188 -0.208585 -0.108937 0.016220 0.046857 -0.060822 0.094726 -0.162698 -0.189054 -0.009559 -0.058659 -0.018752 -0.189797 0.101107 -0.002039 0.023352 -0.078263 -0.124906 -0.099441 -0.038804 0.044873 0.119972 -0.154139 0.009934 0.234843 0.001614 0.003144 -0.130776 0.053746 0.003771 -0.022256 0.031703 0.094822 -0.057622 0.038849 -0.028717 0.033726 -0.214626 -0.184602 0.039413 -0.135808 -0.071768 -0.101437 0.078561 -0.101915 -0.101230 0.153895 -0.099633 0.092181 0.060884 -0.042605 0.109205 0.015928 -0.092935 0.160334 0.239006 -0.063856 0.264627 -0.071287 0.087789 0.127521 -0.036967 -0.032423 0.059810 -0.038332 -0.067265 -0.261316 0.063879 -0.013892 0.084431 -0.110788 0.064357 0.143375 0.220074 0.167765 -0.004453 -0.030103 -0.252718 0.260947 0.013741 -0.252541 -0.039805 0.049241 -0.072456 -0.134697 -0.141303 -0.094207 0.027864 -0.157641 0.038381 0.348185 -0.098436 -0.005360 0.174900 0.066259 0.171896 -0.153561 -0.002219 0.134147 -0.219192 0.135907 -0.117930 0.017500 -0.049957 -0.026418 -0.025421 -0.072817 -0.048323 0.196776 0.098340 0.069729
20 0.042515 -0.146215 0.046740 -0.252594 0.045565 -0.138841 0.183524 0.118396 0.149974 -0.010763 -0.059525 -0.047370 0.116291 -0.063101 0.010962 0.012025 -0.083311 -0.071158 -0.034254 -0.034150 0.081206 -0.072571 0.086690 0.171810 -0.029974 -0.018227 -0.415731 0.027683 -0.122747 -0.069007 0.232392 0.049164 -0.148572 -0.139268 -0.029730 -0.093439 0.170522 0.022086 -0.060621 -0.041801 -0.157511 0.057096 -0.009122 0.004067 -0.040144 0.080916 0.013612 -0.018821 0.150384 -0.149539 -0.213921 0.043642 0.000858 -0.045732 -0.131611 -0.144443 0.180735 -0.080738 -0.082782 0.026228 0.114063 -0.003664 -0.111670 0.127620 0.005391 0.109890 -0.102525 0.076458 0.047728 0.222284 0.108361 0.031003 0.390594 -0.293267 0.018674 -0.060152 0.151055 -0.092521 -0.016020 0.186491 0.177396 0.103999 -0.024182 0.015045 0.022122 0.021573 0.392407 -0.028754 0.108282 -0.087327 0.015923 0.046723 -0.102122 0.100162 -0.281446 0.074296 0.187721 -0.276233 0.072861 0.122889 -0.129705 -0.018979 -0.056852 0.113840 0.099625 0.067846 0.174205 0.098271 -0.024966 0.116431 0.117911 0.116029 0.057951 0.080950 -0.044300 0.064052 -0.157318 0.092072 0.017210 0.072658 0.058989 -0.011922 0.124026 -0.148298 -0.198895 0.311823 0.047818 -0.057162
16 -0.017073 -0.088148 -0.000320 -0.140699 0.060723 0.020545 0.072023 0.184133 0.146859 -0.179405 -0.016379 -0.017770 -0.042891 -0.224206 0.066708 -0.069623 -0.089482 -0.013080 0.005617 0.027711 -0.084465 -0.033104 0.044647 0.170657 -0.006648 -0.003656 -0.277368 -0.132992 -0.015635 -0.138784 0.126425 0.125246 -0.142082 -0.057274 -0.057868 -0.172947 0.195179 0.004089 -0.039313 0.020603 -0.060733 0.176278 0.019780 0.087678 -0.020342 -0.063603 -0.025750 0.101058 0.046761 -0.159532 -0.179033 -0.056893 -0.036572 -0.041710 -0.138529 -0.162099 0.027746 -0.093854 -0.050084 -0.031058 0.051588 -0.125213 0.017651 0.299173 0.003972 0.057919 -0.066958 0.120559 0.030083 0.069516 0.054817 0.077402 0.316056 -0.170951 0.063671 -0.122214 0.141209 -0.092766 -0.066228 0.052473 0.217540 -0.037048 -0.102081 -0.115641 -0.001033 -0.040387 0.129919 0.022754 0.212480 -0.007870 0.135226 -0.014230 -0.110712 0.103717 -0.159891 0.092001 0.091578 -0.282961 -0.075659 0.101016 -0.168714 -0.149759 -0.111574 0.021047 0.078832 -0.032250 0.021489 0.106300 -0.158201 -0.013489 0.193130 0.135913 0.042219 -0.111568 -0.146632 0.035087 -0.282119 0.072369 -0.068699 0.108307 0.021633 0.003263 0.016264 -0.111128 -0.107991 0.190206 0.096753 0.016550
30 0.025588 -0.185876 -0.026064 -0.150147 0.098852 -0.041074 0.036663 0.025248 0.115502 0.042838 -0.069252 0.040539 -0.022046 -0.250711 -0.061546 -0.074811 -0.087772 0.084712 -0.104653 0.019767 0.119284 -0.030004 0.098179 0.184661 -0.105885 -0.041086 -0.027835 -0.127958 -0.121990 -0.039230 0.197551 0.039159 -0.063568 -0.178929 -0.079858 -0.059696 0.006299 0.066515 0.084137 -0.135840 0.018686 0.281426 -0.012058 -0.023298 0.015462 0.014343 0.040839 -0.028294 0.014344 -0.034882 -0.177422 0.064721 -0.067650 -0.084122 -0.159094 -0.181717 0.060353 -0.078063 -0.077883 -0.017082 0.057881 -0.250674 -0.013436 0.199019 -0.012275 -0.053808 -0.114122 -0.022194 0.027493 -0.003964 0.029859 0.104600 0.180219 -0.045073 0.103038 -0.107152 0.145720 0.096570 0.013280 0.094963 0.052937 -0.104786 0.031475 -0.258927 0.045509 0.044039 0.156056 -0.087323 0.062070 0.052158 0.159275 0.059566 -0.044364 0.043710 -0.173348 0.279115 0.032470 -0.172525 0.002317 0.054594 -0.134114 -0.000489 -0.134366 -0.006367 0.165177 -0.048954 0.154299 0.194103 -0.103485 0.106711 0.087213 -0.041323 0.119313 -0.278902 -0.064569 0.039039 -0.166939 0.021798 -0.023067 0.148216 0.063485 -0.003186 -0.144978 -0.074459 -0.063225 0.219972 0.039541 -0.026210
12 0.029640 -0.150283 0.161644 -0.307864 0.134741 -0.179364 0.051795 -0.069350 0.045153 0.070635 -0.145833 -0.010563 0.050840 -0.125703 0.021468 0.020558 -0.158918 0.049812 -0.176789 -0.186687 0.119614 0.038821 0.061515 0.118307 -0.154929 -0.170157 -0.065247 0.024871 -0.107924 -0.067470 0.237900 0.001577 -0.055668 -0.107232 -0.043455 -0.048435 -0.021566 0.039854 0.118618 -0.153659 -0.030854 0.134157 0.021439 -0.031007 -0.121039 0.127448 0.031804 -0.081800 0.054447 0.123254 -0.093680 0.058337 -0.010173 -0.014139 -0.262232 -0.228601 0.154034 -0.078571 -0.143214 -0.104834 0.118606 -0.080468 -0.190169 0.095254 -0.119844 0.131898 0.082792 -0.150749 0.107340 0.108853 -0.066679 0.186637 0.276518 -0.135496 0.255782 -0.060574 0.158478 0.133287 -0.040302 0.100352 0.036936 0.055025 0.018718 -0.182195 -0.008580 0.094195 0.298625 -0.139871 0.002474 0.111306 0.087479 0.180462 0.011545 -0.037046 -0.309233 0.284874 0.020865 -0.238299 0.068882 0.075697 -0.113573 -0.056473 -0.056524 -0.041346 0.054503 -0.153939 0.168163 0.328585 -0.027885 0.056755 0.084473 0.008245 0.138742 -0.041070 0.011334 0.083861 -0.177483 0.141863 -0.055359 0.000906 0.001634 -0.033939 -0.036897 -0.137815 -0.139716 0.321956 -0.006649 0.004615
23 -0.016282 -0.068308 -0.113781 -0.076700 0.038073 0.064525 0.088797 0.236988 0.123259 -0.162773 -0.064597 -0.012136 -0.049891 -0.374511 0.077763 -0.068637 -0.127036 -0.012103 0.018777 0.139287 -0.102044 -0.043755 0.072102 0.198485 0.049786 0.047541 -0.281537 -0.208709 0.021142 -0.066741 0.132478 0.167127 -0.124309 -0.093994 -0.112734 -0.214954 0.226159 0.024822 -0.037405 0.058899 0.032575 0.231871 0.002776 0.085750 0.035635 -0.116187 -0.054389 0.179248 0.041974 -0.154043 -0.222660 -0.091249 -0.059866 -0.091021 -0.144050 -0.174170 -0.060713 -0.136434 0.034663 -0.070781 0.081214 -0.244948 0.146881 0.417266 0.076242 -0.012800 -0.123230 0.188290 0.047158 0.111188 0.027140 0.095700 0.343647 -0.133994 -0.010759 -0.135250 0.135776 -0.080863 -0.088092 0.035520 0.230331 -0.080396 -0.101170 -0.203370 0.007957 -0.036677 0.040623 0.018274 0.300842 -0.035194 0.217095 -0.017522 -0.113897 0.124673 -0.156639 0.083725 0.065003 -0.310631 -0.170635 0.092710 -0.208411 -0.176793 -0.175741 0.049252 0.103839 -0.083379 -0.001338 0.068834 -0.194437 -0.010442 0.258896 0.188617 0.010535 -0.187130 -0.240280 0.047730 -0.380267 0.061133 -0.104350 0.276705 0.043002 0.026517 -0.011778 -0.084520 -0.077755 0.154615 0.130469 0.058824
62 0.045779 -0.224839 0.104070 -0.285308 0.075156 -0.186172 0.168772 0.127530 0.219094 0.069787 -0.050132 -0.008269 0.146806 -0.008819 -0.074320 0.064926 -0.086538 -0.061199 -0.059528 -0.072428 0.185239 -0.067466 0.117386 0.215338 -0.093901 -0.021307 -0.373859 0.054695 -0.217341 -0.046394 0.256430 -0.011039 -0.170642 -0.227606 -0.004110 -0.043665 0.076746 0.029125 -0.030406 -0.089438 -0.211545 0.087467 0.016442 -0.083922 -0.075457 0.125198 0.088296 -0.071177 0.174223 -0.158671 -0.220857 0.120134 -0.029012 0.029127 -0.147999 -0.200699 0.205767 -0.045045 -0.138731 0.104907 0.113755 -0.015547 -0.172741 0.056293 -0.040347 0.092740 -0.097569 0.059570 0.008444 0.191320 0.145732 -0.014123 0.398567 -0.247705 -0.002153 -0.037460 0.228234 -0.084972 0.011306 0.199980 0.170586 0.038017 0.017308 0.028257 -0.003248 0.062855 0.459147 -0.089647 0.081745 -0.133401 -0.028299 0.061635 -0.151590 0.087184 -0.252719 0.137797 0.237350 -0.287927 0.161951 0.122315 -0.105839 0.050212 -0.045290 0.131177 0.157113 0.087868 0.257781 0.099393 0.051499 0.181622 0.045757 0.060354 0.096830 0.069759 0.003900 0.048581 -0.092094 0.063712 0.045369 0.037215 0.102348 -0.006773 0.107839 -0.158204 -0.205395 0.331191 0.037961 -0.097435
39 0.011559 -0.107035 0.158315 -0.269654 0.168284 -0.066150 0.013631 0.019405 0.019308 -0.010411 -0.157796 -0.003727 -0.010568 -0.256365 0.072656 0.024063 -0.159316 0.065841 -0.216499 -0.150911 0.038093 0.062718 -0.005786 0.092876 -0.162536 -0.192564 0.007921 -0.017592 -0.029375 -0.122740 0.136569 -0.012789 0.003951 -0.090733 -0.091590 -0.090370 -0.046055 0.031483 0.127247 -0.150705 0.017430 0.194466 0.019045 -0.024213 -0.146762 0.077652 0.013807 -0.016392 0.052464 0.156987 -0.044096 0.036386 -0.007228 0.041351 -0.250849 -0.218262 0.042973 -0.119693 -0.081176 -0.118707 0.103734 -0.096520 -0.134087 0.129098 -0.111193 0.122064 0.121004 -0.083488 0.100827 0.055749 -0.117639 0.180848 0.275253 -0.067431 0.266364 -0.048262 0.125590 0.133047 -0.063493 -0.018223 0.046350 -0.020343 -0.041642 -0.231662 0.002823 0.039661 0.143829 -0.129063 0.062003 0.139371 0.168835 0.191770 0.012597 -0.052866 -0.269349 0.272539 0.001732 -0.277503 -0.008996 0.070856 -0.091461 -0.108857 -0.113272 -0.079731 0.018467 -0.220724 0.075038 0.366873 -0.055625 -0.007188 0.164739 0.072481 0.162555 -0.093927 -0.001126 0.121581 -0.232932 0.149070 -0.135094 0.021315 -0.035004 -0.016228 -0.010681 -0.102840 -0.080925 0.224637 0.068465 0.077708
77 -0.014398 -0.060649 -0.056794 -0.116757 0.100660 0.114274 0.033147 0.189493 0.057320 -0.218089 -0.045556 -0.010903 -0.112758 -0.423239 0.118637 -0.124505 -0.088121 0.047724 -0.044115 0.095216 -0.136785 -0.020433 -0.029364 0.171602 -0.025843 -0.044129 -0.186775 -0.222451 0.050933 -0.204180 0.090108 0.132046 -0.065392 -0.044026 -0.157758 -0.221604 0.153678 0.034951 0.016737 -0.012403 0.036391 0.296338 -0.019018 0.114947 -0.009049 -0.111949 -0.071442 0.139861 0.017840 -0.109020 -0.173225 -0.069527 -0.049485 -0.077846 -0.141057 -0.155211 -0.043564 -0.166918 0.008767 -0.079350 0.045275 -0.214592 0.112087 0.394706 0.020379 0.023169 -0.082258 0.140919 0.075270 0.022272 -0.025103 0.131187 0.277292 -0.092147 0.124838 -0.150284 0.057110 -0.016572 -0.078615 -0.030580 0.185665 -0.085674 -0.150972 -0.266182 0.084150 -0.110243 -0.052239 0.021403 0.240783 0.084704 0.292892 0.014716 -0.068565 0.093221 -0.171866 0.140011 0.033551 -0.286587 -0.177143 0.065168 -0.170797 -0.222716 -0.199379 -0.028777 0.074738 -0.091259 -0.062513 0.185270 -0.243884 -0.055674 0.287695 0.171053 0.083129 -0.250803 -0.168241 0.098251 -0.368646 0.078225 -0.133854 0.186278 -0.018470 0.015358 -0.035139 -0.057470 -0.040298 0.142543 0.166751 0.082868
79 0.044545 -0.243504 0.017267 -0.202601 0.126883 -0.138047 0.019677 -0.098369 0.100092 0.201238 -0.110153 0.065895 0.015850 -0.208216 -0.127023 -0.049201 -0.122274 0.126418 -0.167193 -0.038261 0.255285 -0.011236 0.144700 0.189547 -0.173964 -0.074854 0.095153 -0.099161 -0.200875 0.026435 0.271208 -0.003661 -0.039247 -0.251478 -0.067489 0.003390 -0.094482 0.091566 0.158150 -0.229749 0.050418 0.311440 -0.005546 -0.101456 0.010816 0.084691 0.090001 -0.106584 -0.006769 0.059291 -0.170015 0.123204 -0.092209 -0.087422 -0.213157 -0.223993 0.124568 -0.045619 -0.131851 -0.036542 0.074567 -0.301810 -0.089254 0.115812 -0.061759 -0.080940 -0.097463 -0.143577 0.041656 -0.008302 0.011427 0.141607 0.139990 -0.005670 0.161053 -0.092862 0.191330 0.209220 0.044456 0.140016 -0.023729 -0.115874 0.138184 -0.334630 0.031089 0.125291 0.257127 -0.186045 -0.025729 0.079312 0.134435 0.135544 -0.013126 -0.004022 -0.211393 0.401241 0.009078 -0.124328 0.073524 0.037072 -0.123235 0.070029 -0.110908 -0.015309 0.207820 -0.068668 0.249147 0.258420 -0.039376 0.179938 -0.008358 -0.137131 0.160711 -0.316306 -0.018507 0.037895 -0.098679 0.019203 0.015887 0.125472 0.092751 -0.021940 -0.242484 -0.087829 -0.069463 0.289746 -0.032864 -0.067563
102 -0.013855 -0.140176 0.099884 -0.225058 0.172279 0.078608 -0.031722 0.161247 0.177351 -0.245256 0.083508 0.007395 -0.122007 -0.228506 -0.013051 -0.131711 0.057074 0.135839 -0.064507 -0.055866 -0.097834 -0.045196 -0.057800 0.158473 -0.200517 -0.112072 -0.069744 -0.128331 -0.032726 -0.325785 0.095366 0.054017 -0.096211 0.019043 -0.083715 -0.140656 0.051272 0.004456 0.019074 -0.110835 -0.128725 0.299330 -0.022396 0.104481 -0.069947 -0.067725 0.013712 -0.020603 0.016654 -0.167537 -0.125403 0.023042 0.004114 -0.021765 -0.114989 -0.140305 0.089417 -0.104341 -0.158499 0.074685 -0.053819 -0.072027 -0.100661 0.187878 -0.086568 0.079045 -0.021091 0.014958 -0.023868 -0.159517 0.053243 0.063451 0.196362 -0.100976 0.228992 -0.132818 0.083966 0.019625 0.027378 -0.007509 0.127407 -0.106046 -0.127235 -0.135514 0.077592 -0.112724 0.061350 0.058003 0.040346 0.150106 0.158786 -0.003427 -0.062526 0.057764 -0.143034 0.221592 0.066510 -0.241923 0.009846 0.126217 -0.125562 -0.113102 -0.101715 -0.102841 0.107637 0.010397 0.019836 0.258037 -0.216293 -0.023080 0.176156 -0.039225 0.225670 -0.283146 0.034726 0.052244 -0.150139 0.048910 -0.077035 -0.093586 -0.011608 -0.009262 -0.054362 -0.071775 -0.071249 0.128651 0.107183 -0.024367
112 0.062472 -0.203956 0.060475 -0.284387 0.097943 -0.016510 0.135993 0.056880 0.195037 -0.080931 0.085448 -0.022039 0.045587 -0.049025 -0.008420 -0.123465 0.039487 -0.010809 -0.062313 0.007800 0.094430 -0.114017 -0.008544 0.160526 -0.149858 -0.075002 -0.375442 -0.018051 -0.165023 -0.255873 0.192271 0.018633 -0.120820 -0.115035 -0.068143 -0.044710 0.132580 0.044451 -0.057741 -0.128181 -0.212461 0.166332 -0.034702 0.054598 -0.022966 0.084636 0.027186 -0.127997 0.104142 -0.269232 -0.220158 0.120543 -0.024571 -0.065779 -0.049706 -0.052327 0.256850 -0.065540 -0.141636 0.100456 0.008021 0.031633 -0.157160 0.058988 -0.012130 0.051604 -0.225567 0.069133 0.030212 0.038962 0.215499 -0.040428 0.256542 -0.297682 0.090803 -0.103385 0.067216 -0.039294 0.127187 0.185469 0.162226 0.071376 -0.026803 -0.026104 0.159741 -0.089095 0.365264 0.009350 -0.008845 -0.044817 0.059073 0.017042 -0.127193 0.138781 -0.288203 0.150778 0.239192 -0.158562 0.130554 0.119903 -0.081584 0.034786 -0.061063 0.038204 0.139924 0.230352 0.182824 0.151901 -0.104922 0.138934 0.070045 -0.032527 0.147299 -0.113057 0.042463 0.084905 -0.003212 0.039072 0.070747 -0.079729 0.031170 -0.071252 0.061394 -0.098282 -0.168398 0.286229 0.091136 -0.155721
87 0.027059 -0.171039 0.050795 -0.237251 0.050807 -0.093787 0.163880 0.158007 0.217219 -0.046043 -0.010960 -0.026214 0.094799 -0.059138 -0.015580 0.006925 -0.061146 -0.071904 -0.010754 -0.018390 0.074134 -0.087610 0.081021 0.189275 -0.045080 0.003454 -0.428558 0.010167 -0.139277 -0.090105 0.219089 0.048815 -0.177939 -0.149410 -0.014220 -0.089201 0.179052 0.024270 -0.082717 -0.023520 -0.185614 0.084588 0.002680 0.004376 -0.040257 0.059991 0.034852 -0.015544 0.153150 -0.219299 -0.231452 0.047142 -0.026373 -0.014076 -0.122583 -0.151032 0.167102 -0.069359 -0.090258 0.071174 0.080899 -0.004121 -0.098939 0.141553 0.009826 0.085825 -0.126558 0.116230 0.013962 0.167842 0.150332 -0.010201 0.381925 -0.269581 -0.003432 -0.077672 0.172744 -0.129856 0.002514 0.169694 0.202511 0.057869 -0.043509 0.034171 0.011964 -0.002838 0.356832 -0.018288 0.129471 -0.111335 0.003417 0.006483 -0.144808 0.116611 -0.226306 0.064778 0.214291 -0.272894 0.070865 0.126163 -0.122031 -0.018952 -0.058607 0.103784 0.121375 0.091408 0.158947 0.066254 -0.040092 0.102621 0.116761 0.095329 0.058412 0.039086 -0.053150 0.043413 -0.148407 0.066498 0.015670 0.051897 0.063836 -0.011501 0.118406 -0.140216 -0.189843 0.274937 0.070981 -0.079842
99 0.040242 -0.172532 0.167294 -0.294865 0.155277 -0.186459 0.029217 -0.088576 0.053353 0.133250 -0.173766 0.008119 0.056337 -0.156679 -0.009749 0.044277 -0.168516 0.078560 -0.224952 -0.191408 0.174557 0.047935 0.074578 0.130552 -0.193159 -0.167843 0.035198 0.013264 -0.127026 -0.045831 0.244834 -0.027551 -0.024854 -0.152215 -0.049858 -0.022177 -0.092054 0.040908 0.156588 -0.196655 -0.004702 0.177862 0.019537 -0.082209 -0.121206 0.142263 0.064790 -0.099720 0.044145 0.165670 -0.086602 0.095592 -0.023392 0.007923 -0.286131 -0.255804 0.141949 -0.077148 -0.151500 -0.085677 0.126106 -0.136853 -0.188751 0.067204 -0.134112 0.098229 0.085358 -0.168883 0.088831 0.078679 -0.081627 0.177960 0.264452 -0.080652 0.254299 -0.051829 0.185584 0.185770 -0.019376 0.094539 0.007339 -0.002233 0.058474 -0.231336 -0.008867 0.130084 0.297024 -0.186513 -0.015893 0.119872 0.093712 0.217760 0.005666 -0.063912 -0.300848 0.355212 0.018948 -0.231839 0.087962 0.071702 -0.095884 -0.016266 -0.066867 -0.041920 0.089557 -0.181041 0.217073 0.357446 0.000368 0.098380 0.063302 -0.023792 0.167708 -0.098197 0.028060 0.080005 -0.147122 0.120475 -0.051944 0.028722 0.027816 -0.022988 -0.084020 -0.125806 -0.114980 0.322839 -0.006834 0.002341
46 -0.032413 -0.096424 0.038888 -0.113366 0.155722 0.146547 0.017195 0.183722 0.076582 -0.243850 0.030631 0.014678 -0.122842 -0.358292 0.103842 -0.143944 -0.060986 0.028007 -0.075577 0.040220 -0.094044 -0.020540 -0.095076 0.181418 -0.077597 -0.097704 -0.194369 -0.228103 -0.006249 -0.312114 0.019447 0.081397 -0.066390 -0.079641 -0.159718 -0.197578 0.072905 0.030428 0.034186 -0.057218 -0.044041 0.321953 0.011392 0.090213 -0.082441 -0.055878 -0.015091 0.066106 0.015397 -0.154229 -0.132857 -0.011809 -0.081073 0.026900 -0.119945 -0.134055 -0.000288 -0.150823 -0.063095 0.002323 0.003277 -0.138413 0.036326 0.312072 -0.043137 0.027921 -0.083799 0.151429 0.065454 -0.040732 0.050958 0.076807 0.214003 -0.069783 0.161247 -0.141488 0.062240 -0.035008 -0.035029 -0.075795 0.208447 -0.127639 -0.180410 -0.245775 0.126349 -0.158632 -0.060690 -0.011455 0.196751 0.072889 0.291955 0.013908 -0.121703 0.103604 -0.126304 0.157910 0.071911 -0.263621 -0.117452 0.044282 -0.114779 -0.220640 -0.204981 -0.048480 0.075863 -0.013490 -0.064328 0.192809 -0.192266 -0.040475 0.218452 0.149804 0.118871 -0.243991 -0.119924 0.092052 -0.261623 0.052152 -0.109368 0.070398 -0.027463 -0.010396 -0.015734 -0.051616 0.000086 0.120060 0.195213 0.044406
45 0.014133 -0.244294 0.048924 -0.156903 0.109382 -0.113610 0.035876 0.094693 0.202776 0.161969 -0.101395 0.076104 0.064034 -0.177778 -0.145818 0.059949 -0.106142 0.060979 -0.128997 -0.015329 0.229236 -0.014467 0.160497 0.224396 -0.162179 0.010285 0.008307 -0.072652 -0.207281 0.028577 0.209904 -0.040367 -0.101122 -0.299038 -0.037366 -0.015377 -0.105751 0.041669 0.099383 -0.158498 -0.053477 0.267880 0.034187 -0.161336 -0.044490 0.054971 0.145832 -0.037505 0.082279 -0.033563 -0.172366 0.143468 -0.089637 0.049690 -0.189486 -0.258338 0.073064 -0.040457 -0.138754 0.114818 0.080570 -0.247878 -0.075151 0.104302 -0.059712 -0.058087 -0.078832 0.012433 -0.052057 0.042120 0.077773 0.025111 0.250826 -0.002550 0.011225 -0.031751 0.278231 0.073046 0.039608 0.113889 0.068225 -0.205135 0.083329 -0.181476 -0.027519 0.132437 0.267073 -0.186474 0.080343 -0.075088 0.058192 0.109445 -0.142939 0.014980 -0.127609 0.320757 0.149767 -0.244501 0.124310 0.080837 -0.101764 0.072993 -0.107255 0.094277 0.235594 -0.050151 0.291089 0.160207 0.048779 0.203797 0.000486 -0.042182 0.150308 -0.199164 -0.033015 0.034383 -0.095169 -0.005119 -0.009759 0.150386 0.153497 0.010698 -0.096263 -0.087202 -0.076432 0.246539 0.033450 -0.056150
78 -0.016059 -0.026156 -0.084989 -0.095751 0.070986 0.077118 0.059709 0.192888 0.044773 -0.198217 -0.091053 -0.032005 -0.084166 -0.431629 0.140666 -0.097320 -0.127147 0.016284 -0.033171 0.096193 -0.152746 -0.013509 0.011023 0.163943 0.026704 -0.015793 -0.210969 -0.206677 0.081378 -0.137189 0.105336 0.165529 -0.070092 -0.038288 -0.145848 -0.228129 0.188384 0.029367 0.007897 0.041667 0.069511 0.246838 -0.012753 0.116698 0.004596 -0.116555 -0.090197 0.179515 0.024992 -0.069207 -0.174445 -0.100427 -0.037161 -0.086699 -0.161994 -0.163473 -0.069081 -0.168938 0.042961 -0.112428 0.079185 -0.229152 0.137743 0.409983 0.046820 0.029049 -0.064619 0.138185 0.090027 0.085859 -0.042915 0.151730 0.317741 -0.112116 0.090494 -0.138063 0.074025 -0.029944 -0.109801 -0.015421 0.197329 -0.049265 -0.136154 -0.250516 0.042143 -0.066592 -0.027461 0.022153 0.278887 0.056274 0.269563 0.021252 -0.057008 0.087670 -0.195346 0.117076 0.014139 -0.313237 -0.197084 0.071985 -0.194734 -0.225621 -0.197145 -0.004330 0.058855 -0.143801 -0.047100 0.155546 -0.228612 -0.063719 0.309570 0.214278 0.041263 -0.202211 -0.209668 0.086681 -0.417156 0.096334 -0.144932 0.247163 -0.002215 0.016954 -0.016990 -0.077722 -0.058047 0.154170 0.152119 0.102450
24 -0.005060 -0.130379 -0.007302 -0.118805 0.081302 0.031856 0.071509 0.184400 0.175514 -0.164201 0.022289 0.001882 -0.031766 -0.226764 0.020896 -0.099453 -0.057719 -0.003225 0.017785 0.048416 -0.043209 -0.054466 0.041116 0.207094 -0.035383 0.012941 -0.280482 -0.150027 -0.058828 -0.144164 0.116988 0.106029 -0.152485 -0.087950 -0.061869 -0.152785 0.169684 0.024090 -0.036414 -0.000652 -0.070770 0.225051 0.016744 0.069177 -0.017341 -0.041124 -0.001636 0.059484 0.060908 -0.218082 -0.206231 -0.015779 -0.055798 -0.037736 -0.119338 -0.137210 0.065325 -0.091809 -0.077861 0.028055 0.028852 -0.137155 0.020066 0.272662 0.002200 0.012302 -0.130802 0.131925 0.001698 0.038857 0.109142 0.046956 0.263022 -0.156171 0.039936 -0.121666 0.131656 -0.094464 -0.025288 0.067903 0.209008 -0.051770 -0.083356 -0.110802 0.032156 -0.071999 0.125794 0.027515 0.178111 -0.025346 0.136388 -0.033107 -0.126307 0.116817 -0.144501 0.120182 0.108710 -0.252545 -0.044414 0.095007 -0.164049 -0.100516 -0.131612 0.036448 0.123378 0.042812 0.053706 0.086948 -0.156849 0.022046 0.174471 0.092662 0.054676 -0.158504 -0.135766 0.024540 -0.224441 0.027622 -0.041475 0.109929 0.052629 -0.011677 0.003395 -0.106058 -0.086892 0.168456 0.101762 -0.018083
106 0.025525 -0.124643 0.133195 -0.238627 0.148931 -0.025411 0.028938 0.070990 0.053054 -0.016761 -0.119373 0.007296 -0.002533 -0.267154 0.050924 0.030430 -0.126711 0.039104 -0.201018 -0.097581 0.041989 0.035337 -0.025376 0.100514 -0.158848 -0.144499 -0.035468 -0.033383 -0.041208 -0.137199 0.097818 -0.020593 -0.000997 -0.121865 -0.096116 -0.074986 -0.034715 0.027058 0.093666 -0.134478 -0.009730 0.204226 0.008674 -0.041699 -0.136700 0.063665 0.030679 -0.021016 0.078268 0.070229 -0.069076 0.064023 -0.024039 0.067437 -0.209982 -0.191949 0.033359 -0.127341 -0.062626 -0.056169 0.089919 -0.087854 -0.099007 0.110379 -0.079777 0.087795 0.053987 -0.000823 0.066251 0.054241 -0.068041 0.105094 0.293999 -0.074720 0.187561 -0.041943 0.126966 0.089212 -0.033358 -0.011043 0.074329 -0.052449 -0.052634 -0.207951 0.022239 0.010457 0.128568 -0.130553 0.083941 0.060111 0.163031 0.167635 -0.046528 -0.018402 -0.239369 0.235747 0.073560 -0.291159 -0.002751 0.079825 -0.061451 -0.086933 -0.123237 -0.044865 0.045332 -0.155282 0.089410 0.318257 -0.039333 0.027722 0.165078 0.085826 0.157516 -0.105223 -0.001462 0.137551 -0.207992 0.124140 -0.116353 0.045537 -0.018420 -0.013867 0.029519 -0.092356 -0.076262 0.200343 0.113894 0.055970
63 0.032840 -0.165356 0.110377 -0.265865 0.117436 -0.071795 0.096471 0.089951 0.166912 -0.009151 -0.012608 -0.007236 0.049898 -0.089723 -0.018338 -0.022264 -0.035213 -0.003466 -0.107105 -0.072666 0.084583 -0.039389 0.032881 0.155071 -0.132807 -0.081448 -0.224063 -0.001898 -0.131060 -0.133204 0.177388 -0.004529 -0.092505 -0.132555 -0.052461 -0.060171 0.052096 0.035102 0.007954 -0.110790 -0.132402 0.159413 0.001539 -0.018510 -0.074293 0.074302 0.052757 -0.076822 0.104949 -0.093977 -0.141544 0.089506 -0.011300 0.010753 -0.122343 -0.140191 0.156708 -0.079051 -0.117836 0.045976 0.045021 -0.025811 -0.154563 0.065306 -0.045851 0.081799 -0.065811 0.013222 0.017687 0.070747 0.085851 0.038421 0.288384 -0.190308 0.125358 -0.083471 0.133711 0.006243 0.019442 0.110895 0.115260 0.006116 -0.017405 -0.073627 0.041274 -0.002948 0.297287 -0.065296 0.034968 -0.007615 0.063793 0.073418 -0.089023 0.059517 -0.238229 0.182511 0.141559 -0.245467 0.097510 0.108528 -0.089931 -0.016124 -0.065724 0.028325 0.114663 0.035339 0.157657 0.189350 -0.037785 0.104888 0.090389 0.012345 0.143434 -0.076314 0.011510 0.084793 -0.104023 0.076834 -0.002416 -0.025632 0.030644 -0.032569 0.042818 -0.110426 -0.145782 0.250169 0.078117 -0.060340
110 -0.026085 -0.154825 0.081893 -0.116132 0.172992 0.120283 -0.013930 0.126933 0.124591 -0.203032 0.075099 0.046323 -0.122315 -0.276326 0.032415 -0.157857 -0.025950 0.056117 -0.078741 0.010765 -0.014614 -0.023705 -0.093040 0.193821 -0.140533 -0.104960 -0.123417 -0.218348 -0.085078 -0.318528 0.026711 0.039213 -0.077582 -0.114558 -0.128817 -0.132601 -0.002080 0.032175 0.060600 -0.113488 -0.078293 0.355454 0.023421 0.051028 -0.084954 -0.027427 0.042927 -0.008224 -0.002425 -0.186949 -0.136091 0.042251 -0.103265 0.051976 -0.104323 -0.127986 0.057847 -0.100411 -0.130236 0.072705 -0.041916 -0.131123 -0.023303 0.230554 -0.087130 -0.004990 -0.097799 0.106227 0.023889 -0.106775 0.109859 0.048793 0.136851 -0.028485 0.177438 -0.139777 0.094872 0.000887 0.020327 -0.056314 0.178899 -0.169383 -0.134954 -0.246222 0.133878 -0.142090 -0.023921 -0.044432 0.117419 0.060605 0.245669 0.011397 -0.147278 0.093887 -0.090766 0.217183 0.086153 -0.197276 -0.030822 0.037547 -0.076207 -0.154015 -0.181991 -0.062379 0.123405 0.050694 -0.008071 0.192671 -0.153403 -0.000124 0.120120 0.043903 0.144973 -0.291564 -0.064819 0.060057 -0.158833 0.011436 -0.060260 -0.008718 0.002473 -0.026131 -0.079694 -0.053539 0.011418 0.128164 0.168498 -0.016968
14 0.034784 -0.159247 0.183542 -0.335391 0.162003 -0.191029 0.026957 -0.107694 0.031056 0.098835 -0.179191 -0.006519 0.036923 -0.156334 0.011419 0.019291 -0.159968 0.087341 -0.214398 -0.210681 0.140931 0.058585 0.061211 0.112531 -0.191840 -0.194882 0.019974 0.036235 -0.112537 -0.059956 0.253412 -0.013344 -0.029457 -0.104756 -0.046403 -0.041169 -0.066116 0.040235 0.154819 -0.192004 -0.006533 0.163140 0.019888 -0.038914 -0.124907 0.135944 0.033643 -0.098597 0.043187 0.189695 -0.078490 0.067769 -0.000431 -0.014112 -0.287425 -0.242730 0.148821 -0.075400 -0.162552 -0.131267 0.119254 -0.112486 -0.204198 0.072009 -0.135255 0.131212 0.108974 -0.206473 0.104612 0.077631 -0.110874 0.210775 0.254344 -0.105424 0.301332 -0.050297 0.159298 0.182292 -0.037902 0.084356 -0.002849 0.041775 0.044453 -0.210199 -0.013954 0.116594 0.296545 -0.161163 -0.022426 0.153307 0.095207 0.210162 0.035639 -0.072692 -0.332992 0.339796 -0.010893 -0.224205 0.080318 0.075647 -0.109003 -0.037272 -0.057958 -0.065407 0.052062 -0.184902 0.189803 0.380669 -0.035940 0.059063 0.078465 -0.028145 0.167475 -0.075474 0.037631 0.088523 -0.174904 0.145927 -0.067213 0.001061 0.000083 -0.037695 -0.074246 -0.139337 -0.131362 0.325579 -0.021198 0.011149
66 0.061689 -0.205468 0.014969 -0.241661 0.052430 -0.087820 0.164642 0.072761 0.190202 0.019622 -0.002484 -0.011040 0.100400 -0.066827 -0.024017 -0.046042 -0.049866 -0.051578 -0.042913 0.033666 0.149775 -0.094594 0.066628 0.191953 -0.075202 -0.013187 -0.393956 -0.012508 -0.178332 -0.106679 0.236013 0.030435 -0.140367 -0.190621 -0.053700 -0.041932 0.132014 0.046656 -0.048146 -0.080830 -0.157158 0.128318 -0.012173 -0.013296 -0.001859 0.101219 0.033510 -0.075001 0.118925 -0.216813 -0.246858 0.103763 -0.046180 -0.057823 -0.089060 -0.112432 0.195138 -0.051895 -0.093629 0.075368 0.075451 -0.044409 -0.088195 0.096693 0.017223 0.021687 -0.217787 0.096941 0.038247 0.146593 0.187935 -0.027045 0.310442 -0.263431 0.001888 -0.085157 0.132618 -0.062395 0.066898 0.201484 0.167895 0.057319 0.003659 -0.040282 0.088038 -0.016816 0.376015 -0.042212 0.075282 -0.113404 0.041299 0.033811 -0.144600 0.130410 -0.263843 0.119692 0.228631 -0.193717 0.102620 0.095594 -0.097828 0.042954 -0.080669 0.100442 0.152534 0.163991 0.202222 0.085208 -0.038514 0.167572 0.064866 0.041636 0.079741 -0.050034 -0.027909 0.066291 -0.066657 0.038619 0.059053 0.058971 0.075041 -0.038860 0.063214 -0.105176 -0.170271 0.305574 0.071168 -0.121441
75 0.069276 -0.179100 0.015939 -0.253593 0.081627 -0.014974 0.127757 0.033415 0.148624 -0.050787 0.028519 -0.020851 0.043779 -0.120623 0.008413 -0.106357 -0.016161 -0.014113 -0.067159 0.034989 0.095125 -0.091708 -0.005462 0.157368 -0.116310 -0.060856 -0.345250 -0.030934 -0.131384 -0.194565 0.198377 0.045598 -0.103495 -0.121175 -0.080565 -0.055512 0.125176 0.046375 -0.028800 -0.101549 -0.129892 0.164585 -0.037182 0.037250 0.000086 0.077169 0.005360 -0.087150 0.089613 -0.203909 -0.225861 0.089137 -0.040755 -0.081041 -0.079060 -0.070969 0.183822 -0.070467 -0.083174 0.041526 0.037304 -0.032481 -0.076874 0.113352 0.004788 0.033340 -0.202595 0.071253 0.051253 0.069486 0.155482 -0.007372 0.253224 -0.247287 0.082801 -0.098822 0.057916 -0.019702 0.083708 0.149701 0.150423 0.065521 -0.032160 -0.087521 0.139434 -0.071941 0.287942 -0.004739 0.043999 -0.039684 0.091566 0.037800 -0.108713 0.113291 -0.281922 0.132209 0.187074 -0.157173 0.057463 0.093712 -0.085692 0.002640 -0.095859 0.027892 0.111770 0.155850 0.142011 0.142314 -0.117200 0.106094 0.103572 0.023369 0.114172 -0.115631 -0.003247 0.077317 -0.076165 0.042757 0.029449 0.020314 0.024093 -0.060702 0.036508 -0.084837 -0.130310 0.269046 0.087037 -0.113721
107 -0.011064 -0.116703 0.054840 -0.197023 0.153738 0.123283 -0.013502 0.145282 0.167420 -0.317492 0.125178 -0.003947 -0.148690 -0.234352 0.031778 -0.207567 0.072384 0.118013 -0.023016 -0.001414 -0.140235 -0.063433 -0.091401 0.158343 -0.162809 -0.099400 -0.165972 -0.175609 -0.024654 -0.381564 0.080247 0.092190 -0.112412 0.040880 -0.097855 -0.165974 0.127215 0.008275 -0.012991 -0.084722 -0.128598 0.306309 -0.022288 0.166559 -0.043799 -0.078318 -0.023319 -0.011932 -0.006191 -0.243270 -0.146748 -0.003567 -0.004092 -0.067936 -0.077048 -0.092198 0.116802 -0.106222 -0.156344 0.056554 -0.075290 -0.060442 -0.078395 0.221575 -0.063971 0.064281 -0.095912 0.041917 0.003304 -0.157661 0.098005 0.065645 0.176489 -0.159325 0.225803 -0.170782 0.048678 -0.012972 0.049232 0.021026 0.168207 -0.070278 -0.136774 -0.143772 0.127900 -0.163855 0.064976 0.089531 0.042839 0.141505 0.194304 -0.040226 -0.075789 0.105740 -0.171805 0.198410 0.082059 -0.206606 -0.013953 0.110649 -0.133791 -0.130766 -0.112958 -0.106850 0.105521 0.094846 -0.005042 0.235514 -0.269219 -0.032214 0.180274 -0.023064 0.197963 -0.309029 0.001082 0.056758 -0.154411 0.042407 -0.046485 -0.104616 -0.025189 -0.031602 -0.060818 -0.071662 -0.068642 0.146843 0.121936 -0.048057
57 0.064733 -0.221785 0.033764 -0.247698 0.082176 -0.062674 0.137045 0.024261 0.188386 0.030971 0.023027 0.006290 0.085913 -0.055817 -0.045129 -0.079940 -0.034757 -0.029518 -0.080075 0.015127 0.175651 -0.093054 0.047462 0.178415 -0.128420 -0.038675 -0.335168 -0.010919 -0.200309 -0.144688 0.216353 0.008963 -0.118957 -0.200077 -0.055389 -0.008779 0.076106 0.049024 -0.019504 -0.125566 -0.154727 0.164069 -0.012333 -0.026887 -0.015368 0.121460 0.060361 -0.122075 0.102000 -0.207449 -0.230128 0.134573 -0.066546 -0.042240 -0.087885 -0.095736 0.220151 -0.039167 -0.121025 0.088910 0.042608 -0.033088 -0.127480 0.058729 -0.010973 0.004203 -0.224022 0.062594 0.028461 0.091501 0.201054 -0.024416 0.262129 -0.241587 0.051069 -0.089197 0.124365 -0.018832 0.110738 0.197509 0.143710 0.036489 0.025758 -0.074829 0.122269 -0.020806 0.374689 -0.068510 0.016395 -0.088209 0.052153 0.050742 -0.142737 0.118907 -0.268201 0.173461 0.225699 -0.157203 0.128051 0.085264 -0.070642 0.065225 -0.084998 0.060644 0.160767 0.188888 0.225177 0.135722 -0.042310 0.179719 0.032551 -0.017944 0.109695 -0.101521 0.000496 0.067479 -0.014034 0.018746 0.070173 0.006246 0.068336 -0.064063 0.019284 -0.098631 -0.142232 0.300863 0.065429 -0.149819
