78 128
11 -0.049052 -0.153400 -0.038935 -0.160674 0.008010 -0.073142 0.044625 0.147373 0.068903 0.040823 -0.034116 0.265081 0.051502 0.062387 -0.110781 -0.193096 -0.035495 -0.103594 0.106659 0.128841 0.114600 -0.061855 0.097655 0.144632 0.075880 0.005465 -0.238874 0.033042 0.003449 0.008868 0.118626 -0.077837 -0.042250 -0.189014 -0.082351 -0.111569 0.196225 0.118121 0.018183 0.087757 -0.076017 0.145382 0.166216 -0.054903 -0.149384 0.191053 0.079764 -0.019508 -0.023508 -0.094558 -0.053451 -0.052082 0.144069 -0.083531 0.028037 -0.162295 0.154790 -0.003447 -0.274283 0.013227 -0.028883 -0.120545 0.007642 0.031652 -0.130760 0.179430 -0.127863 0.017560 0.033105 -0.027144 -0.011646 0.053662 0.210565 -0.199198 0.187266 -0.066328 0.085775 -0.043791 0.006428 0.052619 0.080390 -0.103091 -0.096541 -0.101451 -0.057293 0.094150 0.396919 0.013859 0.021309 0.124579 -0.027662 -0.008496 -0.092530 0.066124 -0.271101 0.030614 0.049422 -0.146779 0.084353 0.076262 -0.064744 0.198171 -0.158776 0.039953 0.158677 0.176373 0.223129 0.102675 -0.087829 0.113934 -0.025419 0.033612 0.026738 -0.069908 -0.113461 0.037323 -0.094293 0.155652 -0.041033 -0.079700 0.094229 -0.127592 0.044983 -0.114856 -0.110624 0.052150 -0.028307 0.071652
56 -0.038485 -0.118270 -0.034415 -0.131258 0.007609 -0.054674 0.038323 0.111871 0.050252 0.037202 -0.022560 0.207319 0.036871 0.055320 -0.090696 -0.148177 -0.026234 -0.080194 0.083613 0.100886 0.084663 -0.051325 0.073444 0.113100 0.065869 0.004527 -0.189781 0.025767 0.001038 0.008568 0.090760 -0.057172 -0.031852 -0.148888 -0.066350 -0.089913 0.151196 0.094399 0.014530 0.072369 -0.065211 0.114911 0.127940 -0.043364 -0.117121 0.151965 0.057915 -0.018690 -0.014336 -0.075191 -0.046039 -0.043083 0.115032 -0.065630 0.027782 -0.127969 0.121475 -0.008092 -0.214082 0.009074 -0.019785 -0.089349 -0.000512 0.022620 -0.096732 0.143434 -0.097902 0.013165 0.030787 -0.018584 -0.007680 0.039637 0.173257 -0.158514 0.139163 -0.055836 0.065828 -0.035452 0.007416 0.045988 0.065934 -0.077724 -0.077471 -0.073497 -0.044080 0.068413 0.311503 0.011058 0.018263 0.102866 -0.017504 -0.007381 -0.072578 0.052456 -0.214968 0.021677 0.042996 -0.116787 0.068174 0.053380 -0.052063 0.156517 -0.124570 0.036160 0.123484 0.140925 0.173675 0.082203 -0.071087 0.095527 -0.021318 0.026790 0.025152 -0.050768 -0.083331 0.035833 -0.069715 0.121363 -0.026773 -0.062989 0.071527 -0.092507 0.031938 -0.077271 -0.088535 0.044278 -0.017208 0.058443
59 -0.034573 -0.114863 -0.026585 -0.130192 0.003420 -0.047415 0.035832 0.106822 0.051901 0.037203 -0.024577 0.200312 0.043515 0.054701 -0.088011 -0.140862 -0.021453 -0.078320 0.080824 0.104492 0.084039 -0.052199 0.067812 0.107706 0.066413 0.002261 -0.184033 0.022544 0.003656 0.000043 0.085954 -0.057018 -0.029799 -0.147385 -0.066494 -0.086270 0.146266 0.086185 0.012628 0.066965 -0.063918 0.112308 0.118885 -0.046139 -0.105356 0.148035 0.054935 -0.019840 -0.012022 -0.070730 -0.040399 -0.040413 0.111864 -0.067695 0.031992 -0.115026 0.117703 -0.006903 -0.204278 0.006332 -0.025716 -0.089312 0.007163 0.017876 -0.093985 0.135620 -0.094272 0.009542 0.030800 -0.012641 -0.008671 0.033545 0.169720 -0.151228 0.137700 -0.056940 0.058335 -0.030863 0.007900 0.045467 0.062481 -0.078716 -0.076883 -0.072056 -0.046534 0.064208 0.300515 0.014235 0.014587 0.096419 -0.021146 -0.005073 -0.075839 0.051676 -0.205460 0.019375 0.038113 -0.113129 0.070775 0.053595 -0.048544 0.149728 -0.115871 0.035763 0.117476 0.132861 0.163948 0.076851 -0.066050 0.092492 -0.023494 0.020072 0.028116 -0.049121 -0.080940 0.035799 -0.072510 0.114477 -0.024346 -0.061357 0.065485 -0.089827 0.032069 -0.076505 -0.083807 0.037778 -0.013813 0.051443
26 -0.038728 -0.133873 -0.036599 -0.148254 0.004596 -0.067364 0.041751 0.124430 0.057393 0.041022 -0.033768 0.234561 0.053589 0.053505 -0.102872 -0.165058 -0.029120 -0.094437 0.095994 0.122820 0.106168 -0.056226 0.087546 0.131466 0.069737 0.008001 -0.215895 0.026199 -0.000619 0.012031 0.106381 -0.065758 -0.033999 -0.175057 -0.078344 -0.109767 0.173755 0.102086 0.012684 0.074786 -0.074443 0.124954 0.137731 -0.051609 -0.132771 0.175949 0.064234 -0.017146 -0.022239 -0.084671 -0.047239 -0.043307 0.129519 -0.082194 0.030990 -0.143690 0.137233 -0.006182 -0.244687 0.006262 -0.021491 -0.107254 0.004690 0.030682 -0.114205 0.159010 -0.108849 0.013897 0.029946 -0.016683 -0.012237 0.049370 0.189916 -0.178510 0.165780 -0.065713 0.066805 -0.036592 0.006783 0.046732 0.070852 -0.093673 -0.081131 -0.088716 -0.046839 0.086078 0.350987 0.012690 0.016520 0.113455 -0.024480 -0.004953 -0.082134 0.061760 -0.238945 0.025277 0.044712 -0.131052 0.081669 0.058996 -0.058740 0.175024 -0.141296 0.039526 0.146846 0.162772 0.199388 0.094979 -0.077353 0.108647 -0.025635 0.021847 0.028397 -0.057528 -0.098978 0.036182 -0.080655 0.135431 -0.029984 -0.072794 0.086504 -0.111665 0.034383 -0.100938 -0.097897 0.052458 -0.028775 0.060162
63 -0.033224 -0.115697 -0.026838 -0.135461 0.004328 -0.049050 0.038282 0.113491 0.054005 0.041977 -0.022680 0.202741 0.046882 0.057220 -0.087183 -0.149702 -0.022706 -0.083768 0.082827 0.106495 0.081550 -0.048751 0.067834 0.117060 0.066224 0.008082 -0.190640 0.025905 0.003901 0.002462 0.095611 -0.066030 -0.025542 -0.150035 -0.073025 -0.090561 0.151713 0.093243 0.015305 0.077243 -0.064631 0.117512 0.125504 -0.051969 -0.108715 0.150358 0.055969 -0.021874 -0.011042 -0.071817 -0.043872 -0.038949 0.119684 -0.068668 0.033110 -0.121269 0.118915 -0.010330 -0.210239 0.010335 -0.023534 -0.099210 0.001198 0.016582 -0.099840 0.145863 -0.098114 0.011454 0.026979 -0.007726 -0.011877 0.039355 0.177118 -0.156418 0.146993 -0.061478 0.060488 -0.029436 0.004529 0.046879 0.063823 -0.079391 -0.075098 -0.081569 -0.044059 0.070587 0.309950 0.009310 0.021442 0.097620 -0.018352 -0.000821 -0.077158 0.052563 -0.214911 0.021965 0.041816 -0.121426 0.072679 0.056681 -0.054244 0.150589 -0.121942 0.036939 0.123830 0.145416 0.165189 0.076825 -0.067177 0.097297 -0.025384 0.022580 0.027308 -0.054645 -0.086115 0.037929 -0.072679 0.120243 -0.024992 -0.066342 0.068023 -0.094509 0.035336 -0.078491 -0.089416 0.044572 -0.013593 0.051651
60 -0.032147 -0.120418 -0.032932 -0.133034 0.000666 -0.050914 0.037536 0.117419 0.055298 0.037806 -0.028964 0.208385 0.044665 0.055894 -0.089406 -0.146328 -0.026156 -0.085052 0.082674 0.103794 0.084625 -0.054717 0.073410 0.114287 0.065103 0.006497 -0.189071 0.027803 0.005334 0.006542 0.092021 -0.061572 -0.027479 -0.151059 -0.070324 -0.091959 0.154239 0.094527 0.015899 0.073968 -0.066510 0.114731 0.127923 -0.049412 -0.116166 0.154751 0.057450 -0.020145 -0.012471 -0.073252 -0.042630 -0.041958 0.119526 -0.069755 0.027695 -0.126795 0.122684 -0.009188 -0.214851 0.009204 -0.019412 -0.099247 0.002566 0.019251 -0.102806 0.145494 -0.094921 0.016017 0.025970 -0.010636 -0.015220 0.040657 0.175658 -0.154139 0.150225 -0.058716 0.059924 -0.031819 0.006523 0.047671 0.068975 -0.079680 -0.076722 -0.082564 -0.042817 0.072880 0.310891 0.011301 0.014899 0.098253 -0.017273 -0.003552 -0.081710 0.050711 -0.215510 0.026098 0.044450 -0.122525 0.075547 0.057250 -0.054272 0.151844 -0.123017 0.037729 0.128286 0.140111 0.169447 0.084428 -0.068007 0.092709 -0.021921 0.019540 0.023996 -0.054435 -0.086862 0.034665 -0.074327 0.123032 -0.031403 -0.065078 0.070323 -0.091832 0.036140 -0.084012 -0.089313 0.044745 -0.017547 0.058360
28 -0.047387 -0.145916 -0.034195 -0.154142 0.003204 -0.064368 0.044088 0.133221 0.061274 0.044637 -0.030748 0.252557 0.051987 0.062627 -0.110053 -0.177701 -0.032377 -0.099995 0.104287 0.129194 0.103075 -0.060456 0.088880 0.135463 0.073393 0.012098 -0.227142 0.031161 0.007128 0.008980 0.109559 -0.068892 -0.036433 -0.175078 -0.078913 -0.114281 0.183872 0.111198 0.017645 0.081749 -0.079096 0.132811 0.151376 -0.050808 -0.141536 0.177836 0.067493 -0.019374 -0.022990 -0.093878 -0.056978 -0.049009 0.140571 -0.085030 0.034978 -0.150009 0.140950 -0.011165 -0.258307 0.008748 -0.026734 -0.114736 0.007943 0.028899 -0.119858 0.166444 -0.117431 0.020428 0.028059 -0.021528 -0.015192 0.053713 0.199262 -0.190507 0.172209 -0.064034 0.075335 -0.035207 0.005497 0.054077 0.075901 -0.103809 -0.086353 -0.094411 -0.053024 0.091586 0.372939 0.015331 0.018522 0.120060 -0.024749 -0.005750 -0.091773 0.057322 -0.253212 0.028243 0.047148 -0.135847 0.083028 0.062364 -0.066586 0.187469 -0.152781 0.037679 0.155138 0.172040 0.209514 0.100698 -0.083317 0.107844 -0.023345 0.027724 0.027339 -0.064415 -0.104865 0.035757 -0.089889 0.143702 -0.037543 -0.074564 0.089858 -0.116544 0.039921 -0.099871 -0.106335 0.048040 -0.025304 0.068590
65 -0.035308 -0.113217 -0.030190 -0.124073 0.005169 -0.052397 0.035782 0.106245 0.053760 0.034051 -0.020435 0.192961 0.045130 0.052650 -0.086342 -0.135583 -0.021520 -0.073427 0.082949 0.101342 0.076367 -0.050027 0.071760 0.108750 0.065704 0.007668 -0.178584 0.025983 0.003156 0.005705 0.089543 -0.056309 -0.026920 -0.142230 -0.067751 -0.088084 0.139954 0.087504 0.011719 0.068680 -0.060392 0.109058 0.120638 -0.048389 -0.110081 0.138259 0.054113 -0.015810 -0.009585 -0.069137 -0.046330 -0.039909 0.111684 -0.067428 0.023940 -0.118061 0.111910 -0.010912 -0.195922 0.004751 -0.024929 -0.090909 0.001763 0.022694 -0.094765 0.137451 -0.085571 0.013262 0.028464 -0.008438 -0.013051 0.038509 0.164401 -0.145099 0.131272 -0.055951 0.060582 -0.032761 0.006308 0.045302 0.063183 -0.072400 -0.075118 -0.073566 -0.039151 0.069498 0.292292 0.011879 0.017377 0.091434 -0.022285 -0.003548 -0.072604 0.046281 -0.196995 0.018256 0.038945 -0.113833 0.069802 0.049360 -0.049396 0.139845 -0.112964 0.035868 0.121733 0.129148 0.158504 0.073172 -0.067638 0.090073 -0.024786 0.018196 0.023181 -0.047415 -0.082686 0.031718 -0.065584 0.115594 -0.025640 -0.055000 0.070101 -0.082150 0.033833 -0.078308 -0.084451 0.043659 -0.017925 0.048718
27 -0.037649 -0.131792 -0.037178 -0.141767 0.002966 -0.059423 0.040479 0.124118 0.054319 0.041030 -0.031287 0.222346 0.046720 0.055877 -0.097709 -0.161191 -0.024961 -0.090444 0.091167 0.111340 0.099290 -0.053034 0.081180 0.126030 0.069261 0.006304 -0.204655 0.030107 0.001254 0.009279 0.098609 -0.067916 -0.035612 -0.162861 -0.070498 -0.102859 0.161056 0.098041 0.012290 0.069991 -0.073429 0.122009 0.132468 -0.046658 -0.122642 0.164669 0.067799 -0.017115 -0.017122 -0.080715 -0.045089 -0.042603 0.122387 -0.070756 0.027849 -0.137984 0.127338 -0.006533 -0.224650 0.008402 -0.025641 -0.096510 0.003314 0.024561 -0.107093 0.150322 -0.106783 0.019119 0.026572 -0.016661 -0.015969 0.048227 0.182957 -0.170699 0.152969 -0.062384 0.069558 -0.037906 0.006708 0.047409 0.065853 -0.090562 -0.078974 -0.082365 -0.050486 0.079503 0.336996 0.009903 0.013071 0.106789 -0.026710 -0.007729 -0.079020 0.054248 -0.232840 0.026504 0.043389 -0.127586 0.077743 0.055935 -0.061502 0.165037 -0.130210 0.032447 0.138982 0.153934 0.188168 0.084429 -0.079847 0.101804 -0.020223 0.022614 0.026470 -0.058393 -0.093612 0.033670 -0.078044 0.131751 -0.033876 -0.066025 0.078271 -0.099714 0.035783 -0.096620 -0.095767 0.048714 -0.021717 0.060415
49 -0.035507 -0.132565 -0.029426 -0.140138 0.003389 -0.060000 0.038024 0.120129 0.060405 0.037999 -0.023161 0.227077 0.045241 0.057049 -0.094646 -0.163172 -0.029901 -0.088959 0.093668 0.120050 0.093536 -0.056275 0.079691 0.119960 0.073907 0.008656 -0.207107 0.022423 0.004224 0.000473 0.095976 -0.070399 -0.031616 -0.159636 -0.075842 -0.097311 0.164637 0.097526 0.013140 0.080448 -0.072626 0.124403 0.137961 -0.047903 -0.122941 0.166303 0.058480 -0.022739 -0.018596 -0.078944 -0.049230 -0.044758 0.130451 -0.071325 0.026944 -0.132795 0.129526 -0.004573 -0.231562 0.007367 -0.027301 -0.100654 0.007190 0.020961 -0.112638 0.153921 -0.103382 0.012559 0.033265 -0.018046 -0.014887 0.037810 0.190175 -0.171345 0.155829 -0.063334 0.069589 -0.038057 0.010203 0.044434 0.067086 -0.085422 -0.085629 -0.086555 -0.050216 0.072925 0.332479 0.012422 0.019471 0.108170 -0.020842 -0.003698 -0.087381 0.057202 -0.228985 0.023844 0.040472 -0.126888 0.079869 0.061881 -0.054555 0.161999 -0.133470 0.035096 0.134442 0.158379 0.183136 0.092929 -0.079534 0.100502 -0.027038 0.025925 0.033375 -0.056469 -0.091431 0.036454 -0.074518 0.131453 -0.033895 -0.065927 0.075637 -0.098995 0.032479 -0.091340 -0.095817 0.044861 -0.015693 0.057045
24 -0.040862 -0.143160 -0.035755 -0.153337 -0.001911 -0.073701 0.042402 0.138766 0.071502 0.052320 -0.030996 0.258082 0.064261 0.054059 -0.114618 -0.181160 -0.039597 -0.102496 0.107793 0.136429 0.114424 -0.065563 0.095999 0.149294 0.081885 0.022106 -0.229235 0.025156 0.003964 0.016546 0.108528 -0.073197 -0.042141 -0.186775 -0.083918 -0.123896 0.191857 0.109713 0.014266 0.078947 -0.082213 0.141143 0.145146 -0.050391 -0.142075 0.187917 0.068847 -0.008888 -0.015922 -0.099714 -0.053663 -0.052560 0.140425 -0.087406 0.041041 -0.147168 0.145942 -0.010329 -0.260432 0.001996 -0.026885 -0.119424 0.013870 0.032533 -0.123087 0.167117 -0.117642 0.021949 0.029170 -0.010730 -0.015133 0.055147 0.205540 -0.194554 0.176514 -0.064711 0.074303 -0.041501 0.011987 0.055104 0.079614 -0.101861 -0.082310 -0.100319 -0.061749 0.089125 0.379802 0.015359 0.021372 0.121297 -0.027713 -0.004196 -0.087033 0.060014 -0.264605 0.034627 0.052807 -0.137148 0.085049 0.065394 -0.069817 0.191098 -0.150494 0.044198 0.157181 0.177512 0.207525 0.096264 -0.087522 0.117047 -0.022616 0.022792 0.033860 -0.065153 -0.115797 0.037516 -0.092452 0.151374 -0.034649 -0.069099 0.096601 -0.120137 0.039798 -0.114071 -0.100980 0.053018 -0.032058 0.070166
2 -0.041891 -0.153472 -0.039979 -0.162889 0.008469 -0.071744 0.052484 0.158401 0.055153 0.034050 -0.030411 0.272765 0.052791 0.050101 -0.116561 -0.204155 -0.035934 -0.104207 0.106126 0.129566 0.113506 -0.053399 0.100909 0.147221 0.073718 0.004486 -0.246498 0.035810 0.016108 0.015578 0.118579 -0.086911 -0.060743 -0.173140 -0.094760 -0.115296 0.204803 0.115723 0.020905 0.088976 -0.072474 0.144027 0.179074 -0.047611 -0.156970 0.187164 0.078729 -0.036117 -0.024583 -0.102460 -0.048806 -0.061830 0.145043 -0.070569 0.013641 -0.164007 0.162086 0.003901 -0.283032 0.024289 -0.033177 -0.115644 0.001367 0.027067 -0.131738 0.188747 -0.130035 0.018235 0.021438 -0.039358 -0.009439 0.051608 0.223381 -0.203709 0.191343 -0.065586 0.098517 -0.048382 0.012296 0.052315 0.076237 -0.113137 -0.109821 -0.099937 -0.047099 0.100299 0.397330 0.016240 0.029272 0.119446 -0.024381 0.000242 -0.096195 0.058052 -0.290291 0.040291 0.038245 -0.155785 0.083371 0.086879 -0.070673 0.192783 -0.155172 0.032239 0.157453 0.178285 0.232194 0.118312 -0.099740 0.112344 -0.026220 0.034179 0.034563 -0.072429 -0.121991 0.041466 -0.091905 0.163680 -0.047334 -0.083346 0.088132 -0.137180 0.044033 -0.124899 -0.114484 0.061196 -0.010664 0.077289
70 -0.035231 -0.134011 -0.036222 -0.141714 0.004474 -0.063052 0.036546 0.122927 0.060026 0.043568 -0.032854 0.228742 0.045049 0.056291 -0.096355 -0.158619 -0.026962 -0.090491 0.095392 0.117068 0.096542 -0.052665 0.078980 0.118251 0.068695 0.008240 -0.203610 0.024759 0.003826 0.011671 0.101682 -0.062399 -0.036829 -0.162035 -0.071057 -0.101983 0.166800 0.100935 0.013006 0.076894 -0.069733 0.117352 0.132030 -0.047845 -0.128409 0.162929 0.062455 -0.016140 -0.022634 -0.086070 -0.044956 -0.042703 0.128187 -0.071593 0.029353 -0.133071 0.132652 -0.003502 -0.233949 0.009430 -0.020690 -0.098143 -0.000307 0.024079 -0.112066 0.155661 -0.103088 0.014858 0.028931 -0.016629 -0.012602 0.047426 0.185872 -0.171996 0.154478 -0.057441 0.070110 -0.032231 0.007212 0.043373 0.071477 -0.093555 -0.081245 -0.081170 -0.043659 0.077308 0.339584 0.009927 0.017292 0.107919 -0.020282 -0.004075 -0.083975 0.058128 -0.230587 0.026709 0.043855 -0.127729 0.077526 0.054752 -0.061471 0.167942 -0.136792 0.036579 0.137797 0.152498 0.186775 0.092216 -0.078283 0.099637 -0.023927 0.025707 0.025614 -0.057185 -0.091513 0.034702 -0.078614 0.130874 -0.037299 -0.062022 0.084179 -0.106875 0.040127 -0.090084 -0.098704 0.046316 -0.023987 0.059784
25 -0.041091 -0.128579 -0.035642 -0.138147 -0.000715 -0.060657 0.036161 0.115412 0.059903 0.038789 -0.030452 0.218767 0.046515 0.055650 -0.094949 -0.159970 -0.025721 -0.089271 0.092760 0.116224 0.096555 -0.053300 0.081457 0.123181 0.068029 0.004605 -0.196761 0.025258 -0.000607 0.009941 0.099187 -0.063565 -0.032777 -0.161342 -0.074733 -0.097282 0.157936 0.099679 0.011071 0.069783 -0.071766 0.121485 0.131058 -0.050389 -0.120012 0.163129 0.064729 -0.014416 -0.015399 -0.080909 -0.050196 -0.040275 0.123997 -0.071286 0.023749 -0.133558 0.129502 -0.010226 -0.226355 0.011265 -0.025250 -0.096930 0.006135 0.023011 -0.110292 0.146859 -0.103337 0.017599 0.023038 -0.016929 -0.012493 0.041654 0.181361 -0.162510 0.151745 -0.061991 0.063324 -0.031849 0.010055 0.042946 0.067617 -0.090560 -0.078361 -0.087211 -0.046069 0.076525 0.328386 0.008372 0.013641 0.101221 -0.025668 -0.005212 -0.075961 0.051617 -0.227203 0.027058 0.041158 -0.123257 0.074144 0.059692 -0.059747 0.163615 -0.135275 0.035220 0.136100 0.148672 0.182931 0.089785 -0.073523 0.096259 -0.023417 0.023467 0.028238 -0.058667 -0.097373 0.033185 -0.073467 0.128099 -0.033189 -0.065280 0.079711 -0.098837 0.034100 -0.092655 -0.094050 0.050211 -0.026543 0.059727
64 -0.033123 -0.113105 -0.028975 -0.123318 0.000964 -0.051670 0.037450 0.111447 0.051894 0.033912 -0.024599 0.199647 0.043769 0.048400 -0.081313 -0.139017 -0.026878 -0.080249 0.080423 0.103070 0.085392 -0.046973 0.068623 0.108151 0.062728 0.005883 -0.177066 0.021265 0.003471 0.005475 0.086930 -0.062536 -0.025646 -0.145747 -0.068733 -0.092113 0.145945 0.087108 0.012481 0.069506 -0.060225 0.108767 0.119006 -0.047333 -0.109964 0.147005 0.058309 -0.018733 -0.018311 -0.070685 -0.038872 -0.038957 0.108180 -0.063057 0.030570 -0.119895 0.109584 -0.006045 -0.200922 0.008303 -0.023010 -0.091316 0.002499 0.021291 -0.097740 0.137558 -0.094511 0.011220 0.029401 -0.012847 -0.010234 0.039701 0.166329 -0.150311 0.140596 -0.054451 0.059528 -0.026986 0.010721 0.037870 0.059618 -0.078387 -0.070650 -0.077410 -0.039875 0.071608 0.296721 0.009142 0.019655 0.095731 -0.022196 -0.002987 -0.071948 0.054146 -0.201762 0.025485 0.040775 -0.112507 0.065339 0.051087 -0.052016 0.146758 -0.119108 0.029337 0.120438 0.138282 0.163994 0.080709 -0.067176 0.088937 -0.020418 0.020299 0.029493 -0.049914 -0.083348 0.031183 -0.070331 0.116302 -0.027134 -0.057312 0.068709 -0.086250 0.029743 -0.076319 -0.084736 0.039363 -0.018227 0.056309
69 -0.040406 -0.131339 -0.037102 -0.137795 0.001934 -0.059860 0.040279 0.121213 0.056353 0.038996 -0.029747 0.231265 0.044098 0.058026 -0.095497 -0.156878 -0.030119 -0.089799 0.096575 0.113772 0.097385 -0.050291 0.084633 0.118604 0.065190 0.008322 -0.206488 0.024146 -0.001279 0.010534 0.097480 -0.061660 -0.037652 -0.159086 -0.068321 -0.102731 0.166939 0.102301 0.011392 0.077724 -0.068569 0.122956 0.139677 -0.052065 -0.128021 0.166244 0.066980 -0.020500 -0.015253 -0.086120 -0.050501 -0.047449 0.122337 -0.073867 0.024256 -0.134162 0.135145 -0.008148 -0.233836 0.007302 -0.021146 -0.097608 0.002353 0.022533 -0.108225 0.153998 -0.109316 0.013958 0.024635 -0.022054 -0.009179 0.045043 0.184854 -0.173006 0.162023 -0.057143 0.071046 -0.039080 0.008887 0.043628 0.072925 -0.086817 -0.078017 -0.081503 -0.049837 0.078791 0.336102 0.014039 0.017412 0.106338 -0.026708 -0.007790 -0.082672 0.056329 -0.233014 0.028811 0.041451 -0.127824 0.076227 0.055129 -0.057238 0.168407 -0.138266 0.037494 0.143572 0.153786 0.185405 0.087495 -0.077270 0.096622 -0.020762 0.024544 0.023995 -0.056258 -0.096440 0.036309 -0.076284 0.130722 -0.037307 -0.064230 0.081814 -0.101466 0.040268 -0.088418 -0.092033 0.045307 -0.020029 0.062412
66 -0.033467 -0.126118 -0.028940 -0.136619 -0.001779 -0.058719 0.035251 0.118053 0.055279 0.040086 -0.027091 0.210161 0.049136 0.056966 -0.086308 -0.148262 -0.025827 -0.081338 0.090917 0.113760 0.088218 -0.050461 0.072997 0.119108 0.068888 0.004675 -0.192426 0.024726 0.002727 0.001184 0.096973 -0.064984 -0.030555 -0.151440 -0.074430 -0.091213 0.157388 0.094560 0.013754 0.077785 -0.069207 0.115108 0.131377 -0.045955 -0.114502 0.157744 0.054972 -0.020680 -0.019048 -0.074887 -0.045231 -0.038498 0.122456 -0.069910 0.028853 -0.128955 0.117973 -0.004466 -0.218924 0.011511 -0.020881 -0.098918 0.007107 0.017360 -0.102390 0.140906 -0.101850 0.013650 0.033692 -0.011118 -0.010540 0.036225 0.175745 -0.158405 0.146339 -0.061012 0.064258 -0.032912 0.006628 0.045615 0.066177 -0.082588 -0.081227 -0.080118 -0.044858 0.069590 0.312049 0.012819 0.022269 0.102291 -0.017170 -0.000509 -0.083092 0.058109 -0.216307 0.025371 0.044782 -0.118678 0.075961 0.052460 -0.050647 0.156812 -0.127805 0.035453 0.126088 0.146307 0.167379 0.081359 -0.069742 0.099395 -0.023699 0.024185 0.029656 -0.058133 -0.084212 0.037768 -0.069500 0.124416 -0.032139 -0.064421 0.072592 -0.093456 0.037031 -0.079588 -0.093314 0.044312 -0.014353 0.056490
4 -0.043598 -0.144801 -0.038359 -0.156232 0.009330 -0.073093 0.044451 0.151466 0.061695 0.035885 -0.026213 0.262883 0.054505 0.053626 -0.113723 -0.192154 -0.032758 -0.105056 0.105852 0.131061 0.111112 -0.057081 0.093035 0.142236 0.077231 0.008493 -0.238604 0.034564 0.013747 0.011527 0.110991 -0.082645 -0.050748 -0.176646 -0.089750 -0.116930 0.198008 0.117288 0.019803 0.088119 -0.074529 0.134809 0.169413 -0.045434 -0.146852 0.181000 0.074912 -0.032025 -0.025201 -0.099177 -0.049165 -0.059035 0.141662 -0.076218 0.021082 -0.156972 0.155109 -0.002970 -0.268243 0.014400 -0.025091 -0.117466 0.004493 0.029616 -0.123566 0.182591 -0.127187 0.020698 0.026384 -0.031515 -0.010134 0.053296 0.215866 -0.200637 0.186763 -0.068081 0.092644 -0.041751 0.008128 0.055141 0.078664 -0.110150 -0.099596 -0.097694 -0.048311 0.092994 0.390140 0.012741 0.026143 0.121765 -0.028253 -0.004803 -0.096046 0.059560 -0.275157 0.037666 0.039513 -0.149729 0.085603 0.076045 -0.072260 0.189993 -0.149713 0.040959 0.153005 0.177538 0.216360 0.109393 -0.093056 0.109779 -0.020934 0.028177 0.031903 -0.066445 -0.113925 0.043347 -0.089567 0.158115 -0.041974 -0.078318 0.091049 -0.125497 0.037876 -0.118570 -0.114714 0.057771 -0.015036 0.075153
62 -0.027494 -0.104178 -0.030335 -0.117037 -0.000470 -0.048557 0.028155 0.103034 0.048711 0.030468 -0.019869 0.183190 0.039458 0.048006 -0.080652 -0.127296 -0.022574 -0.071539 0.077727 0.096545 0.074481 -0.044639 0.061733 0.102736 0.058823 0.006697 -0.167277 0.020017 0.000063 0.003329 0.079375 -0.057522 -0.027758 -0.131588 -0.061390 -0.079123 0.133089 0.080280 0.014260 0.067490 -0.061600 0.097885 0.107863 -0.041183 -0.099135 0.131274 0.049829 -0.012698 -0.013372 -0.068514 -0.040056 -0.034447 0.101666 -0.056898 0.028137 -0.111360 0.100678 -0.002518 -0.186114 0.008340 -0.017695 -0.085378 0.003374 0.018725 -0.093176 0.127596 -0.084498 0.010098 0.027465 -0.012329 -0.014892 0.032643 0.156214 -0.133824 0.125133 -0.047365 0.055601 -0.030840 0.004432 0.038689 0.061147 -0.071280 -0.065993 -0.071242 -0.042168 0.062594 0.275543 0.014122 0.019592 0.084511 -0.014931 -0.006414 -0.071945 0.049220 -0.189330 0.023633 0.038614 -0.103901 0.065140 0.049301 -0.048592 0.136304 -0.109913 0.031363 0.111013 0.128797 0.150742 0.068692 -0.060480 0.085514 -0.023610 0.020176 0.025106 -0.045071 -0.072524 0.028442 -0.067062 0.102861 -0.022166 -0.057322 0.063912 -0.081476 0.029888 -0.074783 -0.079669 0.038024 -0.015303 0.045241
3 -0.048032 -0.151670 -0.036448 -0.160841 0.010178 -0.072227 0.051635 0.153469 0.056884 0.034853 -0.028291 0.266842 0.047536 0.050505 -0.116771 -0.201549 -0.030721 -0.108313 0.105925 0.128038 0.109866 -0.054281 0.097109 0.150058 0.079875 0.004222 -0.243294 0.037063 0.015590 0.017473 0.113758 -0.085535 -0.058005 -0.174392 -0.091513 -0.120328 0.203456 0.120037 0.020350 0.090814 -0.074571 0.137419 0.175244 -0.045257 -0.155730 0.187519 0.081764 -0.034992 -0.029133 -0.097213 -0.047636 -0.059375 0.139785 -0.074940 0.017293 -0.165140 0.157205 0.000158 -0.280548 0.022589 -0.033486 -0.115495 0.000883 0.033361 -0.129795 0.181799 -0.124801 0.021854 0.026733 -0.037876 -0.006410 0.053761 0.216600 -0.200586 0.192745 -0.069827 0.098055 -0.046945 0.014015 0.052338 0.078399 -0.107179 -0.105621 -0.101815 -0.048496 0.098668 0.396571 0.016441 0.022453 0.121511 -0.027858 -0.001774 -0.096860 0.062855 -0.285961 0.040686 0.038038 -0.149752 0.089782 0.081203 -0.074942 0.195045 -0.160343 0.035858 0.160492 0.184058 0.225958 0.112927 -0.092095 0.109982 -0.021166 0.031129 0.032665 -0.069640 -0.117040 0.043401 -0.092469 0.162944 -0.040787 -0.080592 0.088331 -0.135916 0.041218 -0.119729 -0.116827 0.059659 -0.015320 0.077439
71 -0.036814 -0.133298 -0.036389 -0.144175 0.002457 -0.064152 0.035519 0.120791 0.063397 0.042506 -0.032552 0.235982 0.050517 0.056096 -0.094480 -0.167299 -0.028936 -0.091898 0.097048 0.119813 0.096842 -0.052991 0.080446 0.127709 0.066564 0.004312 -0.204875 0.027943 0.002168 0.010231 0.101938 -0.066618 -0.033567 -0.167623 -0.074568 -0.101218 0.165939 0.097970 0.017514 0.074007 -0.071330 0.123545 0.139567 -0.052039 -0.126175 0.170807 0.064921 -0.022081 -0.021484 -0.083321 -0.050721 -0.045289 0.125567 -0.079903 0.026151 -0.141264 0.133584 -0.005907 -0.236598 0.005482 -0.020491 -0.105184 0.000727 0.028214 -0.114745 0.160078 -0.107005 0.013106 0.025311 -0.021805 -0.010044 0.049255 0.186137 -0.173504 0.162230 -0.060902 0.068304 -0.038062 0.005562 0.042125 0.075239 -0.093973 -0.081280 -0.088652 -0.047812 0.084745 0.347384 0.013295 0.016470 0.111951 -0.026594 -0.005575 -0.085310 0.060988 -0.234359 0.030830 0.042141 -0.131112 0.079628 0.059309 -0.059903 0.168805 -0.143521 0.036730 0.140827 0.154830 0.188362 0.095541 -0.075764 0.100536 -0.020367 0.020979 0.024824 -0.061248 -0.097665 0.035972 -0.075742 0.138063 -0.035759 -0.064879 0.081046 -0.105410 0.034303 -0.092435 -0.096368 0.049119 -0.027062 0.062263
17 -0.044146 -0.149147 -0.038420 -0.158149 -0.009996 -0.078939 0.045270 0.143486 0.077760 0.058534 -0.033743 0.269623 0.068128 0.060663 -0.119589 -0.178133 -0.040481 -0.108752 0.110012 0.147013 0.116815 -0.074686 0.101084 0.148304 0.088874 0.025451 -0.235161 0.026301 0.006514 0.018007 0.115070 -0.074503 -0.036029 -0.191998 -0.090034 -0.132097 0.195532 0.116673 0.013240 0.086258 -0.088709 0.136847 0.142666 -0.051150 -0.145318 0.189614 0.073111 -0.006738 -0.017028 -0.099288 -0.061196 -0.057266 0.148964 -0.099741 0.043674 -0.152868 0.140373 -0.007904 -0.262049 -0.002531 -0.025287 -0.124636 0.017575 0.032387 -0.121290 0.174589 -0.118431 0.019880 0.032828 -0.008211 -0.020935 0.052270 0.215641 -0.201731 0.182471 -0.060522 0.074852 -0.041843 0.015510 0.049228 0.079897 -0.106535 -0.079605 -0.103560 -0.067601 0.092929 0.394389 0.010394 0.025053 0.121129 -0.030038 -0.004141 -0.090775 0.067123 -0.274317 0.031499 0.056416 -0.138667 0.091669 0.068908 -0.068140 0.190873 -0.159359 0.047519 0.163543 0.178967 0.209384 0.093420 -0.093124 0.122268 -0.027575 0.026035 0.040527 -0.064779 -0.115085 0.040358 -0.095288 0.160542 -0.038251 -0.075773 0.102506 -0.115209 0.042447 -0.113167 -0.110572 0.049721 -0.035004 0.071665
20 -0.043025 -0.143347 -0.037516 -0.152934 -0.007740 -0.075633 0.044501 0.136025 0.067069 0.049961 -0.036531 0.250914 0.066540 0.055644 -0.112934 -0.174929 -0.040853 -0.098865 0.104989 0.133928 0.113527 -0.068446 0.095870 0.143558 0.082609 0.023550 -0.219782 0.024435 0.004494 0.010034 0.106494 -0.073097 -0.035189 -0.184269 -0.081377 -0.120599 0.188158 0.105884 0.010346 0.076188 -0.086656 0.132244 0.138147 -0.051399 -0.135516 0.183421 0.072482 -0.010057 -0.015408 -0.099158 -0.059312 -0.051382 0.143810 -0.094062 0.038092 -0.144905 0.138728 -0.014534 -0.256492 0.003697 -0.021811 -0.115481 0.014917 0.033347 -0.118036 0.163931 -0.113429 0.022639 0.027898 -0.007571 -0.019273 0.052314 0.202798 -0.190396 0.171994 -0.060649 0.075272 -0.038505 0.014497 0.053338 0.077004 -0.105480 -0.080051 -0.104853 -0.057274 0.092273 0.371319 0.013463 0.017792 0.119421 -0.024115 -0.003726 -0.086495 0.060256 -0.258534 0.029412 0.052136 -0.136006 0.082015 0.067684 -0.068663 0.180474 -0.153130 0.045576 0.154789 0.174881 0.199196 0.093851 -0.083926 0.116327 -0.027358 0.026447 0.034904 -0.062591 -0.113071 0.036418 -0.086803 0.151215 -0.035524 -0.068653 0.094502 -0.109820 0.038559 -0.112042 -0.100875 0.052655 -0.035150 0.067501
50 -0.047163 -0.144749 -0.041843 -0.151225 0.001473 -0.068783 0.048607 0.136570 0.063105 0.045718 -0.033961 0.250128 0.055120 0.057009 -0.108843 -0.176957 -0.026859 -0.095930 0.103092 0.128116 0.103325 -0.059085 0.087546 0.136663 0.077648 0.009980 -0.225392 0.032858 0.002750 0.008188 0.108876 -0.073838 -0.042412 -0.179143 -0.076219 -0.107641 0.180066 0.112374 0.015938 0.083072 -0.073696 0.138958 0.150441 -0.057077 -0.136077 0.177595 0.072783 -0.024380 -0.019075 -0.093010 -0.055095 -0.048356 0.139864 -0.083927 0.026324 -0.153673 0.144762 -0.003830 -0.255278 0.008531 -0.023462 -0.116030 0.003699 0.023613 -0.121537 0.164467 -0.118902 0.014398 0.031811 -0.017029 -0.013916 0.051220 0.203484 -0.183798 0.170252 -0.063633 0.074832 -0.036394 0.011821 0.051523 0.073290 -0.095966 -0.090132 -0.093242 -0.051643 0.086458 0.369439 0.014842 0.017509 0.121232 -0.029766 -0.003838 -0.091224 0.060420 -0.258562 0.031296 0.049907 -0.142123 0.085537 0.067781 -0.067715 0.187444 -0.148354 0.040497 0.153245 0.166634 0.210438 0.095657 -0.086994 0.112324 -0.022332 0.023703 0.031535 -0.059648 -0.106532 0.042025 -0.090520 0.148034 -0.032400 -0.069466 0.093118 -0.112561 0.037466 -0.104739 -0.105879 0.048761 -0.025811 0.071412
18 -0.039995 -0.138234 -0.040037 -0.151383 -0.000710 -0.069494 0.037792 0.133604 0.068610 0.052163 -0.032870 0.248582 0.061076 0.055129 -0.107147 -0.174702 -0.036305 -0.095647 0.099220 0.134725 0.110693 -0.063762 0.093844 0.138596 0.081139 0.020228 -0.218156 0.025871 0.006042 0.013101 0.106705 -0.068730 -0.035027 -0.174019 -0.079792 -0.117755 0.177822 0.106336 0.014960 0.081608 -0.080521 0.135290 0.136498 -0.052436 -0.134783 0.180335 0.064263 -0.012702 -0.014632 -0.094202 -0.053604 -0.053439 0.140040 -0.082164 0.034587 -0.139137 0.137376 -0.013022 -0.249371 0.003036 -0.023988 -0.116604 0.011403 0.029163 -0.112236 0.162424 -0.110734 0.016542 0.032881 -0.009004 -0.018375 0.048831 0.202412 -0.187866 0.171643 -0.059429 0.076431 -0.034759 0.013624 0.049405 0.069624 -0.096299 -0.078616 -0.100347 -0.059097 0.087727 0.366467 0.011365 0.016738 0.117055 -0.024973 -0.006651 -0.082068 0.055860 -0.256799 0.030997 0.045615 -0.129806 0.084434 0.061455 -0.065217 0.180943 -0.145586 0.041634 0.151189 0.167594 0.193858 0.088931 -0.085350 0.106941 -0.027455 0.021711 0.029934 -0.064555 -0.106190 0.035364 -0.086595 0.141310 -0.031933 -0.070049 0.089824 -0.114711 0.036928 -0.106898 -0.097741 0.046098 -0.032048 0.062073
21 -0.044949 -0.138319 -0.037633 -0.157489 -0.006825 -0.071269 0.040737 0.131942 0.068826 0.053982 -0.032955 0.252063 0.060437 0.053262 -0.110913 -0.173848 -0.035819 -0.098828 0.106965 0.135387 0.111763 -0.065172 0.091092 0.142862 0.080136 0.016564 -0.221999 0.026845 0.004355 0.012442 0.112064 -0.073184 -0.036701 -0.179098 -0.086276 -0.121404 0.181919 0.112987 0.016531 0.081889 -0.084738 0.137981 0.139524 -0.054613 -0.140254 0.183150 0.069990 -0.011600 -0.013579 -0.095367 -0.051725 -0.049534 0.143380 -0.090250 0.034879 -0.144553 0.139415 -0.013291 -0.256811 0.006981 -0.028038 -0.115479 0.012150 0.033171 -0.113738 0.164290 -0.113384 0.015312 0.028510 -0.016191 -0.013277 0.046304 0.205557 -0.186771 0.174603 -0.062746 0.071851 -0.040435 0.014139 0.053079 0.073228 -0.099968 -0.083461 -0.103608 -0.060500 0.086063 0.369632 0.009920 0.023065 0.114497 -0.022514 -0.002062 -0.089041 0.064079 -0.259457 0.028541 0.046440 -0.133701 0.085801 0.063742 -0.067070 0.180364 -0.150247 0.044909 0.158252 0.173294 0.200280 0.091213 -0.088257 0.110312 -0.022166 0.027810 0.033155 -0.062154 -0.110527 0.042097 -0.091869 0.147629 -0.035295 -0.066585 0.092717 -0.115165 0.038646 -0.111570 -0.099739 0.051530 -0.027409 0.062789
19 -0.040034 -0.146202 -0.034761 -0.158413 -0.004395 -0.070934 0.041681 0.134458 0.071430 0.051809 -0.037945 0.258900 0.060649 0.058509 -0.114087 -0.176375 -0.040100 -0.104926 0.109115 0.141106 0.113386 -0.069583 0.094336 0.146300 0.081668 0.021624 -0.228410 0.027281 0.001989 0.011236 0.111633 -0.072013 -0.035830 -0.188844 -0.086054 -0.121981 0.182980 0.113717 0.016579 0.082773 -0.083302 0.136642 0.144140 -0.054360 -0.136253 0.186967 0.073224 -0.014948 -0.018198 -0.094784 -0.057151 -0.052472 0.139836 -0.092385 0.041476 -0.146247 0.137941 -0.008472 -0.254005 0.001828 -0.026700 -0.120736 0.015472 0.033991 -0.120026 0.164543 -0.113214 0.018665 0.029150 -0.014594 -0.016087 0.050997 0.208476 -0.191501 0.172838 -0.067840 0.078168 -0.035943 0.009585 0.048650 0.075798 -0.102749 -0.082499 -0.105102 -0.061409 0.090387 0.381968 0.014162 0.017449 0.117850 -0.027291 -0.001273 -0.084697 0.064491 -0.265251 0.033227 0.049857 -0.137360 0.086323 0.063032 -0.064863 0.188350 -0.155054 0.039987 0.156218 0.174811 0.204222 0.095321 -0.089067 0.113874 -0.028552 0.024717 0.034690 -0.067213 -0.108064 0.041761 -0.087247 0.153871 -0.038946 -0.068590 0.093674 -0.117101 0.037616 -0.112427 -0.107282 0.052150 -0.035272 0.064433
23 -0.042894 -0.142379 -0.042281 -0.156223 -0.004254 -0.070290 0.042473 0.141518 0.071842 0.050184 -0.035352 0.258970 0.062872 0.055336 -0.117270 -0.176536 -0.038047 -0.098813 0.109508 0.141829 0.111588 -0.068878 0.091932 0.148106 0.082937 0.018864 -0.232703 0.024777 0.001335 0.015667 0.110890 -0.072455 -0.038804 -0.185965 -0.088482 -0.125303 0.189649 0.110029 0.011533 0.082676 -0.084950 0.138259 0.146759 -0.051596 -0.138515 0.184964 0.069605 -0.009360 -0.018595 -0.098323 -0.056563 -0.054502 0.147067 -0.094504 0.037475 -0.153595 0.140678 -0.011279 -0.259903 -0.000216 -0.025854 -0.120863 0.015652 0.032519 -0.117145 0.168869 -0.114513 0.022601 0.032297 -0.009176 -0.016620 0.052998 0.213763 -0.193898 0.172521 -0.063617 0.079124 -0.037950 0.016627 0.053996 0.080708 -0.106170 -0.080285 -0.102995 -0.061745 0.093750 0.379782 0.013441 0.017341 0.118859 -0.025543 -0.002830 -0.091886 0.061278 -0.270671 0.029023 0.052172 -0.140210 0.085459 0.069419 -0.069248 0.186393 -0.150541 0.039828 0.158205 0.171995 0.203512 0.093610 -0.086844 0.117031 -0.030057 0.022738 0.033345 -0.067793 -0.113113 0.038734 -0.094075 0.154556 -0.035976 -0.071478 0.097562 -0.113283 0.036816 -0.113632 -0.102929 0.048316 -0.032305 0.067762
22 -0.040407 -0.143728 -0.038729 -0.153731 -0.003515 -0.073503 0.041072 0.134215 0.065788 0.048214 -0.034638 0.253918 0.061977 0.054463 -0.108815 -0.176786 -0.039067 -0.100673 0.108710 0.138235 0.112576 -0.065574 0.095529 0.141979 0.076902 0.021293 -0.225452 0.022953 0.006086 0.015175 0.109424 -0.074565 -0.040142 -0.180437 -0.084703 -0.121875 0.182907 0.108141 0.011756 0.078025 -0.078217 0.130986 0.140011 -0.048802 -0.135205 0.185796 0.066616 -0.010815 -0.014639 -0.096777 -0.057170 -0.053626 0.137478 -0.089476 0.039172 -0.146075 0.141983 -0.006515 -0.251862 0.000432 -0.024070 -0.114378 0.013527 0.034102 -0.118758 0.166435 -0.117897 0.020838 0.033996 -0.010010 -0.017777 0.052158 0.204497 -0.190501 0.176450 -0.060974 0.072369 -0.036397 0.015556 0.050020 0.072909 -0.102661 -0.079680 -0.103796 -0.058162 0.086202 0.375829 0.008930 0.022208 0.116988 -0.023897 -0.004933 -0.087114 0.057373 -0.260780 0.030944 0.048160 -0.135539 0.087431 0.062821 -0.066961 0.183939 -0.147909 0.044272 0.155286 0.173788 0.201249 0.096646 -0.086866 0.112995 -0.023093 0.025363 0.036159 -0.061037 -0.111097 0.038273 -0.091913 0.149022 -0.038625 -0.071513 0.094975 -0.116142 0.039654 -0.110959 -0.101592 0.051026 -0.028151 0.066811
77 -0.034218 -0.140314 -0.029057 -0.144954 -0.002582 -0.059491 0.037324 0.130837 0.054022 0.046465 -0.023755 0.229199 0.045524 0.062744 -0.093081 -0.162721 -0.021713 -0.084647 0.101806 0.123374 0.087117 -0.053680 0.083243 0.123852 0.072766 0.008952 -0.212246 0.025359 0.006017 0.002713 0.099259 -0.073730 -0.032584 -0.160414 -0.081800 -0.105337 0.170046 0.106104 0.011342 0.075548 -0.077551 0.129034 0.145586 -0.054134 -0.125149 0.163832 0.060270 -0.015440 -0.009796 -0.084686 -0.055634 -0.046528 0.129303 -0.082416 0.029163 -0.141249 0.135569 -0.007704 -0.239504 0.015710 -0.028302 -0.106996 0.008159 0.028162 -0.112507 0.163967 -0.104258 0.019339 0.027930 -0.013689 -0.022367 0.047077 0.197928 -0.166236 0.165404 -0.064562 0.064742 -0.038197 0.005027 0.052169 0.073388 -0.089631 -0.085899 -0.087260 -0.044555 0.072894 0.333708 0.018776 0.022660 0.117348 -0.023242 -0.001908 -0.081273 0.054595 -0.230827 0.032025 0.044691 -0.129301 0.080083 0.050751 -0.061549 0.162006 -0.136792 0.043175 0.144722 0.161707 0.182397 0.094762 -0.083275 0.103443 -0.028838 0.026371 0.028579 -0.055948 -0.091411 0.039934 -0.078540 0.134709 -0.036595 -0.070850 0.078464 -0.097759 0.037570 -0.088409 -0.098421 0.049377 -0.018262 0.066161
52 -0.045032 -0.133151 -0.034353 -0.150038 -0.000064 -0.065558 0.045096 0.126873 0.059884 0.038465 -0.029753 0.236093 0.048640 0.058268 -0.105756 -0.171816 -0.026897 -0.088184 0.093749 0.119995 0.102571 -0.057555 0.080018 0.125078 0.067930 0.010874 -0.213562 0.032577 0.006568 0.006311 0.106871 -0.066616 -0.032802 -0.164802 -0.072916 -0.102353 0.168610 0.104499 0.016747 0.078077 -0.071474 0.132712 0.139466 -0.050662 -0.129551 0.169449 0.068840 -0.016318 -0.019973 -0.089018 -0.050334 -0.049971 0.134284 -0.079352 0.031926 -0.141060 0.138037 -0.010399 -0.242479 0.005914 -0.025160 -0.101681 0.001229 0.022911 -0.118524 0.160994 -0.107034 0.018566 0.026624 -0.014440 -0.013242 0.048631 0.194995 -0.173544 0.164419 -0.063860 0.068503 -0.039597 0.009946 0.047467 0.076212 -0.096112 -0.084627 -0.089807 -0.045113 0.081194 0.353632 0.015567 0.015521 0.116031 -0.022714 -0.002486 -0.085988 0.053672 -0.244400 0.025378 0.045054 -0.129661 0.075966 0.064944 -0.058550 0.177376 -0.139061 0.040501 0.147986 0.159499 0.198704 0.093243 -0.084014 0.108768 -0.024462 0.023752 0.031695 -0.061311 -0.100161 0.037977 -0.085172 0.140764 -0.034909 -0.069920 0.084144 -0.109268 0.032390 -0.096451 -0.096843 0.048162 -0.023418 0.062646
42 -0.042815 -0.130563 -0.036840 -0.147952 0.006099 -0.064852 0.039673 0.128481 0.061575 0.045266 -0.028300 0.235475 0.046794 0.059510 -0.096732 -0.166956 -0.031304 -0.095644 0.100344 0.120529 0.101134 -0.058331 0.084306 0.130249 0.075024 0.006375 -0.214083 0.030553 0.001781 0.012129 0.103249 -0.066120 -0.034617 -0.166273 -0.074281 -0.105836 0.171950 0.098713 0.012452 0.075105 -0.074571 0.127150 0.139655 -0.049433 -0.125747 0.171597 0.068083 -0.017391 -0.020619 -0.085718 -0.046217 -0.049093 0.130331 -0.075475 0.026780 -0.140183 0.138200 -0.005754 -0.242597 0.004390 -0.021956 -0.101676 0.002023 0.026293 -0.110082 0.159439 -0.110881 0.016073 0.027588 -0.017801 -0.011727 0.045272 0.194088 -0.174081 0.165009 -0.061594 0.068491 -0.032671 0.005230 0.050625 0.070088 -0.091290 -0.086456 -0.085583 -0.048235 0.084153 0.352000 0.008314 0.017464 0.111594 -0.023393 -0.001619 -0.087880 0.054838 -0.243684 0.027038 0.042506 -0.134581 0.082281 0.058204 -0.059933 0.170401 -0.143857 0.034226 0.144312 0.155244 0.195786 0.094976 -0.079925 0.104824 -0.019188 0.023816 0.030075 -0.057774 -0.103113 0.039980 -0.080788 0.136257 -0.032901 -0.067855 0.084708 -0.106564 0.035302 -0.094987 -0.099737 0.046027 -0.021313 0.066390
254 -0.035147 -0.134254 -0.026773 -0.140981 -0.003385 -0.059654 0.039061 0.121368 0.054372 0.045729 -0.019512 0.219650 0.046060 0.056798 -0.090544 -0.151815 -0.023893 -0.080566 0.095446 0.114571 0.085227 -0.053561 0.082533 0.117033 0.069879 0.006583 -0.202619 0.020230 0.009302 0.000284 0.096028 -0.066826 -0.027321 -0.160192 -0.076618 -0.095094 0.155301 0.101459 0.014689 0.074620 -0.075922 0.121453 0.133987 -0.052083 -0.116717 0.160437 0.058266 -0.019736 -0.009235 -0.076898 -0.049132 -0.047604 0.126607 -0.076897 0.031764 -0.135353 0.122416 -0.012855 -0.227629 0.013983 -0.029995 -0.099874 0.008606 0.021827 -0.103808 0.155629 -0.095953 0.012658 0.031268 -0.013764 -0.019603 0.043892 0.186640 -0.158974 0.153317 -0.060320 0.066662 -0.032744 0.010413 0.046649 0.065662 -0.083873 -0.076799 -0.086836 -0.047317 0.071364 0.323090 0.018363 0.023924 0.111320 -0.024121 -0.001834 -0.073471 0.052626 -0.226569 0.031430 0.037608 -0.122052 0.079733 0.048036 -0.059410 0.160513 -0.133666 0.035470 0.136782 0.152320 0.179154 0.087545 -0.075259 0.103225 -0.030771 0.023159 0.031733 -0.059946 -0.085511 0.033451 -0.072439 0.131296 -0.033462 -0.064390 0.080878 -0.100594 0.035520 -0.092512 -0.096193 0.041002 -0.017096 0.060648
72 -0.037220 -0.130589 -0.035113 -0.140572 0.003800 -0.057091 0.035369 0.118063 0.056556 0.038624 -0.027578 0.226951 0.042689 0.050598 -0.093229 -0.155105 -0.024480 -0.085375 0.089865 0.112118 0.091962 -0.051861 0.076852 0.117309 0.068139 0.008872 -0.198736 0.028052 0.001138 0.006780 0.096078 -0.064982 -0.034114 -0.159802 -0.071072 -0.101161 0.163001 0.095450 0.011820 0.071763 -0.066068 0.123286 0.132372 -0.050104 -0.123380 0.158478 0.062314 -0.018047 -0.020351 -0.085848 -0.049090 -0.040062 0.124523 -0.071027 0.023470 -0.134934 0.125889 -0.002956 -0.226002 0.008795 -0.025057 -0.102386 0.000184 0.025412 -0.104848 0.150415 -0.101162 0.011257 0.023812 -0.022049 -0.014649 0.046768 0.184912 -0.166808 0.158089 -0.059460 0.066790 -0.036813 0.011510 0.044937 0.070543 -0.089892 -0.082323 -0.084014 -0.047777 0.080482 0.336168 0.008229 0.021114 0.106237 -0.022877 -0.001762 -0.083801 0.053148 -0.226041 0.027138 0.040775 -0.128439 0.075066 0.059678 -0.056948 0.165254 -0.136283 0.036071 0.137969 0.153018 0.180695 0.090848 -0.078107 0.096615 -0.017854 0.022011 0.029141 -0.059761 -0.090892 0.033130 -0.074886 0.131366 -0.031709 -0.068130 0.078882 -0.104423 0.035435 -0.089157 -0.093329 0.049764 -0.026416 0.062425
61 -0.031654 -0.102750 -0.024945 -0.112174 -0.000180 -0.047657 0.030493 0.094560 0.048045 0.031559 -0.022147 0.172672 0.035313 0.045080 -0.076017 -0.123980 -0.018958 -0.066098 0.070284 0.088736 0.069544 -0.045619 0.061135 0.092721 0.057792 0.002309 -0.159035 0.020044 0.004134 0.000781 0.076461 -0.055131 -0.028044 -0.128547 -0.058102 -0.076112 0.129283 0.073656 0.013957 0.058003 -0.054196 0.093385 0.107837 -0.039514 -0.096571 0.128186 0.045112 -0.011299 -0.009156 -0.061810 -0.036333 -0.034755 0.101828 -0.058086 0.020560 -0.101499 0.098189 -0.006978 -0.181207 0.003610 -0.022586 -0.083881 0.007945 0.020491 -0.084897 0.119814 -0.081328 0.006934 0.027315 -0.009555 -0.014158 0.036686 0.146861 -0.130310 0.123397 -0.044031 0.051443 -0.026161 0.006988 0.036847 0.057900 -0.068824 -0.066561 -0.068546 -0.040272 0.059105 0.263033 0.006072 0.017689 0.086670 -0.018172 -0.000855 -0.063851 0.040937 -0.178541 0.023767 0.037568 -0.099246 0.059097 0.042519 -0.045224 0.128777 -0.101817 0.031704 0.106818 0.115816 0.139814 0.066847 -0.059635 0.079661 -0.021649 0.020937 0.026499 -0.045253 -0.075374 0.030719 -0.063486 0.103293 -0.027020 -0.051130 0.060890 -0.074345 0.027097 -0.068751 -0.071069 0.039518 -0.018155 0.048588
76 -0.040468 -0.121744 -0.035599 -0.129108 0.006343 -0.061220 0.038290 0.114491 0.055649 0.036035 -0.028281 0.215134 0.044282 0.046169 -0.086393 -0.152077 -0.023342 -0.084039 0.090583 0.111124 0.086633 -0.053237 0.073697 0.111688 0.065587 0.006371 -0.193375 0.023864 0.002160 0.004905 0.096975 -0.061013 -0.032698 -0.147708 -0.065566 -0.091975 0.152256 0.088428 0.015455 0.069673 -0.069231 0.110979 0.130382 -0.044603 -0.118301 0.151994 0.060788 -0.017489 -0.018017 -0.076714 -0.043182 -0.043932 0.118009 -0.069949 0.025308 -0.126593 0.124571 -0.002151 -0.214183 0.009481 -0.025149 -0.091497 0.000004 0.021011 -0.102678 0.143624 -0.101146 0.013050 0.023824 -0.016551 -0.007132 0.039741 0.176215 -0.159773 0.151214 -0.053287 0.062600 -0.031414 0.005972 0.040778 0.067034 -0.081948 -0.079393 -0.079878 -0.040204 0.076180 0.317428 0.010269 0.017488 0.096921 -0.024426 -0.000658 -0.078515 0.053008 -0.219491 0.023256 0.038158 -0.119261 0.072670 0.055206 -0.051885 0.151958 -0.127329 0.029400 0.130560 0.146510 0.176890 0.088908 -0.069862 0.090614 -0.018905 0.026150 0.025728 -0.050710 -0.088884 0.036852 -0.072516 0.121145 -0.030715 -0.059293 0.072789 -0.097707 0.036300 -0.083456 -0.088046 0.047466 -0.017314 0.060311
36 -0.042003 -0.154388 -0.035699 -0.164808 0.001063 -0.073431 0.048383 0.141222 0.070918 0.052660 -0.038505 0.260630 0.055117 0.063375 -0.112837 -0.184246 -0.036917 -0.103594 0.105979 0.130155 0.110171 -0.058837 0.099530 0.148987 0.079803 0.006389 -0.228371 0.024687 0.001003 0.008227 0.120054 -0.083246 -0.039135 -0.195221 -0.085924 -0.118328 0.191493 0.112129 0.012782 0.077800 -0.079549 0.142413 0.166032 -0.055184 -0.144449 0.188728 0.079987 -0.018243 -0.017002 -0.093034 -0.056986 -0.051558 0.147005 -0.091537 0.035489 -0.152966 0.149494 -0.010246 -0.270452 0.014413 -0.031572 -0.125021 0.009192 0.028399 -0.130521 0.177346 -0.120098 0.022201 0.035722 -0.020155 -0.017710 0.049157 0.214919 -0.197011 0.177592 -0.074040 0.085410 -0.034883 0.010749 0.050700 0.076209 -0.108537 -0.090242 -0.106045 -0.053330 0.093705 0.396821 0.017755 0.022914 0.132268 -0.027214 -0.013424 -0.095078 0.070193 -0.264524 0.030860 0.048002 -0.142219 0.080900 0.074847 -0.064585 0.193366 -0.153224 0.040048 0.165728 0.178607 0.214342 0.106124 -0.089540 0.122965 -0.027956 0.029184 0.029185 -0.074415 -0.117190 0.033983 -0.090844 0.151184 -0.040567 -0.071425 0.096690 -0.120315 0.046731 -0.103973 -0.108001 0.056896 -0.032563 0.073162
35 -0.047777 -0.149304 -0.040672 -0.159860 -0.001886 -0.068487 0.043994 0.134059 0.064628 0.049386 -0.035391 0.260848 0.055630 0.061467 -0.112028 -0.183319 -0.032047 -0.097446 0.107491 0.135081 0.112982 -0.061834 0.092114 0.145829 0.080718 0.012772 -0.226401 0.030902 0.000530 0.007555 0.114992 -0.077773 -0.039912 -0.189344 -0.081194 -0.116345 0.189681 0.108451 0.017553 0.080282 -0.084300 0.140671 0.161250 -0.055154 -0.142616 0.183045 0.072907 -0.019964 -0.021846 -0.097617 -0.054872 -0.053591 0.142932 -0.088622 0.036340 -0.157270 0.149094 -0.009850 -0.264124 0.007187 -0.030923 -0.120150 0.008459 0.026728 -0.129383 0.169176 -0.121515 0.023368 0.033037 -0.016520 -0.016523 0.051235 0.210253 -0.192372 0.177491 -0.072728 0.079966 -0.033548 0.008184 0.052788 0.075606 -0.109324 -0.089439 -0.104219 -0.050495 0.092458 0.389507 0.012664 0.017405 0.128159 -0.025487 -0.009327 -0.096731 0.061942 -0.266800 0.025131 0.046312 -0.141935 0.085436 0.072011 -0.060713 0.188064 -0.156588 0.034609 0.160404 0.172682 0.209722 0.107432 -0.087482 0.119583 -0.023961 0.024584 0.033833 -0.069968 -0.113154 0.041216 -0.086590 0.150656 -0.040729 -0.073197 0.097254 -0.119836 0.043286 -0.105117 -0.106030 0.057816 -0.029528 0.072504
38 -0.044626 -0.160903 -0.036781 -0.167438 -0.001132 -0.073701 0.043284 0.142776 0.074936 0.046949 -0.037397 0.272605 0.063511 0.061982 -0.122543 -0.193495 -0.037724 -0.104139 0.112152 0.138190 0.111896 -0.062286 0.103151 0.150329 0.078556 0.011195 -0.237958 0.026099 0.004043 0.005596 0.119450 -0.087120 -0.043672 -0.204382 -0.091906 -0.125003 0.198813 0.114006 0.014674 0.083885 -0.085261 0.148459 0.173341 -0.054986 -0.155409 0.199971 0.081776 -0.025671 -0.017380 -0.102332 -0.060576 -0.055814 0.147960 -0.093411 0.032006 -0.166821 0.159081 -0.009480 -0.282336 0.013951 -0.035403 -0.127827 0.008121 0.024716 -0.131907 0.186336 -0.121125 0.023987 0.032984 -0.017884 -0.019242 0.052952 0.217030 -0.205262 0.183900 -0.073764 0.088985 -0.033753 0.010373 0.054656 0.081821 -0.112577 -0.095805 -0.107424 -0.057854 0.096641 0.410773 0.012788 0.020037 0.132685 -0.027033 -0.011384 -0.101989 0.069235 -0.281530 0.029139 0.049562 -0.155200 0.087073 0.077568 -0.066247 0.200444 -0.157676 0.034899 0.162451 0.181286 0.221079 0.111375 -0.096342 0.125635 -0.029452 0.033118 0.036264 -0.075517 -0.121141 0.037624 -0.093195 0.156673 -0.047013 -0.076315 0.101633 -0.128906 0.042878 -0.111226 -0.115490 0.063431 -0.032935 0.075218
58 -0.033965 -0.118106 -0.032029 -0.131090 -0.000871 -0.051928 0.035352 0.114270 0.053201 0.038839 -0.022394 0.203878 0.046991 0.053723 -0.087042 -0.148510 -0.027487 -0.078450 0.085181 0.102513 0.081281 -0.054113 0.071676 0.109601 0.066849 0.004061 -0.188331 0.020557 0.004284 0.009254 0.090964 -0.062341 -0.029257 -0.145641 -0.066363 -0.089539 0.148417 0.093334 0.009858 0.071720 -0.067328 0.108057 0.121296 -0.046891 -0.115476 0.147953 0.059573 -0.012987 -0.014012 -0.078471 -0.043186 -0.043798 0.118119 -0.065624 0.026183 -0.119592 0.116415 -0.008255 -0.206733 0.010801 -0.019232 -0.095957 0.005196 0.019211 -0.099506 0.139075 -0.090282 0.009836 0.030261 -0.009526 -0.014139 0.036026 0.170655 -0.155222 0.142269 -0.057788 0.057928 -0.033284 0.008623 0.039214 0.062097 -0.083444 -0.075494 -0.076647 -0.039824 0.072520 0.306880 0.007786 0.015584 0.095298 -0.022862 -0.004953 -0.076449 0.054865 -0.212078 0.026488 0.036053 -0.118827 0.072770 0.051057 -0.051983 0.148776 -0.118696 0.037101 0.120132 0.140774 0.163288 0.082832 -0.068462 0.092395 -0.024855 0.020579 0.028512 -0.055418 -0.089527 0.030888 -0.072858 0.117701 -0.032329 -0.059090 0.075291 -0.089270 0.030589 -0.081316 -0.086604 0.043403 -0.017760 0.057562
39 -0.051090 -0.154532 -0.038723 -0.166803 0.005213 -0.069191 0.046352 0.146815 0.070087 0.047441 -0.038639 0.268809 0.060444 0.061950 -0.117436 -0.193883 -0.039249 -0.104218 0.108316 0.141077 0.116182 -0.062094 0.103452 0.152542 0.078554 0.011869 -0.241275 0.032531 0.000112 0.007036 0.122941 -0.085497 -0.042490 -0.201027 -0.086132 -0.123037 0.199809 0.117521 0.013947 0.084295 -0.082599 0.149338 0.167678 -0.060905 -0.149730 0.199872 0.079930 -0.019732 -0.017726 -0.096854 -0.058867 -0.051126 0.150883 -0.092799 0.034857 -0.159515 0.152867 -0.006077 -0.273518 0.011799 -0.035461 -0.121411 0.004680 0.027287 -0.134748 0.181130 -0.120875 0.025432 0.037587 -0.019394 -0.012577 0.053918 0.216678 -0.199983 0.188768 -0.070651 0.084330 -0.036416 0.013279 0.053053 0.084551 -0.109703 -0.096955 -0.109685 -0.053178 0.096404 0.409291 0.018104 0.021574 0.133945 -0.029842 -0.006367 -0.096503 0.068918 -0.277104 0.031554 0.049494 -0.151448 0.087482 0.077172 -0.069631 0.201673 -0.163867 0.037639 0.167873 0.181132 0.218972 0.113217 -0.096026 0.118963 -0.028534 0.033014 0.034937 -0.073619 -0.121473 0.039540 -0.094690 0.152993 -0.046692 -0.082038 0.099294 -0.126820 0.048026 -0.111954 -0.108894 0.062299 -0.029449 0.071412
67 -0.035288 -0.114932 -0.027624 -0.127086 0.004687 -0.053743 0.034772 0.105728 0.056006 0.039051 -0.020769 0.198085 0.040353 0.048469 -0.082545 -0.146093 -0.022647 -0.081435 0.082873 0.102599 0.080153 -0.053124 0.071459 0.107308 0.066831 0.008937 -0.180203 0.021255 0.005381 0.000089 0.085676 -0.063073 -0.029843 -0.149568 -0.068163 -0.089495 0.145306 0.090204 0.015616 0.069718 -0.065420 0.114411 0.125942 -0.041994 -0.111165 0.146210 0.056967 -0.013716 -0.010679 -0.073810 -0.044000 -0.038449 0.113158 -0.068758 0.026532 -0.121868 0.117722 -0.004322 -0.209368 0.010773 -0.019707 -0.092984 0.004817 0.023707 -0.102157 0.138399 -0.090823 0.012290 0.030152 -0.012067 -0.009744 0.042075 0.171856 -0.148484 0.141014 -0.057327 0.058301 -0.028863 0.010945 0.043810 0.063043 -0.079532 -0.075979 -0.074634 -0.046206 0.069476 0.297707 0.009617 0.022145 0.094050 -0.019032 -0.001041 -0.075878 0.049829 -0.204853 0.020418 0.040771 -0.115270 0.067534 0.047814 -0.049659 0.149594 -0.118652 0.034205 0.121459 0.135587 0.166713 0.082089 -0.068522 0.088756 -0.026448 0.024908 0.024412 -0.048150 -0.084147 0.036272 -0.072148 0.114387 -0.025819 -0.062096 0.068591 -0.090118 0.032032 -0.078140 -0.086504 0.045117 -0.014798 0.057730
37 -0.046737 -0.142760 -0.032028 -0.150971 0.002230 -0.063008 0.039441 0.132187 0.068918 0.045638 -0.033368 0.251106 0.056374 0.054407 -0.110453 -0.174105 -0.036507 -0.095863 0.103836 0.122041 0.100784 -0.056379 0.095085 0.140985 0.073856 0.010006 -0.214460 0.026139 0.005998 0.007598 0.110895 -0.078330 -0.040925 -0.185138 -0.077002 -0.113709 0.184257 0.105030 0.015546 0.079739 -0.074158 0.139453 0.157461 -0.054025 -0.142156 0.179411 0.071794 -0.016595 -0.016861 -0.092695 -0.053439 -0.050002 0.140010 -0.079210 0.028283 -0.145120 0.145441 -0.009715 -0.255206 0.014623 -0.033624 -0.116608 0.004990 0.027228 -0.121054 0.168065 -0.111405 0.023696 0.031520 -0.014887 -0.011465 0.049087 0.199483 -0.182594 0.171841 -0.067350 0.079698 -0.034181 0.007166 0.053027 0.072174 -0.105227 -0.090410 -0.100888 -0.048466 0.087358 0.373477 0.016590 0.019486 0.121308 -0.028606 -0.011581 -0.094027 0.065055 -0.251645 0.026592 0.044234 -0.141481 0.075889 0.069708 -0.058239 0.178697 -0.148735 0.031722 0.154375 0.168000 0.205413 0.102998 -0.089717 0.115760 -0.021872 0.028132 0.034648 -0.070657 -0.107216 0.035056 -0.081977 0.139299 -0.043155 -0.073823 0.093503 -0.118637 0.045192 -0.103988 -0.100609 0.053604 -0.030159 0.065296
30 -0.043475 -0.157309 -0.041691 -0.160066 -0.002505 -0.069585 0.047943 0.139225 0.070059 0.050457 -0.040837 0.266364 0.058167 0.059993 -0.118050 -0.190983 -0.035161 -0.103528 0.104885 0.139743 0.113630 -0.064866 0.102529 0.144158 0.081307 0.008623 -0.231511 0.028254 -0.001277 0.009785 0.117801 -0.083501 -0.039735 -0.198352 -0.088483 -0.117453 0.195008 0.116666 0.016151 0.079655 -0.082489 0.147282 0.165571 -0.053570 -0.148035 0.193859 0.077712 -0.023310 -0.019927 -0.096513 -0.058094 -0.049892 0.149770 -0.094154 0.036206 -0.157494 0.148935 -0.008245 -0.270008 0.011080 -0.030474 -0.126536 0.010524 0.028897 -0.126309 0.176526 -0.123616 0.020453 0.036315 -0.020084 -0.014368 0.053208 0.214505 -0.198647 0.183398 -0.074109 0.083120 -0.032919 0.010351 0.057361 0.076033 -0.111577 -0.097086 -0.106155 -0.053607 0.097605 0.396116 0.016302 0.017768 0.130999 -0.024948 -0.012540 -0.096681 0.069256 -0.267816 0.030636 0.046727 -0.145519 0.086488 0.070984 -0.061850 0.196035 -0.160039 0.034082 0.161684 0.177592 0.219023 0.108848 -0.095852 0.120490 -0.029685 0.024864 0.031053 -0.074502 -0.112950 0.036452 -0.094510 0.151817 -0.043467 -0.072473 0.095168 -0.122180 0.044489 -0.106992 -0.106666 0.060695 -0.027183 0.072836
29 -0.049418 -0.155533 -0.044035 -0.167959 0.006125 -0.074401 0.047289 0.142551 0.068029 0.049544 -0.034000 0.275502 0.054989 0.062992 -0.116171 -0.195020 -0.038239 -0.110275 0.112701 0.137821 0.116662 -0.066029 0.092699 0.146624 0.078141 0.008059 -0.243417 0.029195 0.006349 0.012509 0.122548 -0.080119 -0.039734 -0.193056 -0.089630 -0.118637 0.201351 0.119986 0.019108 0.083057 -0.079873 0.149317 0.159911 -0.062238 -0.147678 0.198835 0.075777 -0.022149 -0.025132 -0.098885 -0.057204 -0.053785 0.145461 -0.087825 0.027652 -0.157691 0.160274 -0.004573 -0.274721 0.011330 -0.027281 -0.125896 0.002525 0.029344 -0.135389 0.178710 -0.131582 0.018144 0.036055 -0.016577 -0.018302 0.054495 0.213597 -0.199025 0.189488 -0.065359 0.086345 -0.040731 0.011368 0.055747 0.078712 -0.105842 -0.093686 -0.106099 -0.054347 0.096085 0.405142 0.010658 0.020961 0.124416 -0.027089 -0.009096 -0.098715 0.067909 -0.271737 0.036059 0.048001 -0.146602 0.088994 0.068983 -0.073065 0.201021 -0.163474 0.042972 0.165779 0.182708 0.219045 0.104140 -0.090962 0.122723 -0.023525 0.030858 0.029097 -0.071217 -0.119612 0.037079 -0.095307 0.151966 -0.036360 -0.079064 0.095895 -0.126605 0.040443 -0.113193 -0.108319 0.059695 -0.029456 0.069167
47 -0.092757 -0.268584 -0.075574 -0.295854 -0.002091 -0.122574 0.068861 0.252206 0.106747 0.081253 -0.070689 0.467762 0.112906 0.106334 -0.187700 -0.327125 -0.054323 -0.194871 0.198838 0.257609 0.200635 -0.109147 0.148135 0.258606 0.160423 0.020239 -0.417259 0.050824 -0.013382 -0.006601 0.207469 -0.138790 -0.056725 -0.343131 -0.161868 -0.211481 0.344642 0.196784 0.014749 0.168019 -0.150998 0.256081 0.279620 -0.101081 -0.238070 0.335851 0.129878 -0.052286 -0.051427 -0.173651 -0.074687 -0.076736 0.263402 -0.155919 0.063759 -0.274360 0.248705 -0.006214 -0.468010 0.000458 -0.046471 -0.214795 0.009183 0.049137 -0.235834 0.304040 -0.220989 0.040367 0.059873 -0.026384 -0.032156 0.069998 0.383985 -0.327043 0.323297 -0.133634 0.120763 -0.069592 0.022492 0.092330 0.153105 -0.192328 -0.164998 -0.186825 -0.080176 0.151607 0.686882 0.031210 0.054884 0.217309 -0.060929 0.005737 -0.180841 0.122615 -0.466741 0.049126 0.084112 -0.273753 0.150531 0.131661 -0.121372 0.338671 -0.265922 0.072900 0.260684 0.329721 0.359440 0.197665 -0.182661 0.211404 -0.040426 0.044618 0.069550 -0.129201 -0.206218 0.084669 -0.160423 0.259332 -0.061136 -0.133998 0.173397 -0.211832 0.064886 -0.189446 -0.204743 0.107171 -0.042839 0.129738
48 -0.093848 -0.269307 -0.073812 -0.298607 -0.005967 -0.121350 0.071111 0.248121 0.107782 0.078658 -0.075543 0.473858 0.116453 0.114183 -0.190339 -0.337899 -0.056968 -0.198735 0.200373 0.260874 0.202212 -0.110712 0.146097 0.257294 0.161237 0.023081 -0.428443 0.044384 -0.015846 -0.009036 0.212560 -0.143990 -0.055226 -0.342695 -0.169603 -0.216942 0.350484 0.196063 0.013970 0.171626 -0.158730 0.254035 0.287131 -0.101509 -0.238466 0.344381 0.133694 -0.055544 -0.054907 -0.180853 -0.073548 -0.074174 0.265701 -0.151166 0.060431 -0.271712 0.247456 -0.002469 -0.474939 0.001050 -0.043605 -0.212026 0.012266 0.052306 -0.236826 0.308572 -0.226973 0.039667 0.067151 -0.029575 -0.036277 0.068745 0.381728 -0.327116 0.332586 -0.130136 0.120722 -0.073137 0.026319 0.097786 0.159434 -0.190306 -0.161600 -0.188439 -0.079728 0.147223 0.694959 0.036292 0.056272 0.226092 -0.062537 0.010028 -0.185987 0.126222 -0.467857 0.045115 0.089706 -0.277758 0.158690 0.136446 -0.122055 0.336260 -0.265884 0.071674 0.259025 0.335867 0.359017 0.200337 -0.187530 0.207748 -0.047289 0.041975 0.070638 -0.129318 -0.213242 0.084893 -0.156856 0.265839 -0.058590 -0.139622 0.177718 -0.216755 0.070880 -0.188693 -0.207465 0.110849 -0.038616 0.128184
32 -0.038695 -0.124512 -0.035679 -0.130920 0.001926 -0.056497 0.038596 0.111968 0.052997 0.039553 -0.028934 0.213787 0.044636 0.052236 -0.090681 -0.147308 -0.026093 -0.084821 0.083376 0.109662 0.089968 -0.048767 0.072321 0.114320 0.061600 0.008186 -0.191038 0.028296 0.003997 0.005114 0.091922 -0.061416 -0.027485 -0.150279 -0.070572 -0.095238 0.157127 0.095818 0.011879 0.066130 -0.069781 0.116368 0.125218 -0.046549 -0.119512 0.152412 0.062709 -0.014047 -0.016992 -0.081318 -0.045811 -0.039830 0.116260 -0.069452 0.024698 -0.128485 0.119146 -0.007627 -0.215319 0.005178 -0.021350 -0.095754 0.002227 0.026685 -0.105764 0.140832 -0.100311 0.017658 0.026866 -0.017623 -0.015411 0.045442 0.172670 -0.159821 0.144233 -0.053258 0.064157 -0.031547 0.007688 0.043158 0.064080 -0.086497 -0.070752 -0.081092 -0.044660 0.077458 0.316480 0.012152 0.016970 0.098207 -0.021316 -0.001621 -0.073960 0.049139 -0.214536 0.024522 0.041074 -0.118298 0.067362 0.051412 -0.052753 0.152392 -0.129694 0.031377 0.131552 0.147462 0.175781 0.080628 -0.075879 0.096002 -0.020808 0.019350 0.028218 -0.051376 -0.087259 0.034787 -0.073807 0.126153 -0.027340 -0.062684 0.074698 -0.100565 0.033326 -0.084572 -0.084795 0.040820 -0.026997 0.059186
45 -0.036409 -0.129564 -0.037500 -0.140498 0.005470 -0.059645 0.041744 0.125046 0.061142 0.041029 -0.032458 0.226856 0.051514 0.055078 -0.097211 -0.161626 -0.026261 -0.086159 0.090174 0.118297 0.092952 -0.055918 0.081081 0.119823 0.067498 0.010141 -0.205499 0.023509 0.003432 0.010810 0.100473 -0.065224 -0.037202 -0.159008 -0.071904 -0.095435 0.160507 0.100533 0.015570 0.070974 -0.071613 0.121014 0.135698 -0.051085 -0.126516 0.158984 0.066120 -0.014808 -0.015967 -0.079043 -0.045535 -0.044419 0.121104 -0.071724 0.027037 -0.137223 0.131825 -0.007719 -0.231195 0.009546 -0.024727 -0.102699 0.004897 0.025233 -0.110986 0.153485 -0.106208 0.015752 0.026667 -0.013724 -0.010508 0.049251 0.179462 -0.171388 0.160217 -0.054151 0.071331 -0.033253 0.011050 0.049990 0.068661 -0.091413 -0.082514 -0.082192 -0.048450 0.079990 0.335567 0.011728 0.016232 0.104348 -0.023562 -0.004145 -0.083781 0.055935 -0.230694 0.029746 0.044850 -0.125923 0.078532 0.062816 -0.062787 0.163298 -0.137547 0.039454 0.136955 0.150392 0.186941 0.089752 -0.074983 0.104798 -0.023704 0.028159 0.026540 -0.055830 -0.095955 0.032122 -0.078193 0.126716 -0.033489 -0.063180 0.082472 -0.106433 0.035642 -0.091144 -0.091512 0.049930 -0.019779 0.058363
44 -0.031715 -0.107752 -0.032728 -0.119055 0.002151 -0.050698 0.032027 0.102244 0.049898 0.034898 -0.024022 0.190927 0.037279 0.045732 -0.079312 -0.132455 -0.025670 -0.078176 0.076950 0.099021 0.080181 -0.041299 0.063828 0.105288 0.060887 0.006881 -0.167775 0.024768 0.004819 0.006406 0.084548 -0.058279 -0.031933 -0.137077 -0.060390 -0.085270 0.135514 0.086034 0.010850 0.058001 -0.062264 0.106429 0.112810 -0.040866 -0.103523 0.135985 0.051699 -0.012945 -0.019181 -0.070942 -0.041306 -0.035925 0.105203 -0.064869 0.025295 -0.114680 0.110544 -0.008541 -0.190595 0.002447 -0.021155 -0.086395 0.004975 0.017022 -0.090422 0.130436 -0.092018 0.016842 0.024485 -0.011106 -0.007212 0.036995 0.153325 -0.142027 0.130805 -0.047569 0.053800 -0.032766 0.009029 0.041223 0.057030 -0.079510 -0.068266 -0.075424 -0.039487 0.062578 0.283721 0.009920 0.011108 0.089736 -0.022971 -0.003028 -0.069685 0.043581 -0.196558 0.025035 0.037781 -0.102902 0.059447 0.052425 -0.047843 0.141936 -0.112688 0.030795 0.115618 0.131872 0.158405 0.076454 -0.068731 0.084976 -0.016816 0.016549 0.019308 -0.046856 -0.081312 0.032397 -0.066656 0.107782 -0.027321 -0.056919 0.070095 -0.089554 0.028493 -0.073921 -0.075896 0.037156 -0.021851 0.048030
55 -0.035087 -0.118239 -0.029799 -0.126463 0.001271 -0.055857 0.038588 0.107912 0.054825 0.039190 -0.024772 0.205238 0.040614 0.051435 -0.088970 -0.144357 -0.025662 -0.077043 0.082969 0.104402 0.089010 -0.048078 0.070471 0.109961 0.064192 0.007577 -0.186116 0.021517 0.000788 0.008446 0.091283 -0.060742 -0.026591 -0.146737 -0.063197 -0.088919 0.144004 0.088570 0.009572 0.064221 -0.061214 0.114265 0.125183 -0.047124 -0.108118 0.150494 0.060160 -0.016715 -0.014513 -0.076570 -0.045234 -0.038983 0.116662 -0.066438 0.022250 -0.122365 0.118090 -0.005850 -0.207368 0.004399 -0.019389 -0.092825 0.006614 0.019421 -0.096656 0.139830 -0.093082 0.010816 0.027202 -0.015539 -0.012493 0.041946 0.168989 -0.147551 0.144907 -0.053095 0.061941 -0.034326 0.005652 0.045268 0.063942 -0.083906 -0.069694 -0.080780 -0.045266 0.071714 0.302350 0.008175 0.013092 0.097846 -0.018009 0.000220 -0.071538 0.045968 -0.211376 0.022511 0.036605 -0.110737 0.068728 0.053482 -0.049444 0.151349 -0.122397 0.030856 0.123891 0.140713 0.166855 0.081282 -0.066770 0.092333 -0.023407 0.025166 0.028885 -0.053543 -0.083009 0.029710 -0.067576 0.115213 -0.025781 -0.062966 0.075792 -0.090806 0.029348 -0.085882 -0.085293 0.043682 -0.022776 0.056957
43 -0.037263 -0.113318 -0.031766 -0.126161 0.004247 -0.057301 0.038291 0.110206 0.052377 0.035266 -0.024715 0.203683 0.039432 0.047825 -0.083483 -0.143880 -0.029360 -0.078411 0.079204 0.102867 0.086539 -0.048269 0.074282 0.106931 0.059703 0.011254 -0.181734 0.024937 0.001929 0.007979 0.092135 -0.054910 -0.031984 -0.139621 -0.061767 -0.088691 0.146193 0.088232 0.015639 0.067777 -0.058824 0.110359 0.124266 -0.042804 -0.114968 0.144099 0.061216 -0.018227 -0.018210 -0.076603 -0.040722 -0.037075 0.112661 -0.064917 0.022445 -0.121553 0.119155 -0.004736 -0.209541 0.004666 -0.021569 -0.088434 0.002374 0.025177 -0.099716 0.133943 -0.090877 0.011885 0.025611 -0.012803 -0.007791 0.043805 0.166917 -0.152171 0.140112 -0.055979 0.062377 -0.033709 0.005441 0.043506 0.065117 -0.078808 -0.071339 -0.074520 -0.043088 0.069532 0.301599 0.014638 0.015946 0.096093 -0.018901 -0.000908 -0.071244 0.052630 -0.207628 0.025097 0.037161 -0.113187 0.067649 0.055229 -0.049226 0.150185 -0.121109 0.030236 0.124943 0.135115 0.169038 0.079361 -0.065547 0.087042 -0.020395 0.022171 0.022859 -0.050750 -0.089229 0.028633 -0.072078 0.115985 -0.027850 -0.058284 0.074352 -0.096233 0.030493 -0.081859 -0.083871 0.042634 -0.018430 0.053479
74 -0.044163 -0.140715 -0.038836 -0.155965 0.002255 -0.059856 0.038877 0.134184 0.060278 0.040173 -0.028420 0.245570 0.047771 0.062711 -0.102345 -0.176190 -0.026424 -0.094534 0.103968 0.122592 0.099204 -0.059524 0.084119 0.137422 0.071644 0.013332 -0.219717 0.029488 0.005713 0.007805 0.110437 -0.067516 -0.039363 -0.171951 -0.076220 -0.110565 0.176970 0.103036 0.014309 0.084500 -0.080633 0.134759 0.143889 -0.051031 -0.130515 0.175907 0.067681 -0.022804 -0.018216 -0.091502 -0.050176 -0.047767 0.133365 -0.078864 0.032092 -0.140026 0.138781 -0.004555 -0.250950 0.008402 -0.028109 -0.114615 0.009080 0.024381 -0.121594 0.162825 -0.109793 0.012151 0.027384 -0.019767 -0.011354 0.046347 0.200469 -0.184455 0.172838 -0.064868 0.076421 -0.040088 0.011762 0.047600 0.073998 -0.099826 -0.090217 -0.089862 -0.049971 0.080659 0.358948 0.018100 0.017779 0.117126 -0.023386 -0.004231 -0.087042 0.057090 -0.252798 0.028499 0.050163 -0.134857 0.085814 0.061369 -0.062155 0.174420 -0.143752 0.037103 0.149836 0.167078 0.193725 0.098980 -0.087841 0.106541 -0.029325 0.023254 0.035199 -0.065604 -0.103779 0.036085 -0.087429 0.137470 -0.033794 -0.074757 0.082639 -0.113163 0.039538 -0.095734 -0.105126 0.049343 -0.026493 0.062532
75 -0.034864 -0.131410 -0.036536 -0.147494 0.002274 -0.057220 0.041010 0.123134 0.057077 0.039599 -0.024161 0.225762 0.046742 0.057149 -0.099686 -0.164792 -0.026821 -0.092434 0.096317 0.121963 0.098666 -0.058364 0.077562 0.124530 0.069139 0.005100 -0.208554 0.030222 0.004170 0.005356 0.099321 -0.063428 -0.034551 -0.161150 -0.073492 -0.103085 0.170526 0.100520 0.013943 0.076861 -0.070709 0.120827 0.139056 -0.050727 -0.123516 0.166091 0.068705 -0.017630 -0.015045 -0.081793 -0.048535 -0.044203 0.127521 -0.078176 0.033761 -0.133322 0.129962 -0.004712 -0.232479 0.007359 -0.026646 -0.105018 0.009775 0.021409 -0.114133 0.156278 -0.102263 0.011098 0.028059 -0.017975 -0.009607 0.041627 0.187936 -0.173446 0.162118 -0.061807 0.066098 -0.032203 0.009591 0.044808 0.072925 -0.088446 -0.084386 -0.086337 -0.046921 0.079864 0.345389 0.016445 0.018654 0.105634 -0.026945 -0.000453 -0.084868 0.054261 -0.239480 0.024707 0.044007 -0.126446 0.079648 0.060388 -0.059221 0.165492 -0.137898 0.038266 0.135498 0.156846 0.189071 0.087949 -0.082912 0.099580 -0.024529 0.027154 0.033019 -0.058858 -0.096009 0.033009 -0.080804 0.132940 -0.036294 -0.063369 0.077062 -0.108014 0.039758 -0.092494 -0.093884 0.051307 -0.023722 0.060761
53 -0.045374 -0.149407 -0.045045 -0.164420 0.007966 -0.069230 0.040899 0.144368 0.062189 0.044948 -0.037494 0.264857 0.051425 0.057567 -0.116435 -0.183917 -0.028900 -0.098451 0.105293 0.137205 0.116225 -0.062209 0.089480 0.140324 0.078649 0.005946 -0.230132 0.027544 0.002427 0.003546 0.115943 -0.076832 -0.043599 -0.190290 -0.087673 -0.114528 0.191757 0.112579 0.017631 0.085993 -0.084440 0.146902 0.151420 -0.056751 -0.149064 0.184140 0.076056 -0.016900 -0.019753 -0.098553 -0.052823 -0.056045 0.149388 -0.081025 0.038991 -0.161276 0.146732 -0.012033 -0.267498 0.009873 -0.028317 -0.115716 0.008950 0.026252 -0.129727 0.176098 -0.116589 0.017135 0.030453 -0.022528 -0.011468 0.054909 0.208851 -0.191682 0.185109 -0.067255 0.077598 -0.045454 0.010625 0.051201 0.080417 -0.108216 -0.097345 -0.097404 -0.050089 0.096427 0.389421 0.013415 0.024499 0.124189 -0.029982 -0.007509 -0.091041 0.061568 -0.266153 0.030538 0.051320 -0.146081 0.088349 0.063170 -0.070245 0.190908 -0.154999 0.045886 0.162816 0.177904 0.214519 0.096892 -0.088804 0.114079 -0.029598 0.025654 0.031958 -0.068023 -0.110951 0.042248 -0.085204 0.147833 -0.032351 -0.072019 0.092854 -0.119746 0.035354 -0.112695 -0.107636 0.052211 -0.023171 0.064369
40 -0.046720 -0.137840 -0.038707 -0.148717 0.006816 -0.063608 0.037971 0.134118 0.059828 0.038614 -0.029127 0.240375 0.049955 0.052327 -0.107954 -0.174333 -0.030444 -0.097554 0.095856 0.122112 0.107437 -0.057659 0.089225 0.132833 0.070835 0.008976 -0.219012 0.023231 -0.001700 0.003371 0.106029 -0.069502 -0.038926 -0.169265 -0.077854 -0.110167 0.172110 0.109538 0.016223 0.079553 -0.079898 0.133215 0.144653 -0.048352 -0.136465 0.168849 0.068555 -0.021930 -0.017229 -0.086493 -0.052272 -0.051649 0.131349 -0.078598 0.035342 -0.149182 0.135548 -0.009212 -0.242999 0.005443 -0.024155 -0.104449 0.002635 0.024024 -0.118255 0.161594 -0.113646 0.014784 0.033200 -0.015410 -0.016866 0.048479 0.195428 -0.183138 0.168603 -0.066457 0.073951 -0.037935 0.005383 0.046658 0.075421 -0.097768 -0.086234 -0.095794 -0.044808 0.089453 0.362274 0.008169 0.016448 0.118880 -0.030774 -0.009101 -0.087332 0.058095 -0.243529 0.032896 0.048329 -0.138036 0.082339 0.060876 -0.058356 0.173835 -0.139117 0.038778 0.150317 0.162767 0.201944 0.091623 -0.084502 0.105454 -0.025697 0.022685 0.028054 -0.061071 -0.100843 0.036457 -0.079613 0.137835 -0.031084 -0.072257 0.090181 -0.107941 0.034853 -0.103922 -0.103113 0.054709 -0.022952 0.060032
73 -0.030101 -0.085146 -0.022209 -0.096522 0.004926 -0.040592 0.028478 0.083663 0.033605 0.023196 -0.022805 0.151184 0.033204 0.038221 -0.064822 -0.109955 -0.020898 -0.062349 0.059216 0.076199 0.066336 -0.037694 0.052273 0.079704 0.044836 0.006235 -0.134742 0.020964 0.004144 0.001494 0.064252 -0.045546 -0.019550 -0.111037 -0.051199 -0.070469 0.108992 0.063877 0.006337 0.046365 -0.050676 0.079501 0.094058 -0.032494 -0.084897 0.111563 0.045485 -0.013070 -0.010716 -0.055586 -0.033779 -0.028788 0.085570 -0.047405 0.018652 -0.092475 0.085518 -0.004041 -0.151289 0.006414 -0.018254 -0.071312 0.007076 0.013828 -0.075653 0.103886 -0.071862 0.009608 0.019218 -0.009749 -0.005721 0.031496 0.123753 -0.108189 0.107567 -0.043020 0.045666 -0.026760 0.010164 0.032532 0.049408 -0.064533 -0.051221 -0.059480 -0.028089 0.049731 0.221852 0.007180 0.015796 0.072652 -0.017062 -0.002680 -0.056686 0.036673 -0.155870 0.020262 0.031437 -0.086211 0.053373 0.039617 -0.041431 0.109676 -0.092982 0.022225 0.093764 0.102800 0.122265 0.059417 -0.053195 0.063528 -0.016094 0.014811 0.020411 -0.039590 -0.066004 0.022851 -0.054567 0.091279 -0.018343 -0.044399 0.057347 -0.066867 0.021978 -0.062516 -0.059832 0.032584 -0.013156 0.042475
13 -0.030073 -0.108818 -0.027106 -0.120444 -0.000622 -0.052491 0.033478 0.100294 0.051086 0.037912 -0.027103 0.189068 0.044209 0.040774 -0.081963 -0.135343 -0.028775 -0.076509 0.077384 0.096367 0.085287 -0.046812 0.065564 0.107170 0.055146 0.009310 -0.166570 0.023772 0.003796 0.007389 0.081458 -0.054293 -0.030428 -0.139687 -0.062570 -0.089775 0.143557 0.086888 0.012048 0.060997 -0.058414 0.103682 0.113830 -0.038252 -0.105447 0.141165 0.055330 -0.012621 -0.016176 -0.068525 -0.043473 -0.035638 0.108447 -0.061444 0.022478 -0.115675 0.104903 -0.009049 -0.191764 0.003300 -0.018060 -0.087160 0.003468 0.018536 -0.089504 0.124885 -0.089928 0.011846 0.026627 -0.016136 -0.013713 0.036145 0.155397 -0.145241 0.133576 -0.053394 0.056948 -0.030269 0.004805 0.035798 0.058218 -0.080245 -0.067513 -0.076683 -0.044293 0.067246 0.287014 0.009378 0.012444 0.094385 -0.016036 -0.005617 -0.070976 0.043642 -0.195507 0.020726 0.036097 -0.109746 0.060810 0.050886 -0.046307 0.139534 -0.114654 0.030065 0.115339 0.125721 0.158310 0.072605 -0.066362 0.081667 -0.015765 0.018961 0.023842 -0.046812 -0.085525 0.026436 -0.069230 0.114854 -0.027114 -0.056988 0.070051 -0.085134 0.033961 -0.078314 -0.080436 0.042877 -0.019079 0.054058
34 -0.026817 -0.081507 -0.018505 -0.083229 0.004757 -0.039002 0.027566 0.074066 0.032514 0.024824 -0.021970 0.138731 0.031025 0.032439 -0.061907 -0.100251 -0.013656 -0.053811 0.059673 0.074361 0.058992 -0.033854 0.052920 0.073668 0.043002 0.001777 -0.122112 0.014565 0.000507 0.006497 0.065301 -0.039848 -0.023466 -0.098200 -0.043908 -0.059128 0.105127 0.062522 0.008987 0.047605 -0.045523 0.079236 0.086464 -0.028449 -0.077226 0.096873 0.042025 -0.013821 -0.008567 -0.047878 -0.027137 -0.026104 0.079388 -0.043016 0.015221 -0.086537 0.078941 -0.003830 -0.141276 0.003410 -0.016649 -0.060773 -0.000657 0.015778 -0.067238 0.091363 -0.066551 0.006078 0.021051 -0.009426 -0.009718 0.026868 0.109736 -0.100315 0.096772 -0.037162 0.038655 -0.017488 0.006381 0.030297 0.039539 -0.057758 -0.047703 -0.056065 -0.025887 0.051436 0.206047 0.008767 0.008750 0.067921 -0.018092 -0.001651 -0.050753 0.033438 -0.143581 0.018719 0.024680 -0.074594 0.044551 0.035876 -0.037176 0.105104 -0.082785 0.018917 0.080464 0.094515 0.115944 0.053761 -0.049070 0.063443 -0.012408 0.015172 0.017622 -0.032497 -0.059804 0.020539 -0.046807 0.083980 -0.020943 -0.037150 0.049348 -0.064911 0.023774 -0.056921 -0.061131 0.032067 -0.011971 0.037955
57 -0.024899 -0.086374 -0.026875 -0.097345 0.003602 -0.038807 0.024388 0.081459 0.039149 0.027324 -0.019637 0.150818 0.034183 0.036242 -0.067103 -0.111600 -0.021120 -0.059586 0.061075 0.078092 0.062714 -0.036574 0.056287 0.081548 0.044659 0.007804 -0.137830 0.021852 0.003645 0.003300 0.063785 -0.041155 -0.023473 -0.107033 -0.049405 -0.064229 0.106925 0.064281 0.007910 0.052449 -0.044840 0.082202 0.091477 -0.033841 -0.083727 0.111974 0.045119 -0.013016 -0.010789 -0.053504 -0.035136 -0.028778 0.081847 -0.050426 0.017340 -0.093109 0.087407 -0.000772 -0.153913 0.007078 -0.018748 -0.064549 -0.000675 0.017509 -0.071637 0.099262 -0.070736 0.008377 0.017811 -0.010792 -0.005175 0.031761 0.126245 -0.115687 0.108988 -0.042155 0.047402 -0.023106 0.009433 0.033379 0.047631 -0.057036 -0.050977 -0.055978 -0.028360 0.054692 0.226250 0.005694 0.010216 0.073765 -0.013145 -0.000555 -0.058285 0.038930 -0.158994 0.018678 0.029444 -0.083414 0.052763 0.037612 -0.037068 0.112480 -0.093110 0.021283 0.090969 0.106497 0.126325 0.062955 -0.052796 0.068910 -0.013196 0.016572 0.014922 -0.037030 -0.065807 0.023850 -0.049436 0.085078 -0.022276 -0.044372 0.055283 -0.071598 0.020828 -0.062231 -0.060830 0.029505 -0.014566 0.038798
46 -0.044131 -0.136549 -0.033095 -0.141326 0.004569 -0.058701 0.043285 0.127747 0.055625 0.042476 -0.027217 0.236805 0.046955 0.058860 -0.102664 -0.168941 -0.027593 -0.091917 0.094064 0.122068 0.095579 -0.057651 0.083125 0.131143 0.073704 0.004932 -0.212840 0.024832 0.004236 0.005439 0.101674 -0.067743 -0.038173 -0.163133 -0.075957 -0.105060 0.168959 0.100302 0.018078 0.078309 -0.074236 0.125504 0.144517 -0.049938 -0.132887 0.170950 0.067331 -0.018386 -0.022243 -0.088122 -0.044847 -0.044784 0.127215 -0.075275 0.025484 -0.136845 0.135468 -0.007403 -0.242481 0.006307 -0.024615 -0.108332 0.001606 0.023631 -0.116393 0.156590 -0.109446 0.014141 0.031308 -0.018360 -0.016351 0.045078 0.187914 -0.173182 0.166680 -0.059238 0.068399 -0.037242 0.008212 0.044195 0.074675 -0.095938 -0.086412 -0.091706 -0.045727 0.079478 0.347791 0.014012 0.015740 0.114691 -0.020975 -0.003625 -0.082733 0.061533 -0.237433 0.029562 0.043623 -0.127322 0.075801 0.062656 -0.064973 0.167774 -0.142358 0.036365 0.140121 0.157503 0.191478 0.093601 -0.077479 0.107727 -0.025488 0.029154 0.030871 -0.058383 -0.103702 0.032434 -0.078490 0.132441 -0.037996 -0.067799 0.079980 -0.111460 0.039689 -0.092385 -0.093443 0.047306 -0.027201 0.060730
9 -0.033834 -0.108574 -0.031900 -0.117909 0.002773 -0.051047 0.032986 0.107193 0.050575 0.030977 -0.023002 0.194498 0.040723 0.038837 -0.083013 -0.138012 -0.026230 -0.072295 0.075995 0.098670 0.076869 -0.040469 0.072255 0.101262 0.056026 0.009457 -0.173293 0.018335 0.003263 0.009106 0.084856 -0.054128 -0.034355 -0.135605 -0.059985 -0.087518 0.144233 0.083045 0.008249 0.065947 -0.061309 0.098884 0.119494 -0.035399 -0.108797 0.134125 0.055055 -0.020276 -0.017839 -0.074358 -0.040810 -0.037789 0.102443 -0.059671 0.024140 -0.115401 0.107798 -0.004052 -0.196507 0.006264 -0.020575 -0.086429 0.001108 0.022646 -0.090478 0.127383 -0.087090 0.013655 0.020869 -0.016721 -0.008094 0.040311 0.159055 -0.143840 0.136822 -0.051467 0.058155 -0.026258 0.004860 0.040706 0.060461 -0.078365 -0.073075 -0.076862 -0.039344 0.066910 0.283008 0.011190 0.014553 0.090968 -0.017510 -0.003913 -0.065184 0.049909 -0.197988 0.020356 0.035813 -0.107289 0.062793 0.055059 -0.053299 0.135361 -0.115631 0.029457 0.115067 0.129135 0.154805 0.080808 -0.070939 0.080464 -0.015871 0.021238 0.027670 -0.051159 -0.082824 0.027496 -0.068984 0.115066 -0.030636 -0.052996 0.065865 -0.091918 0.028632 -0.079902 -0.082545 0.044297 -0.016463 0.053860
31 -0.026002 -0.090361 -0.020979 -0.096468 -0.000619 -0.046801 0.026444 0.082803 0.038208 0.030406 -0.017633 0.164274 0.039503 0.033958 -0.069154 -0.116402 -0.025103 -0.061552 0.067769 0.083599 0.069329 -0.041165 0.054620 0.091462 0.051146 0.009114 -0.141074 0.021018 0.002080 0.005536 0.067626 -0.043147 -0.027480 -0.112115 -0.050771 -0.070297 0.116175 0.069361 0.012596 0.048720 -0.050645 0.089262 0.094722 -0.035854 -0.089210 0.115702 0.042531 -0.014437 -0.013000 -0.057423 -0.037184 -0.028759 0.089664 -0.055758 0.022320 -0.096839 0.091392 -0.007444 -0.166358 0.000755 -0.013514 -0.074403 0.001741 0.014722 -0.079800 0.105529 -0.077346 0.009234 0.018006 -0.010172 -0.009687 0.029073 0.130874 -0.119274 0.113356 -0.041698 0.051616 -0.025517 0.010533 0.034556 0.050550 -0.065903 -0.057589 -0.064530 -0.032825 0.055948 0.234369 0.006080 0.013689 0.072829 -0.020765 0.000904 -0.053727 0.038375 -0.168002 0.019631 0.028019 -0.089177 0.053159 0.045004 -0.045525 0.116502 -0.094683 0.022594 0.095264 0.109881 0.131081 0.064660 -0.053783 0.071921 -0.019696 0.012655 0.018708 -0.043809 -0.067568 0.027722 -0.059048 0.097043 -0.026656 -0.043623 0.055800 -0.075154 0.022703 -0.070572 -0.067269 0.035799 -0.020703 0.042685
68 -0.022797 -0.061731 -0.015819 -0.069815 0.004457 -0.028471 0.021915 0.060638 0.026894 0.018400 -0.016942 0.117100 0.026207 0.024915 -0.047096 -0.079643 -0.017695 -0.044305 0.047721 0.061140 0.047035 -0.025706 0.039909 0.065674 0.033365 0.003663 -0.105800 0.013845 0.002463 0.003914 0.052570 -0.033260 -0.016624 -0.079444 -0.034784 -0.051567 0.080869 0.051842 0.008828 0.038151 -0.032381 0.065421 0.067445 -0.027884 -0.059662 0.080279 0.034734 -0.006862 -0.012207 -0.038295 -0.023686 -0.024988 0.061241 -0.037340 0.012385 -0.065496 0.064545 -0.006124 -0.115259 0.004723 -0.009899 -0.054167 0.006338 0.013471 -0.052254 0.079287 -0.054958 0.006998 0.018055 -0.005300 -0.009518 0.018380 0.092452 -0.087846 0.077630 -0.028115 0.037731 -0.017937 0.001277 0.024092 0.034807 -0.041770 -0.043398 -0.042410 -0.020939 0.040145 0.169780 0.003995 0.011847 0.056916 -0.008861 -0.001243 -0.042654 0.031471 -0.117738 0.013146 0.020905 -0.064348 0.036412 0.029609 -0.029863 0.080624 -0.069043 0.020111 0.067400 0.077509 0.094594 0.042788 -0.042608 0.054621 -0.011563 0.015893 0.010882 -0.026287 -0.047686 0.018278 -0.037343 0.065123 -0.017778 -0.031833 0.036264 -0.048071 0.021726 -0.044128 -0.044493 0.026840 -0.014275 0.032058
5 -0.027119 -0.094675 -0.027758 -0.098378 0.004630 -0.043874 0.030822 0.083346 0.043282 0.024746 -0.017215 0.162449 0.030974 0.037326 -0.066104 -0.117009 -0.022335 -0.066038 0.064101 0.083606 0.069520 -0.034144 0.053261 0.091316 0.050026 0.003429 -0.143382 0.015069 0.001632 0.004591 0.067625 -0.048662 -0.027678 -0.111011 -0.050494 -0.074712 0.118106 0.070900 0.008543 0.052708 -0.046038 0.085052 0.095018 -0.033163 -0.090391 0.114706 0.046135 -0.014927 -0.013149 -0.060687 -0.033215 -0.028573 0.091106 -0.055001 0.021066 -0.097190 0.092905 -0.005188 -0.159983 0.002482 -0.018746 -0.074273 0.005696 0.020263 -0.080101 0.107717 -0.070704 0.010725 0.020565 -0.015721 -0.010451 0.031202 0.127411 -0.121668 0.112044 -0.044818 0.047198 -0.027920 0.003352 0.028645 0.045967 -0.064031 -0.058726 -0.061485 -0.034225 0.051978 0.238722 0.012360 0.015549 0.075061 -0.013781 -0.003740 -0.056021 0.040150 -0.166533 0.020526 0.025583 -0.091797 0.056289 0.046974 -0.045192 0.115758 -0.096052 0.020636 0.092274 0.107003 0.131280 0.064031 -0.059107 0.068899 -0.018129 0.017259 0.021529 -0.044223 -0.070902 0.028263 -0.051297 0.093482 -0.020560 -0.044953 0.056236 -0.072576 0.026069 -0.070144 -0.070123 0.036282 -0.016730 0.046943
1 -0.032011 -0.098700 -0.021158 -0.104580 0.004474 -0.048328 0.028524 0.094342 0.044409 0.027844 -0.022463 0.165608 0.036987 0.035411 -0.073464 -0.121833 -0.019167 -0.066714 0.071025 0.082056 0.071306 -0.038456 0.060633 0.092680 0.050570 0.006736 -0.146709 0.023006 0.005770 0.004521 0.068905 -0.047617 -0.028599 -0.115483 -0.056714 -0.077083 0.118761 0.070789 0.014317 0.050801 -0.052833 0.086205 0.105082 -0.031408 -0.094166 0.115918 0.045301 -0.015059 -0.010060 -0.058187 -0.037186 -0.030593 0.089809 -0.048676 0.015050 -0.098692 0.095330 -0.000143 -0.172905 0.009564 -0.016273 -0.078856 0.000199 0.018005 -0.083368 0.113626 -0.076149 0.013416 0.015973 -0.014549 -0.008177 0.029265 0.139165 -0.124635 0.113601 -0.045716 0.056149 -0.028292 0.008610 0.029682 0.048533 -0.070558 -0.060735 -0.066543 -0.034787 0.055716 0.245218 0.008562 0.016977 0.078871 -0.016142 -0.002463 -0.059076 0.040110 -0.172533 0.020264 0.028981 -0.095931 0.057926 0.047416 -0.045852 0.123410 -0.095883 0.023994 0.102084 0.115501 0.139618 0.069335 -0.059370 0.073657 -0.017957 0.016147 0.021893 -0.039870 -0.073444 0.023626 -0.054302 0.099227 -0.028342 -0.050463 0.057861 -0.075919 0.023039 -0.069736 -0.071093 0.034743 -0.015890 0.046197
10 -0.030973 -0.106269 -0.029830 -0.113253 0.003790 -0.046121 0.034481 0.101546 0.049234 0.028681 -0.021213 0.187958 0.037324 0.044959 -0.081245 -0.129448 -0.022764 -0.070538 0.073680 0.095871 0.080529 -0.044024 0.067257 0.105776 0.054891 0.006348 -0.165057 0.018632 0.002654 0.004227 0.078135 -0.058815 -0.028593 -0.127800 -0.065115 -0.084038 0.139383 0.077457 0.008561 0.058079 -0.059140 0.098280 0.116585 -0.034847 -0.099494 0.136795 0.056641 -0.017361 -0.011005 -0.071480 -0.037390 -0.036263 0.105302 -0.061184 0.020307 -0.108216 0.107515 -0.007819 -0.192934 0.009473 -0.018534 -0.084049 0.000553 0.021505 -0.089425 0.126278 -0.088115 0.011090 0.018795 -0.018142 -0.007207 0.032788 0.155068 -0.138499 0.133043 -0.046967 0.057964 -0.030763 0.004617 0.037354 0.052549 -0.077186 -0.066617 -0.068983 -0.040421 0.065999 0.272049 0.007709 0.016271 0.085249 -0.015681 -0.002132 -0.063397 0.048202 -0.190627 0.025311 0.033035 -0.107327 0.062247 0.053320 -0.049725 0.133204 -0.109446 0.029657 0.109512 0.124725 0.155103 0.077980 -0.067603 0.083631 -0.015196 0.016275 0.025522 -0.049398 -0.078377 0.029214 -0.062798 0.111277 -0.028674 -0.057278 0.065359 -0.087830 0.029288 -0.077876 -0.073932 0.038689 -0.019019 0.051327
51 -0.028557 -0.094639 -0.026643 -0.102016 0.000777 -0.044126 0.027809 0.087185 0.043285 0.032855 -0.020183 0.167166 0.035025 0.037886 -0.072565 -0.119133 -0.020939 -0.062418 0.065847 0.082588 0.069374 -0.041667 0.060672 0.088981 0.053033 0.007776 -0.148706 0.018011 0.006148 0.008731 0.072579 -0.047538 -0.024080 -0.117222 -0.054910 -0.074614 0.125413 0.072559 0.006861 0.057434 -0.051760 0.092425 0.096734 -0.038478 -0.091362 0.122725 0.050503 -0.014269 -0.010729 -0.061508 -0.035829 -0.035057 0.096016 -0.059663 0.019216 -0.101837 0.097309 -0.009170 -0.168455 0.005975 -0.014778 -0.076200 0.001157 0.021939 -0.080374 0.115892 -0.079448 0.013568 0.019106 -0.011701 -0.007867 0.031632 0.136178 -0.127056 0.117466 -0.045397 0.053161 -0.026399 0.003942 0.030649 0.053170 -0.067708 -0.058210 -0.068279 -0.032464 0.059477 0.247061 0.010672 0.009686 0.078633 -0.021108 0.001069 -0.057939 0.041492 -0.174650 0.015974 0.028176 -0.092453 0.053454 0.046074 -0.042286 0.125090 -0.098793 0.028095 0.100610 0.110204 0.139740 0.069360 -0.058094 0.073887 -0.015694 0.019649 0.017738 -0.040889 -0.068557 0.028580 -0.055904 0.098964 -0.025421 -0.047166 0.062031 -0.078617 0.024761 -0.070834 -0.067797 0.038378 -0.017954 0.043413
54 -0.021742 -0.063712 -0.013302 -0.062671 -0.001533 -0.030134 0.018023 0.053347 0.028066 0.015683 -0.016876 0.103382 0.024805 0.026630 -0.047395 -0.073382 -0.015646 -0.043188 0.045468 0.051971 0.043432 -0.025026 0.039027 0.061090 0.032761 0.000250 -0.096355 0.011441 -0.000538 -0.000025 0.046236 -0.027529 -0.016505 -0.078010 -0.031968 -0.046371 0.075040 0.047330 0.009893 0.034182 -0.032862 0.056501 0.063829 -0.021509 -0.057124 0.077332 0.027315 -0.009870 -0.006828 -0.037203 -0.025726 -0.021177 0.061991 -0.035216 0.013171 -0.065537 0.060277 -0.001642 -0.106434 0.004673 -0.013238 -0.047013 0.000376 0.010040 -0.052483 0.068322 -0.048377 0.004134 0.014716 -0.003902 -0.002158 0.020557 0.086075 -0.074778 0.073773 -0.025192 0.029718 -0.016361 0.003701 0.020540 0.031795 -0.042279 -0.038995 -0.044042 -0.020686 0.033416 0.155561 0.004124 0.006539 0.050818 -0.007426 -0.001815 -0.040556 0.025558 -0.105305 0.015221 0.016144 -0.061748 0.036950 0.026017 -0.026914 0.074196 -0.059159 0.015327 0.062006 0.069283 0.089778 0.044806 -0.039914 0.050962 -0.014122 0.010791 0.013288 -0.025380 -0.048364 0.013169 -0.034053 0.059137 -0.013416 -0.030407 0.036887 -0.045781 0.015714 -0.045505 -0.044038 0.023075 -0.006439 0.028526
41 -0.023510 -0.068183 -0.016040 -0.069396 0.003535 -0.030702 0.021835 0.059836 0.030356 0.016764 -0.014558 0.116097 0.022214 0.028227 -0.047758 -0.077397 -0.014954 -0.044601 0.047772 0.060852 0.047716 -0.031366 0.038625 0.061672 0.036255 0.006240 -0.105979 0.014371 0.001310 0.002589 0.048955 -0.029662 -0.020706 -0.080134 -0.037995 -0.049264 0.084880 0.048444 0.003418 0.037153 -0.033243 0.060281 0.069001 -0.027832 -0.062004 0.084733 0.035368 -0.005451 -0.008516 -0.044658 -0.023040 -0.023422 0.061164 -0.041370 0.017761 -0.069651 0.066826 -0.000236 -0.115836 -0.000509 -0.011347 -0.050185 0.003875 0.015729 -0.054356 0.077375 -0.056871 0.007034 0.015916 -0.006261 -0.004796 0.019844 0.094578 -0.083335 0.077653 -0.032028 0.036728 -0.017481 0.004600 0.026798 0.037031 -0.047462 -0.041680 -0.044344 -0.020069 0.036306 0.168956 0.006928 0.009434 0.052598 -0.013776 -0.001957 -0.040462 0.025983 -0.118774 0.015641 0.019842 -0.060161 0.039338 0.033342 -0.032806 0.080529 -0.064988 0.015955 0.072467 0.078882 0.093072 0.043822 -0.042844 0.052102 -0.011491 0.010716 0.011091 -0.031825 -0.052779 0.015371 -0.043190 0.066636 -0.015705 -0.034248 0.037899 -0.055334 0.018438 -0.043248 -0.049317 0.023425 -0.009471 0.027122
7 -0.017536 -0.068901 -0.021500 -0.075324 -0.001984 -0.029708 0.021649 0.065812 0.033777 0.020201 -0.017484 0.121191 0.026638 0.024178 -0.049087 -0.085289 -0.014388 -0.047629 0.046545 0.061067 0.052055 -0.030073 0.043316 0.069066 0.039736 0.001972 -0.111353 0.012063 -0.000672 0.002480 0.055518 -0.032414 -0.021277 -0.089370 -0.041887 -0.054392 0.086065 0.048691 0.005636 0.036788 -0.041064 0.066530 0.074744 -0.022843 -0.066188 0.088938 0.036013 -0.010412 -0.006784 -0.044013 -0.027492 -0.020743 0.066652 -0.036224 0.011813 -0.069955 0.069546 -0.005947 -0.120209 0.007974 -0.011674 -0.054129 0.003440 0.015029 -0.059614 0.082434 -0.054635 0.012813 0.014858 -0.012066 -0.008143 0.026369 0.094880 -0.087989 0.084816 -0.031028 0.035932 -0.016441 0.004817 0.021997 0.037373 -0.045784 -0.043821 -0.042776 -0.025549 0.039166 0.175969 0.007630 0.007554 0.059799 -0.009038 -0.002318 -0.040462 0.028423 -0.124499 0.016947 0.024844 -0.070949 0.036837 0.033288 -0.032730 0.089413 -0.074897 0.017264 0.071605 0.078505 0.095530 0.048882 -0.038828 0.054216 -0.010275 0.016284 0.013579 -0.034515 -0.054263 0.018093 -0.042268 0.067914 -0.021150 -0.031421 0.041393 -0.052763 0.021881 -0.048758 -0.052821 0.023788 -0.008753 0.036165
6 -0.022935 -0.081828 -0.020204 -0.083312 0.002866 -0.036853 0.027110 0.080813 0.034546 0.023768 -0.015796 0.141098 0.028122 0.029600 -0.059217 -0.102054 -0.019306 -0.058187 0.059215 0.068779 0.058483 -0.035083 0.050419 0.074702 0.045240 0.002879 -0.126343 0.013316 0.004389 0.009504 0.062227 -0.045559 -0.022487 -0.099232 -0.045791 -0.063358 0.105515 0.065209 0.005654 0.042601 -0.044476 0.077893 0.091162 -0.030605 -0.083073 0.102524 0.043241 -0.016445 -0.007908 -0.049417 -0.029166 -0.027173 0.074276 -0.044218 0.017910 -0.086902 0.081711 -0.004762 -0.143064 0.003560 -0.011654 -0.061290 0.002856 0.015922 -0.067814 0.092892 -0.068609 0.010376 0.013674 -0.015762 -0.004696 0.027330 0.113674 -0.102919 0.101574 -0.037302 0.047695 -0.019115 0.004725 0.029801 0.039155 -0.054372 -0.050107 -0.052633 -0.025006 0.046601 0.213272 0.006279 0.010835 0.066572 -0.011404 -0.001106 -0.049015 0.036473 -0.147093 0.019109 0.026147 -0.083350 0.049509 0.037525 -0.034193 0.101370 -0.083408 0.021814 0.083165 0.098325 0.116495 0.060895 -0.047147 0.060524 -0.011059 0.017351 0.017043 -0.034550 -0.060407 0.025253 -0.047313 0.081184 -0.021444 -0.042532 0.050398 -0.068843 0.025015 -0.064213 -0.062787 0.031364 -0.008559 0.035134
12 -0.018476 -0.051368 -0.012691 -0.054862 -0.000906 -0.023870 0.012133 0.041753 0.018985 0.017664 -0.007318 0.088119 0.016737 0.022244 -0.035833 -0.056676 -0.014113 -0.031732 0.036905 0.039291 0.036987 -0.016956 0.031359 0.043654 0.021786 0.001476 -0.073330 0.010787 0.001240 0.002409 0.038949 -0.022821 -0.016749 -0.059089 -0.025503 -0.034412 0.059931 0.039285 0.005111 0.029441 -0.026062 0.045659 0.052512 -0.019390 -0.047280 0.064286 0.025922 -0.007542 -0.009765 -0.032225 -0.019265 -0.014739 0.045616 -0.031451 0.007390 -0.053568 0.048808 -0.001912 -0.085727 0.004366 -0.006180 -0.036324 -0.000829 0.011079 -0.043823 0.057051 -0.036779 0.005215 0.013960 -0.002306 -0.000685 0.018878 0.069492 -0.061398 0.059113 -0.022337 0.029066 -0.009697 0.003696 0.021097 0.025000 -0.032491 -0.033004 -0.033822 -0.020278 0.032609 0.124232 0.003921 0.003968 0.036948 -0.009208 0.000891 -0.031883 0.019541 -0.084112 0.007613 0.018745 -0.050488 0.029409 0.022000 -0.025423 0.058409 -0.049714 0.014139 0.051409 0.052933 0.069451 0.032405 -0.025165 0.034261 -0.011825 0.008770 0.010167 -0.019056 -0.034583 0.015914 -0.030539 0.051583 -0.015764 -0.027644 0.028508 -0.040424 0.015123 -0.031557 -0.036377 0.018014 -0.012379 0.022413
15 -0.025742 -0.075425 -0.016458 -0.082227 0.002498 -0.030401 0.024066 0.065194 0.032888 0.021426 -0.014510 0.126984 0.027546 0.032050 -0.053346 -0.092003 -0.018847 -0.052034 0.049254 0.062136 0.057207 -0.029097 0.045884 0.070890 0.036092 0.005078 -0.116946 0.014665 0.002457 0.001380 0.053801 -0.035190 -0.016267 -0.091830 -0.041100 -0.056900 0.091134 0.055758 0.011635 0.043247 -0.042635 0.069370 0.075608 -0.027247 -0.067587 0.095666 0.032296 -0.010683 -0.010243 -0.048158 -0.027443 -0.025097 0.070329 -0.040476 0.013602 -0.079681 0.069058 -0.007811 -0.128884 0.007208 -0.010468 -0.054677 0.003597 0.010423 -0.060523 0.089378 -0.057890 0.007896 0.019190 -0.006013 -0.005137 0.023195 0.105814 -0.098794 0.086220 -0.034757 0.040365 -0.019353 0.001044 0.022946 0.039033 -0.048361 -0.045177 -0.051788 -0.029644 0.041975 0.188266 0.003129 0.010209 0.062845 -0.011621 -0.000306 -0.042718 0.028700 -0.134071 0.017397 0.025598 -0.067235 0.044465 0.036760 -0.030027 0.093060 -0.078603 0.021610 0.079889 0.083233 0.106745 0.051285 -0.043914 0.053156 -0.012879 0.012596 0.014360 -0.035558 -0.056652 0.022985 -0.042337 0.077832 -0.021553 -0.034309 0.047955 -0.061577 0.023654 -0.049776 -0.056925 0.027141 -0.010909 0.036155
8 -0.019930 -0.071944 -0.015859 -0.072895 -0.001081 -0.030708 0.022910 0.066273 0.029599 0.023160 -0.016446 0.119811 0.022785 0.027262 -0.048326 -0.088222 -0.013054 -0.046949 0.052578 0.063568 0.049277 -0.028109 0.042214 0.062161 0.037443 0.008215 -0.107735 0.016640 0.001025 0.006682 0.051375 -0.035467 -0.018746 -0.081714 -0.041120 -0.054843 0.091453 0.051442 0.010843 0.043053 -0.037796 0.064485 0.070653 -0.021825 -0.065294 0.088583 0.031619 -0.011423 -0.011083 -0.042016 -0.026568 -0.026528 0.069807 -0.036026 0.010683 -0.071383 0.065205 -0.004098 -0.124341 0.002940 -0.015329 -0.057283 0.003279 0.014202 -0.056117 0.078131 -0.052558 0.006934 0.013938 -0.012808 -0.009074 0.021563 0.095907 -0.089390 0.083043 -0.030151 0.035134 -0.019526 0.004312 0.023754 0.038429 -0.051549 -0.045896 -0.044232 -0.027409 0.045559 0.180209 0.007356 0.011414 0.053485 -0.010335 -0.004296 -0.043815 0.028820 -0.124714 0.012224 0.020194 -0.070622 0.037378 0.029712 -0.028260 0.083620 -0.074485 0.017149 0.075090 0.077923 0.100073 0.044345 -0.043553 0.050314 -0.015602 0.014794 0.017261 -0.031245 -0.055321 0.021913 -0.042879 0.068967 -0.020111 -0.035137 0.040072 -0.059050 0.022077 -0.049482 -0.048239 0.022130 -0.008117 0.030151
16 -0.018223 -0.058564 -0.014915 -0.064884 0.000108 -0.028154 0.020366 0.056066 0.026599 0.018979 -0.015399 0.106179 0.020697 0.027792 -0.041665 -0.076709 -0.016689 -0.045322 0.039166 0.050535 0.043529 -0.023822 0.039477 0.056126 0.033973 0.004435 -0.093032 0.011599 0.000405 -0.000118 0.043202 -0.028924 -0.017237 -0.077819 -0.033090 -0.045250 0.080319 0.042654 0.004105 0.031487 -0.034961 0.059683 0.065257 -0.021877 -0.055612 0.074072 0.031547 -0.006170 -0.011179 -0.034537 -0.018541 -0.019855 0.058898 -0.032212 0.014635 -0.061898 0.059202 -0.002094 -0.106083 0.000498 -0.008959 -0.051118 0.001018 0.007688 -0.048960 0.069610 -0.048406 0.010393 0.011459 -0.010897 -0.002858 0.016340 0.086909 -0.080400 0.076225 -0.029220 0.035190 -0.018813 0.002331 0.022435 0.035693 -0.043529 -0.037015 -0.041587 -0.020479 0.040001 0.155629 0.008870 0.010886 0.050009 -0.014015 -0.000105 -0.041749 0.027162 -0.107013 0.014941 0.022666 -0.060320 0.033637 0.024040 -0.023589 0.077981 -0.058062 0.014384 0.060678 0.068625 0.083195 0.040950 -0.033542 0.047787 -0.011989 0.014667 0.009739 -0.024927 -0.042693 0.018781 -0.037203 0.063562 -0.014351 -0.033012 0.036018 -0.046419 0.014576 -0.045241 -0.041022 0.024253 -0.009279 0.031670
14 -0.019016 -0.059090 -0.011243 -0.064564 0.002656 -0.025135 0.014505 0.051880 0.023257 0.020194 -0.016970 0.100746 0.020203 0.023260 -0.042206 -0.068599 -0.010428 -0.039009 0.041781 0.049207 0.044612 -0.020180 0.035077 0.056357 0.029303 0.006051 -0.085907 0.014917 -0.002813 0.005878 0.045648 -0.027930 -0.015856 -0.068420 -0.029909 -0.045917 0.070741 0.043001 0.004426 0.032225 -0.034623 0.054208 0.061031 -0.019101 -0.054367 0.072602 0.029181 -0.005288 -0.007596 -0.032787 -0.022167 -0.019445 0.053967 -0.030929 0.013081 -0.060354 0.052944 0.000768 -0.103307 0.001051 -0.010902 -0.047882 0.004933 0.007499 -0.050755 0.068643 -0.043672 0.004460 0.012053 -0.008592 -0.008705 0.022000 0.077803 -0.069706 0.071799 -0.024431 0.030768 -0.015511 0.003254 0.016954 0.028602 -0.039165 -0.032270 -0.034488 -0.023380 0.037876 0.145748 0.004075 0.010304 0.046298 -0.011590 -0.002727 -0.035933 0.023524 -0.102913 0.015300 0.016133 -0.051956 0.036156 0.026578 -0.028197 0.072538 -0.059213 0.017663 0.056953 0.069626 0.083986 0.042625 -0.037947 0.043289 -0.013537 0.007385 0.010232 -0.023927 -0.038915 0.014222 -0.036874 0.056071 -0.015393 -0.027359 0.035848 -0.047240 0.014998 -0.043565 -0.039309 0.019422 -0.012161 0.026681
33 -0.020505 -0.070270 -0.016853 -0.069982 0.004547 -0.034784 0.019831 0.067606 0.031980 0.020528 -0.012426 0.117781 0.025062 0.025631 -0.047244 -0.081912 -0.015497 -0.043443 0.045325 0.059957 0.052230 -0.028371 0.044504 0.061398 0.033881 0.003785 -0.108636 0.014051 0.004092 0.005428 0.051050 -0.031496 -0.018457 -0.080446 -0.042159 -0.055140 0.085619 0.051484 0.003812 0.042325 -0.038088 0.065776 0.073559 -0.027702 -0.066472 0.087039 0.032217 -0.012787 -0.011992 -0.043525 -0.026053 -0.020196 0.067692 -0.040422 0.010573 -0.069161 0.065747 -0.002236 -0.117442 0.007070 -0.009043 -0.057155 -0.000128 0.014353 -0.054227 0.077137 -0.050840 0.005858 0.016418 -0.006156 -0.003149 0.022610 0.098150 -0.086167 0.079720 -0.028942 0.037145 -0.018822 0.005685 0.023848 0.039990 -0.048707 -0.044307 -0.047005 -0.023779 0.043566 0.173905 0.006103 0.009790 0.057221 -0.008852 0.000746 -0.043157 0.027118 -0.117942 0.017491 0.019443 -0.069272 0.043079 0.029790 -0.033244 0.083572 -0.071564 0.022653 0.072895 0.076919 0.097871 0.047987 -0.038274 0.050737 -0.013168 0.013195 0.015852 -0.033029 -0.048085 0.019437 -0.040617 0.065298 -0.020167 -0.037881 0.043173 -0.054108 0.021147 -0.046819 -0.048106 0.023446 -0.013549 0.029570
