78 128
11 -0.051510 -0.120550 -0.054351 -0.161475 0.059103 -0.103141 0.011022 0.136341 -0.042229 0.001200 -0.031552 0.238388 0.061501 -0.065771 -0.098356 -0.274147 -0.031905 -0.018566 0.088114 0.180916 0.216448 -0.088361 0.144867 0.182816 0.015164 -0.044860 -0.264909 -0.044172 -0.019677 0.006272 0.101127 -0.064457 -0.065287 -0.120724 -0.131523 -0.082822 0.157831 0.004681 0.032984 -0.056242 -0.080532 0.174350 0.061137 -0.052064 -0.079423 0.260142 0.004047 -0.029916 0.038864 -0.050055 -0.003083 -0.085151 0.084374 -0.105242 -0.011313 -0.098311 0.165229 0.009517 -0.272637 -0.011040 -0.040474 -0.110143 0.083307 0.094304 -0.119087 0.087078 -0.072540 -0.048588 0.030869 -0.020837 -0.006553 0.063988 0.116899 -0.111626 0.264759 -0.025434 0.079027 -0.114295 0.046989 0.039885 0.040130 -0.038880 -0.119371 -0.154813 -0.049198 0.111476 0.270281 0.027614 0.015832 0.121055 0.020533 -0.011852 0.022746 0.026301 -0.204550 0.111921 -0.069102 -0.052906 0.180896 -0.002530 -0.125378 0.129342 -0.122043 0.096894 0.182379 0.137435 0.109288 0.052240 -0.012764 0.083971 -0.063238 0.006146 0.018867 -0.087259 -0.182727 -0.020735 -0.072804 0.066617 0.031190 -0.031251 -0.002362 -0.138213 -0.075601 -0.288034 0.045530 0.091261 0.018484 -0.038560
56 -0.047657 -0.110236 -0.055491 -0.156154 0.053394 -0.091670 0.013128 0.123204 -0.045033 0.004296 -0.027221 0.221483 0.055806 -0.054911 -0.097516 -0.251857 -0.028463 -0.015203 0.081519 0.170421 0.196995 -0.085044 0.129977 0.169974 0.020160 -0.040288 -0.250440 -0.040999 -0.022006 0.005024 0.091989 -0.055715 -0.058903 -0.114506 -0.125436 -0.080776 0.144719 0.004581 0.028282 -0.049709 -0.081593 0.166105 0.053715 -0.049109 -0.072027 0.245743 -0.000786 -0.031862 0.039692 -0.048678 -0.006221 -0.080453 0.081909 -0.098958 -0.004174 -0.092259 0.151827 0.003073 -0.252459 -0.015389 -0.036824 -0.097135 0.072071 0.084462 -0.106450 0.082799 -0.064740 -0.044486 0.033469 -0.014886 -0.007344 0.056093 0.117882 -0.104760 0.237651 -0.027654 0.070548 -0.108235 0.048775 0.042227 0.042499 -0.034771 -0.112037 -0.139102 -0.043831 0.097217 0.251215 0.028200 0.014678 0.119197 0.020957 -0.009962 0.021225 0.023169 -0.193198 0.101504 -0.058650 -0.051947 0.167779 -0.007211 -0.118465 0.121302 -0.109687 0.093515 0.167241 0.131082 0.099314 0.051079 -0.019758 0.085547 -0.061822 0.004017 0.024039 -0.078706 -0.166233 -0.013809 -0.065943 0.061454 0.034179 -0.029245 -0.003851 -0.120025 -0.076701 -0.256287 0.041458 0.088921 0.020289 -0.034274
26 -0.042254 -0.110023 -0.052850 -0.155637 0.056329 -0.099919 0.013653 0.121481 -0.046815 0.005520 -0.033058 0.223894 0.063777 -0.066950 -0.095143 -0.251145 -0.028338 -0.016857 0.083405 0.177637 0.208407 -0.081183 0.140399 0.173648 0.011322 -0.041713 -0.254036 -0.046966 -0.021844 0.013462 0.098173 -0.055927 -0.062138 -0.115801 -0.129111 -0.085347 0.146262 0.000000 0.028692 -0.059030 -0.079476 0.160750 0.046933 -0.053973 -0.075984 0.251802 -0.003617 -0.028099 0.036229 -0.046423 -0.001442 -0.078162 0.077738 -0.105521 -0.008125 -0.091431 0.158501 0.007391 -0.259009 -0.012572 -0.034836 -0.102185 0.074538 0.091394 -0.108486 0.081755 -0.064789 -0.051386 0.027259 -0.014407 -0.005005 0.062953 0.109763 -0.105694 0.251245 -0.027076 0.066903 -0.106444 0.045019 0.036592 0.034831 -0.036956 -0.109114 -0.143948 -0.041313 0.109695 0.248259 0.026099 0.013114 0.114161 0.020874 -0.007740 0.025507 0.027257 -0.190324 0.107809 -0.067916 -0.046787 0.176801 -0.012666 -0.121161 0.120292 -0.116614 0.094412 0.179880 0.132950 0.105692 0.052157 -0.007520 0.085449 -0.062988 0.000330 0.019073 -0.077275 -0.171136 -0.018777 -0.064441 0.056918 0.035116 -0.030671 -0.002053 -0.132476 -0.076385 -0.271513 0.047922 0.092531 0.015606 -0.043019
59 -0.039002 -0.107541 -0.047700 -0.154694 0.046774 -0.080935 0.009921 0.119316 -0.039189 0.004276 -0.028850 0.214310 0.062352 -0.052034 -0.092844 -0.239954 -0.022913 -0.013305 0.079580 0.171619 0.188989 -0.085990 0.122768 0.160837 0.020754 -0.042364 -0.241697 -0.042187 -0.016350 -0.002747 0.085577 -0.056184 -0.057647 -0.113505 -0.123792 -0.075722 0.140747 -0.001453 0.026063 -0.051684 -0.078980 0.160359 0.047913 -0.052371 -0.060748 0.237934 -0.003064 -0.033350 0.041756 -0.044329 -0.003220 -0.077563 0.077836 -0.099264 -0.000464 -0.079630 0.148191 0.005793 -0.240861 -0.015489 -0.042080 -0.098645 0.077050 0.077487 -0.103263 0.078758 -0.061936 -0.048357 0.034005 -0.008947 -0.009374 0.048527 0.119152 -0.100589 0.233292 -0.029432 0.063661 -0.099156 0.048286 0.041030 0.039118 -0.037090 -0.113070 -0.134437 -0.046439 0.091777 0.241793 0.031236 0.009917 0.111861 0.016367 -0.008466 0.013238 0.023706 -0.184617 0.098295 -0.060021 -0.052282 0.167894 -0.004872 -0.111688 0.114208 -0.100976 0.092062 0.158832 0.121220 0.090919 0.049218 -0.016312 0.082138 -0.062620 -0.003357 0.027869 -0.075344 -0.159179 -0.013379 -0.071058 0.057642 0.032029 -0.029184 -0.010062 -0.115705 -0.072272 -0.247405 0.042048 0.081159 0.022806 -0.037343
63 -0.037937 -0.104270 -0.046691 -0.155279 0.050286 -0.083029 0.011678 0.122076 -0.039431 0.007169 -0.024978 0.209833 0.062506 -0.052945 -0.090759 -0.246023 -0.024332 -0.015464 0.078315 0.168303 0.186440 -0.080311 0.122507 0.166962 0.016228 -0.037286 -0.242337 -0.039303 -0.015340 0.000199 0.092010 -0.062331 -0.053961 -0.110590 -0.126631 -0.076761 0.140710 0.003235 0.030115 -0.046848 -0.076586 0.163001 0.050982 -0.055312 -0.062785 0.235150 -0.003923 -0.033451 0.044023 -0.042929 -0.006777 -0.076274 0.081139 -0.097275 -0.000776 -0.083533 0.148037 0.000937 -0.240975 -0.011115 -0.039337 -0.103199 0.070702 0.076179 -0.105327 0.083821 -0.062805 -0.045583 0.028382 -0.005057 -0.011065 0.055862 0.117947 -0.101230 0.237871 -0.031625 0.065338 -0.098391 0.043189 0.042228 0.037845 -0.034620 -0.108866 -0.141147 -0.042963 0.096945 0.242142 0.025355 0.015420 0.111015 0.020835 -0.006146 0.016116 0.020687 -0.186532 0.100223 -0.058597 -0.055197 0.166982 -0.005160 -0.115624 0.111771 -0.103558 0.092390 0.163533 0.128047 0.089549 0.044768 -0.013010 0.083231 -0.062505 -0.000341 0.023541 -0.078451 -0.162293 -0.013554 -0.067205 0.058968 0.033014 -0.031958 -0.009377 -0.118130 -0.070730 -0.249579 0.040767 0.086771 0.024316 -0.039615
2 -0.041049 -0.105366 -0.042572 -0.146303 0.059429 -0.096639 0.019335 0.146227 -0.052219 -0.006055 -0.013703 0.219648 0.062407 -0.088458 -0.098114 -0.273917 -0.021085 -0.023916 0.079728 0.166624 0.191336 -0.073127 0.135710 0.174329 0.022296 -0.043184 -0.253514 -0.034842 0.012421 0.018731 0.085081 -0.075250 -0.084220 -0.080659 -0.141879 -0.085312 0.155270 0.001952 0.040225 -0.050735 -0.072615 0.143391 0.075449 -0.025660 -0.084031 0.222646 -0.004109 -0.051202 0.035859 -0.050300 0.012633 -0.094089 0.075878 -0.074634 -0.034320 -0.087330 0.158509 0.019300 -0.258223 0.007294 -0.042064 -0.097001 0.071404 0.089390 -0.107251 0.091370 -0.059818 -0.037856 0.007393 -0.036522 -0.000677 0.058143 0.120988 -0.102871 0.250081 -0.025212 0.087817 -0.108565 0.045584 0.035880 0.025540 -0.047876 -0.128709 -0.140326 -0.028950 0.107787 0.240478 0.027297 0.027858 0.099885 0.022241 0.006866 0.019335 0.011105 -0.213150 0.119719 -0.087792 -0.059569 0.174241 0.010146 -0.128657 0.104091 -0.105022 0.081457 0.158078 0.130417 0.107561 0.072738 -0.023442 0.069441 -0.053559 0.004942 0.032700 -0.079573 -0.178458 -0.007479 -0.058172 0.073689 0.022976 -0.032548 -0.011324 -0.142080 -0.077309 -0.291019 0.030129 0.096179 0.049146 -0.023609
27 -0.044704 -0.117226 -0.056320 -0.159645 0.054087 -0.094787 0.013956 0.129743 -0.046042 0.005254 -0.033368 0.225401 0.059157 -0.060291 -0.099810 -0.260148 -0.026148 -0.018675 0.083760 0.173088 0.209165 -0.083344 0.137646 0.177091 0.016112 -0.043838 -0.255789 -0.040717 -0.020919 0.007573 0.096082 -0.062960 -0.065396 -0.117497 -0.125005 -0.084526 0.144284 0.002281 0.029418 -0.059936 -0.083778 0.168099 0.051465 -0.050426 -0.072749 0.251416 0.004942 -0.029365 0.039540 -0.046503 -0.003409 -0.080946 0.079798 -0.099227 -0.007206 -0.095696 0.155351 0.005881 -0.253858 -0.012966 -0.041490 -0.098186 0.075740 0.086234 -0.111938 0.082062 -0.068316 -0.043244 0.029025 -0.014226 -0.011585 0.064948 0.114891 -0.108483 0.247458 -0.029488 0.075138 -0.110564 0.046665 0.040469 0.035848 -0.040996 -0.113320 -0.144833 -0.047188 0.107820 0.259344 0.025409 0.007575 0.118256 0.015613 -0.013329 0.021697 0.022544 -0.198394 0.109334 -0.064045 -0.052019 0.176606 -0.010757 -0.126081 0.121848 -0.111567 0.089637 0.179725 0.133926 0.106819 0.047035 -0.017977 0.086580 -0.060793 0.001090 0.020313 -0.083209 -0.171888 -0.020578 -0.067859 0.062080 0.029203 -0.027532 -0.004767 -0.124030 -0.075640 -0.274790 0.043215 0.091754 0.019565 -0.039692
28 -0.045400 -0.111632 -0.046732 -0.149419 0.048472 -0.091184 0.010763 0.119126 -0.042659 0.006645 -0.028274 0.222178 0.060820 -0.059931 -0.093810 -0.246701 -0.030999 -0.018440 0.085464 0.174045 0.193312 -0.082377 0.131450 0.166225 0.013911 -0.033341 -0.244716 -0.042078 -0.013180 0.007662 0.090079 -0.054304 -0.058958 -0.105763 -0.122739 -0.083800 0.143390 0.003081 0.030751 -0.054146 -0.079242 0.155268 0.051070 -0.046521 -0.072734 0.237103 -0.004926 -0.027838 0.034588 -0.049976 -0.009002 -0.077914 0.079968 -0.103252 -0.003443 -0.086920 0.146965 0.002988 -0.250702 -0.013252 -0.036811 -0.101956 0.078420 0.088156 -0.104726 0.077399 -0.064586 -0.041082 0.024087 -0.016171 -0.009668 0.061631 0.107695 -0.104269 0.240059 -0.022471 0.068746 -0.099009 0.043630 0.041398 0.036325 -0.042342 -0.104676 -0.142784 -0.044729 0.105090 0.243864 0.028768 0.013725 0.111781 0.020490 -0.007150 0.017549 0.018694 -0.185784 0.104243 -0.064545 -0.044326 0.167917 -0.010695 -0.120612 0.118601 -0.115249 0.087346 0.171919 0.131541 0.099698 0.053446 -0.012458 0.076568 -0.057481 0.002870 0.017968 -0.079254 -0.165320 -0.019695 -0.068651 0.058158 0.027384 -0.027884 -0.001755 -0.125653 -0.071745 -0.258783 0.041205 0.082789 0.018156 -0.035055
60 -0.031931 -0.104256 -0.049007 -0.147071 0.040533 -0.078595 0.008552 0.120738 -0.037180 0.004237 -0.027592 0.202960 0.059486 -0.050141 -0.085851 -0.230091 -0.025023 -0.014837 0.075759 0.160209 0.177411 -0.085059 0.119869 0.156713 0.016718 -0.035902 -0.230227 -0.036843 -0.012306 0.000780 0.082137 -0.055953 -0.049737 -0.105285 -0.120913 -0.074795 0.136048 0.003683 0.028574 -0.045887 -0.077780 0.152883 0.047611 -0.051949 -0.062322 0.229041 -0.006048 -0.030677 0.044154 -0.040937 -0.004977 -0.074213 0.078511 -0.096142 -0.003241 -0.082553 0.141377 0.001496 -0.232441 -0.012451 -0.033581 -0.101041 0.071727 0.075426 -0.102244 0.079203 -0.054219 -0.041016 0.027159 -0.003948 -0.017680 0.051958 0.114356 -0.091631 0.231122 -0.028944 0.057746 -0.096342 0.043862 0.042253 0.041854 -0.031237 -0.105178 -0.136780 -0.040511 0.090862 0.225754 0.027622 0.010443 0.106134 0.022036 -0.005510 0.011581 0.017549 -0.176891 0.100675 -0.052550 -0.053998 0.165274 -0.007813 -0.110914 0.103436 -0.097028 0.091018 0.157977 0.119041 0.082829 0.049317 -0.014300 0.075105 -0.059416 -0.004938 0.022302 -0.074868 -0.152874 -0.014732 -0.066841 0.058207 0.026459 -0.030257 -0.010210 -0.106293 -0.067875 -0.242975 0.038505 0.083020 0.021027 -0.031744
65 -0.039091 -0.105249 -0.048549 -0.147391 0.046669 -0.084591 0.011857 0.117502 -0.036225 0.001555 -0.021691 0.203202 0.062885 -0.049948 -0.089801 -0.231657 -0.023196 -0.010347 0.081490 0.163999 0.176717 -0.083352 0.124472 0.159758 0.021245 -0.034881 -0.234495 -0.035789 -0.014039 0.002024 0.087049 -0.055271 -0.053462 -0.107384 -0.123282 -0.077538 0.133595 0.003054 0.025565 -0.046979 -0.074557 0.155331 0.051490 -0.053656 -0.065339 0.225348 -0.003114 -0.029086 0.044498 -0.042863 -0.010852 -0.075775 0.077622 -0.097729 -0.007263 -0.083327 0.141284 0.001355 -0.230024 -0.015945 -0.040991 -0.098460 0.070394 0.080944 -0.102502 0.081725 -0.053663 -0.042922 0.032187 -0.004292 -0.014273 0.053238 0.114850 -0.094425 0.223240 -0.029780 0.064643 -0.100339 0.045400 0.042984 0.040360 -0.029872 -0.109835 -0.133117 -0.039602 0.093579 0.232254 0.029549 0.013853 0.106307 0.014999 -0.005587 0.014894 0.017087 -0.175844 0.095019 -0.055980 -0.054234 0.164436 -0.009245 -0.109934 0.104364 -0.096692 0.090696 0.160241 0.117301 0.087447 0.045202 -0.019084 0.079323 -0.063049 -0.004348 0.023319 -0.071213 -0.157549 -0.015445 -0.064000 0.060902 0.030190 -0.025077 -0.004451 -0.106040 -0.067025 -0.244209 0.037488 0.085576 0.019888 -0.036584
49 -0.035521 -0.107063 -0.045532 -0.145435 0.046458 -0.086196 0.008793 0.115138 -0.034952 0.000799 -0.023064 0.211130 0.057583 -0.055666 -0.087432 -0.240421 -0.029519 -0.014858 0.080589 0.169335 0.186020 -0.083257 0.124497 0.156979 0.018957 -0.034561 -0.236735 -0.043249 -0.014974 -0.000342 0.082874 -0.058939 -0.055767 -0.104493 -0.119488 -0.074397 0.137415 -0.001641 0.025283 -0.046913 -0.076599 0.155436 0.049195 -0.047099 -0.063436 0.233785 -0.006245 -0.031904 0.037350 -0.041866 -0.007942 -0.075728 0.080065 -0.093141 -0.008460 -0.078716 0.143894 0.009366 -0.236583 -0.016157 -0.039735 -0.096575 0.076380 0.076753 -0.107193 0.076623 -0.057889 -0.047037 0.032044 -0.012141 -0.011658 0.047687 0.114557 -0.101298 0.229550 -0.027873 0.066506 -0.101243 0.048378 0.034216 0.034342 -0.032154 -0.109716 -0.136258 -0.045804 0.090691 0.231981 0.027231 0.011419 0.108078 0.019620 -0.006975 0.010561 0.021353 -0.179774 0.097601 -0.061315 -0.048735 0.166087 -0.003430 -0.107842 0.106646 -0.102658 0.085621 0.158793 0.126406 0.089124 0.052628 -0.019159 0.076467 -0.061087 0.000480 0.028730 -0.073865 -0.156932 -0.017190 -0.063596 0.057937 0.025884 -0.025405 -0.008654 -0.111398 -0.073150 -0.248299 0.041323 0.081297 0.022348 -0.038391
24 -0.039579 -0.110434 -0.052375 -0.153969 0.043260 -0.107210 0.006348 0.126190 -0.038331 0.015720 -0.031577 0.237705 0.078779 -0.078148 -0.099953 -0.261200 -0.046317 -0.021159 0.093225 0.190699 0.222674 -0.094470 0.143325 0.187206 0.021300 -0.021719 -0.253806 -0.055279 -0.018727 0.013704 0.090278 -0.058401 -0.067306 -0.118884 -0.130105 -0.093402 0.153304 0.000575 0.030131 -0.063558 -0.083343 0.171932 0.037283 -0.047148 -0.068842 0.258826 -0.005964 -0.016767 0.044398 -0.058155 -0.002871 -0.084809 0.079453 -0.111661 0.006614 -0.082499 0.156146 0.004132 -0.258308 -0.026706 -0.032225 -0.109313 0.092199 0.098146 -0.110037 0.074041 -0.071709 -0.043975 0.030020 -0.002603 -0.010941 0.063331 0.112306 -0.108691 0.257560 -0.019211 0.068275 -0.110689 0.054866 0.045264 0.038940 -0.040677 -0.100406 -0.161558 -0.057451 0.104427 0.256923 0.028284 0.017839 0.115825 0.021275 -0.005461 0.025323 0.020039 -0.202049 0.117192 -0.065034 -0.041907 0.176532 -0.010059 -0.128320 0.128057 -0.114767 0.101677 0.176465 0.142388 0.097427 0.046587 -0.014924 0.088539 -0.056759 -0.002094 0.022986 -0.082057 -0.183933 -0.019566 -0.075057 0.063756 0.033141 -0.019670 0.005464 -0.136475 -0.077558 -0.292897 0.055373 0.090874 0.012737 -0.039119
4 -0.044495 -0.105187 -0.045822 -0.149320 0.059622 -0.101145 0.011970 0.144139 -0.046577 -0.003412 -0.015110 0.225570 0.065738 -0.082396 -0.099735 -0.271393 -0.023378 -0.026696 0.084761 0.175991 0.199961 -0.080441 0.133381 0.176322 0.025659 -0.039793 -0.257613 -0.037679 0.004883 0.012929 0.084791 -0.073076 -0.077453 -0.095100 -0.139443 -0.089618 0.157542 0.006225 0.038176 -0.050404 -0.076819 0.147216 0.070175 -0.029074 -0.078096 0.231667 -0.002867 -0.047050 0.033677 -0.052410 0.010280 -0.092469 0.078221 -0.086581 -0.024550 -0.087259 0.159388 0.013556 -0.258214 -0.004440 -0.035636 -0.105078 0.077953 0.093456 -0.106333 0.089779 -0.066130 -0.038117 0.017013 -0.029687 -0.002318 0.060771 0.121363 -0.108697 0.257067 -0.028538 0.086762 -0.106355 0.045570 0.041625 0.032159 -0.049310 -0.122969 -0.145499 -0.035438 0.105488 0.252683 0.025859 0.024525 0.108844 0.018172 -0.000572 0.015754 0.016695 -0.210186 0.119167 -0.084692 -0.057436 0.179160 0.002566 -0.133020 0.113606 -0.106783 0.092405 0.162691 0.137979 0.101005 0.065747 -0.020834 0.073660 -0.051478 0.001505 0.029275 -0.079568 -0.178228 -0.007563 -0.064188 0.071355 0.027016 -0.030013 -0.005476 -0.138356 -0.082673 -0.292309 0.030908 0.095266 0.041020 -0.026577
3 -0.047537 -0.099857 -0.036157 -0.137367 0.059712 -0.093864 0.021138 0.136335 -0.050574 -0.007081 -0.010456 0.205326 0.052447 -0.086286 -0.094830 -0.262892 -0.015406 -0.029363 0.075303 0.155649 0.178926 -0.069122 0.126621 0.170139 0.027966 -0.041706 -0.241492 -0.031069 0.013343 0.021938 0.076902 -0.071851 -0.081799 -0.075819 -0.132485 -0.086757 0.148822 0.007816 0.038576 -0.045587 -0.070311 0.129715 0.071728 -0.019554 -0.081557 0.213218 0.002178 -0.050005 0.026901 -0.043041 0.015371 -0.087631 0.065897 -0.072936 -0.032719 -0.086242 0.147178 0.016549 -0.247009 0.006951 -0.041712 -0.091774 0.067302 0.093452 -0.102048 0.080282 -0.053579 -0.031502 0.011552 -0.037810 0.003830 0.058430 0.108042 -0.095981 0.242055 -0.027523 0.087634 -0.103719 0.047141 0.034370 0.025972 -0.041118 -0.120642 -0.136724 -0.029196 0.102598 0.231039 0.027571 0.020443 0.096028 0.017791 0.005971 0.017642 0.015265 -0.203814 0.116506 -0.086202 -0.051001 0.172169 0.007740 -0.129874 0.103344 -0.107747 0.079298 0.154073 0.132233 0.100852 0.065897 -0.015786 0.063705 -0.045719 0.004572 0.029757 -0.073694 -0.168108 -0.005021 -0.057702 0.071701 0.027779 -0.028878 -0.010906 -0.139432 -0.075943 -0.276495 0.024894 0.091496 0.044234 -0.021014
70 -0.036786 -0.109087 -0.050085 -0.146003 0.049810 -0.091423 0.007879 0.116149 -0.036622 0.010052 -0.032967 0.214454 0.055931 -0.057199 -0.086432 -0.234731 -0.026064 -0.016909 0.082769 0.167503 0.189660 -0.076270 0.125349 0.155120 0.013694 -0.035784 -0.233061 -0.043986 -0.016599 0.010901 0.090635 -0.051181 -0.060299 -0.105125 -0.116532 -0.078141 0.136705 0.002708 0.027418 -0.048723 -0.074104 0.147637 0.043834 -0.049402 -0.071115 0.230218 -0.002649 -0.025505 0.031967 -0.048449 -0.001700 -0.072946 0.077345 -0.093933 -0.005310 -0.081225 0.147380 0.008707 -0.241235 -0.010407 -0.032621 -0.092663 0.066313 0.080899 -0.104339 0.079848 -0.059247 -0.045847 0.025616 -0.012337 -0.006538 0.058527 0.108294 -0.100291 0.230995 -0.021749 0.067136 -0.095719 0.043051 0.033243 0.037833 -0.039911 -0.103789 -0.132466 -0.038083 0.096831 0.235986 0.023106 0.013154 0.106852 0.021182 -0.006046 0.016668 0.025240 -0.179773 0.102183 -0.060618 -0.046686 0.164594 -0.013083 -0.117289 0.112581 -0.110668 0.086359 0.165348 0.123056 0.093812 0.051260 -0.012746 0.075606 -0.058380 0.003396 0.016796 -0.075201 -0.155962 -0.017049 -0.062483 0.055332 0.023584 -0.021001 0.000476 -0.122933 -0.064321 -0.246355 0.038544 0.082748 0.015985 -0.037482
25 -0.046849 -0.112714 -0.053276 -0.153271 0.047424 -0.096519 0.009265 0.118176 -0.037407 0.006830 -0.032716 0.220849 0.060972 -0.060220 -0.092783 -0.253686 -0.028014 -0.019177 0.087088 0.178864 0.203063 -0.083088 0.137363 0.172488 0.016177 -0.040857 -0.243864 -0.044533 -0.022150 0.010926 0.095466 -0.057258 -0.060426 -0.114377 -0.127657 -0.080096 0.139176 0.003717 0.027260 -0.058534 -0.081784 0.162317 0.049256 -0.053583 -0.068656 0.247408 0.001396 -0.025199 0.039768 -0.047376 -0.008424 -0.075830 0.080565 -0.100815 -0.011159 -0.089599 0.154911 0.002921 -0.252221 -0.010181 -0.039630 -0.098465 0.077476 0.085289 -0.111420 0.077793 -0.065007 -0.043290 0.023078 -0.013633 -0.007313 0.057233 0.113314 -0.099630 0.243401 -0.028609 0.066763 -0.100382 0.048892 0.036113 0.037106 -0.041746 -0.108228 -0.148443 -0.043686 0.103191 0.247436 0.023248 0.009843 0.109616 0.017084 -0.008205 0.023529 0.020818 -0.192628 0.108815 -0.066616 -0.046860 0.171720 -0.006610 -0.123148 0.119318 -0.119089 0.089288 0.175633 0.129066 0.100407 0.054920 -0.011117 0.079610 -0.061010 0.002454 0.021672 -0.082512 -0.173955 -0.019570 -0.063182 0.058163 0.027436 -0.026518 -0.000558 -0.124325 -0.073625 -0.266096 0.043164 0.092344 0.013642 -0.037556
66 -0.034776 -0.108144 -0.045565 -0.149364 0.040349 -0.086264 0.008052 0.118884 -0.037195 0.005372 -0.027253 0.203281 0.062780 -0.049316 -0.082859 -0.231187 -0.025188 -0.009973 0.081703 0.167188 0.181164 -0.079459 0.119715 0.160650 0.017999 -0.038761 -0.230832 -0.038264 -0.015849 -0.002817 0.088031 -0.057407 -0.053790 -0.105100 -0.121954 -0.071615 0.136402 0.002332 0.026920 -0.044211 -0.077329 0.152804 0.051248 -0.049381 -0.061090 0.231296 -0.006526 -0.031017 0.036964 -0.041823 -0.007955 -0.070525 0.079705 -0.096067 -0.003581 -0.084421 0.137751 0.006211 -0.234819 -0.010129 -0.035109 -0.099279 0.074315 0.072699 -0.101582 0.073625 -0.060982 -0.044298 0.034045 -0.004938 -0.009617 0.048633 0.111521 -0.095277 0.225549 -0.030541 0.063027 -0.096672 0.043860 0.039349 0.038451 -0.033741 -0.109522 -0.133481 -0.041391 0.089225 0.226377 0.028319 0.015447 0.109051 0.022090 -0.003162 0.011129 0.024525 -0.176896 0.099177 -0.052845 -0.048481 0.163777 -0.010564 -0.106309 0.108868 -0.102448 0.087474 0.156237 0.121697 0.082556 0.045904 -0.013613 0.080925 -0.060389 -0.000201 0.025581 -0.078164 -0.151354 -0.012848 -0.061651 0.058773 0.025748 -0.028005 -0.007905 -0.108855 -0.066453 -0.236712 0.036924 0.082513 0.022547 -0.034463
64 -0.037236 -0.105168 -0.047505 -0.147330 0.043757 -0.084752 0.011952 0.122843 -0.038563 0.001552 -0.025936 0.209955 0.062412 -0.056605 -0.083907 -0.235843 -0.027841 -0.015619 0.078838 0.168124 0.187107 -0.080667 0.121329 0.159187 0.018548 -0.037841 -0.233590 -0.042362 -0.014521 0.000209 0.084496 -0.061106 -0.050914 -0.110003 -0.124980 -0.079944 0.138572 0.000924 0.026907 -0.046612 -0.075182 0.155656 0.047852 -0.053556 -0.064239 0.234542 -0.001588 -0.032489 0.036282 -0.042812 -0.001942 -0.074921 0.075177 -0.094283 -0.000113 -0.084436 0.138668 0.004484 -0.235298 -0.013203 -0.038963 -0.099462 0.071829 0.079903 -0.105217 0.081045 -0.061390 -0.045901 0.032733 -0.007571 -0.011352 0.053891 0.115559 -0.097989 0.234620 -0.028390 0.062177 -0.095280 0.049029 0.035553 0.036907 -0.034946 -0.106251 -0.138991 -0.039674 0.096335 0.234075 0.026500 0.016553 0.110462 0.016103 -0.004602 0.016170 0.024726 -0.178951 0.103300 -0.056930 -0.051949 0.162422 -0.008863 -0.113871 0.110504 -0.103297 0.086044 0.159825 0.127513 0.090577 0.052435 -0.016418 0.078293 -0.059132 -0.002566 0.028906 -0.074887 -0.158501 -0.015992 -0.067533 0.058960 0.029834 -0.025997 -0.007174 -0.110414 -0.073830 -0.245125 0.039403 0.081817 0.021120 -0.031535
62 -0.032352 -0.101663 -0.051085 -0.147497 0.040262 -0.082835 0.005082 0.118852 -0.035113 0.000502 -0.022494 0.202528 0.060333 -0.049783 -0.088465 -0.228243 -0.025640 -0.011110 0.080386 0.163695 0.177572 -0.081533 0.116720 0.158565 0.018693 -0.035393 -0.230997 -0.040618 -0.018103 -0.001375 0.081891 -0.059059 -0.053882 -0.106516 -0.118312 -0.071197 0.132722 0.000434 0.028435 -0.042672 -0.078899 0.150577 0.044011 -0.050563 -0.059442 0.224906 -0.004939 -0.025286 0.040762 -0.045454 -0.007774 -0.071605 0.075314 -0.091198 0.000289 -0.082276 0.135383 0.007227 -0.229082 -0.013003 -0.034373 -0.098793 0.072019 0.076321 -0.105426 0.079246 -0.056927 -0.045838 0.033926 -0.006178 -0.017091 0.048218 0.116007 -0.091517 0.221644 -0.024820 0.061586 -0.098407 0.042805 0.039007 0.041752 -0.032104 -0.104315 -0.134370 -0.045880 0.089379 0.230790 0.031106 0.015874 0.103927 0.021692 -0.009693 0.009819 0.023051 -0.177613 0.098596 -0.052204 -0.051151 0.162253 -0.005985 -0.109594 0.108636 -0.098513 0.088593 0.154868 0.123079 0.087291 0.043470 -0.014704 0.080985 -0.063443 -0.001343 0.026442 -0.071583 -0.149826 -0.016749 -0.069499 0.053350 0.031844 -0.029594 -0.006310 -0.107444 -0.068718 -0.242130 0.037639 0.081276 0.020186 -0.037948
69 -0.043693 -0.108546 -0.052953 -0.145766 0.048667 -0.091153 0.011882 0.116733 -0.041901 0.005204 -0.031076 0.222281 0.057344 -0.058343 -0.088785 -0.240410 -0.030717 -0.016016 0.085661 0.169753 0.196986 -0.076366 0.134234 0.161250 0.010911 -0.036558 -0.241889 -0.046079 -0.023365 0.009948 0.088808 -0.052043 -0.062765 -0.105392 -0.117018 -0.080497 0.139597 0.002652 0.025861 -0.050643 -0.074483 0.157371 0.052249 -0.053899 -0.070966 0.240276 0.002452 -0.030787 0.039779 -0.049825 -0.006678 -0.079002 0.073149 -0.098845 -0.011157 -0.083568 0.152596 0.004749 -0.246567 -0.014103 -0.033503 -0.094838 0.071693 0.081716 -0.103816 0.078223 -0.066465 -0.047557 0.022709 -0.017847 -0.002984 0.056851 0.108826 -0.102674 0.243279 -0.021912 0.070305 -0.104964 0.046800 0.033933 0.039813 -0.034515 -0.103036 -0.136771 -0.045152 0.100686 0.238251 0.027996 0.013359 0.108100 0.015678 -0.009577 0.019490 0.024242 -0.187172 0.106764 -0.065656 -0.047182 0.167047 -0.011971 -0.116531 0.116431 -0.114287 0.088983 0.173724 0.127010 0.093994 0.048152 -0.012823 0.075532 -0.056997 0.002351 0.016559 -0.077151 -0.166611 -0.016507 -0.061810 0.055554 0.024615 -0.022737 -0.001538 -0.120907 -0.067728 -0.252720 0.047350 0.084873 0.019489 -0.036209
50 -0.051251 -0.118078 -0.059723 -0.158156 0.050852 -0.100211 0.015925 0.133222 -0.045374 0.005445 -0.033126 0.233282 0.065425 -0.068717 -0.104835 -0.264073 -0.024747 -0.013789 0.087103 0.183224 0.210143 -0.087801 0.136469 0.178631 0.019902 -0.040331 -0.260304 -0.042713 -0.020792 0.001937 0.095625 -0.063208 -0.067528 -0.118854 -0.127538 -0.082119 0.147888 0.005848 0.031852 -0.054919 -0.082016 0.176901 0.052035 -0.055215 -0.073759 0.251111 0.001569 -0.034408 0.041656 -0.053160 -0.007735 -0.085218 0.089276 -0.107269 -0.008689 -0.099931 0.159095 0.005772 -0.264101 -0.016665 -0.036339 -0.108075 0.079006 0.084365 -0.115576 0.080236 -0.067979 -0.049615 0.031153 -0.010716 -0.011524 0.063955 0.119628 -0.103475 0.253176 -0.026210 0.070898 -0.109996 0.051791 0.041158 0.037955 -0.038266 -0.117233 -0.151140 -0.043940 0.108393 0.258907 0.028431 0.010562 0.124177 0.015301 -0.008240 0.019609 0.020783 -0.203110 0.112714 -0.063170 -0.055891 0.181070 -0.007924 -0.128884 0.127064 -0.113477 0.098098 0.182856 0.134835 0.109293 0.047097 -0.018944 0.087753 -0.062954 -0.003578 0.024448 -0.080480 -0.177822 -0.014490 -0.072764 0.066039 0.037564 -0.024013 0.002043 -0.125388 -0.084076 -0.283698 0.043902 0.087811 0.019541 -0.036811
19 -0.035474 -0.112295 -0.053355 -0.159600 0.034867 -0.108226 0.002248 0.122183 -0.034254 0.018733 -0.039360 0.243068 0.080506 -0.077763 -0.101444 -0.256525 -0.055068 -0.024278 0.097855 0.199669 0.228851 -0.104716 0.145057 0.188458 0.022247 -0.013630 -0.251452 -0.056773 -0.018967 0.011216 0.091872 -0.056579 -0.061487 -0.122690 -0.132497 -0.096752 0.145949 0.006044 0.032310 -0.060029 -0.085361 0.168188 0.029365 -0.049438 -0.062235 0.260678 -0.001925 -0.016580 0.045602 -0.058162 -0.009285 -0.088622 0.080892 -0.121887 0.012982 -0.079792 0.147442 0.002879 -0.251407 -0.031433 -0.028991 -0.113700 0.101428 0.104478 -0.103426 0.069594 -0.067929 -0.046727 0.030438 -0.002495 -0.014420 0.060533 0.116437 -0.109668 0.256747 -0.019764 0.072544 -0.105417 0.054787 0.040421 0.033550 -0.043270 -0.094835 -0.173721 -0.064198 0.106747 0.262391 0.024433 0.013432 0.111261 0.024203 -0.003614 0.028734 0.022154 -0.207762 0.116225 -0.066829 -0.039984 0.178578 -0.012753 -0.123635 0.126384 -0.119655 0.100870 0.176827 0.141568 0.091437 0.041139 -0.016303 0.084478 -0.061342 -0.000807 0.023960 -0.084917 -0.178612 -0.016274 -0.072986 0.070104 0.027969 -0.016873 0.006398 -0.133598 -0.079871 -0.300323 0.050798 0.088379 0.005618 -0.045190
21 -0.041854 -0.106577 -0.056041 -0.161075 0.031996 -0.110872 0.003044 0.121693 -0.035411 0.023064 -0.035790 0.241730 0.083653 -0.082637 -0.101007 -0.258185 -0.052794 -0.021640 0.097575 0.197450 0.230919 -0.101984 0.144614 0.190081 0.022538 -0.017564 -0.250270 -0.056314 -0.016774 0.014106 0.095105 -0.059377 -0.062672 -0.117778 -0.135406 -0.099697 0.149174 0.007537 0.033026 -0.061245 -0.088660 0.172746 0.026710 -0.050757 -0.068741 0.261967 -0.003684 -0.012367 0.049625 -0.060344 -0.004884 -0.086107 0.086197 -0.123271 0.007827 -0.080920 0.151705 -0.001840 -0.259325 -0.027000 -0.030869 -0.112019 0.099224 0.106066 -0.099708 0.072107 -0.071795 -0.048855 0.030806 -0.003072 -0.011924 0.057768 0.116746 -0.108999 0.262044 -0.015543 0.067813 -0.110885 0.059938 0.046766 0.032383 -0.042868 -0.095805 -0.175753 -0.065730 0.105170 0.258787 0.020889 0.019777 0.109939 0.028140 -0.004522 0.023733 0.023934 -0.207699 0.113014 -0.069490 -0.037876 0.179734 -0.010019 -0.128018 0.123307 -0.118950 0.106649 0.182657 0.144135 0.092610 0.037993 -0.016496 0.084840 -0.055413 0.002313 0.022465 -0.081266 -0.184980 -0.015418 -0.080857 0.067611 0.031785 -0.016542 0.007715 -0.135627 -0.077934 -0.303745 0.057637 0.089097 0.011609 -0.045830
22 -0.034539 -0.109038 -0.055278 -0.153089 0.033192 -0.110398 0.002600 0.119670 -0.037727 0.017551 -0.036093 0.235184 0.082905 -0.079676 -0.096021 -0.252368 -0.054611 -0.022524 0.096863 0.194749 0.225112 -0.100068 0.145353 0.182284 0.018354 -0.011632 -0.245201 -0.060106 -0.013554 0.015926 0.088986 -0.058766 -0.064397 -0.115207 -0.129629 -0.097117 0.143974 0.002680 0.027305 -0.063624 -0.079828 0.159361 0.023686 -0.043194 -0.060871 0.256552 -0.008320 -0.010477 0.048904 -0.059065 -0.010960 -0.088338 0.077613 -0.119416 0.013506 -0.078795 0.148664 0.004705 -0.245632 -0.032896 -0.025873 -0.106434 0.098814 0.103020 -0.100713 0.071996 -0.072930 -0.043203 0.035839 0.004428 -0.016432 0.061890 0.111596 -0.109279 0.256337 -0.012174 0.065488 -0.103020 0.061079 0.041446 0.029615 -0.043352 -0.088456 -0.171003 -0.061845 0.101062 0.255350 0.018445 0.018551 0.108997 0.025987 -0.007139 0.025724 0.015478 -0.202013 0.112360 -0.065272 -0.037185 0.176968 -0.012796 -0.124038 0.122015 -0.112210 0.104068 0.174262 0.140590 0.089598 0.041103 -0.014737 0.084700 -0.055744 -0.000028 0.025689 -0.076638 -0.178673 -0.019225 -0.077875 0.066275 0.027326 -0.020076 0.009694 -0.131634 -0.075123 -0.294162 0.054474 0.085356 0.011028 -0.041798
23 -0.037477 -0.106443 -0.058490 -0.153754 0.035088 -0.103985 0.003774 0.126036 -0.034460 0.015838 -0.036411 0.235830 0.079186 -0.078627 -0.101889 -0.251539 -0.049539 -0.017196 0.095232 0.194797 0.220626 -0.099914 0.138787 0.185854 0.022376 -0.019010 -0.250123 -0.058120 -0.020194 0.014196 0.089778 -0.056856 -0.062764 -0.116787 -0.132510 -0.096188 0.148359 0.001111 0.026871 -0.059921 -0.084731 0.166443 0.032930 -0.045689 -0.062324 0.252697 -0.005242 -0.011712 0.043821 -0.058333 -0.007175 -0.087669 0.085168 -0.120351 0.007591 -0.085259 0.147051 0.001074 -0.251866 -0.031112 -0.029001 -0.110546 0.098468 0.099928 -0.099527 0.072450 -0.066740 -0.041501 0.032919 0.002231 -0.014577 0.060665 0.118119 -0.107083 0.250015 -0.016103 0.071523 -0.105426 0.059718 0.044298 0.037533 -0.044690 -0.091844 -0.166568 -0.061483 0.107123 0.252530 0.024819 0.012717 0.110121 0.025481 -0.005394 0.021273 0.019514 -0.206251 0.109276 -0.063718 -0.041530 0.173207 -0.006011 -0.124502 0.120526 -0.111341 0.097288 0.174327 0.134923 0.088841 0.038852 -0.013374 0.086433 -0.062819 -0.002614 0.021594 -0.083795 -0.179012 -0.019323 -0.077098 0.067474 0.030821 -0.019579 0.008038 -0.126785 -0.078980 -0.293454 0.054587 0.082954 0.009530 -0.041747
71 -0.037235 -0.105212 -0.050898 -0.146732 0.047202 -0.091688 0.005222 0.113228 -0.035875 0.008396 -0.032351 0.217435 0.062329 -0.061059 -0.085110 -0.241982 -0.028444 -0.015863 0.082363 0.169654 0.190558 -0.077976 0.125516 0.164132 0.011224 -0.038930 -0.231169 -0.042707 -0.017792 0.008899 0.088328 -0.055481 -0.057405 -0.107783 -0.119929 -0.076167 0.133233 -0.002971 0.031779 -0.054972 -0.075766 0.152262 0.046394 -0.051040 -0.065103 0.235252 -0.002148 -0.030345 0.035195 -0.044869 -0.006059 -0.076865 0.073023 -0.101599 -0.007814 -0.086028 0.144921 0.005721 -0.239161 -0.016286 -0.031078 -0.098885 0.070416 0.085392 -0.105027 0.080023 -0.060531 -0.047577 0.022988 -0.015194 -0.005804 0.059632 0.104443 -0.097808 0.236553 -0.022884 0.064277 -0.101244 0.042550 0.032007 0.039215 -0.039620 -0.102462 -0.140421 -0.041678 0.103455 0.238156 0.025765 0.011730 0.109459 0.015965 -0.008005 0.017432 0.025290 -0.180390 0.106900 -0.063845 -0.047317 0.166389 -0.009866 -0.115786 0.109535 -0.112767 0.087931 0.164918 0.122084 0.090381 0.051482 -0.009738 0.075629 -0.055237 -0.002816 0.016707 -0.078478 -0.162185 -0.016740 -0.059310 0.059310 0.026990 -0.021745 -0.003678 -0.119277 -0.073269 -0.251978 0.044184 0.085233 0.014005 -0.037447
20 -0.039424 -0.112993 -0.055886 -0.157028 0.033631 -0.112427 0.007764 0.126851 -0.039833 0.015758 -0.037898 0.237339 0.084442 -0.078042 -0.101622 -0.259692 -0.052884 -0.019479 0.093923 0.192484 0.228157 -0.102340 0.147165 0.186177 0.023154 -0.016122 -0.247666 -0.057679 -0.015598 0.008616 0.089214 -0.059735 -0.061785 -0.119356 -0.129452 -0.093271 0.152937 0.000470 0.027522 -0.065217 -0.089286 0.166135 0.028946 -0.048059 -0.063559 0.258893 -0.001067 -0.015120 0.047424 -0.060997 -0.011668 -0.087554 0.086414 -0.122639 0.007378 -0.082641 0.151378 -0.002044 -0.259254 -0.026430 -0.025755 -0.109119 0.098512 0.101893 -0.105265 0.073696 -0.070320 -0.043667 0.029499 0.002360 -0.017143 0.062620 0.114387 -0.110062 0.259242 -0.014190 0.071799 -0.108640 0.059392 0.045552 0.035831 -0.047050 -0.097101 -0.173284 -0.058199 0.110150 0.256408 0.024874 0.013782 0.115025 0.026668 -0.005423 0.025504 0.018871 -0.204672 0.113743 -0.064302 -0.041596 0.175756 -0.006504 -0.128626 0.120769 -0.120363 0.105931 0.177327 0.143596 0.092426 0.042639 -0.012189 0.089331 -0.062721 0.001993 0.024398 -0.081037 -0.183773 -0.021034 -0.072885 0.069236 0.030855 -0.019576 0.005987 -0.128792 -0.078456 -0.299672 0.054674 0.089888 0.007680 -0.041375
52 -0.053721 -0.122230 -0.057947 -0.175373 0.053651 -0.106874 0.013922 0.140064 -0.048423 -0.000129 -0.034360 0.248978 0.067007 -0.070499 -0.114473 -0.286388 -0.030113 -0.013565 0.088690 0.194964 0.230296 -0.094595 0.144363 0.186328 0.014051 -0.041370 -0.276574 -0.047109 -0.019757 -0.000199 0.106199 -0.064956 -0.065207 -0.123005 -0.138145 -0.088973 0.157665 0.004024 0.035165 -0.059797 -0.089285 0.189217 0.053925 -0.054422 -0.080192 0.268352 0.001862 -0.029983 0.042246 -0.056936 -0.005763 -0.095333 0.095284 -0.114365 -0.000641 -0.101281 0.169176 -0.000015 -0.281904 -0.020529 -0.041799 -0.107952 0.083741 0.091256 -0.127755 0.091263 -0.067336 -0.047575 0.030418 -0.010643 -0.013264 0.067879 0.128000 -0.111027 0.274739 -0.031729 0.074714 -0.122180 0.053186 0.041411 0.048171 -0.047662 -0.123946 -0.164420 -0.042162 0.116618 0.281531 0.032624 0.011758 0.134128 0.020954 -0.009534 0.020656 0.019909 -0.214137 0.117107 -0.069806 -0.054459 0.187080 -0.007003 -0.130489 0.134629 -0.119432 0.106493 0.197346 0.145935 0.114130 0.053366 -0.022486 0.095237 -0.071512 -0.002047 0.026692 -0.092241 -0.190024 -0.019239 -0.075839 0.069548 0.035006 -0.029791 -0.001479 -0.137256 -0.091598 -0.300651 0.050401 0.098282 0.021768 -0.045656
18 -0.038031 -0.109850 -0.059219 -0.157606 0.039277 -0.108087 0.001088 0.126431 -0.034437 0.020427 -0.035947 0.240318 0.081770 -0.076615 -0.098737 -0.259539 -0.050269 -0.018711 0.090573 0.196164 0.227822 -0.099378 0.146883 0.184973 0.024274 -0.016592 -0.248951 -0.055424 -0.015712 0.013022 0.091638 -0.055680 -0.061097 -0.115100 -0.128608 -0.095839 0.147237 0.003061 0.030818 -0.057433 -0.086059 0.171162 0.028910 -0.049308 -0.066583 0.258950 -0.007040 -0.014991 0.047070 -0.059742 -0.007709 -0.090222 0.086109 -0.113697 0.006671 -0.079650 0.150955 -0.001900 -0.255643 -0.029174 -0.027460 -0.112907 0.095151 0.098766 -0.100666 0.074616 -0.069157 -0.047258 0.035229 0.001954 -0.016889 0.059944 0.117707 -0.112536 0.258922 -0.014507 0.073376 -0.105012 0.057701 0.041865 0.030981 -0.040926 -0.094316 -0.169642 -0.062715 0.107619 0.260357 0.022932 0.012829 0.115093 0.024362 -0.009531 0.027806 0.017012 -0.207530 0.113688 -0.067659 -0.038483 0.177733 -0.011342 -0.125090 0.125560 -0.115393 0.102430 0.176899 0.139296 0.090320 0.038155 -0.015959 0.082706 -0.061990 -0.003050 0.020196 -0.083982 -0.179072 -0.020978 -0.074993 0.063183 0.033427 -0.022068 0.005778 -0.134552 -0.078092 -0.294284 0.055081 0.083137 0.007190 -0.044500
17 -0.038578 -0.110063 -0.053521 -0.152221 0.033277 -0.109450 0.007380 0.124787 -0.032875 0.020342 -0.032957 0.239313 0.080668 -0.074073 -0.100150 -0.251525 -0.049288 -0.024561 0.091304 0.193298 0.220730 -0.101435 0.145418 0.180513 0.023996 -0.015990 -0.248360 -0.054400 -0.013824 0.016409 0.091394 -0.057487 -0.060461 -0.116665 -0.131399 -0.096940 0.149713 0.004850 0.029047 -0.058833 -0.084314 0.161054 0.030066 -0.044558 -0.066897 0.252719 -0.002932 -0.013266 0.044560 -0.055290 -0.009873 -0.088117 0.081868 -0.120293 0.008573 -0.082941 0.145948 0.006388 -0.249183 -0.030573 -0.028688 -0.110232 0.096292 0.097970 -0.101993 0.076122 -0.069652 -0.045413 0.032036 0.000367 -0.016372 0.059943 0.114479 -0.110442 0.256866 -0.012470 0.067643 -0.107774 0.057779 0.039171 0.034758 -0.042317 -0.092199 -0.162780 -0.062862 0.104817 0.258045 0.021443 0.019784 0.109841 0.021237 -0.006005 0.023954 0.023133 -0.204038 0.111853 -0.062540 -0.038470 0.177723 -0.006699 -0.122422 0.121178 -0.118006 0.101739 0.175337 0.136889 0.092902 0.040158 -0.016973 0.087893 -0.058882 0.000737 0.026906 -0.079352 -0.178126 -0.018808 -0.075755 0.069816 0.028663 -0.023818 0.009296 -0.128546 -0.074113 -0.288702 0.048910 0.084892 0.010099 -0.038387
77 -0.025202 -0.130773 -0.035665 -0.156979 0.028150 -0.089036 0.006084 0.134302 -0.048644 0.023268 -0.017369 0.213188 0.060829 -0.045836 -0.077384 -0.239779 -0.015473 -0.003690 0.101355 0.184001 0.168074 -0.082578 0.132239 0.163517 0.023682 -0.033811 -0.252276 -0.046555 -0.006742 -0.006677 0.083457 -0.072260 -0.045915 -0.108841 -0.141408 -0.084999 0.145805 0.016280 0.024312 -0.058270 -0.091081 0.167864 0.059861 -0.064553 -0.059595 0.237924 -0.018324 -0.022339 0.057282 -0.044105 -0.019537 -0.075538 0.083789 -0.121353 -0.001838 -0.099789 0.154011 0.000598 -0.257398 0.001267 -0.047146 -0.110531 0.081745 0.093872 -0.104868 0.097995 -0.056775 -0.034831 0.028367 0.003938 -0.039023 0.061844 0.135125 -0.081157 0.249464 -0.034501 0.051965 -0.102112 0.038474 0.056168 0.041526 -0.031176 -0.110048 -0.148773 -0.037058 0.078479 0.221365 0.044446 0.021981 0.131675 0.021915 0.001695 0.025379 0.018526 -0.176146 0.117720 -0.059908 -0.052043 0.175317 -0.031169 -0.123935 0.103125 -0.109113 0.099744 0.176976 0.140356 0.083993 0.060978 -0.025561 0.089120 -0.071533 0.000872 0.022118 -0.074004 -0.149853 -0.010856 -0.068601 0.064598 0.024362 -0.036684 -0.004975 -0.108672 -0.071662 -0.253981 0.034885 0.088089 0.025228 -0.025303
42 -0.042958 -0.100197 -0.049591 -0.146239 0.051200 -0.090880 0.009662 0.117066 -0.037279 0.009321 -0.026819 0.210292 0.055811 -0.055748 -0.084059 -0.236581 -0.030439 -0.018853 0.083205 0.164879 0.189972 -0.079885 0.127728 0.162763 0.017483 -0.037981 -0.234908 -0.038320 -0.018451 0.011498 0.088271 -0.052849 -0.056637 -0.103973 -0.116228 -0.077654 0.135522 -0.002842 0.026100 -0.054550 -0.075549 0.151944 0.046991 -0.046975 -0.063408 0.231757 0.000436 -0.026009 0.034256 -0.044242 -0.001258 -0.077710 0.074366 -0.094653 -0.008640 -0.082741 0.147416 0.006603 -0.239949 -0.016405 -0.032962 -0.091752 0.068584 0.081887 -0.098917 0.077063 -0.062813 -0.042666 0.024724 -0.012493 -0.005915 0.054315 0.108414 -0.096251 0.232043 -0.023722 0.064134 -0.093346 0.040861 0.038793 0.032782 -0.034484 -0.105526 -0.133283 -0.040322 0.099993 0.236741 0.021266 0.011777 0.106906 0.019446 -0.004900 0.015642 0.019307 -0.183521 0.100299 -0.063697 -0.048654 0.164680 -0.010480 -0.112387 0.109768 -0.110936 0.081756 0.164675 0.118683 0.096301 0.051534 -0.012464 0.078177 -0.052391 0.000650 0.020432 -0.073762 -0.164075 -0.014146 -0.062556 0.055546 0.028059 -0.024168 -0.000991 -0.118322 -0.070551 -0.248044 0.040738 0.080628 0.019129 -0.032740
254 -0.030123 -0.133607 -0.035608 -0.165115 0.028598 -0.094619 0.011211 0.133318 -0.046766 0.024955 -0.013873 0.219876 0.065058 -0.050184 -0.081218 -0.244363 -0.019978 -0.004786 0.101356 0.185112 0.176780 -0.088588 0.138779 0.166684 0.025779 -0.037210 -0.260620 -0.052127 -0.003415 -0.009666 0.087299 -0.069978 -0.042439 -0.119209 -0.143022 -0.080251 0.140868 0.016816 0.029906 -0.055677 -0.096225 0.170253 0.055682 -0.066543 -0.056749 0.250401 -0.017000 -0.029850 0.058108 -0.040015 -0.014092 -0.081319 0.089323 -0.121232 0.001928 -0.101910 0.149705 -0.005453 -0.263042 -0.000614 -0.051425 -0.109882 0.084784 0.089865 -0.103381 0.098940 -0.055332 -0.043423 0.035525 0.002474 -0.037481 0.061065 0.136128 -0.084142 0.251545 -0.033441 0.059799 -0.100404 0.047390 0.053731 0.037725 -0.029283 -0.107250 -0.157240 -0.044991 0.082587 0.234145 0.045184 0.024985 0.133626 0.020924 0.002349 0.029898 0.019366 -0.189902 0.121190 -0.067978 -0.051999 0.184402 -0.030548 -0.128054 0.113105 -0.116695 0.095587 0.178782 0.141520 0.092203 0.058819 -0.020653 0.096452 -0.077434 -0.000224 0.028807 -0.083655 -0.152660 -0.015880 -0.067601 0.069349 0.026985 -0.034454 0.001110 -0.120742 -0.073538 -0.270190 0.033415 0.083528 0.027338 -0.029273
35 -0.052481 -0.131114 -0.063509 -0.179251 0.053694 -0.111042 0.013648 0.139247 -0.049991 0.012996 -0.039913 0.264898 0.073032 -0.076376 -0.112523 -0.296762 -0.036542 -0.015158 0.100824 0.210098 0.240714 -0.096662 0.159541 0.208667 0.020169 -0.040396 -0.279834 -0.049513 -0.025247 0.010283 0.111297 -0.073644 -0.074348 -0.137205 -0.143023 -0.097042 0.168767 -0.003059 0.037741 -0.074279 -0.096012 0.190499 0.068144 -0.056816 -0.083112 0.281319 0.000332 -0.033408 0.043697 -0.058023 -0.006568 -0.096738 0.091229 -0.126787 -0.001069 -0.105931 0.179877 0.005367 -0.295675 -0.017035 -0.049390 -0.125062 0.094886 0.099847 -0.132287 0.087669 -0.077012 -0.044951 0.033458 -0.014690 -0.009222 0.069464 0.131639 -0.121304 0.284190 -0.035750 0.088137 -0.112608 0.055109 0.045890 0.037140 -0.054329 -0.125662 -0.178604 -0.047839 0.125356 0.298734 0.032497 0.011467 0.140744 0.026721 -0.017012 0.019136 0.027258 -0.229840 0.120855 -0.081676 -0.049956 0.199109 -0.002688 -0.134316 0.139310 -0.137972 0.096650 0.208598 0.150913 0.114136 0.068808 -0.016145 0.101911 -0.067688 -0.001352 0.024326 -0.100017 -0.204903 -0.021268 -0.077808 0.069310 0.029044 -0.024450 0.002788 -0.150797 -0.083252 -0.311051 0.056509 0.108744 0.017281 -0.040172
36 -0.043526 -0.125863 -0.054126 -0.170367 0.053574 -0.109102 0.016888 0.135616 -0.043051 0.013010 -0.040623 0.244745 0.066942 -0.070652 -0.103892 -0.277879 -0.037850 -0.019948 0.091335 0.190730 0.221908 -0.085372 0.153677 0.197340 0.017858 -0.044118 -0.261923 -0.052316 -0.024099 0.009631 0.107312 -0.073146 -0.068819 -0.130016 -0.138365 -0.091625 0.158259 -0.002999 0.029958 -0.072661 -0.084381 0.176792 0.067651 -0.050438 -0.076645 0.266449 0.005954 -0.032137 0.043432 -0.049147 -0.005549 -0.087198 0.086941 -0.119191 -0.003754 -0.092449 0.166081 0.006806 -0.280332 -0.010159 -0.046175 -0.119750 0.089482 0.094967 -0.124399 0.086722 -0.070420 -0.043332 0.032263 -0.019492 -0.009002 0.061001 0.125367 -0.115565 0.263508 -0.033929 0.087764 -0.107840 0.054474 0.039204 0.035318 -0.049211 -0.117338 -0.166898 -0.046276 0.116646 0.280965 0.036226 0.017099 0.133997 0.023945 -0.018355 0.020435 0.032661 -0.210145 0.118419 -0.076368 -0.045050 0.181043 0.001314 -0.129285 0.132726 -0.123098 0.094184 0.196881 0.145895 0.107593 0.063403 -0.017108 0.096584 -0.066770 0.002297 0.018408 -0.097639 -0.195886 -0.026579 -0.075171 0.064224 0.029144 -0.019994 -0.000166 -0.140671 -0.076212 -0.288812 0.051543 0.100743 0.014600 -0.037013
61 -0.040301 -0.108131 -0.048531 -0.150882 0.043008 -0.088087 0.009270 0.118549 -0.036142 0.003796 -0.028696 0.208523 0.059544 -0.055914 -0.090729 -0.239399 -0.024963 -0.011943 0.078354 0.166163 0.184711 -0.085644 0.124011 0.158612 0.020575 -0.039821 -0.236541 -0.041986 -0.014994 -0.001567 0.085906 -0.060928 -0.059243 -0.111276 -0.121616 -0.075893 0.140240 -0.002093 0.029662 -0.051488 -0.075925 0.153655 0.050362 -0.050111 -0.065190 0.234046 -0.006154 -0.025825 0.043214 -0.043854 -0.004635 -0.075961 0.081272 -0.097439 -0.006490 -0.079858 0.141613 0.003980 -0.240103 -0.017570 -0.040280 -0.103228 0.078799 0.082523 -0.104432 0.077919 -0.060603 -0.048708 0.034388 -0.006163 -0.015704 0.056240 0.114327 -0.097380 0.234714 -0.023678 0.063046 -0.098111 0.047290 0.038828 0.041618 -0.036140 -0.110133 -0.140621 -0.045684 0.093966 0.238824 0.023561 0.015514 0.112510 0.017646 -0.004790 0.015761 0.018469 -0.181353 0.104226 -0.055102 -0.051087 0.163626 -0.009807 -0.113063 0.111047 -0.100532 0.092089 0.161412 0.120824 0.086545 0.046809 -0.016755 0.079636 -0.062500 0.001058 0.028141 -0.076724 -0.162722 -0.013775 -0.069590 0.059785 0.026605 -0.025957 -0.005492 -0.110373 -0.071913 -0.249116 0.043991 0.088121 0.017294 -0.033630
72 -0.037000 -0.102840 -0.047504 -0.141923 0.044787 -0.083405 0.005823 0.109760 -0.037828 0.006530 -0.026390 0.207178 0.055305 -0.061204 -0.082497 -0.224704 -0.025154 -0.011987 0.076075 0.160010 0.180063 -0.075666 0.119262 0.152223 0.015627 -0.031072 -0.221806 -0.039580 -0.017468 0.004720 0.082088 -0.054472 -0.054829 -0.102959 -0.114652 -0.077512 0.131978 -0.001425 0.024855 -0.051800 -0.069743 0.150592 0.042853 -0.048872 -0.063068 0.219873 -0.003457 -0.025567 0.034314 -0.048855 -0.006476 -0.068776 0.073997 -0.092947 -0.008055 -0.080397 0.135488 0.007819 -0.226888 -0.012640 -0.035552 -0.097508 0.067871 0.080599 -0.094293 0.072609 -0.056342 -0.045497 0.022336 -0.014331 -0.011327 0.055255 0.106632 -0.093179 0.227156 -0.023540 0.061715 -0.096134 0.046848 0.036077 0.035680 -0.037147 -0.100948 -0.134462 -0.042667 0.095540 0.229098 0.021553 0.017643 0.103936 0.019187 -0.003883 0.014924 0.019293 -0.172554 0.098652 -0.060902 -0.047020 0.156410 -0.006242 -0.109347 0.108427 -0.105683 0.084633 0.159099 0.121904 0.084060 0.048785 -0.015352 0.073156 -0.050615 -0.000521 0.022043 -0.076293 -0.152272 -0.017554 -0.060165 0.055615 0.028189 -0.026973 -0.002528 -0.116966 -0.067240 -0.240738 0.041601 0.083893 0.012572 -0.032327
67 -0.037989 -0.103004 -0.045207 -0.145284 0.046763 -0.085688 0.009334 0.114490 -0.035193 0.006662 -0.021528 0.203397 0.057166 -0.059191 -0.084055 -0.238425 -0.025015 -0.016237 0.078852 0.163406 0.179813 -0.084682 0.123443 0.156252 0.020770 -0.032785 -0.229768 -0.043138 -0.011588 -0.002302 0.080268 -0.060780 -0.056522 -0.109014 -0.121784 -0.076420 0.134293 0.002969 0.030147 -0.049141 -0.077729 0.157150 0.051795 -0.044669 -0.063883 0.227638 -0.002943 -0.025789 0.043650 -0.044833 -0.006508 -0.074161 0.075296 -0.097679 -0.004403 -0.083319 0.143501 0.006886 -0.237802 -0.010102 -0.034641 -0.098104 0.074338 0.082507 -0.105734 0.077811 -0.056521 -0.043259 0.031685 -0.007573 -0.010074 0.056343 0.115474 -0.093672 0.229521 -0.028093 0.062143 -0.094962 0.049257 0.040443 0.036375 -0.035379 -0.107756 -0.133925 -0.045691 0.093131 0.227389 0.025843 0.018323 0.105345 0.020224 -0.003783 0.014922 0.019223 -0.177995 0.097901 -0.057095 -0.050094 0.160114 -0.011975 -0.110048 0.109727 -0.100437 0.087772 0.157506 0.120584 0.090960 0.051345 -0.016479 0.075600 -0.063363 0.002567 0.022165 -0.071103 -0.157028 -0.011941 -0.067716 0.054995 0.030718 -0.028638 -0.007696 -0.112886 -0.070880 -0.245357 0.039230 0.085628 0.023949 -0.030501
37 -0.050360 -0.120224 -0.052846 -0.163167 0.053460 -0.100587 0.009113 0.131393 -0.040488 0.009925 -0.037267 0.245654 0.071402 -0.075193 -0.106442 -0.271548 -0.038473 -0.017758 0.094350 0.188693 0.215781 -0.087154 0.152614 0.192815 0.016541 -0.038664 -0.256910 -0.049503 -0.018684 0.009472 0.102950 -0.069277 -0.070786 -0.129350 -0.131870 -0.092511 0.158142 -0.002037 0.032549 -0.064603 -0.083420 0.179300 0.062358 -0.053539 -0.081144 0.263690 0.000938 -0.027871 0.042702 -0.053228 -0.006259 -0.087436 0.087390 -0.110974 -0.007385 -0.092004 0.167386 0.004809 -0.274057 -0.010799 -0.047877 -0.115330 0.084470 0.094720 -0.119431 0.085332 -0.066799 -0.040693 0.030489 -0.011379 -0.004510 0.063946 0.118926 -0.109449 0.264385 -0.030111 0.081476 -0.107287 0.050784 0.043874 0.035306 -0.050472 -0.119796 -0.165013 -0.043302 0.113964 0.274301 0.034137 0.013324 0.127273 0.018622 -0.016400 0.016746 0.030062 -0.206839 0.114248 -0.074647 -0.051722 0.178780 -0.003614 -0.125036 0.126235 -0.125973 0.089780 0.192450 0.142638 0.109135 0.062773 -0.021185 0.094663 -0.061273 0.001833 0.025221 -0.094119 -0.187837 -0.022873 -0.069667 0.058787 0.024836 -0.026241 0.003349 -0.142172 -0.074921 -0.290675 0.052961 0.098217 0.014044 -0.042325
29 -0.044890 -0.113084 -0.055268 -0.156102 0.052057 -0.099638 0.010423 0.121228 -0.042027 0.009179 -0.028701 0.231254 0.061549 -0.066795 -0.096175 -0.258367 -0.035528 -0.021996 0.089516 0.179140 0.206224 -0.088752 0.131976 0.172605 0.014003 -0.039564 -0.250176 -0.049097 -0.013726 0.010889 0.097156 -0.060743 -0.060221 -0.112849 -0.131335 -0.082093 0.148716 0.004635 0.033623 -0.061577 -0.076636 0.165842 0.045695 -0.054722 -0.069056 0.251201 -0.003173 -0.028180 0.036028 -0.048383 -0.005530 -0.082762 0.076531 -0.104134 -0.011225 -0.084248 0.158880 0.008870 -0.252601 -0.013405 -0.035553 -0.108055 0.075827 0.088834 -0.114389 0.077746 -0.070131 -0.047327 0.032351 -0.006984 -0.013661 0.060074 0.108187 -0.100138 0.250592 -0.019449 0.074581 -0.104559 0.050611 0.038659 0.033097 -0.037139 -0.106901 -0.153245 -0.042836 0.105404 0.254575 0.022792 0.013398 0.110418 0.020835 -0.011276 0.019576 0.025066 -0.189421 0.114676 -0.069872 -0.043181 0.173443 -0.012569 -0.126428 0.122447 -0.116054 0.094446 0.175545 0.132284 0.095560 0.048029 -0.013057 0.086279 -0.058604 0.002944 0.017150 -0.082925 -0.177581 -0.023436 -0.069437 0.056171 0.032869 -0.025137 -0.002141 -0.129677 -0.078773 -0.274885 0.049637 0.092549 0.015729 -0.043390
30 -0.045186 -0.128401 -0.060419 -0.165785 0.050841 -0.105282 0.015200 0.133900 -0.045393 0.010935 -0.041380 0.249611 0.069527 -0.076099 -0.108943 -0.284695 -0.035383 -0.017872 0.090390 0.201033 0.226148 -0.092377 0.157934 0.191927 0.018564 -0.042916 -0.265671 -0.049623 -0.025619 0.011002 0.104576 -0.072807 -0.070092 -0.131321 -0.141488 -0.089719 0.160650 0.001515 0.034231 -0.071728 -0.087777 0.182764 0.064059 -0.049731 -0.079887 0.272049 0.001331 -0.036016 0.042902 -0.051596 -0.007074 -0.086836 0.089770 -0.121779 -0.003103 -0.096923 0.165628 0.008126 -0.278910 -0.013274 -0.045200 -0.119703 0.091084 0.096144 -0.119250 0.085212 -0.072383 -0.046445 0.033145 -0.018171 -0.005838 0.065787 0.124092 -0.115293 0.270851 -0.033083 0.083832 -0.107428 0.053764 0.045926 0.034498 -0.050176 -0.125509 -0.167570 -0.046407 0.120704 0.277690 0.033999 0.012117 0.132180 0.026369 -0.017078 0.020968 0.030088 -0.212085 0.120042 -0.079004 -0.047358 0.189061 -0.006163 -0.127578 0.134183 -0.129620 0.090644 0.194327 0.144057 0.111436 0.064321 -0.022102 0.093210 -0.068775 -0.002186 0.020210 -0.096834 -0.190896 -0.024005 -0.077941 0.063351 0.026860 -0.020947 -0.003164 -0.141659 -0.080202 -0.294801 0.054838 0.104711 0.022152 -0.039784
39 -0.050599 -0.120419 -0.055936 -0.166342 0.057003 -0.101702 0.013264 0.135262 -0.045062 0.008408 -0.039005 0.242553 0.069607 -0.072929 -0.104946 -0.278009 -0.039245 -0.015795 0.089413 0.195817 0.223016 -0.087261 0.154611 0.194431 0.013365 -0.038738 -0.264825 -0.044861 -0.024208 0.008900 0.105431 -0.071347 -0.069725 -0.129683 -0.133736 -0.091724 0.158060 -0.000099 0.030761 -0.069621 -0.084503 0.178769 0.061060 -0.055569 -0.076915 0.270164 0.002568 -0.029838 0.044867 -0.049275 -0.008088 -0.085278 0.086555 -0.118444 -0.004309 -0.093490 0.163704 0.009126 -0.272087 -0.013379 -0.048234 -0.111424 0.084105 0.092265 -0.122696 0.084417 -0.065649 -0.040894 0.034083 -0.015613 -0.004216 0.065522 0.119453 -0.111358 0.266159 -0.027387 0.082402 -0.106967 0.056110 0.039818 0.040292 -0.046001 -0.119230 -0.166376 -0.045203 0.116238 0.278746 0.034945 0.013308 0.131519 0.022106 -0.012011 0.023382 0.028238 -0.211874 0.117787 -0.074968 -0.048202 0.183736 -0.001577 -0.131575 0.134563 -0.128709 0.091471 0.194774 0.140319 0.105241 0.064464 -0.019054 0.088591 -0.066522 0.004490 0.022014 -0.093003 -0.193796 -0.022757 -0.076128 0.060774 0.023875 -0.027711 -0.000044 -0.140723 -0.075951 -0.291054 0.055505 0.101901 0.016861 -0.041674
76 -0.043805 -0.104014 -0.051196 -0.139924 0.050139 -0.092781 0.011676 0.112340 -0.035486 0.005877 -0.030518 0.211361 0.058089 -0.062078 -0.080773 -0.234619 -0.024560 -0.016215 0.082942 0.166741 0.183700 -0.080664 0.123014 0.154307 0.015092 -0.035875 -0.231228 -0.042360 -0.018297 0.004213 0.090322 -0.052627 -0.055297 -0.100832 -0.112435 -0.072780 0.129230 -0.003596 0.029907 -0.051711 -0.077801 0.145862 0.048733 -0.048018 -0.066151 0.226697 0.000014 -0.026276 0.034712 -0.043483 -0.003761 -0.074406 0.074555 -0.096539 -0.007257 -0.081695 0.144233 0.008878 -0.231307 -0.010563 -0.036577 -0.091456 0.066726 0.078416 -0.100188 0.074978 -0.062747 -0.045222 0.022528 -0.012452 -0.002936 0.052845 0.107498 -0.096842 0.232761 -0.020548 0.062008 -0.094205 0.041432 0.033235 0.036902 -0.033995 -0.103856 -0.134911 -0.038129 0.098636 0.231753 0.023144 0.013148 0.101245 0.016340 -0.003056 0.016666 0.022976 -0.179812 0.097852 -0.062398 -0.045158 0.161819 -0.009010 -0.109331 0.105634 -0.108900 0.079975 0.163208 0.124508 0.093979 0.053137 -0.008542 0.072277 -0.053667 0.005701 0.018428 -0.071332 -0.156408 -0.012985 -0.060574 0.052529 0.027149 -0.021664 -0.004659 -0.117719 -0.064499 -0.241741 0.042327 0.085151 0.018958 -0.031722
58 -0.039033 -0.110237 -0.052099 -0.157083 0.042861 -0.087149 0.009666 0.125984 -0.040518 0.006282 -0.025390 0.217455 0.068296 -0.054959 -0.090993 -0.251203 -0.030147 -0.013499 0.084427 0.171772 0.189907 -0.090208 0.127618 0.165439 0.022249 -0.040404 -0.249087 -0.045025 -0.015270 0.005033 0.089989 -0.061957 -0.056041 -0.111123 -0.125429 -0.078855 0.142862 0.004498 0.025090 -0.048885 -0.083228 0.157516 0.048643 -0.053480 -0.068772 0.241847 -0.001904 -0.027910 0.041688 -0.051035 -0.004232 -0.080920 0.084419 -0.099645 -0.005058 -0.083042 0.148232 0.003135 -0.244225 -0.012655 -0.034997 -0.105791 0.077622 0.081276 -0.107657 0.080382 -0.059112 -0.048630 0.034546 -0.004057 -0.014813 0.050893 0.119530 -0.103523 0.241414 -0.031741 0.061808 -0.103781 0.048649 0.038252 0.038284 -0.040132 -0.112214 -0.142384 -0.040677 0.099048 0.246327 0.025180 0.012087 0.111245 0.017240 -0.007250 0.013692 0.025770 -0.191108 0.106631 -0.065648 -0.056637 0.174279 -0.009585 -0.116425 0.113337 -0.103047 0.095820 0.162055 0.131346 0.088508 0.054907 -0.016293 0.082744 -0.064128 -0.003308 0.027690 -0.081985 -0.169789 -0.017147 -0.071687 0.059309 0.026343 -0.027399 -0.002474 -0.115943 -0.076076 -0.258309 0.041841 0.088971 0.022848 -0.033065
38 -0.043924 -0.126583 -0.054620 -0.167381 0.050124 -0.105975 0.009447 0.131490 -0.040638 0.006937 -0.038039 0.246323 0.073557 -0.073047 -0.108374 -0.277720 -0.036706 -0.015895 0.094138 0.194993 0.218733 -0.087802 0.153316 0.191920 0.013922 -0.039425 -0.262544 -0.051434 -0.021167 0.006664 0.102211 -0.072457 -0.070183 -0.131965 -0.140134 -0.093309 0.157134 -0.004928 0.030711 -0.069479 -0.087484 0.177961 0.065559 -0.050482 -0.080673 0.270651 0.003516 -0.036762 0.045066 -0.054499 -0.008355 -0.088711 0.083212 -0.119039 -0.007784 -0.099270 0.169743 0.007104 -0.280303 -0.011996 -0.048375 -0.117656 0.088060 0.090106 -0.120097 0.088856 -0.066140 -0.042991 0.028515 -0.014013 -0.010879 0.062823 0.120273 -0.115529 0.262305 -0.030458 0.085336 -0.104851 0.053317 0.041354 0.038373 -0.048056 -0.118869 -0.163710 -0.049264 0.114981 0.278498 0.030580 0.012524 0.128971 0.024868 -0.015308 0.017425 0.028804 -0.215687 0.115585 -0.075417 -0.052112 0.184348 -0.001108 -0.128092 0.132064 -0.122234 0.089113 0.188387 0.141293 0.105213 0.063366 -0.020202 0.094883 -0.067073 0.004668 0.024471 -0.094917 -0.193600 -0.023931 -0.074645 0.062920 0.023961 -0.022098 0.000896 -0.142481 -0.081442 -0.290321 0.048892 0.103781 0.014430 -0.038572
47 -0.075162 -0.180808 -0.086743 -0.248334 0.061311 -0.150629 0.001482 0.197564 -0.072227 0.010250 -0.060980 0.358326 0.123410 -0.113080 -0.135488 -0.394494 -0.046331 -0.034405 0.144849 0.307712 0.322984 -0.137601 0.196596 0.274927 0.049024 -0.050098 -0.388196 -0.071661 -0.046439 -0.012036 0.144524 -0.095323 -0.079402 -0.188947 -0.206010 -0.132266 0.235481 -0.006717 0.031541 -0.073467 -0.133635 0.259927 0.077241 -0.079667 -0.090177 0.387023 -0.009418 -0.057910 0.044786 -0.079404 0.017060 -0.111479 0.136997 -0.174494 -0.003288 -0.133454 0.220918 0.014966 -0.392432 -0.045684 -0.056665 -0.173707 0.126382 0.137197 -0.184025 0.111890 -0.102024 -0.059739 0.045334 -0.005661 -0.026961 0.066000 0.190078 -0.143175 0.388111 -0.053318 0.086930 -0.157329 0.081028 0.057377 0.070644 -0.073528 -0.171831 -0.248926 -0.055996 0.155118 0.388149 0.052597 0.033153 0.174861 0.020176 0.004579 0.012377 0.042480 -0.298908 0.165317 -0.115260 -0.089583 0.265333 0.001513 -0.187557 0.186567 -0.167644 0.142235 0.249142 0.223679 0.129942 0.104289 -0.048643 0.136221 -0.086570 -0.006944 0.048398 -0.141729 -0.278511 -0.017104 -0.115758 0.083062 0.043643 -0.035835 0.005712 -0.198895 -0.128846 -0.426888 0.062388 0.149117 0.027783 -0.051544
48 -0.072262 -0.173767 -0.080454 -0.240142 0.056885 -0.144775 0.005715 0.185330 -0.068777 0.006917 -0.060349 0.348829 0.119020 -0.101366 -0.133880 -0.390357 -0.047127 -0.034240 0.139476 0.296275 0.311566 -0.134188 0.189455 0.262278 0.043574 -0.047178 -0.384677 -0.074706 -0.043405 -0.010765 0.143186 -0.095363 -0.076945 -0.177584 -0.204412 -0.131067 0.229513 -0.005512 0.032602 -0.071095 -0.134372 0.247322 0.080236 -0.076715 -0.088374 0.380129 -0.005506 -0.057261 0.042842 -0.081645 0.013336 -0.107336 0.131337 -0.163497 -0.008313 -0.126598 0.213443 0.016789 -0.383777 -0.041355 -0.051902 -0.163431 0.125437 0.136123 -0.175209 0.112037 -0.102799 -0.060982 0.050304 -0.010179 -0.028934 0.066687 0.177899 -0.138835 0.382728 -0.045384 0.085968 -0.155908 0.080913 0.060840 0.072010 -0.066339 -0.162016 -0.239896 -0.056244 0.146197 0.379076 0.054385 0.030817 0.176529 0.020331 0.007001 0.011187 0.041876 -0.288448 0.157819 -0.106233 -0.086038 0.264517 0.002133 -0.181993 0.176423 -0.162952 0.137108 0.241303 0.217724 0.126409 0.098264 -0.046498 0.126062 -0.090877 -0.007896 0.045730 -0.133941 -0.272986 -0.018603 -0.107660 0.087592 0.045067 -0.039638 0.006615 -0.195488 -0.118835 -0.411344 0.060151 0.145670 0.031155 -0.052507
32 -0.047203 -0.121672 -0.059388 -0.163542 0.049689 -0.103611 0.012567 0.131340 -0.045971 0.009579 -0.033783 0.242838 0.069822 -0.070216 -0.101132 -0.267640 -0.034830 -0.019994 0.087866 0.191989 0.218246 -0.089461 0.140110 0.183633 0.016858 -0.036776 -0.264991 -0.044313 -0.016918 0.004275 0.096065 -0.064585 -0.061055 -0.118246 -0.138140 -0.089535 0.158328 0.005885 0.030516 -0.063220 -0.089834 0.176193 0.050788 -0.052669 -0.076922 0.260296 0.000819 -0.027619 0.041777 -0.057300 -0.005812 -0.084231 0.085206 -0.110266 -0.006684 -0.096142 0.158779 0.004904 -0.268696 -0.019449 -0.037291 -0.110685 0.083000 0.098360 -0.119000 0.082375 -0.072713 -0.043751 0.031348 -0.014860 -0.015025 0.065302 0.123643 -0.111585 0.260289 -0.023752 0.075589 -0.110331 0.052851 0.043256 0.038411 -0.045538 -0.111116 -0.160723 -0.049420 0.113454 0.267765 0.029649 0.017328 0.118700 0.022583 -0.003866 0.023706 0.020255 -0.206000 0.115184 -0.069843 -0.052111 0.178977 -0.011188 -0.127084 0.123760 -0.123127 0.095725 0.185525 0.147079 0.106441 0.052172 -0.021827 0.090770 -0.063300 -0.002499 0.027204 -0.083664 -0.179847 -0.015318 -0.074519 0.069514 0.035067 -0.028469 -0.002270 -0.139146 -0.081266 -0.288357 0.051439 0.091056 0.014130 -0.036306
40 -0.073509 -0.170542 -0.091090 -0.239693 0.089962 -0.142043 0.000987 0.205378 -0.074160 -0.001099 -0.047708 0.345764 0.087160 -0.113619 -0.162771 -0.394380 -0.041860 -0.024536 0.120003 0.271058 0.328881 -0.128457 0.208264 0.262705 0.018504 -0.063071 -0.379645 -0.083381 -0.040446 -0.010128 0.142336 -0.091765 -0.102731 -0.170911 -0.198307 -0.128754 0.217989 0.011484 0.050546 -0.082599 -0.137858 0.264190 0.069780 -0.069429 -0.122749 0.358187 0.001428 -0.042380 0.066678 -0.074649 -0.009000 -0.139119 0.126652 -0.150154 0.013617 -0.154031 0.222936 -0.004802 -0.384169 -0.027021 -0.054211 -0.144985 0.119620 0.125882 -0.173528 0.123170 -0.096080 -0.072700 0.047003 -0.019682 -0.021004 0.096299 0.167256 -0.160590 0.387267 -0.043479 0.106790 -0.173017 0.064311 0.052503 0.063421 -0.067593 -0.174914 -0.231050 -0.053520 0.176170 0.392454 0.032208 0.021384 0.187746 0.016032 -0.026617 0.035389 0.029049 -0.286497 0.174160 -0.090730 -0.082825 0.267279 -0.026035 -0.181653 0.176456 -0.160828 0.152222 0.277385 0.204186 0.158646 0.059262 -0.028223 0.120690 -0.101915 -0.006543 0.026109 -0.125729 -0.258115 -0.027877 -0.088358 0.084004 0.060853 -0.039647 0.003476 -0.185978 -0.130331 -0.430971 0.065635 0.141724 0.036497 -0.076457
53 -0.068632 -0.168123 -0.094169 -0.239761 0.093097 -0.139384 -0.000695 0.203198 -0.077686 -0.000718 -0.054217 0.346314 0.080671 -0.112671 -0.161024 -0.384886 -0.035774 -0.017223 0.118764 0.271596 0.325710 -0.124703 0.197749 0.255453 0.017689 -0.068734 -0.367254 -0.080427 -0.037512 -0.011759 0.142854 -0.091869 -0.104234 -0.175867 -0.198936 -0.121355 0.220637 0.005315 0.050822 -0.081747 -0.134410 0.264181 0.064327 -0.072832 -0.124294 0.352688 0.004099 -0.035848 0.062922 -0.077499 -0.004556 -0.137811 0.131628 -0.141900 0.014419 -0.154074 0.219299 -0.006544 -0.383928 -0.022058 -0.055289 -0.144881 0.123169 0.123315 -0.174915 0.122953 -0.088359 -0.071628 0.040153 -0.027708 -0.012607 0.098676 0.159622 -0.151389 0.386367 -0.038234 0.103627 -0.176573 0.066427 0.050671 0.061895 -0.070176 -0.178647 -0.220842 -0.051177 0.176221 0.384927 0.035827 0.027635 0.181525 0.017098 -0.025632 0.038939 0.027903 -0.282870 0.167786 -0.089867 -0.079169 0.263058 -0.029488 -0.186572 0.175969 -0.163293 0.154153 0.275509 0.202951 0.154042 0.055334 -0.024737 0.117508 -0.103129 -0.006045 0.025444 -0.126532 -0.256066 -0.025756 -0.083860 0.079644 0.062861 -0.033283 -0.001776 -0.186580 -0.132460 -0.426608 0.068423 0.133433 0.038158 -0.078826
45 -0.039229 -0.108365 -0.053660 -0.150652 0.050673 -0.092309 0.012332 0.124278 -0.036175 0.007559 -0.032259 0.219877 0.065181 -0.062167 -0.092998 -0.248431 -0.028766 -0.015337 0.081296 0.175483 0.194888 -0.085960 0.131692 0.164699 0.015461 -0.034205 -0.243455 -0.047414 -0.016104 0.010078 0.091446 -0.057135 -0.063411 -0.107127 -0.122896 -0.075753 0.136339 0.005197 0.032176 -0.057328 -0.079101 0.156582 0.048514 -0.051327 -0.070699 0.234202 0.001423 -0.023980 0.039810 -0.043066 -0.001860 -0.079482 0.072405 -0.097937 -0.006104 -0.087978 0.151017 0.004350 -0.245824 -0.013198 -0.037362 -0.101262 0.076059 0.085895 -0.108882 0.079001 -0.064721 -0.043867 0.027250 -0.007629 -0.007822 0.061482 0.106066 -0.102989 0.244014 -0.019596 0.071930 -0.099350 0.049863 0.040709 0.035913 -0.039846 -0.108488 -0.141484 -0.044596 0.101290 0.244528 0.025299 0.011487 0.107717 0.018332 -0.007630 0.017083 0.023366 -0.187836 0.109883 -0.062137 -0.046797 0.170712 -0.004172 -0.122955 0.113205 -0.112794 0.093732 0.167846 0.124410 0.097184 0.050188 -0.012426 0.085051 -0.059943 0.005301 0.019413 -0.076753 -0.168392 -0.021012 -0.066261 0.054785 0.027266 -0.021688 0.000797 -0.126812 -0.072749 -0.261524 0.046119 0.090219 0.020593 -0.040202
55 -0.040049 -0.106113 -0.047680 -0.143774 0.044135 -0.089881 0.012739 0.115129 -0.036159 0.008164 -0.026216 0.210099 0.055141 -0.057037 -0.091539 -0.235444 -0.027475 -0.011158 0.077881 0.164165 0.191285 -0.078544 0.121532 0.157947 0.018454 -0.035072 -0.233576 -0.044174 -0.018317 0.004636 0.087175 -0.056937 -0.052085 -0.105397 -0.114936 -0.074432 0.129685 0.002811 0.025077 -0.053308 -0.073703 0.156980 0.049366 -0.049672 -0.062279 0.229028 0.001757 -0.027017 0.038472 -0.048139 -0.007575 -0.074803 0.081153 -0.094989 -0.007253 -0.085293 0.142206 0.002979 -0.234798 -0.016185 -0.032519 -0.095961 0.075335 0.077439 -0.099301 0.077493 -0.056961 -0.045035 0.028496 -0.011507 -0.012047 0.056993 0.109799 -0.090178 0.232682 -0.023956 0.064872 -0.101732 0.041872 0.041075 0.037434 -0.040186 -0.099933 -0.140740 -0.043396 0.096899 0.230695 0.022202 0.009091 0.108735 0.021393 -0.003233 0.020668 0.015751 -0.181810 0.098239 -0.061734 -0.043528 0.160137 -0.008143 -0.109214 0.110749 -0.104012 0.084822 0.160857 0.125334 0.091207 0.046542 -0.012099 0.078218 -0.060929 0.003812 0.024090 -0.077080 -0.153994 -0.018012 -0.059108 0.054037 0.032672 -0.027682 0.001440 -0.112405 -0.074211 -0.253743 0.039847 0.082766 0.015212 -0.032859
75 -0.041724 -0.128411 -0.062379 -0.184957 0.054253 -0.101761 0.012953 0.143278 -0.049289 0.004174 -0.027880 0.253133 0.072619 -0.070739 -0.110412 -0.295196 -0.031645 -0.020812 0.101247 0.210153 0.232912 -0.103808 0.147833 0.196298 0.019699 -0.045794 -0.289078 -0.046841 -0.017315 0.003000 0.102916 -0.064756 -0.070215 -0.125478 -0.144462 -0.096140 0.170952 0.000602 0.032474 -0.060991 -0.092607 0.183560 0.058801 -0.059439 -0.075101 0.282932 0.000655 -0.034010 0.050255 -0.053537 -0.005333 -0.090812 0.094372 -0.120688 -0.001275 -0.094210 0.172984 0.009655 -0.287791 -0.019202 -0.046802 -0.122412 0.098404 0.094751 -0.129952 0.093618 -0.067443 -0.058904 0.033168 -0.013365 -0.008926 0.061193 0.135276 -0.121707 0.287496 -0.032294 0.075040 -0.116008 0.059004 0.043118 0.046117 -0.042000 -0.131186 -0.168359 -0.050912 0.115975 0.289897 0.037663 0.014603 0.127792 0.018720 -0.002081 0.018338 0.021298 -0.229236 0.120744 -0.073620 -0.056365 0.203674 -0.008082 -0.138859 0.131125 -0.127915 0.108375 0.191567 0.153956 0.110957 0.058285 -0.025706 0.090888 -0.072977 0.001874 0.035169 -0.093245 -0.195065 -0.023415 -0.082323 0.069730 0.029714 -0.026402 -0.009998 -0.146630 -0.083375 -0.307507 0.053659 0.106049 0.020855 -0.043845
74 -0.045975 -0.124574 -0.059772 -0.176183 0.051880 -0.097383 0.007462 0.140297 -0.047305 0.002886 -0.029786 0.248018 0.066808 -0.065255 -0.102375 -0.282937 -0.028461 -0.016254 0.098914 0.193798 0.217510 -0.096231 0.144290 0.193176 0.015733 -0.036188 -0.273952 -0.047131 -0.014984 0.005713 0.103446 -0.062033 -0.070182 -0.121638 -0.136360 -0.093370 0.159003 -0.002499 0.031061 -0.056823 -0.094344 0.181565 0.052827 -0.053758 -0.072498 0.270113 -0.004141 -0.035723 0.046292 -0.055720 -0.005238 -0.088475 0.087886 -0.112182 -0.004031 -0.090703 0.167089 0.009053 -0.280224 -0.016676 -0.044519 -0.119536 0.092581 0.092217 -0.124605 0.087403 -0.065715 -0.055137 0.028257 -0.014235 -0.009192 0.062307 0.129902 -0.117569 0.275441 -0.030287 0.078811 -0.116333 0.057198 0.041112 0.040245 -0.046624 -0.125568 -0.158780 -0.048815 0.107849 0.270246 0.036167 0.011701 0.127735 0.023321 -0.006852 0.021300 0.019654 -0.218119 0.118019 -0.066774 -0.054031 0.196095 -0.012001 -0.132191 0.124604 -0.120765 0.099572 0.191129 0.147588 0.100746 0.061287 -0.023567 0.087920 -0.073092 -0.003522 0.032393 -0.092235 -0.187712 -0.021756 -0.079540 0.063539 0.032543 -0.032339 -0.008285 -0.138873 -0.082330 -0.291547 0.045541 0.096229 0.018230 -0.043605
43 -0.036495 -0.085612 -0.042514 -0.123859 0.040991 -0.078174 0.011127 0.098583 -0.031653 0.005355 -0.022577 0.178574 0.046668 -0.049727 -0.070989 -0.199840 -0.027511 -0.012546 0.063989 0.139817 0.160785 -0.067526 0.108397 0.132918 0.011969 -0.025461 -0.196286 -0.033496 -0.015643 0.005658 0.077041 -0.042225 -0.048704 -0.085014 -0.096215 -0.064018 0.112579 0.001500 0.026914 -0.041606 -0.059980 0.130298 0.041565 -0.040498 -0.058704 0.192576 0.002236 -0.024341 0.029710 -0.040343 -0.002156 -0.060514 0.064378 -0.081029 -0.005742 -0.070773 0.123659 0.004983 -0.202569 -0.014797 -0.029785 -0.078769 0.059566 0.071966 -0.088180 0.061408 -0.048130 -0.038509 0.023559 -0.006325 -0.004204 0.049930 0.093005 -0.082828 0.195078 -0.023694 0.054972 -0.085019 0.035344 0.033319 0.033397 -0.028239 -0.085937 -0.114086 -0.036725 0.080143 0.198863 0.025051 0.011156 0.090779 0.017330 -0.002856 0.017369 0.020914 -0.153137 0.086214 -0.051846 -0.039010 0.137257 -0.005336 -0.092429 0.095858 -0.090062 0.071997 0.139537 0.102483 0.080428 0.039631 -0.008363 0.062729 -0.048114 0.001249 0.015039 -0.062669 -0.138397 -0.015911 -0.055786 0.045809 0.025602 -0.020456 0.000429 -0.102672 -0.060114 -0.209776 0.035524 0.070940 0.016145 -0.031204
31 -0.045080 -0.124237 -0.055989 -0.169434 0.048767 -0.115629 0.008991 0.135102 -0.048801 0.012574 -0.031916 0.259933 0.081244 -0.080518 -0.106885 -0.287769 -0.045389 -0.018981 0.099431 0.203448 0.234086 -0.101012 0.149796 0.199727 0.022850 -0.033378 -0.274293 -0.048595 -0.018846 0.008274 0.098993 -0.062692 -0.072473 -0.124341 -0.140830 -0.092900 0.163489 0.002886 0.036805 -0.069214 -0.091978 0.186686 0.050519 -0.056450 -0.078833 0.277145 -0.005572 -0.031172 0.044316 -0.055877 -0.010034 -0.087547 0.091422 -0.122198 -0.001101 -0.099827 0.169872 0.002486 -0.287100 -0.025263 -0.035023 -0.119121 0.089403 0.098888 -0.123761 0.084874 -0.079540 -0.051141 0.030449 -0.010252 -0.013310 0.064020 0.128677 -0.116918 0.280761 -0.025225 0.082710 -0.118211 0.061103 0.048519 0.042373 -0.048236 -0.120007 -0.174928 -0.053667 0.116297 0.277290 0.026963 0.017620 0.123731 0.018850 -0.003246 0.028071 0.022686 -0.223568 0.123376 -0.076507 -0.052467 0.192177 -0.005752 -0.141183 0.133561 -0.127365 0.101360 0.191782 0.152606 0.109936 0.057977 -0.017090 0.094424 -0.070174 -0.004485 0.023341 -0.093887 -0.192189 -0.015960 -0.082686 0.075019 0.029112 -0.024646 -0.001912 -0.146036 -0.087437 -0.313710 0.051702 0.101432 0.013095 -0.041820
73 -0.035347 -0.081677 -0.037973 -0.117892 0.040368 -0.071146 0.009492 0.094096 -0.035139 0.002019 -0.026334 0.167075 0.047756 -0.045548 -0.071251 -0.190323 -0.024600 -0.015476 0.060439 0.131132 0.153071 -0.064687 0.098355 0.124924 0.011464 -0.027225 -0.182871 -0.030330 -0.011331 0.000813 0.066642 -0.045544 -0.042456 -0.087737 -0.096585 -0.064615 0.105867 -0.000843 0.019947 -0.044842 -0.063821 0.119108 0.040018 -0.037210 -0.054729 0.184697 0.000950 -0.021496 0.030382 -0.036111 -0.006022 -0.059209 0.062347 -0.074758 -0.002799 -0.068529 0.112221 0.003737 -0.185249 -0.010172 -0.030133 -0.079631 0.062098 0.061826 -0.083804 0.061972 -0.049203 -0.034427 0.022102 -0.007096 -0.004102 0.046206 0.085467 -0.072523 0.185733 -0.022642 0.051806 -0.080969 0.039839 0.030837 0.031223 -0.034200 -0.079143 -0.111594 -0.030149 0.074539 0.183430 0.018831 0.013880 0.086583 0.013528 -0.006066 0.012221 0.016537 -0.144509 0.082827 -0.045372 -0.037825 0.131395 -0.007346 -0.092451 0.087674 -0.087260 0.066960 0.131708 0.098477 0.072125 0.037502 -0.012137 0.058251 -0.046687 -0.000829 0.017449 -0.061009 -0.128479 -0.013719 -0.052300 0.047963 0.025790 -0.019084 0.002117 -0.091290 -0.058268 -0.200262 0.036858 0.066752 0.015739 -0.027190
44 -0.035667 -0.095656 -0.049076 -0.135407 0.042888 -0.082922 0.008724 0.108424 -0.034075 0.007181 -0.025219 0.196405 0.051955 -0.055382 -0.081550 -0.217578 -0.028994 -0.018575 0.072885 0.155348 0.175775 -0.070179 0.113507 0.151104 0.018510 -0.031977 -0.212896 -0.036188 -0.012194 0.006236 0.080884 -0.054766 -0.057656 -0.099716 -0.109107 -0.072995 0.123431 0.005417 0.025366 -0.052254 -0.072860 0.145518 0.042127 -0.043055 -0.061102 0.211951 -0.003409 -0.022029 0.030466 -0.043873 -0.006245 -0.069826 0.070271 -0.091965 -0.002212 -0.078395 0.134517 0.001455 -0.216859 -0.017435 -0.033486 -0.090225 0.069560 0.071729 -0.093089 0.073037 -0.060115 -0.035729 0.026519 -0.007201 -0.004530 0.051285 0.098840 -0.091508 0.213356 -0.019642 0.058114 -0.094646 0.044602 0.036926 0.031356 -0.038143 -0.096382 -0.130950 -0.040070 0.086741 0.219341 0.022913 0.008074 0.098930 0.013554 -0.006302 0.015853 0.016009 -0.171601 0.096627 -0.053937 -0.039453 0.145966 -0.004664 -0.104023 0.106594 -0.097510 0.081314 0.151050 0.117770 0.089161 0.045113 -0.016842 0.072639 -0.051221 -0.003207 0.015326 -0.067845 -0.149173 -0.011974 -0.060748 0.051388 0.026229 -0.024189 0.000742 -0.111884 -0.066778 -0.229988 0.042138 0.073840 0.013538 -0.035602
46 -0.038643 -0.094082 -0.040971 -0.123586 0.041922 -0.075492 0.010722 0.103627 -0.037673 0.007226 -0.022001 0.188324 0.049070 -0.049867 -0.080149 -0.210860 -0.023598 -0.014476 0.069720 0.149048 0.163902 -0.073120 0.109987 0.144977 0.017211 -0.034230 -0.206675 -0.040037 -0.013665 0.003425 0.074768 -0.047107 -0.052912 -0.088355 -0.104241 -0.068692 0.116224 0.000208 0.028975 -0.043996 -0.067797 0.132087 0.043450 -0.040944 -0.061282 0.203550 -0.000354 -0.022121 0.027956 -0.042556 0.000829 -0.065679 0.063482 -0.084017 -0.007304 -0.069978 0.126865 0.003695 -0.211259 -0.015468 -0.029319 -0.087098 0.061099 0.070549 -0.092580 0.064670 -0.054192 -0.039972 0.025721 -0.010474 -0.011343 0.047132 0.091381 -0.082977 0.207426 -0.018564 0.054028 -0.087601 0.038735 0.028036 0.034343 -0.035107 -0.092683 -0.124330 -0.034193 0.082518 0.205623 0.023197 0.008071 0.097286 0.019518 -0.005140 0.017877 0.023030 -0.156944 0.091649 -0.054562 -0.036270 0.140078 -0.006861 -0.104551 0.094260 -0.096218 0.076315 0.140408 0.107057 0.080542 0.042895 -0.008881 0.071758 -0.051469 0.004727 0.019151 -0.064302 -0.145181 -0.018405 -0.053205 0.046649 0.020527 -0.019774 -0.004260 -0.107694 -0.059715 -0.218319 0.040841 0.070795 0.011330 -0.033787
5 -0.030912 -0.085074 -0.040508 -0.112901 0.039643 -0.073334 0.011900 0.093640 -0.027908 0.000621 -0.015759 0.169144 0.045406 -0.052763 -0.068969 -0.195601 -0.023913 -0.018032 0.061994 0.133010 0.151296 -0.059015 0.096255 0.133277 0.016742 -0.028868 -0.185219 -0.035364 -0.008065 0.005913 0.063596 -0.048791 -0.051837 -0.075985 -0.094719 -0.066685 0.111146 0.004094 0.022980 -0.039685 -0.056028 0.115832 0.039146 -0.031317 -0.056347 0.177719 -0.000718 -0.025966 0.028833 -0.039118 -0.000926 -0.059064 0.062202 -0.076149 -0.005638 -0.067071 0.114980 0.004607 -0.185536 -0.011948 -0.029004 -0.079361 0.061221 0.069666 -0.082946 0.060716 -0.043725 -0.031989 0.018873 -0.015809 -0.008090 0.043848 0.083875 -0.080003 0.186041 -0.022159 0.053209 -0.081168 0.032457 0.025818 0.023131 -0.031142 -0.085004 -0.110600 -0.034128 0.073088 0.186281 0.023977 0.015073 0.082225 0.018211 -0.003892 0.016020 0.015837 -0.150993 0.083981 -0.056267 -0.040499 0.132789 0.001315 -0.095975 0.085409 -0.084198 0.063746 0.121552 0.098373 0.074157 0.041453 -0.016557 0.057091 -0.045259 0.001169 0.020220 -0.062735 -0.131019 -0.007119 -0.046208 0.048953 0.024155 -0.018382 -0.002702 -0.095457 -0.055682 -0.209997 0.026383 0.069394 0.017320 -0.020833
1 -0.035146 -0.085409 -0.032823 -0.115291 0.038865 -0.074476 0.007351 0.098276 -0.028752 0.003575 -0.021470 0.164359 0.049355 -0.053452 -0.072102 -0.192043 -0.018724 -0.015947 0.066488 0.128545 0.148887 -0.061658 0.099417 0.128999 0.015655 -0.026181 -0.181193 -0.028677 -0.006765 0.003683 0.062316 -0.044445 -0.048789 -0.077261 -0.098240 -0.065621 0.105084 0.000462 0.026902 -0.043526 -0.062096 0.113884 0.043151 -0.030218 -0.054698 0.174154 -0.004027 -0.024459 0.031959 -0.033141 -0.003787 -0.058079 0.057367 -0.068818 -0.010516 -0.064429 0.111702 0.009124 -0.189517 -0.006656 -0.026069 -0.079515 0.054730 0.065506 -0.082817 0.061601 -0.045541 -0.029846 0.014558 -0.012064 -0.006354 0.039443 0.089286 -0.075759 0.181056 -0.021919 0.056763 -0.080181 0.037082 0.025184 0.024865 -0.034127 -0.083293 -0.111758 -0.032313 0.073154 0.181281 0.020086 0.015692 0.083375 0.014916 -0.002535 0.014641 0.015079 -0.146292 0.081484 -0.052537 -0.040584 0.131772 -0.002206 -0.093535 0.087436 -0.079818 0.066183 0.127227 0.102209 0.075397 0.043473 -0.015004 0.059634 -0.044908 -0.001521 0.019338 -0.056150 -0.128737 -0.012488 -0.045621 0.048642 0.018239 -0.021831 -0.002911 -0.093298 -0.059673 -0.202329 0.028469 0.066014 0.017763 -0.024726
9 -0.035941 -0.088529 -0.043792 -0.124266 0.041753 -0.078007 0.008750 0.107540 -0.031681 0.002368 -0.020117 0.184473 0.052072 -0.061870 -0.078794 -0.210756 -0.024936 -0.013384 0.066526 0.143953 0.158930 -0.063925 0.112597 0.137258 0.014830 -0.027586 -0.203341 -0.038684 -0.009245 0.009254 0.073794 -0.048412 -0.056756 -0.087173 -0.102396 -0.071352 0.123573 0.002216 0.022482 -0.040898 -0.068173 0.124184 0.046857 -0.031283 -0.062671 0.191687 -0.001002 -0.029769 0.029270 -0.044084 -0.002303 -0.067159 0.061958 -0.077825 -0.005534 -0.072675 0.122084 0.006196 -0.206684 -0.010813 -0.030314 -0.083620 0.060434 0.074386 -0.085929 0.064551 -0.049216 -0.034433 0.017970 -0.014359 -0.004458 0.050699 0.097361 -0.085489 0.205262 -0.023348 0.057908 -0.081907 0.035708 0.033933 0.031068 -0.035460 -0.095794 -0.123365 -0.034837 0.084340 0.201672 0.022505 0.012077 0.091586 0.018203 -0.004755 0.019357 0.019974 -0.161843 0.086716 -0.055943 -0.041763 0.141206 -0.001378 -0.103927 0.089954 -0.092914 0.074496 0.138099 0.108680 0.078411 0.048991 -0.018332 0.060779 -0.044205 0.001291 0.023617 -0.066879 -0.140744 -0.013813 -0.056827 0.054952 0.021812 -0.019060 -0.004642 -0.108097 -0.063624 -0.223267 0.030493 0.077383 0.021422 -0.025989
34 -0.032849 -0.082505 -0.035015 -0.108327 0.038108 -0.069904 0.010712 0.089277 -0.032861 0.004716 -0.025255 0.161404 0.047189 -0.046301 -0.070284 -0.183522 -0.017861 -0.011066 0.064328 0.131275 0.144765 -0.062413 0.099553 0.120897 0.013764 -0.030173 -0.176142 -0.033876 -0.013808 0.005575 0.069818 -0.042393 -0.046054 -0.079854 -0.090464 -0.056541 0.108164 0.003255 0.021771 -0.037441 -0.060491 0.121162 0.039412 -0.034702 -0.051004 0.172685 0.000938 -0.023657 0.030706 -0.032136 -0.001468 -0.056896 0.060620 -0.071478 -0.005928 -0.067433 0.108922 0.004167 -0.181180 -0.012394 -0.028475 -0.072493 0.052557 0.063030 -0.078485 0.055989 -0.048223 -0.036015 0.024797 -0.007216 -0.009785 0.041308 0.079901 -0.070486 0.177831 -0.019494 0.046083 -0.071408 0.035693 0.030585 0.024711 -0.030632 -0.077856 -0.108749 -0.028894 0.076565 0.178715 0.021194 0.007862 0.084692 0.010641 -0.004178 0.012638 0.015609 -0.140047 0.080304 -0.048313 -0.033220 0.122476 -0.006999 -0.088147 0.088208 -0.080626 0.063765 0.119741 0.095288 0.072105 0.036522 -0.013042 0.061436 -0.042305 0.000582 0.016855 -0.054737 -0.123223 -0.013377 -0.047704 0.046912 0.020446 -0.015694 -0.001938 -0.090917 -0.052768 -0.192608 0.028704 0.066829 0.016084 -0.025955
13 -0.031763 -0.090650 -0.042039 -0.129114 0.036139 -0.080079 0.007799 0.099508 -0.032283 0.009638 -0.027865 0.182921 0.056507 -0.058011 -0.077332 -0.207678 -0.031088 -0.015432 0.069992 0.145228 0.172326 -0.072448 0.106968 0.143455 0.011723 -0.026710 -0.198478 -0.036215 -0.013744 0.005040 0.072613 -0.046750 -0.051241 -0.094880 -0.104276 -0.072084 0.122509 0.005705 0.024757 -0.046381 -0.065194 0.134572 0.038258 -0.038432 -0.056336 0.204362 -0.000401 -0.020475 0.031649 -0.039266 -0.006961 -0.064543 0.068946 -0.084257 -0.004060 -0.074107 0.119751 0.000695 -0.203475 -0.017566 -0.026654 -0.084991 0.065248 0.070096 -0.085867 0.061396 -0.055464 -0.038889 0.027252 -0.010769 -0.011976 0.046219 0.093806 -0.086667 0.204761 -0.023299 0.055356 -0.087372 0.037766 0.030160 0.031205 -0.036275 -0.088482 -0.126547 -0.041971 0.084517 0.207366 0.021160 0.008959 0.097420 0.020350 -0.007524 0.013465 0.014298 -0.158749 0.086988 -0.053154 -0.042916 0.138771 -0.006580 -0.096103 0.096857 -0.092647 0.077114 0.139987 0.105236 0.080924 0.038137 -0.013859 0.063840 -0.046109 -0.000655 0.017735 -0.063619 -0.144334 -0.016966 -0.059519 0.053424 0.025588 -0.022026 0.000965 -0.100130 -0.058436 -0.222293 0.036046 0.075257 0.016120 -0.028557
68 -0.035302 -0.084187 -0.039626 -0.121114 0.040578 -0.071485 0.009578 0.097115 -0.034651 0.002429 -0.025598 0.178553 0.053000 -0.051911 -0.072442 -0.196989 -0.027242 -0.011783 0.067862 0.142691 0.156489 -0.066227 0.103416 0.138196 0.012580 -0.029094 -0.197714 -0.034283 -0.012588 0.002903 0.073720 -0.047232 -0.046482 -0.087002 -0.098043 -0.065946 0.111508 0.003065 0.024557 -0.042885 -0.060888 0.132402 0.037779 -0.043177 -0.050856 0.190052 0.000305 -0.020703 0.028695 -0.034804 -0.004213 -0.065603 0.061901 -0.081026 -0.005060 -0.066517 0.117672 0.000949 -0.196069 -0.011928 -0.027655 -0.084392 0.066265 0.068769 -0.083005 0.065470 -0.051848 -0.036323 0.027382 -0.004823 -0.012789 0.041137 0.090867 -0.083880 0.191201 -0.019307 0.057143 -0.082458 0.035470 0.032322 0.030138 -0.027267 -0.089726 -0.114680 -0.032374 0.080285 0.195783 0.019858 0.013720 0.093450 0.018339 -0.004660 0.012874 0.020359 -0.152082 0.084090 -0.050928 -0.040727 0.134098 -0.007047 -0.094871 0.089051 -0.087515 0.074972 0.132801 0.103978 0.076364 0.038410 -0.017461 0.069090 -0.048701 0.002922 0.015664 -0.060533 -0.133028 -0.013226 -0.052039 0.046858 0.022320 -0.019248 -0.006987 -0.092459 -0.056197 -0.207762 0.037978 0.073217 0.012014 -0.027885
6 -0.029796 -0.079715 -0.034578 -0.105228 0.036799 -0.067132 0.010124 0.095473 -0.031593 0.003040 -0.016933 0.158531 0.044173 -0.052249 -0.066259 -0.184237 -0.020727 -0.016293 0.062051 0.123246 0.141335 -0.061586 0.094371 0.120417 0.017451 -0.029028 -0.176527 -0.034437 -0.007434 0.008758 0.064450 -0.048604 -0.044987 -0.075757 -0.092206 -0.060062 0.106109 0.005542 0.019319 -0.041948 -0.059095 0.114783 0.043828 -0.033240 -0.055557 0.171421 0.001197 -0.028052 0.030997 -0.032135 -0.000178 -0.057485 0.053548 -0.069098 -0.004764 -0.065274 0.108139 0.003569 -0.178199 -0.011075 -0.023119 -0.070950 0.055538 0.063417 -0.077067 0.055474 -0.047621 -0.030057 0.014910 -0.015059 -0.003947 0.040805 0.080797 -0.069361 0.179766 -0.019755 0.054340 -0.071644 0.032627 0.029107 0.022038 -0.027118 -0.079217 -0.103934 -0.025381 0.070314 0.179627 0.018442 0.011373 0.080105 0.016632 -0.001592 0.015431 0.016954 -0.140986 0.080432 -0.049495 -0.040850 0.126757 -0.004742 -0.085202 0.080231 -0.078478 0.065167 0.117968 0.097915 0.069607 0.043732 -0.010689 0.055344 -0.039189 0.002286 0.017203 -0.055503 -0.122176 -0.006734 -0.045169 0.043151 0.021033 -0.020145 -0.001609 -0.094347 -0.052195 -0.200263 0.025054 0.065991 0.022535 -0.027897
10 -0.029804 -0.079390 -0.037542 -0.108669 0.038428 -0.065637 0.010458 0.094868 -0.028084 -0.000519 -0.015720 0.163654 0.043772 -0.049632 -0.070731 -0.183934 -0.018757 -0.011941 0.058748 0.127870 0.145947 -0.060535 0.096697 0.128868 0.013940 -0.027500 -0.177976 -0.033884 -0.007430 0.003755 0.060567 -0.050004 -0.047215 -0.071803 -0.097851 -0.062114 0.110002 -0.001150 0.020553 -0.041297 -0.059815 0.111178 0.044110 -0.026390 -0.049623 0.174908 0.002500 -0.026309 0.031298 -0.038830 0.001453 -0.059814 0.060238 -0.070772 -0.009303 -0.060798 0.111015 0.002396 -0.185950 -0.005805 -0.025499 -0.074542 0.052792 0.065537 -0.077540 0.060294 -0.047051 -0.032576 0.013379 -0.016354 -0.002960 0.038639 0.087496 -0.074469 0.183382 -0.017638 0.053819 -0.077819 0.031170 0.027889 0.021516 -0.033274 -0.082229 -0.103809 -0.032581 0.075542 0.175611 0.017368 0.013155 0.077981 0.017574 -0.001737 0.016850 0.017466 -0.143256 0.083200 -0.052554 -0.041069 0.126460 0.000452 -0.091102 0.080718 -0.079289 0.066724 0.118649 0.095640 0.074116 0.044544 -0.016062 0.058474 -0.038103 -0.003095 0.020640 -0.059549 -0.122847 -0.009364 -0.046448 0.049477 0.019668 -0.022313 -0.003141 -0.095732 -0.055571 -0.199574 0.031991 0.064629 0.017812 -0.022880
57 -0.028382 -0.077771 -0.040104 -0.111397 0.035045 -0.064058 0.005033 0.086928 -0.028150 0.004903 -0.021255 0.155475 0.046546 -0.044164 -0.068204 -0.180145 -0.022689 -0.011190 0.058506 0.124415 0.138689 -0.059800 0.095258 0.118270 0.010822 -0.023786 -0.173900 -0.027136 -0.010621 0.000947 0.061377 -0.038860 -0.042173 -0.077290 -0.088739 -0.054246 0.096770 -0.000338 0.019143 -0.035223 -0.054716 0.113721 0.035645 -0.036534 -0.048850 0.172147 0.001266 -0.020966 0.029273 -0.031809 -0.006790 -0.055196 0.055044 -0.072863 -0.004739 -0.064449 0.105419 0.006651 -0.174643 -0.008628 -0.029164 -0.068363 0.051141 0.061105 -0.074345 0.053637 -0.044041 -0.033508 0.018992 -0.007435 -0.004715 0.042339 0.083067 -0.073443 0.175561 -0.020584 0.049254 -0.072432 0.037145 0.029638 0.028053 -0.024468 -0.073531 -0.101427 -0.027377 0.073312 0.174129 0.017027 0.008061 0.082132 0.015810 -0.002464 0.009673 0.017217 -0.138065 0.075946 -0.044151 -0.033624 0.122066 -0.008092 -0.081939 0.082612 -0.080602 0.061472 0.118670 0.095541 0.069111 0.038862 -0.012726 0.058839 -0.041077 0.000680 0.012377 -0.054940 -0.119808 -0.011563 -0.043928 0.039667 0.020072 -0.018043 -0.000061 -0.088257 -0.055471 -0.186627 0.032740 0.059528 0.013532 -0.027623
51 -0.031377 -0.081869 -0.040900 -0.114030 0.035683 -0.070557 0.006186 0.089750 -0.030782 0.007851 -0.021921 0.167886 0.047252 -0.050547 -0.071427 -0.189580 -0.023389 -0.009857 0.060977 0.129860 0.150640 -0.065085 0.101409 0.126521 0.015051 -0.026468 -0.183291 -0.035154 -0.010135 0.007710 0.068393 -0.043332 -0.044783 -0.082582 -0.095388 -0.061800 0.111779 0.000613 0.018870 -0.039173 -0.059591 0.123794 0.033460 -0.040030 -0.051577 0.185385 0.001643 -0.022712 0.031360 -0.036294 -0.003206 -0.062218 0.063183 -0.081968 -0.004875 -0.067576 0.115131 0.000071 -0.186142 -0.011966 -0.024810 -0.078079 0.056356 0.068775 -0.081376 0.062835 -0.050448 -0.031811 0.020401 -0.008140 -0.005517 0.041767 0.085119 -0.079365 0.185958 -0.021026 0.054470 -0.078646 0.033843 0.025699 0.029939 -0.030711 -0.080983 -0.115479 -0.030610 0.078385 0.185547 0.022223 0.006957 0.084754 0.010671 -0.001859 0.016487 0.017762 -0.147667 0.077224 -0.052668 -0.035612 0.126521 -0.003716 -0.089238 0.091496 -0.082903 0.070558 0.127966 0.095650 0.075533 0.042224 -0.012743 0.061381 -0.044014 0.001829 0.013283 -0.058843 -0.126033 -0.010463 -0.049272 0.046417 0.021001 -0.017325 0.000872 -0.096358 -0.058016 -0.203516 0.035823 0.070446 0.012899 -0.030118
7 -0.023394 -0.069893 -0.035261 -0.097727 0.028301 -0.058347 0.007486 0.082441 -0.023721 0.002527 -0.019148 0.142505 0.041405 -0.048340 -0.057664 -0.161648 -0.017464 -0.012063 0.051089 0.111404 0.128194 -0.054852 0.085234 0.112420 0.015798 -0.025929 -0.160435 -0.030010 -0.010339 0.003088 0.059601 -0.036542 -0.043421 -0.071236 -0.084671 -0.053770 0.090723 -0.001851 0.018416 -0.036592 -0.054870 0.101996 0.035421 -0.026223 -0.045601 0.153900 0.000240 -0.020478 0.027614 -0.030504 -0.003288 -0.049556 0.050816 -0.059597 -0.008022 -0.053854 0.096222 0.001652 -0.157227 -0.004053 -0.022283 -0.064951 0.050492 0.058206 -0.069725 0.052820 -0.038414 -0.023575 0.016248 -0.012602 -0.007210 0.039647 0.070199 -0.062946 0.158554 -0.015697 0.044880 -0.064660 0.030282 0.022161 0.023308 -0.023376 -0.071885 -0.090447 -0.027556 0.062947 0.153584 0.018231 0.008587 0.073483 0.015987 -0.003094 0.015291 0.012356 -0.125010 0.072795 -0.041278 -0.035667 0.106988 -0.003030 -0.079272 0.074025 -0.073895 0.056799 0.106657 0.081513 0.058760 0.035035 -0.007719 0.051338 -0.035930 0.003961 0.013762 -0.054271 -0.110994 -0.009953 -0.042440 0.037538 0.015262 -0.013034 -0.003545 -0.078177 -0.045421 -0.172584 0.023762 0.055149 0.018327 -0.018996
16 -0.027841 -0.070325 -0.032753 -0.098971 0.030543 -0.062087 0.008959 0.078779 -0.026394 0.005372 -0.022324 0.146581 0.039284 -0.039284 -0.058363 -0.165123 -0.024288 -0.015182 0.051153 0.110993 0.130443 -0.053387 0.089772 0.109897 0.012226 -0.022568 -0.157604 -0.029828 -0.012537 0.001440 0.056871 -0.036527 -0.041610 -0.076085 -0.079783 -0.052341 0.096719 -0.001984 0.016933 -0.040384 -0.054095 0.107906 0.034265 -0.031349 -0.043697 0.156271 0.001561 -0.015064 0.022635 -0.027673 -0.000340 -0.051551 0.052053 -0.065043 -0.001424 -0.056204 0.097654 0.004135 -0.161791 -0.013107 -0.021985 -0.070157 0.049848 0.052827 -0.068360 0.050257 -0.041571 -0.025412 0.016768 -0.010771 -0.002893 0.034482 0.074077 -0.069279 0.162181 -0.017605 0.049300 -0.069357 0.029595 0.026296 0.027184 -0.028085 -0.069326 -0.097326 -0.028067 0.070884 0.161506 0.020538 0.010703 0.074263 0.009388 -0.004012 0.008916 0.015798 -0.124466 0.072352 -0.039330 -0.032212 0.109138 -0.008843 -0.074278 0.078015 -0.069171 0.056588 0.109730 0.082243 0.061239 0.032424 -0.007230 0.054519 -0.040197 0.004207 0.010214 -0.050111 -0.108811 -0.009502 -0.044898 0.041474 0.019407 -0.018472 -0.001715 -0.080137 -0.049953 -0.175745 0.032525 0.059648 0.011917 -0.020968
41 -0.032112 -0.077473 -0.033571 -0.101711 0.035431 -0.063853 0.008838 0.081018 -0.026422 0.001135 -0.020260 0.151900 0.040074 -0.042008 -0.061168 -0.165339 -0.020731 -0.010878 0.057946 0.120698 0.134218 -0.060393 0.087902 0.113671 0.012502 -0.023183 -0.168793 -0.028972 -0.012170 0.003054 0.060925 -0.035864 -0.044397 -0.073177 -0.085255 -0.052793 0.097590 -0.000231 0.016614 -0.037214 -0.051268 0.107048 0.033851 -0.037539 -0.046240 0.165741 0.001952 -0.015593 0.026749 -0.035001 -0.001990 -0.054436 0.051616 -0.072413 -0.000460 -0.060798 0.103364 0.006897 -0.168091 -0.013794 -0.023958 -0.067012 0.052966 0.061451 -0.071947 0.054458 -0.046952 -0.031748 0.020483 -0.006033 -0.004628 0.036711 0.077889 -0.066778 0.163807 -0.019198 0.048657 -0.069450 0.031888 0.029545 0.027159 -0.028120 -0.074636 -0.099415 -0.025522 0.065836 0.165484 0.018660 0.009786 0.074598 0.011238 -0.004410 0.013850 0.013174 -0.130661 0.074898 -0.045777 -0.029099 0.116851 -0.002515 -0.084180 0.075502 -0.072943 0.059221 0.119068 0.089623 0.065202 0.033549 -0.013370 0.056070 -0.040539 -0.000622 0.011069 -0.056640 -0.118056 -0.014102 -0.048391 0.040291 0.020424 -0.018233 -0.004380 -0.087526 -0.049244 -0.175521 0.027956 0.059258 0.014688 -0.028985
8 -0.023483 -0.066258 -0.026258 -0.085509 0.025143 -0.052897 0.008150 0.073344 -0.024022 0.005863 -0.017215 0.126460 0.033693 -0.038885 -0.051034 -0.147315 -0.014647 -0.010317 0.051711 0.102462 0.112397 -0.047781 0.075170 0.094348 0.012321 -0.016272 -0.140135 -0.022266 -0.008931 0.006276 0.049774 -0.034968 -0.035423 -0.058460 -0.074299 -0.048983 0.086048 0.000835 0.020841 -0.027118 -0.046764 0.090286 0.027655 -0.022587 -0.039472 0.138511 -0.003266 -0.018352 0.020671 -0.025681 -0.003375 -0.049023 0.049134 -0.054245 -0.007208 -0.049823 0.081741 0.002322 -0.144554 -0.009444 -0.023552 -0.061468 0.045633 0.051331 -0.059444 0.042963 -0.032396 -0.025526 0.014391 -0.011201 -0.008212 0.031492 0.063207 -0.057979 0.139346 -0.013571 0.038672 -0.060179 0.026502 0.021954 0.022730 -0.026790 -0.065284 -0.082213 -0.027509 0.062035 0.142777 0.016664 0.010239 0.061114 0.013151 -0.005360 0.010242 0.011473 -0.112099 0.059558 -0.039894 -0.031812 0.095362 -0.006031 -0.066127 0.061914 -0.066617 0.050225 0.099127 0.072258 0.057185 0.026603 -0.011647 0.043116 -0.037452 0.002405 0.015636 -0.045912 -0.100670 -0.005548 -0.039238 0.034511 0.014223 -0.014806 -0.003378 -0.075458 -0.039695 -0.153869 0.025426 0.047103 0.015626 -0.022286
54 -0.037226 -0.091002 -0.038877 -0.118951 0.035174 -0.076725 0.007039 0.094729 -0.032072 0.001998 -0.027441 0.174372 0.052881 -0.049268 -0.077367 -0.197155 -0.026716 -0.014753 0.069101 0.138266 0.158918 -0.067365 0.106738 0.138918 0.014701 -0.032224 -0.196385 -0.036494 -0.016855 -0.000394 0.072232 -0.043416 -0.048140 -0.091632 -0.097760 -0.064780 0.111899 0.003343 0.026678 -0.043483 -0.064325 0.128569 0.038993 -0.038288 -0.054180 0.193036 -0.003995 -0.023667 0.033080 -0.037405 -0.007484 -0.064179 0.067885 -0.082251 -0.002332 -0.072784 0.118212 0.004691 -0.196680 -0.012206 -0.030815 -0.080271 0.060483 0.066857 -0.087063 0.059983 -0.049785 -0.038780 0.024612 -0.004484 -0.005066 0.045742 0.090446 -0.076517 0.194679 -0.018093 0.051324 -0.083002 0.037212 0.030226 0.029844 -0.031540 -0.087607 -0.120689 -0.033420 0.077887 0.194768 0.019814 0.009350 0.091410 0.018455 -0.005509 0.013188 0.016696 -0.148686 0.087596 -0.054276 -0.042129 0.137278 -0.008912 -0.094147 0.089392 -0.083611 0.072043 0.133600 0.101820 0.079786 0.042475 -0.017150 0.068983 -0.052186 -0.000816 0.017872 -0.061914 -0.137832 -0.016364 -0.050545 0.045664 0.026185 -0.020127 -0.001899 -0.095165 -0.060981 -0.214690 0.034856 0.071170 0.018886 -0.029876
12 -0.029098 -0.070191 -0.030606 -0.094987 0.026888 -0.058268 0.003667 0.070922 -0.027298 0.006631 -0.014330 0.138376 0.037186 -0.036747 -0.056424 -0.148839 -0.021546 -0.009002 0.053772 0.103032 0.122046 -0.048088 0.081500 0.100587 0.007059 -0.023417 -0.146040 -0.025851 -0.009496 0.003175 0.056616 -0.034277 -0.040836 -0.065580 -0.074825 -0.046880 0.085377 0.003754 0.017859 -0.031084 -0.048321 0.096841 0.032035 -0.030910 -0.042805 0.149838 0.000974 -0.018068 0.020519 -0.030662 -0.004309 -0.046584 0.047420 -0.065403 -0.006527 -0.055962 0.091202 0.003801 -0.150902 -0.007433 -0.019800 -0.060151 0.044541 0.054376 -0.068438 0.048495 -0.035959 -0.027541 0.020157 -0.003372 -0.002226 0.037185 0.070057 -0.060121 0.148973 -0.015692 0.045210 -0.059323 0.029804 0.027100 0.021847 -0.023159 -0.068839 -0.090768 -0.029395 0.064954 0.148151 0.015670 0.005868 0.065021 0.011127 -0.001027 0.010146 0.011921 -0.114121 0.062822 -0.036755 -0.032943 0.104828 -0.004870 -0.076590 0.066938 -0.067025 0.056071 0.103289 0.075367 0.058639 0.030597 -0.006080 0.045761 -0.039771 0.000107 0.013681 -0.045889 -0.101186 -0.007376 -0.041880 0.039769 0.013626 -0.018646 -0.003056 -0.077320 -0.043188 -0.158356 0.025108 0.053829 0.007492 -0.022400
14 -0.032505 -0.082177 -0.034147 -0.113996 0.037322 -0.066411 0.004624 0.088495 -0.032383 0.006318 -0.025705 0.162336 0.044177 -0.047007 -0.068777 -0.180370 -0.019741 -0.011938 0.061489 0.125149 0.147989 -0.057314 0.095703 0.125507 0.011176 -0.024475 -0.174176 -0.028651 -0.016518 0.006249 0.068099 -0.042108 -0.045663 -0.077954 -0.088771 -0.060874 0.102293 0.001507 0.020121 -0.039966 -0.061818 0.117897 0.037638 -0.033204 -0.050960 0.175521 0.000317 -0.018231 0.028784 -0.031360 -0.004950 -0.058637 0.057054 -0.071541 -0.002372 -0.065345 0.104991 0.006907 -0.182910 -0.013188 -0.027256 -0.076528 0.058836 0.058437 -0.081713 0.059867 -0.043525 -0.034630 0.020445 -0.009871 -0.010275 0.044731 0.079107 -0.069976 0.179996 -0.017114 0.051319 -0.075774 0.034007 0.024677 0.025338 -0.028658 -0.076653 -0.102832 -0.033712 0.077957 0.177809 0.018129 0.012081 0.081774 0.012345 -0.006751 0.013809 0.014576 -0.140235 0.081342 -0.049025 -0.032277 0.126523 -0.005020 -0.089262 0.084287 -0.080060 0.068401 0.120708 0.097051 0.073567 0.040085 -0.015914 0.058242 -0.047684 -0.003106 0.013900 -0.056468 -0.119477 -0.013756 -0.050901 0.042115 0.020455 -0.016957 -0.001193 -0.091672 -0.055242 -0.196321 0.033857 0.062886 0.011794 -0.027535
33 -0.025017 -0.065688 -0.029210 -0.084512 0.030419 -0.057784 0.004877 0.074169 -0.021344 0.003499 -0.016010 0.128156 0.037187 -0.040126 -0.051272 -0.142447 -0.019324 -0.007142 0.045373 0.101355 0.119080 -0.048954 0.079168 0.095608 0.007693 -0.020630 -0.142590 -0.025481 -0.008375 0.005196 0.052072 -0.030807 -0.035469 -0.060851 -0.075414 -0.050208 0.081899 0.000478 0.013184 -0.028453 -0.047434 0.094328 0.030404 -0.030340 -0.041298 0.141276 -0.001281 -0.019011 0.019229 -0.028552 -0.003611 -0.042648 0.048391 -0.060972 -0.006351 -0.048481 0.083696 0.004225 -0.140258 -0.006860 -0.017526 -0.062780 0.042962 0.051368 -0.059341 0.042060 -0.032860 -0.027575 0.018160 -0.003927 -0.001857 0.032539 0.066196 -0.056890 0.138182 -0.012104 0.041229 -0.059514 0.029328 0.021699 0.025230 -0.025431 -0.063551 -0.087548 -0.024810 0.061898 0.141449 0.015034 0.007851 0.066226 0.014324 -0.001377 0.010232 0.011153 -0.107680 0.064719 -0.040061 -0.030622 0.101276 -0.004784 -0.071360 0.064590 -0.065762 0.055756 0.099486 0.072147 0.056479 0.030547 -0.007122 0.045065 -0.035493 0.000837 0.014024 -0.049490 -0.096367 -0.009280 -0.038834 0.031182 0.013505 -0.017375 0.001118 -0.072255 -0.040187 -0.152386 0.027159 0.049508 0.007581 -0.023902
15 -0.032841 -0.079065 -0.032908 -0.109135 0.033921 -0.061698 0.008917 0.082566 -0.028504 0.003358 -0.018837 0.153735 0.044442 -0.043014 -0.063715 -0.175370 -0.023914 -0.013578 0.055862 0.118978 0.142020 -0.056885 0.092390 0.119617 0.009677 -0.024594 -0.172537 -0.030977 -0.011360 0.000871 0.060851 -0.039598 -0.038837 -0.077848 -0.087255 -0.057143 0.097678 0.001488 0.024133 -0.036478 -0.058477 0.112323 0.033914 -0.033836 -0.045109 0.171138 -0.005023 -0.020701 0.026757 -0.035137 -0.003618 -0.055585 0.055186 -0.069365 -0.005856 -0.064620 0.099990 -0.000117 -0.171979 -0.007766 -0.022485 -0.067945 0.054739 0.056361 -0.073788 0.058855 -0.042961 -0.031263 0.023053 -0.004449 -0.005569 0.038040 0.081260 -0.073671 0.166923 -0.019148 0.049562 -0.071525 0.029338 0.024097 0.025944 -0.025050 -0.075005 -0.105100 -0.033211 0.068021 0.169796 0.015381 0.010097 0.081318 0.014986 -0.002593 0.016296 0.012707 -0.136448 0.076844 -0.043468 -0.030315 0.119907 -0.001952 -0.079905 0.080465 -0.079379 0.064353 0.120467 0.087762 0.069148 0.036850 -0.012029 0.053462 -0.041666 -0.000858 0.014304 -0.058531 -0.119842 -0.008477 -0.044771 0.045804 0.017229 -0.015029 0.001572 -0.089164 -0.048459 -0.182500 0.026400 0.061599 0.015203 -0.023343
