78 128
11 -0.007689 -0.194495 -0.027515 -0.139339 -0.062613 -0.089942 0.026783 0.120351 0.033840 0.025387 -0.063460 0.222551 0.086156 0.013590 -0.098425 -0.172734 -0.020927 -0.012232 0.112586 0.111826 0.065570 -0.007782 0.120298 0.120328 0.086076 -0.024558 -0.166468 -0.008637 0.030581 -0.011931 0.073217 -0.142347 -0.092068 -0.172404 -0.079461 -0.057297 0.118664 0.054385 -0.015993 0.032279 -0.007501 0.131857 0.168684 -0.038352 -0.068721 0.218993 0.039606 -0.135062 -0.013281 -0.093369 -0.033018 -0.075082 0.082329 -0.087463 -0.042893 -0.100030 0.160698 0.024288 -0.256229 0.063850 -0.081174 -0.123953 0.042623 -0.025523 -0.038627 0.124183 -0.136152 0.038773 0.066268 -0.015544 -0.017736 -0.013976 0.169976 -0.163777 0.070432 -0.054818 0.189332 -0.002271 0.117434 0.055867 0.006176 -0.059244 -0.117937 -0.124878 -0.069187 -0.004341 0.321965 0.050821 0.001828 0.155093 -0.017863 -0.067031 -0.123893 0.086938 -0.262034 0.054570 -0.038639 -0.079200 0.079628 0.118881 -0.071438 0.230031 -0.080475 0.015044 0.109038 0.140132 0.100408 0.094010 -0.111256 0.148833 0.013739 0.027422 0.044973 -0.135718 -0.086162 0.006727 -0.095542 0.141403 -0.091472 0.029690 0.073658 -0.133553 0.011010 -0.106682 -0.058451 0.030551 -0.001460 0.055932
56 -0.005724 -0.178392 -0.029520 -0.134442 -0.059518 -0.082052 0.028899 0.109069 0.025958 0.027607 -0.056387 0.207331 0.080528 0.014779 -0.098143 -0.158622 -0.018883 -0.010333 0.104252 0.107408 0.057028 -0.008628 0.109585 0.114811 0.086526 -0.020679 -0.158420 -0.009049 0.026184 -0.008523 0.065613 -0.130377 -0.086503 -0.160142 -0.079835 -0.057813 0.109155 0.050971 -0.015651 0.031348 -0.013059 0.121999 0.155656 -0.033259 -0.062565 0.206466 0.033218 -0.131750 -0.009686 -0.088777 -0.032268 -0.071506 0.076865 -0.082057 -0.035976 -0.093686 0.147066 0.018285 -0.237495 0.057239 -0.073740 -0.109641 0.033637 -0.024272 -0.029301 0.116517 -0.123751 0.038571 0.063974 -0.013184 -0.015534 -0.016177 0.165134 -0.153356 0.058058 -0.054413 0.176782 -0.003679 0.113928 0.057288 0.009067 -0.053691 -0.110533 -0.112095 -0.062795 -0.009216 0.299199 0.050496 0.003759 0.149263 -0.012946 -0.060551 -0.114139 0.081979 -0.248471 0.050689 -0.034210 -0.074978 0.075609 0.108290 -0.070614 0.214416 -0.073713 0.016917 0.098665 0.134532 0.090381 0.091273 -0.109351 0.146282 0.012044 0.024688 0.047999 -0.124533 -0.078138 0.012291 -0.083993 0.132472 -0.080546 0.027936 0.066781 -0.119939 0.004580 -0.090819 -0.056153 0.035112 0.004218 0.054217
26 -0.000230 -0.209585 -0.031835 -0.156600 -0.069664 -0.099169 0.033121 0.126003 0.033404 0.029656 -0.071560 0.241709 0.099969 0.010829 -0.111101 -0.180510 -0.020132 -0.013149 0.124013 0.129397 0.070578 -0.006158 0.133456 0.132708 0.093633 -0.028052 -0.184842 -0.015303 0.030978 -0.007414 0.081111 -0.154089 -0.103437 -0.190967 -0.093740 -0.069035 0.128179 0.054641 -0.020074 0.031519 -0.011444 0.137647 0.178878 -0.045127 -0.076177 0.243920 0.037749 -0.151324 -0.014200 -0.101069 -0.034182 -0.080365 0.088327 -0.100228 -0.046147 -0.107112 0.177624 0.025750 -0.281610 0.069507 -0.088247 -0.134687 0.042484 -0.028129 -0.039964 0.136052 -0.141769 0.038668 0.070896 -0.013274 -0.017064 -0.015926 0.188144 -0.179277 0.076126 -0.064722 0.201847 0.000427 0.131410 0.059760 0.005952 -0.065189 -0.129249 -0.133033 -0.070971 -0.001967 0.347103 0.058486 0.001212 0.167586 -0.018329 -0.069703 -0.136918 0.099424 -0.285701 0.062013 -0.044993 -0.087465 0.093546 0.124128 -0.080466 0.248471 -0.087864 0.018229 0.124243 0.155434 0.109388 0.108180 -0.118381 0.169235 0.011230 0.024617 0.054425 -0.144755 -0.093804 0.009381 -0.100079 0.149491 -0.096287 0.032929 0.079636 -0.146448 0.008005 -0.112771 -0.061610 0.041222 -0.000323 0.056965
27 -0.001957 -0.186286 -0.030804 -0.136899 -0.061805 -0.081643 0.031622 0.112931 0.026768 0.028449 -0.061705 0.207518 0.081460 0.016656 -0.096908 -0.161562 -0.014244 -0.012327 0.104802 0.104319 0.062034 -0.004446 0.112496 0.116442 0.083733 -0.024541 -0.160541 -0.004770 0.027143 -0.008091 0.067482 -0.136791 -0.088812 -0.162987 -0.074101 -0.059412 0.106580 0.048292 -0.018242 0.024083 -0.013115 0.123258 0.155513 -0.036083 -0.061143 0.209294 0.039587 -0.131136 -0.011194 -0.087682 -0.030543 -0.067990 0.075992 -0.081038 -0.040976 -0.096235 0.149616 0.021648 -0.235703 0.059677 -0.078740 -0.110283 0.033806 -0.027077 -0.032843 0.116538 -0.127609 0.040101 0.060521 -0.011998 -0.021731 -0.010067 0.164917 -0.156864 0.059835 -0.057405 0.178902 -0.003806 0.111639 0.056036 0.003058 -0.058161 -0.110222 -0.112062 -0.066647 -0.003900 0.303940 0.048479 -0.004841 0.148726 -0.018647 -0.063456 -0.117586 0.081153 -0.251352 0.053038 -0.036170 -0.077311 0.079596 0.106658 -0.073548 0.215285 -0.071740 0.009592 0.106739 0.135252 0.097353 0.088765 -0.111167 0.147270 0.014621 0.021188 0.045065 -0.127771 -0.078370 0.006403 -0.088163 0.133765 -0.086641 0.029028 0.066358 -0.119315 0.008375 -0.098050 -0.056383 0.034429 0.001243 0.054055
59 -0.001356 -0.174473 -0.021011 -0.135755 -0.059475 -0.073501 0.028967 0.106572 0.030059 0.027673 -0.055325 0.200194 0.086122 0.016927 -0.094840 -0.150761 -0.014206 -0.007851 0.099641 0.109539 0.054473 -0.010303 0.103195 0.108906 0.084615 -0.024588 -0.156121 -0.009558 0.030011 -0.017185 0.065074 -0.128156 -0.082998 -0.157469 -0.080766 -0.051539 0.106491 0.047121 -0.014660 0.029129 -0.010079 0.121232 0.149799 -0.040022 -0.054061 0.200789 0.030594 -0.131924 -0.006772 -0.081461 -0.028992 -0.068376 0.076490 -0.083837 -0.030720 -0.082327 0.144465 0.018168 -0.227728 0.056066 -0.079715 -0.111731 0.037201 -0.030282 -0.029533 0.110828 -0.119517 0.031823 0.066048 -0.005252 -0.015184 -0.020234 0.165076 -0.148455 0.059684 -0.058298 0.170434 0.000780 0.110503 0.057595 0.007817 -0.053530 -0.112594 -0.109391 -0.063398 -0.009352 0.291281 0.053482 0.000817 0.141626 -0.015543 -0.056370 -0.117337 0.081913 -0.238538 0.049077 -0.037493 -0.074206 0.079216 0.106954 -0.064555 0.207625 -0.066728 0.017662 0.095717 0.125123 0.083772 0.084288 -0.100215 0.143858 0.006502 0.016907 0.048463 -0.123135 -0.074570 0.012095 -0.087223 0.126444 -0.077071 0.025357 0.059462 -0.117888 0.008100 -0.087243 -0.052508 0.029328 0.008965 0.045622
63 0.002660 -0.159438 -0.015053 -0.131369 -0.053488 -0.067170 0.028215 0.103481 0.029457 0.028193 -0.046008 0.178140 0.083292 0.020937 -0.084132 -0.143422 -0.013088 -0.008925 0.091361 0.099865 0.041958 -0.005128 0.091436 0.107192 0.077590 -0.020592 -0.148664 -0.005314 0.029388 -0.018572 0.068152 -0.128146 -0.069994 -0.145292 -0.083598 -0.046686 0.101130 0.050095 -0.009647 0.038868 -0.007154 0.114671 0.145204 -0.043653 -0.049400 0.186265 0.024603 -0.126711 -0.003616 -0.071091 -0.029750 -0.060468 0.077351 -0.076724 -0.026641 -0.078412 0.131580 0.011901 -0.211053 0.058604 -0.072892 -0.112245 0.027499 -0.033130 -0.030038 0.109435 -0.111558 0.031057 0.061848 0.003449 -0.017059 -0.016692 0.158258 -0.138352 0.058989 -0.061767 0.160230 0.003295 0.098215 0.056371 0.009465 -0.044207 -0.104228 -0.108246 -0.055401 -0.006813 0.271551 0.045906 0.009579 0.130381 -0.008931 -0.047984 -0.111755 0.077576 -0.222504 0.047378 -0.031815 -0.075753 0.075745 0.099549 -0.062483 0.191254 -0.061592 0.019559 0.090737 0.124024 0.069839 0.072931 -0.088175 0.137645 0.002204 0.017280 0.042934 -0.120147 -0.069886 0.014315 -0.079268 0.119918 -0.070358 0.017993 0.052296 -0.109190 0.010785 -0.076651 -0.053127 0.033380 0.014745 0.038839
28 -0.005186 -0.200709 -0.026162 -0.144039 -0.068491 -0.088381 0.029653 0.118734 0.031492 0.031187 -0.064115 0.231913 0.093048 0.012506 -0.106810 -0.173174 -0.022808 -0.013178 0.118954 0.124191 0.061815 -0.008722 0.122719 0.123807 0.089132 -0.018652 -0.171506 -0.012013 0.036405 -0.010486 0.072357 -0.143100 -0.095600 -0.171618 -0.085329 -0.066072 0.121053 0.053866 -0.015158 0.029587 -0.013044 0.130298 0.170509 -0.036903 -0.070840 0.221763 0.033165 -0.141407 -0.013765 -0.100125 -0.039167 -0.077758 0.086635 -0.094857 -0.037865 -0.098412 0.160305 0.018924 -0.263295 0.063669 -0.083980 -0.128781 0.045289 -0.025586 -0.035765 0.124090 -0.136067 0.043717 0.064617 -0.013552 -0.020846 -0.011964 0.175096 -0.169982 0.068581 -0.056055 0.193404 0.005185 0.121634 0.062374 0.004576 -0.067794 -0.118242 -0.129372 -0.069683 -0.000529 0.327258 0.056997 0.000718 0.160020 -0.015296 -0.065707 -0.130547 0.084324 -0.267675 0.058369 -0.042405 -0.077210 0.084054 0.115474 -0.079520 0.234872 -0.085070 0.012917 0.115807 0.148338 0.101581 0.102392 -0.114664 0.153239 0.013793 0.024414 0.047890 -0.139106 -0.088033 0.005295 -0.097986 0.141256 -0.094053 0.033061 0.074798 -0.136967 0.009005 -0.103882 -0.060115 0.031835 0.001473 0.057334
24 0.005713 -0.174942 -0.025772 -0.124977 -0.066263 -0.089303 0.023473 0.109006 0.033919 0.035208 -0.058735 0.210941 0.096364 -0.001842 -0.095428 -0.157801 -0.029278 -0.011105 0.109970 0.119376 0.069407 -0.013037 0.115394 0.119320 0.085878 -0.004669 -0.151368 -0.020942 0.031679 -0.002073 0.060549 -0.128510 -0.093069 -0.157022 -0.078363 -0.064236 0.112807 0.043331 -0.017138 0.021930 -0.009993 0.123751 0.140880 -0.030929 -0.057728 0.208220 0.026670 -0.117411 -0.004608 -0.096279 -0.027774 -0.073697 0.073463 -0.084616 -0.028215 -0.077617 0.150145 0.019802 -0.235189 0.048275 -0.070779 -0.116337 0.047281 -0.019326 -0.031545 0.107202 -0.124116 0.038222 0.060700 0.000616 -0.018112 -0.011793 0.159360 -0.152860 0.067188 -0.045704 0.171067 0.000884 0.119687 0.058321 0.004265 -0.056555 -0.100475 -0.123247 -0.069589 -0.007308 0.290797 0.051056 0.002903 0.142305 -0.012036 -0.055732 -0.111004 0.073125 -0.247214 0.058724 -0.036066 -0.064145 0.075793 0.104716 -0.074790 0.211332 -0.069310 0.020379 0.099496 0.136454 0.082833 0.086404 -0.105221 0.143312 0.015047 0.017756 0.048104 -0.122762 -0.087759 0.004670 -0.090107 0.129295 -0.081542 0.038792 0.069525 -0.128898 0.008013 -0.107714 -0.042932 0.031133 -0.002546 0.050755
49 0.001632 -0.185405 -0.020998 -0.135303 -0.063297 -0.084016 0.027135 0.110517 0.034688 0.025771 -0.054184 0.211009 0.086582 0.013144 -0.095001 -0.161330 -0.021427 -0.008977 0.107864 0.117368 0.056577 -0.009748 0.111612 0.112572 0.088555 -0.020108 -0.161901 -0.014305 0.031238 -0.017461 0.066631 -0.140096 -0.086046 -0.159847 -0.084023 -0.053332 0.111491 0.049102 -0.016348 0.034914 -0.011626 0.124496 0.159275 -0.037674 -0.060125 0.210653 0.028127 -0.136760 -0.011073 -0.084397 -0.034398 -0.071613 0.084558 -0.083066 -0.039734 -0.088230 0.148685 0.022214 -0.239697 0.058323 -0.081698 -0.116643 0.040181 -0.031191 -0.037139 0.115917 -0.122232 0.034544 0.069635 -0.008148 -0.020351 -0.022085 0.171098 -0.155700 0.062902 -0.059222 0.181402 -0.001595 0.117623 0.054108 0.004874 -0.052614 -0.117024 -0.120479 -0.065792 -0.010253 0.299450 0.052071 0.003201 0.147906 -0.013061 -0.058617 -0.125876 0.084803 -0.247262 0.053432 -0.040990 -0.075992 0.083754 0.113308 -0.067077 0.211015 -0.073346 0.014437 0.102377 0.138866 0.085141 0.093297 -0.108072 0.146851 0.006571 0.021561 0.053299 -0.129366 -0.078422 0.009126 -0.085064 0.133935 -0.086797 0.030434 0.064123 -0.120340 0.005582 -0.096143 -0.055770 0.031982 0.009234 0.046604
65 -0.002845 -0.180039 -0.024822 -0.137025 -0.059598 -0.081705 0.030292 0.112730 0.032690 0.024748 -0.052553 0.201874 0.090972 0.016481 -0.096686 -0.152801 -0.015738 -0.006033 0.106369 0.111797 0.049890 -0.010507 0.111007 0.115865 0.088975 -0.020348 -0.159586 -0.005363 0.031780 -0.013797 0.071510 -0.132509 -0.083361 -0.158914 -0.087680 -0.057384 0.107537 0.051553 -0.015128 0.033984 -0.009552 0.122511 0.159277 -0.042858 -0.062586 0.199845 0.031237 -0.132032 -0.004874 -0.083472 -0.035075 -0.071274 0.081329 -0.087125 -0.037877 -0.090333 0.143947 0.014338 -0.230094 0.056063 -0.082168 -0.117669 0.033905 -0.025086 -0.033246 0.119030 -0.115683 0.037622 0.067108 -0.001471 -0.020406 -0.016205 0.169419 -0.148597 0.058669 -0.061031 0.178202 -0.002670 0.112170 0.060747 0.011607 -0.050636 -0.116753 -0.116429 -0.057920 -0.003590 0.297096 0.054119 0.005570 0.142102 -0.017479 -0.055161 -0.119414 0.078956 -0.241621 0.050834 -0.037128 -0.080011 0.082467 0.106273 -0.068271 0.205459 -0.066798 0.018847 0.104489 0.127937 0.083297 0.084974 -0.106396 0.146156 0.004019 0.015334 0.045568 -0.126261 -0.080831 0.010343 -0.084958 0.134567 -0.081007 0.030284 0.065846 -0.115168 0.011219 -0.093693 -0.057513 0.036988 0.007357 0.045961
60 0.004053 -0.170551 -0.023351 -0.131583 -0.061927 -0.073413 0.027397 0.110188 0.031925 0.026173 -0.055564 0.193368 0.084372 0.017267 -0.090432 -0.144729 -0.018037 -0.010273 0.096516 0.102499 0.048356 -0.012235 0.103321 0.109078 0.080686 -0.020552 -0.149865 -0.006142 0.032398 -0.012404 0.064880 -0.127415 -0.077268 -0.152167 -0.081912 -0.051575 0.105027 0.051125 -0.010232 0.034806 -0.010265 0.115860 0.149358 -0.040249 -0.057900 0.197877 0.027198 -0.128596 -0.003965 -0.077473 -0.029395 -0.068400 0.078377 -0.082204 -0.032409 -0.085971 0.140626 0.013633 -0.224235 0.057271 -0.071364 -0.115261 0.033219 -0.029900 -0.031965 0.112932 -0.111825 0.037003 0.061341 -0.000602 -0.020651 -0.016240 0.162144 -0.141580 0.063284 -0.057757 0.166132 0.000496 0.107177 0.057856 0.012966 -0.048105 -0.107853 -0.114552 -0.058778 -0.005810 0.281553 0.049968 0.002116 0.135686 -0.008973 -0.054095 -0.118357 0.077313 -0.234495 0.053952 -0.031631 -0.076543 0.080774 0.104186 -0.065929 0.199496 -0.065588 0.020278 0.098732 0.123373 0.076899 0.084009 -0.094403 0.138152 0.006745 0.015166 0.042932 -0.123797 -0.073397 0.010847 -0.084271 0.127347 -0.080600 0.023419 0.057800 -0.111121 0.010565 -0.087933 -0.053937 0.032668 0.008753 0.047786
25 -0.004665 -0.183481 -0.029921 -0.135167 -0.066067 -0.085014 0.024837 0.106987 0.034933 0.027569 -0.061738 0.208061 0.085140 0.014309 -0.095627 -0.161252 -0.016869 -0.012800 0.110326 0.115234 0.061652 -0.008043 0.114870 0.115944 0.084267 -0.024604 -0.155140 -0.012499 0.025612 -0.006821 0.069180 -0.132999 -0.088492 -0.163862 -0.082557 -0.055782 0.105440 0.051080 -0.018721 0.025798 -0.014143 0.123339 0.152670 -0.040246 -0.059954 0.210740 0.036003 -0.126609 -0.007611 -0.089464 -0.035963 -0.068237 0.079525 -0.082429 -0.042771 -0.092865 0.152718 0.017317 -0.239683 0.061649 -0.078296 -0.112021 0.039553 -0.027696 -0.036795 0.114307 -0.124466 0.038152 0.057287 -0.010453 -0.017140 -0.016717 0.165858 -0.150165 0.062367 -0.056645 0.172585 0.002145 0.116631 0.052376 0.006746 -0.059964 -0.110988 -0.119866 -0.064402 -0.005261 0.299333 0.046416 -0.002247 0.141154 -0.018467 -0.060070 -0.115886 0.078661 -0.249839 0.056208 -0.037832 -0.075066 0.079777 0.109442 -0.074531 0.214616 -0.078777 0.015176 0.106059 0.131866 0.091837 0.093257 -0.103375 0.141621 0.010255 0.022037 0.048494 -0.128250 -0.085214 0.007038 -0.084395 0.131017 -0.085877 0.030345 0.069320 -0.120101 0.006602 -0.098282 -0.055684 0.036426 -0.001591 0.051666
69 -0.003524 -0.190226 -0.030711 -0.136143 -0.067087 -0.084616 0.029880 0.111870 0.031203 0.027840 -0.062758 0.222416 0.085351 0.016134 -0.096651 -0.159203 -0.020929 -0.010342 0.115841 0.114549 0.059644 -0.002891 0.119619 0.112665 0.083179 -0.022457 -0.164590 -0.014913 0.025300 -0.008422 0.067541 -0.135100 -0.095312 -0.164648 -0.078243 -0.060126 0.113626 0.051781 -0.020036 0.032894 -0.008757 0.126679 0.166034 -0.043514 -0.066307 0.217924 0.039005 -0.138483 -0.007011 -0.095886 -0.036106 -0.075184 0.077556 -0.087456 -0.045423 -0.092660 0.160020 0.020189 -0.250192 0.060909 -0.078949 -0.115572 0.037106 -0.030136 -0.033457 0.121631 -0.131607 0.035861 0.059875 -0.016198 -0.012983 -0.016736 0.171168 -0.160425 0.069666 -0.052957 0.185348 -0.003397 0.120680 0.053769 0.011191 -0.056163 -0.113234 -0.116705 -0.069313 -0.006542 0.308364 0.055972 0.002313 0.148306 -0.019811 -0.063424 -0.124778 0.086428 -0.258895 0.058136 -0.041113 -0.079560 0.081044 0.109451 -0.073093 0.222920 -0.081437 0.014907 0.112514 0.137520 0.091795 0.093636 -0.110126 0.145539 0.013084 0.024413 0.046347 -0.130654 -0.085681 0.009766 -0.088348 0.134613 -0.093173 0.034968 0.071457 -0.125394 0.013027 -0.092894 -0.052473 0.032419 0.005003 0.055501
2 -0.000210 -0.198972 -0.028477 -0.145652 -0.068143 -0.092843 0.031287 0.126342 0.027926 0.027920 -0.064681 0.233293 0.094943 0.003393 -0.107105 -0.181929 -0.022971 -0.011461 0.116735 0.121379 0.063777 -0.005581 0.126583 0.125181 0.089375 -0.024218 -0.173456 -0.009843 0.041569 -0.007099 0.076698 -0.152213 -0.106285 -0.169168 -0.092080 -0.061158 0.124257 0.050183 -0.012206 0.029332 -0.008718 0.132358 0.177675 -0.035577 -0.074478 0.220950 0.033760 -0.147147 -0.012606 -0.100401 -0.031155 -0.085769 0.085981 -0.084909 -0.049079 -0.100116 0.168145 0.028762 -0.266186 0.071327 -0.089370 -0.124579 0.041290 -0.030861 -0.039132 0.132069 -0.137316 0.041799 0.062107 -0.015911 -0.018713 -0.015149 0.183211 -0.168686 0.070363 -0.054838 0.200817 0.001387 0.126209 0.058970 0.002597 -0.068430 -0.129122 -0.130875 -0.062315 0.000436 0.330041 0.053113 0.006711 0.155831 -0.015105 -0.061354 -0.132115 0.082427 -0.280366 0.063085 -0.047805 -0.083146 0.082900 0.125347 -0.076354 0.229497 -0.080692 0.008064 0.112656 0.142886 0.104028 0.108305 -0.120734 0.155969 0.011971 0.026994 0.054055 -0.142117 -0.094073 0.009558 -0.095481 0.148515 -0.099229 0.033751 0.072681 -0.142508 0.009911 -0.114066 -0.059846 0.040209 0.010234 0.059446
70 0.000936 -0.216819 -0.033760 -0.157933 -0.070146 -0.099527 0.028630 0.130936 0.038764 0.035551 -0.074567 0.248909 0.096416 0.013583 -0.110797 -0.182738 -0.020388 -0.013243 0.127294 0.132222 0.070095 -0.006300 0.129401 0.127599 0.096959 -0.025387 -0.181971 -0.016565 0.034582 -0.009657 0.081795 -0.154162 -0.107086 -0.188933 -0.091356 -0.067936 0.130287 0.057942 -0.019199 0.036474 -0.011530 0.139247 0.177993 -0.044384 -0.077793 0.240641 0.039033 -0.149898 -0.015633 -0.107515 -0.034028 -0.082116 0.094889 -0.095838 -0.042909 -0.104322 0.177998 0.026743 -0.283193 0.070505 -0.087941 -0.132310 0.039491 -0.031945 -0.043747 0.139364 -0.142059 0.040552 0.073050 -0.011348 -0.018767 -0.014431 0.193621 -0.181299 0.074497 -0.059962 0.208617 0.002692 0.133387 0.059232 0.010210 -0.071236 -0.131634 -0.133776 -0.069899 -0.005283 0.354277 0.056517 0.002731 0.170211 -0.016233 -0.068957 -0.141535 0.098552 -0.288893 0.064868 -0.042889 -0.089507 0.093011 0.122223 -0.086050 0.250667 -0.089492 0.018165 0.123627 0.155072 0.106019 0.108063 -0.124191 0.166721 0.010766 0.027373 0.052368 -0.148393 -0.091765 0.009391 -0.102002 0.151939 -0.102894 0.040736 0.082917 -0.148340 0.013751 -0.110061 -0.065609 0.037216 0.000909 0.057509
50 -0.004168 -0.182580 -0.030305 -0.129008 -0.066118 -0.084448 0.032399 0.111107 0.031011 0.030935 -0.060518 0.207809 0.088440 0.007940 -0.097504 -0.156300 -0.015193 -0.007323 0.106223 0.111235 0.056795 -0.007960 0.110148 0.114530 0.086300 -0.017772 -0.154904 -0.007454 0.029462 -0.010867 0.064360 -0.135085 -0.090252 -0.161088 -0.074335 -0.055377 0.106256 0.050618 -0.015704 0.028258 -0.007144 0.125461 0.152934 -0.039661 -0.058778 0.203093 0.034672 -0.133464 -0.008279 -0.090501 -0.035462 -0.070252 0.080296 -0.087803 -0.041144 -0.093624 0.148795 0.022117 -0.236336 0.056728 -0.073341 -0.119322 0.036909 -0.029869 -0.032101 0.110558 -0.124461 0.034901 0.063004 -0.005772 -0.020183 -0.013047 0.164539 -0.149933 0.058699 -0.052130 0.175318 0.003739 0.116697 0.055049 0.001350 -0.053493 -0.109781 -0.116661 -0.064082 -0.005713 0.295963 0.050561 -0.002086 0.148929 -0.017743 -0.058786 -0.118712 0.079408 -0.249797 0.054681 -0.035185 -0.076392 0.079469 0.109854 -0.072878 0.215422 -0.072169 0.014812 0.104573 0.130106 0.093159 0.086365 -0.108152 0.145729 0.013901 0.017420 0.048070 -0.123083 -0.080494 0.010873 -0.091071 0.134536 -0.081142 0.034495 0.071563 -0.119200 0.005449 -0.098887 -0.054675 0.028369 -0.000512 0.055537
66 0.002554 -0.185197 -0.020635 -0.140795 -0.067259 -0.084462 0.027519 0.116335 0.032194 0.029378 -0.056570 0.204038 0.092816 0.017309 -0.092171 -0.153983 -0.017859 -0.005082 0.108667 0.116368 0.053900 -0.007364 0.108672 0.118465 0.087396 -0.024216 -0.159091 -0.008942 0.032218 -0.018686 0.072638 -0.137869 -0.085389 -0.159166 -0.088669 -0.052439 0.112548 0.053005 -0.013378 0.037849 -0.012201 0.122137 0.161114 -0.039426 -0.058888 0.209295 0.027145 -0.136646 -0.010135 -0.082926 -0.033911 -0.068537 0.084358 -0.086812 -0.034201 -0.092059 0.143241 0.019282 -0.238707 0.063797 -0.077814 -0.120907 0.039377 -0.033804 -0.032080 0.113309 -0.124136 0.035771 0.071726 -0.001379 -0.016720 -0.021163 0.169510 -0.152031 0.062347 -0.062601 0.180007 0.001099 0.113090 0.058878 0.008642 -0.053201 -0.118632 -0.118589 -0.061909 -0.009175 0.295800 0.054268 0.008096 0.147885 -0.009852 -0.054124 -0.124631 0.087755 -0.246743 0.056363 -0.034225 -0.075629 0.084627 0.105564 -0.065715 0.213205 -0.073334 0.017907 0.101805 0.134669 0.079225 0.085465 -0.101602 0.151115 0.006059 0.019928 0.050604 -0.133548 -0.074475 0.013605 -0.083855 0.135210 -0.085828 0.026961 0.062925 -0.119134 0.012129 -0.088395 -0.059206 0.033842 0.011449 0.048501
64 0.001941 -0.154714 -0.018339 -0.116949 -0.055699 -0.069485 0.027848 0.100817 0.028260 0.022384 -0.047372 0.177026 0.078058 0.011765 -0.077998 -0.131813 -0.017767 -0.008422 0.089319 0.097274 0.048206 -0.006357 0.092806 0.098388 0.074318 -0.019909 -0.134190 -0.010205 0.028854 -0.012798 0.058392 -0.120660 -0.069173 -0.140356 -0.076620 -0.050605 0.095336 0.044217 -0.011237 0.030898 -0.006443 0.105636 0.134114 -0.038632 -0.052201 0.180503 0.028487 -0.117208 -0.009087 -0.070740 -0.025251 -0.061113 0.066648 -0.071673 -0.025340 -0.078359 0.122194 0.014255 -0.201312 0.053103 -0.069672 -0.102240 0.029122 -0.024288 -0.029536 0.103308 -0.106214 0.029369 0.060612 -0.002224 -0.015325 -0.012992 0.147901 -0.131991 0.057206 -0.051768 0.152885 0.004978 0.100883 0.046608 0.005549 -0.045654 -0.097309 -0.104172 -0.051794 -0.002656 0.257097 0.043671 0.006706 0.126503 -0.012736 -0.047983 -0.102311 0.075585 -0.210041 0.050215 -0.030182 -0.066885 0.067899 0.091379 -0.061268 0.182810 -0.062702 0.012419 0.088772 0.117412 0.073986 0.077693 -0.087407 0.126891 0.006495 0.015705 0.045698 -0.109977 -0.067141 0.008522 -0.076208 0.115590 -0.070847 0.025616 0.053202 -0.099963 0.005939 -0.076048 -0.049051 0.026884 0.007339 0.044927
17 0.003186 -0.194066 -0.027999 -0.139053 -0.076495 -0.096566 0.028827 0.121134 0.039099 0.039075 -0.064836 0.231243 0.104023 0.005585 -0.105777 -0.165924 -0.028150 -0.014011 0.115075 0.131841 0.070548 -0.017684 0.126442 0.123902 0.096528 -0.008408 -0.165481 -0.018862 0.036661 -0.006032 0.071373 -0.142654 -0.093555 -0.172174 -0.090065 -0.070246 0.121517 0.052224 -0.018463 0.030791 -0.013023 0.128087 0.155531 -0.034597 -0.064018 0.221427 0.033139 -0.131803 -0.006952 -0.097944 -0.036002 -0.082150 0.085824 -0.099853 -0.030937 -0.090715 0.154492 0.023427 -0.251492 0.052759 -0.077903 -0.129241 0.050518 -0.025457 -0.031560 0.122821 -0.132554 0.039761 0.070460 0.001252 -0.024719 -0.017187 0.178960 -0.167713 0.074028 -0.050019 0.187965 0.002302 0.129851 0.057316 0.004018 -0.063676 -0.109765 -0.133448 -0.074915 -0.005091 0.323159 0.051595 0.006193 0.154217 -0.015491 -0.062145 -0.124844 0.086883 -0.270479 0.058983 -0.038694 -0.072372 0.086280 0.118663 -0.075315 0.225534 -0.078713 0.021310 0.110020 0.144217 0.089026 0.091024 -0.117055 0.159034 0.010170 0.021365 0.055960 -0.135005 -0.089723 0.007321 -0.097257 0.145357 -0.091958 0.034143 0.076972 -0.132600 0.010806 -0.110023 -0.056579 0.031701 -0.000853 0.054737
62 0.003689 -0.168287 -0.024316 -0.131440 -0.062092 -0.076118 0.022806 0.108266 0.031633 0.023287 -0.050002 0.190818 0.084381 0.016709 -0.091544 -0.142775 -0.016464 -0.006007 0.100936 0.106791 0.047950 -0.007960 0.099321 0.110669 0.081696 -0.020638 -0.149809 -0.010229 0.025751 -0.016271 0.063701 -0.130618 -0.079426 -0.151588 -0.080416 -0.048729 0.101290 0.047546 -0.010967 0.035904 -0.013896 0.112784 0.144721 -0.039099 -0.054093 0.191414 0.027572 -0.122267 -0.006452 -0.080660 -0.032151 -0.063231 0.075064 -0.077282 -0.028714 -0.086199 0.131988 0.019006 -0.219569 0.057910 -0.072679 -0.112675 0.033692 -0.027704 -0.035201 0.111479 -0.112247 0.032240 0.066213 -0.003360 -0.022222 -0.019248 0.162294 -0.137922 0.055290 -0.054551 0.166509 -0.001349 0.104225 0.054742 0.012538 -0.049371 -0.106299 -0.112312 -0.061817 -0.007344 0.281927 0.053771 0.008100 0.134282 -0.009466 -0.056809 -0.117407 0.082130 -0.231210 0.052720 -0.031698 -0.073407 0.078518 0.102995 -0.066091 0.200335 -0.067195 0.017299 0.095802 0.128234 0.079466 0.078656 -0.095094 0.141935 0.002011 0.018070 0.047076 -0.119993 -0.069456 0.008433 -0.084955 0.120696 -0.074144 0.023148 0.060481 -0.110870 0.008820 -0.087576 -0.054852 0.032041 0.007826 0.041457
18 0.007773 -0.188792 -0.032713 -0.137684 -0.071802 -0.096081 0.022128 0.119114 0.039537 0.042140 -0.067170 0.227818 0.107493 -0.002188 -0.102209 -0.168547 -0.033037 -0.008222 0.112394 0.134192 0.078272 -0.016860 0.128095 0.126978 0.096322 -0.001853 -0.157522 -0.021836 0.038064 -0.005579 0.067534 -0.137772 -0.094164 -0.165266 -0.084528 -0.071104 0.115919 0.048335 -0.016661 0.028778 -0.012438 0.133754 0.146771 -0.036256 -0.060685 0.222117 0.026483 -0.128413 -0.002024 -0.102320 -0.035137 -0.084317 0.087458 -0.093528 -0.030484 -0.080588 0.156078 0.014635 -0.250588 0.051144 -0.073073 -0.131652 0.051509 -0.022212 -0.026131 0.116855 -0.129709 0.037769 0.072588 0.006823 -0.025725 -0.015752 0.178736 -0.168756 0.073723 -0.047260 0.193009 0.009397 0.131179 0.059073 -0.005364 -0.062369 -0.105212 -0.142035 -0.076301 -0.001916 0.316681 0.050237 -0.001780 0.154554 -0.009724 -0.064512 -0.116616 0.076194 -0.270441 0.060343 -0.044247 -0.066328 0.083013 0.112414 -0.077439 0.223949 -0.073908 0.021081 0.108835 0.143602 0.082191 0.085511 -0.113944 0.150406 0.007643 0.016335 0.048290 -0.135687 -0.089142 0.003152 -0.096112 0.137076 -0.086575 0.038726 0.072639 -0.137412 0.008119 -0.116788 -0.046808 0.027091 -0.006941 0.047508
19 0.008672 -0.187824 -0.024962 -0.137400 -0.072065 -0.091192 0.024170 0.113083 0.037395 0.036032 -0.067439 0.222788 0.099445 0.001851 -0.101901 -0.161663 -0.032222 -0.013266 0.116709 0.130502 0.070746 -0.018146 0.121610 0.125030 0.090712 -0.004821 -0.158923 -0.019349 0.033517 -0.007738 0.067066 -0.136603 -0.092850 -0.168680 -0.086711 -0.066481 0.111189 0.050463 -0.014963 0.027685 -0.011071 0.125441 0.149783 -0.036197 -0.056413 0.217724 0.032361 -0.130637 -0.005594 -0.095636 -0.034933 -0.079627 0.078276 -0.095402 -0.028169 -0.082284 0.150337 0.021453 -0.241341 0.052232 -0.075946 -0.126185 0.051623 -0.019470 -0.030260 0.112181 -0.124461 0.038310 0.064675 -0.001705 -0.020444 -0.015870 0.173286 -0.160169 0.067031 -0.053791 0.187682 0.007306 0.123177 0.055424 0.000492 -0.061588 -0.107619 -0.136351 -0.072632 -0.004554 0.311077 0.052414 -0.000806 0.147050 -0.011605 -0.056965 -0.115376 0.081956 -0.263601 0.061305 -0.041532 -0.069644 0.082101 0.109425 -0.073511 0.219699 -0.077130 0.016938 0.105221 0.140916 0.083644 0.090055 -0.111506 0.149328 0.008249 0.019829 0.051834 -0.133319 -0.084853 0.009172 -0.089616 0.140711 -0.091631 0.040532 0.070278 -0.132447 0.006658 -0.113326 -0.053138 0.032700 -0.005040 0.047317
23 0.006538 -0.192836 -0.033774 -0.140712 -0.076603 -0.095725 0.024485 0.124642 0.039699 0.037322 -0.070534 0.233856 0.109028 -0.003996 -0.109022 -0.169504 -0.033630 -0.007885 0.122533 0.139857 0.075559 -0.018443 0.125285 0.133117 0.097044 -0.006258 -0.168441 -0.025672 0.033213 -0.004550 0.069926 -0.143831 -0.099668 -0.174184 -0.093426 -0.073927 0.123711 0.047971 -0.021716 0.028359 -0.012478 0.134487 0.157047 -0.034493 -0.060088 0.227144 0.029102 -0.129896 -0.006833 -0.105143 -0.034057 -0.084307 0.089858 -0.102555 -0.031628 -0.090190 0.159129 0.019617 -0.258655 0.050948 -0.077693 -0.133678 0.056428 -0.021335 -0.028149 0.119384 -0.133292 0.044235 0.072888 0.006035 -0.022784 -0.016132 0.185561 -0.169899 0.070341 -0.050790 0.196801 0.007377 0.138076 0.063363 0.003722 -0.068853 -0.108718 -0.143881 -0.077203 -0.001844 0.323043 0.053814 -0.000317 0.154709 -0.009533 -0.061745 -0.127900 0.082955 -0.279831 0.058912 -0.042113 -0.073721 0.083262 0.121733 -0.080881 0.228738 -0.074381 0.017768 0.110580 0.145836 0.084374 0.091121 -0.115303 0.159457 0.007167 0.018385 0.052424 -0.141408 -0.095063 0.005129 -0.102242 0.145886 -0.092697 0.041028 0.077723 -0.136881 0.006879 -0.121310 -0.048720 0.029477 -0.003672 0.051287
20 0.003111 -0.205446 -0.030462 -0.148196 -0.078696 -0.102235 0.031470 0.127428 0.035084 0.035877 -0.071973 0.236726 0.110875 0.003251 -0.110618 -0.178855 -0.031986 -0.009427 0.121721 0.132294 0.075590 -0.015837 0.132620 0.133490 0.099566 -0.009663 -0.168832 -0.020280 0.038435 -0.012633 0.071786 -0.152618 -0.100105 -0.181779 -0.090074 -0.068320 0.128920 0.050212 -0.020957 0.026034 -0.015863 0.136287 0.164876 -0.039285 -0.064462 0.234190 0.036898 -0.141383 -0.005880 -0.107496 -0.040043 -0.083988 0.092367 -0.104071 -0.036891 -0.094048 0.167421 0.017461 -0.271170 0.062776 -0.079515 -0.134299 0.052119 -0.024647 -0.035529 0.126539 -0.139018 0.045012 0.070493 0.001822 -0.025303 -0.015592 0.186206 -0.175246 0.074241 -0.054443 0.203646 0.004852 0.136604 0.065821 0.003093 -0.071392 -0.120088 -0.147217 -0.072437 -0.000871 0.334802 0.057011 -0.000165 0.164897 -0.010724 -0.065299 -0.130844 0.087006 -0.282508 0.062057 -0.042424 -0.079117 0.085119 0.126598 -0.083289 0.235140 -0.084314 0.022769 0.115327 0.155270 0.093092 0.099615 -0.117402 0.167155 0.008506 0.024422 0.055240 -0.142481 -0.097099 0.005652 -0.098338 0.151223 -0.096057 0.040032 0.077209 -0.139198 0.009536 -0.120599 -0.054921 0.037398 -0.004095 0.056116
52 -0.005609 -0.203160 -0.028158 -0.153913 -0.075096 -0.096031 0.035187 0.124471 0.034593 0.027808 -0.067385 0.236181 0.096906 0.013182 -0.113901 -0.182911 -0.020303 -0.007608 0.116793 0.125119 0.069010 -0.009585 0.122997 0.126517 0.091426 -0.019546 -0.176637 -0.008268 0.036424 -0.014167 0.078833 -0.151228 -0.095872 -0.179196 -0.087165 -0.063830 0.121508 0.055047 -0.016134 0.031707 -0.009734 0.142612 0.174052 -0.040294 -0.069195 0.231220 0.039377 -0.145152 -0.013206 -0.103196 -0.037099 -0.084003 0.091961 -0.098945 -0.039047 -0.101235 0.169652 0.019362 -0.270154 0.062553 -0.087358 -0.127988 0.040188 -0.032141 -0.042277 0.131933 -0.136385 0.046282 0.068291 -0.006194 -0.022006 -0.014966 0.188215 -0.170226 0.071204 -0.063612 0.198156 -0.001311 0.130465 0.061274 0.009988 -0.068052 -0.125344 -0.134789 -0.066691 -0.005639 0.341757 0.060574 -0.001447 0.169867 -0.015268 -0.066598 -0.135978 0.088296 -0.281496 0.057893 -0.042346 -0.082281 0.083658 0.127191 -0.075903 0.243867 -0.080442 0.018090 0.121512 0.150516 0.104644 0.102945 -0.124985 0.168213 0.011198 0.021730 0.055904 -0.146298 -0.092610 0.009847 -0.102497 0.152311 -0.097045 0.033806 0.076871 -0.139370 0.003916 -0.109040 -0.059076 0.036676 0.001610 0.057114
21 0.001442 -0.184291 -0.028437 -0.141095 -0.075233 -0.093232 0.024705 0.113249 0.036092 0.039616 -0.065043 0.222734 0.102279 -0.002275 -0.102689 -0.164303 -0.028771 -0.009893 0.116344 0.128455 0.072761 -0.015316 0.120262 0.126206 0.091694 -0.009624 -0.157258 -0.019017 0.035118 -0.008092 0.071022 -0.140377 -0.093839 -0.165616 -0.089675 -0.069177 0.115686 0.052123 -0.014457 0.028350 -0.014244 0.132173 0.149504 -0.038111 -0.063468 0.219329 0.031223 -0.129494 -0.001863 -0.099000 -0.030844 -0.076956 0.086043 -0.097630 -0.032743 -0.083982 0.155007 0.015634 -0.251773 0.057438 -0.078210 -0.126015 0.049170 -0.019855 -0.027129 0.115585 -0.129200 0.035998 0.065635 -0.002756 -0.018376 -0.019589 0.175356 -0.160817 0.072055 -0.051073 0.184599 0.003243 0.128909 0.061991 -0.000280 -0.062398 -0.110648 -0.138989 -0.073493 -0.006091 0.309564 0.049312 0.005406 0.147924 -0.007505 -0.058898 -0.122881 0.084182 -0.263947 0.056361 -0.043723 -0.069176 0.082244 0.113715 -0.077399 0.218543 -0.075517 0.022678 0.110883 0.144147 0.084497 0.087629 -0.113429 0.150085 0.013678 0.023240 0.050353 -0.131589 -0.090693 0.010145 -0.098241 0.138157 -0.088044 0.041381 0.071317 -0.133989 0.008503 -0.114690 -0.047851 0.033869 0.001150 0.047075
71 0.002940 -0.185102 -0.029145 -0.136242 -0.065543 -0.086690 0.023467 0.107957 0.036789 0.031342 -0.063990 0.217960 0.089981 0.010885 -0.093309 -0.162895 -0.019497 -0.010042 0.111560 0.116256 0.058188 -0.006103 0.112437 0.117297 0.081635 -0.023772 -0.154793 -0.013072 0.029903 -0.007079 0.067354 -0.136053 -0.090009 -0.165057 -0.081317 -0.056441 0.107644 0.045047 -0.013365 0.025985 -0.010565 0.122468 0.156479 -0.040525 -0.060387 0.214227 0.033738 -0.134774 -0.010217 -0.090031 -0.035256 -0.073372 0.076762 -0.090720 -0.041540 -0.094182 0.153176 0.020548 -0.243081 0.056668 -0.074134 -0.119206 0.036706 -0.023481 -0.035729 0.121736 -0.124243 0.033846 0.059235 -0.012698 -0.014944 -0.011437 0.164831 -0.155420 0.066748 -0.052525 0.178379 -0.001388 0.115573 0.051232 0.010067 -0.060427 -0.111058 -0.121058 -0.066469 -0.000994 0.305958 0.052268 -0.000436 0.148726 -0.017588 -0.061024 -0.122299 0.085717 -0.251247 0.060059 -0.039762 -0.076948 0.082360 0.109021 -0.074258 0.214421 -0.080951 0.016375 0.105887 0.132667 0.088062 0.094865 -0.103784 0.144519 0.013278 0.018813 0.044914 -0.130526 -0.083220 0.008321 -0.084932 0.136868 -0.088056 0.035665 0.067410 -0.124453 0.005552 -0.096263 -0.052549 0.033651 -0.001638 0.051638
4 -0.002897 -0.180957 -0.024816 -0.133614 -0.061382 -0.088213 0.024382 0.119690 0.029396 0.024617 -0.054801 0.214748 0.090959 0.004871 -0.099955 -0.166409 -0.018133 -0.014061 0.110212 0.116258 0.058887 -0.007619 0.111859 0.115340 0.088919 -0.020311 -0.163047 -0.007454 0.039535 -0.011451 0.066492 -0.142877 -0.094459 -0.160787 -0.085620 -0.060374 0.117251 0.052317 -0.011772 0.031886 -0.008877 0.118227 0.166440 -0.030265 -0.063856 0.203366 0.031749 -0.140189 -0.014430 -0.093249 -0.026945 -0.079132 0.080194 -0.081817 -0.043215 -0.091270 0.154141 0.023332 -0.242464 0.061166 -0.077543 -0.120559 0.040463 -0.026007 -0.031700 0.122885 -0.129635 0.041682 0.062062 -0.012719 -0.017517 -0.013247 0.171440 -0.158453 0.068701 -0.056031 0.188146 0.005219 0.115038 0.060037 0.005991 -0.064106 -0.117603 -0.121558 -0.058062 -0.004668 0.310045 0.048588 0.006722 0.149179 -0.018434 -0.059357 -0.126362 0.079280 -0.257873 0.059083 -0.046192 -0.078599 0.080656 0.112934 -0.076126 0.215744 -0.071220 0.015082 0.100795 0.138321 0.088488 0.097784 -0.112186 0.144188 0.015986 0.021678 0.050249 -0.129999 -0.084084 0.012991 -0.090100 0.138170 -0.089427 0.031869 0.070183 -0.128351 0.004037 -0.106770 -0.061548 0.036959 0.010686 0.057071
22 0.007344 -0.198263 -0.031301 -0.142536 -0.074801 -0.099579 0.025668 0.120380 0.035294 0.036916 -0.069757 0.233423 0.106926 -0.001083 -0.104341 -0.172867 -0.032804 -0.011324 0.123276 0.135880 0.076760 -0.015679 0.131357 0.130203 0.091824 -0.005344 -0.165988 -0.024082 0.038421 -0.004371 0.070866 -0.147840 -0.101748 -0.174473 -0.089790 -0.072472 0.119631 0.049413 -0.020256 0.024080 -0.008208 0.130827 0.154803 -0.034522 -0.061427 0.230750 0.029029 -0.131805 -0.001817 -0.104337 -0.038389 -0.085262 0.083386 -0.100328 -0.029576 -0.089354 0.164966 0.022737 -0.256617 0.053808 -0.078080 -0.129646 0.052675 -0.020292 -0.032646 0.122863 -0.138007 0.043055 0.073713 0.003767 -0.024179 -0.013436 0.181395 -0.171507 0.076284 -0.051041 0.192698 0.007940 0.135344 0.060692 -0.002717 -0.067499 -0.110822 -0.144683 -0.074733 -0.005851 0.328739 0.049509 0.003175 0.157010 -0.009722 -0.066048 -0.124897 0.079970 -0.276243 0.061522 -0.043923 -0.073105 0.087622 0.115544 -0.080017 0.230848 -0.076527 0.022476 0.114638 0.150183 0.090066 0.095970 -0.116200 0.159011 0.013397 0.021368 0.055022 -0.135412 -0.093713 0.005805 -0.101548 0.144519 -0.095645 0.038833 0.077391 -0.140353 0.010445 -0.119287 -0.050856 0.033295 -0.001105 0.052822
3 -0.007750 -0.182969 -0.021268 -0.133339 -0.060256 -0.087002 0.029225 0.115867 0.024936 0.023902 -0.056332 0.211161 0.081581 0.000909 -0.100259 -0.169783 -0.014917 -0.016272 0.108433 0.109996 0.054332 -0.004341 0.113048 0.119842 0.090061 -0.024620 -0.159616 -0.006130 0.041071 -0.004307 0.066030 -0.142733 -0.099380 -0.155421 -0.084145 -0.061697 0.116062 0.052392 -0.011145 0.031699 -0.008708 0.115240 0.164541 -0.028320 -0.069118 0.204518 0.036339 -0.139220 -0.017698 -0.087917 -0.025640 -0.077955 0.074432 -0.079389 -0.045958 -0.095975 0.151049 0.025468 -0.246673 0.067648 -0.084394 -0.114923 0.036847 -0.021715 -0.035225 0.117258 -0.122733 0.042373 0.061589 -0.018121 -0.013308 -0.012860 0.164543 -0.152250 0.068468 -0.054709 0.188868 0.001528 0.120086 0.054019 0.004184 -0.058481 -0.118732 -0.123749 -0.058132 -0.001235 0.306594 0.049976 0.001837 0.145251 -0.018005 -0.056917 -0.123782 0.081056 -0.260263 0.061195 -0.047074 -0.073245 0.083127 0.114133 -0.078371 0.216054 -0.080366 0.010169 0.105556 0.139984 0.092451 0.097026 -0.106301 0.140536 0.017105 0.024435 0.050117 -0.129265 -0.083650 0.012309 -0.090483 0.139478 -0.085859 0.032611 0.066390 -0.133965 0.005570 -0.104233 -0.061405 0.036310 0.008384 0.057070
72 -0.000083 -0.195726 -0.029391 -0.145062 -0.067191 -0.085056 0.025945 0.115248 0.033467 0.029969 -0.063122 0.226314 0.089392 0.007853 -0.100198 -0.163431 -0.017271 -0.006700 0.111775 0.118359 0.059494 -0.007081 0.116066 0.117315 0.089472 -0.020090 -0.162743 -0.012098 0.029339 -0.014190 0.070135 -0.144040 -0.093655 -0.172812 -0.084830 -0.062500 0.116522 0.048906 -0.018513 0.029109 -0.008321 0.133989 0.162969 -0.043498 -0.065292 0.216872 0.034734 -0.138678 -0.010601 -0.098819 -0.036684 -0.072051 0.085497 -0.089726 -0.042354 -0.097016 0.155121 0.023291 -0.251287 0.062746 -0.084338 -0.127498 0.037327 -0.028163 -0.032767 0.122579 -0.127694 0.034478 0.063733 -0.012008 -0.021713 -0.013653 0.178236 -0.161171 0.071177 -0.057865 0.187308 -0.000030 0.126393 0.058162 0.008855 -0.062556 -0.120501 -0.127178 -0.069139 -0.002185 0.322565 0.050873 0.006265 0.155524 -0.015572 -0.060484 -0.130212 0.085381 -0.261180 0.058931 -0.041112 -0.083271 0.083189 0.117217 -0.074935 0.227397 -0.081352 0.016960 0.113013 0.143176 0.090142 0.097204 -0.114505 0.152454 0.014466 0.020919 0.052679 -0.139251 -0.083796 0.006996 -0.091457 0.140497 -0.089009 0.031030 0.071820 -0.132930 0.008924 -0.100028 -0.055835 0.038282 -0.001678 0.055351
77 0.008484 -0.258805 -0.026402 -0.187259 -0.096014 -0.110192 0.036871 0.159794 0.036985 0.047713 -0.071828 0.279526 0.116100 0.024969 -0.120392 -0.206481 -0.016811 -0.002967 0.152826 0.160127 0.062973 -0.011705 0.151046 0.154359 0.118909 -0.027634 -0.219279 -0.015178 0.045952 -0.023634 0.090848 -0.186634 -0.109310 -0.213333 -0.121254 -0.078098 0.152322 0.073897 -0.022356 0.039975 -0.019784 0.170946 0.218111 -0.061037 -0.075498 0.277884 0.034948 -0.175972 -0.002822 -0.113847 -0.050363 -0.096199 0.111247 -0.129105 -0.045550 -0.127725 0.199318 0.023505 -0.325442 0.085936 -0.112369 -0.165076 0.054175 -0.031165 -0.044780 0.164747 -0.160094 0.053064 0.088149 -0.001178 -0.039681 -0.019468 0.239226 -0.193595 0.093568 -0.081627 0.233691 0.000488 0.150182 0.084002 0.013706 -0.069262 -0.154403 -0.164403 -0.079513 -0.017267 0.393549 0.083501 0.008821 0.209811 -0.017768 -0.072152 -0.156781 0.108860 -0.327082 0.082706 -0.050895 -0.101057 0.113140 0.133623 -0.097090 0.278181 -0.099189 0.027667 0.146994 0.185180 0.108762 0.125180 -0.148008 0.202544 0.005416 0.024626 0.064480 -0.174485 -0.098688 0.014585 -0.117601 0.183170 -0.116288 0.036706 0.086044 -0.158724 0.014347 -0.124233 -0.077027 0.044933 0.009541 0.072493
42 -0.004418 -0.191185 -0.029819 -0.146633 -0.063885 -0.090511 0.028926 0.120833 0.034646 0.032937 -0.061810 0.225165 0.088866 0.016552 -0.099294 -0.169677 -0.021684 -0.013558 0.118541 0.119887 0.063622 -0.009860 0.120631 0.124122 0.092549 -0.025073 -0.171716 -0.009145 0.029724 -0.008069 0.072598 -0.142096 -0.093233 -0.171410 -0.084198 -0.061925 0.117576 0.048764 -0.018916 0.029173 -0.013143 0.131731 0.165732 -0.039991 -0.063084 0.223833 0.038067 -0.139002 -0.011689 -0.094726 -0.032173 -0.078804 0.084404 -0.089289 -0.042583 -0.098439 0.163605 0.022173 -0.259113 0.059632 -0.080504 -0.119680 0.037111 -0.028395 -0.032761 0.126137 -0.134391 0.039180 0.065311 -0.010558 -0.017571 -0.016839 0.179237 -0.162408 0.070252 -0.057942 0.186845 0.003524 0.119363 0.061863 0.005983 -0.058591 -0.122290 -0.122177 -0.067636 -0.003156 0.324614 0.050569 0.001192 0.157156 -0.015445 -0.060958 -0.131160 0.085229 -0.269085 0.057989 -0.041338 -0.084578 0.088137 0.112987 -0.075771 0.227704 -0.084164 0.013222 0.113760 0.139528 0.099694 0.098872 -0.112839 0.156023 0.015935 0.022542 0.051761 -0.134159 -0.090138 0.012261 -0.093287 0.141017 -0.089472 0.033140 0.073865 -0.130392 0.006593 -0.100860 -0.059554 0.032169 0.005405 0.057895
35 -0.003632 -0.249401 -0.037840 -0.181097 -0.090015 -0.111006 0.038499 0.145136 0.041308 0.042750 -0.083324 0.286712 0.116068 0.013510 -0.133261 -0.215503 -0.025614 -0.009303 0.146279 0.154276 0.081173 -0.009460 0.153896 0.161651 0.116055 -0.025184 -0.204773 -0.014016 0.038243 -0.014413 0.093324 -0.187780 -0.122486 -0.224615 -0.104060 -0.077382 0.149113 0.061363 -0.016756 0.031616 -0.017145 0.166522 0.220211 -0.050189 -0.084786 0.275346 0.045185 -0.178033 -0.014513 -0.121919 -0.044831 -0.099715 0.105381 -0.121062 -0.045404 -0.125354 0.204620 0.025199 -0.325663 0.080056 -0.111155 -0.164824 0.055749 -0.037359 -0.050452 0.152534 -0.168792 0.055945 0.086460 -0.009035 -0.024831 -0.018114 0.223981 -0.208234 0.083864 -0.079193 0.247088 0.011554 0.153597 0.076746 0.001287 -0.085990 -0.150350 -0.168440 -0.081764 -0.001992 0.414011 0.068783 -0.003240 0.204857 -0.017254 -0.088007 -0.166059 0.110599 -0.340692 0.069898 -0.055852 -0.096672 0.105079 0.152761 -0.089194 0.288057 -0.105746 0.009425 0.146978 0.179629 0.121666 0.130362 -0.142727 0.203791 0.015313 0.025873 0.064459 -0.179063 -0.112654 0.010684 -0.117349 0.176731 -0.120253 0.046253 0.096204 -0.171174 0.014543 -0.129256 -0.069856 0.049035 -0.001315 0.071410
61 -0.002052 -0.163882 -0.020175 -0.124863 -0.059282 -0.075085 0.024932 0.100142 0.031095 0.024325 -0.053019 0.182793 0.079416 0.012186 -0.086743 -0.140982 -0.015073 -0.005831 0.092991 0.100778 0.046658 -0.010855 0.097388 0.100756 0.080553 -0.022064 -0.142324 -0.009814 0.028776 -0.017083 0.061511 -0.125673 -0.079376 -0.147141 -0.076626 -0.048798 0.101714 0.041361 -0.010358 0.028227 -0.008228 0.107239 0.143712 -0.035556 -0.054270 0.186253 0.024187 -0.116578 -0.004727 -0.075573 -0.026812 -0.062992 0.076182 -0.077120 -0.034128 -0.076428 0.128826 0.015765 -0.214432 0.049511 -0.073786 -0.110354 0.037774 -0.022860 -0.030517 0.104113 -0.109716 0.029262 0.064218 -0.001264 -0.020810 -0.013344 0.152528 -0.134903 0.058954 -0.049323 0.158056 0.002621 0.103488 0.051951 0.011694 -0.049829 -0.105133 -0.109901 -0.058029 -0.006727 0.270883 0.043816 0.007124 0.133613 -0.012970 -0.048317 -0.109006 0.072189 -0.220476 0.051850 -0.030375 -0.069940 0.071013 0.096044 -0.062252 0.190000 -0.061313 0.017380 0.091225 0.116748 0.071646 0.078325 -0.094672 0.132548 0.004027 0.019416 0.047700 -0.117041 -0.074941 0.012029 -0.081548 0.120301 -0.077503 0.026515 0.058075 -0.104898 0.007316 -0.082879 -0.047111 0.034865 0.004166 0.045761
36 0.001826 -0.228671 -0.029921 -0.166850 -0.079292 -0.106411 0.037880 0.137090 0.040851 0.040087 -0.078033 0.257262 0.103656 0.013310 -0.118658 -0.193748 -0.027126 -0.014978 0.131218 0.133906 0.070683 -0.004847 0.142635 0.147367 0.104782 -0.028834 -0.185513 -0.019145 0.035078 -0.012675 0.087236 -0.173105 -0.110003 -0.204681 -0.098284 -0.070913 0.135053 0.057280 -0.021101 0.026694 -0.010713 0.148670 0.200216 -0.043367 -0.075162 0.252026 0.046502 -0.160089 -0.011140 -0.106319 -0.039963 -0.087709 0.097102 -0.110024 -0.043236 -0.107725 0.183162 0.024133 -0.297670 0.077354 -0.098898 -0.150647 0.051216 -0.032201 -0.045401 0.143065 -0.152463 0.049109 0.079327 -0.012775 -0.023596 -0.021010 0.204738 -0.190059 0.073507 -0.070752 0.226750 0.007148 0.142421 0.065302 0.001763 -0.076091 -0.134627 -0.152213 -0.075642 -0.003889 0.376517 0.066654 0.003663 0.186528 -0.018491 -0.081595 -0.147840 0.106955 -0.303948 0.068887 -0.049345 -0.086250 0.089889 0.141091 -0.085065 0.263545 -0.089815 0.014562 0.134044 0.167625 0.111522 0.115630 -0.131168 0.185689 0.012047 0.027145 0.054345 -0.164623 -0.105122 0.003980 -0.108650 0.160540 -0.106922 0.044514 0.086427 -0.154216 0.014515 -0.115787 -0.065559 0.041666 -0.003414 0.065165
67 -0.000744 -0.157569 -0.019031 -0.120343 -0.053081 -0.072462 0.024546 0.095439 0.032444 0.026758 -0.047002 0.178424 0.076986 0.009171 -0.081100 -0.140751 -0.015132 -0.009652 0.092043 0.099082 0.045600 -0.012021 0.097080 0.099253 0.079490 -0.015499 -0.136491 -0.011879 0.029596 -0.017856 0.057470 -0.122578 -0.076036 -0.145580 -0.076014 -0.049102 0.095340 0.045123 -0.009459 0.029975 -0.010676 0.112495 0.141592 -0.031522 -0.053076 0.181342 0.027396 -0.114128 -0.003434 -0.076511 -0.029315 -0.060810 0.071098 -0.077871 -0.030533 -0.078964 0.130870 0.017849 -0.211576 0.054173 -0.066213 -0.105974 0.033700 -0.022295 -0.033315 0.102318 -0.105182 0.031451 0.062369 -0.001445 -0.014380 -0.012057 0.152568 -0.131973 0.056285 -0.053340 0.155124 0.003795 0.104597 0.052434 0.007349 -0.049005 -0.102483 -0.103245 -0.059094 -0.004901 0.260277 0.044882 0.008254 0.125795 -0.009911 -0.048106 -0.108072 0.072731 -0.215383 0.045011 -0.031036 -0.068220 0.068897 0.092019 -0.058947 0.188607 -0.061150 0.015857 0.088964 0.115248 0.076010 0.079624 -0.091445 0.127924 0.001369 0.019737 0.040458 -0.110615 -0.070462 0.012200 -0.079651 0.113116 -0.070265 0.022949 0.054723 -0.106442 0.007348 -0.079925 -0.049295 0.032208 0.009185 0.045407
76 -0.005857 -0.194285 -0.032655 -0.140757 -0.062535 -0.092093 0.031032 0.116854 0.035717 0.028551 -0.065383 0.226525 0.090649 0.008330 -0.097288 -0.170293 -0.016207 -0.011462 0.117542 0.121743 0.058103 -0.010697 0.117004 0.116608 0.089735 -0.024667 -0.169264 -0.013666 0.030072 -0.014088 0.076143 -0.142781 -0.094575 -0.168798 -0.081535 -0.057300 0.113339 0.046589 -0.013869 0.029741 -0.015065 0.126641 0.168812 -0.040467 -0.067591 0.219380 0.037112 -0.138893 -0.011007 -0.093602 -0.033165 -0.077322 0.084172 -0.090362 -0.041758 -0.096659 0.162568 0.025231 -0.251755 0.064885 -0.085641 -0.119766 0.035434 -0.030931 -0.036912 0.124614 -0.134306 0.036739 0.063819 -0.010233 -0.013640 -0.017204 0.178355 -0.163915 0.072662 -0.054646 0.186053 0.002905 0.119811 0.056041 0.009418 -0.059142 -0.123267 -0.124686 -0.063656 -0.001895 0.322315 0.052353 0.002054 0.151181 -0.019081 -0.059937 -0.129887 0.087970 -0.265935 0.056472 -0.041496 -0.081367 0.085592 0.114659 -0.072950 0.222969 -0.081307 0.010930 0.113296 0.144157 0.098777 0.102110 -0.109263 0.150328 0.013540 0.027103 0.049615 -0.132061 -0.086162 0.012391 -0.092098 0.136581 -0.090312 0.035882 0.069239 -0.131451 0.011944 -0.097157 -0.055998 0.039124 0.006296 0.057518
254 0.005934 -0.254828 -0.024438 -0.187353 -0.095217 -0.109605 0.039137 0.153155 0.037663 0.047588 -0.066821 0.273978 0.115263 0.022834 -0.118685 -0.198285 -0.017792 -0.001499 0.148438 0.153665 0.062161 -0.013284 0.150296 0.149643 0.116370 -0.030313 -0.215704 -0.019000 0.048254 -0.027562 0.090497 -0.179857 -0.102361 -0.216216 -0.118004 -0.070390 0.141238 0.072579 -0.018109 0.041493 -0.023038 0.165971 0.209747 -0.061558 -0.070176 0.276464 0.034595 -0.178416 -0.001744 -0.106441 -0.045208 -0.097129 0.111679 -0.125004 -0.040711 -0.126319 0.187778 0.017168 -0.318183 0.083960 -0.114231 -0.159031 0.053967 -0.035852 -0.040668 0.161548 -0.152108 0.046024 0.091171 -0.002448 -0.038361 -0.020502 0.232231 -0.187972 0.088016 -0.079265 0.232879 0.003918 0.152355 0.079375 0.009629 -0.065432 -0.146962 -0.164441 -0.081406 -0.016637 0.388943 0.083902 0.011057 0.206615 -0.019635 -0.070274 -0.148869 0.106853 -0.325549 0.082226 -0.054907 -0.098154 0.115270 0.129339 -0.095936 0.276606 -0.100205 0.021424 0.142965 0.179910 0.110445 0.120861 -0.141441 0.203108 0.000582 0.021877 0.068481 -0.177661 -0.093812 0.010015 -0.111359 0.181353 -0.112405 0.038001 0.089330 -0.162011 0.013525 -0.128657 -0.078358 0.038421 0.010277 0.068162
30 0.002459 -0.242992 -0.037208 -0.169837 -0.087297 -0.107352 0.038929 0.142666 0.042455 0.041255 -0.083346 0.274662 0.112735 0.009156 -0.130090 -0.209949 -0.026936 -0.012709 0.136269 0.150453 0.076782 -0.011612 0.154936 0.148853 0.110255 -0.026940 -0.196949 -0.016592 0.037066 -0.011121 0.088381 -0.182776 -0.117477 -0.216062 -0.105860 -0.072623 0.143930 0.064869 -0.017564 0.028440 -0.012840 0.162169 0.208800 -0.044038 -0.082154 0.269605 0.044584 -0.173226 -0.011114 -0.114669 -0.044442 -0.092441 0.103752 -0.118756 -0.045026 -0.115933 0.192943 0.026790 -0.311058 0.079492 -0.104235 -0.159877 0.055791 -0.034113 -0.040849 0.148780 -0.162895 0.049967 0.084061 -0.011522 -0.021645 -0.016939 0.214601 -0.201649 0.082297 -0.073079 0.237855 0.010677 0.150283 0.076978 -0.000228 -0.081264 -0.149248 -0.160483 -0.081720 -0.000484 0.392576 0.068216 -0.001966 0.194073 -0.014885 -0.085908 -0.156500 0.109459 -0.322408 0.073114 -0.054403 -0.091834 0.100663 0.142678 -0.086812 0.279213 -0.100138 0.010143 0.137807 0.172613 0.119533 0.121966 -0.143319 0.191967 0.011308 0.024753 0.058057 -0.172802 -0.105251 0.005663 -0.118968 0.168405 -0.116783 0.047425 0.087234 -0.163460 0.013419 -0.125127 -0.064714 0.046977 0.004102 0.066803
29 -0.002513 -0.175259 -0.027951 -0.129563 -0.058850 -0.083156 0.026407 0.103667 0.030178 0.029051 -0.055715 0.205674 0.081575 0.007498 -0.092567 -0.155406 -0.022817 -0.013177 0.104942 0.108168 0.058821 -0.010024 0.104804 0.109432 0.078273 -0.020651 -0.149933 -0.013770 0.033150 -0.007119 0.068023 -0.131064 -0.083064 -0.154882 -0.079826 -0.054264 0.109231 0.047903 -0.012064 0.022149 -0.006752 0.119656 0.145989 -0.038849 -0.057757 0.201991 0.029782 -0.125091 -0.011926 -0.085041 -0.031629 -0.070222 0.072835 -0.081892 -0.039910 -0.082580 0.147813 0.021930 -0.228437 0.057607 -0.073466 -0.116525 0.035348 -0.024613 -0.036345 0.108692 -0.122894 0.034576 0.063530 -0.003487 -0.020859 -0.013387 0.154270 -0.144407 0.063170 -0.047037 0.174670 0.002837 0.112388 0.053142 0.000968 -0.053861 -0.104176 -0.118635 -0.059167 -0.002856 0.291397 0.044854 0.001483 0.136834 -0.012882 -0.060415 -0.114798 0.079074 -0.235158 0.056221 -0.039918 -0.066806 0.074509 0.101933 -0.070598 0.206859 -0.072731 0.014169 0.101326 0.128506 0.083114 0.084983 -0.100788 0.141672 0.012103 0.021392 0.042203 -0.124878 -0.082240 0.003326 -0.086331 0.122556 -0.078785 0.029789 0.064444 -0.121115 0.005035 -0.096573 -0.047580 0.034019 -0.000427 0.045445
38 0.001792 -0.221343 -0.028853 -0.157510 -0.079481 -0.100456 0.029556 0.127934 0.041906 0.032625 -0.073470 0.250057 0.107306 0.009364 -0.120260 -0.187938 -0.025305 -0.010419 0.128553 0.133374 0.065994 -0.006724 0.137732 0.137387 0.096668 -0.022700 -0.180001 -0.018100 0.036276 -0.014783 0.079160 -0.166814 -0.108312 -0.199309 -0.097308 -0.070307 0.129157 0.053309 -0.018904 0.028057 -0.013296 0.144713 0.191909 -0.040573 -0.077152 0.247846 0.042933 -0.160284 -0.008884 -0.107754 -0.041459 -0.086348 0.089131 -0.105863 -0.045957 -0.110825 0.180319 0.023897 -0.287916 0.073207 -0.097327 -0.143409 0.048157 -0.035987 -0.039362 0.139674 -0.143245 0.047832 0.072518 -0.008187 -0.024559 -0.017863 0.191522 -0.184074 0.069972 -0.064333 0.218396 0.009519 0.136688 0.065539 0.004659 -0.072003 -0.131297 -0.143776 -0.077371 -0.004544 0.361208 0.058561 -0.000896 0.175194 -0.015819 -0.076509 -0.145392 0.099525 -0.299073 0.063850 -0.047248 -0.089503 0.090527 0.134668 -0.081939 0.254499 -0.085508 0.009200 0.120877 0.157411 0.105107 0.110884 -0.129086 0.177336 0.011150 0.028938 0.057577 -0.156385 -0.099918 0.005790 -0.104634 0.153850 -0.107699 0.041709 0.083753 -0.151146 0.008378 -0.114370 -0.065805 0.044119 -0.002672 0.061332
37 -0.005150 -0.229638 -0.029233 -0.164897 -0.079987 -0.101187 0.031416 0.137159 0.044666 0.038279 -0.077533 0.267313 0.112009 0.007127 -0.125554 -0.197113 -0.030126 -0.012649 0.137579 0.138015 0.069424 -0.006740 0.147705 0.150898 0.104876 -0.023662 -0.186997 -0.017286 0.039857 -0.012576 0.086860 -0.175678 -0.115081 -0.210931 -0.095725 -0.074901 0.140597 0.057708 -0.017684 0.032543 -0.010375 0.157278 0.203240 -0.047208 -0.082472 0.258384 0.042663 -0.161041 -0.011254 -0.112958 -0.041485 -0.090303 0.099977 -0.106651 -0.047675 -0.109294 0.190597 0.023613 -0.302162 0.079056 -0.105041 -0.153431 0.049146 -0.031863 -0.044158 0.144858 -0.152287 0.053392 0.079538 -0.006345 -0.019245 -0.017811 0.204239 -0.190256 0.079103 -0.069612 0.229594 0.008386 0.142194 0.072280 0.001248 -0.080591 -0.141327 -0.157320 -0.075590 -0.003849 0.382577 0.067457 0.000228 0.186248 -0.020977 -0.083178 -0.154709 0.108152 -0.310401 0.066832 -0.051889 -0.094102 0.091304 0.141694 -0.083417 0.264537 -0.096796 0.008368 0.135373 0.169758 0.115300 0.120226 -0.138214 0.189252 0.016179 0.027695 0.062013 -0.168394 -0.103789 0.005963 -0.107520 0.157906 -0.114295 0.039565 0.090623 -0.162421 0.016285 -0.123946 -0.063567 0.042806 -0.004189 0.061017
39 -0.004897 -0.226392 -0.031198 -0.165342 -0.076551 -0.100167 0.035489 0.138671 0.040301 0.035729 -0.078161 0.258475 0.109113 0.010932 -0.122440 -0.198927 -0.029181 -0.010503 0.130451 0.141668 0.072535 -0.006469 0.147315 0.148144 0.100908 -0.023496 -0.191566 -0.011599 0.034460 -0.013503 0.087935 -0.175795 -0.112681 -0.208047 -0.096113 -0.071992 0.137732 0.059942 -0.019462 0.028648 -0.010895 0.153594 0.200084 -0.048562 -0.077142 0.260076 0.044152 -0.161865 -0.008674 -0.107070 -0.043101 -0.086464 0.097754 -0.111475 -0.044868 -0.109823 0.184341 0.027195 -0.294961 0.076429 -0.104216 -0.146131 0.046664 -0.035190 -0.045263 0.142642 -0.149635 0.053312 0.081907 -0.009570 -0.019033 -0.016599 0.202022 -0.189098 0.078006 -0.066904 0.226671 0.009479 0.145045 0.068832 0.006814 -0.074387 -0.139901 -0.154894 -0.075961 -0.003106 0.380996 0.067326 -0.000051 0.187436 -0.018399 -0.077591 -0.148149 0.104969 -0.310237 0.068794 -0.050102 -0.090784 0.094567 0.142300 -0.088101 0.269089 -0.096891 0.010354 0.134772 0.164321 0.110215 0.119994 -0.134898 0.181007 0.011943 0.030326 0.058385 -0.163936 -0.106621 0.006803 -0.112108 0.158303 -0.114512 0.037331 0.086326 -0.157352 0.015828 -0.119929 -0.062012 0.046666 0.000395 0.061317
58 -0.000098 -0.162708 -0.022797 -0.126683 -0.059384 -0.069680 0.025712 0.102911 0.027667 0.025356 -0.048291 0.183667 0.082327 0.017612 -0.084642 -0.143701 -0.018088 -0.005988 0.094607 0.096977 0.044905 -0.011231 0.095609 0.099663 0.078957 -0.024010 -0.146630 -0.010706 0.028050 -0.011213 0.063027 -0.123904 -0.073954 -0.142896 -0.074370 -0.047038 0.098077 0.048795 -0.015541 0.032775 -0.012457 0.106349 0.140048 -0.038338 -0.056858 0.185269 0.030074 -0.117697 -0.007533 -0.080247 -0.028011 -0.065606 0.076262 -0.073907 -0.032895 -0.078428 0.130505 0.014349 -0.209479 0.056295 -0.067764 -0.107355 0.032381 -0.029489 -0.030663 0.104314 -0.105857 0.029041 0.063521 -0.000630 -0.019493 -0.019717 0.152281 -0.138100 0.056252 -0.056457 0.154872 -0.001375 0.102073 0.048550 0.007483 -0.050987 -0.103843 -0.103984 -0.051666 -0.004404 0.270899 0.043450 0.002239 0.129173 -0.014425 -0.052610 -0.111576 0.079044 -0.222474 0.050390 -0.036912 -0.074018 0.075817 0.095473 -0.060422 0.188935 -0.060949 0.018084 0.087514 0.121287 0.072292 0.082009 -0.092372 0.132335 0.004305 0.015495 0.045579 -0.119270 -0.074316 0.008275 -0.079791 0.117816 -0.078025 0.025672 0.060991 -0.104495 0.005949 -0.080686 -0.050649 0.031646 0.008851 0.046729
47 -0.005610 -0.291561 -0.042460 -0.215875 -0.106882 -0.133256 0.037768 0.176684 0.046607 0.045534 -0.100323 0.333414 0.148417 0.012377 -0.148826 -0.248366 -0.029926 -0.017686 0.173330 0.190853 0.092544 -0.012588 0.171765 0.184738 0.142720 -0.029302 -0.246193 -0.019117 0.041271 -0.027815 0.109437 -0.217327 -0.132474 -0.261566 -0.133515 -0.091947 0.177457 0.074183 -0.029081 0.051619 -0.019072 0.195601 0.248400 -0.059807 -0.090925 0.327939 0.048630 -0.213624 -0.021638 -0.141518 -0.041733 -0.107383 0.130088 -0.141031 -0.055784 -0.141047 0.227908 0.033007 -0.376998 0.086399 -0.123823 -0.190894 0.061045 -0.042575 -0.058358 0.178844 -0.195096 0.065708 0.101813 -0.005565 -0.033336 -0.033823 0.266184 -0.234205 0.098976 -0.092033 0.275358 0.007181 0.184790 0.087172 0.013645 -0.095991 -0.177190 -0.197188 -0.092418 -0.010619 0.475226 0.084915 0.009889 0.230880 -0.026332 -0.087966 -0.196687 0.133994 -0.390303 0.084022 -0.065344 -0.122682 0.120778 0.178745 -0.111420 0.337751 -0.112565 0.021893 0.155989 0.219568 0.129047 0.152555 -0.178889 0.235972 0.018552 0.031574 0.081159 -0.210517 -0.132018 0.017664 -0.140808 0.203749 -0.136495 0.051498 0.110122 -0.196579 0.008623 -0.152850 -0.088881 0.057906 0.003923 0.082279
48 -0.006134 -0.362458 -0.050418 -0.268188 -0.136409 -0.164610 0.050579 0.213824 0.059488 0.053806 -0.127874 0.418386 0.185102 0.022247 -0.188046 -0.318617 -0.039395 -0.022717 0.215057 0.237737 0.115670 -0.016137 0.212883 0.225885 0.174117 -0.035067 -0.314907 -0.030532 0.051335 -0.034335 0.139357 -0.274865 -0.165884 -0.321042 -0.170819 -0.116873 0.222702 0.091705 -0.034969 0.063308 -0.029549 0.239867 0.314756 -0.073957 -0.113428 0.414575 0.064272 -0.267695 -0.028616 -0.181520 -0.053724 -0.132555 0.160427 -0.169799 -0.074512 -0.172721 0.283216 0.044803 -0.473858 0.109898 -0.151705 -0.233067 0.079818 -0.050943 -0.070654 0.225463 -0.248228 0.078633 0.133721 -0.011423 -0.044528 -0.040461 0.324748 -0.291721 0.130812 -0.107856 0.344719 0.006300 0.233925 0.113185 0.019758 -0.115565 -0.216074 -0.245220 -0.116973 -0.017391 0.595717 0.109604 0.010158 0.295677 -0.033002 -0.107606 -0.247029 0.168308 -0.485614 0.102802 -0.076536 -0.151460 0.158378 0.225274 -0.138933 0.416994 -0.140954 0.025105 0.193925 0.275259 0.161370 0.188652 -0.223390 0.288464 0.016478 0.037015 0.100464 -0.260029 -0.168662 0.019269 -0.171324 0.259650 -0.167692 0.060166 0.139432 -0.249294 0.016323 -0.188665 -0.109925 0.073282 0.008773 0.099347
55 -0.001066 -0.156246 -0.021903 -0.113902 -0.054764 -0.072610 0.027456 0.092428 0.028763 0.026534 -0.049033 0.179563 0.070181 0.011746 -0.083549 -0.134895 -0.016369 -0.005343 0.089121 0.094000 0.053251 -0.005734 0.093113 0.096199 0.073994 -0.017372 -0.136359 -0.011210 0.023557 -0.006914 0.058957 -0.115542 -0.070122 -0.137599 -0.064910 -0.047415 0.088943 0.040889 -0.016473 0.021224 -0.006585 0.108013 0.134923 -0.034009 -0.049014 0.178703 0.031031 -0.111441 -0.007710 -0.077988 -0.029442 -0.059648 0.071143 -0.072020 -0.035466 -0.078364 0.128109 0.016709 -0.202714 0.046500 -0.062485 -0.099403 0.034192 -0.024271 -0.026110 0.101466 -0.103115 0.028834 0.054858 -0.008463 -0.017062 -0.010445 0.143511 -0.126136 0.057252 -0.045998 0.151338 -0.003308 0.094845 0.050545 0.006530 -0.051916 -0.091876 -0.103383 -0.056200 -0.002714 0.254572 0.040036 -0.002322 0.126097 -0.009095 -0.046395 -0.098479 0.064955 -0.213996 0.044028 -0.034344 -0.060806 0.066490 0.092830 -0.056424 0.182976 -0.063260 0.010870 0.088316 0.116330 0.076736 0.078326 -0.088122 0.125272 0.006188 0.021119 0.043308 -0.110223 -0.065283 0.005131 -0.071310 0.109887 -0.068176 0.022173 0.060649 -0.101894 0.003223 -0.085100 -0.046529 0.029180 -0.001093 0.046495
44 0.000488 -0.155089 -0.026602 -0.116304 -0.054331 -0.071591 0.022307 0.095075 0.029471 0.026106 -0.050352 0.181847 0.071283 0.009585 -0.080405 -0.134429 -0.019490 -0.012638 0.091570 0.098273 0.050497 -0.003402 0.093157 0.100552 0.075589 -0.016906 -0.131456 -0.007607 0.028910 -0.008042 0.058840 -0.118700 -0.079337 -0.140109 -0.066967 -0.050466 0.091767 0.044606 -0.013853 0.019628 -0.012446 0.108659 0.131911 -0.031650 -0.052493 0.176854 0.025918 -0.108442 -0.012241 -0.078161 -0.029591 -0.060598 0.067535 -0.075691 -0.029865 -0.078203 0.130956 0.014144 -0.202670 0.045817 -0.067527 -0.101496 0.035077 -0.025843 -0.027597 0.102209 -0.110109 0.035571 0.055088 -0.003971 -0.012093 -0.012824 0.140561 -0.133031 0.054213 -0.043555 0.148956 -0.002117 0.100585 0.049997 0.003175 -0.053544 -0.095928 -0.105385 -0.055638 -0.007453 0.260152 0.042708 -0.003288 0.125025 -0.015778 -0.051251 -0.103536 0.066598 -0.216355 0.049364 -0.030452 -0.060314 0.063362 0.095948 -0.059357 0.186055 -0.063835 0.013110 0.090018 0.118381 0.079825 0.079634 -0.094306 0.124795 0.011505 0.014676 0.036280 -0.107832 -0.070961 0.009347 -0.077184 0.110574 -0.073179 0.024970 0.060672 -0.108975 0.005738 -0.079353 -0.042414 0.024825 -0.001813 0.040980
32 -0.002684 -0.166275 -0.027594 -0.120081 -0.056611 -0.075018 0.026662 0.099295 0.026315 0.026799 -0.054602 0.191076 0.077050 0.008892 -0.086158 -0.140780 -0.017328 -0.009996 0.092448 0.102468 0.053401 -0.004833 0.097983 0.101416 0.072952 -0.018193 -0.141557 -0.007553 0.029789 -0.011771 0.060032 -0.122062 -0.076215 -0.141825 -0.074915 -0.051543 0.102429 0.047108 -0.014154 0.022946 -0.012147 0.112111 0.139340 -0.033547 -0.058882 0.183901 0.032047 -0.115030 -0.008799 -0.084025 -0.028884 -0.064120 0.070229 -0.074957 -0.035712 -0.082675 0.132785 0.017336 -0.214938 0.051452 -0.068739 -0.105230 0.032501 -0.019978 -0.033957 0.103050 -0.113370 0.036214 0.057607 -0.009921 -0.019450 -0.010090 0.150107 -0.138980 0.056297 -0.045677 0.161475 0.002531 0.103665 0.049807 0.003509 -0.054440 -0.096911 -0.108649 -0.056187 -0.000063 0.271593 0.046253 0.003068 0.128520 -0.011598 -0.050593 -0.104980 0.069612 -0.222446 0.049284 -0.034879 -0.066814 0.066383 0.094712 -0.061453 0.188135 -0.069391 0.010723 0.096025 0.124390 0.082319 0.079299 -0.099330 0.131911 0.009635 0.016501 0.044548 -0.112771 -0.070942 0.009209 -0.079790 0.121430 -0.073326 0.027001 0.059404 -0.116283 0.007178 -0.086609 -0.044363 0.026107 -0.001466 0.047995
45 0.001655 -0.180754 -0.029310 -0.133824 -0.061050 -0.082714 0.028922 0.113879 0.035441 0.029513 -0.063041 0.210063 0.090975 0.009957 -0.095847 -0.158676 -0.018015 -0.007714 0.104632 0.116138 0.056712 -0.010648 0.112658 0.111985 0.083365 -0.016648 -0.157340 -0.014522 0.030557 -0.007640 0.068586 -0.133571 -0.090941 -0.158579 -0.079534 -0.053300 0.105545 0.050020 -0.013078 0.025596 -0.012350 0.120212 0.154451 -0.038707 -0.063032 0.201262 0.034315 -0.126119 -0.007485 -0.084921 -0.029851 -0.071813 0.074590 -0.083769 -0.036302 -0.091777 0.149825 0.018949 -0.237920 0.058562 -0.077937 -0.117730 0.039622 -0.024803 -0.035335 0.116210 -0.123571 0.037746 0.061457 -0.004471 -0.015919 -0.010697 0.161002 -0.154838 0.067428 -0.048985 0.179558 0.003556 0.117298 0.058253 0.005670 -0.059610 -0.112516 -0.116581 -0.064629 -0.003397 0.299331 0.050333 0.000738 0.142403 -0.014801 -0.058423 -0.120489 0.081342 -0.247834 0.057192 -0.035982 -0.073840 0.081020 0.112581 -0.074234 0.209223 -0.076399 0.018026 0.103325 0.130231 0.089566 0.091403 -0.103988 0.148272 0.009004 0.024283 0.046145 -0.125820 -0.081765 0.005906 -0.087792 0.127417 -0.085853 0.033479 0.069661 -0.126532 0.008555 -0.096157 -0.051119 0.035673 0.004748 0.048204
40 -0.007516 -0.309720 -0.047320 -0.228213 -0.102925 -0.139801 0.042607 0.194827 0.050706 0.043217 -0.099307 0.355239 0.146331 0.010458 -0.171018 -0.273551 -0.031484 -0.017331 0.176248 0.190983 0.105622 -0.014193 0.193361 0.195540 0.141348 -0.034553 -0.268018 -0.025658 0.046250 -0.028451 0.114560 -0.231013 -0.152680 -0.271275 -0.137593 -0.099017 0.183260 0.087955 -0.023339 0.050569 -0.023276 0.214051 0.264898 -0.060409 -0.109133 0.344107 0.056164 -0.226991 -0.012438 -0.148879 -0.057461 -0.128192 0.134920 -0.145640 -0.055374 -0.160004 0.249678 0.029713 -0.402894 0.096631 -0.130103 -0.195642 0.062691 -0.049967 -0.060134 0.195567 -0.209180 0.060915 0.112598 -0.009288 -0.035667 -0.024309 0.281291 -0.262033 0.111850 -0.097450 0.304332 0.001707 0.191993 0.091217 0.011938 -0.099648 -0.192493 -0.208908 -0.099744 -0.000723 0.515321 0.081893 0.000245 0.256048 -0.030756 -0.106705 -0.204541 0.137083 -0.418591 0.097976 -0.062387 -0.131796 0.136729 0.182422 -0.115498 0.359143 -0.119421 0.027609 0.182722 0.226839 0.153955 0.147976 -0.182837 0.245964 0.013639 0.031070 0.078913 -0.218406 -0.136082 0.014195 -0.144583 0.220965 -0.138835 0.051079 0.118724 -0.206160 0.007966 -0.171403 -0.093900 0.060754 0.008090 0.079305
73 -0.004546 -0.158201 -0.022911 -0.120375 -0.052177 -0.072966 0.025643 0.098221 0.023620 0.021679 -0.055985 0.183643 0.077060 0.011526 -0.084299 -0.141192 -0.018825 -0.011283 0.090930 0.097911 0.053863 -0.008680 0.096752 0.097018 0.072379 -0.017006 -0.135198 -0.007477 0.027916 -0.013474 0.056721 -0.119513 -0.073644 -0.145034 -0.072159 -0.053259 0.094384 0.039764 -0.016251 0.021341 -0.013485 0.104905 0.139088 -0.032730 -0.056084 0.183726 0.031194 -0.114621 -0.006855 -0.078475 -0.030955 -0.061210 0.071423 -0.072590 -0.032229 -0.081382 0.129789 0.017384 -0.206562 0.052287 -0.069839 -0.105610 0.037628 -0.026062 -0.032135 0.103348 -0.109271 0.031383 0.055720 -0.005545 -0.013180 -0.010938 0.145184 -0.129789 0.058364 -0.050830 0.154808 -0.001205 0.104807 0.050006 0.008087 -0.055223 -0.094936 -0.106145 -0.052802 -0.006531 0.260473 0.042866 0.004757 0.129077 -0.013552 -0.052454 -0.107151 0.070886 -0.218185 0.049406 -0.030277 -0.067234 0.071776 0.094701 -0.063986 0.185653 -0.068400 0.010816 0.093415 0.117287 0.076666 0.079407 -0.093788 0.123255 0.007955 0.017355 0.043037 -0.112793 -0.072794 0.006113 -0.078902 0.117781 -0.071044 0.027217 0.062880 -0.105742 0.005102 -0.084516 -0.043356 0.029743 0.003524 0.046093
53 -0.002641 -0.337441 -0.055016 -0.251249 -0.111250 -0.153124 0.045543 0.211572 0.052548 0.049494 -0.115287 0.392116 0.157170 0.011466 -0.184574 -0.292569 -0.031307 -0.011825 0.193970 0.213791 0.116067 -0.014864 0.203912 0.209795 0.155038 -0.041129 -0.284442 -0.026382 0.053785 -0.030482 0.126691 -0.252112 -0.167817 -0.302197 -0.153153 -0.103006 0.205429 0.089437 -0.025990 0.055139 -0.022634 0.235383 0.282575 -0.070392 -0.119862 0.375853 0.062856 -0.239452 -0.015970 -0.167260 -0.058475 -0.139036 0.154067 -0.153849 -0.060062 -0.173581 0.270993 0.030935 -0.442841 0.108398 -0.142869 -0.215879 0.074970 -0.053285 -0.067724 0.213359 -0.221551 0.067093 0.116932 -0.016611 -0.031876 -0.023987 0.302743 -0.278569 0.125037 -0.100826 0.328765 -0.002659 0.213790 0.098749 0.011658 -0.111376 -0.213139 -0.222019 -0.109723 -0.000276 0.557629 0.094199 0.007083 0.273544 -0.030504 -0.113250 -0.218270 0.147866 -0.457338 0.101871 -0.068875 -0.139851 0.147496 0.196074 -0.132666 0.393180 -0.135064 0.033676 0.198906 0.248506 0.163095 0.158894 -0.195757 0.266558 0.012736 0.034429 0.087153 -0.240053 -0.150338 0.017207 -0.155729 0.239541 -0.150121 0.061944 0.124790 -0.227884 0.006949 -0.187998 -0.098140 0.058595 0.009232 0.085132
43 -0.003894 -0.170640 -0.026766 -0.128851 -0.058018 -0.082673 0.029197 0.106034 0.031299 0.027081 -0.056078 0.200551 0.078284 0.010107 -0.087701 -0.150276 -0.022283 -0.008892 0.098250 0.106106 0.056855 -0.007555 0.109129 0.105602 0.078259 -0.015889 -0.147685 -0.009809 0.027481 -0.009217 0.068208 -0.124007 -0.084687 -0.149396 -0.072146 -0.052976 0.102387 0.045846 -0.011456 0.027639 -0.006326 0.117773 0.150056 -0.035614 -0.062260 0.194588 0.035689 -0.124727 -0.010581 -0.086494 -0.029029 -0.065151 0.075568 -0.080400 -0.037309 -0.086606 0.145521 0.019637 -0.230178 0.052951 -0.074372 -0.108316 0.034797 -0.021833 -0.034686 0.107938 -0.114184 0.033297 0.060435 -0.004906 -0.013452 -0.010196 0.159178 -0.146222 0.060313 -0.054092 0.169251 -0.000784 0.107175 0.054406 0.008610 -0.053054 -0.104671 -0.111251 -0.061353 -0.005065 0.287039 0.051690 0.001277 0.138626 -0.012465 -0.053887 -0.111493 0.080277 -0.236427 0.052919 -0.036673 -0.070654 0.074171 0.104998 -0.063772 0.204710 -0.071407 0.012136 0.102249 0.125028 0.088352 0.085393 -0.096723 0.135293 0.009753 0.020979 0.042128 -0.120305 -0.081044 0.004907 -0.085795 0.122801 -0.078982 0.030433 0.066983 -0.120965 0.006637 -0.090175 -0.049877 0.031359 0.002828 0.047069
75 0.003542 -0.165464 -0.025127 -0.127220 -0.058709 -0.072247 0.026520 0.100048 0.026994 0.024963 -0.050025 0.186820 0.079563 0.010440 -0.088559 -0.146102 -0.016222 -0.009985 0.099028 0.108527 0.055279 -0.010978 0.097376 0.103608 0.076703 -0.021327 -0.144838 -0.007753 0.027946 -0.013869 0.060906 -0.119957 -0.078809 -0.143913 -0.073753 -0.052272 0.103491 0.044278 -0.014046 0.027651 -0.008378 0.109046 0.143424 -0.036370 -0.052296 0.188835 0.032698 -0.119338 -0.005858 -0.077986 -0.028819 -0.063789 0.073376 -0.081321 -0.028700 -0.077942 0.133313 0.019610 -0.215170 0.051735 -0.072979 -0.108696 0.039905 -0.027723 -0.033431 0.105658 -0.108025 0.029620 0.058818 -0.005787 -0.014092 -0.017921 0.151414 -0.139845 0.061176 -0.051568 0.158619 0.005484 0.106598 0.049475 0.008300 -0.048782 -0.103857 -0.109655 -0.055594 -0.004378 0.276860 0.050704 0.002348 0.130400 -0.016380 -0.048741 -0.111163 0.072411 -0.229841 0.047209 -0.035040 -0.066449 0.074342 0.100066 -0.063856 0.190794 -0.067380 0.015085 0.090083 0.123178 0.079292 0.079396 -0.100739 0.130641 0.007420 0.020895 0.047775 -0.118021 -0.073291 0.005273 -0.080973 0.119873 -0.080040 0.032306 0.057003 -0.115511 0.010373 -0.087173 -0.046147 0.034115 0.002139 0.044687
74 -0.002703 -0.152173 -0.023668 -0.114974 -0.053343 -0.064998 0.019611 0.094080 0.024755 0.021187 -0.047769 0.175717 0.069070 0.011673 -0.077674 -0.134234 -0.013126 -0.005579 0.092397 0.091823 0.045639 -0.007703 0.091706 0.098988 0.066456 -0.011996 -0.129407 -0.009332 0.027283 -0.008910 0.059803 -0.107972 -0.075120 -0.131569 -0.063821 -0.049084 0.089774 0.036838 -0.013277 0.026404 -0.012875 0.104579 0.126819 -0.030021 -0.048047 0.171182 0.025493 -0.110716 -0.006570 -0.075723 -0.026601 -0.059522 0.064418 -0.070448 -0.029436 -0.069934 0.123298 0.017907 -0.200317 0.048036 -0.066276 -0.101312 0.035751 -0.023478 -0.031254 0.093759 -0.098450 0.027262 0.049688 -0.007170 -0.013290 -0.012986 0.138301 -0.128763 0.056365 -0.045748 0.150383 0.000091 0.098001 0.044051 0.003692 -0.050900 -0.094624 -0.097597 -0.050968 -0.007023 0.245243 0.046612 -0.001280 0.123427 -0.009793 -0.048955 -0.097039 0.064108 -0.208698 0.045026 -0.028461 -0.059932 0.068581 0.087467 -0.057488 0.172262 -0.060212 0.009866 0.089234 0.111863 0.067517 0.078169 -0.091151 0.118585 0.003642 0.014402 0.043131 -0.109970 -0.068408 0.004230 -0.074928 0.105435 -0.069846 0.022932 0.052952 -0.104068 0.007523 -0.077262 -0.046809 0.025729 -0.001017 0.039080
34 -0.002967 -0.134297 -0.016240 -0.094711 -0.043293 -0.062961 0.023225 0.079791 0.019942 0.021071 -0.047266 0.152497 0.065448 0.006363 -0.072496 -0.117499 -0.010865 -0.006463 0.080925 0.086005 0.042797 -0.006717 0.085228 0.081581 0.062531 -0.017784 -0.111273 -0.010495 0.021094 -0.005826 0.053284 -0.098260 -0.066774 -0.116136 -0.058286 -0.039042 0.084387 0.036948 -0.010350 0.022497 -0.010203 0.092310 0.116774 -0.025193 -0.045592 0.147396 0.025955 -0.098216 -0.004865 -0.061632 -0.021172 -0.051091 0.059634 -0.059367 -0.029180 -0.068881 0.108135 0.015075 -0.173875 0.041553 -0.058337 -0.083377 0.024681 -0.018326 -0.024477 0.081863 -0.091891 0.023947 0.050164 -0.004678 -0.015324 -0.011654 0.116972 -0.107890 0.047064 -0.040227 0.126565 0.005828 0.085122 0.042860 0.000934 -0.044256 -0.079558 -0.090451 -0.042753 -0.000618 0.218266 0.038123 -0.000819 0.108570 -0.013590 -0.042255 -0.088045 0.059015 -0.182359 0.042251 -0.030001 -0.051041 0.055821 0.078958 -0.052995 0.157939 -0.054204 0.007393 0.071382 0.098277 0.066030 0.065747 -0.078557 0.107767 0.009248 0.015829 0.035311 -0.090377 -0.060323 0.004859 -0.062497 0.099174 -0.063044 0.026162 0.048904 -0.091809 0.007514 -0.070681 -0.042271 0.027637 0.004325 0.037609
31 0.001678 -0.135968 -0.016726 -0.098148 -0.050104 -0.067620 0.019120 0.080535 0.020384 0.023510 -0.042331 0.163032 0.071439 0.001755 -0.073016 -0.123605 -0.020243 -0.005982 0.083058 0.087454 0.046864 -0.009028 0.082627 0.090734 0.066099 -0.011605 -0.114797 -0.006724 0.024163 -0.007583 0.048392 -0.098488 -0.070696 -0.118288 -0.059748 -0.041715 0.083051 0.035851 -0.007911 0.017262 -0.007757 0.094933 0.116246 -0.028775 -0.047344 0.155855 0.021014 -0.100615 -0.007784 -0.066112 -0.027048 -0.052229 0.060330 -0.067139 -0.025521 -0.068331 0.113351 0.012697 -0.183996 0.039548 -0.054727 -0.090446 0.027811 -0.021828 -0.027953 0.085077 -0.096878 0.026882 0.045994 -0.004379 -0.014533 -0.013576 0.125442 -0.115125 0.051614 -0.039937 0.138394 0.001436 0.091809 0.044333 0.004852 -0.046203 -0.085062 -0.095214 -0.046298 -0.003170 0.223214 0.035958 0.002204 0.107234 -0.014193 -0.040927 -0.085877 0.059341 -0.192311 0.042174 -0.032561 -0.054820 0.058363 0.085769 -0.057773 0.159965 -0.055129 0.008105 0.076105 0.102873 0.066790 0.070979 -0.079082 0.110143 0.004658 0.011675 0.034243 -0.099840 -0.061135 0.008697 -0.070166 0.103250 -0.068195 0.026920 0.049022 -0.096869 0.003652 -0.079627 -0.040561 0.027254 -0.002244 0.037950
46 -0.004031 -0.148727 -0.018320 -0.104902 -0.050143 -0.063410 0.024389 0.090670 0.021694 0.024504 -0.044720 0.170784 0.067513 0.011721 -0.078917 -0.129350 -0.013329 -0.007821 0.084705 0.093554 0.043417 -0.008611 0.089475 0.095625 0.071374 -0.019397 -0.128338 -0.011211 0.025100 -0.012193 0.053012 -0.107620 -0.072266 -0.125875 -0.065108 -0.047177 0.086281 0.037287 -0.008511 0.025602 -0.010513 0.097188 0.128633 -0.029753 -0.052448 0.168160 0.026765 -0.104938 -0.011051 -0.073618 -0.021628 -0.055780 0.062083 -0.068237 -0.031966 -0.069645 0.120306 0.015278 -0.195346 0.044233 -0.061884 -0.096604 0.027574 -0.022718 -0.029689 0.092221 -0.099230 0.027701 0.053210 -0.006997 -0.018170 -0.013780 0.132347 -0.120753 0.055480 -0.042803 0.139064 0.000182 0.091343 0.041218 0.008592 -0.048523 -0.092595 -0.098922 -0.048144 -0.006866 0.241177 0.043071 -0.000852 0.121757 -0.008189 -0.045795 -0.094369 0.069733 -0.197848 0.045237 -0.031211 -0.057156 0.061375 0.088077 -0.060664 0.167411 -0.062198 0.011397 0.081650 0.107064 0.070659 0.074341 -0.083111 0.120359 0.006174 0.020218 0.040491 -0.101309 -0.068664 0.003884 -0.068289 0.103320 -0.072176 0.025238 0.050825 -0.102916 0.009307 -0.073938 -0.040018 0.024518 -0.001297 0.038936
13 0.002407 -0.128041 -0.017307 -0.097410 -0.047056 -0.059738 0.020265 0.075399 0.023211 0.023794 -0.044535 0.145659 0.064625 0.003366 -0.066911 -0.111834 -0.017514 -0.008026 0.074581 0.078314 0.045581 -0.006472 0.075742 0.082612 0.056518 -0.012855 -0.106277 -0.006589 0.022029 -0.007931 0.045238 -0.093400 -0.062972 -0.116115 -0.057395 -0.043449 0.081136 0.037852 -0.010316 0.018984 -0.006110 0.087226 0.109475 -0.024593 -0.042414 0.149464 0.023988 -0.091468 -0.007876 -0.060656 -0.025232 -0.047756 0.057984 -0.058804 -0.027845 -0.065389 0.101389 0.011063 -0.165665 0.037961 -0.052076 -0.082640 0.025584 -0.021275 -0.020725 0.078294 -0.089365 0.024021 0.048163 -0.007713 -0.015944 -0.012631 0.117155 -0.109641 0.046721 -0.041800 0.124124 0.000460 0.078828 0.037144 0.004200 -0.043667 -0.078769 -0.087635 -0.048327 -0.003722 0.213933 0.035757 -0.001417 0.107420 -0.005993 -0.043149 -0.086883 0.054161 -0.174750 0.036664 -0.027382 -0.055836 0.052902 0.077280 -0.047019 0.149996 -0.052943 0.010337 0.071802 0.090990 0.064329 0.061822 -0.075911 0.099414 0.010683 0.013615 0.033045 -0.087773 -0.060909 0.002901 -0.064985 0.095950 -0.058676 0.020438 0.048804 -0.084834 0.009384 -0.067300 -0.038723 0.026414 0.003448 0.038471
57 0.000201 -0.094240 -0.017307 -0.073325 -0.031420 -0.041282 0.012596 0.056896 0.016798 0.015251 -0.031431 0.108070 0.047493 0.006000 -0.051889 -0.086377 -0.012049 -0.005216 0.054056 0.058976 0.028711 -0.004094 0.060463 0.058168 0.042353 -0.008290 -0.082761 -0.001572 0.016973 -0.008092 0.032825 -0.067379 -0.045182 -0.083008 -0.042022 -0.026787 0.053593 0.023232 -0.009724 0.017302 -0.003413 0.063869 0.081767 -0.020854 -0.032433 0.109735 0.019261 -0.068456 -0.004278 -0.044039 -0.019974 -0.035398 0.039260 -0.045656 -0.020659 -0.049260 0.077598 0.013784 -0.123324 0.031998 -0.043293 -0.057512 0.015946 -0.012759 -0.016114 0.057484 -0.064343 0.017835 0.031974 -0.003315 -0.006628 -0.005928 0.088352 -0.081746 0.037151 -0.030774 0.093157 0.001377 0.063434 0.031175 0.004375 -0.026869 -0.054611 -0.060396 -0.029160 -0.000556 0.157062 0.024115 -0.000688 0.078300 -0.005342 -0.028367 -0.065875 0.044541 -0.132141 0.028531 -0.018915 -0.037510 0.042219 0.054626 -0.034197 0.112088 -0.041362 0.004509 0.052897 0.073559 0.047930 0.050804 -0.056813 0.077434 0.007296 0.011324 0.020746 -0.065291 -0.043790 0.004538 -0.042812 0.065384 -0.044879 0.015610 0.036763 -0.066365 0.001255 -0.049531 -0.025238 0.015199 0.001171 0.024804
6 0.000375 -0.123812 -0.016303 -0.086557 -0.042942 -0.055142 0.020133 0.077695 0.020111 0.019957 -0.038543 0.140314 0.058093 0.004183 -0.062300 -0.106869 -0.014173 -0.009326 0.074092 0.074307 0.037665 -0.008004 0.074295 0.074030 0.060492 -0.015230 -0.103913 -0.011656 0.021676 -0.004459 0.046102 -0.094609 -0.057340 -0.108437 -0.054045 -0.038678 0.075262 0.036133 -0.013565 0.015504 -0.009337 0.083970 0.108917 -0.027136 -0.044817 0.139505 0.024059 -0.091949 -0.002979 -0.056733 -0.021235 -0.046364 0.049987 -0.057271 -0.022016 -0.062451 0.099224 0.011850 -0.157890 0.036240 -0.048756 -0.076841 0.026398 -0.017358 -0.022500 0.074639 -0.085499 0.025772 0.040259 -0.007404 -0.010856 -0.010847 0.109546 -0.098269 0.046070 -0.037051 0.121683 0.005482 0.076716 0.038746 0.000435 -0.036306 -0.073211 -0.080383 -0.037571 -0.006785 0.204545 0.032931 0.000853 0.098666 -0.007285 -0.037603 -0.078744 0.056908 -0.167186 0.038548 -0.025380 -0.053932 0.055773 0.071595 -0.045049 0.140437 -0.049401 0.009768 0.067022 0.093107 0.057821 0.065540 -0.069998 0.096376 0.009506 0.015709 0.031804 -0.084566 -0.054086 0.009232 -0.057367 0.086703 -0.057466 0.020557 0.046387 -0.085688 0.008100 -0.069889 -0.039945 0.023903 0.006236 0.030864
51 0.000070 -0.076235 -0.012499 -0.055565 -0.027513 -0.034451 0.010288 0.044127 0.013536 0.014682 -0.023762 0.088661 0.035751 0.002626 -0.041062 -0.067752 -0.007933 -0.001141 0.042599 0.044736 0.023351 -0.004671 0.048585 0.046062 0.037947 -0.007764 -0.065128 -0.006543 0.016331 -0.002018 0.027865 -0.055984 -0.035996 -0.065890 -0.034949 -0.024049 0.050110 0.020299 -0.009885 0.015114 -0.003925 0.053721 0.062529 -0.018336 -0.025301 0.089683 0.016704 -0.056803 -0.002155 -0.037390 -0.013611 -0.032078 0.036555 -0.040495 -0.017307 -0.040055 0.064562 0.004566 -0.099255 0.024937 -0.030135 -0.050180 0.013860 -0.007419 -0.013744 0.052352 -0.054234 0.017541 0.025785 -0.003262 -0.006306 -0.008408 0.069998 -0.067122 0.028507 -0.024778 0.077809 -0.000035 0.046366 0.019916 0.004390 -0.024810 -0.046569 -0.054917 -0.024324 -0.001281 0.125870 0.023643 -0.002541 0.061354 -0.010178 -0.021007 -0.048265 0.035400 -0.108311 0.019370 -0.019747 -0.030701 0.030932 0.048185 -0.028914 0.093062 -0.030289 0.007732 0.042692 0.053857 0.040211 0.041860 -0.046119 0.060811 0.005414 0.010772 0.016916 -0.052623 -0.031627 0.006035 -0.035191 0.057395 -0.037161 0.014538 0.030585 -0.054708 0.001934 -0.042886 -0.021074 0.017376 0.000107 0.019780
54 -0.003504 -0.088449 -0.009225 -0.060167 -0.032810 -0.041157 0.012622 0.048471 0.016223 0.010800 -0.031097 0.095893 0.043620 0.006319 -0.047010 -0.072328 -0.011939 -0.006406 0.052342 0.051200 0.026037 -0.004125 0.054217 0.057537 0.040740 -0.012565 -0.074629 -0.006367 0.012648 -0.008655 0.031614 -0.060068 -0.041564 -0.078097 -0.036001 -0.026458 0.049842 0.024052 -0.003471 0.012891 -0.005041 0.056569 0.073030 -0.016364 -0.027729 0.097832 0.012156 -0.062077 -0.002638 -0.039807 -0.018633 -0.034136 0.040732 -0.041209 -0.016651 -0.044048 0.069291 0.010541 -0.110359 0.027976 -0.038600 -0.054803 0.016744 -0.013357 -0.016977 0.051290 -0.056771 0.014350 0.031731 0.001078 -0.005143 -0.007337 0.078044 -0.067620 0.030607 -0.022955 0.081156 0.000887 0.053767 0.025356 0.002127 -0.027068 -0.053579 -0.060339 -0.028531 -0.005534 0.139241 0.022410 -0.000710 0.069001 -0.002958 -0.027378 -0.058300 0.037739 -0.113494 0.028536 -0.021718 -0.037351 0.038626 0.048986 -0.032469 0.096026 -0.030821 0.005642 0.046800 0.060399 0.043974 0.045237 -0.053305 0.072360 0.000730 0.009057 0.022410 -0.058517 -0.041701 0.000800 -0.038917 0.059746 -0.037962 0.014904 0.030602 -0.055226 0.003257 -0.047623 -0.024939 0.016404 0.005254 0.023649
41 -0.003773 -0.073540 -0.008870 -0.050872 -0.022373 -0.032533 0.012606 0.041535 0.013419 0.007775 -0.023126 0.083364 0.031857 0.004736 -0.036148 -0.058319 -0.008309 -0.003126 0.042386 0.046249 0.022256 -0.007018 0.041887 0.043905 0.034227 -0.005843 -0.063928 -0.003773 0.011785 -0.005752 0.025194 -0.049114 -0.037820 -0.060897 -0.032212 -0.020112 0.044394 0.017244 -0.009187 0.010780 -0.001763 0.046258 0.061018 -0.017800 -0.023091 0.082371 0.015488 -0.046889 -0.002875 -0.037400 -0.011245 -0.028835 0.028951 -0.036746 -0.010808 -0.036091 0.059488 0.010850 -0.092695 0.018734 -0.029494 -0.044247 0.016672 -0.006840 -0.012244 0.045670 -0.051655 0.013398 0.026490 -0.000880 -0.005545 -0.008580 0.066042 -0.057481 0.023550 -0.022866 0.071598 0.001005 0.045048 0.025320 0.003870 -0.024442 -0.044602 -0.047739 -0.020766 -0.005278 0.115712 0.020755 0.001264 0.055449 -0.007085 -0.022814 -0.045540 0.029509 -0.098569 0.023437 -0.016842 -0.024974 0.031519 0.045872 -0.030730 0.079364 -0.025759 0.003406 0.043462 0.053682 0.033914 0.034091 -0.045058 0.057868 0.003579 0.006975 0.015255 -0.052658 -0.035844 0.000572 -0.037707 0.051303 -0.032380 0.011251 0.023239 -0.051682 0.003831 -0.034439 -0.022215 0.012271 0.003072 0.015884
68 -0.003512 -0.119068 -0.016010 -0.089195 -0.039940 -0.054756 0.020794 0.073867 0.018827 0.017415 -0.042417 0.144182 0.061380 0.003940 -0.063228 -0.105282 -0.017148 -0.005557 0.072870 0.079034 0.038573 -0.003885 0.074782 0.080893 0.055365 -0.013562 -0.108374 -0.007401 0.022009 -0.007047 0.048042 -0.090972 -0.058859 -0.105862 -0.052404 -0.039468 0.072014 0.034868 -0.008452 0.019220 -0.003603 0.085763 0.103441 -0.028158 -0.038329 0.136895 0.024267 -0.085437 -0.009843 -0.056568 -0.021450 -0.050884 0.051413 -0.057598 -0.026875 -0.057561 0.099301 0.010078 -0.159452 0.039887 -0.049906 -0.081671 0.030125 -0.016454 -0.019614 0.079635 -0.084938 0.024799 0.046717 -0.001442 -0.015903 -0.014001 0.110548 -0.105737 0.041275 -0.034541 0.123775 0.000940 0.074866 0.038451 0.003540 -0.035571 -0.077540 -0.080017 -0.039465 -0.002619 0.202279 0.032017 0.003910 0.101188 -0.006405 -0.038809 -0.081503 0.057982 -0.168163 0.036754 -0.027096 -0.050306 0.050903 0.073087 -0.048404 0.140177 -0.050539 0.011957 0.068172 0.090404 0.060070 0.058571 -0.075015 0.102140 0.006834 0.017522 0.028586 -0.083924 -0.054499 0.005613 -0.057069 0.087927 -0.058980 0.022851 0.041223 -0.079431 0.009086 -0.063298 -0.032607 0.025394 -0.001466 0.035393
1 -0.004789 -0.077303 -0.006685 -0.056884 -0.023940 -0.037410 0.010337 0.047842 0.015475 0.011583 -0.026335 0.083732 0.037662 0.002075 -0.041228 -0.066836 -0.005397 -0.005765 0.046653 0.043720 0.024877 -0.003424 0.045913 0.048054 0.035203 -0.007021 -0.060557 -0.000816 0.014047 -0.006931 0.023770 -0.052983 -0.036042 -0.064227 -0.034759 -0.026355 0.040759 0.018014 -0.002301 0.007732 -0.007071 0.046594 0.066247 -0.012401 -0.026338 0.080217 0.010989 -0.053149 -0.000433 -0.032693 -0.015984 -0.025658 0.030653 -0.030749 -0.018341 -0.035790 0.059424 0.011549 -0.099026 0.025589 -0.029772 -0.051355 0.012568 -0.010820 -0.016665 0.047854 -0.048834 0.017367 0.022116 -0.003030 -0.007556 -0.009552 0.070455 -0.061456 0.023266 -0.024628 0.075146 -0.001257 0.048436 0.018990 0.000865 -0.027091 -0.045160 -0.051789 -0.026359 -0.004750 0.120193 0.020031 0.003770 0.060159 -0.005462 -0.023448 -0.048079 0.032640 -0.101147 0.021240 -0.016319 -0.032974 0.034736 0.045973 -0.030988 0.088439 -0.027324 0.004480 0.044015 0.057608 0.038488 0.039203 -0.045145 0.059679 0.002695 0.006427 0.020324 -0.048672 -0.034807 0.001691 -0.032612 0.055039 -0.037489 0.010655 0.026940 -0.047950 -0.000150 -0.039048 -0.023387 0.013043 0.000409 0.021421
9 -0.002394 -0.106922 -0.018460 -0.079446 -0.037345 -0.049628 0.015545 0.068059 0.021108 0.015853 -0.034029 0.127365 0.051632 0.000532 -0.058189 -0.095854 -0.013292 -0.003705 0.061274 0.068309 0.031052 -0.001257 0.069976 0.064145 0.049042 -0.009286 -0.093840 -0.010408 0.018406 -0.004308 0.041033 -0.077381 -0.055392 -0.096108 -0.044390 -0.036536 0.068954 0.028403 -0.011954 0.019433 -0.009741 0.067819 0.094636 -0.017240 -0.039787 0.118613 0.019481 -0.080150 -0.008413 -0.056543 -0.020072 -0.042331 0.044046 -0.048666 -0.019128 -0.054391 0.086017 0.012445 -0.141964 0.032676 -0.046321 -0.069174 0.020237 -0.013344 -0.018153 0.066704 -0.070998 0.022619 0.035828 -0.005123 -0.009259 -0.005419 0.101047 -0.091041 0.041758 -0.033496 0.103222 0.005388 0.065163 0.035091 0.005501 -0.036003 -0.069806 -0.075378 -0.037038 -0.002819 0.177786 0.030048 -0.000598 0.087912 -0.006921 -0.035661 -0.067037 0.050838 -0.148253 0.029217 -0.022090 -0.043474 0.046249 0.066918 -0.045576 0.121451 -0.046561 0.008208 0.061522 0.079495 0.050657 0.058515 -0.067946 0.081944 0.009690 0.012898 0.032094 -0.077336 -0.048767 0.002895 -0.055215 0.081494 -0.052469 0.021763 0.038505 -0.076575 0.002930 -0.058005 -0.034435 0.023503 0.002767 0.032416
10 -0.000053 -0.088217 -0.014641 -0.063298 -0.029436 -0.036939 0.015366 0.053290 0.017922 0.011132 -0.026839 0.104010 0.039881 0.006849 -0.047923 -0.073909 -0.008530 -0.002423 0.049710 0.055791 0.030494 -0.004421 0.054846 0.059119 0.039480 -0.009970 -0.073580 -0.008498 0.013965 -0.007471 0.029514 -0.068857 -0.041363 -0.074443 -0.041884 -0.028752 0.056105 0.019767 -0.010217 0.009936 -0.007462 0.057442 0.078725 -0.014029 -0.026487 0.103121 0.019663 -0.064030 -0.001121 -0.046362 -0.014665 -0.033684 0.041080 -0.042827 -0.019374 -0.040819 0.073376 0.006432 -0.118640 0.029713 -0.036060 -0.056698 0.015305 -0.011349 -0.015996 0.056703 -0.061623 0.016205 0.026905 -0.006787 -0.006370 -0.010172 0.083096 -0.073558 0.034949 -0.024128 0.085793 -0.000388 0.052747 0.026691 -0.001282 -0.030955 -0.053172 -0.056061 -0.032845 -0.001245 0.142079 0.021888 0.000857 0.068989 -0.003929 -0.027535 -0.054251 0.041815 -0.119799 0.029051 -0.019758 -0.038870 0.038301 0.055608 -0.035714 0.100679 -0.035929 0.007442 0.047832 0.063978 0.046063 0.048322 -0.054899 0.071928 0.008906 0.006458 0.025146 -0.063345 -0.038123 0.004149 -0.041381 0.066486 -0.042554 0.012470 0.032749 -0.061991 0.003804 -0.047280 -0.021885 0.015284 -0.001086 0.026074
16 -0.001471 -0.120784 -0.016896 -0.089837 -0.043797 -0.056223 0.020750 0.073006 0.021028 0.019928 -0.042702 0.142227 0.056464 0.009941 -0.061062 -0.108131 -0.016648 -0.010724 0.068206 0.072411 0.038392 -0.003886 0.077603 0.075338 0.057946 -0.012840 -0.103255 -0.008226 0.018653 -0.010758 0.042811 -0.088443 -0.060177 -0.111570 -0.052324 -0.036983 0.077111 0.029411 -0.012783 0.014948 -0.009595 0.085141 0.106961 -0.024741 -0.039360 0.136860 0.024629 -0.084546 -0.009322 -0.055900 -0.018592 -0.046760 0.053513 -0.055870 -0.023425 -0.060253 0.099479 0.014068 -0.159344 0.035783 -0.049956 -0.081973 0.024360 -0.021044 -0.020997 0.076525 -0.082505 0.028631 0.040264 -0.008530 -0.009203 -0.013673 0.111862 -0.104090 0.046284 -0.037969 0.122076 -0.001137 0.075029 0.038457 0.007896 -0.040986 -0.073737 -0.081732 -0.040820 0.000737 0.201518 0.037538 0.003245 0.098564 -0.013338 -0.038014 -0.083938 0.056006 -0.165882 0.039027 -0.022859 -0.051581 0.050629 0.069177 -0.043631 0.144224 -0.046116 0.006940 0.067644 0.087015 0.057595 0.060920 -0.068886 0.098623 0.005915 0.017799 0.027818 -0.083843 -0.052990 0.007732 -0.060011 0.090631 -0.056597 0.018668 0.044874 -0.081537 0.003685 -0.066646 -0.032795 0.024791 0.001924 0.037981
5 -0.000147 -0.105140 -0.018241 -0.075172 -0.032952 -0.048189 0.018591 0.059395 0.020847 0.013377 -0.030272 0.120368 0.046825 0.005321 -0.051962 -0.092549 -0.013188 -0.008677 0.058846 0.065855 0.034809 -0.001648 0.059344 0.068557 0.049299 -0.013375 -0.088093 -0.009779 0.016706 -0.007139 0.035822 -0.077611 -0.052088 -0.088302 -0.043647 -0.035518 0.063163 0.028680 -0.009108 0.016362 -0.002580 0.067581 0.085629 -0.020547 -0.036983 0.115447 0.018556 -0.074351 -0.005410 -0.051766 -0.018206 -0.037471 0.047713 -0.051406 -0.018219 -0.052365 0.085154 0.010162 -0.130944 0.029253 -0.045276 -0.068492 0.024213 -0.011691 -0.021747 0.065160 -0.065694 0.020503 0.037075 -0.006646 -0.012216 -0.007888 0.090712 -0.088318 0.037401 -0.033427 0.097863 -0.001383 0.061594 0.028025 0.000451 -0.032456 -0.064270 -0.068260 -0.036686 -0.005939 0.170635 0.031978 0.003605 0.081770 -0.005100 -0.033849 -0.065661 0.046439 -0.142515 0.032003 -0.025425 -0.044273 0.047512 0.065190 -0.043511 0.118628 -0.043016 0.004048 0.054324 0.074010 0.050264 0.051325 -0.063138 0.080142 0.003375 0.011926 0.028348 -0.074920 -0.048345 0.008325 -0.046034 0.074667 -0.044731 0.019080 0.037443 -0.068432 0.005484 -0.059019 -0.033492 0.021198 0.000426 0.032427
7 0.002926 -0.130661 -0.021621 -0.097386 -0.049232 -0.057809 0.020234 0.081816 0.025694 0.019853 -0.044217 0.151601 0.064616 0.001976 -0.066568 -0.114091 -0.013519 -0.007751 0.074470 0.081505 0.042956 -0.007913 0.081095 0.086008 0.065067 -0.016531 -0.116235 -0.010578 0.020761 -0.009668 0.051487 -0.095066 -0.066332 -0.118689 -0.061803 -0.042221 0.077849 0.031584 -0.011909 0.018900 -0.011345 0.088929 0.114165 -0.023701 -0.044123 0.149970 0.024264 -0.095076 -0.004008 -0.063242 -0.024733 -0.049441 0.057300 -0.058062 -0.029008 -0.062063 0.107013 0.012205 -0.168725 0.045919 -0.054803 -0.084708 0.029142 -0.016915 -0.025349 0.084709 -0.087091 0.031061 0.046316 -0.007765 -0.014959 -0.008445 0.116902 -0.107995 0.048063 -0.038371 0.127912 0.004072 0.083331 0.037565 0.004260 -0.038791 -0.081691 -0.084059 -0.045425 -0.006006 0.213173 0.037399 0.000259 0.107520 -0.006801 -0.041913 -0.083332 0.057401 -0.180338 0.042577 -0.025912 -0.057221 0.054090 0.079573 -0.052518 0.153487 -0.056103 0.009124 0.073037 0.093739 0.059415 0.066409 -0.073935 0.105141 0.008768 0.018506 0.033411 -0.095975 -0.061232 0.005973 -0.064023 0.093108 -0.064893 0.026253 0.046691 -0.086625 0.008803 -0.070143 -0.041786 0.022346 0.006355 0.040014
12 -0.004146 -0.104950 -0.014423 -0.077764 -0.037845 -0.048233 0.012375 0.058265 0.015396 0.018938 -0.030026 0.121262 0.048259 0.007082 -0.053676 -0.085987 -0.014738 -0.004389 0.062451 0.060353 0.034358 -0.001721 0.064299 0.062386 0.043803 -0.012283 -0.084761 -0.005961 0.017362 -0.006798 0.039663 -0.074337 -0.053392 -0.089143 -0.044279 -0.029447 0.060288 0.029552 -0.008323 0.017668 -0.006255 0.068287 0.088940 -0.021736 -0.035254 0.119120 0.020035 -0.073826 -0.008181 -0.051159 -0.019501 -0.038384 0.043495 -0.051965 -0.023310 -0.053434 0.083565 0.011607 -0.133496 0.034123 -0.040830 -0.064116 0.019343 -0.012558 -0.022141 0.064912 -0.066352 0.020552 0.038846 -0.000180 -0.006335 -0.006372 0.093885 -0.083918 0.036941 -0.030764 0.103040 0.004798 0.065303 0.034868 0.002397 -0.031717 -0.065358 -0.069893 -0.037927 0.000910 0.167196 0.027635 -0.001409 0.078584 -0.008383 -0.030268 -0.068451 0.044250 -0.137195 0.028390 -0.019057 -0.045069 0.045520 0.061075 -0.043355 0.115331 -0.040964 0.008831 0.058413 0.071107 0.049462 0.050469 -0.055935 0.077858 0.002187 0.011293 0.026547 -0.069442 -0.044813 0.007550 -0.050515 0.076603 -0.051401 0.014576 0.036289 -0.071506 0.006289 -0.051923 -0.031262 0.019417 -0.002368 0.028029
8 0.000174 -0.084901 -0.009327 -0.059085 -0.031436 -0.036244 0.013915 0.050637 0.013615 0.015876 -0.028492 0.093773 0.037244 0.003694 -0.039838 -0.073547 -0.006935 -0.004270 0.051833 0.053613 0.025035 -0.003803 0.049666 0.048107 0.039261 -0.004548 -0.069745 -0.002743 0.012377 -0.002657 0.029444 -0.060387 -0.038795 -0.069419 -0.037855 -0.027209 0.052706 0.020583 -0.003467 0.016276 -0.005975 0.054556 0.067120 -0.013533 -0.026372 0.094772 0.011972 -0.059123 -0.005866 -0.037834 -0.015953 -0.034444 0.039306 -0.035957 -0.019368 -0.039776 0.062574 0.007774 -0.108661 0.023989 -0.037157 -0.055913 0.018539 -0.010398 -0.013219 0.048741 -0.051700 0.015545 0.027911 -0.005951 -0.011146 -0.008468 0.072063 -0.067934 0.028223 -0.023014 0.077378 0.000662 0.051163 0.024507 0.004626 -0.029676 -0.052226 -0.052761 -0.030858 0.001828 0.136786 0.023650 0.002381 0.062496 -0.004593 -0.028273 -0.054050 0.035903 -0.112618 0.021946 -0.018974 -0.036612 0.032636 0.045984 -0.028808 0.091226 -0.036765 0.004770 0.049211 0.057012 0.040859 0.037205 -0.049550 0.062530 0.000732 0.011292 0.023596 -0.058046 -0.040580 0.006864 -0.040902 0.057840 -0.040673 0.014243 0.028310 -0.059259 0.006932 -0.043379 -0.022156 0.011570 0.003859 0.020297
33 -0.000328 -0.059430 -0.007320 -0.038724 -0.017371 -0.029506 0.007719 0.038605 0.011703 0.008880 -0.016705 0.065634 0.028353 0.000114 -0.027181 -0.047662 -0.007540 -0.000142 0.030384 0.035475 0.021737 -0.002918 0.037732 0.033301 0.024247 -0.005869 -0.051299 -0.003811 0.011416 -0.001996 0.020493 -0.039330 -0.027664 -0.047052 -0.029037 -0.021030 0.034187 0.015021 -0.008582 0.012435 -0.004738 0.040255 0.050536 -0.013972 -0.020343 0.066838 0.009085 -0.043914 -0.005767 -0.028540 -0.011089 -0.019168 0.027297 -0.028975 -0.014988 -0.026474 0.044079 0.007328 -0.071601 0.020371 -0.020282 -0.040910 0.010019 -0.006641 -0.007426 0.033162 -0.034797 0.009572 0.021765 0.000805 -0.002832 -0.005482 0.053320 -0.045931 0.017915 -0.014637 0.056898 0.000279 0.037588 0.017033 0.005540 -0.020084 -0.036039 -0.040388 -0.019204 0.001006 0.092772 0.015584 0.000891 0.047332 -0.001122 -0.015552 -0.037730 0.023879 -0.075094 0.020468 -0.014700 -0.026417 0.027969 0.033278 -0.024957 0.063937 -0.024326 0.008562 0.033593 0.039208 0.028296 0.029350 -0.031530 0.044055 0.002041 0.006945 0.016306 -0.043460 -0.023892 0.003359 -0.027549 0.038110 -0.029811 0.006545 0.023168 -0.039147 0.004987 -0.029735 -0.015359 0.009039 -0.001807 0.013408
15 -0.003783 -0.063275 -0.006064 -0.047883 -0.020265 -0.024305 0.011058 0.033536 0.010505 0.008266 -0.018492 0.069834 0.029379 0.004791 -0.030697 -0.054615 -0.009520 -0.005281 0.032737 0.034244 0.023120 -0.000674 0.037775 0.039588 0.025131 -0.006409 -0.054521 -0.004094 0.010610 -0.006433 0.020382 -0.043326 -0.026420 -0.054570 -0.026428 -0.019159 0.035134 0.016084 -0.001405 0.010757 -0.006189 0.041099 0.051390 -0.012105 -0.017887 0.072677 0.007330 -0.044485 -0.004068 -0.031449 -0.011134 -0.023806 0.025908 -0.026847 -0.015109 -0.033904 0.046031 0.003078 -0.078986 0.022444 -0.022412 -0.036138 0.013583 -0.012264 -0.010201 0.042268 -0.040204 0.011765 0.024273 0.000405 -0.004196 -0.006816 0.057029 -0.054614 0.019094 -0.019228 0.061524 0.000855 0.034503 0.015351 0.001913 -0.017022 -0.036775 -0.043095 -0.023883 -0.004012 0.099146 0.013263 0.000584 0.051577 -0.003093 -0.017728 -0.036796 0.024861 -0.086682 0.020657 -0.011388 -0.021048 0.027689 0.039956 -0.020708 0.070829 -0.027540 0.005888 0.037015 0.041847 0.031990 0.031693 -0.035964 0.045084 0.003741 0.006139 0.014202 -0.045982 -0.029679 0.005745 -0.027336 0.047920 -0.031658 0.013315 0.025375 -0.044814 0.006134 -0.030014 -0.021724 0.011565 0.002432 0.019196
14 -0.001948 -0.066344 -0.005470 -0.050227 -0.020422 -0.027899 0.007584 0.037698 0.008901 0.012347 -0.024671 0.075098 0.029295 0.003511 -0.033686 -0.054225 -0.004748 -0.003337 0.038209 0.037605 0.023278 0.000828 0.039059 0.042625 0.028738 -0.004777 -0.051941 -0.000252 0.007102 -0.001240 0.025709 -0.046483 -0.031873 -0.053705 -0.025824 -0.021599 0.037107 0.017194 -0.006666 0.009824 -0.007149 0.043649 0.056327 -0.010879 -0.021542 0.073530 0.012530 -0.043523 -0.003149 -0.027475 -0.012954 -0.025176 0.026967 -0.028212 -0.012315 -0.033010 0.048797 0.010358 -0.086191 0.018201 -0.027445 -0.044331 0.016053 -0.012670 -0.014679 0.042893 -0.041112 0.010539 0.022206 -0.004056 -0.009637 -0.002480 0.055411 -0.049852 0.025548 -0.017428 0.063781 0.000154 0.039827 0.016383 -0.000007 -0.019720 -0.036401 -0.038695 -0.024976 0.001641 0.103890 0.016576 0.002634 0.050925 -0.006005 -0.021718 -0.041728 0.027455 -0.089056 0.022922 -0.015909 -0.022629 0.030545 0.038978 -0.027648 0.074817 -0.026158 0.007270 0.033288 0.049526 0.034468 0.035158 -0.041245 0.050405 -0.000167 0.004132 0.014386 -0.043399 -0.024972 0.001624 -0.033486 0.045265 -0.030827 0.012213 0.023811 -0.045291 0.002180 -0.037007 -0.016871 0.010032 -0.001398 0.017821
