78 128
11 -0.003607 -0.121938 0.011523 -0.151232 0.048351 -0.022108 0.037479 0.112438 0.098189 0.027009 -0.008702 0.210305 -0.001500 0.100057 0.024218 -0.216249 -0.082834 -0.070699 0.104190 0.095820 0.048598 -0.081957 0.059990 0.095688 0.078345 -0.015249 -0.215286 -0.024583 0.025321 -0.007650 0.076011 -0.079909 -0.020884 -0.114135 -0.028173 -0.021666 0.135051 0.017942 -0.006323 0.033433 -0.025651 0.146200 0.144088 -0.053123 -0.017449 0.233938 0.011155 -0.010317 -0.038592 -0.043095 -0.025186 -0.002701 0.117935 -0.014714 -0.027945 0.005537 0.163198 0.026092 -0.240825 0.013280 -0.027173 -0.138457 0.064374 0.027143 -0.111634 0.111046 -0.128303 -0.022010 0.102387 -0.001081 0.012424 0.012526 0.186934 -0.162752 0.169755 -0.049098 0.102401 -0.020474 0.050899 0.084498 0.040599 -0.037855 -0.135743 -0.080980 -0.107358 0.008706 0.254804 0.036400 -0.004215 0.108041 0.046756 0.009841 -0.125583 0.056938 -0.162726 0.052986 0.026078 -0.081956 0.091185 0.049442 -0.053942 0.167320 -0.135435 0.027029 0.096175 0.130586 0.100021 0.124727 -0.005727 0.058990 -0.031091 0.044414 0.007637 -0.084029 -0.095864 -0.021414 -0.129723 0.071856 -0.048339 -0.035096 -0.005906 -0.085595 0.044887 -0.028144 -0.006805 -0.012278 0.014100 0.042905
56 -0.001359 -0.122097 0.007204 -0.161207 0.046821 -0.019227 0.041966 0.111853 0.094467 0.031893 -0.006532 0.215842 0.000895 0.104668 0.018777 -0.216970 -0.084952 -0.070897 0.106220 0.105002 0.043779 -0.087929 0.056917 0.097793 0.088511 -0.009816 -0.225575 -0.028579 0.025016 -0.008165 0.074805 -0.078511 -0.019770 -0.115022 -0.037671 -0.028249 0.136084 0.018791 -0.007341 0.040025 -0.034356 0.148669 0.144004 -0.053782 -0.016457 0.241600 0.003684 -0.016602 -0.035671 -0.048323 -0.027420 -0.004726 0.123943 -0.017069 -0.021731 0.006658 0.162970 0.020766 -0.245746 0.009352 -0.024184 -0.137118 0.060415 0.026798 -0.106891 0.116000 -0.126984 -0.021336 0.109239 0.005358 0.011178 0.008091 0.203314 -0.167391 0.165996 -0.053320 0.102788 -0.021465 0.058324 0.092625 0.047222 -0.038111 -0.138925 -0.080968 -0.107145 0.002858 0.257578 0.039081 0.000029 0.113543 0.054241 0.015972 -0.128875 0.057814 -0.171488 0.052783 0.029854 -0.086392 0.095407 0.046308 -0.058456 0.169476 -0.135139 0.032546 0.094359 0.139301 0.096396 0.132218 -0.012411 0.067707 -0.036571 0.044548 0.015191 -0.083007 -0.094352 -0.013618 -0.128946 0.073071 -0.044305 -0.036497 -0.007926 -0.081842 0.039860 -0.018177 -0.008710 -0.006057 0.021725 0.044684
26 0.004936 -0.127752 0.009929 -0.167905 0.052445 -0.024450 0.043290 0.116679 0.100404 0.030984 -0.011293 0.227895 0.005349 0.103512 0.023626 -0.227039 -0.086799 -0.076965 0.113506 0.113324 0.052278 -0.088013 0.065729 0.103463 0.085792 -0.016739 -0.237960 -0.031358 0.026860 -0.002733 0.082359 -0.082708 -0.024418 -0.122258 -0.037940 -0.031064 0.145428 0.012916 -0.008877 0.033521 -0.033147 0.151071 0.148783 -0.060049 -0.020315 0.256672 0.002809 -0.015337 -0.043560 -0.046453 -0.025174 -0.001488 0.127235 -0.020567 -0.029291 0.008566 0.178765 0.027019 -0.262563 0.011573 -0.026493 -0.149277 0.064953 0.030766 -0.116289 0.121470 -0.134977 -0.028872 0.107944 0.002916 0.014609 0.013315 0.206666 -0.178601 0.185275 -0.057071 0.104042 -0.019864 0.056666 0.091134 0.043030 -0.043606 -0.147182 -0.084424 -0.110264 0.014134 0.268982 0.040176 -0.005815 0.113949 0.052398 0.016662 -0.137718 0.064139 -0.176063 0.059160 0.024558 -0.089185 0.105119 0.045807 -0.060514 0.176515 -0.146979 0.030749 0.107606 0.145293 0.108436 0.141855 -0.002972 0.069226 -0.037237 0.041823 0.012185 -0.085771 -0.101009 -0.019489 -0.135867 0.072739 -0.048383 -0.039411 -0.009458 -0.092768 0.042742 -0.026948 -0.004559 -0.006417 0.017299 0.041389
59 0.001588 -0.108554 0.011820 -0.145843 0.039720 -0.010776 0.038530 0.097149 0.086845 0.028105 -0.007547 0.189847 0.005697 0.093981 0.015002 -0.189880 -0.070116 -0.061265 0.091827 0.096105 0.038325 -0.079590 0.047992 0.082765 0.078531 -0.013376 -0.199939 -0.025059 0.026572 -0.013456 0.064469 -0.069932 -0.019414 -0.103285 -0.033866 -0.020702 0.119130 0.013496 -0.006354 0.031805 -0.028417 0.133230 0.124869 -0.052200 -0.008690 0.213317 0.003334 -0.018720 -0.028332 -0.038984 -0.022869 -0.003969 0.109230 -0.018400 -0.016668 0.012511 0.146232 0.019269 -0.214868 0.007683 -0.027886 -0.123175 0.058890 0.019323 -0.094064 0.100109 -0.111999 -0.024224 0.098107 0.007685 0.011212 0.004215 0.182246 -0.147777 0.147934 -0.050508 0.089118 -0.015092 0.052001 0.083719 0.039238 -0.035895 -0.127870 -0.069640 -0.098132 0.001872 0.227058 0.038024 -0.005173 0.097775 0.044162 0.015212 -0.118772 0.051155 -0.150501 0.045799 0.023274 -0.076812 0.089071 0.042647 -0.048801 0.149294 -0.115462 0.029224 0.082521 0.116567 0.085233 0.114045 -0.007600 0.059551 -0.035357 0.033402 0.015727 -0.072329 -0.081623 -0.010601 -0.119398 0.063341 -0.037931 -0.032458 -0.012429 -0.072409 0.036186 -0.015712 -0.006041 -0.010280 0.023094 0.034745
27 0.003212 -0.139224 0.008887 -0.175330 0.048493 -0.020907 0.045259 0.125540 0.104635 0.036177 -0.013326 0.235925 0.003928 0.112199 0.022851 -0.239146 -0.089543 -0.080098 0.118188 0.112970 0.054276 -0.090981 0.064893 0.110847 0.091906 -0.014740 -0.243948 -0.028075 0.028002 -0.007753 0.083468 -0.092531 -0.025641 -0.127957 -0.034869 -0.032280 0.146770 0.015580 -0.009316 0.033345 -0.036464 0.162108 0.155619 -0.060233 -0.014531 0.264265 0.009986 -0.015804 -0.041543 -0.049705 -0.026854 -0.001112 0.132266 -0.017021 -0.028141 0.007967 0.178081 0.027137 -0.263285 0.011972 -0.032142 -0.152201 0.068494 0.027504 -0.121102 0.123012 -0.142291 -0.021049 0.113799 0.005829 0.006685 0.014850 0.216173 -0.183774 0.184573 -0.059543 0.114217 -0.021595 0.060172 0.097972 0.043733 -0.048044 -0.150169 -0.090491 -0.120322 0.009905 0.284802 0.041777 -0.008223 0.122029 0.051452 0.013359 -0.143564 0.062707 -0.186844 0.062166 0.028546 -0.094620 0.106819 0.049158 -0.067699 0.183407 -0.146301 0.026285 0.110266 0.151252 0.109130 0.140780 -0.013523 0.073255 -0.035358 0.044098 0.013478 -0.095399 -0.105116 -0.022491 -0.143897 0.079364 -0.056075 -0.036904 -0.009567 -0.090039 0.048314 -0.030315 -0.008190 -0.007724 0.018997 0.046787
63 0.004925 -0.119050 0.014711 -0.163561 0.045040 -0.012978 0.042932 0.111616 0.097518 0.034426 -0.005284 0.207699 0.008159 0.106328 0.023117 -0.216258 -0.079720 -0.071042 0.103406 0.107554 0.036494 -0.084119 0.051373 0.097113 0.085266 -0.008545 -0.224588 -0.026931 0.030284 -0.014697 0.078547 -0.086438 -0.015100 -0.112753 -0.042463 -0.024469 0.133915 0.018602 -0.004049 0.043564 -0.031750 0.148703 0.143864 -0.061879 -0.009099 0.236252 0.000546 -0.021040 -0.030939 -0.042686 -0.027604 -0.001221 0.126447 -0.019435 -0.018144 0.012015 0.160369 0.018376 -0.240185 0.012566 -0.027714 -0.144648 0.060404 0.020640 -0.108640 0.118374 -0.126578 -0.024072 0.106427 0.014369 0.007985 0.009585 0.205420 -0.164766 0.170782 -0.058044 0.098993 -0.013439 0.053949 0.093931 0.044341 -0.038028 -0.137944 -0.086336 -0.105585 0.005168 0.253082 0.037898 0.002287 0.108431 0.054299 0.021779 -0.132756 0.055992 -0.168807 0.053417 0.028182 -0.089594 0.099091 0.047419 -0.058447 0.162797 -0.131693 0.032614 0.094681 0.139782 0.089533 0.126901 -0.006533 0.067418 -0.040846 0.040439 0.014922 -0.084597 -0.093281 -0.011594 -0.131089 0.071646 -0.043822 -0.039652 -0.013406 -0.082797 0.043859 -0.015847 -0.009075 -0.005746 0.027638 0.037738
28 -0.002132 -0.129931 0.014575 -0.162795 0.046773 -0.018332 0.041554 0.114648 0.099520 0.031636 -0.009084 0.228428 0.004173 0.106013 0.020274 -0.225118 -0.089494 -0.076797 0.114218 0.112877 0.045014 -0.088171 0.059993 0.100023 0.084878 -0.008597 -0.232066 -0.028614 0.031408 -0.008382 0.077963 -0.081058 -0.021773 -0.114448 -0.034556 -0.031897 0.143913 0.015450 -0.006269 0.035466 -0.033190 0.148652 0.151401 -0.054118 -0.019551 0.245298 0.002652 -0.015240 -0.044370 -0.051980 -0.030546 -0.002499 0.128862 -0.021338 -0.023457 0.010693 0.167756 0.022936 -0.257325 0.009684 -0.027980 -0.148973 0.068956 0.028986 -0.114793 0.116017 -0.133582 -0.019730 0.104797 0.001203 0.010065 0.013626 0.201144 -0.175523 0.177146 -0.051533 0.105301 -0.015567 0.054895 0.094251 0.045399 -0.049130 -0.141629 -0.086535 -0.110990 0.013098 0.267928 0.043312 -0.003600 0.114682 0.052829 0.016976 -0.140609 0.056488 -0.171916 0.056741 0.025560 -0.085190 0.098378 0.047511 -0.062088 0.176555 -0.145421 0.026536 0.103807 0.145095 0.104235 0.141562 -0.008210 0.062874 -0.033630 0.044337 0.010976 -0.088610 -0.101068 -0.021881 -0.138577 0.071972 -0.052531 -0.036903 -0.006730 -0.090526 0.044614 -0.021627 -0.008041 -0.012086 0.018650 0.045826
60 0.006533 -0.108569 0.008557 -0.144235 0.036706 -0.011610 0.036940 0.102607 0.088904 0.026762 -0.009380 0.187266 0.004969 0.095161 0.019678 -0.188711 -0.073992 -0.064729 0.091116 0.091702 0.033909 -0.081598 0.049376 0.084024 0.075899 -0.008271 -0.196929 -0.022037 0.029040 -0.009330 0.065984 -0.072184 -0.013970 -0.100279 -0.035297 -0.022780 0.120180 0.017068 -0.003120 0.038213 -0.029969 0.129761 0.127569 -0.052958 -0.013121 0.214593 0.000480 -0.017175 -0.027537 -0.037774 -0.023194 -0.002718 0.112728 -0.017096 -0.020137 0.007881 0.145013 0.016936 -0.216244 0.009889 -0.020123 -0.129515 0.055549 0.019950 -0.098926 0.104111 -0.107736 -0.018588 0.094585 0.012386 0.004078 0.008411 0.182109 -0.143812 0.154328 -0.050650 0.086637 -0.014677 0.050562 0.084752 0.044261 -0.032535 -0.124265 -0.077359 -0.094223 0.004954 0.222574 0.034664 -0.004068 0.094991 0.051026 0.017470 -0.122830 0.048117 -0.150021 0.050569 0.029286 -0.080396 0.092149 0.042073 -0.051871 0.144628 -0.116407 0.031038 0.086900 0.119011 0.079987 0.117748 -0.004794 0.054866 -0.034488 0.032883 0.010927 -0.074934 -0.082283 -0.012950 -0.118633 0.065405 -0.043620 -0.034930 -0.012505 -0.068747 0.039624 -0.017540 -0.008507 -0.005571 0.021732 0.038096
65 -0.000079 -0.117883 0.009240 -0.153829 0.044285 -0.018260 0.041227 0.106148 0.094264 0.026462 -0.004355 0.201260 0.008828 0.099944 0.016941 -0.202851 -0.076742 -0.063805 0.103426 0.103208 0.036766 -0.084349 0.056482 0.093326 0.085371 -0.008085 -0.213551 -0.022822 0.027809 -0.010349 0.074551 -0.076111 -0.018492 -0.108639 -0.039984 -0.027563 0.126594 0.016954 -0.007243 0.037801 -0.029730 0.141242 0.139794 -0.057894 -0.016754 0.223171 0.003379 -0.016164 -0.029757 -0.043324 -0.030759 -0.003689 0.119694 -0.020682 -0.024296 0.007571 0.152964 0.017451 -0.227952 0.007027 -0.029074 -0.135648 0.058644 0.026557 -0.105374 0.112577 -0.114429 -0.020843 0.103914 0.011295 0.006925 0.009234 0.194088 -0.155543 0.156661 -0.054823 0.098496 -0.019757 0.054250 0.090442 0.045742 -0.035196 -0.137145 -0.079057 -0.098005 0.008330 0.242952 0.039714 -0.000247 0.102431 0.046100 0.018641 -0.126394 0.050417 -0.157832 0.048204 0.026583 -0.085548 0.095888 0.043172 -0.054155 0.154129 -0.123871 0.031698 0.094862 0.126560 0.089451 0.122302 -0.011945 0.062463 -0.040078 0.034936 0.012534 -0.077777 -0.092049 -0.014504 -0.122653 0.071620 -0.043163 -0.031422 -0.007312 -0.073350 0.042525 -0.020507 -0.009839 -0.002797 0.020707 0.036542
49 0.004981 -0.122052 0.014731 -0.152754 0.042956 -0.019621 0.039134 0.106421 0.098626 0.028510 -0.003923 0.210365 0.002231 0.098869 0.022131 -0.211876 -0.084636 -0.068184 0.104777 0.108416 0.042153 -0.085856 0.057004 0.090216 0.084986 -0.007553 -0.218252 -0.031486 0.029151 -0.014018 0.069685 -0.082723 -0.018770 -0.107817 -0.035778 -0.023677 0.131045 0.014349 -0.007844 0.037968 -0.032091 0.143730 0.140247 -0.053010 -0.013058 0.234121 -0.000009 -0.016378 -0.035802 -0.042239 -0.029775 -0.003907 0.124171 -0.016975 -0.025250 0.012000 0.157650 0.024371 -0.237382 0.007793 -0.028757 -0.136342 0.065949 0.022998 -0.110201 0.110541 -0.120712 -0.024318 0.107342 0.005662 0.006585 0.005088 0.198358 -0.163130 0.164237 -0.052800 0.100699 -0.019322 0.057581 0.084843 0.040080 -0.036914 -0.137222 -0.083409 -0.107457 0.002840 0.244728 0.038564 -0.002479 0.107786 0.052016 0.017217 -0.132277 0.055230 -0.162009 0.052594 0.023277 -0.081035 0.096857 0.047351 -0.052744 0.158272 -0.131375 0.027234 0.094519 0.136992 0.092036 0.130809 -0.011353 0.061781 -0.038890 0.041253 0.017924 -0.080124 -0.090339 -0.017080 -0.125399 0.070505 -0.048749 -0.032744 -0.010839 -0.077416 0.038057 -0.022234 -0.005979 -0.010589 0.023005 0.037551
24 0.007703 -0.143257 0.015017 -0.179513 0.049029 -0.028315 0.044418 0.133715 0.118686 0.042489 -0.010329 0.261118 0.015247 0.106566 0.021398 -0.255056 -0.108906 -0.084171 0.130708 0.132208 0.060566 -0.103105 0.072028 0.122792 0.100967 -0.000433 -0.258364 -0.039847 0.035046 -0.003540 0.082722 -0.094481 -0.032958 -0.134708 -0.039958 -0.039890 0.167444 0.013580 -0.009370 0.033343 -0.035543 0.176401 0.161922 -0.061314 -0.018167 0.283383 0.001275 -0.006434 -0.042308 -0.063384 -0.031163 -0.005555 0.142811 -0.024451 -0.021748 0.018479 0.194207 0.026856 -0.289124 0.004265 -0.028978 -0.173092 0.083543 0.035492 -0.130964 0.128799 -0.150978 -0.022055 0.121002 0.013496 0.010194 0.016839 0.230122 -0.197293 0.204632 -0.054764 0.119400 -0.022242 0.069998 0.109146 0.053330 -0.053489 -0.156881 -0.105977 -0.132021 0.010919 0.301730 0.049941 -0.002142 0.129373 0.059900 0.020909 -0.152963 0.062254 -0.201113 0.072112 0.031708 -0.093951 0.109995 0.055815 -0.074264 0.199742 -0.159795 0.037008 0.116140 0.165898 0.112372 0.153539 -0.010567 0.078632 -0.037239 0.045049 0.016528 -0.100014 -0.120468 -0.024954 -0.159146 0.085010 -0.057541 -0.034139 -0.005012 -0.106742 0.051272 -0.039199 0.001944 -0.010581 0.014017 0.051296
25 -0.002122 -0.129309 0.007940 -0.165056 0.044381 -0.022473 0.039600 0.112873 0.105698 0.031247 -0.011584 0.222380 0.002902 0.107997 0.022887 -0.228613 -0.084847 -0.076852 0.114168 0.113209 0.049942 -0.087947 0.063290 0.102771 0.087578 -0.017107 -0.228023 -0.030584 0.023714 -0.006792 0.080898 -0.084600 -0.022894 -0.121496 -0.038202 -0.025492 0.137572 0.017504 -0.009724 0.032769 -0.035463 0.153731 0.148521 -0.060610 -0.013965 0.251371 0.008225 -0.012646 -0.037896 -0.048059 -0.031027 -0.000001 0.129326 -0.016542 -0.031397 0.008518 0.173925 0.021522 -0.255066 0.014147 -0.030037 -0.143433 0.066425 0.024449 -0.119501 0.116185 -0.133977 -0.022112 0.104481 0.004438 0.011127 0.008750 0.207068 -0.169765 0.176538 -0.057615 0.102273 -0.016042 0.059703 0.089508 0.045259 -0.046814 -0.144621 -0.089035 -0.110215 0.008836 0.266744 0.036591 -0.007494 0.110930 0.048385 0.014789 -0.135374 0.057574 -0.175214 0.060473 0.025807 -0.088994 0.100220 0.050145 -0.063423 0.174764 -0.145569 0.028757 0.104615 0.140171 0.103140 0.140294 -0.006235 0.064690 -0.037091 0.042924 0.014368 -0.089624 -0.105523 -0.020243 -0.132855 0.072469 -0.051593 -0.035985 -0.006670 -0.083957 0.042892 -0.024838 -0.007770 -0.004416 0.015815 0.044407
66 0.004352 -0.109205 0.011478 -0.140890 0.033686 -0.018550 0.034013 0.099551 0.084772 0.027216 -0.008167 0.182085 0.008597 0.090601 0.021717 -0.184094 -0.071721 -0.058099 0.094624 0.097394 0.037030 -0.073671 0.047013 0.085965 0.075265 -0.010765 -0.191540 -0.024207 0.025164 -0.013908 0.068037 -0.073221 -0.017791 -0.095816 -0.037067 -0.020126 0.118582 0.015690 -0.004743 0.037721 -0.030244 0.125226 0.126924 -0.047412 -0.010921 0.208537 -0.000898 -0.016672 -0.033328 -0.038020 -0.024305 0.000101 0.110223 -0.016677 -0.019017 0.006109 0.135660 0.021130 -0.211730 0.011936 -0.021062 -0.124440 0.058146 0.017207 -0.094911 0.094716 -0.111259 -0.019980 0.098071 0.010747 0.009538 0.003988 0.173862 -0.141873 0.145349 -0.049746 0.088383 -0.014527 0.048988 0.079185 0.039028 -0.034909 -0.124251 -0.073295 -0.091194 0.002675 0.215141 0.034853 0.002101 0.095556 0.049167 0.019225 -0.118910 0.053010 -0.145010 0.049102 0.027269 -0.072535 0.087558 0.037561 -0.046338 0.143241 -0.116918 0.026652 0.081658 0.119433 0.075637 0.110797 -0.005753 0.058806 -0.034146 0.035672 0.015112 -0.075921 -0.078216 -0.010152 -0.109755 0.063868 -0.043022 -0.031720 -0.009917 -0.068804 0.038842 -0.013409 -0.009436 -0.005998 0.023177 0.035060
2 0.003159 -0.124267 0.011030 -0.158212 0.045722 -0.022890 0.042068 0.117848 0.094674 0.029493 -0.008271 0.220758 0.004644 0.095733 0.022508 -0.226074 -0.085886 -0.071277 0.109839 0.106297 0.047212 -0.083101 0.061991 0.099064 0.082403 -0.013174 -0.225983 -0.025073 0.034645 -0.004279 0.079406 -0.086934 -0.029673 -0.107443 -0.038146 -0.025280 0.140164 0.011612 -0.003683 0.031348 -0.029215 0.148065 0.151529 -0.052480 -0.018962 0.238084 0.003632 -0.017774 -0.039091 -0.050342 -0.025206 -0.008125 0.125612 -0.010343 -0.035989 0.008802 0.171410 0.030777 -0.250853 0.016830 -0.030497 -0.139898 0.063398 0.023994 -0.113745 0.118829 -0.131815 -0.022590 0.099015 -0.000686 0.010382 0.011253 0.203334 -0.167969 0.174066 -0.049001 0.107654 -0.019394 0.056263 0.088787 0.039106 -0.047806 -0.146253 -0.084474 -0.102822 0.012089 0.259764 0.036987 0.000279 0.108217 0.052861 0.020448 -0.134503 0.051132 -0.177990 0.060183 0.019865 -0.088152 0.095466 0.052570 -0.057445 0.164754 -0.138392 0.020974 0.099175 0.134867 0.104197 0.141349 -0.012229 0.063013 -0.034266 0.044534 0.016047 -0.087008 -0.103461 -0.018094 -0.129926 0.076311 -0.054721 -0.036456 -0.008772 -0.090005 0.044633 -0.031616 -0.006967 -0.005580 0.025215 0.046518
64 0.003493 -0.101811 0.010948 -0.132253 0.035545 -0.013224 0.037803 0.096385 0.082330 0.023136 -0.005141 0.177586 0.004888 0.086096 0.021920 -0.176637 -0.070625 -0.059209 0.086707 0.089692 0.035274 -0.071097 0.045176 0.077444 0.071530 -0.009753 -0.182938 -0.024975 0.026349 -0.010655 0.061316 -0.071982 -0.012115 -0.096274 -0.034837 -0.024453 0.112264 0.014481 -0.004635 0.034881 -0.024843 0.122348 0.119265 -0.051766 -0.012875 0.201077 0.004525 -0.016233 -0.031476 -0.035785 -0.020871 -0.002269 0.100871 -0.013548 -0.014211 0.006431 0.130288 0.017221 -0.200562 0.009863 -0.024474 -0.118360 0.051062 0.021045 -0.093189 0.099311 -0.105719 -0.021596 0.093681 0.008555 0.008113 0.009409 0.170864 -0.138432 0.143457 -0.046226 0.083658 -0.010549 0.050453 0.073166 0.036145 -0.032563 -0.115945 -0.071480 -0.086508 0.007004 0.210803 0.031901 0.001452 0.092786 0.042064 0.016613 -0.109393 0.050682 -0.137326 0.048197 0.025714 -0.072198 0.079954 0.036411 -0.048828 0.137718 -0.112369 0.022935 0.080797 0.116504 0.080475 0.111705 -0.007035 0.053152 -0.032417 0.032618 0.016243 -0.068034 -0.076948 -0.013637 -0.110664 0.061212 -0.038636 -0.028471 -0.010292 -0.063994 0.033682 -0.011526 -0.007505 -0.008773 0.019585 0.037001
70 0.005675 -0.124086 0.008700 -0.155995 0.045067 -0.021819 0.036336 0.112068 0.098253 0.034052 -0.013638 0.215322 0.003267 0.098707 0.020335 -0.210396 -0.083117 -0.071277 0.107736 0.107719 0.046890 -0.082614 0.056572 0.091551 0.082532 -0.009006 -0.216577 -0.031197 0.028053 -0.005037 0.076338 -0.077423 -0.024814 -0.111865 -0.033357 -0.029100 0.136040 0.015934 -0.008114 0.036535 -0.030336 0.140134 0.136176 -0.053362 -0.018877 0.233421 0.003104 -0.011177 -0.040556 -0.049674 -0.023262 -0.002543 0.123790 -0.016372 -0.021203 0.012643 0.162540 0.025934 -0.242407 0.010149 -0.024093 -0.136448 0.059990 0.024798 -0.111154 0.114053 -0.122877 -0.022297 0.103954 0.007609 0.009924 0.012063 0.196060 -0.165550 0.166230 -0.047897 0.101778 -0.015233 0.055395 0.084536 0.044497 -0.046083 -0.135767 -0.080269 -0.101593 0.007016 0.254273 0.036747 -0.002957 0.108029 0.052285 0.016426 -0.131781 0.058262 -0.165315 0.055644 0.026744 -0.083410 0.094964 0.042841 -0.059918 0.165014 -0.134370 0.028656 0.096877 0.133876 0.095000 0.131005 -0.010700 0.062663 -0.036572 0.041900 0.011274 -0.082836 -0.092465 -0.018229 -0.129484 0.069006 -0.051888 -0.029523 -0.003600 -0.086524 0.045656 -0.021985 -0.008216 -0.009444 0.016593 0.038896
69 -0.000827 -0.119744 0.007161 -0.149714 0.043729 -0.018199 0.040173 0.106082 0.094428 0.028933 -0.010078 0.214345 -0.000478 0.102062 0.024520 -0.206040 -0.083774 -0.069930 0.108128 0.100174 0.044859 -0.076413 0.061261 0.089204 0.076519 -0.013042 -0.216244 -0.030795 0.020190 -0.005052 0.071815 -0.074317 -0.025293 -0.107953 -0.026460 -0.026124 0.132423 0.014846 -0.010451 0.035711 -0.026649 0.142667 0.143984 -0.058398 -0.016948 0.234917 0.009391 -0.016839 -0.034736 -0.047779 -0.027331 -0.004545 0.115032 -0.016694 -0.030609 0.012564 0.165689 0.021762 -0.239772 0.009281 -0.025109 -0.132324 0.058304 0.022249 -0.106800 0.110571 -0.128536 -0.024584 0.096601 -0.000685 0.016243 0.009764 0.191213 -0.164638 0.170461 -0.047628 0.100981 -0.020553 0.054971 0.082113 0.045099 -0.037578 -0.131481 -0.075604 -0.106449 0.008193 0.246918 0.040333 -0.004524 0.104481 0.043578 0.011795 -0.129362 0.057807 -0.163441 0.057131 0.022168 -0.083447 0.091421 0.042172 -0.055363 0.164205 -0.136211 0.026549 0.100987 0.131477 0.093603 0.127049 -0.007033 0.058354 -0.030661 0.041270 0.008227 -0.081182 -0.096848 -0.017630 -0.124809 0.065935 -0.052515 -0.029769 -0.006381 -0.079825 0.045693 -0.015511 -0.000735 -0.010583 0.019300 0.042597
62 0.005906 -0.101419 0.005929 -0.135161 0.035045 -0.016175 0.030864 0.097481 0.083897 0.022875 -0.003690 0.179265 0.004682 0.086564 0.014914 -0.178274 -0.070391 -0.057397 0.091429 0.091550 0.034098 -0.072729 0.045643 0.083117 0.072570 -0.008042 -0.187150 -0.024967 0.022752 -0.009972 0.061006 -0.072013 -0.019671 -0.094458 -0.031091 -0.019793 0.111930 0.013009 -0.002704 0.035099 -0.030614 0.120439 0.117663 -0.047409 -0.011525 0.197350 0.001896 -0.009831 -0.028809 -0.041153 -0.025063 -0.001622 0.103319 -0.012059 -0.016098 0.006432 0.132320 0.021536 -0.203340 0.010210 -0.020533 -0.120593 0.053719 0.020684 -0.096481 0.098877 -0.104418 -0.021408 0.092929 0.006844 0.003848 0.006233 0.173277 -0.135930 0.139554 -0.042234 0.086972 -0.016596 0.046006 0.076519 0.040741 -0.034359 -0.116925 -0.072012 -0.092835 0.005611 0.215526 0.036487 0.001612 0.089099 0.047005 0.011722 -0.115151 0.049642 -0.143788 0.049238 0.025303 -0.072133 0.084252 0.040011 -0.050378 0.140400 -0.113394 0.025801 0.081926 0.117836 0.081657 0.106726 -0.005664 0.056827 -0.035974 0.034306 0.013538 -0.068343 -0.075626 -0.015343 -0.114136 0.057088 -0.036728 -0.031634 -0.007742 -0.067931 0.035816 -0.020065 -0.007637 -0.006895 0.018722 0.031168
4 -0.000328 -0.135439 0.013375 -0.176402 0.056096 -0.028808 0.042429 0.136997 0.110745 0.031037 -0.003577 0.248000 0.006178 0.108816 0.025106 -0.254117 -0.093375 -0.086246 0.126203 0.124397 0.052819 -0.097007 0.063626 0.111251 0.099885 -0.013273 -0.257862 -0.026888 0.041007 -0.008540 0.084427 -0.100541 -0.030482 -0.124214 -0.043754 -0.032891 0.160678 0.019713 -0.003542 0.040793 -0.034556 0.159597 0.172847 -0.054320 -0.017434 0.265975 0.004805 -0.023038 -0.048412 -0.056304 -0.024900 -0.009636 0.140974 -0.013788 -0.038214 0.010819 0.191507 0.032266 -0.279524 0.013633 -0.027731 -0.162817 0.074066 0.031349 -0.124320 0.135350 -0.151885 -0.022422 0.117010 -0.000414 0.013009 0.014255 0.230096 -0.192230 0.201587 -0.058838 0.123863 -0.017736 0.061687 0.104950 0.048169 -0.055248 -0.163225 -0.095529 -0.115848 0.009448 0.297913 0.039173 0.001642 0.125474 0.055102 0.020689 -0.156018 0.060860 -0.199363 0.069107 0.020646 -0.100295 0.112529 0.055558 -0.071681 0.188523 -0.153908 0.031978 0.108281 0.159213 0.110257 0.157235 -0.012528 0.069096 -0.033225 0.047916 0.017843 -0.094495 -0.113541 -0.015313 -0.148756 0.085983 -0.058157 -0.040743 -0.007023 -0.098550 0.044438 -0.036799 -0.014598 -0.006931 0.030429 0.054663
50 -0.002349 -0.148831 0.009065 -0.184302 0.049139 -0.026354 0.052009 0.135004 0.117212 0.039660 -0.012914 0.257967 0.009083 0.115546 0.022745 -0.257382 -0.097547 -0.081726 0.129400 0.128535 0.053871 -0.101531 0.068713 0.118276 0.103198 -0.009930 -0.262948 -0.031295 0.032053 -0.011860 0.088150 -0.099684 -0.029392 -0.138206 -0.037481 -0.030858 0.159218 0.020750 -0.008384 0.041818 -0.033994 0.180108 0.169873 -0.068965 -0.015642 0.282524 0.007328 -0.020075 -0.043281 -0.058717 -0.035348 -0.003685 0.149991 -0.024522 -0.032986 0.007694 0.194532 0.029943 -0.290631 0.010371 -0.029601 -0.173135 0.076764 0.027133 -0.132237 0.130247 -0.152590 -0.027686 0.127384 0.010584 0.009497 0.013738 0.236915 -0.193751 0.199261 -0.060324 0.120845 -0.018743 0.071023 0.106412 0.047475 -0.047509 -0.164422 -0.101777 -0.127833 0.008281 0.303945 0.047411 -0.005916 0.135693 0.056527 0.019407 -0.157955 0.066108 -0.203945 0.068126 0.033268 -0.103432 0.116145 0.057952 -0.072460 0.202590 -0.160447 0.034375 0.119276 0.161089 0.118984 0.152967 -0.014102 0.078852 -0.039478 0.045001 0.018395 -0.098279 -0.116903 -0.018614 -0.159964 0.089022 -0.054664 -0.036234 -0.002918 -0.097395 0.047856 -0.033283 -0.008313 -0.014297 0.019246 0.054709
3 -0.004880 -0.129002 0.016686 -0.164081 0.051684 -0.024068 0.045119 0.122310 0.098258 0.029239 -0.005079 0.226188 -0.002425 0.098823 0.022809 -0.237540 -0.083291 -0.080928 0.114863 0.109449 0.044988 -0.085769 0.061165 0.108964 0.093123 -0.014975 -0.235937 -0.024006 0.037491 -0.002882 0.078234 -0.092949 -0.030686 -0.112509 -0.038239 -0.033030 0.147665 0.018768 -0.004337 0.036953 -0.032482 0.148246 0.159039 -0.050274 -0.019795 0.249810 0.009874 -0.021025 -0.046598 -0.046491 -0.022992 -0.006313 0.124673 -0.013147 -0.035924 0.005794 0.174260 0.029627 -0.263093 0.018772 -0.033947 -0.146573 0.065702 0.032353 -0.118254 0.119056 -0.133808 -0.018504 0.108570 -0.003769 0.014971 0.013629 0.206396 -0.172748 0.186727 -0.055637 0.115680 -0.019411 0.062037 0.092733 0.042521 -0.044098 -0.150818 -0.091020 -0.108877 0.010644 0.272667 0.040470 -0.004661 0.115625 0.051353 0.020145 -0.140956 0.059082 -0.186078 0.064771 0.019031 -0.087046 0.106209 0.052437 -0.067934 0.176167 -0.151301 0.024749 0.106618 0.150909 0.104859 0.143945 -0.007191 0.062983 -0.029962 0.046278 0.016273 -0.088509 -0.104274 -0.015982 -0.138270 0.080001 -0.050306 -0.037260 -0.010393 -0.096590 0.043761 -0.029814 -0.012580 -0.006927 0.024232 0.050524
23 0.006573 -0.142087 0.008339 -0.182995 0.046770 -0.023898 0.043446 0.137304 0.119198 0.038909 -0.014766 0.261692 0.014897 0.107419 0.019517 -0.250896 -0.107548 -0.080608 0.131672 0.139387 0.056882 -0.107247 0.067186 0.120959 0.102518 -0.003314 -0.262904 -0.041833 0.032626 -0.006441 0.085520 -0.094889 -0.028173 -0.133413 -0.047368 -0.041406 0.165224 0.013827 -0.011563 0.039802 -0.038933 0.173156 0.164052 -0.061953 -0.014280 0.280931 0.000715 -0.007824 -0.045367 -0.061845 -0.032302 -0.007627 0.149997 -0.031359 -0.023743 0.012059 0.187302 0.026147 -0.288230 0.001634 -0.027769 -0.174942 0.085354 0.035927 -0.125173 0.131768 -0.147432 -0.021484 0.126176 0.016798 0.007876 0.013990 0.239501 -0.196030 0.201795 -0.054138 0.123084 -0.018590 0.074827 0.108211 0.055605 -0.057248 -0.155030 -0.109941 -0.131221 0.015374 0.301098 0.048164 -0.004634 0.126388 0.062825 0.023617 -0.158616 0.064294 -0.206543 0.066535 0.031293 -0.097934 0.111143 0.059782 -0.073048 0.194392 -0.157832 0.032820 0.114856 0.161163 0.106748 0.151518 -0.010567 0.078135 -0.046333 0.044381 0.016069 -0.103281 -0.117118 -0.023501 -0.160947 0.087788 -0.058518 -0.037557 -0.004833 -0.100184 0.047686 -0.038530 -0.000304 -0.014776 0.015996 0.047864
18 0.006830 -0.132974 0.007889 -0.170308 0.045320 -0.025558 0.037251 0.124582 0.110470 0.041249 -0.013374 0.243018 0.016199 0.100889 0.020999 -0.235725 -0.100451 -0.075251 0.116520 0.128564 0.057921 -0.097772 0.068999 0.109621 0.096363 0.001227 -0.237396 -0.035795 0.034391 -0.006645 0.079138 -0.085751 -0.023849 -0.120500 -0.038742 -0.038320 0.149494 0.014267 -0.007424 0.038254 -0.036244 0.163068 0.146123 -0.059978 -0.016319 0.262490 -0.001041 -0.009113 -0.037866 -0.058100 -0.031458 -0.008669 0.138347 -0.022882 -0.022092 0.018025 0.174663 0.020893 -0.266466 0.003151 -0.024220 -0.163097 0.076202 0.031925 -0.114658 0.121864 -0.136701 -0.024272 0.118028 0.015961 0.004322 0.011569 0.218949 -0.184313 0.191118 -0.047944 0.114996 -0.015532 0.067136 0.097730 0.043891 -0.048643 -0.142753 -0.103688 -0.122570 0.013248 0.281854 0.042917 -0.004628 0.120353 0.057260 0.017243 -0.139788 0.056205 -0.189604 0.063942 0.025574 -0.085513 0.104597 0.049957 -0.066466 0.182460 -0.147719 0.033950 0.107263 0.151595 0.098216 0.137415 -0.012677 0.067871 -0.041716 0.040508 0.012948 -0.094302 -0.106462 -0.023554 -0.145861 0.075821 -0.051455 -0.035848 -0.006304 -0.098023 0.045550 -0.034665 0.000605 -0.014194 0.011166 0.041392
21 0.001840 -0.131831 0.012064 -0.175110 0.041198 -0.024540 0.041360 0.121212 0.109602 0.041255 -0.011414 0.241823 0.011524 0.100938 0.020611 -0.234664 -0.097848 -0.077353 0.122134 0.124332 0.055151 -0.097647 0.064648 0.111259 0.093991 -0.005455 -0.239314 -0.034616 0.033665 -0.008289 0.083573 -0.090631 -0.025486 -0.122523 -0.043163 -0.037259 0.150344 0.019251 -0.005093 0.037230 -0.037753 0.164562 0.150029 -0.062289 -0.018950 0.263389 0.004128 -0.010369 -0.036222 -0.055822 -0.028086 -0.003553 0.138764 -0.027790 -0.024205 0.015552 0.177316 0.021272 -0.271307 0.009414 -0.029941 -0.160069 0.076238 0.034631 -0.116104 0.121857 -0.139168 -0.026592 0.113762 0.007567 0.010652 0.008580 0.219340 -0.180762 0.192310 -0.051972 0.110584 -0.020693 0.066940 0.101563 0.045534 -0.049320 -0.149179 -0.103941 -0.123117 0.008734 0.279662 0.041567 0.000839 0.116670 0.060256 0.021150 -0.146163 0.063959 -0.187700 0.061728 0.025316 -0.087909 0.105673 0.051866 -0.067371 0.179808 -0.150390 0.036270 0.112437 0.154092 0.102576 0.139734 -0.012552 0.069466 -0.035738 0.047179 0.015142 -0.091503 -0.109415 -0.017581 -0.150169 0.079342 -0.054533 -0.031892 -0.006937 -0.096739 0.047577 -0.035899 -0.000283 -0.009572 0.018800 0.041364
20 0.005761 -0.145032 0.012150 -0.181397 0.043136 -0.030571 0.047424 0.134160 0.113910 0.039155 -0.015757 0.256252 0.017957 0.108451 0.020179 -0.250933 -0.110122 -0.081160 0.127438 0.131625 0.060353 -0.107033 0.072871 0.117457 0.101921 0.001398 -0.252634 -0.039745 0.036844 -0.011610 0.082201 -0.096209 -0.026455 -0.132562 -0.040817 -0.037074 0.165496 0.013250 -0.011105 0.033982 -0.041470 0.168568 0.157943 -0.062445 -0.014509 0.279130 0.005583 -0.009469 -0.041370 -0.063709 -0.037268 -0.006244 0.148605 -0.032303 -0.023748 0.016707 0.187620 0.022427 -0.288502 0.007013 -0.023660 -0.170150 0.083830 0.036236 -0.127290 0.129576 -0.147621 -0.021498 0.120435 0.016583 0.004899 0.014555 0.231727 -0.195448 0.202304 -0.051390 0.122204 -0.019758 0.072136 0.108229 0.052069 -0.058558 -0.156412 -0.112578 -0.126871 0.016082 0.297437 0.047680 -0.004417 0.128194 0.064378 0.022518 -0.153336 0.062724 -0.199469 0.067500 0.031734 -0.095420 0.108140 0.059654 -0.073400 0.190512 -0.162536 0.039141 0.114667 0.164973 0.107854 0.152191 -0.009169 0.079130 -0.044797 0.049238 0.017586 -0.097574 -0.117645 -0.024463 -0.154205 0.087613 -0.059152 -0.036116 -0.006503 -0.098053 0.049608 -0.039499 -0.000549 -0.009429 0.012893 0.048504
71 0.005098 -0.121671 0.008253 -0.157607 0.045205 -0.021231 0.035545 0.107731 0.101663 0.032576 -0.012111 0.220161 0.005906 0.100282 0.025875 -0.218850 -0.083827 -0.071475 0.109202 0.106901 0.044471 -0.081771 0.056078 0.098023 0.079413 -0.016179 -0.216422 -0.028286 0.026651 -0.005343 0.075123 -0.080465 -0.022248 -0.113873 -0.032811 -0.024351 0.131787 0.009157 -0.004319 0.031069 -0.030364 0.144406 0.142546 -0.057693 -0.012937 0.240504 0.005367 -0.018538 -0.039998 -0.045332 -0.028156 -0.004567 0.119177 -0.020785 -0.028818 0.008476 0.164829 0.024119 -0.242413 0.006858 -0.023551 -0.141325 0.059745 0.027395 -0.112286 0.116718 -0.126842 -0.026545 0.099889 0.000899 0.013748 0.013346 0.193696 -0.166042 0.171762 -0.050345 0.100345 -0.020193 0.053014 0.082903 0.046000 -0.044490 -0.136870 -0.083242 -0.106048 0.013300 0.258144 0.039751 -0.006582 0.110827 0.045694 0.013872 -0.134205 0.060289 -0.165998 0.060643 0.022958 -0.086009 0.097503 0.045592 -0.058687 0.163857 -0.140477 0.027573 0.098088 0.132559 0.094740 0.134210 -0.005136 0.061365 -0.031001 0.036941 0.009251 -0.086067 -0.097778 -0.018530 -0.125903 0.073270 -0.050134 -0.029684 -0.009251 -0.082887 0.039407 -0.020889 -0.003794 -0.008541 0.015116 0.041009
17 0.007962 -0.149985 0.013051 -0.185636 0.043381 -0.031943 0.047342 0.140390 0.125452 0.046873 -0.013051 0.274602 0.018558 0.112849 0.018904 -0.255875 -0.113492 -0.089576 0.132136 0.143328 0.062786 -0.114219 0.077090 0.120883 0.107583 0.003401 -0.266428 -0.041356 0.040258 -0.003461 0.087968 -0.097578 -0.027471 -0.137887 -0.046881 -0.045938 0.171705 0.018468 -0.010170 0.039706 -0.039841 0.174324 0.161185 -0.061969 -0.019484 0.288710 0.003559 -0.004803 -0.043254 -0.063160 -0.038239 -0.010068 0.151817 -0.034868 -0.019474 0.015558 0.191018 0.030107 -0.293217 -0.000417 -0.026319 -0.181082 0.089613 0.036486 -0.129750 0.137823 -0.154249 -0.025174 0.128323 0.017349 0.003786 0.014422 0.242617 -0.205836 0.214123 -0.049812 0.123124 -0.022656 0.075425 0.106671 0.053626 -0.058144 -0.156732 -0.112053 -0.139977 0.014096 0.315797 0.045580 0.001580 0.129190 0.061671 0.022168 -0.158409 0.068137 -0.211288 0.070732 0.034801 -0.095440 0.117314 0.060256 -0.073092 0.200833 -0.167786 0.040560 0.120641 0.168123 0.113604 0.152518 -0.014464 0.082775 -0.044115 0.048765 0.021493 -0.101054 -0.119099 -0.024575 -0.165321 0.093494 -0.061955 -0.041262 -0.002453 -0.103875 0.053939 -0.039469 -0.004165 -0.015085 0.013349 0.051579
52 -0.002698 -0.121823 0.012926 -0.161870 0.040215 -0.022713 0.044260 0.110604 0.099172 0.027888 -0.009119 0.217371 0.004580 0.102750 0.016564 -0.221875 -0.084126 -0.067316 0.105668 0.106452 0.049933 -0.086097 0.055491 0.095307 0.080575 -0.007440 -0.222794 -0.024625 0.029437 -0.009934 0.079060 -0.080310 -0.018325 -0.112446 -0.031324 -0.026183 0.133412 0.015288 -0.006297 0.034419 -0.028276 0.152272 0.142385 -0.055260 -0.013612 0.239996 0.007473 -0.012014 -0.040047 -0.050437 -0.027855 -0.006231 0.126319 -0.020963 -0.022391 0.011447 0.166009 0.021084 -0.245674 0.006255 -0.027861 -0.138127 0.061911 0.023343 -0.115889 0.114889 -0.124488 -0.018838 0.103942 0.009447 0.009088 0.011543 0.200893 -0.163726 0.170566 -0.054752 0.100099 -0.020471 0.058404 0.088116 0.047373 -0.044650 -0.138232 -0.085875 -0.103917 0.006464 0.261462 0.043266 -0.006722 0.115857 0.051591 0.017045 -0.134127 0.053691 -0.170930 0.052717 0.026061 -0.082562 0.092533 0.051973 -0.055036 0.171922 -0.134160 0.030324 0.102741 0.136475 0.100625 0.132908 -0.013874 0.068835 -0.035763 0.039352 0.017024 -0.087530 -0.099495 -0.018444 -0.134906 0.075975 -0.050535 -0.034476 -0.005964 -0.085246 0.038443 -0.023585 -0.004183 -0.008803 0.016809 0.042166
22 0.008252 -0.135302 0.010430 -0.169724 0.043195 -0.026919 0.039847 0.122341 0.105502 0.036032 -0.013035 0.240327 0.014290 0.100653 0.023009 -0.233493 -0.100526 -0.077477 0.123043 0.126902 0.055666 -0.097257 0.068318 0.108881 0.090109 0.000237 -0.239562 -0.039081 0.035038 -0.005220 0.079159 -0.090563 -0.027981 -0.122464 -0.041461 -0.038053 0.149187 0.014202 -0.010328 0.033375 -0.031461 0.155191 0.146205 -0.056296 -0.013335 0.263046 -0.001136 -0.007446 -0.036162 -0.057394 -0.033753 -0.008015 0.132014 -0.026955 -0.018093 0.014240 0.177098 0.027146 -0.262651 0.002545 -0.024412 -0.157135 0.077307 0.035428 -0.118578 0.123151 -0.140892 -0.021111 0.118357 0.015293 0.005291 0.014434 0.216709 -0.182306 0.191755 -0.049262 0.108471 -0.016371 0.067755 0.097276 0.044661 -0.051217 -0.143083 -0.103359 -0.119693 0.008811 0.281337 0.039788 0.000503 0.117504 0.058916 0.018368 -0.142169 0.055887 -0.186414 0.063446 0.027314 -0.088612 0.106552 0.048477 -0.066507 0.180579 -0.146108 0.036581 0.108071 0.153213 0.100923 0.142585 -0.010557 0.071138 -0.037213 0.043593 0.018311 -0.088788 -0.107257 -0.020970 -0.147979 0.079733 -0.056689 -0.036419 -0.004524 -0.095609 0.047763 -0.035071 -0.001626 -0.010539 0.017476 0.044543
19 0.011333 -0.142126 0.015025 -0.179261 0.041603 -0.027310 0.040851 0.127204 0.117540 0.042035 -0.018052 0.258987 0.016525 0.104484 0.018555 -0.242770 -0.111754 -0.084375 0.129937 0.138407 0.061361 -0.108196 0.070278 0.118597 0.098940 0.006165 -0.250634 -0.039097 0.034274 -0.007242 0.082439 -0.090184 -0.026513 -0.132784 -0.043819 -0.041535 0.156040 0.017338 -0.006437 0.036692 -0.036317 0.166824 0.153043 -0.062162 -0.012744 0.275947 0.003971 -0.008664 -0.042033 -0.060841 -0.035669 -0.007845 0.139711 -0.032147 -0.016645 0.019904 0.179856 0.026880 -0.275112 -0.000007 -0.025794 -0.172345 0.086356 0.039337 -0.123396 0.123169 -0.142221 -0.023310 0.117874 0.013449 0.006487 0.013461 0.228972 -0.190892 0.197385 -0.053690 0.120584 -0.016870 0.067781 0.100829 0.049624 -0.055375 -0.149462 -0.113297 -0.131045 0.013213 0.297685 0.047213 -0.004892 0.121084 0.060524 0.024810 -0.145852 0.063504 -0.199705 0.069819 0.029010 -0.090790 0.108306 0.052763 -0.068446 0.191751 -0.159436 0.034125 0.112376 0.160487 0.104730 0.146884 -0.013100 0.073901 -0.043188 0.044605 0.017723 -0.099473 -0.110896 -0.020660 -0.151691 0.088331 -0.061473 -0.032023 -0.005650 -0.102354 0.047356 -0.042115 -0.002859 -0.011480 0.008093 0.043063
77 0.010830 -0.146259 0.018834 -0.178377 0.042462 -0.019444 0.043358 0.130838 0.104127 0.042896 -0.004770 0.236345 0.003185 0.119199 0.032021 -0.236086 -0.085790 -0.071411 0.125480 0.126714 0.035605 -0.094721 0.064819 0.103699 0.097208 -0.009210 -0.249293 -0.034285 0.036534 -0.017372 0.081006 -0.096618 -0.019144 -0.121939 -0.047564 -0.031853 0.152037 0.022428 -0.008609 0.039682 -0.041566 0.164345 0.164862 -0.067808 -0.013117 0.261474 -0.002831 -0.012437 -0.032755 -0.051101 -0.036645 -0.002795 0.139163 -0.029900 -0.021366 0.007645 0.179972 0.023714 -0.275385 0.017448 -0.033137 -0.162159 0.074006 0.033693 -0.123070 0.135195 -0.136998 -0.022771 0.119335 0.014433 -0.000453 0.015223 0.232998 -0.175977 0.195650 -0.061025 0.105834 -0.017352 0.059425 0.105855 0.052150 -0.044558 -0.156661 -0.096456 -0.113544 0.001000 0.273148 0.052254 0.002907 0.131776 0.058447 0.025270 -0.142556 0.060851 -0.179759 0.068500 0.032177 -0.092890 0.110054 0.038524 -0.067318 0.176423 -0.151568 0.038636 0.113170 0.158155 0.099933 0.151040 -0.013892 0.073263 -0.047858 0.045698 0.015613 -0.090300 -0.096858 -0.015622 -0.145563 0.081284 -0.056723 -0.041035 -0.012824 -0.087717 0.050054 -0.016378 -0.008969 -0.008675 0.025021 0.050593
42 -0.000955 -0.111983 0.009233 -0.151249 0.046033 -0.019719 0.037551 0.107304 0.093905 0.032666 -0.006526 0.202564 0.000413 0.098844 0.023930 -0.203823 -0.080161 -0.069865 0.104390 0.099868 0.042859 -0.081658 0.055761 0.093388 0.081601 -0.014517 -0.210594 -0.023519 0.024874 -0.005312 0.071730 -0.075312 -0.019272 -0.105739 -0.030902 -0.025348 0.127530 0.009914 -0.007871 0.029552 -0.030909 0.137719 0.135420 -0.051648 -0.010815 0.225509 0.007089 -0.012869 -0.036468 -0.041827 -0.022306 -0.006027 0.115647 -0.016374 -0.025179 0.008850 0.157405 0.022538 -0.232314 0.006639 -0.024540 -0.129321 0.057056 0.024022 -0.101301 0.108586 -0.121239 -0.021046 0.097478 0.005227 0.011017 0.008873 0.188581 -0.154475 0.162272 -0.049376 0.093602 -0.011824 0.048501 0.086341 0.038667 -0.037906 -0.133617 -0.075425 -0.098603 0.010473 0.244277 0.033148 -0.004503 0.104453 0.047439 0.017193 -0.127722 0.051337 -0.160924 0.052648 0.022153 -0.082764 0.093501 0.040520 -0.053641 0.154572 -0.131829 0.022510 0.094673 0.123960 0.094876 0.126414 -0.007539 0.061894 -0.029034 0.038134 0.013189 -0.077891 -0.094551 -0.014250 -0.122632 0.065949 -0.045158 -0.031158 -0.006509 -0.077744 0.038358 -0.018946 -0.006952 -0.010570 0.020014 0.042705
76 -0.002264 -0.115804 0.005718 -0.146050 0.046554 -0.022856 0.039545 0.104781 0.094250 0.027989 -0.009892 0.206056 0.003292 0.090869 0.024294 -0.204537 -0.075297 -0.067735 0.104261 0.102588 0.039578 -0.082851 0.053333 0.086989 0.079497 -0.012687 -0.210446 -0.027776 0.024942 -0.010262 0.074521 -0.074779 -0.021141 -0.103151 -0.028440 -0.022405 0.123656 0.008938 -0.003934 0.031395 -0.033284 0.133786 0.136845 -0.051616 -0.015828 0.222980 0.005657 -0.013355 -0.036164 -0.042561 -0.024434 -0.005253 0.115864 -0.017975 -0.024056 0.008999 0.157304 0.025411 -0.226661 0.010892 -0.028265 -0.128468 0.055030 0.021330 -0.104029 0.107785 -0.122611 -0.023496 0.095562 0.005158 0.014229 0.008367 0.189268 -0.157961 0.164391 -0.045822 0.093258 -0.015056 0.050234 0.080704 0.042807 -0.037861 -0.133739 -0.077438 -0.096764 0.010995 0.243085 0.034996 -0.003842 0.099514 0.043974 0.017942 -0.126280 0.054055 -0.160451 0.051597 0.022784 -0.080015 0.091995 0.042627 -0.052058 0.153219 -0.129465 0.022058 0.094768 0.130248 0.095490 0.128670 -0.004681 0.057310 -0.030498 0.042109 0.011348 -0.075332 -0.089665 -0.013821 -0.122074 0.064081 -0.045540 -0.029119 -0.009862 -0.078803 0.042539 -0.017189 -0.004392 -0.005084 0.020388 0.042746
254 0.008711 -0.148991 0.020559 -0.182727 0.041453 -0.021377 0.047886 0.129565 0.106716 0.045599 -0.000754 0.239539 0.005225 0.117847 0.031841 -0.234112 -0.087954 -0.070369 0.125497 0.125055 0.035921 -0.097299 0.067900 0.102507 0.099289 -0.012105 -0.253310 -0.038934 0.041257 -0.021023 0.082528 -0.094621 -0.015083 -0.129372 -0.046684 -0.026057 0.145913 0.023245 -0.005137 0.042794 -0.045299 0.164875 0.162343 -0.070338 -0.009616 0.267749 -0.002656 -0.018161 -0.032312 -0.047410 -0.032386 -0.006401 0.144159 -0.028240 -0.018324 0.006834 0.174575 0.017946 -0.277472 0.017246 -0.037242 -0.161269 0.075593 0.028671 -0.120025 0.136837 -0.134006 -0.029081 0.125388 0.013726 0.000316 0.014459 0.233722 -0.176034 0.193912 -0.059904 0.110603 -0.014267 0.065468 0.104340 0.048283 -0.042591 -0.153560 -0.100414 -0.118389 0.001316 0.278466 0.055210 0.005405 0.134102 0.056324 0.026889 -0.139153 0.061466 -0.187542 0.071146 0.026644 -0.092853 0.115306 0.036901 -0.069322 0.182423 -0.156408 0.033411 0.112944 0.158376 0.105910 0.150635 -0.010750 0.079022 -0.052344 0.043637 0.021142 -0.097245 -0.094598 -0.019600 -0.143496 0.084625 -0.055849 -0.038291 -0.006944 -0.095781 0.050199 -0.024389 -0.011051 -0.016188 0.026859 0.049114
67 0.002088 -0.117165 0.013145 -0.153315 0.045029 -0.018478 0.039684 0.105283 0.098303 0.032188 -0.003848 0.204123 0.002582 0.095243 0.024393 -0.210963 -0.079809 -0.070048 0.102719 0.103423 0.037736 -0.087756 0.055949 0.089611 0.085517 -0.006601 -0.211957 -0.030636 0.031665 -0.015019 0.068569 -0.082919 -0.020932 -0.112637 -0.037062 -0.026167 0.128887 0.016405 -0.003145 0.036443 -0.032744 0.144521 0.142514 -0.050778 -0.014265 0.229529 0.003807 -0.011821 -0.030576 -0.045673 -0.027382 -0.002690 0.119324 -0.020971 -0.021717 0.009188 0.158211 0.023956 -0.238669 0.012119 -0.023473 -0.138547 0.063571 0.027707 -0.110496 0.111551 -0.119120 -0.023082 0.107110 0.009732 0.010704 0.013267 0.198875 -0.157853 0.165732 -0.052703 0.096496 -0.013092 0.059286 0.089067 0.042812 -0.040906 -0.136743 -0.080242 -0.106469 0.007275 0.242688 0.036929 0.003095 0.103950 0.051753 0.020329 -0.129566 0.053606 -0.161412 0.051938 0.027495 -0.082874 0.092421 0.039847 -0.054306 0.160938 -0.129017 0.029280 0.093130 0.130514 0.093824 0.130240 -0.008784 0.060055 -0.041255 0.042326 0.012768 -0.077375 -0.091802 -0.012688 -0.129917 0.066679 -0.044175 -0.035616 -0.011004 -0.079712 0.040666 -0.018064 -0.007091 -0.005469 0.023796 0.043998
61 0.000296 -0.113701 0.011021 -0.147261 0.037143 -0.018414 0.037609 0.100997 0.091422 0.027477 -0.008525 0.192632 0.003501 0.093088 0.018075 -0.195830 -0.073503 -0.061364 0.095469 0.097473 0.035398 -0.081655 0.050669 0.084296 0.080904 -0.012279 -0.202919 -0.026287 0.027822 -0.013729 0.067716 -0.078005 -0.021503 -0.105139 -0.034366 -0.023226 0.124700 0.010885 -0.003136 0.032798 -0.028105 0.129829 0.133141 -0.051440 -0.013358 0.217644 -0.000592 -0.011857 -0.029620 -0.040882 -0.023459 -0.002666 0.116392 -0.018239 -0.023560 0.012701 0.144385 0.019892 -0.223816 0.005261 -0.027916 -0.133105 0.062645 0.025758 -0.100476 0.104334 -0.114277 -0.025135 0.102081 0.009851 0.003989 0.011279 0.185100 -0.149145 0.156152 -0.045168 0.090893 -0.013991 0.053076 0.082643 0.044779 -0.037987 -0.129906 -0.079228 -0.099336 0.004876 0.233822 0.033244 0.001322 0.102950 0.046651 0.019789 -0.120995 0.048798 -0.152675 0.053625 0.027706 -0.078386 0.087908 0.039665 -0.052862 0.150509 -0.119689 0.029423 0.088281 0.121391 0.082756 0.118612 -0.009590 0.059561 -0.037365 0.038836 0.018021 -0.076883 -0.089024 -0.012102 -0.122913 0.067030 -0.046117 -0.030955 -0.008737 -0.070940 0.037751 -0.017468 -0.003873 -0.003219 0.017222 0.039875
36 0.007879 -0.205726 0.022259 -0.258979 0.070752 -0.035782 0.070215 0.183606 0.161456 0.057506 -0.020064 0.351655 0.004727 0.162813 0.035507 -0.349349 -0.142207 -0.118309 0.174714 0.172589 0.074316 -0.134126 0.100577 0.165276 0.136883 -0.019088 -0.353217 -0.053349 0.043771 -0.014399 0.126503 -0.140193 -0.036317 -0.190351 -0.057662 -0.047466 0.222364 0.021338 -0.014527 0.046616 -0.047536 0.237368 0.241349 -0.087711 -0.022143 0.386324 0.012456 -0.020971 -0.059215 -0.072481 -0.044415 -0.005478 0.200948 -0.037924 -0.034111 0.021963 0.263036 0.038171 -0.400906 0.019509 -0.048143 -0.239001 0.111346 0.043350 -0.184813 0.184455 -0.206334 -0.032621 0.174317 0.007081 0.012617 0.014188 0.325131 -0.271845 0.274583 -0.087600 0.173077 -0.022232 0.094373 0.141236 0.064876 -0.074103 -0.221125 -0.145253 -0.172912 0.015913 0.424042 0.070158 -0.001248 0.187799 0.082464 0.019188 -0.215805 0.097517 -0.270377 0.093759 0.039677 -0.129575 0.149854 0.082813 -0.093496 0.272415 -0.219113 0.044457 0.168396 0.226051 0.157836 0.218634 -0.015881 0.110519 -0.058732 0.067486 0.018351 -0.144615 -0.163509 -0.036854 -0.215566 0.115196 -0.081850 -0.049042 -0.010022 -0.138881 0.075427 -0.034956 -0.007398 -0.013915 0.023471 0.071673
72 0.003958 -0.130319 0.010182 -0.165499 0.046676 -0.018267 0.038174 0.113750 0.102411 0.032809 -0.009520 0.229280 0.002054 0.100431 0.024669 -0.221283 -0.085674 -0.071437 0.110786 0.110571 0.044913 -0.087490 0.059016 0.097963 0.087404 -0.009698 -0.225896 -0.028819 0.027171 -0.009731 0.076504 -0.085388 -0.023621 -0.118983 -0.034821 -0.030369 0.141547 0.011086 -0.009181 0.032123 -0.029577 0.155168 0.147209 -0.059773 -0.015216 0.245352 0.004344 -0.014413 -0.040936 -0.052679 -0.030566 0.000235 0.128503 -0.018806 -0.029201 0.010268 0.167706 0.027421 -0.251379 0.010077 -0.030604 -0.151291 0.063675 0.027689 -0.111613 0.117193 -0.130341 -0.027195 0.104563 0.002214 0.007786 0.013223 0.208129 -0.172414 0.181129 -0.053519 0.105463 -0.019111 0.061959 0.092026 0.046260 -0.046910 -0.145740 -0.089086 -0.113161 0.012288 0.270677 0.037523 -0.000516 0.114369 0.052396 0.018728 -0.141053 0.057472 -0.173001 0.060111 0.024639 -0.090279 0.098881 0.050644 -0.060217 0.173955 -0.145241 0.028606 0.104701 0.143317 0.096877 0.139295 -0.010768 0.065244 -0.031637 0.041104 0.015235 -0.091481 -0.098866 -0.021814 -0.134760 0.074999 -0.051068 -0.036920 -0.008752 -0.090147 0.044960 -0.021970 -0.004077 -0.005611 0.013595 0.045531
35 0.000913 -0.196394 0.016189 -0.245969 0.063969 -0.029998 0.064040 0.169236 0.151810 0.054135 -0.018874 0.341391 0.005606 0.155566 0.031815 -0.336809 -0.132145 -0.107403 0.170358 0.171662 0.075742 -0.131146 0.093824 0.159192 0.132032 -0.013490 -0.337417 -0.045124 0.038867 -0.014006 0.120153 -0.132184 -0.036684 -0.183962 -0.050040 -0.044752 0.213407 0.017627 -0.009033 0.044905 -0.050874 0.229865 0.232538 -0.086150 -0.022642 0.368690 0.008300 -0.021816 -0.060608 -0.074632 -0.043038 -0.007313 0.190613 -0.037021 -0.031676 0.014301 0.255681 0.036294 -0.383260 0.013794 -0.048566 -0.228222 0.106367 0.038832 -0.179261 0.170921 -0.199515 -0.028527 0.165596 0.010246 0.013091 0.016443 0.308768 -0.258820 0.264637 -0.085684 0.163088 -0.017721 0.087243 0.137868 0.061466 -0.074419 -0.213277 -0.140479 -0.163706 0.016697 0.408575 0.063335 -0.008835 0.181009 0.080504 0.018105 -0.210892 0.088686 -0.264731 0.083973 0.036112 -0.125321 0.148396 0.079607 -0.084718 0.260397 -0.217202 0.035609 0.161541 0.211938 0.150757 0.214055 -0.014060 0.106618 -0.052687 0.061220 0.021870 -0.138039 -0.156248 -0.030255 -0.203588 0.109931 -0.081909 -0.048489 -0.006256 -0.134992 0.071653 -0.034470 -0.005473 -0.009453 0.022140 0.069273
58 0.002194 -0.100430 0.007149 -0.132553 0.033010 -0.012744 0.033905 0.093421 0.079980 0.026929 -0.004429 0.173964 0.006988 0.086482 0.017312 -0.178908 -0.070190 -0.055563 0.087352 0.084537 0.032131 -0.074434 0.045326 0.076372 0.072267 -0.011532 -0.184012 -0.025388 0.024159 -0.005106 0.061970 -0.068748 -0.015687 -0.091591 -0.028255 -0.020391 0.108887 0.016050 -0.008203 0.031529 -0.028761 0.116037 0.115228 -0.047834 -0.014436 0.194320 0.005472 -0.009690 -0.028451 -0.041527 -0.022355 -0.005811 0.104338 -0.014030 -0.019340 0.010603 0.131727 0.016032 -0.195496 0.010177 -0.019272 -0.117907 0.052929 0.017760 -0.089827 0.092448 -0.099085 -0.021615 0.090872 0.010809 0.005446 0.004544 0.164811 -0.137145 0.137987 -0.046725 0.079512 -0.015378 0.047185 0.070866 0.034780 -0.036512 -0.114365 -0.067567 -0.083462 0.007135 0.210699 0.028433 -0.004629 0.088448 0.040028 0.012406 -0.109960 0.049653 -0.139748 0.047401 0.018368 -0.072717 0.082466 0.035787 -0.045994 0.134318 -0.106747 0.027273 0.076097 0.112864 0.073919 0.109266 -0.006089 0.053473 -0.032493 0.031020 0.013697 -0.071492 -0.081508 -0.014945 -0.108845 0.057424 -0.042070 -0.026956 -0.003813 -0.063727 0.032374 -0.015716 -0.005504 -0.005698 0.018049 0.036533
38 0.007587 -0.203127 0.021850 -0.249093 0.065924 -0.033122 0.062522 0.174345 0.162020 0.051212 -0.019159 0.346434 0.010711 0.155147 0.028275 -0.342653 -0.139829 -0.111581 0.173012 0.171943 0.071649 -0.131794 0.101511 0.158852 0.128193 -0.014090 -0.343438 -0.051844 0.044179 -0.015339 0.119770 -0.138826 -0.039311 -0.191295 -0.056498 -0.048414 0.216875 0.018087 -0.013296 0.044243 -0.047973 0.234742 0.236934 -0.084695 -0.027053 0.383032 0.012332 -0.024871 -0.055611 -0.075690 -0.047727 -0.006948 0.192194 -0.038569 -0.037413 0.014943 0.262505 0.037960 -0.393672 0.018756 -0.051472 -0.233742 0.109020 0.036717 -0.177558 0.181265 -0.197906 -0.030307 0.166275 0.010612 0.012107 0.016684 0.311294 -0.267862 0.266842 -0.082722 0.171283 -0.017164 0.091725 0.139963 0.063923 -0.073229 -0.217724 -0.140705 -0.173827 0.016298 0.415548 0.063273 -0.007240 0.180220 0.082227 0.017653 -0.213983 0.092882 -0.271050 0.088956 0.038107 -0.131728 0.148499 0.081395 -0.089578 0.267877 -0.214710 0.035672 0.159460 0.216154 0.154063 0.214362 -0.018229 0.107738 -0.057503 0.068892 0.022565 -0.141154 -0.160239 -0.036178 -0.211255 0.110745 -0.086985 -0.047965 -0.007956 -0.139548 0.070128 -0.037060 -0.007753 -0.009260 0.020370 0.068789
39 0.001148 -0.194778 0.019741 -0.246049 0.071500 -0.028504 0.065563 0.176934 0.155725 0.051759 -0.019650 0.339371 0.007847 0.153651 0.031548 -0.339455 -0.139887 -0.110039 0.166729 0.172324 0.074602 -0.130464 0.101524 0.159554 0.127163 -0.013333 -0.343730 -0.045103 0.040418 -0.013311 0.121851 -0.136112 -0.037377 -0.186608 -0.050911 -0.046870 0.215875 0.022076 -0.013448 0.044466 -0.045537 0.232540 0.230167 -0.089262 -0.022878 0.378682 0.010870 -0.018882 -0.054858 -0.070060 -0.046148 -0.003507 0.193850 -0.038073 -0.033951 0.020091 0.253811 0.039762 -0.381665 0.016953 -0.050644 -0.224961 0.103616 0.039366 -0.177940 0.175927 -0.194715 -0.028122 0.169449 0.008899 0.017873 0.018390 0.308589 -0.260427 0.268607 -0.079420 0.165317 -0.019658 0.092645 0.137229 0.066319 -0.070140 -0.216181 -0.141545 -0.167047 0.016960 0.411153 0.067761 -0.005763 0.180910 0.078755 0.021919 -0.206046 0.091942 -0.264747 0.089997 0.037676 -0.127682 0.147530 0.080231 -0.091839 0.266370 -0.218691 0.038050 0.163555 0.213380 0.151797 0.214397 -0.017540 0.100722 -0.056454 0.067999 0.021017 -0.137666 -0.158606 -0.033808 -0.209854 0.107382 -0.085467 -0.053739 -0.008869 -0.135996 0.074230 -0.037817 -0.002103 -0.009868 0.023676 0.065335
30 0.006824 -0.176646 0.013136 -0.213697 0.055526 -0.026260 0.058926 0.152177 0.136396 0.047534 -0.019988 0.300321 0.006001 0.134832 0.026875 -0.300419 -0.118038 -0.098560 0.145665 0.153833 0.064481 -0.118583 0.088009 0.133606 0.117100 -0.015609 -0.298693 -0.042102 0.034171 -0.010884 0.104618 -0.119570 -0.030456 -0.163398 -0.050278 -0.036762 0.189115 0.021259 -0.009540 0.039241 -0.042170 0.204935 0.203445 -0.072411 -0.019915 0.330654 0.008064 -0.022495 -0.051902 -0.062799 -0.038780 -0.002256 0.172657 -0.034594 -0.028977 0.016619 0.220841 0.034316 -0.336164 0.014338 -0.039877 -0.203523 0.095686 0.036271 -0.151363 0.153740 -0.176613 -0.029347 0.148631 0.006150 0.013826 0.014725 0.273901 -0.229340 0.235628 -0.074605 0.143806 -0.016106 0.079498 0.125624 0.053452 -0.064815 -0.193801 -0.122272 -0.146224 0.016364 0.354959 0.058632 -0.006473 0.157553 0.072637 0.015642 -0.184386 0.082107 -0.228512 0.079382 0.031081 -0.111183 0.131385 0.065570 -0.074989 0.231719 -0.190396 0.031632 0.138057 0.188295 0.135612 0.187414 -0.018776 0.090783 -0.051275 0.052349 0.016200 -0.123020 -0.133094 -0.029835 -0.185588 0.096077 -0.072554 -0.040665 -0.011287 -0.116810 0.061981 -0.030206 -0.003191 -0.008471 0.025852 0.060190
29 0.001848 -0.143752 0.010386 -0.185010 0.052586 -0.025558 0.046115 0.127564 0.113896 0.038901 -0.010230 0.256269 0.004998 0.114089 0.024651 -0.253904 -0.102979 -0.086560 0.128188 0.126531 0.055416 -0.101967 0.064007 0.113292 0.095072 -0.012560 -0.257080 -0.036534 0.036055 -0.008216 0.090734 -0.096680 -0.023638 -0.132137 -0.044070 -0.031645 0.162296 0.018145 -0.005572 0.035914 -0.032858 0.172634 0.162397 -0.068094 -0.014235 0.281552 0.003576 -0.016505 -0.046330 -0.054908 -0.031812 -0.004679 0.140644 -0.022725 -0.031817 0.017798 0.193149 0.030627 -0.282296 0.011896 -0.029499 -0.170784 0.073658 0.030616 -0.132757 0.128758 -0.151948 -0.027244 0.125619 0.012314 0.006847 0.011843 0.226763 -0.189682 0.201010 -0.055124 0.122111 -0.018828 0.067671 0.103341 0.046851 -0.048204 -0.157715 -0.103921 -0.122952 0.010719 0.301048 0.043070 -0.003010 0.124557 0.060516 0.016419 -0.155174 0.067800 -0.192080 0.069741 0.026777 -0.093592 0.111054 0.051575 -0.071159 0.195670 -0.159369 0.034142 0.115501 0.159952 0.107529 0.149878 -0.009975 0.077512 -0.039085 0.048629 0.012651 -0.100837 -0.117029 -0.025482 -0.155118 0.079027 -0.054551 -0.039050 -0.010189 -0.100318 0.047583 -0.030547 -0.002255 -0.007505 0.018530 0.044649
37 -0.000243 -0.179000 0.020389 -0.223789 0.063365 -0.026111 0.055666 0.159910 0.146211 0.048408 -0.016568 0.316395 0.009391 0.137524 0.026303 -0.307891 -0.127872 -0.102024 0.157877 0.151918 0.063844 -0.118799 0.092041 0.147292 0.118918 -0.012509 -0.308857 -0.044669 0.041731 -0.011426 0.110172 -0.122957 -0.036054 -0.171480 -0.045020 -0.044374 0.198946 0.017782 -0.010512 0.044856 -0.040811 0.215895 0.212929 -0.080223 -0.026021 0.342520 0.008542 -0.016337 -0.052369 -0.068703 -0.040862 -0.005974 0.178853 -0.028102 -0.034740 0.018847 0.237121 0.032715 -0.353456 0.017824 -0.046793 -0.210600 0.094933 0.038411 -0.161345 0.162299 -0.179401 -0.025506 0.151226 0.010772 0.016895 0.015765 0.282380 -0.237307 0.245709 -0.075312 0.152119 -0.020375 0.080566 0.128963 0.056591 -0.068887 -0.199216 -0.129457 -0.151296 0.014447 0.374930 0.062001 -0.005062 0.163332 0.068773 0.015360 -0.194427 0.086039 -0.240026 0.079983 0.033644 -0.120602 0.131211 0.072492 -0.079084 0.238096 -0.198842 0.033212 0.149204 0.198702 0.143050 0.195390 -0.018798 0.098360 -0.046551 0.059385 0.022229 -0.128907 -0.141774 -0.031282 -0.186499 0.097176 -0.077143 -0.048018 -0.004700 -0.127491 0.067718 -0.036937 -0.003599 -0.012407 0.018310 0.059015
47 -0.000880 -0.202694 0.015112 -0.261517 0.063533 -0.032247 0.059540 0.182761 0.157088 0.049084 -0.023455 0.353556 0.019641 0.161599 0.041762 -0.348642 -0.138686 -0.121054 0.180360 0.192474 0.074244 -0.140790 0.086537 0.161332 0.149055 -0.013055 -0.362842 -0.049406 0.033907 -0.027607 0.125265 -0.137592 -0.024065 -0.192348 -0.066769 -0.047213 0.225086 0.019244 -0.018439 0.067011 -0.055421 0.238779 0.236125 -0.091248 -0.012778 0.392796 0.003669 -0.031681 -0.070359 -0.077840 -0.031354 0.003038 0.206140 -0.037377 -0.037136 0.019901 0.253980 0.043470 -0.395306 0.004233 -0.042605 -0.237549 0.106728 0.043021 -0.186963 0.181038 -0.206937 -0.030170 0.177727 0.018762 0.008946 0.001672 0.330851 -0.258756 0.276066 -0.089920 0.154583 -0.024063 0.095135 0.143461 0.079351 -0.072750 -0.224209 -0.147762 -0.166591 0.007793 0.416202 0.070098 0.004217 0.177349 0.080452 0.036954 -0.226675 0.099369 -0.270825 0.087870 0.038245 -0.144973 0.153768 0.084527 -0.091415 0.270214 -0.215566 0.044190 0.146911 0.231505 0.142782 0.226600 -0.028488 0.110058 -0.058141 0.064645 0.030719 -0.143981 -0.163278 -0.022453 -0.217138 0.109852 -0.080152 -0.055256 -0.008489 -0.135599 0.064893 -0.034746 -0.013757 -0.007762 0.031666 0.071017
48 -0.000059 -0.229847 0.020505 -0.297705 0.069555 -0.035729 0.071539 0.202468 0.180482 0.053191 -0.028493 0.405568 0.022145 0.191464 0.045837 -0.406381 -0.160465 -0.138577 0.205135 0.218704 0.084331 -0.161342 0.097073 0.179056 0.166566 -0.013123 -0.421530 -0.061978 0.039734 -0.031133 0.145931 -0.160014 -0.027679 -0.213462 -0.080553 -0.055837 0.257984 0.021910 -0.019382 0.076174 -0.068566 0.268636 0.274081 -0.103916 -0.014690 0.452859 0.007703 -0.037282 -0.081626 -0.093538 -0.038286 0.004371 0.234152 -0.036171 -0.047507 0.026166 0.288562 0.052593 -0.454128 0.007538 -0.045559 -0.265427 0.124733 0.051205 -0.211322 0.209469 -0.239920 -0.037558 0.208842 0.016715 0.007388 0.003331 0.371563 -0.294645 0.321576 -0.096278 0.178217 -0.030843 0.111562 0.168000 0.093881 -0.078687 -0.251711 -0.167329 -0.191154 0.004952 0.477287 0.083859 0.003388 0.209299 0.091564 0.045159 -0.259718 0.113905 -0.307756 0.098113 0.048488 -0.164263 0.182627 0.097703 -0.104258 0.303887 -0.246176 0.048876 0.167232 0.265239 0.163087 0.256859 -0.032548 0.118854 -0.073504 0.071893 0.033916 -0.161412 -0.189676 -0.027669 -0.243143 0.131545 -0.089064 -0.067152 -0.008451 -0.157504 0.079619 -0.037576 -0.015866 -0.007720 0.040608 0.078058
32 0.000407 -0.145287 0.009015 -0.181150 0.049622 -0.023007 0.047877 0.127674 0.111791 0.037425 -0.013385 0.252649 0.006339 0.114914 0.025285 -0.246483 -0.098376 -0.083602 0.121324 0.126582 0.053098 -0.095655 0.063754 0.110956 0.094121 -0.011525 -0.255192 -0.030596 0.033459 -0.013397 0.085641 -0.095861 -0.021246 -0.129237 -0.043794 -0.032378 0.161059 0.020156 -0.009276 0.037017 -0.038991 0.171147 0.164992 -0.064631 -0.019716 0.274615 0.008532 -0.014637 -0.044440 -0.058509 -0.031074 -0.001760 0.141297 -0.021210 -0.031054 0.010175 0.185121 0.027057 -0.281809 0.008613 -0.029760 -0.165108 0.072508 0.033910 -0.132155 0.128767 -0.149245 -0.022224 0.122773 0.004599 0.006900 0.014077 0.229670 -0.191353 0.195590 -0.056231 0.118412 -0.018247 0.066200 0.102387 0.049234 -0.052266 -0.155141 -0.100417 -0.123059 0.013483 0.297138 0.047199 -0.001490 0.124032 0.059011 0.022599 -0.151612 0.063342 -0.192383 0.064901 0.029271 -0.098050 0.105987 0.051726 -0.065187 0.188812 -0.159843 0.029474 0.115232 0.162514 0.112986 0.150434 -0.015832 0.075922 -0.040397 0.044041 0.018313 -0.095403 -0.110350 -0.018628 -0.152734 0.085624 -0.054080 -0.039821 -0.009377 -0.102201 0.049144 -0.026261 -0.002463 -0.013251 0.015969 0.051187
55 0.002081 -0.127669 0.011977 -0.161228 0.044124 -0.022550 0.044034 0.113253 0.102727 0.034630 -0.007853 0.222438 0.002734 0.103528 0.018855 -0.221180 -0.086772 -0.069298 0.108727 0.109888 0.050727 -0.086556 0.058063 0.098565 0.088648 -0.009990 -0.228742 -0.032307 0.026888 -0.007651 0.078620 -0.085309 -0.018090 -0.117220 -0.034325 -0.027181 0.134194 0.015440 -0.010216 0.032713 -0.030291 0.154110 0.148716 -0.058855 -0.012310 0.246450 0.007307 -0.014874 -0.036735 -0.050768 -0.029984 -0.003208 0.130185 -0.018141 -0.027421 0.008344 0.167271 0.023588 -0.248612 0.007064 -0.025080 -0.145405 0.068248 0.024009 -0.111059 0.118785 -0.127129 -0.025027 0.109931 0.006244 0.007607 0.012466 0.205870 -0.164398 0.177701 -0.052751 0.104842 -0.021316 0.056055 0.094578 0.045506 -0.046914 -0.138416 -0.091091 -0.111151 0.009547 0.261609 0.036634 -0.005887 0.114133 0.054756 0.020751 -0.132053 0.053168 -0.175335 0.055682 0.024233 -0.083381 0.098645 0.048183 -0.056472 0.171666 -0.138854 0.027804 0.100547 0.142854 0.098733 0.135082 -0.007486 0.067661 -0.039689 0.044975 0.018131 -0.088314 -0.095493 -0.020380 -0.130098 0.070930 -0.045696 -0.038213 -0.003609 -0.083755 0.039677 -0.028794 -0.007190 -0.007181 0.016266 0.045150
40 -0.001679 -0.241093 0.016795 -0.310172 0.092016 -0.037050 0.073088 0.226426 0.189962 0.056022 -0.015763 0.424335 0.009517 0.188825 0.033611 -0.427707 -0.164768 -0.138946 0.206442 0.211437 0.095719 -0.169328 0.116788 0.190825 0.163392 -0.020491 -0.437169 -0.063844 0.050174 -0.027876 0.146273 -0.160359 -0.046733 -0.220731 -0.071077 -0.055113 0.262119 0.034817 -0.010917 0.070906 -0.069592 0.293418 0.279830 -0.105607 -0.034847 0.461195 0.008596 -0.031446 -0.068036 -0.091900 -0.055519 -0.014654 0.242864 -0.035729 -0.038704 0.011591 0.316196 0.040517 -0.475773 0.015127 -0.050389 -0.274127 0.124852 0.045216 -0.218895 0.222728 -0.248982 -0.046889 0.212092 0.016409 0.014641 0.020582 0.390123 -0.327454 0.338173 -0.105180 0.200680 -0.036955 0.107912 0.172108 0.088564 -0.086130 -0.273888 -0.171585 -0.202377 0.021871 0.507030 0.071897 -0.006990 0.222565 0.092552 0.027051 -0.259610 0.109004 -0.329197 0.115656 0.054034 -0.171618 0.192568 0.087642 -0.110391 0.323620 -0.259526 0.059791 0.196952 0.267628 0.193092 0.252005 -0.020926 0.125145 -0.074394 0.075416 0.025741 -0.165499 -0.187562 -0.033601 -0.251810 0.137821 -0.089755 -0.068059 -0.009354 -0.161703 0.076912 -0.054816 -0.013805 -0.013010 0.041050 0.075312
53 0.002758 -0.233032 0.012530 -0.302050 0.089983 -0.036471 0.069876 0.218285 0.180631 0.056247 -0.021924 0.414633 0.006689 0.182258 0.032357 -0.408958 -0.156031 -0.127397 0.200380 0.208572 0.094059 -0.162676 0.106806 0.181473 0.158180 -0.023312 -0.415020 -0.059699 0.051682 -0.026050 0.143471 -0.155979 -0.047100 -0.220269 -0.071591 -0.048705 0.259010 0.028653 -0.010541 0.067746 -0.064540 0.286710 0.264828 -0.106097 -0.035662 0.446426 0.010303 -0.023547 -0.067722 -0.093690 -0.050038 -0.013736 0.240827 -0.030274 -0.037480 0.010985 0.305339 0.037497 -0.463621 0.018110 -0.049872 -0.267467 0.126595 0.044346 -0.213505 0.215332 -0.234594 -0.043955 0.199601 0.009978 0.020751 0.023058 0.371900 -0.309954 0.329405 -0.096379 0.192218 -0.040588 0.108651 0.166546 0.084058 -0.085884 -0.267928 -0.160353 -0.196513 0.021561 0.487135 0.073660 -0.001175 0.210708 0.092516 0.027373 -0.246420 0.104161 -0.319288 0.107048 0.051620 -0.162052 0.184653 0.082626 -0.113257 0.315456 -0.255025 0.061644 0.190655 0.259423 0.182400 0.240158 -0.017332 0.120210 -0.073594 0.073613 0.025181 -0.162156 -0.183686 -0.031094 -0.241895 0.131577 -0.085378 -0.060172 -0.012849 -0.159684 0.072186 -0.054925 -0.009312 -0.018994 0.040012 0.070829
45 0.005299 -0.131297 0.009098 -0.167281 0.048952 -0.020793 0.044603 0.122435 0.108715 0.035184 -0.014426 0.232360 0.009230 0.105015 0.020842 -0.230269 -0.089773 -0.073362 0.112418 0.117802 0.047801 -0.092709 0.064590 0.102101 0.087347 -0.007344 -0.235154 -0.033829 0.030289 -0.005680 0.081066 -0.086784 -0.027638 -0.119469 -0.035402 -0.026395 0.141036 0.016871 -0.005294 0.032003 -0.033789 0.154226 0.152652 -0.059858 -0.018481 0.249042 0.008105 -0.011030 -0.037544 -0.046645 -0.027243 -0.004912 0.126475 -0.020251 -0.024428 0.009261 0.175157 0.024134 -0.259903 0.010627 -0.030503 -0.153520 0.070739 0.028645 -0.119477 0.121069 -0.135640 -0.022311 0.109921 0.009453 0.012526 0.015701 0.206373 -0.180215 0.185186 -0.049732 0.113117 -0.015366 0.062733 0.096985 0.044730 -0.048915 -0.147692 -0.089171 -0.115877 0.011320 0.274837 0.041972 -0.005245 0.114985 0.053381 0.016102 -0.142676 0.061227 -0.180229 0.062987 0.028484 -0.088000 0.103911 0.054868 -0.065604 0.174987 -0.147587 0.032433 0.106085 0.142543 0.104700 0.140717 -0.008340 0.072802 -0.037949 0.047233 0.012943 -0.089227 -0.104268 -0.023094 -0.140526 0.072228 -0.054984 -0.031969 -0.005111 -0.094247 0.046549 -0.025436 -0.002456 -0.006733 0.019905 0.042215
43 -0.001053 -0.107417 0.008331 -0.141848 0.041168 -0.021217 0.039080 0.100245 0.088682 0.027982 -0.007317 0.193746 0.000394 0.089385 0.022660 -0.192585 -0.078629 -0.062705 0.092395 0.094781 0.041691 -0.075668 0.054516 0.083342 0.073349 -0.006360 -0.196391 -0.024262 0.023343 -0.007046 0.070707 -0.068900 -0.020456 -0.097373 -0.026926 -0.022911 0.119034 0.012600 -0.003061 0.031445 -0.024017 0.131588 0.130375 -0.049149 -0.016394 0.210870 0.008352 -0.014499 -0.035320 -0.043700 -0.022188 -0.000078 0.110273 -0.016262 -0.024122 0.008130 0.149104 0.022022 -0.220441 0.005979 -0.024953 -0.123456 0.055243 0.025954 -0.101019 0.098849 -0.110176 -0.021857 0.094321 0.008327 0.012106 0.012992 0.179179 -0.148504 0.151789 -0.049346 0.090933 -0.017477 0.048093 0.081001 0.041646 -0.036125 -0.122192 -0.073086 -0.096249 0.006234 0.229837 0.038602 -0.003193 0.098666 0.046115 0.017024 -0.116382 0.053865 -0.150443 0.051424 0.021865 -0.075236 0.085476 0.043618 -0.048640 0.150627 -0.121868 0.023295 0.090581 0.119641 0.089612 0.117224 -0.004380 0.055087 -0.031167 0.037052 0.009774 -0.074379 -0.090137 -0.018558 -0.119017 0.061668 -0.042176 -0.029240 -0.004078 -0.078016 0.036576 -0.018874 -0.004510 -0.007136 0.017546 0.037046
73 -0.001652 -0.109239 0.010430 -0.143975 0.042658 -0.018012 0.038347 0.102624 0.083566 0.025111 -0.011268 0.193100 0.005246 0.092155 0.018494 -0.195648 -0.077313 -0.065954 0.093415 0.094870 0.042842 -0.078420 0.050643 0.084067 0.074304 -0.008885 -0.196332 -0.022587 0.027582 -0.012130 0.064805 -0.075053 -0.016107 -0.105189 -0.033457 -0.026973 0.119763 0.011665 -0.008213 0.027499 -0.031768 0.128952 0.131426 -0.049650 -0.015247 0.215477 0.006479 -0.013292 -0.031497 -0.041962 -0.026849 -0.002622 0.112622 -0.014753 -0.020950 0.006390 0.144972 0.020722 -0.215468 0.009972 -0.026363 -0.130554 0.061794 0.019756 -0.101794 0.103719 -0.114902 -0.020796 0.095432 0.007898 0.010656 0.011484 0.178712 -0.143739 0.154995 -0.049743 0.091352 -0.018279 0.054762 0.081725 0.041533 -0.042511 -0.121355 -0.077915 -0.092604 0.004458 0.226744 0.033749 0.000914 0.099992 0.044456 0.014044 -0.120654 0.050139 -0.151730 0.052840 0.026253 -0.077175 0.089122 0.041076 -0.054519 0.147882 -0.124418 0.023997 0.090499 0.122407 0.085089 0.116940 -0.009022 0.054770 -0.033160 0.035306 0.013892 -0.076509 -0.087772 -0.016954 -0.119611 0.067407 -0.040333 -0.030237 -0.003343 -0.072263 0.036201 -0.021521 -0.001958 -0.007177 0.018619 0.039528
44 0.003390 -0.098000 0.004618 -0.128225 0.034637 -0.015737 0.031014 0.089987 0.081024 0.026831 -0.007236 0.175254 0.001303 0.080471 0.018723 -0.171095 -0.070826 -0.060510 0.085996 0.088457 0.037033 -0.064659 0.043976 0.080622 0.070765 -0.007620 -0.174111 -0.021052 0.024505 -0.006884 0.061621 -0.069142 -0.021167 -0.093726 -0.026937 -0.023528 0.106811 0.014722 -0.006596 0.023406 -0.028039 0.121610 0.114094 -0.044459 -0.011103 0.190745 0.001675 -0.008610 -0.033706 -0.039637 -0.023569 -0.001969 0.099086 -0.018490 -0.016590 0.007581 0.132731 0.016081 -0.192999 0.003355 -0.023196 -0.115970 0.054189 0.016908 -0.087725 0.093533 -0.105293 -0.013877 0.086060 0.008629 0.011092 0.007522 0.158610 -0.134068 0.136279 -0.039308 0.078789 -0.016864 0.047880 0.073735 0.033357 -0.038200 -0.111399 -0.072159 -0.086475 0.003219 0.208414 0.031607 -0.006306 0.088510 0.037468 0.012852 -0.107884 0.042749 -0.138334 0.047570 0.022843 -0.064353 0.073086 0.040690 -0.044842 0.136795 -0.108643 0.023382 0.079916 0.113199 0.079663 0.107205 -0.011431 0.052484 -0.026473 0.028932 0.007062 -0.066983 -0.079193 -0.012006 -0.106982 0.054995 -0.039775 -0.028367 -0.003104 -0.070322 0.033520 -0.015142 -0.000795 -0.009597 0.011155 0.030950
75 0.007448 -0.130166 0.010247 -0.171917 0.045890 -0.016870 0.044231 0.116336 0.101911 0.032601 -0.005275 0.223850 0.004461 0.106906 0.020900 -0.229827 -0.087667 -0.075884 0.115185 0.118733 0.049015 -0.093466 0.057643 0.101476 0.087562 -0.013380 -0.235334 -0.027212 0.030949 -0.012316 0.077963 -0.083004 -0.022378 -0.117001 -0.036602 -0.029614 0.145640 0.015743 -0.007403 0.036968 -0.031988 0.151553 0.152376 -0.060438 -0.012519 0.251986 0.007564 -0.014278 -0.035937 -0.047037 -0.029953 -0.001980 0.130779 -0.024093 -0.019930 0.014468 0.169530 0.026669 -0.255429 0.008943 -0.030776 -0.152159 0.073399 0.024384 -0.119498 0.120739 -0.128929 -0.028219 0.112095 0.007187 0.012572 0.007969 0.210593 -0.176240 0.182417 -0.056387 0.104130 -0.014035 0.061280 0.092911 0.048171 -0.042310 -0.148080 -0.090065 -0.111461 0.009040 0.273590 0.046209 -0.002895 0.113813 0.050755 0.022308 -0.141416 0.057236 -0.181632 0.056732 0.027614 -0.086504 0.104159 0.048952 -0.060914 0.172729 -0.144303 0.031409 0.100304 0.145839 0.102435 0.136609 -0.014279 0.065915 -0.039997 0.045230 0.018879 -0.089504 -0.100075 -0.021821 -0.140064 0.075223 -0.054460 -0.032160 -0.012677 -0.091876 0.048087 -0.022975 -0.003156 -0.005106 0.018146 0.043115
31 0.004182 -0.131482 0.014505 -0.166155 0.045393 -0.025704 0.042060 0.116472 0.102270 0.035857 -0.007850 0.238905 0.010735 0.101991 0.021802 -0.235856 -0.097432 -0.074757 0.118252 0.117214 0.051188 -0.094007 0.060289 0.108834 0.091494 -0.007586 -0.234124 -0.028070 0.030933 -0.008428 0.077946 -0.083876 -0.028767 -0.118779 -0.035413 -0.028285 0.146988 0.014876 -0.003958 0.031562 -0.033008 0.160699 0.153558 -0.060778 -0.018284 0.256386 0.002187 -0.016609 -0.041750 -0.050860 -0.033290 -0.000980 0.133201 -0.023614 -0.024702 0.009997 0.176610 0.022812 -0.266969 0.004910 -0.024869 -0.155767 0.067449 0.025404 -0.122077 0.119294 -0.141000 -0.025119 0.110585 0.007296 0.009813 0.009598 0.213082 -0.178699 0.186912 -0.053527 0.114311 -0.019213 0.065714 0.098270 0.048270 -0.049890 -0.149444 -0.095901 -0.114217 0.010534 0.273259 0.040514 -0.002903 0.115102 0.050727 0.021408 -0.139059 0.059023 -0.186075 0.061383 0.024443 -0.089750 0.101238 0.054451 -0.067098 0.178949 -0.146740 0.026810 0.104620 0.148493 0.105010 0.143976 -0.008700 0.069820 -0.040818 0.039530 0.012161 -0.094126 -0.104614 -0.017319 -0.145746 0.081157 -0.057526 -0.032856 -0.009521 -0.094877 0.044256 -0.030901 -0.004816 -0.007253 0.013614 0.045191
74 -0.000142 -0.122437 0.009016 -0.160291 0.042751 -0.014335 0.036920 0.112018 0.094679 0.027754 -0.006967 0.213500 0.001772 0.102201 0.021914 -0.216038 -0.078954 -0.067235 0.109327 0.104050 0.040501 -0.084909 0.055253 0.099687 0.079393 -0.005401 -0.218388 -0.027095 0.030175 -0.009586 0.077524 -0.077568 -0.023614 -0.109996 -0.032100 -0.028948 0.131844 0.011705 -0.007427 0.037701 -0.035397 0.147083 0.139454 -0.053398 -0.011591 0.234606 0.002677 -0.017567 -0.035083 -0.048096 -0.026995 -0.003022 0.120063 -0.018420 -0.022093 0.014164 0.159410 0.025138 -0.242488 0.009477 -0.029180 -0.144207 0.067415 0.023286 -0.112298 0.109881 -0.120802 -0.025650 0.101942 0.005616 0.011122 0.009340 0.197497 -0.165296 0.170480 -0.052667 0.103294 -0.018194 0.058703 0.086316 0.041582 -0.044756 -0.138929 -0.081508 -0.103860 0.004105 0.248459 0.043587 -0.005453 0.111133 0.052225 0.016715 -0.129385 0.052460 -0.169239 0.054171 0.029341 -0.081569 0.098988 0.043264 -0.056028 0.159988 -0.131806 0.025701 0.099576 0.136559 0.089383 0.132788 -0.013562 0.061878 -0.040380 0.037271 0.018316 -0.086362 -0.095142 -0.019508 -0.132272 0.066659 -0.046755 -0.037234 -0.010991 -0.083996 0.042213 -0.018932 -0.008828 -0.009335 0.016087 0.038430
13 0.005229 -0.103693 0.010717 -0.135085 0.034418 -0.018141 0.034701 0.091686 0.084122 0.030346 -0.010954 0.180931 0.007984 0.079020 0.018061 -0.181476 -0.076691 -0.060812 0.089852 0.090108 0.042894 -0.072926 0.046335 0.083727 0.067438 -0.006242 -0.181425 -0.023408 0.024926 -0.007523 0.060461 -0.067189 -0.019939 -0.098103 -0.030127 -0.027136 0.118868 0.015625 -0.005777 0.026890 -0.024537 0.123919 0.120084 -0.044527 -0.012257 0.204310 0.004763 -0.009650 -0.032848 -0.038352 -0.026117 -0.000521 0.106511 -0.015726 -0.021499 0.007437 0.132966 0.016672 -0.203263 0.003951 -0.020114 -0.120874 0.054090 0.019576 -0.090516 0.092008 -0.108857 -0.020389 0.092210 0.003586 0.004564 0.006991 0.167484 -0.141784 0.145715 -0.045556 0.085192 -0.015057 0.046165 0.072601 0.036994 -0.040517 -0.115968 -0.076210 -0.094075 0.007681 0.218459 0.033303 -0.004802 0.096672 0.046881 0.012769 -0.114133 0.044139 -0.141646 0.045798 0.021299 -0.073546 0.077150 0.040409 -0.046333 0.139958 -0.115525 0.023848 0.082009 0.112008 0.083181 0.108862 -0.009100 0.051241 -0.027080 0.033505 0.011104 -0.069024 -0.085758 -0.018739 -0.114496 0.063302 -0.040938 -0.029619 -0.004551 -0.069206 0.039899 -0.019556 -0.004381 -0.004562 0.015454 0.038031
34 -0.000294 -0.114535 0.011934 -0.140597 0.043269 -0.020562 0.039797 0.101387 0.086709 0.029013 -0.012531 0.197796 0.006109 0.090310 0.017281 -0.198322 -0.073850 -0.064039 0.101607 0.102039 0.041830 -0.078943 0.057022 0.086030 0.077378 -0.012231 -0.198977 -0.028336 0.024457 -0.005995 0.072191 -0.073520 -0.022841 -0.102307 -0.030986 -0.022662 0.128148 0.015501 -0.005854 0.033292 -0.031092 0.137245 0.133353 -0.049008 -0.014689 0.214585 0.006730 -0.015117 -0.031862 -0.040516 -0.023057 -0.002054 0.114314 -0.014724 -0.024368 0.005829 0.148606 0.021941 -0.222525 0.006918 -0.025849 -0.127730 0.055230 0.024661 -0.101007 0.101193 -0.118201 -0.023964 0.099884 0.006934 0.006507 0.009403 0.177793 -0.147960 0.156853 -0.047029 0.089511 -0.011783 0.053158 0.083245 0.036766 -0.041178 -0.124134 -0.080453 -0.094763 0.010520 0.233009 0.037177 -0.005082 0.102200 0.042545 0.016032 -0.121272 0.051089 -0.154973 0.054216 0.022062 -0.073884 0.085915 0.040990 -0.054912 0.154967 -0.124646 0.023093 0.086060 0.125445 0.090054 0.118999 -0.009918 0.060367 -0.030669 0.037495 0.012699 -0.073382 -0.089002 -0.017742 -0.118529 0.068700 -0.045949 -0.027190 -0.007145 -0.078248 0.040741 -0.021317 -0.007738 -0.005091 0.018281 0.039134
46 -0.001094 -0.129410 0.013509 -0.159510 0.046734 -0.016760 0.043728 0.117263 0.097422 0.034007 -0.007284 0.225795 0.002226 0.106632 0.020095 -0.224945 -0.085271 -0.073567 0.109918 0.113294 0.043671 -0.090167 0.059144 0.103568 0.089335 -0.014074 -0.230472 -0.031681 0.029752 -0.011785 0.076433 -0.083004 -0.024864 -0.113051 -0.035565 -0.029203 0.138126 0.013340 -0.003216 0.037822 -0.033448 0.149370 0.150932 -0.056723 -0.018321 0.247989 0.006009 -0.014338 -0.042529 -0.051111 -0.022972 -0.002274 0.124621 -0.018876 -0.027647 0.014179 0.169407 0.024060 -0.254974 0.006768 -0.026873 -0.149225 0.063393 0.024902 -0.117073 0.115867 -0.131594 -0.025188 0.110596 0.005816 0.006485 0.009185 0.202609 -0.169092 0.180288 -0.051134 0.101696 -0.019062 0.057091 0.087810 0.048659 -0.046495 -0.145071 -0.090113 -0.107558 0.005393 0.264737 0.042694 -0.006178 0.117534 0.055620 0.018081 -0.135250 0.062922 -0.172047 0.059893 0.026013 -0.083677 0.096799 0.049107 -0.064417 0.168170 -0.142843 0.029332 0.099300 0.140031 0.098676 0.136566 -0.007077 0.070021 -0.037796 0.046117 0.015616 -0.085490 -0.104100 -0.022127 -0.133589 0.070608 -0.055107 -0.033681 -0.011126 -0.091064 0.047148 -0.020264 -0.001893 -0.011362 0.015026 0.041218
57 0.002671 -0.093024 0.004354 -0.122472 0.034205 -0.013501 0.028649 0.083833 0.074935 0.024846 -0.007438 0.162906 0.006684 0.075356 0.013614 -0.166265 -0.066260 -0.053174 0.080392 0.082364 0.032736 -0.064816 0.047115 0.072351 0.062349 -0.004833 -0.168244 -0.018320 0.022578 -0.008719 0.054119 -0.058712 -0.016420 -0.085325 -0.027082 -0.018326 0.098433 0.009428 -0.007069 0.028698 -0.021863 0.111036 0.108403 -0.043649 -0.011644 0.182797 0.005507 -0.011414 -0.026453 -0.033619 -0.024230 -0.001478 0.091254 -0.016161 -0.019201 0.004804 0.122954 0.020870 -0.183212 0.008517 -0.023433 -0.103785 0.044929 0.020628 -0.081646 0.083027 -0.095263 -0.018534 0.079119 0.006348 0.009761 0.009669 0.152947 -0.127034 0.132484 -0.041241 0.078048 -0.012423 0.047151 0.069580 0.034106 -0.028933 -0.100452 -0.063393 -0.077466 0.007851 0.194229 0.027683 -0.003818 0.085680 0.040346 0.015034 -0.103154 0.044832 -0.131086 0.043285 0.020382 -0.062307 0.074633 0.032927 -0.041952 0.126939 -0.105596 0.018498 0.073628 0.107181 0.074478 0.102838 -0.008704 0.050934 -0.025176 0.031153 0.007136 -0.062412 -0.074335 -0.013307 -0.095848 0.051375 -0.037651 -0.025453 -0.003323 -0.065466 0.029218 -0.017852 -0.001863 -0.008449 0.013547 0.030141
51 0.001826 -0.070201 0.004882 -0.089276 0.024785 -0.010678 0.021791 0.061575 0.057101 0.020867 -0.004260 0.124906 0.001950 0.055207 0.011741 -0.125046 -0.048945 -0.037825 0.059357 0.058742 0.025076 -0.050055 0.035159 0.053949 0.050140 -0.004879 -0.125511 -0.018357 0.019745 -0.002214 0.042657 -0.046396 -0.011746 -0.063600 -0.020751 -0.015816 0.082036 0.008012 -0.007284 0.022225 -0.017150 0.086582 0.079559 -0.034548 -0.008073 0.139387 0.005714 -0.009481 -0.019507 -0.026963 -0.015966 -0.003908 0.073825 -0.015305 -0.015622 0.003878 0.095490 0.009833 -0.138614 0.005853 -0.013093 -0.083189 0.035011 0.018627 -0.063589 0.068693 -0.075251 -0.010784 0.059458 0.003613 0.006986 0.004369 0.113917 -0.097923 0.100009 -0.031169 0.061873 -0.010291 0.030236 0.047545 0.026334 -0.025520 -0.078704 -0.053995 -0.059317 0.006112 0.146738 0.024750 -0.005055 0.062918 0.025024 0.013073 -0.073994 0.033414 -0.100322 0.028796 0.011144 -0.047521 0.052568 0.029510 -0.032420 0.098819 -0.077575 0.017348 0.055855 0.075862 0.058508 0.079505 -0.006509 0.036461 -0.019111 0.025492 0.004600 -0.047357 -0.053286 -0.008238 -0.073661 0.042804 -0.029727 -0.017921 -0.002058 -0.051220 0.023417 -0.015947 -0.001213 -0.001418 0.009006 0.022666
7 0.004047 -0.073229 0.003160 -0.094711 0.023165 -0.009853 0.024346 0.068071 0.061678 0.017905 -0.007412 0.130307 0.003744 0.054913 0.015718 -0.128947 -0.049607 -0.042955 0.062068 0.063819 0.028547 -0.052300 0.034939 0.061464 0.053423 -0.008645 -0.134967 -0.018970 0.014774 -0.006560 0.047522 -0.046042 -0.016356 -0.070392 -0.023403 -0.017195 0.079239 0.005225 -0.005205 0.017912 -0.022698 0.088445 0.087266 -0.030111 -0.008873 0.144060 0.004537 -0.008837 -0.020042 -0.027791 -0.018234 0.000791 0.073073 -0.007409 -0.018091 0.008144 0.097753 0.011915 -0.143049 0.009387 -0.014688 -0.084588 0.039427 0.017737 -0.067672 0.068697 -0.074703 -0.009087 0.062816 0.000468 0.004386 0.009126 0.114717 -0.096718 0.104054 -0.029291 0.060423 -0.008439 0.034258 0.050242 0.026108 -0.022994 -0.083376 -0.047756 -0.064488 0.002074 0.149920 0.024313 -0.003759 0.068250 0.033345 0.009896 -0.075986 0.032856 -0.101758 0.037036 0.017478 -0.053609 0.054568 0.028893 -0.037129 0.100138 -0.085314 0.015497 0.057787 0.078953 0.054053 0.079379 -0.002602 0.038650 -0.018831 0.027922 0.006808 -0.053636 -0.060880 -0.011166 -0.078777 0.040751 -0.032900 -0.016255 -0.006094 -0.047956 0.028251 -0.013749 -0.005880 -0.007134 0.014100 0.028656
9 -0.000156 -0.079400 0.004040 -0.102961 0.028699 -0.013572 0.025298 0.075250 0.066727 0.019404 -0.004987 0.143087 0.003661 0.060206 0.013128 -0.141644 -0.056364 -0.043631 0.068388 0.071753 0.025823 -0.051716 0.041574 0.059755 0.053475 -0.003922 -0.144858 -0.022194 0.018018 -0.003980 0.050342 -0.050829 -0.016939 -0.074811 -0.020014 -0.020469 0.091537 0.009479 -0.007674 0.025154 -0.024046 0.090483 0.095556 -0.031777 -0.012572 0.151626 0.003055 -0.012003 -0.026497 -0.034400 -0.019598 -0.001648 0.077540 -0.010927 -0.013145 0.005193 0.103733 0.015811 -0.159094 0.004588 -0.017564 -0.092304 0.039130 0.018727 -0.070157 0.072172 -0.080468 -0.013872 0.066868 0.003961 0.007533 0.009802 0.132460 -0.108137 0.114547 -0.035389 0.063858 -0.007109 0.033678 0.059862 0.030614 -0.029602 -0.093569 -0.059644 -0.069192 0.004967 0.166390 0.025600 -0.003158 0.072981 0.034865 0.010087 -0.082369 0.039850 -0.110410 0.033274 0.017718 -0.054635 0.062472 0.032612 -0.041225 0.103673 -0.091302 0.018545 0.064603 0.089285 0.060499 0.090120 -0.010643 0.038245 -0.019913 0.027132 0.012927 -0.056320 -0.063451 -0.013449 -0.087764 0.049702 -0.033918 -0.019379 -0.006183 -0.057293 0.026254 -0.015058 -0.006714 -0.001373 0.013162 0.029385
10 0.001150 -0.076373 0.004760 -0.095612 0.028717 -0.008689 0.026767 0.068436 0.063286 0.016409 -0.003912 0.135614 0.000402 0.064010 0.011802 -0.130238 -0.050707 -0.041237 0.064347 0.067043 0.030209 -0.052318 0.036174 0.063666 0.049948 -0.007430 -0.133819 -0.020461 0.015830 -0.008344 0.043341 -0.054215 -0.012246 -0.067087 -0.024301 -0.017513 0.086314 0.005460 -0.007311 0.017197 -0.021438 0.089103 0.092334 -0.030452 -0.005782 0.150237 0.007419 -0.010041 -0.019714 -0.032236 -0.015714 -0.000782 0.078568 -0.012928 -0.016823 0.008669 0.101846 0.011308 -0.153406 0.007413 -0.015478 -0.087550 0.036075 0.016541 -0.068577 0.070391 -0.080175 -0.015369 0.061371 0.000506 0.008573 0.003181 0.124733 -0.101227 0.108808 -0.030146 0.062641 -0.012033 0.031775 0.054232 0.022699 -0.029335 -0.084536 -0.050092 -0.067908 0.005775 0.154962 0.022025 -0.002035 0.066607 0.033611 0.010677 -0.078246 0.037743 -0.102920 0.037200 0.014525 -0.055238 0.059371 0.031800 -0.037174 0.100632 -0.083645 0.017500 0.058391 0.083232 0.062748 0.085282 -0.009364 0.041567 -0.017850 0.021142 0.010531 -0.053761 -0.058768 -0.011012 -0.079483 0.046444 -0.031515 -0.023302 -0.004237 -0.054009 0.026151 -0.014366 0.000535 -0.006242 0.008836 0.027353
68 -0.001944 -0.057791 0.006662 -0.077209 0.024719 -0.008270 0.022396 0.054641 0.046595 0.013714 -0.007250 0.110661 0.004891 0.046704 0.012065 -0.106159 -0.046107 -0.034692 0.054520 0.056914 0.021588 -0.041175 0.028673 0.051847 0.040493 -0.004541 -0.113146 -0.013963 0.015382 -0.003989 0.039522 -0.040786 -0.010550 -0.054232 -0.015348 -0.015099 0.065504 0.009303 -0.001844 0.017008 -0.012296 0.075911 0.070042 -0.030279 -0.004328 0.116478 0.004312 -0.004351 -0.021870 -0.020606 -0.013588 -0.004221 0.059539 -0.009947 -0.013783 0.007993 0.080175 0.008701 -0.120483 0.004927 -0.011035 -0.073434 0.036672 0.014607 -0.052135 0.058398 -0.065058 -0.010967 0.056414 0.006818 0.001079 0.001636 0.098240 -0.085317 0.083064 -0.023310 0.054210 -0.008329 0.025864 0.045493 0.021326 -0.018196 -0.070969 -0.041812 -0.050401 0.004525 0.127632 0.017498 0.001124 0.057727 0.028591 0.009408 -0.067158 0.030825 -0.085020 0.027768 0.011955 -0.042173 0.045842 0.023106 -0.029950 0.080058 -0.068665 0.016016 0.047382 0.068445 0.048973 0.063939 -0.008515 0.035774 -0.017670 0.023858 0.003454 -0.039217 -0.048058 -0.008814 -0.063804 0.034658 -0.026081 -0.015141 -0.007594 -0.037933 0.024882 -0.009513 0.000601 -0.001119 0.005881 0.022729
6 0.001614 -0.056504 0.005852 -0.067406 0.020149 -0.008053 0.020035 0.053433 0.043584 0.014596 -0.002737 0.096794 0.001340 0.042751 0.011856 -0.097903 -0.039090 -0.034947 0.050742 0.046665 0.018991 -0.041159 0.025062 0.041014 0.041762 -0.006199 -0.098712 -0.016502 0.013459 -0.000838 0.034481 -0.040700 -0.008051 -0.051461 -0.015252 -0.012666 0.062395 0.009905 -0.006601 0.011787 -0.016344 0.067895 0.068949 -0.026865 -0.009910 0.108487 0.004515 -0.010595 -0.013271 -0.018436 -0.012117 0.000450 0.052279 -0.008234 -0.008623 0.002728 0.073089 0.009272 -0.107467 0.000909 -0.008430 -0.062146 0.029735 0.012056 -0.049454 0.047956 -0.060146 -0.009251 0.045133 0.000336 0.006179 0.003703 0.087716 -0.070571 0.079783 -0.023620 0.048209 -0.004120 0.024938 0.041827 0.016216 -0.016571 -0.060396 -0.037713 -0.044156 -0.000372 0.118485 0.016375 -0.001983 0.049910 0.025455 0.009366 -0.058224 0.027760 -0.076736 0.026747 0.012280 -0.041981 0.046393 0.019856 -0.023760 0.072957 -0.060924 0.012949 0.041551 0.065011 0.041887 0.063566 -0.002574 0.027646 -0.013099 0.020339 0.005903 -0.036097 -0.043407 -0.004210 -0.057586 0.030098 -0.021860 -0.016066 -0.002444 -0.040181 0.021742 -0.015072 -0.006361 -0.002314 0.012755 0.015709
8 0.001418 -0.058111 0.006974 -0.068842 0.016837 -0.008100 0.019533 0.050923 0.042986 0.016776 -0.005845 0.095946 -0.000049 0.043544 0.012777 -0.098432 -0.035432 -0.031614 0.051855 0.050980 0.018923 -0.037976 0.025373 0.039911 0.038878 -0.000276 -0.098089 -0.010204 0.011134 -0.001601 0.032543 -0.036617 -0.009222 -0.047483 -0.017578 -0.013998 0.063932 0.005516 0.000357 0.018668 -0.015348 0.064339 0.061397 -0.021082 -0.005495 0.107939 -0.000675 -0.007094 -0.018373 -0.018910 -0.013875 -0.003959 0.058482 -0.006227 -0.013953 0.004571 0.068374 0.009743 -0.110181 0.002104 -0.014204 -0.066537 0.029743 0.013115 -0.047325 0.047608 -0.053266 -0.010919 0.046420 0.000002 0.001071 0.002931 0.086305 -0.073056 0.075636 -0.021416 0.043036 -0.007950 0.024697 0.039099 0.021338 -0.022972 -0.063751 -0.036790 -0.049878 0.007554 0.116278 0.018154 0.000498 0.046081 0.024380 0.005398 -0.059466 0.024688 -0.076243 0.022703 0.009586 -0.040747 0.040277 0.017962 -0.023121 0.069775 -0.064243 0.010841 0.046724 0.058018 0.044248 0.055340 -0.006214 0.026100 -0.019516 0.020135 0.008386 -0.037830 -0.047124 -0.004571 -0.059665 0.030618 -0.024184 -0.015247 -0.005260 -0.040923 0.022150 -0.010154 -0.000954 -0.006785 0.011078 0.016543
15 -0.001952 -0.093460 0.010865 -0.119339 0.032341 -0.011133 0.031391 0.078851 0.072499 0.022337 -0.005889 0.159352 0.004939 0.074466 0.016819 -0.160225 -0.066139 -0.054230 0.076608 0.077120 0.037138 -0.061539 0.043493 0.073228 0.059239 -0.005997 -0.164713 -0.022261 0.021184 -0.009834 0.053228 -0.058803 -0.012925 -0.084624 -0.026035 -0.021144 0.098489 0.010877 -0.001506 0.026611 -0.026086 0.108069 0.104531 -0.040442 -0.007972 0.179230 -0.000429 -0.010600 -0.028012 -0.036871 -0.020669 -0.002351 0.090559 -0.013399 -0.019571 0.004242 0.115148 0.013468 -0.178518 0.009184 -0.016404 -0.102563 0.049290 0.016022 -0.080640 0.086618 -0.092053 -0.016539 0.081426 0.008887 0.007993 0.005531 0.148252 -0.125046 0.123694 -0.038871 0.076788 -0.011866 0.038498 0.062497 0.032160 -0.029923 -0.100738 -0.067443 -0.081652 0.003586 0.187671 0.025703 -0.001638 0.083852 0.039262 0.014591 -0.094550 0.039335 -0.127628 0.043827 0.020468 -0.057814 0.072015 0.038314 -0.039992 0.121906 -0.102809 0.022163 0.075019 0.098202 0.072495 0.098375 -0.007944 0.044301 -0.026342 0.029223 0.009031 -0.065726 -0.074368 -0.010428 -0.095132 0.056446 -0.039777 -0.021828 -0.002286 -0.065557 0.035202 -0.015208 -0.007620 -0.005479 0.014676 0.033041
5 0.001415 -0.068589 0.002037 -0.083188 0.025543 -0.012064 0.024517 0.055688 0.055307 0.014353 -0.002289 0.117460 0.000296 0.052665 0.013085 -0.117566 -0.047089 -0.040644 0.055889 0.059433 0.026450 -0.041996 0.027280 0.055895 0.046009 -0.007343 -0.116783 -0.018556 0.014007 -0.005550 0.037429 -0.044893 -0.014087 -0.058339 -0.016541 -0.018193 0.072939 0.009311 -0.004483 0.017945 -0.013377 0.076674 0.073720 -0.029029 -0.010148 0.126198 0.003063 -0.008352 -0.019918 -0.027097 -0.015204 0.001247 0.068307 -0.014059 -0.010565 0.003145 0.087792 0.011276 -0.126249 0.001125 -0.015698 -0.077943 0.036853 0.016812 -0.061525 0.059880 -0.063684 -0.011928 0.057128 0.000817 0.002784 0.006163 0.102202 -0.090065 0.091451 -0.029935 0.051801 -0.011812 0.027175 0.043554 0.020108 -0.022921 -0.074039 -0.046183 -0.058411 0.000782 0.137658 0.024457 0.000378 0.058474 0.029721 0.007757 -0.068314 0.030873 -0.092185 0.031045 0.009960 -0.046651 0.053914 0.028893 -0.034780 0.087626 -0.074014 0.010839 0.048513 0.071318 0.051851 0.069922 -0.008657 0.032925 -0.020896 0.021738 0.008884 -0.047713 -0.053956 -0.006064 -0.065860 0.038669 -0.023010 -0.016151 -0.003980 -0.043455 0.023348 -0.016865 -0.006106 -0.002202 0.007497 0.026333
14 0.000235 -0.095857 0.012304 -0.121885 0.034085 -0.013938 0.027915 0.082959 0.072164 0.026635 -0.011984 0.165214 0.003314 0.074211 0.015800 -0.161092 -0.062809 -0.053472 0.082370 0.080349 0.037417 -0.060693 0.044379 0.076364 0.062254 -0.004686 -0.162425 -0.018754 0.017331 -0.004129 0.058928 -0.061696 -0.017891 -0.083844 -0.024439 -0.023138 0.101549 0.010736 -0.006710 0.024607 -0.026887 0.110756 0.110238 -0.039215 -0.010962 0.180884 0.004830 -0.007785 -0.028001 -0.032013 -0.022034 -0.002608 0.092023 -0.013984 -0.016846 0.007099 0.118486 0.021549 -0.186443 0.004521 -0.021121 -0.111774 0.052621 0.016456 -0.086881 0.087408 -0.092990 -0.018579 0.079773 0.003820 0.003569 0.010349 0.146576 -0.120652 0.132030 -0.036842 0.078637 -0.012272 0.042889 0.063673 0.030632 -0.033120 -0.100963 -0.062592 -0.083133 0.009962 0.192552 0.029163 0.000385 0.083147 0.037174 0.011137 -0.100035 0.042128 -0.128723 0.046490 0.016402 -0.059234 0.074745 0.036934 -0.046705 0.125323 -0.102890 0.022939 0.071432 0.105742 0.075262 0.103521 -0.011918 0.048324 -0.030758 0.027667 0.008406 -0.063175 -0.070685 -0.015623 -0.102232 0.052589 -0.039243 -0.023285 -0.004789 -0.066164 0.032215 -0.021038 -0.001544 -0.007314 0.010410 0.031868
16 0.000491 -0.059060 0.006056 -0.076732 0.020209 -0.010237 0.021953 0.053830 0.048090 0.016270 -0.007183 0.107603 0.000891 0.051350 0.013258 -0.107461 -0.045271 -0.038455 0.049038 0.049729 0.021660 -0.040416 0.031116 0.046281 0.042722 -0.003976 -0.106228 -0.015086 0.012303 -0.007967 0.034057 -0.038208 -0.012172 -0.059230 -0.015461 -0.012242 0.069962 0.004171 -0.005776 0.012945 -0.017700 0.074796 0.072506 -0.026587 -0.005484 0.114843 0.004561 -0.003979 -0.021065 -0.019548 -0.010372 -0.000980 0.061013 -0.008034 -0.009815 0.005370 0.078996 0.012048 -0.118590 0.000913 -0.011107 -0.073558 0.030588 0.008961 -0.052529 0.054304 -0.061702 -0.007320 0.050217 0.000488 0.007354 0.001366 0.098135 -0.082915 0.086849 -0.026471 0.053292 -0.010456 0.026149 0.044635 0.024952 -0.023338 -0.066528 -0.043839 -0.050870 0.007716 0.125730 0.022697 0.000585 0.055000 0.021413 0.009357 -0.068535 0.029074 -0.082017 0.030114 0.015513 -0.042501 0.044914 0.019230 -0.024992 0.082950 -0.062568 0.011377 0.046011 0.064312 0.044825 0.064062 -0.002336 0.033055 -0.018712 0.023574 0.003069 -0.039438 -0.045902 -0.006869 -0.065494 0.037342 -0.023500 -0.018350 -0.003906 -0.039772 0.019075 -0.013555 0.000537 -0.001828 0.009019 0.024298
54 -0.002389 -0.071505 0.008501 -0.084644 0.021393 -0.012887 0.022029 0.058387 0.055639 0.014583 -0.008645 0.117448 0.005082 0.056713 0.009307 -0.117796 -0.049164 -0.040882 0.061675 0.057645 0.024139 -0.047269 0.034016 0.057392 0.047298 -0.008994 -0.123638 -0.016940 0.013298 -0.008633 0.041506 -0.042098 -0.012511 -0.065853 -0.017073 -0.014962 0.072760 0.009392 -0.000267 0.018374 -0.017791 0.080445 0.079595 -0.029475 -0.007240 0.132887 -0.000026 -0.009068 -0.018896 -0.024525 -0.018726 -0.002485 0.071836 -0.011488 -0.012829 0.002901 0.089554 0.014397 -0.133439 0.005857 -0.017197 -0.078112 0.034271 0.012798 -0.062578 0.059980 -0.068961 -0.015464 0.060254 0.007824 0.008622 0.005690 0.110195 -0.087506 0.094907 -0.026213 0.054022 -0.009512 0.031126 0.048255 0.023530 -0.024049 -0.077631 -0.051246 -0.057826 0.001275 0.140729 0.020345 -0.003704 0.062313 0.031373 0.009094 -0.075654 0.030904 -0.090615 0.033960 0.010675 -0.049272 0.055150 0.024001 -0.031614 0.088623 -0.071440 0.014096 0.052951 0.073334 0.056643 0.076008 -0.009201 0.039771 -0.023530 0.021864 0.008008 -0.045236 -0.057111 -0.013332 -0.070009 0.037400 -0.025178 -0.018265 -0.004451 -0.043627 0.022626 -0.015373 -0.003180 -0.003565 0.013987 0.023444
41 -0.002500 -0.048684 0.005422 -0.057750 0.018922 -0.007305 0.017172 0.040227 0.037844 0.008050 -0.003038 0.082241 -0.000180 0.038182 0.008937 -0.076691 -0.031921 -0.025819 0.040873 0.042749 0.015677 -0.035952 0.019848 0.035249 0.033003 -0.002065 -0.086121 -0.009934 0.010700 -0.005087 0.026860 -0.026933 -0.011576 -0.040394 -0.014537 -0.008168 0.051881 0.004219 -0.005751 0.013128 -0.009255 0.052852 0.054012 -0.024186 -0.004843 0.090711 0.004230 -0.001984 -0.012943 -0.019863 -0.009104 -0.002457 0.044102 -0.010973 -0.005171 0.002334 0.062044 0.011814 -0.090483 -0.000643 -0.009541 -0.051491 0.025443 0.012940 -0.040177 0.043410 -0.050636 -0.009473 0.041418 0.004673 0.005018 0.000859 0.076234 -0.059815 0.062064 -0.021266 0.040332 -0.006125 0.021351 0.036900 0.018243 -0.017515 -0.053178 -0.032636 -0.035785 -0.000549 0.094449 0.015719 -0.000304 0.039439 0.017282 0.006778 -0.048680 0.019096 -0.064808 0.023092 0.007751 -0.027849 0.037283 0.020760 -0.024902 0.058463 -0.047408 0.008597 0.039671 0.052520 0.035544 0.048009 -0.007274 0.025538 -0.013945 0.014118 0.002162 -0.033976 -0.039695 -0.008852 -0.052283 0.026797 -0.017439 -0.013705 -0.006027 -0.034399 0.016355 -0.005071 -0.004070 -0.003597 0.009530 0.011682
1 -0.002901 -0.065176 0.009135 -0.080972 0.023011 -0.014313 0.019117 0.059088 0.051820 0.016263 -0.007219 0.107524 0.005375 0.047193 0.008640 -0.110456 -0.040468 -0.037342 0.057801 0.052834 0.024557 -0.043438 0.029605 0.050449 0.043418 -0.003028 -0.107576 -0.011044 0.015937 -0.006370 0.033662 -0.039152 -0.011558 -0.055227 -0.019800 -0.017592 0.064415 0.005559 0.000361 0.012982 -0.018835 0.069536 0.074127 -0.024436 -0.008485 0.115956 -0.000130 -0.006478 -0.015422 -0.020993 -0.016389 0.001447 0.060153 -0.006085 -0.015324 0.006152 0.080270 0.015634 -0.124415 0.006035 -0.011146 -0.075250 0.030198 0.013394 -0.058047 0.057343 -0.062493 -0.008692 0.049176 0.003709 0.004121 0.001717 0.102618 -0.082174 0.083401 -0.027310 0.053835 -0.010598 0.030860 0.041034 0.020240 -0.025528 -0.068337 -0.046586 -0.054697 0.001026 0.126469 0.018962 0.001800 0.055740 0.026236 0.009312 -0.065643 0.027730 -0.085391 0.027643 0.011957 -0.044277 0.051105 0.025360 -0.032054 0.084978 -0.065676 0.012997 0.050908 0.072222 0.050070 0.068313 -0.006830 0.032896 -0.019129 0.018452 0.008233 -0.038882 -0.050783 -0.010768 -0.062891 0.037718 -0.027912 -0.018521 -0.003894 -0.040278 0.018106 -0.012231 -0.004078 -0.004794 0.008102 0.022296
33 0.000806 -0.049557 0.004953 -0.056889 0.019613 -0.010908 0.014481 0.046515 0.039427 0.011937 -0.001460 0.082264 0.002550 0.035087 0.011133 -0.079937 -0.033303 -0.024064 0.037981 0.041118 0.019907 -0.032933 0.024990 0.034173 0.029888 -0.003825 -0.086416 -0.011207 0.012925 -0.002070 0.028049 -0.028160 -0.008664 -0.039818 -0.017358 -0.013425 0.051137 0.005580 -0.006046 0.016588 -0.013511 0.057610 0.056637 -0.023667 -0.007137 0.092405 0.000403 -0.008238 -0.016653 -0.018318 -0.011638 0.001753 0.049454 -0.009603 -0.012475 0.005174 0.059580 0.009887 -0.089854 0.005858 -0.006670 -0.058471 0.022394 0.011652 -0.039311 0.040728 -0.044236 -0.010708 0.042274 0.005856 0.006429 0.003478 0.077515 -0.061023 0.062761 -0.017225 0.040028 -0.006574 0.022960 0.033619 0.020403 -0.018376 -0.054116 -0.035368 -0.039863 0.005888 0.096290 0.014741 -0.000645 0.043320 0.022417 0.009351 -0.050760 0.019723 -0.061303 0.025078 0.007252 -0.035258 0.040031 0.016465 -0.025011 0.060362 -0.052983 0.014701 0.039010 0.049067 0.037766 0.051247 -0.001637 0.023047 -0.015186 0.015956 0.006405 -0.035178 -0.034921 -0.006014 -0.050044 0.023962 -0.021746 -0.016032 -0.000951 -0.032291 0.018851 -0.007863 -0.000853 -0.004463 0.004460 0.013495
12 -0.003041 -0.066619 0.005970 -0.083674 0.020431 -0.011822 0.017970 0.053557 0.047843 0.019028 -0.001587 0.115085 0.001293 0.053084 0.011379 -0.108226 -0.047182 -0.035420 0.057948 0.051720 0.025105 -0.040358 0.031561 0.048120 0.039382 -0.006898 -0.110607 -0.013975 0.014415 -0.005078 0.040664 -0.040880 -0.015170 -0.057644 -0.016669 -0.011501 0.068613 0.009960 -0.003637 0.019067 -0.015987 0.075110 0.075818 -0.029487 -0.008462 0.126148 0.004605 -0.008250 -0.022615 -0.025554 -0.015469 0.000140 0.062347 -0.013764 -0.015742 0.002036 0.084015 0.012709 -0.125343 0.006549 -0.011470 -0.071419 0.030813 0.015517 -0.060402 0.058202 -0.062634 -0.011550 0.057299 0.006631 0.008861 0.007448 0.102688 -0.083321 0.088617 -0.027005 0.055944 -0.005323 0.029868 0.048993 0.021156 -0.021296 -0.073780 -0.046174 -0.057351 0.007608 0.131027 0.019635 -0.004063 0.053947 0.025378 0.010894 -0.069360 0.028183 -0.084320 0.026662 0.015472 -0.046663 0.050451 0.024239 -0.033697 0.082077 -0.069781 0.015021 0.051194 0.066422 0.049640 0.067564 -0.001317 0.029586 -0.021284 0.020737 0.006925 -0.041387 -0.049401 -0.006486 -0.068401 0.039698 -0.029122 -0.020284 -0.005153 -0.045363 0.023697 -0.009487 -0.004210 -0.003722 0.005162 0.021649
