78 128
11 -0.093066 -0.199318 0.015955 -0.149274 -0.060634 -0.024876 0.082793 0.132045 -0.019832 -0.018371 -0.044311 0.288440 0.098238 0.076489 -0.115140 -0.236858 -0.023816 -0.057105 0.120508 0.190560 0.097657 -0.051606 0.058312 0.135677 0.067998 0.009839 -0.325180 -0.005677 0.002860 -0.046431 0.050589 -0.060716 0.024483 -0.148629 -0.091724 -0.116132 0.146897 0.038158 -0.018539 0.035856 -0.082104 0.179363 0.115171 -0.084314 -0.018045 0.265159 0.010631 -0.136134 -0.127533 -0.099487 -0.019402 -0.017511 0.116488 -0.125683 -0.014919 -0.103483 0.098773 -0.009292 -0.300298 -0.057475 -0.033426 -0.152849 0.049261 0.040193 -0.125602 0.093334 -0.104806 0.036741 0.068814 0.008854 -0.115659 0.053066 0.167727 -0.117538 0.149774 -0.077451 0.088673 -0.033312 0.070051 0.082890 0.082209 -0.093387 -0.063849 -0.122241 -0.032396 0.062650 0.277749 0.152272 -0.067788 0.237852 -0.015651 0.002178 -0.128582 0.063445 -0.177897 0.091040 -0.029515 -0.100851 0.142080 0.042930 -0.157545 0.224021 -0.126530 -0.005928 0.154190 0.192688 0.161077 0.152631 -0.094216 0.146331 -0.066980 -0.072458 0.043648 -0.112310 -0.137947 -0.043011 -0.153704 0.111749 -0.008089 -0.043794 0.062438 -0.081763 -0.091785 -0.148375 -0.067111 -0.040535 -0.016587 0.044534
26 -0.080970 -0.181355 0.014148 -0.141403 -0.056712 -0.024853 0.080757 0.118216 -0.024197 -0.016500 -0.042126 0.265219 0.096871 0.065615 -0.111804 -0.216055 -0.019707 -0.053080 0.111101 0.182617 0.093164 -0.046382 0.056042 0.128412 0.062028 0.009395 -0.305133 -0.008842 0.002561 -0.037492 0.047460 -0.054966 0.021531 -0.138578 -0.090809 -0.114828 0.135213 0.032126 -0.018535 0.028913 -0.079354 0.160827 0.100877 -0.079443 -0.017621 0.249518 0.004375 -0.129392 -0.119187 -0.091705 -0.016686 -0.015242 0.106189 -0.120720 -0.013753 -0.094541 0.093004 -0.010075 -0.280080 -0.054091 -0.028581 -0.142001 0.043588 0.039365 -0.114307 0.085815 -0.091983 0.031342 0.062210 0.011552 -0.107424 0.050573 0.155851 -0.109324 0.139032 -0.075921 0.078254 -0.028661 0.066219 0.075898 0.073061 -0.088244 -0.057463 -0.112519 -0.025023 0.061781 0.252672 0.142339 -0.065635 0.220552 -0.012564 0.004656 -0.117248 0.060611 -0.164797 0.086143 -0.030647 -0.091934 0.136773 0.034653 -0.149079 0.205373 -0.116955 -0.003351 0.146952 0.181942 0.150578 0.145350 -0.084688 0.140960 -0.065510 -0.071875 0.044610 -0.100405 -0.127702 -0.038783 -0.139003 0.100009 -0.002851 -0.042427 0.056974 -0.076832 -0.091393 -0.139498 -0.060522 -0.030838 -0.016212 0.036982
56 -0.079574 -0.164731 0.008590 -0.130435 -0.051429 -0.019991 0.073561 0.109151 -0.022640 -0.012640 -0.035411 0.244608 0.083241 0.064959 -0.104263 -0.199596 -0.020196 -0.047353 0.101141 0.162367 0.080299 -0.045215 0.045768 0.116785 0.062160 0.011970 -0.277564 -0.004168 0.002081 -0.036294 0.040722 -0.047852 0.019516 -0.123896 -0.080493 -0.102236 0.121698 0.032262 -0.016237 0.030999 -0.073558 0.151750 0.093921 -0.068675 -0.014064 0.225248 0.005269 -0.119441 -0.105470 -0.087855 -0.018364 -0.017863 0.099284 -0.105581 -0.009681 -0.086857 0.083000 -0.011699 -0.252425 -0.051249 -0.025561 -0.123301 0.034976 0.032684 -0.100375 0.079569 -0.086779 0.033250 0.058668 0.009655 -0.096578 0.042775 0.148501 -0.100545 0.119332 -0.066586 0.075556 -0.029612 0.064500 0.074038 0.071207 -0.079037 -0.053559 -0.100157 -0.024497 0.048392 0.234584 0.128892 -0.056540 0.204818 -0.009589 0.003686 -0.106848 0.051529 -0.156258 0.076245 -0.023265 -0.086176 0.119214 0.034891 -0.137364 0.190185 -0.104401 -0.001994 0.127808 0.166657 0.134635 0.132639 -0.086032 0.130061 -0.056016 -0.061762 0.042304 -0.092443 -0.115791 -0.030872 -0.126910 0.095302 -0.002226 -0.036826 0.052015 -0.065704 -0.084486 -0.119617 -0.057326 -0.029757 -0.010544 0.039812
59 -0.083197 -0.181036 0.014813 -0.144907 -0.058346 -0.015373 0.080572 0.118541 -0.021669 -0.013964 -0.042333 0.267503 0.096590 0.071267 -0.114386 -0.215498 -0.018035 -0.051113 0.109199 0.182132 0.089245 -0.050766 0.048475 0.125017 0.067169 0.007835 -0.302804 -0.005590 0.006312 -0.044886 0.043668 -0.053400 0.019065 -0.137025 -0.088004 -0.108653 0.132923 0.030245 -0.018368 0.027539 -0.078659 0.166053 0.099601 -0.079670 -0.009043 0.245190 0.006477 -0.132186 -0.113852 -0.092521 -0.017239 -0.018651 0.107289 -0.118711 -0.007960 -0.087211 0.092691 -0.010848 -0.273111 -0.056588 -0.035655 -0.137764 0.045475 0.031836 -0.110286 0.084264 -0.095320 0.031765 0.065042 0.013727 -0.105830 0.044267 0.163180 -0.109237 0.133894 -0.074435 0.080371 -0.027517 0.070434 0.081908 0.074875 -0.091361 -0.062416 -0.109871 -0.029998 0.054532 0.256462 0.144048 -0.068016 0.219866 -0.014702 0.004384 -0.122376 0.056263 -0.168739 0.083184 -0.030058 -0.093388 0.134572 0.040945 -0.147800 0.205773 -0.111523 -0.003797 0.139588 0.175369 0.146487 0.142587 -0.088954 0.141033 -0.063759 -0.073620 0.047762 -0.101083 -0.125947 -0.035804 -0.145111 0.101435 -0.002774 -0.040401 0.051891 -0.073103 -0.088979 -0.132122 -0.059495 -0.037660 -0.009815 0.038473
63 -0.080150 -0.177172 0.016325 -0.144804 -0.055709 -0.015423 0.081981 0.120316 -0.020465 -0.010125 -0.038835 0.261809 0.096629 0.072333 -0.109571 -0.218471 -0.019045 -0.053197 0.107028 0.178092 0.083458 -0.045014 0.045842 0.129144 0.063921 0.012406 -0.301101 -0.002476 0.007634 -0.042298 0.048952 -0.059648 0.023738 -0.133993 -0.090322 -0.108489 0.132733 0.033817 -0.015066 0.033821 -0.075721 0.167249 0.102394 -0.083080 -0.009551 0.241852 0.004904 -0.132525 -0.112519 -0.089971 -0.019570 -0.016060 0.110318 -0.115988 -0.008425 -0.089262 0.091297 -0.015040 -0.271329 -0.052595 -0.032637 -0.143517 0.038529 0.029347 -0.111771 0.088981 -0.096219 0.033861 0.060504 0.018478 -0.107559 0.049603 0.162962 -0.109937 0.136955 -0.076749 0.081184 -0.025121 0.065666 0.082398 0.073425 -0.088660 -0.058448 -0.115063 -0.027324 0.058092 0.255025 0.137781 -0.062346 0.217679 -0.009797 0.007148 -0.121470 0.054808 -0.169317 0.084447 -0.027895 -0.096661 0.132722 0.041391 -0.150814 0.202103 -0.113350 -0.003685 0.141667 0.180976 0.142476 0.138901 -0.085448 0.142279 -0.063148 -0.070689 0.044129 -0.103948 -0.127428 -0.035150 -0.142169 0.102352 -0.002880 -0.042829 0.050965 -0.074208 -0.086392 -0.129674 -0.060660 -0.033191 -0.008371 0.037012
60 -0.064422 -0.149296 0.008921 -0.117547 -0.051215 -0.012319 0.066403 0.103108 -0.016495 -0.012076 -0.037274 0.219509 0.079580 0.059356 -0.091776 -0.176202 -0.018077 -0.045220 0.087620 0.145579 0.070544 -0.043101 0.041488 0.104535 0.052558 0.009965 -0.246871 -0.001232 0.007424 -0.033182 0.036336 -0.045503 0.020813 -0.111123 -0.073616 -0.091908 0.110613 0.028058 -0.012321 0.026617 -0.066164 0.135880 0.084254 -0.066949 -0.011544 0.203529 0.003599 -0.109557 -0.093146 -0.074684 -0.014242 -0.015349 0.091633 -0.097584 -0.009324 -0.077096 0.075552 -0.012603 -0.226283 -0.045783 -0.022711 -0.119430 0.034148 0.025498 -0.093935 0.072900 -0.074861 0.031573 0.049349 0.015108 -0.093868 0.041019 0.134069 -0.086952 0.116095 -0.062090 0.064294 -0.022523 0.056506 0.069082 0.065836 -0.072799 -0.048070 -0.096722 -0.020979 0.049064 0.207770 0.116643 -0.056749 0.180714 -0.007101 0.004560 -0.104548 0.043508 -0.138920 0.073757 -0.019844 -0.081031 0.113892 0.033330 -0.124830 0.165620 -0.092475 -0.002180 0.119850 0.145431 0.117671 0.120530 -0.071521 0.113278 -0.050927 -0.063548 0.035007 -0.086195 -0.104479 -0.031632 -0.118740 0.086252 -0.006432 -0.034984 0.042733 -0.056091 -0.071759 -0.111558 -0.050531 -0.027974 -0.009406 0.035610
28 -0.089886 -0.191392 0.017428 -0.144577 -0.060307 -0.019356 0.082040 0.122415 -0.023999 -0.015015 -0.041267 0.279592 0.097034 0.073942 -0.116228 -0.224804 -0.022982 -0.057067 0.117661 0.188762 0.088545 -0.049831 0.052237 0.128725 0.064663 0.014954 -0.314032 -0.005186 0.008594 -0.042885 0.046020 -0.053646 0.024135 -0.136023 -0.089841 -0.118236 0.139975 0.035317 -0.016681 0.032134 -0.082959 0.166384 0.107571 -0.078062 -0.017772 0.250250 0.003481 -0.133570 -0.125384 -0.099751 -0.023486 -0.016703 0.113803 -0.123346 -0.010509 -0.095576 0.090211 -0.013903 -0.287556 -0.057275 -0.031207 -0.147572 0.047306 0.038493 -0.117174 0.086624 -0.098379 0.038944 0.061105 0.009153 -0.113687 0.053856 0.160147 -0.114792 0.139654 -0.073156 0.083183 -0.026565 0.067150 0.083473 0.078145 -0.097204 -0.057819 -0.116212 -0.028881 0.063986 0.263760 0.148767 -0.066559 0.228310 -0.012740 0.005478 -0.127037 0.054864 -0.168877 0.088192 -0.029966 -0.093571 0.137078 0.035556 -0.157751 0.214808 -0.123299 -0.007332 0.150118 0.189181 0.154686 0.151991 -0.091168 0.139364 -0.063142 -0.071750 0.042960 -0.106595 -0.131645 -0.042684 -0.148235 0.103845 -0.007197 -0.042147 0.059046 -0.077356 -0.091738 -0.136567 -0.065726 -0.039537 -0.013898 0.043609
2 -0.076838 -0.175280 0.011646 -0.134856 -0.058035 -0.021344 0.077977 0.120161 -0.023887 -0.015210 -0.039544 0.259905 0.094256 0.061023 -0.107580 -0.212709 -0.021856 -0.049012 0.107129 0.174336 0.085657 -0.045062 0.051658 0.121106 0.061447 0.011601 -0.292088 -0.004895 0.009225 -0.038066 0.045348 -0.055983 0.015674 -0.124503 -0.088368 -0.105654 0.129425 0.029088 -0.014644 0.030087 -0.074244 0.159551 0.101766 -0.073686 -0.016995 0.232337 0.004236 -0.127303 -0.111562 -0.093558 -0.016399 -0.021570 0.106275 -0.106975 -0.017487 -0.089652 0.088589 -0.006742 -0.266669 -0.050028 -0.030747 -0.133010 0.041062 0.030594 -0.110185 0.085895 -0.091205 0.032347 0.055065 0.009553 -0.105785 0.046347 0.157263 -0.104132 0.130465 -0.067032 0.080539 -0.029562 0.066550 0.074346 0.070511 -0.088569 -0.060375 -0.108129 -0.022367 0.059042 0.243487 0.135463 -0.057400 0.208670 -0.010904 0.009543 -0.116615 0.049215 -0.166885 0.085247 -0.030009 -0.092983 0.126344 0.039380 -0.142146 0.193278 -0.108261 -0.009327 0.136107 0.170428 0.144526 0.142681 -0.090691 0.133143 -0.062118 -0.066978 0.045697 -0.099823 -0.126379 -0.035785 -0.133791 0.101470 -0.008503 -0.037627 0.053429 -0.072374 -0.085092 -0.136308 -0.059277 -0.031366 -0.006607 0.041008
27 -0.070939 -0.162204 0.008737 -0.125418 -0.050685 -0.017083 0.071113 0.107621 -0.020482 -0.011627 -0.037902 0.230645 0.080919 0.063861 -0.096715 -0.191134 -0.014805 -0.047848 0.096753 0.152955 0.080078 -0.039898 0.045553 0.113152 0.056933 0.007193 -0.264960 -0.001136 0.002269 -0.034810 0.040020 -0.051512 0.017092 -0.120371 -0.073041 -0.098623 0.113586 0.028037 -0.016765 0.023768 -0.071272 0.143227 0.088367 -0.067526 -0.010653 0.215234 0.010535 -0.112431 -0.101707 -0.079798 -0.014278 -0.012300 0.092316 -0.098329 -0.011870 -0.083621 0.077621 -0.008389 -0.235587 -0.046638 -0.029093 -0.118444 0.035516 0.029420 -0.098459 0.074313 -0.084545 0.032914 0.053254 0.010335 -0.097639 0.045731 0.138907 -0.097397 0.115896 -0.066862 0.072768 -0.027481 0.057742 0.069615 0.062855 -0.078864 -0.050719 -0.094946 -0.027349 0.051054 0.225164 0.121654 -0.060234 0.192362 -0.014645 0.001094 -0.104391 0.049538 -0.148429 0.075063 -0.023640 -0.083912 0.118599 0.030217 -0.134140 0.178657 -0.097540 -0.008779 0.127004 0.158311 0.131022 0.121776 -0.080998 0.123161 -0.052370 -0.062162 0.037832 -0.090880 -0.109790 -0.035117 -0.123274 0.090339 -0.007461 -0.034244 0.046909 -0.060299 -0.075593 -0.120177 -0.055763 -0.028250 -0.010946 0.036066
49 -0.074362 -0.170948 0.014876 -0.128803 -0.053815 -0.020014 0.073194 0.109407 -0.016672 -0.015565 -0.034711 0.250094 0.085151 0.063857 -0.101513 -0.203546 -0.022222 -0.047974 0.103408 0.170725 0.082081 -0.045779 0.047931 0.113936 0.062413 0.011930 -0.280954 -0.007698 0.005731 -0.041982 0.039121 -0.054723 0.019877 -0.122351 -0.080444 -0.099724 0.122881 0.028333 -0.017444 0.030767 -0.073301 0.153584 0.095637 -0.071055 -0.012206 0.228273 0.002473 -0.122591 -0.109876 -0.084101 -0.020093 -0.016914 0.104750 -0.105731 -0.015096 -0.083604 0.084189 -0.007534 -0.254780 -0.053505 -0.031603 -0.127911 0.041901 0.028977 -0.108203 0.079008 -0.086193 0.029479 0.060742 0.009523 -0.102264 0.040606 0.151229 -0.103392 0.124786 -0.068934 0.077361 -0.029591 0.065657 0.069816 0.066478 -0.080905 -0.057916 -0.105494 -0.028212 0.050349 0.233165 0.130196 -0.061075 0.204555 -0.010534 0.004640 -0.116572 0.052213 -0.154136 0.078506 -0.029566 -0.086000 0.125776 0.038633 -0.135427 0.186132 -0.106917 -0.007558 0.132067 0.169743 0.135301 0.136961 -0.085690 0.127908 -0.059577 -0.064991 0.045902 -0.093936 -0.116219 -0.036079 -0.128384 0.095855 -0.008028 -0.034720 0.049210 -0.063810 -0.085769 -0.125701 -0.055961 -0.034770 -0.008469 0.034751
65 -0.081290 -0.173764 0.010739 -0.135949 -0.053272 -0.020379 0.078409 0.115750 -0.018755 -0.016685 -0.035958 0.252771 0.094379 0.067706 -0.109291 -0.204767 -0.017852 -0.046819 0.107943 0.172783 0.080121 -0.048076 0.051275 0.123072 0.065895 0.012373 -0.288822 -0.000456 0.006399 -0.038609 0.046123 -0.051918 0.019934 -0.128926 -0.087551 -0.107808 0.125019 0.032439 -0.017388 0.030380 -0.073410 0.158107 0.100622 -0.078333 -0.016001 0.228614 0.006967 -0.124224 -0.106740 -0.087945 -0.022326 -0.018816 0.104534 -0.114021 -0.014404 -0.089350 0.085396 -0.014399 -0.257555 -0.055695 -0.033963 -0.134605 0.038879 0.035559 -0.108274 0.085370 -0.084924 0.034283 0.061179 0.015740 -0.105025 0.047048 0.154942 -0.102163 0.125002 -0.072641 0.080867 -0.030191 0.065798 0.079622 0.074120 -0.082190 -0.060995 -0.106809 -0.022760 0.057928 0.244291 0.136479 -0.060682 0.207405 -0.015652 0.005655 -0.115886 0.049880 -0.158396 0.078796 -0.027070 -0.093501 0.130028 0.035978 -0.142682 0.190472 -0.105654 -0.002543 0.139325 0.166726 0.138726 0.134009 -0.088505 0.133845 -0.062882 -0.071875 0.041572 -0.095698 -0.124126 -0.035707 -0.133476 0.101487 -0.003973 -0.034361 0.054333 -0.064241 -0.082392 -0.130135 -0.060305 -0.029403 -0.011399 0.035707
24 -0.069878 -0.157446 0.013864 -0.117748 -0.052707 -0.020299 0.068751 0.105298 -0.017067 -0.010315 -0.033531 0.233674 0.086821 0.055522 -0.097819 -0.191170 -0.021138 -0.046943 0.098573 0.158686 0.079817 -0.041840 0.044477 0.113682 0.058751 0.016042 -0.262368 -0.008235 0.003002 -0.034092 0.034949 -0.047375 0.015171 -0.119240 -0.074637 -0.099276 0.120818 0.026065 -0.016291 0.023619 -0.068687 0.146362 0.087748 -0.064972 -0.011490 0.214033 0.003592 -0.108338 -0.101335 -0.086148 -0.014509 -0.013984 0.092122 -0.100295 -0.006200 -0.076136 0.079069 -0.008934 -0.239797 -0.052262 -0.024923 -0.124455 0.041624 0.030802 -0.102213 0.070480 -0.083081 0.032256 0.052405 0.013848 -0.094464 0.045066 0.135065 -0.093640 0.119165 -0.062637 0.066934 -0.027511 0.060187 0.071329 0.069745 -0.077414 -0.048142 -0.097590 -0.025586 0.048423 0.219032 0.127853 -0.054201 0.194019 -0.013149 0.006213 -0.103424 0.046681 -0.144319 0.079187 -0.021389 -0.078885 0.114046 0.031459 -0.133038 0.181494 -0.098149 -0.002417 0.122394 0.160675 0.126906 0.125341 -0.079198 0.122761 -0.051879 -0.064996 0.039937 -0.089224 -0.115971 -0.034900 -0.124018 0.088585 -0.002601 -0.029711 0.051037 -0.066060 -0.077444 -0.121057 -0.049144 -0.028840 -0.013417 0.038847
3 -0.065350 -0.133887 0.013189 -0.102439 -0.042457 -0.017304 0.061213 0.090615 -0.019240 -0.012729 -0.027831 0.195659 0.067009 0.045459 -0.083808 -0.165043 -0.011825 -0.042539 0.082827 0.132672 0.062514 -0.033848 0.037014 0.097942 0.053296 0.007898 -0.224338 -0.000844 0.008650 -0.025953 0.031123 -0.044422 0.011171 -0.095258 -0.066469 -0.086434 0.100778 0.027204 -0.011529 0.025500 -0.057585 0.117005 0.078603 -0.053332 -0.012856 0.179756 0.007745 -0.099769 -0.091303 -0.067794 -0.010158 -0.015092 0.076528 -0.085024 -0.013307 -0.071348 0.065083 -0.006450 -0.205887 -0.037948 -0.025105 -0.102619 0.031214 0.030080 -0.084177 0.061017 -0.066217 0.029248 0.046020 0.005294 -0.077821 0.037374 0.115930 -0.077097 0.103122 -0.055572 0.064605 -0.022210 0.053910 0.057582 0.055946 -0.063799 -0.045180 -0.085935 -0.017604 0.044739 0.188756 0.106257 -0.049504 0.162088 -0.011489 0.007068 -0.090774 0.041623 -0.129262 0.067665 -0.025613 -0.066952 0.102986 0.028618 -0.115458 0.152350 -0.088913 -0.005207 0.107441 0.137852 0.108083 0.107301 -0.064445 0.099873 -0.042951 -0.052794 0.034253 -0.075224 -0.095139 -0.024978 -0.105001 0.079252 -0.001488 -0.027826 0.040423 -0.058185 -0.067719 -0.103315 -0.049433 -0.024227 -0.007420 0.033046
4 -0.060693 -0.128141 0.009435 -0.099101 -0.040076 -0.019410 0.054246 0.091868 -0.015115 -0.013311 -0.025870 0.194922 0.071576 0.046715 -0.081586 -0.159496 -0.014226 -0.040893 0.082249 0.133918 0.066210 -0.035031 0.034796 0.090354 0.049862 0.009972 -0.221220 -0.002155 0.007356 -0.031039 0.030465 -0.043345 0.013587 -0.097265 -0.065380 -0.082298 0.099573 0.026182 -0.011155 0.024528 -0.055892 0.115147 0.078411 -0.051756 -0.009213 0.173175 0.004195 -0.097809 -0.088104 -0.071422 -0.010226 -0.016398 0.079396 -0.082604 -0.012162 -0.065957 0.067136 -0.007059 -0.197977 -0.042077 -0.017508 -0.103606 0.032979 0.025755 -0.079966 0.065344 -0.071788 0.027400 0.043848 0.006467 -0.077730 0.036869 0.117656 -0.081563 0.101222 -0.053641 0.063155 -0.018916 0.047899 0.059543 0.056210 -0.069117 -0.043561 -0.081129 -0.016432 0.041733 0.188298 0.100413 -0.043346 0.160747 -0.012679 0.003999 -0.090637 0.038671 -0.123879 0.064806 -0.024881 -0.069872 0.097139 0.027265 -0.111811 0.149051 -0.079623 -0.000766 0.100254 0.132945 0.103787 0.106222 -0.067225 0.098690 -0.041690 -0.052472 0.033046 -0.073262 -0.093636 -0.023979 -0.101479 0.076339 -0.004869 -0.027310 0.043353 -0.052968 -0.068671 -0.104103 -0.048768 -0.023380 -0.005412 0.032598
25 -0.071531 -0.150468 0.008483 -0.116043 -0.051395 -0.019939 0.062531 0.095079 -0.013121 -0.012358 -0.035270 0.216101 0.077530 0.058869 -0.091240 -0.181316 -0.015279 -0.045436 0.093583 0.151494 0.075959 -0.040047 0.044763 0.105649 0.054197 0.006685 -0.244604 -0.006248 -0.000031 -0.031458 0.039121 -0.045204 0.018053 -0.113916 -0.075212 -0.089493 0.105518 0.030111 -0.016836 0.022998 -0.067678 0.135787 0.081676 -0.066861 -0.009404 0.203589 0.007692 -0.102056 -0.093461 -0.077295 -0.019319 -0.010990 0.090444 -0.094547 -0.014155 -0.077304 0.076383 -0.012682 -0.225899 -0.042316 -0.025780 -0.112304 0.036998 0.027470 -0.096963 0.067642 -0.077314 0.030611 0.046818 0.010967 -0.089217 0.038028 0.131114 -0.084825 0.109847 -0.063074 0.062315 -0.021303 0.058096 0.062175 0.062555 -0.075800 -0.047038 -0.096308 -0.022393 0.046747 0.208092 0.111889 -0.056032 0.176363 -0.013785 0.003352 -0.094937 0.043584 -0.137780 0.072603 -0.023470 -0.076151 0.109758 0.032410 -0.126796 0.169351 -0.097670 -0.002690 0.119148 0.146294 0.120638 0.119330 -0.070508 0.111557 -0.052767 -0.057703 0.037647 -0.086023 -0.109688 -0.032387 -0.112437 0.083015 -0.005257 -0.032543 0.048123 -0.056911 -0.074650 -0.113389 -0.052133 -0.023720 -0.015008 0.032933
70 -0.084566 -0.196604 0.012048 -0.149358 -0.059419 -0.024484 0.081549 0.129097 -0.019705 -0.011695 -0.047190 0.285531 0.096898 0.074136 -0.116386 -0.227948 -0.021151 -0.057062 0.119435 0.192440 0.095327 -0.048645 0.053744 0.129012 0.068536 0.011944 -0.317887 -0.008424 0.005895 -0.039838 0.050365 -0.056928 0.019518 -0.143143 -0.091326 -0.118762 0.143003 0.036961 -0.018632 0.035832 -0.082190 0.170103 0.105055 -0.082692 -0.019937 0.258020 0.005902 -0.134725 -0.127494 -0.102248 -0.016649 -0.016936 0.117761 -0.120526 -0.012158 -0.096303 0.098318 -0.008898 -0.294243 -0.056313 -0.030101 -0.145749 0.041145 0.036412 -0.122848 0.093849 -0.097919 0.035144 0.066618 0.013393 -0.113843 0.054482 0.169547 -0.117388 0.142365 -0.074671 0.087810 -0.028105 0.071175 0.080038 0.080878 -0.098444 -0.062800 -0.115882 -0.025922 0.060748 0.271988 0.146633 -0.067571 0.232727 -0.010958 0.005467 -0.129083 0.062717 -0.176311 0.092543 -0.029285 -0.099837 0.142243 0.035476 -0.161827 0.218242 -0.124258 -0.005396 0.152582 0.189426 0.156268 0.153785 -0.095366 0.145614 -0.067569 -0.072747 0.044820 -0.108476 -0.131870 -0.040592 -0.148936 0.107090 -0.010171 -0.037327 0.062923 -0.080764 -0.089794 -0.140913 -0.067912 -0.037706 -0.014872 0.041257
66 -0.043731 -0.104435 0.009255 -0.081094 -0.036701 -0.014810 0.043677 0.070322 -0.011300 -0.006682 -0.024201 0.146925 0.057017 0.040481 -0.058174 -0.118667 -0.011754 -0.025982 0.064248 0.104073 0.049103 -0.024835 0.027371 0.073661 0.037646 0.004252 -0.166967 -0.001595 0.003560 -0.026201 0.028767 -0.033173 0.011210 -0.072942 -0.052288 -0.058826 0.075833 0.019226 -0.009063 0.021344 -0.045265 0.090554 0.060283 -0.042303 -0.006744 0.138272 0.000340 -0.074949 -0.067995 -0.050225 -0.011654 -0.007508 0.063799 -0.065424 -0.006727 -0.054331 0.046672 -0.004656 -0.154401 -0.027687 -0.015615 -0.079672 0.025762 0.014948 -0.062009 0.044282 -0.055348 0.019375 0.039215 0.010141 -0.058191 0.024094 0.089022 -0.060266 0.074164 -0.043916 0.046833 -0.015940 0.037159 0.045123 0.041897 -0.049835 -0.036967 -0.062731 -0.014320 0.030591 0.137874 0.079532 -0.032855 0.123913 -0.003441 0.006459 -0.071433 0.035203 -0.093388 0.049585 -0.012666 -0.051096 0.076829 0.018865 -0.079617 0.114208 -0.065907 -0.003355 0.078491 0.100626 0.076888 0.077945 -0.047568 0.080833 -0.035123 -0.039422 0.026991 -0.060888 -0.067041 -0.017708 -0.074785 0.059897 -0.005607 -0.022494 0.029677 -0.038327 -0.046778 -0.070550 -0.036869 -0.019360 -0.002840 0.022655
64 -0.060788 -0.133806 0.010198 -0.103832 -0.044844 -0.014059 0.062597 0.092963 -0.015154 -0.013487 -0.030223 0.198504 0.071527 0.050648 -0.078818 -0.159074 -0.017552 -0.039754 0.079981 0.134100 0.067913 -0.033934 0.035648 0.092785 0.048170 0.007235 -0.220120 -0.004951 0.005320 -0.031716 0.032485 -0.045055 0.019636 -0.102310 -0.067724 -0.085241 0.098680 0.023374 -0.013000 0.024529 -0.056076 0.122521 0.074686 -0.061930 -0.010273 0.183627 0.008018 -0.098709 -0.089550 -0.067547 -0.011828 -0.013058 0.077974 -0.084123 -0.004349 -0.070086 0.062217 -0.009643 -0.201005 -0.040632 -0.025239 -0.104143 0.029808 0.025222 -0.085603 0.066535 -0.071848 0.023970 0.049636 0.010917 -0.079752 0.037885 0.121022 -0.082087 0.102741 -0.055296 0.060267 -0.017313 0.054411 0.055266 0.054279 -0.067200 -0.042695 -0.086140 -0.017974 0.046376 0.189500 0.103155 -0.046066 0.165056 -0.011752 0.004554 -0.088692 0.044532 -0.122775 0.066435 -0.018674 -0.070211 0.096191 0.027771 -0.112491 0.151895 -0.086153 -0.007355 0.106516 0.135819 0.110674 0.108696 -0.065932 0.102968 -0.045849 -0.054564 0.037982 -0.075386 -0.094426 -0.029454 -0.106379 0.077586 -0.003249 -0.027296 0.039634 -0.049405 -0.068483 -0.095547 -0.045768 -0.028363 -0.009362 0.033056
62 -0.068813 -0.158138 0.007636 -0.126007 -0.054480 -0.018146 0.065883 0.108632 -0.016737 -0.015706 -0.033671 0.234078 0.083891 0.062483 -0.100545 -0.187825 -0.018887 -0.044034 0.099296 0.159895 0.076018 -0.042170 0.041565 0.114028 0.057632 0.011003 -0.264443 -0.005802 0.001994 -0.037934 0.038094 -0.051716 0.017228 -0.118136 -0.076807 -0.095003 0.114987 0.027403 -0.013103 0.030926 -0.072881 0.142358 0.086104 -0.069545 -0.010513 0.212047 0.004927 -0.110155 -0.101413 -0.084695 -0.019236 -0.013890 0.094458 -0.099057 -0.006891 -0.082703 0.074791 -0.007644 -0.239271 -0.047934 -0.025450 -0.124895 0.037396 0.029484 -0.104297 0.077504 -0.081152 0.028449 0.057625 0.012234 -0.100253 0.040538 0.144463 -0.091966 0.115898 -0.062075 0.072049 -0.027705 0.058254 0.069226 0.070143 -0.078890 -0.050836 -0.101297 -0.027298 0.050745 0.225723 0.127662 -0.054435 0.190714 -0.007950 0.000898 -0.110147 0.051340 -0.148828 0.077786 -0.021594 -0.082767 0.118749 0.035282 -0.133039 0.180152 -0.101188 -0.003896 0.125955 0.160909 0.129335 0.122197 -0.077074 0.125294 -0.059282 -0.063015 0.041403 -0.088707 -0.108584 -0.035717 -0.127480 0.086636 -0.001412 -0.036565 0.048848 -0.061611 -0.078316 -0.119703 -0.054909 -0.030730 -0.011617 0.031263
69 -0.067120 -0.144981 0.008305 -0.107383 -0.048301 -0.015875 0.064049 0.093801 -0.017729 -0.012828 -0.033148 0.215338 0.072215 0.057117 -0.086539 -0.168429 -0.019407 -0.041673 0.091383 0.141527 0.071881 -0.033959 0.044730 0.095925 0.048408 0.009972 -0.239617 -0.007793 -0.000674 -0.030276 0.032952 -0.041144 0.013402 -0.104096 -0.064966 -0.089505 0.106752 0.028196 -0.016714 0.027791 -0.059576 0.130119 0.085056 -0.064883 -0.013398 0.196220 0.008818 -0.104801 -0.089388 -0.077716 -0.017670 -0.015983 0.082898 -0.091806 -0.014827 -0.071028 0.074874 -0.010036 -0.219629 -0.044561 -0.021800 -0.108047 0.033811 0.025495 -0.088411 0.067595 -0.077767 0.025589 0.045979 0.004897 -0.082045 0.037915 0.125130 -0.087988 0.111718 -0.054634 0.067342 -0.026542 0.055761 0.059061 0.062342 -0.068223 -0.042911 -0.086406 -0.025164 0.045476 0.198802 0.114009 -0.050940 0.172006 -0.013530 0.001365 -0.095386 0.045513 -0.134092 0.070671 -0.024664 -0.074176 0.104557 0.026956 -0.117866 0.163832 -0.094132 -0.003902 0.117355 0.142470 0.113675 0.111100 -0.070980 0.105630 -0.048439 -0.054720 0.032743 -0.080704 -0.103265 -0.029799 -0.109225 0.079457 -0.009070 -0.028227 0.045939 -0.055242 -0.066903 -0.103632 -0.045007 -0.029265 -0.008356 0.033426
21 -0.065243 -0.135295 0.010000 -0.109566 -0.050112 -0.017861 0.059156 0.089058 -0.014835 -0.005918 -0.031427 0.204826 0.073958 0.048113 -0.085639 -0.164345 -0.017418 -0.039819 0.087034 0.139626 0.070820 -0.037993 0.038201 0.098267 0.050565 0.010037 -0.226404 -0.004922 0.004316 -0.031458 0.036144 -0.043173 0.016039 -0.101062 -0.069358 -0.087750 0.101033 0.028122 -0.010746 0.023995 -0.063542 0.128293 0.073855 -0.061045 -0.013262 0.186620 0.005939 -0.095786 -0.085567 -0.073432 -0.012948 -0.011915 0.085952 -0.092642 -0.009584 -0.067893 0.067631 -0.011944 -0.212546 -0.040617 -0.024207 -0.108253 0.035725 0.029386 -0.082692 0.063116 -0.071829 0.022601 0.044954 0.006975 -0.080760 0.034042 0.121845 -0.080890 0.106435 -0.053727 0.059333 -0.024597 0.054408 0.062129 0.055656 -0.068693 -0.044175 -0.091239 -0.024533 0.042960 0.191124 0.105549 -0.045621 0.165065 -0.006517 0.005560 -0.093326 0.045687 -0.128166 0.064954 -0.023476 -0.067883 0.101718 0.028157 -0.115616 0.153145 -0.089367 -0.000336 0.112674 0.139682 0.109886 0.105166 -0.069906 0.103933 -0.044736 -0.051384 0.033749 -0.076534 -0.099744 -0.026345 -0.110636 0.078265 -0.003756 -0.025005 0.043068 -0.056381 -0.067820 -0.107766 -0.042857 -0.026119 -0.008954 0.027895
22 -0.065092 -0.151025 0.009514 -0.113856 -0.051485 -0.021497 0.063431 0.097127 -0.019094 -0.011912 -0.036004 0.221586 0.081810 0.052595 -0.090018 -0.179300 -0.021979 -0.044875 0.095524 0.153666 0.076896 -0.041475 0.044917 0.104450 0.051579 0.016346 -0.246266 -0.009622 0.005876 -0.031459 0.035514 -0.047599 0.014243 -0.110387 -0.072698 -0.095167 0.109190 0.024838 -0.017026 0.021229 -0.062248 0.130395 0.078773 -0.059644 -0.007994 0.203029 0.002353 -0.101702 -0.092932 -0.080482 -0.020095 -0.016906 0.086361 -0.098807 -0.005529 -0.073674 0.074109 -0.005973 -0.222116 -0.051466 -0.021263 -0.115330 0.040371 0.031948 -0.094268 0.069206 -0.080708 0.030421 0.054034 0.014724 -0.092570 0.042060 0.129462 -0.089734 0.115812 -0.055916 0.063174 -0.022132 0.060247 0.063158 0.059977 -0.076608 -0.043082 -0.098621 -0.023586 0.046160 0.211224 0.112646 -0.050223 0.180020 -0.009199 0.003362 -0.098319 0.041320 -0.138361 0.072142 -0.023078 -0.074849 0.111065 0.028574 -0.123879 0.167537 -0.093033 -0.000629 0.117612 0.150943 0.117527 0.118464 -0.074394 0.114241 -0.049488 -0.058538 0.040200 -0.081069 -0.107681 -0.032137 -0.118277 0.085140 -0.007049 -0.031738 0.048658 -0.060431 -0.072409 -0.114952 -0.047930 -0.027853 -0.011192 0.034368
17 -0.078805 -0.175316 0.013639 -0.130334 -0.063852 -0.024461 0.077798 0.117291 -0.015632 -0.008348 -0.038894 0.261671 0.095559 0.066070 -0.110064 -0.204657 -0.022890 -0.054262 0.104942 0.177877 0.086950 -0.051898 0.051481 0.119381 0.066921 0.018870 -0.287636 -0.006685 0.006650 -0.037170 0.041712 -0.052064 0.022877 -0.130210 -0.085064 -0.111518 0.131373 0.032631 -0.017971 0.030511 -0.078026 0.153954 0.093210 -0.070548 -0.013384 0.231005 0.008073 -0.118912 -0.111929 -0.090544 -0.023355 -0.019516 0.105772 -0.118062 -0.007190 -0.088441 0.079209 -0.007551 -0.259336 -0.060444 -0.025601 -0.138672 0.047531 0.031983 -0.107866 0.082012 -0.090361 0.032486 0.059429 0.015670 -0.109268 0.047063 0.152704 -0.105648 0.133956 -0.063736 0.074978 -0.030334 0.067881 0.071663 0.074714 -0.087985 -0.049173 -0.108061 -0.031781 0.056741 0.246527 0.134138 -0.057661 0.210525 -0.015483 0.005628 -0.115223 0.055466 -0.162579 0.083025 -0.022046 -0.086328 0.128720 0.038639 -0.141694 0.194219 -0.113528 -0.002155 0.136663 0.172083 0.138497 0.132265 -0.088997 0.136550 -0.061430 -0.068536 0.048026 -0.096816 -0.122897 -0.037373 -0.135942 0.103741 -0.005465 -0.039405 0.058350 -0.065693 -0.083872 -0.130109 -0.060770 -0.036121 -0.016209 0.042502
20 -0.073251 -0.163464 0.011379 -0.122877 -0.058398 -0.024226 0.073787 0.108743 -0.021358 -0.012686 -0.039585 0.235935 0.090889 0.058639 -0.101775 -0.193605 -0.024093 -0.045472 0.098056 0.160024 0.083021 -0.046721 0.048416 0.113248 0.060549 0.017198 -0.262020 -0.007480 0.005918 -0.040621 0.035289 -0.049897 0.019667 -0.120875 -0.075051 -0.098052 0.122443 0.025638 -0.018461 0.021841 -0.075337 0.143235 0.085707 -0.067774 -0.008940 0.216100 0.009340 -0.112403 -0.101735 -0.088097 -0.023233 -0.016011 0.099651 -0.109698 -0.009473 -0.079897 0.077580 -0.014001 -0.246368 -0.049918 -0.020901 -0.125076 0.043498 0.032158 -0.101829 0.072967 -0.083113 0.033031 0.051954 0.016167 -0.100781 0.045399 0.139304 -0.096242 0.121012 -0.060403 0.073384 -0.026409 0.063883 0.072106 0.068704 -0.085136 -0.049673 -0.106776 -0.022869 0.056292 0.222405 0.127349 -0.059445 0.197571 -0.009364 0.005947 -0.105338 0.047450 -0.148291 0.077642 -0.021742 -0.081649 0.114662 0.036629 -0.136086 0.177674 -0.106255 -0.000140 0.125980 0.163314 0.127524 0.126165 -0.077224 0.126860 -0.059224 -0.061623 0.041578 -0.089208 -0.117138 -0.036536 -0.122162 0.094461 -0.004554 -0.031859 0.050402 -0.059845 -0.080199 -0.125833 -0.051552 -0.029122 -0.017203 0.037562
23 -0.073298 -0.163026 0.007835 -0.125050 -0.057232 -0.017646 0.070517 0.112934 -0.016897 -0.012737 -0.040233 0.245143 0.089477 0.057785 -0.104676 -0.194622 -0.021842 -0.045023 0.103518 0.171068 0.080795 -0.047172 0.043482 0.118147 0.061815 0.013560 -0.275453 -0.010122 0.000836 -0.035689 0.038802 -0.049383 0.018643 -0.122931 -0.083239 -0.104892 0.123940 0.026146 -0.019317 0.027521 -0.073943 0.149013 0.092628 -0.067936 -0.008860 0.219720 0.004179 -0.112484 -0.108097 -0.087914 -0.018049 -0.017368 0.102691 -0.111425 -0.009653 -0.085653 0.076767 -0.010465 -0.249395 -0.056727 -0.025215 -0.132028 0.046040 0.032938 -0.100220 0.075302 -0.083245 0.034619 0.057567 0.016140 -0.100885 0.045265 0.148500 -0.097339 0.121263 -0.063515 0.075565 -0.025080 0.067290 0.072974 0.072928 -0.086043 -0.047640 -0.106078 -0.027470 0.056993 0.228482 0.130336 -0.060564 0.198696 -0.010534 0.006597 -0.112593 0.049972 -0.156391 0.077218 -0.023806 -0.084971 0.119136 0.037977 -0.137886 0.183048 -0.102485 -0.007705 0.128572 0.161359 0.127270 0.127278 -0.080360 0.127821 -0.061950 -0.068091 0.040393 -0.096875 -0.118353 -0.036746 -0.130586 0.095406 -0.004560 -0.033721 0.053353 -0.062474 -0.083510 -0.127227 -0.052067 -0.035180 -0.014662 0.037019
19 -0.065160 -0.154245 0.014091 -0.117297 -0.053515 -0.018899 0.064835 0.098060 -0.015201 -0.010018 -0.038793 0.227596 0.080386 0.055899 -0.094841 -0.180235 -0.023197 -0.047395 0.096456 0.157643 0.077357 -0.044967 0.043036 0.107757 0.055953 0.017214 -0.251055 -0.005852 0.002412 -0.036387 0.036353 -0.045037 0.018929 -0.116497 -0.073996 -0.094578 0.108746 0.029419 -0.012426 0.025995 -0.066838 0.136327 0.083686 -0.064893 -0.007567 0.204670 0.008317 -0.108700 -0.098749 -0.079460 -0.019277 -0.015872 0.088617 -0.101555 -0.005417 -0.073854 0.069705 -0.007144 -0.225396 -0.050749 -0.023584 -0.121592 0.042801 0.032140 -0.095648 0.065812 -0.075643 0.028465 0.049037 0.009298 -0.092031 0.041179 0.133066 -0.088926 0.112277 -0.062556 0.070023 -0.022068 0.055113 0.061966 0.062906 -0.076399 -0.045712 -0.100000 -0.025650 0.049409 0.214642 0.120338 -0.056008 0.182771 -0.011533 0.008381 -0.096130 0.048312 -0.142583 0.075734 -0.023526 -0.076271 0.110703 0.028562 -0.122901 0.172095 -0.100084 -0.006740 0.117942 0.151993 0.119837 0.118924 -0.077168 0.114773 -0.055461 -0.060284 0.039080 -0.088035 -0.105074 -0.029363 -0.113643 0.090247 -0.007713 -0.027784 0.047415 -0.061494 -0.077011 -0.118408 -0.053301 -0.028602 -0.017021 0.032247
71 -0.065699 -0.150844 0.010037 -0.117484 -0.049198 -0.018837 0.061663 0.096537 -0.013220 -0.010431 -0.035812 0.225365 0.080707 0.057624 -0.088043 -0.183448 -0.016843 -0.043330 0.094192 0.151371 0.071792 -0.037311 0.040760 0.106999 0.050506 0.006145 -0.246498 -0.004163 0.004193 -0.032112 0.037087 -0.046645 0.018115 -0.112719 -0.072799 -0.090169 0.107297 0.023414 -0.011053 0.024037 -0.064661 0.134894 0.085083 -0.067379 -0.009550 0.205732 0.004622 -0.111186 -0.098113 -0.076620 -0.017803 -0.015141 0.087771 -0.100850 -0.013581 -0.078745 0.075621 -0.009331 -0.228565 -0.048592 -0.022182 -0.118133 0.033141 0.031834 -0.096493 0.075202 -0.076605 0.025354 0.048148 0.006891 -0.087594 0.043641 0.129847 -0.089898 0.114081 -0.060053 0.065909 -0.026478 0.053989 0.060907 0.066137 -0.076167 -0.047916 -0.094821 -0.023258 0.051916 0.213003 0.118662 -0.055164 0.184228 -0.013542 0.003372 -0.101632 0.049742 -0.137340 0.075917 -0.025493 -0.079317 0.113169 0.030456 -0.125708 0.167513 -0.100162 -0.003404 0.118957 0.146628 0.119002 0.121779 -0.070978 0.112888 -0.049861 -0.062571 0.034465 -0.087029 -0.106618 -0.031123 -0.113013 0.088220 -0.006264 -0.029537 0.044849 -0.059343 -0.076703 -0.110542 -0.049775 -0.028353 -0.013979 0.032749
18 -0.075390 -0.170642 0.009261 -0.129958 -0.056661 -0.023773 0.069834 0.114361 -0.016191 -0.007705 -0.040619 0.254679 0.094831 0.061521 -0.103604 -0.206072 -0.024252 -0.048823 0.102328 0.176378 0.089214 -0.047344 0.052520 0.119277 0.066157 0.018952 -0.279350 -0.007689 0.006163 -0.037489 0.040143 -0.049136 0.021718 -0.123820 -0.080606 -0.107965 0.124503 0.030200 -0.015861 0.031227 -0.076546 0.156039 0.090379 -0.072363 -0.012752 0.230666 0.002397 -0.118464 -0.108197 -0.092019 -0.020359 -0.019889 0.105699 -0.107959 -0.010938 -0.081352 0.081533 -0.013848 -0.258091 -0.056487 -0.023414 -0.137303 0.044647 0.033272 -0.102950 0.078211 -0.087224 0.030925 0.060770 0.016428 -0.106403 0.045593 0.150621 -0.104113 0.130838 -0.063310 0.078989 -0.024776 0.066564 0.071980 0.067507 -0.083768 -0.048785 -0.111756 -0.029937 0.056848 0.239939 0.132450 -0.062097 0.208677 -0.012043 0.003023 -0.108333 0.048613 -0.160374 0.083712 -0.028240 -0.082685 0.125371 0.032895 -0.141297 0.193115 -0.109016 -0.003166 0.133222 0.170373 0.131820 0.129709 -0.085602 0.126477 -0.062166 -0.069981 0.039752 -0.098159 -0.120394 -0.038586 -0.130736 0.094106 -0.002307 -0.035925 0.054124 -0.070850 -0.084821 -0.131025 -0.054273 -0.037012 -0.018325 0.036231
50 -0.068442 -0.144450 0.006569 -0.106938 -0.049832 -0.018415 0.066390 0.095553 -0.015456 -0.009843 -0.034346 0.209812 0.077894 0.051441 -0.089437 -0.169679 -0.012643 -0.038567 0.088975 0.142823 0.067268 -0.037570 0.038414 0.100039 0.053203 0.011305 -0.236149 -0.000745 0.003362 -0.034289 0.034048 -0.045460 0.013266 -0.107327 -0.063868 -0.084213 0.101338 0.027393 -0.013245 0.025445 -0.058200 0.132590 0.079362 -0.064185 -0.008324 0.189511 0.006020 -0.105303 -0.090605 -0.076187 -0.017920 -0.013322 0.088498 -0.094065 -0.013889 -0.075283 0.071484 -0.005666 -0.215725 -0.044804 -0.021636 -0.113616 0.032793 0.022133 -0.089738 0.062896 -0.075222 0.025117 0.049293 0.012843 -0.086680 0.038864 0.125992 -0.081812 0.102334 -0.055295 0.062007 -0.019642 0.056921 0.061583 0.055441 -0.067172 -0.046618 -0.087847 -0.021449 0.043990 0.197673 0.111803 -0.053276 0.175705 -0.013715 0.004941 -0.096991 0.042465 -0.134551 0.068611 -0.019710 -0.076397 0.106369 0.031615 -0.120283 0.164141 -0.088074 -0.004405 0.114000 0.138803 0.118922 0.110017 -0.073708 0.110563 -0.046697 -0.059978 0.037129 -0.077459 -0.101697 -0.026842 -0.114928 0.083546 -0.002019 -0.026170 0.048590 -0.053952 -0.072597 -0.108910 -0.049547 -0.031815 -0.011788 0.035875
52 -0.065037 -0.131928 0.011862 -0.106651 -0.048745 -0.017448 0.062279 0.087429 -0.014878 -0.014651 -0.030032 0.196694 0.070438 0.052601 -0.087143 -0.163609 -0.014198 -0.034191 0.079638 0.132564 0.067478 -0.036498 0.033674 0.090004 0.044321 0.012811 -0.222769 0.000750 0.006786 -0.033639 0.035681 -0.040232 0.019286 -0.096796 -0.060673 -0.079875 0.094475 0.024525 -0.011303 0.023546 -0.055544 0.125495 0.073008 -0.056848 -0.008426 0.179270 0.006311 -0.093118 -0.087772 -0.072437 -0.014649 -0.016546 0.083470 -0.088591 -0.006423 -0.066040 0.067841 -0.010692 -0.202984 -0.044491 -0.023667 -0.099285 0.028709 0.021586 -0.088113 0.064074 -0.066348 0.029062 0.043910 0.013717 -0.081881 0.036380 0.120116 -0.076732 0.098969 -0.055434 0.057123 -0.023152 0.052564 0.056604 0.058658 -0.067893 -0.042795 -0.084021 -0.016214 0.040024 0.190121 0.107784 -0.050881 0.166963 -0.008255 0.005416 -0.091364 0.037506 -0.125888 0.060432 -0.020552 -0.067048 0.094130 0.031835 -0.106907 0.154644 -0.081127 -0.002756 0.109110 0.132159 0.111271 0.106481 -0.072452 0.107311 -0.046911 -0.054947 0.037121 -0.077430 -0.095365 -0.027111 -0.108295 0.079645 -0.006477 -0.028901 0.042522 -0.053845 -0.070646 -0.099384 -0.043369 -0.027313 -0.010145 0.029383
77 -0.072938 -0.181921 0.017355 -0.136492 -0.062031 -0.019229 0.071830 0.120652 -0.023494 -0.007666 -0.034775 0.254863 0.088428 0.071300 -0.100564 -0.206216 -0.014296 -0.043911 0.113386 0.179015 0.075585 -0.044930 0.050145 0.120357 0.063598 0.013711 -0.291779 -0.006415 0.007490 -0.044614 0.040922 -0.058500 0.022502 -0.126186 -0.089575 -0.108831 0.130095 0.035352 -0.019033 0.027895 -0.080456 0.160549 0.102218 -0.078896 -0.010721 0.231845 0.000806 -0.118391 -0.105477 -0.090771 -0.024488 -0.015900 0.104969 -0.120182 -0.010536 -0.091870 0.089005 -0.010507 -0.267590 -0.046923 -0.032907 -0.137584 0.044509 0.038687 -0.109445 0.088154 -0.087324 0.036925 0.058332 0.016676 -0.113487 0.049217 0.161249 -0.097862 0.134790 -0.072847 0.072320 -0.029223 0.061378 0.080535 0.074707 -0.083430 -0.058194 -0.108884 -0.023194 0.047335 0.235491 0.142668 -0.058591 0.219626 -0.011434 0.007808 -0.112278 0.052966 -0.154775 0.087283 -0.024986 -0.088808 0.129568 0.027331 -0.145703 0.189028 -0.110567 0.000417 0.141901 0.177582 0.134312 0.140739 -0.090849 0.134702 -0.063965 -0.067586 0.042040 -0.096007 -0.116245 -0.033544 -0.134315 0.099694 -0.008569 -0.040719 0.051420 -0.065328 -0.084041 -0.125227 -0.059608 -0.032479 -0.012076 0.041508
72 -0.062777 -0.143299 0.009679 -0.110393 -0.044345 -0.013270 0.058864 0.090294 -0.016256 -0.011460 -0.029966 0.209468 0.068751 0.050643 -0.083355 -0.164066 -0.012906 -0.037118 0.083710 0.137215 0.065815 -0.035754 0.037636 0.093285 0.050102 0.009931 -0.229586 -0.002708 0.002788 -0.033082 0.032595 -0.043672 0.016327 -0.104704 -0.066302 -0.087081 0.102843 0.022981 -0.014767 0.021611 -0.057694 0.129848 0.077228 -0.063146 -0.011234 0.186087 0.004240 -0.099512 -0.091438 -0.076197 -0.017745 -0.009522 0.084978 -0.088893 -0.013746 -0.072991 0.067178 -0.006249 -0.210361 -0.041550 -0.025865 -0.111589 0.030252 0.027973 -0.084186 0.065880 -0.069934 0.021847 0.044640 0.005149 -0.086032 0.040977 0.125057 -0.083566 0.107985 -0.056548 0.062178 -0.024194 0.055813 0.060676 0.059409 -0.070650 -0.047795 -0.087382 -0.023791 0.047723 0.199668 0.105472 -0.046477 0.170293 -0.009349 0.006259 -0.095465 0.041435 -0.126806 0.067984 -0.023178 -0.074643 0.102874 0.029763 -0.115426 0.159224 -0.093073 -0.003577 0.113490 0.139906 0.110408 0.112068 -0.069930 0.104973 -0.044475 -0.055820 0.036331 -0.082057 -0.095240 -0.031564 -0.106779 0.080547 -0.003691 -0.032794 0.042531 -0.058090 -0.068283 -0.101832 -0.046245 -0.023949 -0.014585 0.033151
42 -0.055555 -0.112892 0.007872 -0.092903 -0.034430 -0.015137 0.050204 0.079376 -0.011546 -0.005699 -0.024173 0.171300 0.058055 0.048174 -0.067651 -0.139691 -0.015367 -0.036133 0.074787 0.115675 0.058111 -0.032649 0.034136 0.083390 0.044686 0.005091 -0.195860 -0.000699 0.002202 -0.023465 0.029343 -0.034275 0.014965 -0.085677 -0.054572 -0.071744 0.086018 0.017213 -0.012966 0.017598 -0.052228 0.105660 0.065191 -0.049411 -0.005466 0.158751 0.005805 -0.081505 -0.075917 -0.059391 -0.009637 -0.013908 0.070412 -0.073669 -0.009998 -0.059523 0.061313 -0.006926 -0.179604 -0.038756 -0.017602 -0.086274 0.025241 0.022545 -0.069544 0.056392 -0.061867 0.022513 0.038833 0.008388 -0.068472 0.030461 0.104478 -0.067847 0.089161 -0.046824 0.049626 -0.014734 0.040161 0.053808 0.046516 -0.055430 -0.040324 -0.069445 -0.017005 0.038966 0.166021 0.086857 -0.042341 0.142437 -0.007187 0.005762 -0.080264 0.033315 -0.110420 0.054885 -0.019558 -0.063288 0.088922 0.021048 -0.095709 0.129470 -0.077748 -0.006202 0.093761 0.111451 0.096755 0.094020 -0.056681 0.090259 -0.036221 -0.046214 0.029938 -0.064196 -0.085805 -0.021561 -0.089765 0.065548 -0.002785 -0.024892 0.037399 -0.045493 -0.058732 -0.085267 -0.040703 -0.025249 -0.006044 0.028893
61 -0.068843 -0.149469 0.010890 -0.117654 -0.049919 -0.017587 0.065344 0.097854 -0.014483 -0.012288 -0.034749 0.214738 0.075696 0.056865 -0.092344 -0.176505 -0.014707 -0.039319 0.087837 0.144974 0.067937 -0.042144 0.039808 0.100516 0.056600 0.005253 -0.245008 -0.003728 0.006254 -0.037685 0.036178 -0.049469 0.013283 -0.112300 -0.071198 -0.087828 0.109652 0.022629 -0.011224 0.023281 -0.062054 0.131287 0.085422 -0.064658 -0.011212 0.199057 0.002026 -0.103100 -0.090874 -0.074318 -0.014690 -0.014887 0.092313 -0.095050 -0.012714 -0.071328 0.071315 -0.010483 -0.224934 -0.048493 -0.029309 -0.118434 0.038817 0.029366 -0.092360 0.070089 -0.076804 0.023604 0.055508 0.013663 -0.092676 0.042173 0.132899 -0.087648 0.111197 -0.056547 0.066190 -0.021762 0.056978 0.065005 0.064721 -0.073779 -0.052519 -0.094305 -0.024857 0.046373 0.209968 0.110814 -0.050615 0.181736 -0.010918 0.006593 -0.098914 0.042414 -0.136934 0.073692 -0.019766 -0.077839 0.107318 0.029332 -0.122534 0.165999 -0.090180 -0.002070 0.116264 0.141892 0.115236 0.114798 -0.073485 0.114688 -0.053987 -0.056499 0.041170 -0.084504 -0.106486 -0.028063 -0.118600 0.085465 -0.007146 -0.030454 0.043848 -0.053480 -0.073496 -0.107923 -0.046735 -0.024441 -0.012238 0.034715
58 -0.055505 -0.123953 0.006860 -0.099262 -0.043201 -0.011183 0.054581 0.084136 -0.013876 -0.008050 -0.025675 0.180714 0.067849 0.051274 -0.074846 -0.150363 -0.016204 -0.033428 0.075562 0.119496 0.055927 -0.037226 0.032544 0.083306 0.047120 0.004325 -0.208072 -0.005619 0.004596 -0.025348 0.031485 -0.040089 0.016470 -0.090833 -0.058356 -0.073225 0.089048 0.025330 -0.014606 0.023103 -0.056134 0.108518 0.066936 -0.056269 -0.011549 0.166440 0.006423 -0.084862 -0.078385 -0.067240 -0.013230 -0.014558 0.077799 -0.078047 -0.009247 -0.060318 0.060686 -0.010048 -0.183477 -0.035521 -0.017874 -0.098152 0.028904 0.020617 -0.077322 0.058021 -0.060606 0.019834 0.046550 0.014161 -0.076841 0.029743 0.110764 -0.075817 0.091989 -0.053037 0.051258 -0.021108 0.047295 0.051019 0.050153 -0.063780 -0.041342 -0.075608 -0.015436 0.041105 0.175295 0.091795 -0.046714 0.147707 -0.010378 0.002144 -0.084653 0.041968 -0.115736 0.060927 -0.022494 -0.067917 0.093827 0.023427 -0.100981 0.137724 -0.074946 -0.000141 0.093666 0.123280 0.095338 0.099629 -0.059112 0.095743 -0.045205 -0.050893 0.032543 -0.072613 -0.090105 -0.027160 -0.098448 0.068766 -0.006723 -0.025881 0.040532 -0.044544 -0.063055 -0.089106 -0.041365 -0.023035 -0.007278 0.029964
254 -0.075361 -0.183510 0.020336 -0.140868 -0.063640 -0.021166 0.076602 0.117928 -0.021882 -0.005505 -0.030355 0.255096 0.091559 0.069643 -0.101084 -0.202896 -0.016426 -0.043056 0.111314 0.175830 0.075866 -0.046725 0.053180 0.118627 0.064649 0.010449 -0.293964 -0.010777 0.012588 -0.049253 0.042350 -0.056516 0.028128 -0.133295 -0.090042 -0.102473 0.122624 0.036212 -0.014862 0.031059 -0.083705 0.159224 0.098711 -0.080757 -0.006307 0.236907 0.000649 -0.125790 -0.104717 -0.085190 -0.019510 -0.019408 0.109032 -0.118699 -0.006547 -0.092654 0.081124 -0.017279 -0.267670 -0.046502 -0.037670 -0.135332 0.045490 0.032606 -0.104890 0.088906 -0.083514 0.031008 0.064313 0.016477 -0.113570 0.047586 0.160653 -0.097185 0.130950 -0.072493 0.077421 -0.024763 0.067600 0.078699 0.069907 -0.080778 -0.053504 -0.113296 -0.027905 0.048120 0.239653 0.144656 -0.054996 0.220696 -0.013327 0.008954 -0.108146 0.053270 -0.161242 0.088818 -0.031555 -0.088245 0.134521 0.026723 -0.147279 0.194172 -0.113603 -0.005589 0.140288 0.176316 0.138902 0.138650 -0.086606 0.140446 -0.069005 -0.070019 0.047643 -0.103679 -0.113684 -0.037871 -0.131404 0.103190 -0.007031 -0.038845 0.056630 -0.072964 -0.084060 -0.133160 -0.062667 -0.039311 -0.009235 0.039376
36 -0.076795 -0.181848 0.014939 -0.140519 -0.059867 -0.023844 0.081587 0.119112 -0.019955 -0.009558 -0.044011 0.259217 0.089741 0.069347 -0.107219 -0.210327 -0.022238 -0.052847 0.107312 0.173652 0.086254 -0.043167 0.051904 0.127937 0.065009 0.007870 -0.289185 -0.009762 0.002162 -0.042070 0.046842 -0.059503 0.021576 -0.135548 -0.086312 -0.108657 0.129865 0.029984 -0.020168 0.024080 -0.075720 0.158780 0.105226 -0.074986 -0.010540 0.236637 0.011270 -0.125045 -0.112617 -0.088606 -0.018844 -0.016215 0.107384 -0.118959 -0.007795 -0.086772 0.084593 -0.011571 -0.270779 -0.051204 -0.031518 -0.142722 0.046497 0.033829 -0.114537 0.083755 -0.091912 0.035207 0.063005 0.009710 -0.109474 0.043989 0.158959 -0.106476 0.129187 -0.074995 0.083833 -0.025045 0.068685 0.073376 0.070766 -0.090621 -0.054115 -0.114951 -0.025361 0.057433 0.252979 0.142795 -0.059706 0.221522 -0.013091 -0.000342 -0.117502 0.059472 -0.161139 0.086344 -0.028356 -0.086170 0.125238 0.041493 -0.145925 0.200400 -0.109398 -0.005123 0.144697 0.179226 0.142229 0.141411 -0.088153 0.140736 -0.063610 -0.069599 0.041037 -0.105904 -0.128483 -0.041911 -0.139012 0.100380 -0.005474 -0.033002 0.055613 -0.070029 -0.083894 -0.128264 -0.059451 -0.034018 -0.017477 0.042505
47 -0.075734 -0.156817 0.008516 -0.121149 -0.054755 -0.018172 0.062070 0.102837 -0.021705 -0.012118 -0.040478 0.228269 0.087719 0.054615 -0.088847 -0.181381 -0.016621 -0.047346 0.098523 0.163221 0.076784 -0.039468 0.036610 0.110346 0.062816 0.012576 -0.252729 -0.003253 -0.003394 -0.043556 0.038412 -0.048118 0.025348 -0.119934 -0.075342 -0.095530 0.114992 0.024064 -0.020643 0.031502 -0.067373 0.141510 0.086016 -0.067256 -0.004038 0.206991 0.002941 -0.113862 -0.107597 -0.081062 -0.008163 -0.008346 0.096528 -0.103230 -0.009290 -0.077602 0.068484 -0.007419 -0.230162 -0.055442 -0.025279 -0.124548 0.036361 0.029081 -0.101904 0.066447 -0.080070 0.035146 0.052203 0.015640 -0.095794 0.033477 0.137855 -0.083586 0.113354 -0.066996 0.060315 -0.021761 0.059162 0.063919 0.067218 -0.081582 -0.048841 -0.102405 -0.016559 0.047489 0.213791 0.123161 -0.050156 0.185639 -0.014993 0.009453 -0.109103 0.049964 -0.138103 0.071144 -0.028235 -0.083539 0.108172 0.035912 -0.127174 0.174358 -0.095359 -0.006397 0.114420 0.159182 0.115229 0.129720 -0.085592 0.121312 -0.048134 -0.062781 0.043111 -0.092855 -0.111736 -0.029045 -0.121393 0.081423 -0.005037 -0.031014 0.051320 -0.060130 -0.080903 -0.114577 -0.054218 -0.027145 -0.013791 0.037928
35 -0.083380 -0.178746 0.009326 -0.137238 -0.061860 -0.019458 0.077457 0.112798 -0.023131 -0.010886 -0.041889 0.262924 0.090386 0.067934 -0.108918 -0.211807 -0.018266 -0.046345 0.109816 0.179237 0.089781 -0.046499 0.048363 0.126951 0.065824 0.013923 -0.288333 -0.003271 0.001253 -0.041622 0.044602 -0.055809 0.019248 -0.134124 -0.080775 -0.107403 0.129532 0.028173 -0.014396 0.026258 -0.080892 0.160745 0.104479 -0.076416 -0.013207 0.233279 0.006053 -0.125182 -0.115852 -0.094148 -0.019278 -0.019430 0.105589 -0.117626 -0.007004 -0.093712 0.088384 -0.012227 -0.268626 -0.056301 -0.032480 -0.140045 0.045141 0.031933 -0.115338 0.078493 -0.093405 0.037202 0.061104 0.013454 -0.106940 0.047883 0.156106 -0.105018 0.131191 -0.075068 0.080240 -0.023117 0.065315 0.076339 0.070243 -0.093026 -0.055539 -0.114561 -0.023201 0.058566 0.252188 0.137345 -0.066449 0.220326 -0.011242 0.001443 -0.120555 0.052930 -0.166780 0.080287 -0.029365 -0.087327 0.129799 0.039464 -0.140916 0.198698 -0.116042 -0.010825 0.143499 0.174235 0.141783 0.144911 -0.086454 0.139562 -0.059777 -0.072479 0.044884 -0.102671 -0.125952 -0.035032 -0.135052 0.100082 -0.007882 -0.035238 0.058476 -0.071505 -0.085601 -0.129494 -0.057387 -0.031280 -0.016200 0.042684
29 -0.071085 -0.155440 0.008604 -0.120288 -0.048507 -0.020706 0.067228 0.097757 -0.017818 -0.010127 -0.033521 0.230632 0.078398 0.056976 -0.093457 -0.185946 -0.022130 -0.048440 0.096798 0.153777 0.076574 -0.043394 0.038918 0.104684 0.052110 0.008155 -0.254727 -0.007962 0.008381 -0.032621 0.041234 -0.048255 0.021169 -0.114132 -0.077751 -0.092556 0.116498 0.029309 -0.012684 0.021329 -0.062684 0.140206 0.081936 -0.070592 -0.008931 0.211263 0.003305 -0.109838 -0.102623 -0.079396 -0.017266 -0.014994 0.089430 -0.099729 -0.015990 -0.072367 0.079996 -0.006224 -0.230882 -0.045473 -0.023620 -0.123857 0.034288 0.029855 -0.100211 0.069259 -0.083480 0.027691 0.055964 0.015164 -0.096543 0.040894 0.130200 -0.088083 0.115966 -0.056268 0.072309 -0.022571 0.060085 0.065929 0.059668 -0.074221 -0.046730 -0.099978 -0.021338 0.050130 0.217389 0.116199 -0.054546 0.181780 -0.009210 0.001553 -0.102990 0.049167 -0.136055 0.077141 -0.027953 -0.074186 0.111841 0.028170 -0.130760 0.175204 -0.099059 -0.003372 0.121955 0.152307 0.119109 0.119028 -0.074493 0.119471 -0.051450 -0.058609 0.034413 -0.089173 -0.112234 -0.037197 -0.121458 0.082061 -0.002193 -0.032823 0.045943 -0.062772 -0.078470 -0.116270 -0.048005 -0.026943 -0.014047 0.030306
48 -0.084940 -0.176123 0.013223 -0.136369 -0.065689 -0.019199 0.072957 0.110028 -0.023409 -0.016362 -0.048770 0.259813 0.100266 0.068990 -0.101531 -0.212650 -0.020870 -0.054908 0.111303 0.185376 0.085525 -0.044968 0.039445 0.120573 0.067944 0.016222 -0.293694 -0.009792 -0.004087 -0.049394 0.046962 -0.057540 0.030117 -0.130583 -0.091066 -0.110927 0.132153 0.026782 -0.022673 0.036013 -0.081771 0.155226 0.102339 -0.075532 -0.003234 0.239123 0.005941 -0.130463 -0.124015 -0.096065 -0.010242 -0.007193 0.108043 -0.112108 -0.015336 -0.083694 0.074741 -0.004870 -0.263620 -0.061071 -0.025332 -0.136518 0.044754 0.036217 -0.113179 0.077577 -0.093976 0.037913 0.065353 0.013961 -0.112178 0.038372 0.149339 -0.092403 0.134283 -0.069757 0.068351 -0.026877 0.069771 0.076750 0.080122 -0.087699 -0.049784 -0.115219 -0.019242 0.048950 0.243443 0.144664 -0.057227 0.217063 -0.017255 0.014272 -0.125005 0.058183 -0.153478 0.077956 -0.027376 -0.093522 0.129404 0.042618 -0.143971 0.192378 -0.107578 -0.008926 0.127733 0.181630 0.128341 0.145772 -0.098040 0.131080 -0.061554 -0.073724 0.047580 -0.103283 -0.130565 -0.034946 -0.132982 0.097696 -0.003313 -0.039602 0.059768 -0.071401 -0.085744 -0.126779 -0.061917 -0.029451 -0.011709 0.039985
67 -0.049525 -0.104706 0.009473 -0.082668 -0.031175 -0.012116 0.046828 0.067121 -0.008947 -0.006741 -0.020098 0.153842 0.052866 0.037949 -0.061415 -0.130585 -0.010395 -0.032475 0.064202 0.104608 0.047857 -0.032219 0.029815 0.070832 0.040949 0.009054 -0.174297 -0.004880 0.006361 -0.028911 0.023061 -0.035454 0.011164 -0.081876 -0.052586 -0.064484 0.076145 0.019749 -0.006815 0.018672 -0.047305 0.100194 0.063549 -0.043009 -0.008366 0.142382 0.004446 -0.073360 -0.065017 -0.055645 -0.011846 -0.009192 0.062893 -0.070436 -0.008041 -0.054834 0.055400 -0.004116 -0.164192 -0.029904 -0.015914 -0.083103 0.025460 0.023406 -0.070482 0.050950 -0.053046 0.018942 0.039495 0.009117 -0.061184 0.032431 0.098031 -0.061741 0.080661 -0.044610 0.046218 -0.014567 0.043894 0.048449 0.044483 -0.053250 -0.037852 -0.063477 -0.019399 0.034635 0.145771 0.081452 -0.033625 0.126342 -0.006040 0.006046 -0.072683 0.032025 -0.096535 0.048443 -0.015231 -0.056041 0.076683 0.017916 -0.086498 0.120613 -0.066344 -0.002561 0.082886 0.102624 0.087883 0.086938 -0.052201 0.079205 -0.041078 -0.039070 0.024477 -0.056565 -0.074908 -0.018989 -0.085570 0.057365 -0.000581 -0.025129 0.029503 -0.042141 -0.052881 -0.075989 -0.036181 -0.017698 -0.003638 0.026881
39 -0.054133 -0.110978 0.008129 -0.086537 -0.034011 -0.010113 0.049745 0.075946 -0.013506 -0.009756 -0.027904 0.162088 0.058846 0.041665 -0.069289 -0.135153 -0.016003 -0.029637 0.066101 0.114515 0.056483 -0.027911 0.035927 0.080889 0.036410 0.008850 -0.186157 -0.000764 -0.000221 -0.026811 0.030257 -0.038084 0.011549 -0.086909 -0.050700 -0.068806 0.082524 0.020670 -0.012359 0.015189 -0.047541 0.102360 0.063669 -0.051630 -0.007209 0.154071 0.005950 -0.077026 -0.068699 -0.055395 -0.014251 -0.008456 0.067565 -0.076239 -0.005393 -0.054965 0.052878 -0.004434 -0.166378 -0.033542 -0.023185 -0.083864 0.025562 0.019550 -0.073043 0.051236 -0.053829 0.025092 0.041579 0.007754 -0.064222 0.031604 0.095767 -0.064801 0.084622 -0.042613 0.050825 -0.014858 0.045381 0.046489 0.049052 -0.055071 -0.036593 -0.073561 -0.014978 0.036646 0.160906 0.091145 -0.040769 0.140143 -0.009082 0.003764 -0.071524 0.035590 -0.104205 0.054784 -0.017602 -0.055894 0.081527 0.026151 -0.094754 0.129736 -0.074454 -0.005717 0.092501 0.109310 0.088292 0.092078 -0.057141 0.083078 -0.040788 -0.040777 0.027973 -0.064693 -0.082525 -0.024863 -0.089299 0.059918 -0.008600 -0.026542 0.035327 -0.045623 -0.051694 -0.083838 -0.033347 -0.018360 -0.009357 0.022780
38 -0.073499 -0.173123 0.013958 -0.129886 -0.058900 -0.021171 0.070106 0.108325 -0.015453 -0.015490 -0.040131 0.247620 0.091010 0.062397 -0.107198 -0.200597 -0.020991 -0.046005 0.104241 0.167738 0.079926 -0.041963 0.050524 0.117197 0.056399 0.011580 -0.274400 -0.009102 0.004257 -0.041517 0.040369 -0.056604 0.017433 -0.131210 -0.083102 -0.104369 0.121484 0.026145 -0.017936 0.024379 -0.074198 0.151954 0.099594 -0.070170 -0.015506 0.229471 0.009711 -0.123126 -0.105600 -0.088933 -0.020598 -0.017464 0.097118 -0.112161 -0.012658 -0.089603 0.085521 -0.010440 -0.258385 -0.049098 -0.032710 -0.133081 0.042521 0.027128 -0.105149 0.081559 -0.083157 0.034377 0.055892 0.013120 -0.104130 0.043970 0.144241 -0.102023 0.120900 -0.067721 0.080294 -0.021003 0.064049 0.071137 0.069384 -0.085238 -0.052842 -0.106451 -0.027542 0.053957 0.238984 0.129655 -0.062163 0.205692 -0.010950 0.000571 -0.114494 0.053457 -0.159058 0.079405 -0.027161 -0.087360 0.121583 0.038463 -0.137227 0.190906 -0.103263 -0.010951 0.130259 0.165377 0.134040 0.134513 -0.085559 0.132216 -0.060546 -0.062596 0.043315 -0.098517 -0.121135 -0.038655 -0.130950 0.093235 -0.010727 -0.032271 0.054542 -0.069732 -0.085004 -0.124209 -0.058193 -0.028349 -0.017396 0.038129
37 -0.078116 -0.165190 0.014853 -0.125032 -0.053855 -0.016453 0.068748 0.108768 -0.014726 -0.011423 -0.038180 0.245354 0.087905 0.058363 -0.103486 -0.194288 -0.023003 -0.046681 0.103345 0.160225 0.077221 -0.041367 0.050798 0.119260 0.058680 0.012045 -0.265886 -0.006642 0.006296 -0.037663 0.041348 -0.054062 0.015838 -0.127618 -0.074586 -0.102893 0.123084 0.027441 -0.015504 0.027369 -0.069201 0.152592 0.097231 -0.071818 -0.016662 0.220429 0.006830 -0.112935 -0.104200 -0.086852 -0.018532 -0.016482 0.100545 -0.103780 -0.012072 -0.080696 0.083580 -0.011477 -0.250140 -0.046698 -0.032729 -0.131222 0.039533 0.032109 -0.104042 0.077538 -0.082554 0.035720 0.056181 0.013883 -0.095538 0.044188 0.142917 -0.096018 0.123371 -0.066795 0.076455 -0.024391 0.060087 0.072636 0.065449 -0.086535 -0.054852 -0.106989 -0.022389 0.052655 0.233759 0.131663 -0.058523 0.201672 -0.015261 -0.000644 -0.112468 0.054390 -0.150328 0.077326 -0.026982 -0.086323 0.115257 0.036567 -0.131660 0.182574 -0.106409 -0.009831 0.133378 0.164740 0.135122 0.133390 -0.085718 0.130233 -0.053778 -0.063648 0.044106 -0.097894 -0.115721 -0.036531 -0.124846 0.088369 -0.010095 -0.036048 0.055137 -0.069476 -0.076305 -0.124600 -0.052510 -0.031628 -0.017202 0.035183
76 -0.070364 -0.146591 0.007407 -0.110684 -0.042645 -0.021193 0.065468 0.096125 -0.014543 -0.012375 -0.033583 0.216608 0.075092 0.052037 -0.083948 -0.175656 -0.012964 -0.042589 0.092468 0.147192 0.067583 -0.041286 0.039224 0.096626 0.052869 0.007919 -0.244043 -0.005660 0.003319 -0.036278 0.040336 -0.044004 0.017663 -0.104855 -0.066878 -0.085795 0.103485 0.022665 -0.010951 0.025026 -0.066558 0.128480 0.084623 -0.062896 -0.012708 0.194957 0.005961 -0.103217 -0.093923 -0.073609 -0.014565 -0.015434 0.087957 -0.094313 -0.010720 -0.074106 0.075110 -0.005595 -0.217856 -0.042059 -0.027230 -0.109224 0.030263 0.025714 -0.091622 0.069662 -0.077919 0.025345 0.048106 0.010249 -0.082789 0.037633 0.130392 -0.087923 0.113306 -0.055725 0.062647 -0.021674 0.052280 0.060804 0.062438 -0.068853 -0.050573 -0.089732 -0.018741 0.048609 0.205955 0.112011 -0.050715 0.172880 -0.013031 0.007346 -0.098159 0.045997 -0.135349 0.067556 -0.023767 -0.075354 0.108703 0.028357 -0.117612 0.160550 -0.093757 -0.007541 0.117050 0.146899 0.120465 0.118910 -0.068419 0.107849 -0.048624 -0.052613 0.034870 -0.078499 -0.101003 -0.026956 -0.111990 0.079162 -0.003916 -0.029008 0.042326 -0.058514 -0.068107 -0.103888 -0.048317 -0.024702 -0.007030 0.035134
40 -0.058445 -0.117502 0.007082 -0.090563 -0.034597 -0.012247 0.047061 0.082022 -0.015046 -0.014355 -0.023431 0.170974 0.060920 0.039469 -0.076993 -0.144159 -0.014146 -0.035847 0.067941 0.114271 0.062350 -0.030868 0.036144 0.082552 0.038970 0.007871 -0.196902 -0.009619 -0.001214 -0.034170 0.027587 -0.035904 0.011873 -0.083752 -0.056566 -0.073801 0.081621 0.025047 -0.009709 0.020295 -0.056778 0.109151 0.065805 -0.047024 -0.012098 0.152541 0.003594 -0.086950 -0.072062 -0.058935 -0.015739 -0.016405 0.068358 -0.074759 -0.002189 -0.065415 0.055301 -0.010990 -0.174241 -0.038891 -0.018280 -0.086013 0.024834 0.018208 -0.075301 0.054603 -0.062177 0.020527 0.044000 0.012174 -0.075750 0.032093 0.102429 -0.072950 0.088985 -0.050399 0.053463 -0.019824 0.040541 0.047966 0.051226 -0.059837 -0.037637 -0.078254 -0.012655 0.042760 0.168051 0.085889 -0.044587 0.147748 -0.013903 -0.001777 -0.078810 0.034014 -0.104875 0.061401 -0.015407 -0.064881 0.087761 0.021780 -0.093071 0.129216 -0.068631 -0.002144 0.096000 0.115509 0.097734 0.088461 -0.059051 0.088543 -0.042968 -0.049309 0.027452 -0.066134 -0.081475 -0.025909 -0.086727 0.064118 0.000671 -0.028130 0.040670 -0.042799 -0.061995 -0.092665 -0.042005 -0.018100 -0.006444 0.021290
30 -0.076464 -0.181081 0.009119 -0.131505 -0.062454 -0.019364 0.079516 0.114185 -0.020404 -0.011394 -0.045069 0.258370 0.089957 0.064276 -0.109931 -0.211726 -0.019858 -0.049952 0.103782 0.178746 0.086807 -0.047555 0.054908 0.119254 0.063729 0.009452 -0.285403 -0.006735 0.000608 -0.039079 0.043202 -0.058410 0.020543 -0.134604 -0.085910 -0.104339 0.128812 0.033704 -0.016139 0.023908 -0.076695 0.160260 0.101715 -0.071812 -0.013590 0.236246 0.008052 -0.127285 -0.112784 -0.089468 -0.020092 -0.014643 0.107062 -0.118892 -0.008067 -0.088601 0.082313 -0.009810 -0.263921 -0.052338 -0.030023 -0.140547 0.046855 0.033432 -0.107186 0.079998 -0.091968 0.033256 0.062246 0.009456 -0.104179 0.047809 0.153395 -0.104704 0.130809 -0.072777 0.080451 -0.021943 0.066318 0.078313 0.067669 -0.090876 -0.059698 -0.112031 -0.024938 0.059998 0.244226 0.139291 -0.065150 0.216183 -0.009618 -0.000674 -0.115964 0.057013 -0.158743 0.085114 -0.030194 -0.085684 0.128184 0.034647 -0.140157 0.198564 -0.113653 -0.011483 0.138776 0.172945 0.143385 0.140983 -0.091401 0.134903 -0.064029 -0.072223 0.041113 -0.103369 -0.120559 -0.039934 -0.139395 0.097052 -0.008862 -0.032159 0.052406 -0.069222 -0.085144 -0.128507 -0.055696 -0.030702 -0.011223 0.040540
53 -0.058947 -0.128874 0.004585 -0.101095 -0.036430 -0.014166 0.051130 0.088538 -0.019121 -0.012872 -0.032574 0.192161 0.063607 0.043785 -0.082695 -0.152388 -0.011759 -0.032788 0.076205 0.130044 0.067992 -0.032704 0.033400 0.086444 0.043492 0.004977 -0.208026 -0.007665 0.002498 -0.035990 0.032400 -0.040079 0.011331 -0.098512 -0.064517 -0.075865 0.095344 0.021721 -0.010421 0.021959 -0.058904 0.121248 0.067679 -0.055481 -0.015393 0.167477 0.005623 -0.088135 -0.081528 -0.069117 -0.012709 -0.016982 0.081228 -0.077343 -0.002982 -0.071199 0.060710 -0.012658 -0.195258 -0.038601 -0.021872 -0.097247 0.033200 0.021232 -0.084146 0.060596 -0.062322 0.023636 0.041939 0.006107 -0.075173 0.038035 0.107631 -0.073403 0.100251 -0.049679 0.055976 -0.025508 0.048214 0.052857 0.054014 -0.067911 -0.044966 -0.078828 -0.014814 0.046634 0.180544 0.098838 -0.041930 0.156490 -0.012063 0.000408 -0.082341 0.036353 -0.115981 0.061859 -0.018276 -0.066912 0.094561 0.021341 -0.108240 0.143938 -0.080435 0.000438 0.104999 0.127725 0.103587 0.095576 -0.062188 0.095788 -0.047888 -0.052654 0.030483 -0.074011 -0.090960 -0.026351 -0.093731 0.068429 0.001044 -0.024507 0.040256 -0.051242 -0.068918 -0.101351 -0.042085 -0.026859 -0.006207 0.022793
45 -0.070118 -0.159974 0.007669 -0.123395 -0.048174 -0.018243 0.071874 0.108570 -0.014205 -0.011603 -0.039587 0.236538 0.085877 0.060923 -0.098065 -0.192049 -0.017111 -0.044241 0.095392 0.161241 0.076286 -0.044800 0.046058 0.107104 0.055188 0.012519 -0.265874 -0.007644 0.005514 -0.031910 0.040944 -0.047389 0.014839 -0.115480 -0.075188 -0.092794 0.113189 0.030795 -0.012797 0.023742 -0.069864 0.141692 0.089093 -0.070361 -0.015540 0.210120 0.008069 -0.109271 -0.101437 -0.078935 -0.015089 -0.015731 0.091030 -0.100313 -0.012369 -0.082582 0.081892 -0.010042 -0.241780 -0.047193 -0.027097 -0.124553 0.037904 0.031447 -0.101899 0.075973 -0.084139 0.030102 0.052755 0.013203 -0.092508 0.047358 0.134903 -0.099227 0.123042 -0.057714 0.075465 -0.023328 0.062593 0.071193 0.065068 -0.081396 -0.053631 -0.095670 -0.025719 0.053006 0.224288 0.122618 -0.058658 0.189145 -0.011048 0.003988 -0.108131 0.049948 -0.146804 0.078878 -0.023370 -0.080856 0.119399 0.036408 -0.136053 0.177357 -0.104883 -0.001266 0.126089 0.154298 0.130750 0.126752 -0.076148 0.125304 -0.055810 -0.057484 0.037122 -0.087922 -0.112937 -0.037111 -0.124126 0.085190 -0.007013 -0.031222 0.051193 -0.067500 -0.077513 -0.117242 -0.050615 -0.027737 -0.009651 0.032670
74 -0.078541 -0.168584 0.008645 -0.135086 -0.055003 -0.013169 0.070075 0.112548 -0.021014 -0.016558 -0.035206 0.247864 0.083078 0.067670 -0.101001 -0.204441 -0.014578 -0.046284 0.106718 0.163869 0.078182 -0.045414 0.043649 0.121027 0.055938 0.014920 -0.277901 -0.003419 0.007234 -0.037657 0.045171 -0.046867 0.016587 -0.122042 -0.075936 -0.104176 0.120607 0.025835 -0.017214 0.031038 -0.077289 0.154204 0.090881 -0.071104 -0.008225 0.225063 0.005286 -0.121969 -0.106487 -0.089400 -0.017798 -0.015538 0.098356 -0.106744 -0.010359 -0.079223 0.083066 -0.007728 -0.255164 -0.051594 -0.030590 -0.134228 0.044200 0.028773 -0.108589 0.076835 -0.082911 0.026693 0.053842 0.010648 -0.097788 0.044015 0.148566 -0.102880 0.128428 -0.067995 0.077440 -0.027802 0.066330 0.070219 0.068046 -0.086680 -0.057111 -0.101475 -0.024187 0.049579 0.231262 0.134468 -0.064026 0.204590 -0.010411 0.004931 -0.110103 0.047308 -0.159129 0.078625 -0.021944 -0.084273 0.127051 0.032112 -0.138023 0.183720 -0.104681 -0.007601 0.134450 0.167366 0.129274 0.135250 -0.087274 0.125848 -0.062562 -0.068921 0.046732 -0.098352 -0.118612 -0.038499 -0.133811 0.090000 -0.004088 -0.039057 0.047393 -0.068247 -0.081662 -0.120208 -0.058924 -0.033325 -0.016402 0.034490
75 -0.082594 -0.190318 0.009738 -0.152897 -0.061909 -0.015879 0.084100 0.123468 -0.024196 -0.017159 -0.037699 0.275368 0.095921 0.073790 -0.117975 -0.230032 -0.018437 -0.055918 0.118902 0.193508 0.094642 -0.053541 0.047567 0.130919 0.065267 0.009071 -0.316234 -0.001996 0.005525 -0.045853 0.046100 -0.052765 0.021444 -0.137465 -0.087785 -0.116258 0.140775 0.033251 -0.018858 0.032381 -0.081723 0.168685 0.106469 -0.083413 -0.010210 0.254583 0.011272 -0.134386 -0.119017 -0.096626 -0.021107 -0.016243 0.113253 -0.125107 -0.007234 -0.091232 0.092102 -0.008931 -0.284413 -0.059662 -0.034965 -0.148747 0.051463 0.031214 -0.123084 0.088955 -0.092967 0.029653 0.063887 0.012297 -0.109671 0.047362 0.166012 -0.115500 0.144377 -0.077394 0.080898 -0.025745 0.073435 0.079111 0.080573 -0.092073 -0.064190 -0.116530 -0.026790 0.060447 0.269597 0.152459 -0.069561 0.226883 -0.017802 0.009147 -0.127424 0.054781 -0.180105 0.086965 -0.028682 -0.094581 0.142107 0.038958 -0.156798 0.210093 -0.121329 -0.005064 0.145837 0.189213 0.153764 0.147279 -0.099797 0.141669 -0.067671 -0.072589 0.052490 -0.108261 -0.132536 -0.044424 -0.149635 0.104641 -0.008897 -0.035933 0.053361 -0.079241 -0.090068 -0.138577 -0.060960 -0.032518 -0.016931 0.040565
32 -0.030809 -0.066252 0.000800 -0.048754 -0.020645 -0.006925 0.030044 0.040683 -0.009042 -0.003933 -0.015598 0.095157 0.031881 0.025225 -0.038669 -0.073079 -0.006533 -0.019286 0.035196 0.063556 0.030837 -0.014338 0.014508 0.042140 0.019637 0.003451 -0.105988 0.001464 0.003150 -0.016879 0.014441 -0.019651 0.011128 -0.044689 -0.032531 -0.038341 0.049118 0.014470 -0.006819 0.007725 -0.030334 0.058775 0.034658 -0.028059 -0.007652 0.083512 0.005247 -0.042786 -0.040895 -0.036282 -0.007714 -0.004868 0.036744 -0.039247 -0.007106 -0.034313 0.029573 -0.004332 -0.095619 -0.020801 -0.009639 -0.048989 0.012681 0.015166 -0.043133 0.028396 -0.035082 0.014396 0.022363 0.001556 -0.041576 0.019979 0.056354 -0.038854 0.044994 -0.022389 0.029041 -0.009393 0.023794 0.027221 0.025343 -0.033284 -0.016864 -0.039436 -0.009776 0.023882 0.090029 0.049941 -0.021413 0.073990 -0.003522 0.004389 -0.040113 0.016636 -0.056727 0.029980 -0.009269 -0.033088 0.042604 0.009527 -0.050393 0.068291 -0.043263 -0.004088 0.052303 0.066192 0.053571 0.047023 -0.034557 0.050286 -0.021690 -0.027193 0.017918 -0.032761 -0.042054 -0.011470 -0.049631 0.038776 0.001528 -0.014829 0.018323 -0.028544 -0.031444 -0.045208 -0.017708 -0.015724 -0.009004 0.016745
55 -0.039657 -0.090734 0.007742 -0.068874 -0.029954 -0.012612 0.042106 0.057539 -0.006457 -0.004155 -0.018072 0.133310 0.044008 0.035811 -0.056341 -0.106771 -0.011339 -0.022730 0.054030 0.088462 0.046744 -0.023119 0.023959 0.061197 0.034306 0.006055 -0.150944 -0.005554 0.001128 -0.017774 0.023548 -0.028869 0.014031 -0.066880 -0.040438 -0.053189 0.061183 0.015620 -0.011424 0.012239 -0.036176 0.083943 0.052700 -0.040951 -0.003668 0.123354 0.005509 -0.063385 -0.055931 -0.048406 -0.012261 -0.008189 0.057358 -0.056763 -0.009854 -0.045914 0.046098 -0.005424 -0.135203 -0.030037 -0.012325 -0.070025 0.023696 0.014932 -0.053520 0.045003 -0.044134 0.013468 0.032233 0.005402 -0.054799 0.025862 0.081507 -0.049585 0.070603 -0.034895 0.040963 -0.017673 0.031681 0.041939 0.038193 -0.046814 -0.026343 -0.058834 -0.017074 0.029751 0.124807 0.065754 -0.034779 0.108881 -0.002790 0.006431 -0.056950 0.023584 -0.085619 0.041315 -0.016208 -0.043221 0.066308 0.018729 -0.070830 0.101920 -0.057691 -0.003659 0.070720 0.090750 0.071821 0.071148 -0.040565 0.069713 -0.033940 -0.031582 0.025645 -0.051987 -0.059781 -0.020971 -0.066097 0.048337 0.000580 -0.022584 0.030799 -0.033152 -0.046744 -0.069986 -0.030486 -0.016170 -0.009291 0.022177
44 -0.038562 -0.087061 0.001902 -0.070295 -0.028326 -0.009905 0.037730 0.058642 -0.007661 -0.005724 -0.019013 0.131009 0.042835 0.034382 -0.051977 -0.103488 -0.012529 -0.029747 0.053147 0.089144 0.043053 -0.019970 0.021168 0.063121 0.035104 0.005271 -0.143745 -0.000060 0.005099 -0.019417 0.023130 -0.030020 0.006974 -0.067402 -0.041362 -0.054768 0.062096 0.019234 -0.009114 0.011338 -0.041079 0.083128 0.047925 -0.038234 -0.006328 0.118053 0.001201 -0.060022 -0.060664 -0.047068 -0.010887 -0.007491 0.052957 -0.059011 -0.004108 -0.045502 0.046146 -0.008164 -0.130421 -0.030991 -0.015697 -0.069552 0.022233 0.012800 -0.053911 0.044645 -0.049461 0.019822 0.031570 0.009304 -0.048974 0.022789 0.076900 -0.054415 0.065094 -0.033038 0.036069 -0.017422 0.035278 0.040189 0.035317 -0.047171 -0.029813 -0.057628 -0.014226 0.024922 0.126281 0.067378 -0.035344 0.105513 -0.009339 0.002735 -0.060255 0.024486 -0.084558 0.044329 -0.011369 -0.042674 0.060997 0.020744 -0.071442 0.102556 -0.055506 -0.001326 0.069835 0.090438 0.073966 0.070783 -0.046673 0.067798 -0.028507 -0.037751 0.017759 -0.047976 -0.063159 -0.015601 -0.070208 0.047251 -0.002616 -0.020617 0.029277 -0.037384 -0.044413 -0.061223 -0.026568 -0.019505 -0.009295 0.016794
43 -0.041380 -0.082561 0.005593 -0.067398 -0.025212 -0.013356 0.040237 0.056625 -0.008119 -0.006707 -0.017805 0.126100 0.040792 0.032976 -0.048307 -0.101786 -0.013644 -0.023823 0.048319 0.083613 0.042704 -0.022355 0.026521 0.055778 0.028419 0.009091 -0.140578 -0.001161 0.001415 -0.018800 0.024597 -0.021932 0.009538 -0.059461 -0.037129 -0.050366 0.060742 0.015220 -0.004615 0.016031 -0.032742 0.078430 0.050248 -0.037004 -0.010037 0.113374 0.006671 -0.061928 -0.056208 -0.045761 -0.007510 -0.005008 0.051461 -0.054023 -0.007933 -0.044125 0.046366 -0.004469 -0.132287 -0.028355 -0.014811 -0.063300 0.018219 0.019477 -0.055536 0.038091 -0.041089 0.013867 0.030086 0.009164 -0.047079 0.026598 0.076737 -0.051965 0.063390 -0.037458 0.038065 -0.016030 0.029495 0.039124 0.038615 -0.039491 -0.026364 -0.050619 -0.014725 0.025550 0.120460 0.069714 -0.030130 0.103435 -0.004275 0.004994 -0.054745 0.029683 -0.078473 0.041305 -0.013613 -0.043691 0.062501 0.019190 -0.066967 0.098527 -0.054807 -0.003337 0.069895 0.082367 0.072017 0.066094 -0.037423 0.062666 -0.029352 -0.032283 0.018516 -0.046624 -0.063349 -0.020154 -0.068052 0.046024 -0.000621 -0.018169 0.028647 -0.037375 -0.043129 -0.061062 -0.027856 -0.016010 -0.005039 0.017721
73 -0.036163 -0.070668 0.005823 -0.058888 -0.019261 -0.008539 0.033215 0.049414 -0.012131 -0.009266 -0.019048 0.105487 0.038016 0.030028 -0.043935 -0.088612 -0.009775 -0.023563 0.041302 0.069871 0.037244 -0.020787 0.018491 0.046501 0.024388 0.004608 -0.118211 0.000887 0.004461 -0.020154 0.015540 -0.023204 0.011953 -0.056675 -0.036679 -0.046430 0.050935 0.010711 -0.009231 0.009278 -0.034775 0.062453 0.043362 -0.031081 -0.007781 0.099312 0.004603 -0.051513 -0.044840 -0.037193 -0.009917 -0.006027 0.045208 -0.043418 -0.004953 -0.038898 0.035472 -0.004401 -0.106198 -0.020373 -0.014169 -0.058535 0.020610 0.010750 -0.047680 0.036472 -0.038520 0.012418 0.025235 0.006665 -0.040024 0.021353 0.063804 -0.038868 0.056187 -0.032290 0.031818 -0.014810 0.030844 0.032779 0.033013 -0.039428 -0.021154 -0.045850 -0.008121 0.020023 0.098167 0.054097 -0.021977 0.087662 -0.005983 0.001765 -0.050316 0.021679 -0.067016 0.036176 -0.008055 -0.039005 0.056123 0.013708 -0.061731 0.080169 -0.048502 -0.003189 0.058928 0.071294 0.056845 0.056147 -0.035663 0.051212 -0.025897 -0.029058 0.018971 -0.041210 -0.051729 -0.015819 -0.057740 0.043501 0.001402 -0.015659 0.025398 -0.026090 -0.037277 -0.053506 -0.021040 -0.013134 -0.002975 0.017425
34 -0.025406 -0.053265 0.005861 -0.036756 -0.013086 -0.007868 0.025920 0.033121 -0.008437 -0.003688 -0.015110 0.075818 0.027583 0.019014 -0.033872 -0.062796 -0.002288 -0.013865 0.034200 0.053927 0.025207 -0.014660 0.018271 0.032849 0.018695 -0.000162 -0.082578 -0.003220 0.000583 -0.009100 0.016346 -0.014269 0.003268 -0.036794 -0.023152 -0.028430 0.041271 0.011013 -0.004116 0.010381 -0.024298 0.050004 0.031269 -0.020543 -0.005277 0.065672 0.004391 -0.038552 -0.030610 -0.023716 -0.003995 -0.004348 0.032736 -0.030221 -0.005673 -0.029798 0.025731 -0.002785 -0.077583 -0.016959 -0.010245 -0.037398 0.008476 0.010521 -0.031791 0.022262 -0.028439 0.005740 0.021016 0.004125 -0.032374 0.013886 0.041681 -0.028194 0.038718 -0.020712 0.019701 -0.004567 0.020409 0.024048 0.018225 -0.027392 -0.014981 -0.033811 -0.005472 0.019638 0.071595 0.040773 -0.020941 0.063979 -0.006995 0.001956 -0.034610 0.015142 -0.048858 0.026884 -0.009352 -0.023238 0.036058 0.009004 -0.043820 0.061260 -0.033236 -0.004218 0.037046 0.050754 0.044161 0.039169 -0.026058 0.040891 -0.015977 -0.019555 0.012742 -0.025392 -0.036505 -0.012312 -0.038440 0.032349 -0.002536 -0.007468 0.015430 -0.021532 -0.023574 -0.037723 -0.020067 -0.007504 -0.001917 0.012213
46 -0.075871 -0.163220 0.013429 -0.120513 -0.050301 -0.014963 0.072433 0.106492 -0.021862 -0.010673 -0.033083 0.237776 0.079690 0.064615 -0.099139 -0.192977 -0.016376 -0.046250 0.096642 0.161254 0.073910 -0.044824 0.044130 0.112868 0.059669 0.006421 -0.267194 -0.007394 0.005937 -0.038790 0.038293 -0.047304 0.016903 -0.114285 -0.076351 -0.097716 0.114717 0.027122 -0.011466 0.028638 -0.070680 0.141923 0.092428 -0.068918 -0.015629 0.216970 0.006316 -0.112490 -0.106614 -0.084955 -0.013144 -0.013651 0.093578 -0.102122 -0.014615 -0.077484 0.080670 -0.010016 -0.245234 -0.050982 -0.025758 -0.126299 0.034438 0.028607 -0.102848 0.074141 -0.083158 0.027392 0.056697 0.010062 -0.099246 0.041452 0.137847 -0.093764 0.123475 -0.061110 0.067991 -0.025963 0.059373 0.064777 0.069258 -0.081465 -0.054336 -0.101594 -0.021637 0.048308 0.223589 0.125426 -0.059900 0.196618 -0.007621 0.005685 -0.104380 0.053406 -0.144671 0.077682 -0.025686 -0.078169 0.114938 0.032884 -0.136678 0.176150 -0.104898 -0.004665 0.124019 0.156939 0.128135 0.127469 -0.075749 0.125423 -0.057215 -0.057710 0.040888 -0.088225 -0.116061 -0.037764 -0.121755 0.086303 -0.009659 -0.033496 0.045672 -0.067692 -0.075481 -0.113967 -0.049660 -0.032870 -0.015985 0.033432
9 -0.021463 -0.043643 -0.000181 -0.034750 -0.014284 -0.005564 0.019291 0.031784 -0.001550 -0.004458 -0.009103 0.068404 0.023811 0.012304 -0.028252 -0.054240 -0.006679 -0.010397 0.025469 0.045791 0.018021 -0.008320 0.015905 0.027337 0.015148 0.005608 -0.075379 -0.004799 0.000636 -0.007793 0.012207 -0.010601 0.002493 -0.034618 -0.017939 -0.029620 0.036089 0.007869 -0.007711 0.010799 -0.022230 0.036073 0.027115 -0.015211 -0.006364 0.057033 0.001872 -0.034558 -0.030808 -0.027009 -0.006588 -0.003694 0.024109 -0.027316 -0.000191 -0.023698 0.020126 -0.002454 -0.067894 -0.016144 -0.006880 -0.034748 0.007879 0.010263 -0.025526 0.019067 -0.021152 0.008568 0.013685 0.002859 -0.024662 0.015122 0.042468 -0.027745 0.036421 -0.019600 0.017584 -0.003189 0.013876 0.021535 0.021177 -0.022860 -0.018045 -0.031151 -0.007657 0.013842 0.062450 0.034773 -0.017447 0.054966 -0.001120 0.000631 -0.025995 0.017024 -0.042428 0.017401 -0.005211 -0.023037 0.032632 0.011328 -0.040126 0.046632 -0.030872 -0.000591 0.035286 0.044159 0.033698 0.038584 -0.026151 0.030519 -0.011996 -0.017131 0.014790 -0.026363 -0.031717 -0.010732 -0.037652 0.028823 -0.002922 -0.006208 0.012174 -0.020110 -0.023344 -0.032748 -0.017735 -0.005044 -0.002214 0.012147
13 -0.012747 -0.034703 0.003887 -0.029521 -0.012812 -0.004868 0.016257 0.020413 -0.002817 0.000208 -0.010055 0.048761 0.020034 0.009843 -0.020433 -0.041808 -0.007393 -0.011170 0.020107 0.031972 0.020665 -0.009481 0.006228 0.025295 0.008785 0.002469 -0.053653 0.001258 0.002112 -0.007811 0.006012 -0.008707 0.002805 -0.028004 -0.016778 -0.023632 0.029193 0.010032 -0.002736 0.004697 -0.013151 0.031796 0.019562 -0.013253 -0.002622 0.049892 0.002353 -0.023423 -0.023999 -0.015593 -0.006869 -0.000761 0.023037 -0.020008 -0.005051 -0.020044 0.013902 -0.004860 -0.050096 -0.013204 -0.003550 -0.026798 0.006502 0.003716 -0.019230 0.013577 -0.020283 0.004239 0.015013 -0.000946 -0.023640 0.007734 0.030503 -0.023030 0.027231 -0.016924 0.014792 -0.007117 0.010355 0.012314 0.014721 -0.020199 -0.011927 -0.023947 -0.009229 0.011066 0.051029 0.026517 -0.015242 0.045932 0.001516 -0.000874 -0.025744 0.007218 -0.031413 0.014719 -0.005426 -0.021272 0.022583 0.007480 -0.026008 0.039115 -0.023171 -0.000892 0.026284 0.030580 0.030666 0.024834 -0.017401 0.022941 -0.008767 -0.014192 0.007655 -0.016759 -0.027679 -0.010490 -0.030022 0.022978 0.000066 -0.009289 0.011555 -0.010977 -0.013305 -0.024550 -0.012683 -0.004168 -0.001121 0.010495
31 -0.019791 -0.046113 0.006416 -0.033706 -0.016663 -0.009117 0.019780 0.027364 -0.008737 -0.002461 -0.007455 0.073330 0.028294 0.014089 -0.028952 -0.059664 -0.009548 -0.011820 0.030546 0.047104 0.024005 -0.014307 0.010621 0.035921 0.018509 0.004644 -0.075329 0.001942 0.001383 -0.010573 0.008850 -0.010676 0.001794 -0.032083 -0.020427 -0.026112 0.033790 0.007698 -0.001102 0.003826 -0.020102 0.044870 0.026472 -0.021788 -0.004877 0.063069 -0.000973 -0.036172 -0.031390 -0.022785 -0.008895 -0.001744 0.028561 -0.032590 -0.001978 -0.025704 0.024285 -0.005041 -0.074906 -0.018203 -0.004460 -0.037963 0.008496 0.006064 -0.032137 0.020245 -0.028021 0.006989 0.014028 0.003297 -0.028338 0.010603 0.041529 -0.027821 0.037403 -0.018606 0.024783 -0.008249 0.021354 0.022380 0.021145 -0.025158 -0.016960 -0.031793 -0.005939 0.015450 0.062805 0.034423 -0.016356 0.054447 -0.007215 0.004664 -0.027545 0.013372 -0.047379 0.023032 -0.010136 -0.024006 0.033723 0.012663 -0.042719 0.052950 -0.030127 -0.004614 0.035333 0.047607 0.039177 0.039525 -0.021357 0.036464 -0.019287 -0.022362 0.009663 -0.029374 -0.031958 -0.007133 -0.039730 0.030275 -0.005072 -0.007464 0.012448 -0.020878 -0.025441 -0.038807 -0.016338 -0.006747 -0.007680 0.010770
68 -0.040422 -0.077295 0.006751 -0.061812 -0.023030 -0.007434 0.037750 0.053007 -0.011906 -0.008611 -0.020786 0.122795 0.044681 0.027723 -0.048028 -0.095965 -0.012983 -0.022843 0.050149 0.083322 0.038844 -0.019925 0.022006 0.060105 0.027518 0.004967 -0.137614 -0.001342 0.003737 -0.017895 0.022211 -0.024369 0.009727 -0.057620 -0.036489 -0.050584 0.056947 0.016204 -0.005997 0.013429 -0.032001 0.076838 0.043852 -0.037955 -0.002984 0.106563 0.005355 -0.055478 -0.056131 -0.038583 -0.008396 -0.010632 0.046353 -0.051924 -0.007694 -0.038863 0.039462 -0.008231 -0.121332 -0.024789 -0.011372 -0.065131 0.023114 0.016683 -0.047709 0.040145 -0.044289 0.015131 0.031287 0.009227 -0.052148 0.018434 0.070429 -0.051539 0.058931 -0.030506 0.039806 -0.013208 0.027921 0.036220 0.033526 -0.037122 -0.028835 -0.049478 -0.009140 0.027121 0.113971 0.060448 -0.026930 0.101226 -0.003260 0.003276 -0.055497 0.027614 -0.076062 0.038760 -0.013495 -0.042522 0.057773 0.016583 -0.068249 0.088210 -0.052578 -0.000572 0.062330 0.080210 0.066747 0.062067 -0.043428 0.065900 -0.027375 -0.028938 0.016597 -0.043005 -0.056747 -0.016940 -0.061110 0.045183 -0.003724 -0.015759 0.020747 -0.027784 -0.036859 -0.058276 -0.023876 -0.012534 -0.009324 0.019974
57 -0.024624 -0.056456 0.000401 -0.047189 -0.017162 -0.004966 0.022828 0.036907 -0.005556 -0.003574 -0.013091 0.082719 0.031988 0.021967 -0.036457 -0.071396 -0.008702 -0.016236 0.033998 0.056847 0.025949 -0.015466 0.018660 0.037957 0.018509 0.006067 -0.095446 0.002270 0.003158 -0.014838 0.011544 -0.014139 0.006868 -0.041272 -0.027178 -0.031211 0.037272 0.008398 -0.006957 0.012058 -0.022522 0.051291 0.031844 -0.026011 -0.004288 0.078870 0.004294 -0.040540 -0.035147 -0.027089 -0.009378 -0.004257 0.031689 -0.037908 -0.005313 -0.031091 0.028598 0.000101 -0.084908 -0.015615 -0.012323 -0.040184 0.009762 0.011803 -0.033628 0.023997 -0.029542 0.008760 0.018374 0.004968 -0.030992 0.017031 0.052044 -0.036138 0.046152 -0.024591 0.026241 -0.008309 0.025234 0.026730 0.024508 -0.024403 -0.014736 -0.033546 -0.005537 0.019497 0.080024 0.041652 -0.022090 0.070765 -0.001890 0.004027 -0.040961 0.019599 -0.055784 0.027701 -0.007786 -0.027596 0.043455 0.009086 -0.044775 0.065114 -0.038966 -0.004436 0.043703 0.059744 0.047553 0.047909 -0.029180 0.045283 -0.017552 -0.021647 0.010170 -0.030337 -0.041274 -0.011791 -0.041116 0.029177 -0.002818 -0.011994 0.019328 -0.024682 -0.030705 -0.041920 -0.016488 -0.013451 -0.004400 0.010896
5 -0.018737 -0.045944 -0.000925 -0.032343 -0.010811 -0.006544 0.021866 0.024775 -0.001335 -0.006092 -0.006488 0.065229 0.018998 0.016433 -0.023760 -0.053901 -0.006841 -0.015277 0.024896 0.044015 0.022880 -0.007898 0.008647 0.033138 0.016642 0.000177 -0.070308 -0.004548 0.000215 -0.010283 0.008101 -0.014305 0.002243 -0.029762 -0.017858 -0.028869 0.032045 0.009241 -0.004881 0.007348 -0.014828 0.037357 0.022086 -0.018004 -0.006211 0.056883 0.002275 -0.031012 -0.027310 -0.024017 -0.005259 -0.001106 0.028353 -0.030532 -0.000898 -0.023881 0.023240 -0.003615 -0.061550 -0.016398 -0.008520 -0.035212 0.012688 0.010942 -0.029409 0.020185 -0.018632 0.007269 0.015591 -0.000455 -0.026802 0.012015 0.034392 -0.028404 0.032574 -0.019685 0.017070 -0.009792 0.012688 0.014589 0.014575 -0.020619 -0.015223 -0.026161 -0.008560 0.009833 0.061399 0.036464 -0.012989 0.051110 -0.000123 -0.000240 -0.026236 0.014155 -0.042030 0.021233 -0.010069 -0.024038 0.034290 0.012286 -0.038594 0.047744 -0.028847 -0.005205 0.029765 0.040725 0.035567 0.033457 -0.024132 0.030786 -0.016866 -0.016072 0.011675 -0.026515 -0.032121 -0.005396 -0.029180 0.024397 0.001724 -0.007193 0.012844 -0.015613 -0.019860 -0.035515 -0.017643 -0.006120 -0.004774 0.013511
6 -0.018001 -0.042012 0.003827 -0.027358 -0.012844 -0.004243 0.019810 0.030056 -0.005432 -0.003102 -0.007611 0.059600 0.020256 0.012732 -0.022982 -0.049650 -0.005607 -0.014957 0.027208 0.038671 0.018963 -0.013039 0.010571 0.025534 0.018068 0.001038 -0.067067 -0.005004 0.001622 -0.005662 0.010494 -0.015888 0.006356 -0.030793 -0.018778 -0.025595 0.031362 0.010979 -0.007609 0.003043 -0.019794 0.038620 0.027481 -0.019029 -0.006953 0.055937 0.004131 -0.033056 -0.023284 -0.018743 -0.004249 -0.001928 0.020755 -0.026021 -0.000358 -0.023180 0.019868 -0.004012 -0.059656 -0.016216 -0.002356 -0.029559 0.010384 0.008438 -0.025229 0.015905 -0.024281 0.008792 0.011090 -0.000510 -0.022338 0.010695 0.033414 -0.020666 0.033446 -0.016815 0.020671 -0.002776 0.014356 0.018982 0.013964 -0.017606 -0.011046 -0.024424 -0.002049 0.009454 0.060449 0.030557 -0.015334 0.050033 -0.000592 0.002929 -0.025088 0.014776 -0.038357 0.020889 -0.005413 -0.024911 0.032795 0.006659 -0.031485 0.044503 -0.025759 -0.000899 0.029669 0.043761 0.031997 0.036314 -0.018373 0.029483 -0.011095 -0.014182 0.009411 -0.021108 -0.028446 -0.004722 -0.029962 0.021287 -0.000989 -0.009340 0.013983 -0.018979 -0.017620 -0.035528 -0.017844 -0.006183 0.000992 0.006124
8 -0.012179 -0.031511 0.004057 -0.020487 -0.011371 -0.002185 0.014381 0.019595 -0.003426 0.000785 -0.007960 0.041564 0.012063 0.010243 -0.014140 -0.036083 -0.001200 -0.008044 0.020759 0.030285 0.012643 -0.007608 0.007365 0.015692 0.011158 0.005982 -0.046662 0.001998 -0.000460 -0.003707 0.005868 -0.007892 0.003855 -0.017920 -0.014627 -0.018466 0.024058 0.004243 0.000960 0.008517 -0.013136 0.025378 0.013121 -0.008918 -0.001690 0.040119 -0.001510 -0.020620 -0.019673 -0.012593 -0.004960 -0.005265 0.020700 -0.015392 -0.005168 -0.014237 0.010467 -0.002845 -0.044524 -0.010881 -0.006643 -0.024988 0.007507 0.006630 -0.015509 0.010393 -0.011408 0.003608 0.008898 -0.001211 -0.019324 0.006314 0.022460 -0.017078 0.020550 -0.009576 0.010417 -0.005388 0.009802 0.011709 0.013797 -0.017292 -0.011524 -0.015421 -0.007579 0.012986 0.041801 0.022402 -0.008661 0.030985 0.000126 -0.001307 -0.019110 0.008159 -0.027397 0.010744 -0.005659 -0.017871 0.018101 0.002525 -0.020260 0.028052 -0.021835 -0.002147 0.025137 0.024549 0.024863 0.018143 -0.015537 0.018834 -0.013337 -0.008861 0.008840 -0.015861 -0.023456 -0.002538 -0.023158 0.014890 -0.003048 -0.005871 0.006541 -0.014737 -0.010553 -0.020504 -0.007482 -0.009129 0.000745 0.003992
10 -0.032457 -0.073220 0.003235 -0.054646 -0.021951 -0.005397 0.033692 0.048370 -0.005204 -0.008795 -0.014067 0.109200 0.035485 0.029473 -0.045792 -0.084070 -0.006919 -0.018495 0.042759 0.073546 0.037514 -0.019539 0.021290 0.053917 0.024704 0.004124 -0.119024 -0.005278 0.001106 -0.018947 0.014866 -0.025823 0.009633 -0.050560 -0.038378 -0.045358 0.056150 0.009982 -0.009850 0.009397 -0.033823 0.063870 0.044791 -0.027217 -0.002771 0.101004 0.006645 -0.052842 -0.042972 -0.040984 -0.006872 -0.006201 0.046459 -0.047947 -0.006713 -0.034870 0.037401 -0.007674 -0.113328 -0.020373 -0.010529 -0.056054 0.013856 0.015091 -0.045015 0.035229 -0.039327 0.011828 0.020991 0.001518 -0.040664 0.016560 0.066941 -0.042998 0.058399 -0.027424 0.032424 -0.013152 0.024023 0.030979 0.026506 -0.038208 -0.023107 -0.042752 -0.013357 0.023957 0.098697 0.053997 -0.025404 0.086302 -0.002215 0.003261 -0.044542 0.025149 -0.066870 0.037328 -0.012392 -0.040830 0.054223 0.017275 -0.061484 0.079913 -0.046084 -0.001213 0.055038 0.071146 0.061877 0.061189 -0.039231 0.056876 -0.021368 -0.032043 0.019926 -0.042419 -0.049711 -0.014602 -0.054667 0.044042 -0.003534 -0.018009 0.022777 -0.031207 -0.035692 -0.054814 -0.021154 -0.014674 -0.006855 0.017572
54 -0.017381 -0.033626 0.004865 -0.020608 -0.012561 -0.005303 0.012986 0.016320 -0.002061 -0.005323 -0.010065 0.042776 0.017952 0.013187 -0.020882 -0.034760 -0.005963 -0.010547 0.020797 0.027920 0.013751 -0.007856 0.010099 0.024399 0.011207 -0.001490 -0.052036 -0.001655 -0.001016 -0.010310 0.007171 -0.005717 0.003183 -0.025072 -0.012034 -0.018064 0.020054 0.006873 0.000704 0.004668 -0.013192 0.027032 0.017089 -0.012002 -0.001632 0.042177 -0.001759 -0.022738 -0.018060 -0.014370 -0.007021 -0.003493 0.021586 -0.020065 -0.002062 -0.018029 0.015128 -0.000402 -0.044832 -0.008560 -0.007126 -0.022661 0.005229 0.004315 -0.020095 0.011502 -0.015199 0.002402 0.011905 0.005885 -0.014354 0.008192 0.026610 -0.014452 0.023251 -0.009255 0.011251 -0.005043 0.011184 0.012047 0.011848 -0.014937 -0.010895 -0.022453 -0.003747 0.006176 0.041291 0.021826 -0.013059 0.037766 0.001396 0.000967 -0.022538 0.008856 -0.025350 0.017233 -0.008200 -0.018258 0.024011 0.004038 -0.024556 0.031226 -0.015787 -0.002396 0.022308 0.027767 0.028178 0.026849 -0.018805 0.027129 -0.013859 -0.012497 0.007590 -0.015233 -0.024709 -0.009534 -0.021053 0.015173 0.001011 -0.006281 0.008863 -0.009637 -0.015983 -0.024776 -0.010019 -0.005510 0.001589 0.006782
41 -0.031134 -0.064454 0.005671 -0.046042 -0.017303 -0.007429 0.028996 0.038994 -0.005588 -0.008391 -0.013569 0.091727 0.029238 0.024300 -0.036406 -0.069822 -0.007447 -0.016873 0.038334 0.062954 0.029080 -0.019967 0.015811 0.041656 0.022746 0.005321 -0.104846 -0.000980 0.001718 -0.015103 0.014143 -0.015432 0.003348 -0.043890 -0.030182 -0.034983 0.045936 0.009831 -0.008888 0.009658 -0.023977 0.053713 0.035097 -0.029910 -0.004192 0.084563 0.005180 -0.039785 -0.038383 -0.034209 -0.005921 -0.006960 0.034509 -0.043294 -0.000801 -0.032789 0.032396 -0.000514 -0.092587 -0.022218 -0.009646 -0.045997 0.015981 0.014851 -0.037533 0.029745 -0.035176 0.010331 0.022648 0.006104 -0.034869 0.014186 0.055142 -0.034659 0.044174 -0.026319 0.029925 -0.009259 0.023126 0.029930 0.027021 -0.031955 -0.021272 -0.038927 -0.005460 0.016158 0.084996 0.048462 -0.021674 0.072999 -0.005918 0.001564 -0.039477 0.016939 -0.058420 0.031849 -0.011326 -0.027439 0.046300 0.015682 -0.054120 0.066005 -0.036156 -0.003894 0.052042 0.061932 0.049510 0.047117 -0.033445 0.048161 -0.021637 -0.024980 0.011679 -0.037277 -0.047006 -0.015578 -0.050969 0.034676 -0.001467 -0.013892 0.015896 -0.027750 -0.029596 -0.042068 -0.022183 -0.012226 -0.002577 0.009785
7 -0.008864 -0.026732 -0.001449 -0.021647 -0.012023 -0.000739 0.012549 0.019161 0.000296 -0.003122 -0.007669 0.040377 0.015245 0.005963 -0.013758 -0.031905 -0.002141 -0.008244 0.014109 0.026446 0.013916 -0.009019 0.007797 0.021919 0.013359 -0.000848 -0.048680 -0.002873 -0.001464 -0.007522 0.009188 -0.005378 0.000545 -0.023159 -0.015833 -0.017198 0.017832 0.001273 -0.003975 0.002468 -0.015537 0.025237 0.016956 -0.009024 -0.002046 0.038157 0.002277 -0.019452 -0.014662 -0.013548 -0.005060 0.000238 0.015970 -0.013886 -0.004900 -0.011557 0.013664 -0.003886 -0.038057 -0.004667 -0.002942 -0.020837 0.007411 0.007431 -0.018149 0.014078 -0.012580 0.009183 0.009659 -0.001011 -0.017895 0.009856 0.020744 -0.014251 0.021449 -0.009742 0.011315 -0.002335 0.010368 0.009072 0.011943 -0.010165 -0.009749 -0.013307 -0.004979 0.005740 0.034810 0.021952 -0.011352 0.035065 0.001648 0.000926 -0.015138 0.007510 -0.025898 0.015703 -0.001585 -0.017636 0.017162 0.006266 -0.024201 0.031439 -0.020537 -0.001761 0.019961 0.023832 0.018232 0.021982 -0.010181 0.021233 -0.007694 -0.006935 0.005290 -0.018293 -0.021654 -0.005988 -0.021656 0.013170 -0.004062 -0.002106 0.006630 -0.007643 -0.010308 -0.019428 -0.011860 -0.006976 0.001575 0.009631
12 -0.016265 -0.030778 0.002503 -0.023896 -0.010770 -0.004831 0.009530 0.014664 -0.005623 0.000523 -0.002409 0.044341 0.013451 0.012291 -0.016388 -0.030193 -0.006688 -0.006967 0.019205 0.023679 0.014769 -0.004107 0.009317 0.017060 0.006354 0.000327 -0.043401 0.000309 0.001471 -0.006569 0.008540 -0.006955 -0.000579 -0.019288 -0.012169 -0.014174 0.019190 0.007514 -0.002589 0.006594 -0.011820 0.024462 0.017579 -0.012904 -0.003160 0.040639 0.002790 -0.020594 -0.021073 -0.015481 -0.004298 -0.000793 0.015436 -0.021463 -0.005174 -0.017210 0.014179 -0.001120 -0.041613 -0.006680 -0.001999 -0.019877 0.003886 0.007669 -0.020313 0.013430 -0.011854 0.005023 0.012665 0.005642 -0.012550 0.009554 0.025344 -0.015165 0.021492 -0.011465 0.016132 -0.001008 0.010895 0.015746 0.010656 -0.012517 -0.011975 -0.019279 -0.006872 0.012070 0.037785 0.020681 -0.012144 0.030193 -0.002328 0.003648 -0.019632 0.007335 -0.023450 0.010853 -0.001834 -0.017762 0.021661 0.005646 -0.026818 0.027594 -0.017119 0.000136 0.021863 0.023489 0.022456 0.021364 -0.009820 0.017631 -0.012701 -0.010917 0.006608 -0.013084 -0.018333 -0.002747 -0.022639 0.018759 -0.004519 -0.009232 0.006802 -0.013182 -0.011598 -0.017915 -0.010830 -0.004523 -0.005912 0.006202
51 -0.026296 -0.056482 0.002579 -0.043009 -0.019198 -0.005955 0.023975 0.035180 -0.006076 -0.002285 -0.011641 0.084841 0.028762 0.020052 -0.035765 -0.069856 -0.006564 -0.013822 0.032312 0.053637 0.027048 -0.016200 0.017143 0.037411 0.022436 0.004485 -0.094346 -0.002994 0.004895 -0.010339 0.013457 -0.016471 0.008100 -0.040390 -0.028016 -0.034788 0.045496 0.010177 -0.008841 0.012794 -0.024125 0.054274 0.029134 -0.027350 -0.003769 0.079584 0.005487 -0.042542 -0.035501 -0.029671 -0.006175 -0.007486 0.037354 -0.040970 -0.006116 -0.031520 0.030262 -0.007289 -0.085052 -0.017694 -0.006609 -0.044798 0.010698 0.014443 -0.035783 0.030536 -0.032181 0.012859 0.018424 0.003861 -0.032908 0.013530 0.050257 -0.036709 0.044465 -0.024702 0.028404 -0.010178 0.019030 0.021068 0.026017 -0.028835 -0.017711 -0.040019 -0.006175 0.019293 0.079782 0.046486 -0.024128 0.069340 -0.008325 0.005572 -0.036264 0.018629 -0.056442 0.023665 -0.012449 -0.029123 0.039625 0.014281 -0.046336 0.067999 -0.035455 -0.000348 0.044201 0.053982 0.049739 0.048940 -0.029743 0.043265 -0.018369 -0.020728 0.010839 -0.030671 -0.038083 -0.009345 -0.042652 0.034275 -0.002918 -0.010958 0.020182 -0.025067 -0.030101 -0.044897 -0.017707 -0.007683 -0.005256 0.011387
33 -0.020594 -0.046913 0.003978 -0.030886 -0.011350 -0.009023 0.018463 0.033004 -0.003012 -0.003781 -0.008032 0.064941 0.023367 0.013861 -0.023529 -0.051035 -0.006109 -0.010150 0.024151 0.043814 0.024682 -0.011683 0.015282 0.027857 0.013523 0.002779 -0.075528 -0.001339 0.003047 -0.008380 0.010523 -0.010541 0.005008 -0.029397 -0.024953 -0.029968 0.031862 0.007889 -0.007900 0.010946 -0.020639 0.041722 0.027017 -0.021444 -0.004909 0.061506 0.000725 -0.034364 -0.031518 -0.023374 -0.005688 -0.000788 0.028691 -0.030569 -0.007027 -0.021292 0.019745 -0.001510 -0.064030 -0.011227 -0.003591 -0.038094 0.008083 0.010592 -0.025046 0.018046 -0.019024 0.006369 0.016783 0.005881 -0.023219 0.011498 0.040142 -0.024253 0.030865 -0.015490 0.020804 -0.007540 0.017826 0.018538 0.022403 -0.023701 -0.015614 -0.030190 -0.005920 0.016770 0.060720 0.034137 -0.015413 0.054955 -0.000165 0.004285 -0.029608 0.012120 -0.037700 0.024662 -0.009586 -0.025890 0.035879 0.007815 -0.039451 0.047152 -0.029630 0.002653 0.036502 0.041042 0.036789 0.036120 -0.019705 0.031875 -0.016326 -0.016779 0.011846 -0.027928 -0.029583 -0.008356 -0.034111 0.021741 -0.004402 -0.012583 0.015703 -0.017984 -0.019263 -0.031893 -0.013664 -0.009532 -0.005948 0.007511
1 -0.027828 -0.055904 0.007232 -0.042869 -0.015164 -0.010150 0.021915 0.037190 -0.002958 -0.004213 -0.014099 0.075807 0.029682 0.017689 -0.034045 -0.065000 -0.003711 -0.016781 0.035721 0.050191 0.027071 -0.014155 0.015205 0.037717 0.019486 0.004644 -0.083958 0.001885 0.002914 -0.013889 0.009279 -0.013780 0.005438 -0.037537 -0.026979 -0.034794 0.034291 0.007720 -0.001447 0.004888 -0.025258 0.044018 0.031845 -0.019968 -0.005283 0.067177 -0.000423 -0.036701 -0.030065 -0.024108 -0.008703 -0.001723 0.029619 -0.029664 -0.007226 -0.025589 0.025520 0.000515 -0.081294 -0.014310 -0.006593 -0.043973 0.009450 0.009814 -0.035822 0.025358 -0.026046 0.011899 0.014160 0.003902 -0.031266 0.010386 0.048969 -0.030806 0.036440 -0.023067 0.026149 -0.010614 0.021787 0.018704 0.020264 -0.029178 -0.016610 -0.035552 -0.008987 0.013530 0.071581 0.039859 -0.015787 0.063676 -0.003337 0.002064 -0.034133 0.015590 -0.048831 0.024159 -0.008825 -0.029407 0.041352 0.012500 -0.045700 0.061206 -0.030484 -0.002316 0.043060 0.055139 0.044555 0.043412 -0.027579 0.040657 -0.019443 -0.022462 0.013834 -0.025981 -0.038919 -0.012737 -0.037404 0.031037 -0.004676 -0.012892 0.015836 -0.018790 -0.029082 -0.038767 -0.018891 -0.010373 -0.004795 0.012296
14 -0.024944 -0.053015 0.007279 -0.042536 -0.014502 -0.004450 0.020050 0.032003 -0.007779 -0.001929 -0.015324 0.076253 0.025231 0.019310 -0.030789 -0.059226 -0.003655 -0.014616 0.031877 0.048340 0.027104 -0.009884 0.013777 0.037290 0.016961 0.005256 -0.081153 0.002443 -0.002053 -0.008669 0.014709 -0.014382 0.004883 -0.034662 -0.021928 -0.032060 0.035396 0.009093 -0.006116 0.008324 -0.025232 0.046111 0.030083 -0.019884 -0.003787 0.069134 0.002971 -0.033702 -0.032582 -0.022501 -0.006929 -0.004854 0.029329 -0.030637 -0.003517 -0.027033 0.021991 0.000604 -0.078968 -0.017749 -0.008813 -0.042213 0.014222 0.006207 -0.034776 0.026198 -0.024055 0.006935 0.017013 0.002045 -0.033346 0.016207 0.041677 -0.026272 0.040994 -0.018515 0.023739 -0.008601 0.018691 0.018652 0.019301 -0.024660 -0.013802 -0.028048 -0.010331 0.019477 0.069578 0.037950 -0.016070 0.060447 -0.004727 0.000741 -0.033987 0.014571 -0.048567 0.027945 -0.010551 -0.022791 0.040314 0.011462 -0.044839 0.057097 -0.032557 0.000723 0.036706 0.052369 0.044096 0.043728 -0.028628 0.038020 -0.020972 -0.022960 0.010355 -0.026905 -0.032453 -0.011933 -0.042022 0.027636 -0.002772 -0.009626 0.015789 -0.022053 -0.025602 -0.040392 -0.015080 -0.011051 -0.005923 0.011396
15 -0.025174 -0.049768 0.005985 -0.039504 -0.014505 -0.002109 0.022528 0.027680 -0.005312 -0.005082 -0.009245 0.068963 0.024921 0.019226 -0.027272 -0.057798 -0.008413 -0.015787 0.025948 0.043453 0.026595 -0.010489 0.013611 0.033850 0.013885 0.003176 -0.080138 -0.001754 0.001685 -0.013621 0.009483 -0.012510 0.008582 -0.035942 -0.022257 -0.028804 0.032803 0.008392 -0.000966 0.009147 -0.023224 0.042563 0.025670 -0.019891 -0.000921 0.066987 -0.001823 -0.034142 -0.031270 -0.026143 -0.005329 -0.004200 0.027634 -0.028679 -0.005797 -0.027645 0.019340 -0.006534 -0.070115 -0.011490 -0.004585 -0.033323 0.011887 0.005477 -0.028426 0.025547 -0.023441 0.008462 0.019202 0.006345 -0.026089 0.010643 0.042985 -0.031511 0.032734 -0.019977 0.022878 -0.007107 0.014003 0.017020 0.019661 -0.021205 -0.014734 -0.032585 -0.009862 0.012451 0.064828 0.033037 -0.016630 0.059579 -0.001892 0.003352 -0.028119 0.012268 -0.046874 0.024896 -0.005861 -0.020275 0.035795 0.013163 -0.036164 0.052892 -0.032698 -0.000306 0.039471 0.043781 0.040267 0.038522 -0.023678 0.032511 -0.015828 -0.019223 0.010111 -0.029821 -0.035850 -0.006911 -0.034650 0.030385 -0.004800 -0.006975 0.017460 -0.022134 -0.019616 -0.032476 -0.019694 -0.008468 -0.001845 0.012825
16 -0.023469 -0.048806 0.004453 -0.038143 -0.017420 -0.006688 0.024131 0.031787 -0.005596 -0.003103 -0.013925 0.075065 0.024371 0.021596 -0.027262 -0.061692 -0.009584 -0.018504 0.026880 0.046554 0.024016 -0.011826 0.016547 0.033307 0.019653 0.004115 -0.080883 -0.002197 -0.000145 -0.014834 0.009662 -0.013409 0.004703 -0.040905 -0.022340 -0.029044 0.040244 0.005912 -0.007398 0.004317 -0.023987 0.048086 0.030547 -0.020900 -0.001810 0.065533 0.004166 -0.032504 -0.035274 -0.022222 -0.002280 -0.003695 0.030444 -0.030724 -0.001843 -0.025046 0.024169 -0.002251 -0.074603 -0.018959 -0.006040 -0.042593 0.010948 0.006158 -0.029550 0.021949 -0.025770 0.013352 0.015491 0.000519 -0.026893 0.009623 0.044413 -0.031431 0.040484 -0.021428 0.025646 -0.010056 0.017018 0.022864 0.024374 -0.026864 -0.014972 -0.033147 -0.006304 0.019406 0.070222 0.042117 -0.015685 0.061273 -0.006953 0.002870 -0.036804 0.016749 -0.045373 0.026135 -0.004891 -0.026849 0.034587 0.006672 -0.037728 0.057968 -0.027891 -0.003861 0.036959 0.046822 0.037696 0.039003 -0.022100 0.039492 -0.018208 -0.015783 0.008518 -0.026293 -0.033702 -0.008239 -0.039787 0.030733 -0.000834 -0.012735 0.015119 -0.018568 -0.026408 -0.039327 -0.013704 -0.007008 -0.003634 0.015033
