78 128
11 -0.057708 -0.107359 -0.015856 -0.084272 0.022446 -0.082945 0.091663 0.163614 0.034498 0.003950 -0.015059 0.246982 0.072395 -0.007603 -0.035577 -0.227025 -0.060067 -0.040322 0.101133 0.158200 0.093876 -0.075265 0.160995 0.110168 0.088126 0.007206 -0.268044 -0.001479 -0.016702 0.028294 0.050439 -0.091292 -0.021675 -0.129149 -0.049589 -0.086290 0.184314 0.033365 0.013532 0.028835 -0.053060 0.147403 0.203382 -0.047445 -0.105344 0.226940 0.029771 -0.057543 -0.046352 -0.067900 -0.019800 -0.070953 0.077007 -0.080172 -0.031323 -0.102756 0.176875 0.017977 -0.271682 0.004441 -0.045274 -0.111331 0.024209 0.096286 -0.104952 0.096393 -0.135023 0.033435 0.053993 -0.003940 0.018931 0.087683 0.231165 -0.162410 0.208011 -0.110651 0.091036 -0.030797 0.034625 0.102845 0.069033 -0.025679 -0.135622 -0.107813 -0.060583 0.118968 0.251869 0.091992 -0.016332 0.137916 -0.017500 -0.012086 -0.095587 0.093477 -0.186453 0.068300 -0.034674 -0.088511 0.106018 0.030186 -0.055703 0.168204 -0.177618 0.001736 0.203184 0.168827 0.166969 0.156595 -0.014539 0.078097 0.009794 -0.018052 0.026202 -0.061353 -0.116616 0.008900 -0.120093 0.133396 -0.030830 -0.003393 0.003984 -0.061540 -0.024082 -0.115147 0.013425 0.044563 0.060136 0.108484
56 -0.053581 -0.101796 -0.021156 -0.090436 0.020168 -0.078946 0.094883 0.159369 0.028509 0.009974 -0.012248 0.243686 0.071857 -0.004150 -0.040444 -0.220499 -0.061285 -0.038756 0.099143 0.157772 0.089048 -0.078037 0.154762 0.112385 0.093848 0.012257 -0.266426 -0.002888 -0.017350 0.030964 0.045636 -0.085826 -0.022619 -0.126125 -0.052862 -0.091908 0.179340 0.033028 0.011977 0.029271 -0.059700 0.146745 0.195179 -0.045815 -0.101999 0.227351 0.025646 -0.059406 -0.038919 -0.070985 -0.023265 -0.071547 0.076020 -0.081282 -0.023508 -0.100325 0.173414 0.011289 -0.266964 0.000675 -0.040256 -0.104784 0.018880 0.094582 -0.096802 0.096403 -0.129792 0.034237 0.056108 0.002039 0.019340 0.084073 0.238159 -0.162844 0.197980 -0.111468 0.088781 -0.033591 0.041606 0.107844 0.072511 -0.023934 -0.132656 -0.102653 -0.061157 0.110214 0.246192 0.092698 -0.014610 0.140104 -0.010786 -0.009009 -0.092393 0.091652 -0.190862 0.067857 -0.028359 -0.088117 0.105275 0.026028 -0.060531 0.166048 -0.172460 0.008498 0.198087 0.171521 0.159600 0.156138 -0.019130 0.084543 0.008028 -0.018169 0.031050 -0.056410 -0.113622 0.015102 -0.116893 0.131831 -0.024703 -0.002569 0.000351 -0.053437 -0.029222 -0.102563 0.013710 0.049361 0.063445 0.109617
26 -0.052926 -0.104207 -0.018364 -0.088819 0.021742 -0.082925 0.096050 0.155609 0.028900 0.006744 -0.017999 0.244140 0.075938 -0.006363 -0.037948 -0.218067 -0.057060 -0.038554 0.100802 0.162024 0.094984 -0.073430 0.162557 0.109287 0.084168 0.007046 -0.269623 -0.004983 -0.020882 0.033613 0.051693 -0.084223 -0.020272 -0.129733 -0.050876 -0.091583 0.180166 0.028426 0.010331 0.024321 -0.057809 0.142106 0.195628 -0.052679 -0.105350 0.231490 0.024777 -0.058408 -0.045492 -0.066801 -0.021909 -0.068074 0.075649 -0.086993 -0.028697 -0.101841 0.179177 0.013617 -0.272824 0.002692 -0.041098 -0.108904 0.018972 0.095216 -0.102596 0.095461 -0.130038 0.029246 0.051376 0.001822 0.020331 0.088929 0.230970 -0.163161 0.207277 -0.114993 0.082569 -0.028232 0.034656 0.101129 0.068867 -0.026069 -0.131139 -0.102845 -0.055738 0.122696 0.244767 0.093470 -0.021101 0.138832 -0.016303 -0.009987 -0.094463 0.095252 -0.183310 0.068505 -0.034403 -0.086443 0.110957 0.021416 -0.056768 0.166880 -0.179158 0.004989 0.210334 0.170180 0.168646 0.160475 -0.008288 0.083590 0.006481 -0.023341 0.027395 -0.056166 -0.114519 0.009651 -0.115378 0.126428 -0.026777 -0.005232 0.003927 -0.058571 -0.028247 -0.106523 0.017199 0.049981 0.057457 0.104657
27 -0.051128 -0.109952 -0.020996 -0.093391 0.019247 -0.080081 0.098620 0.165714 0.030224 0.011220 -0.017153 0.246738 0.075132 -0.002527 -0.039200 -0.226482 -0.057353 -0.041252 0.101756 0.159441 0.095977 -0.075347 0.160918 0.116107 0.091421 0.007904 -0.273101 0.000592 -0.018282 0.031834 0.049324 -0.092667 -0.023068 -0.131191 -0.048652 -0.093491 0.178434 0.031591 0.011531 0.023213 -0.061157 0.149828 0.197305 -0.051424 -0.101491 0.233914 0.031496 -0.059388 -0.041366 -0.067453 -0.021820 -0.068936 0.075742 -0.081483 -0.027049 -0.105100 0.177123 0.013596 -0.267815 0.002816 -0.046113 -0.106545 0.018398 0.093525 -0.103416 0.096908 -0.134294 0.036042 0.053810 0.004712 0.014000 0.092555 0.239756 -0.166364 0.205133 -0.117757 0.090181 -0.033070 0.037713 0.107821 0.068595 -0.027221 -0.133965 -0.105490 -0.064471 0.119363 0.253649 0.093139 -0.023732 0.141498 -0.018252 -0.011796 -0.095786 0.093448 -0.193660 0.072533 -0.031336 -0.091344 0.112926 0.022426 -0.064834 0.168552 -0.175654 0.001341 0.210994 0.174740 0.168862 0.155283 -0.017117 0.086586 0.009641 -0.023144 0.028663 -0.060510 -0.114959 0.009058 -0.120398 0.133729 -0.030375 -0.001987 -0.000434 -0.053007 -0.026560 -0.112161 0.013728 0.049925 0.062365 0.108904
59 -0.043882 -0.091061 -0.012062 -0.084535 0.015737 -0.063034 0.085294 0.142015 0.026718 0.007895 -0.012399 0.214377 0.069445 -0.002106 -0.034809 -0.191502 -0.048322 -0.032533 0.085867 0.145371 0.076207 -0.071115 0.132755 0.094360 0.086631 0.006606 -0.237168 -0.005148 -0.011818 0.016623 0.037887 -0.078774 -0.019834 -0.115006 -0.050795 -0.077107 0.156499 0.026102 0.009772 0.023852 -0.053571 0.132024 0.171450 -0.045555 -0.082993 0.199682 0.022573 -0.058777 -0.032241 -0.059830 -0.016722 -0.062530 0.065598 -0.074946 -0.014885 -0.084041 0.153860 0.010641 -0.234409 0.000121 -0.042982 -0.093926 0.021925 0.079058 -0.085186 0.084252 -0.114967 0.025876 0.052798 0.006194 0.016710 0.070004 0.217339 -0.141849 0.176750 -0.104203 0.074610 -0.024940 0.038752 0.098801 0.063500 -0.023931 -0.123986 -0.090021 -0.056174 0.094795 0.215865 0.086253 -0.015177 0.122024 -0.012895 -0.004416 -0.086791 0.082717 -0.166669 0.058889 -0.027684 -0.080287 0.097386 0.025288 -0.051007 0.145869 -0.147218 0.008567 0.171990 0.148005 0.139120 0.138191 -0.013199 0.075584 0.002453 -0.022150 0.031865 -0.047886 -0.097839 0.016590 -0.109083 0.115159 -0.018715 -0.002565 -0.005657 -0.046533 -0.026673 -0.087956 0.011209 0.038833 0.063283 0.093782
63 -0.040425 -0.087646 -0.010483 -0.084010 0.017863 -0.062453 0.086096 0.142850 0.027152 0.010949 -0.009761 0.207450 0.069099 -0.001354 -0.030990 -0.194938 -0.049287 -0.034595 0.083602 0.140188 0.070678 -0.064103 0.130167 0.099228 0.080962 0.009933 -0.233972 -0.002126 -0.010895 0.019614 0.043823 -0.086336 -0.015342 -0.112256 -0.052812 -0.076580 0.155862 0.029460 0.012966 0.027845 -0.050399 0.131908 0.174410 -0.048814 -0.083191 0.195799 0.021614 -0.058431 -0.030755 -0.056660 -0.019973 -0.059561 0.068071 -0.071962 -0.015726 -0.085826 0.151432 0.006888 -0.231298 0.005615 -0.040577 -0.099942 0.015613 0.075958 -0.087719 0.088624 -0.115138 0.028551 0.047888 0.009851 0.013982 0.075440 0.214231 -0.141485 0.179084 -0.105981 0.075729 -0.021812 0.033369 0.097773 0.060831 -0.022234 -0.118734 -0.096220 -0.051982 0.099354 0.214956 0.080123 -0.010513 0.120290 -0.008879 -0.003483 -0.085333 0.080914 -0.166045 0.060750 -0.026029 -0.082672 0.094981 0.026150 -0.053951 0.141626 -0.148745 0.007401 0.174316 0.153539 0.135231 0.134624 -0.009762 0.076303 0.002776 -0.019465 0.027813 -0.051867 -0.099642 0.015150 -0.105446 0.115245 -0.019738 -0.005326 -0.005907 -0.047892 -0.023572 -0.086576 0.010517 0.044213 0.062937 0.091560
28 -0.054019 -0.099329 -0.012644 -0.079006 0.018454 -0.071877 0.087647 0.145727 0.026131 0.007710 -0.011715 0.229539 0.068259 -0.004449 -0.038092 -0.205358 -0.055279 -0.038849 0.095571 0.149009 0.081649 -0.069094 0.146616 0.100348 0.079068 0.011366 -0.248824 0.000159 -0.010365 0.028697 0.043487 -0.077602 -0.019258 -0.112627 -0.045828 -0.086546 0.168878 0.030136 0.013196 0.023489 -0.054057 0.130833 0.185016 -0.042000 -0.099281 0.206087 0.022105 -0.054387 -0.043460 -0.066318 -0.024886 -0.065104 0.072617 -0.078525 -0.024882 -0.093371 0.159926 0.009526 -0.251272 0.003465 -0.040406 -0.101327 0.021431 0.088732 -0.092890 0.086825 -0.122296 0.035178 0.043120 -0.004156 0.016020 0.084894 0.210767 -0.152794 0.187347 -0.100834 0.081324 -0.024244 0.030774 0.098845 0.063753 -0.029424 -0.120058 -0.095673 -0.054666 0.114093 0.228807 0.088223 -0.017064 0.128098 -0.014943 -0.008548 -0.090518 0.080001 -0.170231 0.063284 -0.032105 -0.078266 0.098324 0.020328 -0.057591 0.155974 -0.167365 0.000487 0.191970 0.159146 0.156416 0.148814 -0.012453 0.070833 0.011129 -0.017873 0.022819 -0.054520 -0.106153 0.007139 -0.110426 0.119811 -0.028913 -0.003570 0.003656 -0.055037 -0.023879 -0.098715 0.011569 0.039847 0.056612 0.101896
65 -0.046120 -0.089068 -0.016515 -0.077520 0.017977 -0.068742 0.083438 0.139303 0.028548 0.004609 -0.008992 0.206933 0.069495 -0.004237 -0.035337 -0.185636 -0.049236 -0.030280 0.087478 0.139394 0.072394 -0.068481 0.135870 0.096342 0.083526 0.011853 -0.229031 0.000430 -0.011844 0.023744 0.041733 -0.075415 -0.018318 -0.109090 -0.050096 -0.080159 0.151097 0.027736 0.009119 0.024932 -0.048912 0.126824 0.170161 -0.045634 -0.088710 0.189378 0.023524 -0.052016 -0.030376 -0.059231 -0.022623 -0.061904 0.066263 -0.073402 -0.023684 -0.086442 0.147219 0.007376 -0.223981 -0.002233 -0.040319 -0.093793 0.016299 0.082875 -0.085592 0.085252 -0.105710 0.029570 0.048262 0.007791 0.012988 0.073971 0.206676 -0.135729 0.169536 -0.099717 0.076652 -0.028831 0.035263 0.095392 0.063750 -0.019378 -0.119138 -0.090258 -0.048527 0.100210 0.210314 0.081666 -0.012465 0.115516 -0.015141 -0.004090 -0.082149 0.075461 -0.159219 0.057219 -0.026458 -0.080328 0.095048 0.021421 -0.051550 0.136379 -0.143822 0.008324 0.174782 0.142251 0.135520 0.131442 -0.016666 0.071566 0.002897 -0.022664 0.025742 -0.046543 -0.100714 0.011875 -0.100220 0.115863 -0.020929 0.001986 0.001645 -0.041204 -0.022804 -0.092685 0.009722 0.044203 0.055404 0.089846
60 -0.041920 -0.095402 -0.017004 -0.087256 0.013590 -0.066651 0.090357 0.154898 0.030098 0.007377 -0.014578 0.222804 0.071951 -0.001166 -0.033093 -0.200153 -0.054827 -0.037006 0.088159 0.146734 0.075402 -0.076350 0.141236 0.101294 0.087881 0.010377 -0.246008 -0.000874 -0.010565 0.021706 0.041063 -0.085886 -0.015612 -0.119365 -0.054073 -0.082434 0.165516 0.031978 0.014404 0.029605 -0.056646 0.137771 0.184214 -0.050498 -0.092525 0.211583 0.022412 -0.060916 -0.031859 -0.060642 -0.018948 -0.065336 0.071822 -0.078531 -0.019196 -0.094013 0.161163 0.007526 -0.247102 0.002599 -0.038645 -0.105789 0.018664 0.083116 -0.094774 0.092069 -0.116957 0.033014 0.052245 0.011354 0.011220 0.079118 0.228393 -0.145317 0.191813 -0.110889 0.076626 -0.026327 0.039356 0.105617 0.071583 -0.020578 -0.127713 -0.101890 -0.054943 0.104168 0.223367 0.088382 -0.015691 0.126812 -0.008403 -0.004026 -0.094794 0.084585 -0.174429 0.068005 -0.023006 -0.088278 0.104605 0.025445 -0.056424 0.149661 -0.155753 0.010666 0.187437 0.157314 0.142685 0.148147 -0.011464 0.076279 0.004300 -0.025318 0.028257 -0.053374 -0.104354 0.015354 -0.114418 0.123458 -0.024465 -0.003883 -0.006570 -0.043245 -0.025830 -0.093690 0.011255 0.046247 0.065117 0.103226
49 -0.043323 -0.099577 -0.011590 -0.081190 0.016642 -0.073735 0.088088 0.146963 0.032176 0.006534 -0.008980 0.225847 0.067075 -0.005294 -0.032731 -0.204857 -0.057323 -0.034430 0.092550 0.151774 0.079715 -0.071968 0.144898 0.098077 0.087613 0.011317 -0.247200 -0.007104 -0.012561 0.020360 0.039686 -0.087619 -0.019146 -0.115571 -0.049597 -0.079776 0.163597 0.028002 0.009952 0.026796 -0.055119 0.136633 0.183278 -0.044517 -0.092141 0.210026 0.020794 -0.057606 -0.037497 -0.059940 -0.024250 -0.065222 0.073855 -0.074743 -0.024979 -0.090910 0.160082 0.014244 -0.246298 0.001187 -0.044442 -0.099251 0.022553 0.082973 -0.096190 0.088480 -0.117575 0.028588 0.054859 0.002836 0.012588 0.074700 0.224266 -0.150371 0.185047 -0.107492 0.082475 -0.029615 0.039584 0.095762 0.061817 -0.020910 -0.127343 -0.099341 -0.058797 0.100903 0.222645 0.086883 -0.015453 0.128940 -0.010833 -0.007031 -0.092306 0.085998 -0.171584 0.063986 -0.031516 -0.080815 0.101766 0.026681 -0.051730 0.148271 -0.159220 0.003054 0.186168 0.161536 0.147358 0.148621 -0.016672 0.076387 0.002934 -0.018891 0.032645 -0.051629 -0.102558 0.010970 -0.108007 0.122308 -0.027205 0.000405 -0.003090 -0.046004 -0.028936 -0.097400 0.013038 0.041604 0.063084 0.097351
24 -0.051550 -0.112078 -0.016873 -0.092230 0.013572 -0.094000 0.101097 0.179268 0.040767 0.018656 -0.017239 0.274597 0.095590 -0.017308 -0.046055 -0.246017 -0.077386 -0.045301 0.114240 0.184923 0.109460 -0.090112 0.180342 0.132563 0.104665 0.026670 -0.291237 -0.011432 -0.016404 0.038990 0.045628 -0.096278 -0.028375 -0.143018 -0.057998 -0.108800 0.204227 0.032110 0.012474 0.024301 -0.065667 0.167061 0.207114 -0.050294 -0.110325 0.257133 0.027441 -0.053319 -0.039940 -0.084488 -0.024167 -0.080191 0.081719 -0.094769 -0.020240 -0.102366 0.193200 0.012512 -0.297080 -0.005011 -0.042919 -0.124655 0.034020 0.109801 -0.111172 0.098776 -0.143087 0.041230 0.057662 0.013966 0.016940 0.100036 0.257229 -0.177470 0.228877 -0.119203 0.093479 -0.036075 0.047806 0.121732 0.081207 -0.028091 -0.137610 -0.125188 -0.076011 0.127069 0.269254 0.107219 -0.018672 0.153291 -0.014230 -0.006891 -0.100550 0.098818 -0.211097 0.085173 -0.030782 -0.090225 0.118318 0.026329 -0.071721 0.185971 -0.193154 0.011913 0.223969 0.192720 0.173284 0.166885 -0.016460 0.093388 0.011854 -0.026961 0.033178 -0.064414 -0.135394 0.008966 -0.133832 0.146933 -0.028361 0.005249 0.005238 -0.066148 -0.029689 -0.132158 0.025266 0.052097 0.061746 0.120212
25 -0.055996 -0.106328 -0.020072 -0.088050 0.014044 -0.082018 0.090389 0.154116 0.036252 0.009323 -0.017415 0.242575 0.074322 -0.003015 -0.037976 -0.221846 -0.057089 -0.039858 0.103740 0.164230 0.094431 -0.076025 0.160931 0.110496 0.088326 0.008021 -0.261694 -0.004974 -0.019783 0.032870 0.049649 -0.085048 -0.020918 -0.128005 -0.052612 -0.087990 0.173750 0.033294 0.009384 0.023052 -0.060548 0.146123 0.191862 -0.052693 -0.098558 0.228989 0.028415 -0.053455 -0.039051 -0.069685 -0.028476 -0.068125 0.078409 -0.082332 -0.030429 -0.100640 0.177071 0.008434 -0.267370 0.004685 -0.043853 -0.104743 0.023375 0.091334 -0.103319 0.092600 -0.130277 0.034315 0.047257 0.003444 0.017139 0.085213 0.233904 -0.157064 0.202515 -0.113387 0.082386 -0.026157 0.039434 0.101225 0.069948 -0.029934 -0.129684 -0.108890 -0.059811 0.116452 0.244359 0.088380 -0.023031 0.134124 -0.018390 -0.009892 -0.091103 0.086881 -0.187594 0.071991 -0.033051 -0.085765 0.108427 0.024954 -0.061970 0.165903 -0.180236 0.005101 0.206734 0.166335 0.163232 0.157723 -0.010984 0.078480 0.006786 -0.021776 0.029592 -0.060199 -0.117972 0.008984 -0.113553 0.129026 -0.030075 -0.002344 0.005195 -0.053159 -0.027452 -0.108699 0.013911 0.049582 0.055136 0.106588
2 -0.051892 -0.098602 -0.015437 -0.078694 0.025191 -0.082022 0.095702 0.171119 0.020295 -0.004627 -0.005690 0.242684 0.072234 -0.027714 -0.041639 -0.231617 -0.054187 -0.040518 0.096547 0.151053 0.086868 -0.067774 0.157956 0.105049 0.084860 0.002025 -0.267128 0.005113 0.004302 0.035888 0.045964 -0.102642 -0.037301 -0.109941 -0.063379 -0.087146 0.184618 0.029364 0.019490 0.024476 -0.044480 0.136816 0.209346 -0.036315 -0.109935 0.209198 0.025866 -0.071709 -0.044650 -0.071807 -0.010943 -0.083936 0.074180 -0.060905 -0.053437 -0.100095 0.177634 0.029115 -0.265372 0.017146 -0.049247 -0.102911 0.018371 0.091665 -0.098287 0.105594 -0.129718 0.032008 0.038339 -0.018843 0.020015 0.086790 0.236570 -0.156806 0.204262 -0.103252 0.101151 -0.032648 0.038708 0.098461 0.057810 -0.034357 -0.146563 -0.101025 -0.044534 0.123859 0.242040 0.084240 -0.003761 0.124361 -0.017812 -0.000870 -0.093884 0.077872 -0.197786 0.076391 -0.050627 -0.095683 0.102564 0.035194 -0.058943 0.151632 -0.165097 -0.007725 0.193839 0.161249 0.170396 0.167538 -0.027444 0.071000 0.011737 -0.017228 0.038477 -0.058510 -0.120235 0.015406 -0.112056 0.139368 -0.034029 -0.006125 -0.001307 -0.064984 -0.030959 -0.131383 0.007985 0.052979 0.078647 0.114678
70 -0.047579 -0.104414 -0.019328 -0.085558 0.019607 -0.079256 0.086460 0.152442 0.033291 0.012418 -0.018785 0.237885 0.068676 -0.002460 -0.036039 -0.208775 -0.055142 -0.037648 0.099349 0.156353 0.089408 -0.070501 0.149898 0.099377 0.083452 0.010126 -0.254187 -0.005483 -0.015090 0.032998 0.048418 -0.078096 -0.022894 -0.119366 -0.045699 -0.086913 0.171127 0.030633 0.010537 0.028012 -0.055320 0.133926 0.180989 -0.048005 -0.100571 0.217044 0.023504 -0.052737 -0.044657 -0.069448 -0.020672 -0.066462 0.076903 -0.077036 -0.024337 -0.093294 0.170198 0.014033 -0.258755 0.002134 -0.037718 -0.098666 0.015021 0.087622 -0.098906 0.094238 -0.122206 0.029456 0.049889 0.003838 0.017399 0.086177 0.224209 -0.156764 0.193602 -0.103385 0.083663 -0.026328 0.034592 0.095355 0.069560 -0.029359 -0.125371 -0.096625 -0.053643 0.110727 0.237517 0.086064 -0.019782 0.132848 -0.012296 -0.007868 -0.092387 0.089048 -0.178429 0.068475 -0.029823 -0.083601 0.106244 0.017688 -0.060852 0.159366 -0.171913 0.005325 0.197247 0.160332 0.156524 0.151101 -0.013416 0.076547 0.006095 -0.019504 0.025130 -0.055266 -0.105476 0.009467 -0.110811 0.123878 -0.031853 0.002441 0.006791 -0.056650 -0.022152 -0.099797 0.011624 0.042204 0.055402 0.099344
66 -0.037745 -0.088044 -0.010913 -0.076705 0.010345 -0.066330 0.077408 0.134737 0.026420 0.008760 -0.012123 0.195087 0.065758 -0.002039 -0.026598 -0.175985 -0.048071 -0.027656 0.083455 0.134412 0.070092 -0.060740 0.125571 0.092674 0.076337 0.006751 -0.214797 -0.002504 -0.010738 0.017453 0.040781 -0.076699 -0.017964 -0.102247 -0.048195 -0.070003 0.146177 0.027198 0.010603 0.025706 -0.049526 0.119185 0.164229 -0.040207 -0.080134 0.185889 0.018590 -0.052203 -0.033358 -0.053565 -0.020646 -0.054935 0.064478 -0.068766 -0.018571 -0.083946 0.137797 0.010846 -0.218849 0.006162 -0.034790 -0.091231 0.020321 0.070508 -0.081056 0.075174 -0.107594 0.027075 0.049482 0.007407 0.015710 0.066534 0.195616 -0.130328 0.163465 -0.097124 0.072764 -0.023089 0.033014 0.088788 0.057501 -0.021059 -0.113987 -0.086823 -0.048754 0.090588 0.194638 0.077939 -0.009717 0.113877 -0.007101 -0.002336 -0.082010 0.078770 -0.152829 0.059156 -0.021530 -0.070916 0.090302 0.018689 -0.044920 0.134055 -0.141895 0.005452 0.163823 0.139967 0.124603 0.125754 -0.009285 0.071039 0.003580 -0.017567 0.027303 -0.050269 -0.088835 0.013958 -0.093647 0.109168 -0.023772 -0.002062 -0.002886 -0.040941 -0.020201 -0.079605 0.008338 0.038971 0.057138 0.088028
50 -0.049851 -0.096240 -0.020474 -0.076661 0.012558 -0.076084 0.090854 0.147274 0.030506 0.011346 -0.015511 0.222859 0.071826 -0.008820 -0.036420 -0.199412 -0.052261 -0.033009 0.092625 0.147506 0.082260 -0.069621 0.142490 0.102543 0.084547 0.012645 -0.240796 0.000098 -0.015022 0.027669 0.041495 -0.081653 -0.023539 -0.115990 -0.041766 -0.080322 0.159851 0.030991 0.011643 0.024173 -0.048753 0.136555 0.175683 -0.048556 -0.089688 0.204893 0.025818 -0.055758 -0.035696 -0.065256 -0.024667 -0.063953 0.072172 -0.078657 -0.027296 -0.093729 0.159550 0.013859 -0.242834 -0.000640 -0.035241 -0.102704 0.018875 0.081145 -0.092316 0.082005 -0.119619 0.027855 0.049763 0.007568 0.014166 0.080611 0.215165 -0.143809 0.181494 -0.099555 0.078148 -0.024856 0.039106 0.095209 0.060220 -0.020520 -0.119571 -0.097244 -0.056287 0.104849 0.221879 0.084950 -0.019527 0.128210 -0.016250 -0.006624 -0.086996 0.081698 -0.175131 0.066942 -0.026255 -0.081497 0.100385 0.024476 -0.057980 0.154292 -0.158340 0.005594 0.188032 0.152205 0.150843 0.137900 -0.014851 0.076335 0.009524 -0.023901 0.028333 -0.049480 -0.106351 0.012772 -0.111781 0.122850 -0.022531 0.003267 0.006189 -0.046695 -0.027350 -0.101224 0.013081 0.038756 0.052957 0.101994
64 -0.043942 -0.097478 -0.013714 -0.086108 0.014987 -0.071528 0.094479 0.159517 0.029549 0.005518 -0.010787 0.228761 0.073327 -0.005443 -0.030480 -0.205590 -0.057017 -0.036702 0.091889 0.152855 0.081664 -0.071732 0.143395 0.102966 0.089830 0.008648 -0.249621 -0.005232 -0.010106 0.022548 0.041129 -0.092773 -0.016364 -0.122731 -0.057366 -0.087881 0.168499 0.030897 0.012511 0.029327 -0.054059 0.139869 0.186149 -0.051760 -0.094525 0.215745 0.026734 -0.061656 -0.038843 -0.062549 -0.018381 -0.067064 0.068395 -0.075168 -0.016627 -0.097347 0.158906 0.010521 -0.249735 0.004564 -0.044733 -0.104364 0.018713 0.087655 -0.096266 0.095896 -0.123721 0.029166 0.057299 0.007569 0.015196 0.082926 0.233046 -0.152467 0.194365 -0.111658 0.081828 -0.024251 0.042974 0.100149 0.065619 -0.023928 -0.129043 -0.103115 -0.055110 0.108938 0.229868 0.087740 -0.011404 0.132359 -0.013610 -0.003768 -0.090001 0.090752 -0.176876 0.071207 -0.025895 -0.086615 0.100942 0.022865 -0.058747 0.154829 -0.162213 0.004099 0.189869 0.165911 0.151267 0.151433 -0.013549 0.078836 0.004627 -0.023266 0.035744 -0.052348 -0.105944 0.013474 -0.115503 0.127398 -0.022819 -0.000533 -0.005122 -0.044492 -0.030671 -0.093821 0.010483 0.042897 0.065474 0.106438
69 -0.050129 -0.098121 -0.018357 -0.078713 0.014776 -0.073566 0.089102 0.147407 0.028415 0.008242 -0.013634 0.231234 0.067416 -0.002309 -0.033218 -0.200390 -0.057801 -0.034918 0.096924 0.148037 0.084940 -0.066633 0.151155 0.097261 0.080316 0.011342 -0.248213 -0.006697 -0.018448 0.028851 0.041157 -0.078739 -0.022890 -0.114306 -0.043337 -0.085203 0.166401 0.031034 0.007630 0.027361 -0.051262 0.136377 0.185601 -0.050132 -0.095062 0.212727 0.028010 -0.056658 -0.033397 -0.067768 -0.025499 -0.068828 0.068729 -0.077912 -0.028660 -0.089985 0.166226 0.009835 -0.249651 0.001339 -0.037941 -0.097260 0.019094 0.083993 -0.091491 0.089652 -0.123900 0.028903 0.046070 -0.000123 0.019585 0.079975 0.219920 -0.151619 0.193790 -0.101367 0.083502 -0.031131 0.037953 0.094823 0.067978 -0.021711 -0.119546 -0.095419 -0.058628 0.106630 0.224824 0.088946 -0.015914 0.127416 -0.017414 -0.010085 -0.088055 0.085032 -0.175716 0.068190 -0.032157 -0.081713 0.099748 0.019291 -0.054625 0.154282 -0.165241 0.005920 0.194620 0.157503 0.147532 0.143243 -0.014334 0.072575 0.008040 -0.019165 0.025021 -0.053044 -0.108201 0.011356 -0.107005 0.120132 -0.030608 0.000918 0.003325 -0.047625 -0.021714 -0.094868 0.017728 0.041487 0.059811 0.101925
4 -0.056708 -0.104077 -0.016099 -0.086190 0.026620 -0.091061 0.097831 0.184142 0.029539 -0.000808 -0.004489 0.262660 0.082109 -0.024569 -0.044815 -0.245330 -0.058488 -0.047401 0.107144 0.170798 0.096310 -0.078998 0.165741 0.114535 0.099958 0.008266 -0.288434 0.003102 0.001193 0.034098 0.044492 -0.108875 -0.033550 -0.127381 -0.065656 -0.099655 0.199661 0.036528 0.018934 0.029552 -0.053380 0.145492 0.221484 -0.038814 -0.111465 0.229377 0.028631 -0.075113 -0.049899 -0.078514 -0.012744 -0.087576 0.080095 -0.074348 -0.046830 -0.105455 0.189538 0.024165 -0.282836 0.008731 -0.046005 -0.117175 0.023977 0.103457 -0.102444 0.111466 -0.141904 0.037602 0.049159 -0.011794 0.020716 0.095768 0.257185 -0.172871 0.224455 -0.117578 0.106851 -0.030814 0.041331 0.113202 0.069055 -0.037571 -0.151887 -0.112255 -0.054324 0.127790 0.266755 0.091469 -0.007762 0.141249 -0.021908 -0.004847 -0.104751 0.090034 -0.210003 0.082644 -0.051052 -0.100853 0.115269 0.032149 -0.069872 0.169777 -0.178823 0.002979 0.208374 0.182362 0.173620 0.175657 -0.025697 0.078898 0.016796 -0.022805 0.039980 -0.060816 -0.125834 0.019104 -0.124223 0.149361 -0.032574 -0.003289 0.001754 -0.064974 -0.037877 -0.137780 0.005967 0.055613 0.080063 0.123973
3 -0.057557 -0.102722 -0.012991 -0.084468 0.022906 -0.084865 0.098552 0.171101 0.026197 0.001569 -0.008330 0.247939 0.073377 -0.022667 -0.043339 -0.235167 -0.055105 -0.044913 0.101127 0.160208 0.088960 -0.074689 0.160145 0.115854 0.096887 0.007139 -0.273054 0.003123 -0.001078 0.037080 0.043272 -0.100662 -0.033168 -0.119350 -0.059931 -0.096380 0.188262 0.034883 0.017690 0.028989 -0.053212 0.140362 0.207466 -0.039458 -0.108893 0.224379 0.030581 -0.069151 -0.048310 -0.069877 -0.014249 -0.080858 0.072968 -0.074258 -0.041691 -0.104831 0.177592 0.021207 -0.274768 0.010801 -0.049195 -0.109134 0.021019 0.101082 -0.100864 0.099146 -0.129448 0.036507 0.049710 -0.008961 0.021801 0.091049 0.240452 -0.160248 0.213675 -0.112713 0.100639 -0.032273 0.044307 0.105019 0.066440 -0.028527 -0.143291 -0.111400 -0.054938 0.123969 0.251178 0.091632 -0.015342 0.134482 -0.018640 -0.002846 -0.097900 0.088823 -0.202637 0.079515 -0.045369 -0.090245 0.113560 0.030665 -0.067031 0.164413 -0.179543 -0.000112 0.205376 0.176083 0.167545 0.163749 -0.017633 0.075978 0.014022 -0.021472 0.036545 -0.058565 -0.119361 0.016553 -0.120385 0.142660 -0.027011 -0.002323 -0.001375 -0.065057 -0.033462 -0.125539 0.008310 0.050964 0.071409 0.116074
62 -0.037637 -0.085233 -0.017421 -0.078939 0.013226 -0.064245 0.077483 0.140238 0.027963 0.003075 -0.008092 0.202035 0.064068 -0.002330 -0.033053 -0.181846 -0.049341 -0.030108 0.084311 0.134769 0.068554 -0.064415 0.126209 0.094221 0.079314 0.008660 -0.223593 -0.004104 -0.014006 0.018740 0.036836 -0.081496 -0.020082 -0.107290 -0.046495 -0.071585 0.148109 0.025891 0.013289 0.028267 -0.052680 0.122333 0.164578 -0.043215 -0.083333 0.186536 0.021290 -0.049833 -0.030870 -0.059411 -0.020633 -0.056885 0.062423 -0.065189 -0.016077 -0.085787 0.141663 0.013120 -0.222446 0.004745 -0.035903 -0.093958 0.017313 0.076188 -0.089793 0.084411 -0.107478 0.025546 0.050896 0.005105 0.010390 0.069335 0.207764 -0.131932 0.166623 -0.096009 0.074490 -0.027394 0.033429 0.092041 0.064734 -0.020960 -0.115755 -0.089773 -0.053726 0.094310 0.206747 0.083337 -0.008686 0.113062 -0.007206 -0.008665 -0.086821 0.080763 -0.159225 0.061381 -0.021455 -0.077416 0.092587 0.024147 -0.051043 0.139020 -0.143056 0.006901 0.168852 0.147145 0.134157 0.129448 -0.010632 0.072760 -0.000112 -0.018656 0.028231 -0.045982 -0.091845 0.010764 -0.105317 0.106456 -0.017818 -0.003940 -0.003188 -0.041255 -0.023530 -0.086379 0.009272 0.041190 0.058363 0.087871
21 -0.057637 -0.115922 -0.020437 -0.105828 0.007030 -0.102569 0.107193 0.190314 0.045371 0.023931 -0.022603 0.295599 0.105124 -0.022679 -0.051747 -0.262012 -0.085800 -0.048554 0.123555 0.202999 0.121917 -0.101743 0.193340 0.144776 0.113928 0.029869 -0.308043 -0.010902 -0.015219 0.040839 0.053429 -0.105512 -0.027437 -0.151401 -0.068626 -0.121412 0.215228 0.040271 0.017144 0.029955 -0.074945 0.180268 0.215691 -0.056361 -0.119899 0.276796 0.032661 -0.057036 -0.038834 -0.090627 -0.027234 -0.086338 0.093179 -0.109581 -0.022968 -0.109561 0.202676 0.009273 -0.320981 -0.003242 -0.045733 -0.135589 0.040019 0.122943 -0.111267 0.105115 -0.151304 0.039218 0.062072 0.012510 0.019164 0.101620 0.281109 -0.189352 0.247957 -0.126179 0.101715 -0.039446 0.056381 0.131006 0.081993 -0.031686 -0.147643 -0.144985 -0.086808 0.137353 0.288520 0.109272 -0.018513 0.159009 -0.007808 -0.005669 -0.109872 0.111205 -0.231502 0.087028 -0.035895 -0.094173 0.128946 0.030593 -0.076537 0.194068 -0.210463 0.016543 0.244787 0.207084 0.181842 0.171650 -0.019368 0.096438 0.011960 -0.024455 0.035723 -0.067425 -0.145304 0.014255 -0.147836 0.161285 -0.030392 0.007833 0.003680 -0.069224 -0.033298 -0.148500 0.027551 0.054956 0.067299 0.121776
71 -0.044153 -0.095892 -0.017756 -0.081306 0.014582 -0.075853 0.082338 0.144008 0.034574 0.011181 -0.016667 0.230580 0.072881 -0.006031 -0.031310 -0.205317 -0.056307 -0.034850 0.095269 0.150616 0.083316 -0.068644 0.144910 0.103470 0.078745 0.008500 -0.240656 -0.004363 -0.014707 0.030302 0.042561 -0.080462 -0.019432 -0.117559 -0.046738 -0.081936 0.160997 0.023939 0.013864 0.021447 -0.053294 0.133115 0.178667 -0.048622 -0.090567 0.212659 0.023879 -0.055810 -0.037933 -0.063702 -0.025103 -0.067036 0.068236 -0.081607 -0.026333 -0.093242 0.161676 0.011152 -0.246394 -0.001505 -0.035360 -0.101590 0.018374 0.088809 -0.094628 0.091579 -0.118456 0.027145 0.044611 0.001266 0.018262 0.084074 0.214640 -0.148294 0.190203 -0.101244 0.078633 -0.029797 0.034091 0.091843 0.068513 -0.026788 -0.118988 -0.099801 -0.056803 0.111392 0.227354 0.087080 -0.018947 0.129166 -0.016310 -0.008847 -0.088559 0.086740 -0.172080 0.070394 -0.030902 -0.081199 0.102040 0.021409 -0.056522 0.149664 -0.167160 0.005774 0.189502 0.153536 0.146069 0.146481 -0.009577 0.073324 0.009053 -0.024135 0.024321 -0.055629 -0.106948 0.009698 -0.104398 0.123783 -0.027887 0.002299 0.001167 -0.049109 -0.027950 -0.098114 0.016488 0.042763 0.052354 0.098394
52 -0.045313 -0.084020 -0.012232 -0.075397 0.009909 -0.068886 0.081494 0.131218 0.027595 0.005194 -0.012502 0.202709 0.063519 -0.004075 -0.035876 -0.185323 -0.049427 -0.028114 0.080944 0.133708 0.078290 -0.064132 0.127562 0.089260 0.070572 0.013891 -0.219630 0.000583 -0.009944 0.023856 0.041787 -0.071409 -0.014392 -0.101380 -0.039473 -0.074244 0.144938 0.026164 0.011729 0.021440 -0.045463 0.124316 0.158681 -0.040476 -0.082281 0.187047 0.022998 -0.044905 -0.035353 -0.060157 -0.020024 -0.061858 0.065709 -0.072264 -0.018047 -0.079952 0.145739 0.007305 -0.221486 -0.003087 -0.035329 -0.086931 0.015590 0.075287 -0.087738 0.079795 -0.103983 0.031084 0.041823 0.008183 0.012329 0.073554 0.196564 -0.130372 0.168551 -0.093879 0.069263 -0.026569 0.033757 0.085572 0.061572 -0.024111 -0.107617 -0.090216 -0.046906 0.094728 0.205441 0.080639 -0.018277 0.117958 -0.010129 -0.005186 -0.079558 0.071977 -0.157155 0.056323 -0.026174 -0.069241 0.085832 0.024129 -0.046935 0.139316 -0.142464 0.006620 0.172814 0.139882 0.135738 0.129161 -0.016081 0.072025 0.005421 -0.020646 0.027316 -0.049860 -0.096322 0.009226 -0.101328 0.112541 -0.025465 -0.001217 0.002079 -0.046642 -0.026439 -0.089376 0.015171 0.037880 0.048805 0.087698
18 -0.053472 -0.120297 -0.023845 -0.104000 0.011554 -0.103481 0.104456 0.195360 0.047605 0.024904 -0.024292 0.298874 0.107492 -0.018621 -0.049589 -0.266327 -0.087183 -0.046851 0.119133 0.206716 0.124018 -0.101678 0.198505 0.143178 0.116459 0.033865 -0.309551 -0.011624 -0.013586 0.042278 0.051098 -0.101772 -0.025221 -0.150185 -0.063518 -0.120700 0.214878 0.036651 0.015307 0.031611 -0.073970 0.179850 0.214490 -0.055974 -0.116864 0.279175 0.028494 -0.057243 -0.040821 -0.091731 -0.030825 -0.091771 0.094291 -0.103780 -0.022365 -0.108052 0.203026 0.008443 -0.319672 -0.007683 -0.041597 -0.139339 0.039304 0.119307 -0.111170 0.107402 -0.150981 0.040374 0.067332 0.019963 0.012738 0.104939 0.283208 -0.194734 0.250176 -0.123783 0.107404 -0.034072 0.055438 0.127384 0.080002 -0.030824 -0.143534 -0.145349 -0.086974 0.140823 0.294655 0.110528 -0.025380 0.165606 -0.010462 -0.010063 -0.104272 0.104559 -0.235644 0.090836 -0.036102 -0.093140 0.130667 0.028343 -0.076331 0.198410 -0.211007 0.014228 0.242125 0.205584 0.179457 0.171069 -0.018391 0.095812 0.006101 -0.030305 0.033838 -0.071743 -0.142597 0.007924 -0.144068 0.159504 -0.028848 0.002937 0.004120 -0.071779 -0.034020 -0.146151 0.027086 0.049396 0.060734 0.122693
22 -0.053442 -0.125909 -0.022080 -0.105775 0.009525 -0.107443 0.109955 0.198207 0.044266 0.019772 -0.025389 0.306253 0.109240 -0.021085 -0.049781 -0.271929 -0.090707 -0.050744 0.129325 0.212652 0.125206 -0.104557 0.203658 0.146321 0.113625 0.034889 -0.321115 -0.016458 -0.014107 0.044507 0.052399 -0.110264 -0.031025 -0.156815 -0.068631 -0.125056 0.221206 0.036560 0.012369 0.027226 -0.071221 0.177642 0.222130 -0.052872 -0.117675 0.288028 0.029097 -0.057707 -0.040680 -0.094263 -0.033497 -0.093601 0.090418 -0.111667 -0.019059 -0.114248 0.211028 0.016271 -0.325238 -0.009969 -0.043410 -0.138001 0.042390 0.126348 -0.118656 0.111207 -0.159503 0.045099 0.069921 0.019733 0.014251 0.110301 0.289295 -0.198457 0.258366 -0.128332 0.103924 -0.035828 0.059022 0.130793 0.083881 -0.035010 -0.148296 -0.149504 -0.086757 0.140377 0.302887 0.111072 -0.020362 0.167504 -0.009270 -0.008659 -0.111379 0.107809 -0.239316 0.092751 -0.035657 -0.098969 0.135955 0.028716 -0.078018 0.202167 -0.214456 0.016415 0.249632 0.213687 0.186907 0.182916 -0.018829 0.101925 0.010957 -0.028017 0.040860 -0.068633 -0.148606 0.010770 -0.151236 0.167175 -0.035862 0.003201 0.006271 -0.071701 -0.033271 -0.150673 0.026545 0.055634 0.069236 0.129531
19 -0.052247 -0.124674 -0.017987 -0.106575 0.009366 -0.102608 0.108966 0.194945 0.047352 0.020461 -0.026410 0.303511 0.104524 -0.017961 -0.052637 -0.266382 -0.089428 -0.051912 0.126690 0.209513 0.121730 -0.105678 0.198020 0.145700 0.115178 0.033662 -0.317227 -0.011613 -0.016614 0.039864 0.052098 -0.105546 -0.026602 -0.158920 -0.068017 -0.120207 0.215798 0.040314 0.017229 0.030847 -0.073418 0.178743 0.223059 -0.056714 -0.115560 0.281808 0.034510 -0.062490 -0.043518 -0.090074 -0.032142 -0.091439 0.089303 -0.109876 -0.019302 -0.111686 0.203340 0.014623 -0.319912 -0.006918 -0.045540 -0.140230 0.042775 0.123991 -0.117253 0.106154 -0.151294 0.042089 0.063145 0.013723 0.016478 0.107156 0.286953 -0.193464 0.248853 -0.132259 0.108825 -0.034889 0.052391 0.127387 0.084374 -0.033087 -0.149070 -0.146740 -0.086654 0.141335 0.298993 0.114880 -0.024769 0.163822 -0.012172 -0.004627 -0.106077 0.111438 -0.237806 0.094083 -0.035384 -0.098112 0.131646 0.028043 -0.074409 0.201288 -0.216316 0.010775 0.244507 0.209263 0.185282 0.179127 -0.019657 0.099270 0.005980 -0.028371 0.038591 -0.073110 -0.142097 0.013522 -0.143054 0.167942 -0.035213 0.006891 0.003448 -0.070446 -0.036319 -0.149531 0.021438 0.055328 0.063192 0.125325
23 -0.053514 -0.117215 -0.024846 -0.101094 0.008963 -0.100657 0.106589 0.197575 0.047710 0.019359 -0.025496 0.298401 0.106326 -0.023364 -0.054348 -0.261953 -0.088033 -0.045938 0.124618 0.207559 0.119918 -0.103575 0.193113 0.145962 0.114197 0.031367 -0.314084 -0.015775 -0.018547 0.044664 0.050248 -0.103587 -0.029347 -0.152677 -0.068778 -0.122219 0.218638 0.033891 0.011521 0.028865 -0.073224 0.177124 0.219524 -0.051907 -0.114856 0.275591 0.030185 -0.053907 -0.043882 -0.091912 -0.029640 -0.090793 0.093857 -0.110459 -0.022624 -0.114219 0.201537 0.012654 -0.319411 -0.010206 -0.042334 -0.137679 0.043171 0.121686 -0.112109 0.106025 -0.149844 0.045761 0.064739 0.019761 0.016073 0.106703 0.285057 -0.191600 0.244633 -0.124571 0.107067 -0.036303 0.059000 0.129717 0.087809 -0.035687 -0.142879 -0.143371 -0.086385 0.142978 0.290162 0.112129 -0.024672 0.160623 -0.009553 -0.005948 -0.111564 0.107646 -0.237208 0.088281 -0.032665 -0.097589 0.127774 0.034504 -0.077182 0.194958 -0.208020 0.010327 0.241731 0.202334 0.179451 0.173265 -0.016226 0.099925 0.005206 -0.029865 0.035390 -0.072850 -0.145851 0.009198 -0.147186 0.164239 -0.032115 0.005244 0.006553 -0.065943 -0.035863 -0.149440 0.027917 0.050705 0.063858 0.124891
20 -0.052977 -0.119156 -0.020428 -0.099536 0.005294 -0.104687 0.108565 0.192240 0.042635 0.020220 -0.026166 0.288780 0.108112 -0.020302 -0.052203 -0.258633 -0.089329 -0.046325 0.118450 0.197426 0.121477 -0.102431 0.194540 0.141494 0.113205 0.035584 -0.299485 -0.013766 -0.013456 0.038237 0.046471 -0.103383 -0.025486 -0.150599 -0.062128 -0.116566 0.216141 0.033224 0.010892 0.024237 -0.075159 0.171315 0.208810 -0.052191 -0.111762 0.271705 0.034475 -0.054400 -0.039595 -0.092174 -0.034160 -0.087301 0.092090 -0.109479 -0.020911 -0.107653 0.197727 0.008188 -0.314883 -0.005150 -0.037324 -0.132204 0.041597 0.119924 -0.112085 0.103048 -0.147719 0.044520 0.060307 0.020690 0.012135 0.105109 0.273505 -0.188195 0.242088 -0.119915 0.104095 -0.037064 0.056179 0.128164 0.083062 -0.035921 -0.141662 -0.144645 -0.081914 0.140406 0.282905 0.110074 -0.024338 0.161099 -0.006940 -0.006503 -0.104589 0.104802 -0.227108 0.087799 -0.029957 -0.093709 0.123382 0.033720 -0.077013 0.188919 -0.210206 0.017411 0.236171 0.204158 0.176492 0.169901 -0.014795 0.100103 0.006061 -0.024639 0.036932 -0.066784 -0.143280 0.007557 -0.138813 0.162151 -0.030814 0.005561 0.004304 -0.063201 -0.032933 -0.147121 0.026628 0.053475 0.058756 0.123221
17 -0.054528 -0.120238 -0.020721 -0.099344 0.005820 -0.105477 0.109059 0.195398 0.049235 0.024332 -0.022816 0.299846 0.106703 -0.017504 -0.052759 -0.259153 -0.087355 -0.052564 0.119627 0.204941 0.121130 -0.104556 0.197615 0.140526 0.115542 0.034212 -0.309946 -0.012426 -0.014045 0.045184 0.051824 -0.103630 -0.025289 -0.152891 -0.066598 -0.122828 0.218358 0.038163 0.012854 0.030497 -0.072840 0.172442 0.213668 -0.051196 -0.117701 0.274303 0.033435 -0.053748 -0.042578 -0.088835 -0.032149 -0.090815 0.091183 -0.110716 -0.019533 -0.111643 0.197993 0.016624 -0.313611 -0.011083 -0.041187 -0.136533 0.041387 0.118408 -0.113701 0.108624 -0.151367 0.041855 0.064858 0.018941 0.012458 0.104498 0.279723 -0.192765 0.249291 -0.120518 0.101125 -0.039717 0.055748 0.123264 0.085186 -0.032579 -0.140833 -0.139315 -0.087837 0.138977 0.294369 0.108653 -0.018280 0.160865 -0.013769 -0.007925 -0.107913 0.110946 -0.232704 0.089358 -0.030066 -0.093811 0.130646 0.033100 -0.073621 0.194659 -0.211754 0.015588 0.241472 0.203023 0.181555 0.170565 -0.020546 0.101331 0.008601 -0.026949 0.040010 -0.067989 -0.143664 0.009528 -0.145072 0.164993 -0.032538 0.000998 0.008596 -0.065096 -0.030958 -0.143685 0.022214 0.051187 0.062831 0.127050
77 -0.050052 -0.137568 -0.011648 -0.107609 0.011142 -0.092872 0.109469 0.201105 0.032339 0.021025 -0.013010 0.286851 0.089271 -0.001790 -0.036653 -0.255761 -0.063155 -0.038081 0.128004 0.198297 0.092718 -0.087511 0.188736 0.129475 0.113431 0.017059 -0.317043 -0.009012 -0.012490 0.025078 0.050504 -0.115984 -0.021515 -0.149162 -0.072697 -0.111978 0.212464 0.044267 0.008180 0.028126 -0.075801 0.179012 0.237953 -0.065316 -0.113114 0.264629 0.026720 -0.064755 -0.036344 -0.081858 -0.035978 -0.084227 0.091174 -0.108737 -0.025121 -0.123814 0.205032 0.013178 -0.318852 0.011210 -0.058482 -0.133322 0.031403 0.116292 -0.117664 0.123936 -0.149159 0.046294 0.064336 0.012307 0.004177 0.105665 0.294748 -0.179929 0.246309 -0.137765 0.097900 -0.035700 0.046002 0.132495 0.084834 -0.029311 -0.158443 -0.131358 -0.067607 0.125733 0.279341 0.122058 -0.014367 0.176582 -0.018367 -0.004182 -0.106195 0.105294 -0.216264 0.092425 -0.035010 -0.104192 0.128901 0.017964 -0.075836 0.186299 -0.203956 0.013306 0.245405 0.211206 0.182305 0.189421 -0.026480 0.101042 0.000841 -0.026267 0.036473 -0.065364 -0.126415 0.017019 -0.138698 0.159907 -0.035055 -0.004197 -0.000558 -0.057485 -0.030511 -0.123108 0.013491 0.054476 0.076091 0.133920
42 -0.049461 -0.092097 -0.016578 -0.084222 0.018648 -0.075954 0.086036 0.150824 0.032129 0.012549 -0.011608 0.226519 0.067761 -0.002885 -0.031872 -0.203724 -0.058191 -0.038204 0.096562 0.149456 0.085468 -0.072805 0.147138 0.104234 0.086412 0.008785 -0.247303 -0.001149 -0.014151 0.030875 0.043037 -0.080459 -0.019178 -0.115023 -0.046809 -0.084655 0.165107 0.025181 0.009993 0.022366 -0.055360 0.134789 0.178818 -0.044803 -0.089584 0.211427 0.026100 -0.052325 -0.038451 -0.063995 -0.019616 -0.069319 0.071563 -0.075511 -0.025769 -0.092100 0.163974 0.011354 -0.250115 -0.001619 -0.036862 -0.096670 0.018231 0.086592 -0.088875 0.089887 -0.121154 0.030435 0.047776 0.004356 0.016654 0.079829 0.221049 -0.147073 0.190730 -0.102949 0.078470 -0.023530 0.032953 0.099925 0.062906 -0.023346 -0.124407 -0.096474 -0.055975 0.109798 0.229132 0.081557 -0.017619 0.128253 -0.011912 -0.004581 -0.090565 0.081204 -0.177938 0.066587 -0.031172 -0.083729 0.103428 0.019400 -0.055360 0.150680 -0.166192 0.002220 0.190459 0.152918 0.151739 0.145789 -0.012055 0.076237 0.010648 -0.021161 0.029000 -0.051860 -0.109767 0.013394 -0.108585 0.121652 -0.025130 -0.000807 0.002982 -0.049259 -0.027902 -0.098819 0.012397 0.039549 0.059399 0.102228
36 -0.056405 -0.127549 -0.017509 -0.104948 0.018965 -0.100798 0.116031 0.192119 0.041350 0.018128 -0.024183 0.288797 0.088916 -0.009531 -0.043528 -0.260026 -0.076236 -0.048372 0.117390 0.188039 0.108191 -0.084759 0.195179 0.137530 0.108421 0.010673 -0.305258 -0.010425 -0.021869 0.034718 0.060110 -0.115004 -0.026971 -0.156833 -0.062451 -0.108657 0.213769 0.034452 0.010905 0.021801 -0.064679 0.172252 0.242614 -0.055765 -0.118529 0.265935 0.038619 -0.066805 -0.044557 -0.078779 -0.028646 -0.084407 0.092257 -0.105628 -0.027885 -0.112005 0.204482 0.015452 -0.319420 0.007732 -0.053563 -0.137319 0.031621 0.111998 -0.123418 0.113636 -0.154211 0.043838 0.065972 0.000877 0.018562 0.099238 0.282660 -0.192041 0.238878 -0.136958 0.111690 -0.030226 0.049356 0.121076 0.078447 -0.036305 -0.153494 -0.134439 -0.069764 0.141099 0.298405 0.116274 -0.015089 0.171625 -0.018312 -0.019208 -0.113787 0.115582 -0.219146 0.086534 -0.041408 -0.097174 0.119960 0.037666 -0.067977 0.196135 -0.204458 0.005324 0.249606 0.204547 0.189538 0.188246 -0.018903 0.102275 0.007928 -0.025014 0.029659 -0.076686 -0.144030 0.007173 -0.140969 0.154909 -0.035902 0.005482 0.004581 -0.065611 -0.025192 -0.125199 0.020903 0.057985 0.068139 0.131822
35 -0.059183 -0.116771 -0.021103 -0.095127 0.014591 -0.089035 0.104650 0.171204 0.034778 0.015417 -0.020613 0.271311 0.083098 -0.008823 -0.043095 -0.242611 -0.066730 -0.038814 0.111067 0.179923 0.104929 -0.081986 0.176969 0.127382 0.100526 0.015171 -0.282735 -0.002590 -0.021219 0.032422 0.054361 -0.102205 -0.025887 -0.145019 -0.052501 -0.099647 0.198576 0.030110 0.015380 0.021435 -0.065150 0.161404 0.224000 -0.053439 -0.111746 0.244463 0.031159 -0.062354 -0.045828 -0.077870 -0.027210 -0.080391 0.084164 -0.098136 -0.024115 -0.111127 0.192342 0.013349 -0.294831 0.001632 -0.051274 -0.125975 0.029001 0.101340 -0.116094 0.099294 -0.144481 0.042725 0.059818 0.004666 0.018175 0.095739 0.258175 -0.176746 0.222545 -0.127301 0.100365 -0.024635 0.042329 0.114994 0.071662 -0.036675 -0.142426 -0.125130 -0.063034 0.132807 0.277381 0.103052 -0.021990 0.158549 -0.014840 -0.016393 -0.108295 0.100352 -0.209001 0.073560 -0.039246 -0.090102 0.115695 0.033843 -0.058536 0.181447 -0.196660 -0.001825 0.230458 0.184630 0.176358 0.177374 -0.015448 0.094882 0.010263 -0.026240 0.031594 -0.069466 -0.131330 0.011569 -0.128276 0.143793 -0.035595 0.002195 0.007313 -0.063428 -0.024771 -0.117714 0.020747 0.055767 0.062144 0.122177
72 -0.046205 -0.097665 -0.016113 -0.081875 0.015872 -0.070146 0.082547 0.143296 0.029496 0.008692 -0.012903 0.226182 0.065401 -0.009411 -0.032607 -0.196575 -0.051590 -0.031497 0.090122 0.144855 0.079927 -0.067452 0.142351 0.096373 0.081648 0.011813 -0.237426 -0.002215 -0.015257 0.025559 0.040995 -0.081847 -0.020163 -0.116084 -0.045833 -0.084175 0.162479 0.024989 0.008875 0.021012 -0.049448 0.135560 0.176793 -0.047434 -0.091449 0.202992 0.023632 -0.052475 -0.038049 -0.067511 -0.024648 -0.061524 0.071226 -0.074857 -0.027760 -0.091421 0.155855 0.014276 -0.240836 0.003152 -0.041848 -0.102126 0.017301 0.085449 -0.087997 0.086695 -0.115018 0.026475 0.044078 -0.000705 0.012874 0.081905 0.217084 -0.144960 0.188631 -0.102110 0.078639 -0.027839 0.038789 0.094932 0.064958 -0.026970 -0.122180 -0.098163 -0.056276 0.108717 0.226763 0.081344 -0.012582 0.126908 -0.013336 -0.005492 -0.089338 0.080625 -0.168894 0.066044 -0.031096 -0.081978 0.097454 0.024207 -0.053777 0.150728 -0.162953 0.004424 0.188840 0.155233 0.143477 0.144860 -0.015457 0.072331 0.011173 -0.021241 0.029299 -0.056716 -0.102265 0.007898 -0.105021 0.120652 -0.025859 -0.003722 0.002093 -0.051834 -0.024280 -0.095966 0.014656 0.045683 0.051230 0.100504
76 -0.055924 -0.104143 -0.020675 -0.083641 0.021142 -0.083470 0.092897 0.154040 0.034482 0.008919 -0.017020 0.243180 0.072704 -0.008958 -0.032350 -0.216423 -0.054510 -0.037183 0.103356 0.160266 0.086064 -0.076505 0.154725 0.102288 0.086799 0.008880 -0.260889 -0.005468 -0.017018 0.026875 0.050684 -0.084049 -0.021163 -0.120545 -0.045096 -0.084697 0.170852 0.025039 0.013647 0.023963 -0.060759 0.138626 0.193936 -0.049166 -0.100227 0.221667 0.026918 -0.055750 -0.040375 -0.066907 -0.024460 -0.071619 0.076548 -0.083554 -0.027492 -0.097491 0.175123 0.014746 -0.260493 0.004837 -0.044642 -0.102038 0.016818 0.088070 -0.098437 0.094160 -0.129902 0.030161 0.048109 0.003185 0.021628 0.083560 0.231959 -0.158904 0.203933 -0.105982 0.082949 -0.025532 0.035082 0.098961 0.070215 -0.024713 -0.131788 -0.103388 -0.055009 0.117459 0.242693 0.089068 -0.018851 0.132811 -0.017879 -0.006558 -0.094945 0.089399 -0.185254 0.067781 -0.033674 -0.084915 0.107609 0.022116 -0.055534 0.158370 -0.175503 0.000431 0.204276 0.167577 0.162201 0.158596 -0.009615 0.076321 0.009823 -0.017173 0.026987 -0.054100 -0.111277 0.013483 -0.112853 0.124511 -0.029223 0.001430 0.000950 -0.054533 -0.022716 -0.099553 0.016427 0.048414 0.061071 0.108153
254 -0.045765 -0.124500 -0.007925 -0.100322 0.008970 -0.084066 0.101799 0.176309 0.030021 0.020752 -0.005949 0.254538 0.080431 -0.002112 -0.032179 -0.223771 -0.055794 -0.032460 0.112884 0.172817 0.080594 -0.079675 0.169648 0.112588 0.102666 0.011229 -0.284728 -0.011427 -0.005771 0.018014 0.045741 -0.101475 -0.014195 -0.139333 -0.065405 -0.093187 0.180741 0.041154 0.011237 0.028075 -0.071171 0.158540 0.208408 -0.060872 -0.096629 0.239633 0.023395 -0.064068 -0.030842 -0.067261 -0.028256 -0.077873 0.084040 -0.094259 -0.019641 -0.112448 0.176113 0.005559 -0.283234 0.011460 -0.057133 -0.116060 0.027725 0.098201 -0.100339 0.112148 -0.128839 0.034802 0.062791 0.010349 0.003176 0.093154 0.262972 -0.158578 0.215462 -0.122913 0.090927 -0.028179 0.046531 0.116734 0.070756 -0.022661 -0.138020 -0.119506 -0.064475 0.111310 0.251264 0.109947 -0.009951 0.157675 -0.018410 -0.002150 -0.089905 0.093047 -0.198224 0.083814 -0.036548 -0.092833 0.119702 0.013165 -0.069186 0.169827 -0.184346 0.006731 0.217183 0.187140 0.167220 0.166610 -0.019572 0.095305 -0.004265 -0.025402 0.038062 -0.063435 -0.108046 0.012086 -0.120241 0.145474 -0.028868 -0.002518 0.003365 -0.057308 -0.027657 -0.115512 0.008104 0.042314 0.070633 0.117404
67 -0.040052 -0.080872 -0.011321 -0.072815 0.016742 -0.062334 0.077902 0.127663 0.029152 0.008138 -0.006509 0.190889 0.059201 -0.007373 -0.026356 -0.179692 -0.046363 -0.032447 0.078483 0.127741 0.064957 -0.066687 0.124675 0.085605 0.078850 0.011931 -0.210915 -0.005239 -0.007868 0.015723 0.032699 -0.077659 -0.018798 -0.105664 -0.045916 -0.072121 0.141400 0.026368 0.012997 0.023828 -0.048575 0.122383 0.162810 -0.036854 -0.081010 0.180579 0.022202 -0.046871 -0.026469 -0.056309 -0.019005 -0.055584 0.060084 -0.068671 -0.018996 -0.080541 0.141314 0.012303 -0.217294 0.004818 -0.033201 -0.089153 0.018496 0.077321 -0.084772 0.078293 -0.100923 0.025525 0.048575 0.006651 0.015835 0.071789 0.199209 -0.127238 0.163227 -0.095158 0.068506 -0.021518 0.038133 0.089273 0.057671 -0.020709 -0.112753 -0.083195 -0.052565 0.091158 0.192036 0.074611 -0.007699 0.107802 -0.008173 -0.001772 -0.079614 0.073553 -0.150409 0.054147 -0.022102 -0.073542 0.085036 0.017509 -0.045825 0.132382 -0.135425 0.006417 0.160112 0.135630 0.129044 0.129125 -0.012231 0.064437 -0.000656 -0.015204 0.024469 -0.041643 -0.092075 0.015197 -0.100003 0.103514 -0.017974 -0.003159 -0.005253 -0.040886 -0.023637 -0.080401 0.010165 0.041482 0.057747 0.090962
38 -0.056762 -0.130082 -0.018126 -0.103162 0.015154 -0.099341 0.110206 0.189640 0.045063 0.012448 -0.022634 0.293915 0.096716 -0.012900 -0.049939 -0.263280 -0.077207 -0.044544 0.120903 0.194218 0.107025 -0.088533 0.197276 0.134600 0.105348 0.016506 -0.308739 -0.010661 -0.019259 0.032231 0.055799 -0.115955 -0.029177 -0.161370 -0.064959 -0.111594 0.214566 0.032758 0.012251 0.024184 -0.068663 0.176186 0.242948 -0.055508 -0.123959 0.273994 0.037310 -0.072142 -0.043026 -0.085252 -0.032405 -0.087036 0.089091 -0.107201 -0.031344 -0.120312 0.210240 0.015981 -0.323611 0.005859 -0.056496 -0.137523 0.031566 0.107920 -0.120644 0.116165 -0.151325 0.044717 0.063467 0.006647 0.016740 0.102428 0.280191 -0.194578 0.240042 -0.134438 0.112402 -0.027540 0.049921 0.124842 0.081911 -0.035868 -0.156219 -0.134242 -0.075276 0.141215 0.299913 0.111806 -0.020647 0.168629 -0.015718 -0.017023 -0.117688 0.113139 -0.228394 0.084522 -0.040652 -0.104018 0.124457 0.036845 -0.067618 0.198581 -0.205825 -0.000255 0.243868 0.202402 0.189267 0.189483 -0.021953 0.102664 0.006659 -0.022388 0.035958 -0.075562 -0.143909 0.008569 -0.142665 0.155381 -0.041088 0.004150 0.005500 -0.069140 -0.031105 -0.129332 0.019033 0.061909 0.067857 0.131107
58 -0.041560 -0.090598 -0.015885 -0.081565 0.011304 -0.065517 0.083187 0.143839 0.027921 0.009892 -0.009843 0.210004 0.070070 -0.001661 -0.031603 -0.193816 -0.054776 -0.031834 0.086589 0.137272 0.072763 -0.071466 0.133860 0.094039 0.083752 0.007017 -0.233778 -0.006515 -0.011016 0.026282 0.040088 -0.081999 -0.017236 -0.109536 -0.046856 -0.077522 0.154401 0.030914 0.007811 0.025968 -0.054034 0.123809 0.168437 -0.044952 -0.089458 0.197052 0.024995 -0.048942 -0.032615 -0.063565 -0.019254 -0.064026 0.069369 -0.070559 -0.020583 -0.083766 0.149209 0.008306 -0.228909 0.004212 -0.035003 -0.097950 0.020336 0.078615 -0.087140 0.083365 -0.108842 0.025799 0.052694 0.009813 0.010881 0.070908 0.210095 -0.141880 0.176357 -0.102376 0.071816 -0.027152 0.036742 0.090651 0.060419 -0.025336 -0.117681 -0.092354 -0.050476 0.099812 0.214625 0.077740 -0.015610 0.118396 -0.012289 -0.007223 -0.085492 0.084086 -0.165923 0.064499 -0.029643 -0.080999 0.097011 0.020455 -0.051538 0.141158 -0.146323 0.009524 0.170968 0.150486 0.133645 0.138139 -0.011896 0.072948 0.002814 -0.021059 0.029634 -0.052549 -0.103077 0.009986 -0.106691 0.113837 -0.026326 -0.000080 0.001908 -0.042277 -0.026413 -0.089805 0.012111 0.042019 0.058221 0.096952
30 -0.044683 -0.102784 -0.018643 -0.077112 0.010809 -0.075851 0.090639 0.148228 0.031298 0.013110 -0.019922 0.229653 0.071279 -0.010881 -0.038195 -0.208936 -0.057109 -0.036139 0.090708 0.155710 0.086935 -0.072489 0.155403 0.101583 0.086079 0.009957 -0.241813 -0.004874 -0.017697 0.029446 0.044320 -0.088881 -0.020320 -0.122936 -0.050589 -0.082883 0.168690 0.031393 0.012097 0.018032 -0.053322 0.138703 0.187148 -0.041545 -0.094795 0.212261 0.026269 -0.056049 -0.037615 -0.063742 -0.023630 -0.064721 0.074782 -0.084744 -0.021802 -0.091037 0.158577 0.013573 -0.248314 0.003340 -0.040892 -0.108114 0.026350 0.088732 -0.090903 0.086484 -0.122651 0.032246 0.052244 0.001389 0.016523 0.082000 0.220164 -0.150086 0.191107 -0.106755 0.084393 -0.021883 0.037538 0.101186 0.059620 -0.029352 -0.125990 -0.105015 -0.055555 0.113310 0.229104 0.089981 -0.018129 0.132778 -0.010909 -0.013671 -0.088815 0.088309 -0.172705 0.068043 -0.034525 -0.076323 0.099622 0.023026 -0.050623 0.155301 -0.166139 -0.001178 0.191760 0.158356 0.152118 0.148302 -0.019419 0.077218 0.004897 -0.023889 0.024667 -0.059621 -0.106130 0.006850 -0.113627 0.121687 -0.030312 0.004289 0.000856 -0.052103 -0.023131 -0.101325 0.018505 0.046968 0.058771 0.102372
61 -0.042580 -0.087865 -0.012971 -0.077925 0.011662 -0.066874 0.080146 0.135445 0.029390 0.007245 -0.013399 0.200978 0.063485 -0.005610 -0.032836 -0.183922 -0.048750 -0.029622 0.080746 0.134113 0.070694 -0.067721 0.129170 0.090465 0.081403 0.007012 -0.221557 -0.004243 -0.010209 0.018254 0.037021 -0.080814 -0.021944 -0.109698 -0.046551 -0.074792 0.151072 0.022906 0.013164 0.021168 -0.047811 0.120807 0.166398 -0.041636 -0.083914 0.190069 0.019192 -0.047749 -0.028462 -0.056704 -0.017684 -0.059289 0.066379 -0.069908 -0.021502 -0.079497 0.142040 0.009208 -0.224941 -0.001728 -0.040064 -0.096174 0.023783 0.080327 -0.084030 0.080405 -0.108257 0.023619 0.051285 0.007452 0.009796 0.074307 0.203046 -0.133582 0.171300 -0.092531 0.072255 -0.023401 0.036596 0.090412 0.063083 -0.022634 -0.116063 -0.092641 -0.054719 0.093787 0.206886 0.075131 -0.010087 0.118378 -0.010900 -0.002723 -0.080260 0.074631 -0.158104 0.063227 -0.021729 -0.075327 0.088884 0.020288 -0.050785 0.137510 -0.140994 0.008578 0.168130 0.139697 0.128705 0.129131 -0.013638 0.070179 0.002094 -0.016727 0.031080 -0.048357 -0.099102 0.014220 -0.104087 0.112511 -0.024153 0.000479 -0.001909 -0.039944 -0.024787 -0.087043 0.014724 0.043864 0.052602 0.092780
37 -0.055638 -0.108427 -0.014246 -0.088831 0.016676 -0.081792 0.094594 0.167459 0.038925 0.012754 -0.017095 0.257841 0.083372 -0.013635 -0.042601 -0.227062 -0.067805 -0.040089 0.107343 0.165275 0.091160 -0.077800 0.170345 0.120289 0.094486 0.014707 -0.267956 -0.006633 -0.012668 0.030594 0.049403 -0.097595 -0.026278 -0.137316 -0.051169 -0.097556 0.189255 0.030486 0.012938 0.026429 -0.057196 0.156234 0.208417 -0.051688 -0.108369 0.234780 0.028514 -0.056590 -0.039039 -0.074195 -0.025502 -0.075302 0.082268 -0.085608 -0.028592 -0.098780 0.182934 0.012461 -0.279136 0.006205 -0.049423 -0.118742 0.024562 0.098728 -0.104947 0.099496 -0.131568 0.039694 0.055544 0.007670 0.019771 0.089929 0.244876 -0.164089 0.213455 -0.116649 0.094327 -0.028420 0.040914 0.111641 0.069643 -0.033054 -0.138867 -0.118084 -0.060777 0.121023 0.258301 0.100950 -0.016795 0.145562 -0.018215 -0.013452 -0.102670 0.098539 -0.194495 0.073750 -0.035649 -0.092156 0.106504 0.029633 -0.058300 0.167984 -0.183044 0.001335 0.215541 0.178702 0.168224 0.165712 -0.021028 0.089451 0.010839 -0.022021 0.034279 -0.066033 -0.121172 0.009296 -0.120480 0.132480 -0.034285 -0.001797 0.006056 -0.061585 -0.023304 -0.116590 0.018910 0.049159 0.059485 0.110723
39 -0.062080 -0.120874 -0.019089 -0.100881 0.022205 -0.091826 0.111860 0.189156 0.038613 0.012689 -0.021759 0.282033 0.089520 -0.011075 -0.044647 -0.257326 -0.075784 -0.042532 0.113415 0.189863 0.107681 -0.084970 0.192431 0.133589 0.101805 0.015332 -0.304781 -0.002926 -0.021946 0.033382 0.058371 -0.112081 -0.027962 -0.154204 -0.057331 -0.106822 0.210153 0.036497 0.011668 0.023560 -0.063941 0.172608 0.233465 -0.060255 -0.116941 0.266321 0.035249 -0.064642 -0.041613 -0.077720 -0.030707 -0.080723 0.090318 -0.103431 -0.028121 -0.112050 0.200209 0.018075 -0.307652 0.005150 -0.056007 -0.127473 0.025917 0.106803 -0.120985 0.109881 -0.146490 0.044865 0.066654 0.004406 0.022960 0.101965 0.273566 -0.185174 0.237960 -0.129317 0.105637 -0.029587 0.050365 0.120223 0.082139 -0.032604 -0.154043 -0.131851 -0.068106 0.137700 0.292189 0.113668 -0.019000 0.167062 -0.018017 -0.012269 -0.108675 0.109511 -0.219249 0.084561 -0.039532 -0.098725 0.121659 0.035671 -0.069552 0.195483 -0.206267 0.002259 0.243898 0.196303 0.184649 0.187208 -0.020675 0.093998 0.006847 -0.021751 0.033690 -0.071575 -0.140606 0.010286 -0.140434 0.148943 -0.039887 -0.002646 0.003803 -0.065240 -0.025139 -0.125907 0.024070 0.059813 0.069649 0.125223
29 -0.045415 -0.090520 -0.017409 -0.077805 0.016452 -0.072044 0.081072 0.136175 0.028592 0.010947 -0.011244 0.216090 0.064712 -0.008353 -0.033074 -0.192884 -0.056916 -0.037369 0.089666 0.140345 0.080965 -0.068603 0.133648 0.095652 0.076277 0.009435 -0.228973 -0.006318 -0.009451 0.027721 0.042772 -0.078575 -0.017034 -0.110744 -0.048102 -0.078550 0.158340 0.028588 0.012490 0.018133 -0.047196 0.129327 0.164518 -0.046473 -0.084786 0.200401 0.021574 -0.050023 -0.036911 -0.060595 -0.021763 -0.062663 0.063829 -0.072865 -0.025482 -0.081450 0.154416 0.013223 -0.229363 0.002847 -0.035940 -0.098627 0.017812 0.081439 -0.090327 0.079772 -0.115672 0.027772 0.049367 0.008865 0.011258 0.075711 0.201215 -0.136285 0.177700 -0.092939 0.078957 -0.024753 0.036500 0.091403 0.056957 -0.021194 -0.111485 -0.097212 -0.051973 0.101284 0.215066 0.077452 -0.014948 0.116173 -0.011637 -0.010045 -0.082653 0.080510 -0.159551 0.066057 -0.030439 -0.071553 0.093020 0.017991 -0.055447 0.145085 -0.152868 0.005756 0.178120 0.147800 0.135547 0.131670 -0.012012 0.072996 0.008648 -0.018569 0.022833 -0.052468 -0.103620 0.005834 -0.104358 0.110322 -0.020815 -0.000560 0.000649 -0.048745 -0.026619 -0.096737 0.016923 0.042696 0.050823 0.089786
47 -0.082753 -0.165079 -0.028584 -0.144902 0.021354 -0.121467 0.140248 0.256374 0.045571 0.016176 -0.027259 0.381271 0.129519 -0.014513 -0.052773 -0.338548 -0.092768 -0.063594 0.160776 0.263809 0.138526 -0.120412 0.236314 0.177029 0.155057 0.020832 -0.410069 -0.004774 -0.029452 0.031058 0.071180 -0.143818 -0.026491 -0.206697 -0.087822 -0.142327 0.282654 0.045985 0.012626 0.048565 -0.093713 0.232338 0.306190 -0.078127 -0.147672 0.351641 0.037911 -0.098329 -0.067998 -0.109244 -0.026388 -0.104173 0.122868 -0.135754 -0.032153 -0.154997 0.261764 0.020649 -0.412810 -0.004492 -0.068794 -0.178267 0.036456 0.143844 -0.162277 0.143652 -0.201926 0.059873 0.085731 0.017003 0.021977 0.124293 0.378618 -0.241368 0.314816 -0.185407 0.126963 -0.041613 0.065036 0.167218 0.115147 -0.048073 -0.210617 -0.175019 -0.088196 0.175879 0.380440 0.148955 -0.017746 0.212244 -0.024588 -0.005175 -0.158794 0.146913 -0.291456 0.109404 -0.051972 -0.144260 0.163521 0.044808 -0.093382 0.257253 -0.266686 0.009920 0.305577 0.274072 0.235696 0.252765 -0.033977 0.134604 0.015994 -0.036556 0.054569 -0.097610 -0.181696 0.025564 -0.189917 0.199023 -0.042821 0.000371 0.002436 -0.082457 -0.048872 -0.165076 0.018325 0.077871 0.099656 0.173184
32 -0.049947 -0.101973 -0.020135 -0.083168 0.014904 -0.077792 0.091616 0.153531 0.029872 0.011890 -0.015779 0.236428 0.074019 -0.008054 -0.037175 -0.208112 -0.059117 -0.038675 0.092635 0.156590 0.088883 -0.072018 0.149042 0.105654 0.084665 0.013971 -0.253576 -0.001069 -0.011714 0.026768 0.042543 -0.085643 -0.017416 -0.118689 -0.053026 -0.088833 0.174262 0.033663 0.010722 0.021784 -0.058422 0.141614 0.183382 -0.046708 -0.098841 0.215574 0.028782 -0.051546 -0.037833 -0.071376 -0.022924 -0.067652 0.071635 -0.079329 -0.025846 -0.096099 0.163202 0.011504 -0.254446 -0.001298 -0.038877 -0.104805 0.020669 0.094472 -0.098629 0.089099 -0.125329 0.035460 0.051768 0.002935 0.011412 0.086709 0.226647 -0.154205 0.193532 -0.102682 0.084725 -0.028025 0.039207 0.101034 0.065945 -0.027716 -0.120774 -0.105264 -0.059574 0.114504 0.236011 0.089833 -0.015114 0.128750 -0.012090 -0.004173 -0.087188 0.083636 -0.179737 0.068853 -0.029888 -0.082801 0.099318 0.020437 -0.056422 0.153913 -0.169828 0.004001 0.196796 0.166793 0.154874 0.144264 -0.018865 0.080202 0.007377 -0.023811 0.031198 -0.052592 -0.108413 0.012419 -0.114225 0.130105 -0.023209 -0.001654 0.001161 -0.057473 -0.026473 -0.105598 0.018681 0.040768 0.053264 0.104991
48 -0.074193 -0.146699 -0.022804 -0.128985 0.015384 -0.108475 0.128222 0.225053 0.042388 0.011368 -0.026987 0.345387 0.117615 -0.007246 -0.049119 -0.312086 -0.086049 -0.058592 0.144732 0.238048 0.124793 -0.110133 0.210927 0.155103 0.136352 0.021730 -0.376520 -0.010531 -0.025932 0.028702 0.066481 -0.130949 -0.023059 -0.179825 -0.083816 -0.130989 0.255754 0.040947 0.012343 0.044828 -0.090221 0.204061 0.277863 -0.069339 -0.132404 0.321302 0.036923 -0.088485 -0.063461 -0.103328 -0.024762 -0.092685 0.109308 -0.116688 -0.033501 -0.135901 0.232955 0.021600 -0.374457 -0.003418 -0.057606 -0.155184 0.036426 0.133024 -0.144183 0.131099 -0.184687 0.051369 0.082009 0.011583 0.016369 0.112915 0.333759 -0.215272 0.290369 -0.159538 0.113835 -0.040894 0.061248 0.153594 0.107864 -0.039432 -0.184032 -0.157293 -0.080524 0.154671 0.343280 0.137759 -0.017343 0.196025 -0.022192 -0.000481 -0.143738 0.132643 -0.260681 0.096465 -0.041932 -0.128807 0.154273 0.041504 -0.084517 0.226224 -0.240718 0.007966 0.273391 0.247825 0.211173 0.225681 -0.030697 0.114441 0.007807 -0.034866 0.048840 -0.085074 -0.167113 0.020943 -0.166477 0.184756 -0.036244 -0.004020 0.004167 -0.077487 -0.039271 -0.148267 0.016212 0.070382 0.092799 0.152389
55 -0.042197 -0.089917 -0.013781 -0.074789 0.013709 -0.070631 0.083748 0.135997 0.030902 0.011135 -0.010791 0.210184 0.062454 -0.005099 -0.034853 -0.187810 -0.052398 -0.029938 0.084416 0.137246 0.081261 -0.064433 0.133182 0.093828 0.079338 0.010754 -0.228352 -0.005906 -0.013603 0.028165 0.041166 -0.077755 -0.015303 -0.108199 -0.042156 -0.076638 0.147669 0.026503 0.007845 0.019010 -0.046439 0.128044 0.168174 -0.044462 -0.082883 0.196069 0.025303 -0.049773 -0.032618 -0.061645 -0.022197 -0.060463 0.068728 -0.070250 -0.025104 -0.085444 0.149676 0.010893 -0.226928 -0.001526 -0.033941 -0.093582 0.021164 0.077894 -0.083526 0.084403 -0.107504 0.025145 0.047017 0.003113 0.012702 0.076797 0.204445 -0.132694 0.177615 -0.094359 0.075492 -0.029030 0.032237 0.092968 0.060714 -0.025822 -0.109729 -0.095378 -0.054754 0.100332 0.208706 0.075707 -0.018266 0.118447 -0.008486 -0.002510 -0.077812 0.073172 -0.164189 0.060318 -0.029578 -0.071370 0.092726 0.021649 -0.048854 0.141601 -0.149350 0.003592 0.173991 0.147477 0.137119 0.133524 -0.009855 0.071223 0.003310 -0.015774 0.029392 -0.050861 -0.095034 0.007274 -0.097665 0.110170 -0.020105 -0.004134 0.004597 -0.044575 -0.026961 -0.097040 0.012450 0.041144 0.049619 0.093878
44 -0.035321 -0.076072 -0.016594 -0.066811 0.012120 -0.059597 0.068643 0.119341 0.026348 0.009185 -0.009789 0.182034 0.053932 -0.005266 -0.026795 -0.160762 -0.047266 -0.032518 0.073470 0.121112 0.067542 -0.053057 0.113655 0.084422 0.070729 0.009205 -0.193038 -0.000292 -0.007536 0.022436 0.035207 -0.069465 -0.019860 -0.095600 -0.037878 -0.068497 0.129695 0.026782 0.008699 0.015084 -0.045713 0.111634 0.142352 -0.036385 -0.073911 0.166726 0.017576 -0.039858 -0.032976 -0.053138 -0.019102 -0.052212 0.056693 -0.064285 -0.016544 -0.074294 0.130569 0.006292 -0.194342 -0.002887 -0.032908 -0.082325 0.018700 0.065592 -0.072764 0.073812 -0.098868 0.028123 0.040994 0.006807 0.014958 0.063992 0.174161 -0.119946 0.149989 -0.080068 0.061650 -0.025421 0.031524 0.080242 0.050090 -0.023297 -0.098122 -0.083165 -0.046277 0.082365 0.184109 0.068159 -0.016835 0.101296 -0.013606 -0.005612 -0.070833 0.063825 -0.143179 0.055789 -0.021564 -0.061361 0.076191 0.020962 -0.043268 0.124695 -0.128509 0.005206 0.150925 0.129074 0.121663 0.115542 -0.014563 0.061309 0.006964 -0.020158 0.018338 -0.041212 -0.086049 0.011087 -0.089141 0.095683 -0.020426 -0.002497 0.003695 -0.043647 -0.021273 -0.077661 0.014335 0.031602 0.042017 0.076720
43 -0.039635 -0.073864 -0.013925 -0.066318 0.013835 -0.061774 0.071954 0.117924 0.025515 0.007937 -0.010066 0.179806 0.052444 -0.003944 -0.024406 -0.160258 -0.048142 -0.027229 0.069741 0.117683 0.067530 -0.056224 0.117600 0.077403 0.064684 0.012638 -0.193134 -0.001948 -0.012440 0.021627 0.037556 -0.060579 -0.016110 -0.088655 -0.033750 -0.064889 0.128202 0.022635 0.011940 0.020549 -0.038925 0.108325 0.144061 -0.036602 -0.076447 0.164555 0.023114 -0.043489 -0.030287 -0.053056 -0.016303 -0.048979 0.057131 -0.061073 -0.019555 -0.073127 0.130460 0.009446 -0.197990 -0.002168 -0.031286 -0.077086 0.014622 0.070522 -0.075445 0.067434 -0.091336 0.022045 0.040467 0.007671 0.015135 0.067078 0.175296 -0.118320 0.148683 -0.084800 0.063201 -0.023893 0.026724 0.079012 0.054957 -0.017181 -0.094681 -0.076364 -0.046391 0.082896 0.180486 0.071683 -0.013337 0.101678 -0.008474 -0.003033 -0.067700 0.069786 -0.138190 0.053349 -0.023090 -0.063534 0.079249 0.019280 -0.040489 0.123121 -0.128225 0.003202 0.151736 0.122351 0.120111 0.112308 -0.006536 0.057878 0.004786 -0.015588 0.019476 -0.041174 -0.087350 0.005914 -0.088804 0.093767 -0.018488 -0.000265 0.003938 -0.042562 -0.021453 -0.076305 0.012016 0.033878 0.045986 0.077462
73 -0.043925 -0.081295 -0.013223 -0.072449 0.016566 -0.064306 0.076109 0.129022 0.022285 0.005243 -0.015776 0.193926 0.062099 -0.004106 -0.031287 -0.177303 -0.050425 -0.033597 0.076964 0.127379 0.075601 -0.062862 0.124180 0.085782 0.070553 0.010835 -0.207746 -0.000160 -0.009652 0.019917 0.034700 -0.071812 -0.014233 -0.104297 -0.042888 -0.075252 0.140220 0.022474 0.007441 0.016736 -0.049844 0.113654 0.156651 -0.038733 -0.081956 0.182231 0.023510 -0.045015 -0.030297 -0.055606 -0.021522 -0.055709 0.063092 -0.064507 -0.019148 -0.080752 0.136910 0.009742 -0.208818 0.002195 -0.035903 -0.090355 0.022653 0.071364 -0.082475 0.076839 -0.103671 0.025953 0.042910 0.006195 0.015741 0.071385 0.186885 -0.122987 0.164114 -0.091383 0.069023 -0.026213 0.035591 0.085117 0.058252 -0.025979 -0.101288 -0.088028 -0.045906 0.089836 0.192482 0.072129 -0.011211 0.110302 -0.012176 -0.007105 -0.077339 0.071403 -0.150637 0.058739 -0.021765 -0.070022 0.088394 0.019267 -0.049987 0.129762 -0.141997 0.002857 0.164187 0.134869 0.126113 0.121806 -0.012244 0.061589 0.004727 -0.018705 0.024757 -0.047237 -0.093155 0.007513 -0.096015 0.107280 -0.018669 -0.000697 0.005299 -0.041792 -0.023332 -0.087539 0.016118 0.037549 0.049090 0.086274
45 -0.040566 -0.089073 -0.017652 -0.076056 0.016237 -0.068049 0.081800 0.140359 0.032042 0.009825 -0.016257 0.210399 0.069498 -0.006859 -0.033279 -0.189033 -0.050397 -0.030786 0.083946 0.142076 0.075677 -0.068231 0.136081 0.092096 0.077339 0.013989 -0.227399 -0.006742 -0.011674 0.027249 0.039933 -0.075428 -0.022336 -0.106436 -0.044264 -0.074362 0.148488 0.028473 0.012165 0.019559 -0.051965 0.123309 0.165766 -0.043173 -0.087678 0.189257 0.024763 -0.045895 -0.031488 -0.056598 -0.018855 -0.061680 0.061802 -0.070138 -0.020879 -0.086627 0.149421 0.009277 -0.228189 0.001834 -0.037670 -0.094411 0.021171 0.081279 -0.086953 0.082354 -0.110631 0.029015 0.044509 0.007212 0.016170 0.078107 0.198917 -0.139963 0.177565 -0.090918 0.077519 -0.023417 0.037533 0.093105 0.059837 -0.025264 -0.114681 -0.089937 -0.054210 0.099399 0.209884 0.079433 -0.015910 0.115416 -0.012422 -0.006046 -0.082717 0.077887 -0.162102 0.064070 -0.025028 -0.074337 0.095194 0.024881 -0.055569 0.137540 -0.151935 0.008640 0.173689 0.142684 0.138030 0.133615 -0.012102 0.073450 0.004765 -0.015619 0.025233 -0.047864 -0.098752 0.007726 -0.101192 0.109514 -0.025021 0.002511 0.003638 -0.050250 -0.023226 -0.092339 0.015296 0.042591 0.054836 0.089655
40 -0.061418 -0.120135 -0.021027 -0.101010 0.022026 -0.090160 0.104531 0.189603 0.035469 0.007906 -0.014821 0.278183 0.086701 -0.012807 -0.047574 -0.255037 -0.069235 -0.046153 0.111407 0.183267 0.107895 -0.087529 0.184237 0.127910 0.101810 0.014409 -0.304935 -0.009391 -0.020613 0.027179 0.051826 -0.103376 -0.026813 -0.142445 -0.060371 -0.106657 0.201128 0.039820 0.015150 0.030253 -0.071694 0.169927 0.223869 -0.053311 -0.117822 0.254761 0.030774 -0.069444 -0.042401 -0.077970 -0.029319 -0.085654 0.085682 -0.095590 -0.022803 -0.118830 0.195432 0.011940 -0.302921 -0.000066 -0.047946 -0.122079 0.023974 0.104127 -0.116573 0.109181 -0.149065 0.036668 0.064958 0.008864 0.014028 0.100796 0.271566 -0.186214 0.235775 -0.131761 0.100760 -0.033949 0.042690 0.118656 0.082130 -0.032403 -0.151604 -0.128269 -0.064929 0.137475 0.283956 0.102660 -0.021983 0.163720 -0.021110 -0.012798 -0.108813 0.102802 -0.213321 0.087447 -0.033157 -0.103715 0.125566 0.025800 -0.065369 0.185302 -0.195380 0.007292 0.236973 0.195132 0.186883 0.175182 -0.019283 0.092767 0.005842 -0.028823 0.033632 -0.066476 -0.129803 0.012050 -0.132389 0.149315 -0.028746 -0.003741 0.005208 -0.059923 -0.034362 -0.128200 0.015037 0.057428 0.072125 0.119862
74 -0.048169 -0.098105 -0.018261 -0.086789 0.014715 -0.069533 0.085180 0.152714 0.028781 0.006330 -0.011462 0.227999 0.067131 -0.002773 -0.033589 -0.207825 -0.052716 -0.033552 0.096135 0.147047 0.080135 -0.072023 0.144486 0.106909 0.081783 0.015849 -0.246020 -0.002779 -0.010925 0.026325 0.045688 -0.080762 -0.023014 -0.115713 -0.045753 -0.086056 0.163664 0.026506 0.010701 0.027169 -0.058527 0.139747 0.179235 -0.044531 -0.090345 0.209995 0.023903 -0.057206 -0.034539 -0.066953 -0.022083 -0.066067 0.069361 -0.076547 -0.021857 -0.088498 0.161076 0.013350 -0.250180 0.001491 -0.042204 -0.105499 0.024907 0.084576 -0.096538 0.087551 -0.116593 0.027316 0.047581 0.003684 0.016438 0.080184 0.222656 -0.151495 0.191921 -0.105294 0.084105 -0.029961 0.040488 0.096997 0.063982 -0.027349 -0.125886 -0.097896 -0.056594 0.102676 0.223780 0.090981 -0.018764 0.130753 -0.010517 -0.006907 -0.086667 0.081051 -0.179164 0.066512 -0.024857 -0.080136 0.103924 0.020975 -0.055164 0.148940 -0.159399 0.003526 0.191398 0.159809 0.143752 0.147293 -0.018579 0.074614 0.001548 -0.023496 0.032354 -0.056482 -0.107238 0.008750 -0.113544 0.119307 -0.024305 -0.003913 -0.002577 -0.051078 -0.025693 -0.096965 0.010990 0.041900 0.055537 0.097994
53 -0.063090 -0.133270 -0.026544 -0.114383 0.025086 -0.101263 0.115376 0.209163 0.036838 0.011305 -0.024011 0.314235 0.094475 -0.014030 -0.052177 -0.278644 -0.074320 -0.045117 0.125315 0.208956 0.121115 -0.096427 0.197881 0.139301 0.113822 0.012582 -0.330984 -0.007726 -0.018838 0.031965 0.059736 -0.115470 -0.031215 -0.165243 -0.070167 -0.113881 0.229776 0.038038 0.016943 0.033086 -0.075974 0.189966 0.242894 -0.062909 -0.132085 0.284238 0.035890 -0.070169 -0.050682 -0.091595 -0.027713 -0.094306 0.101589 -0.101780 -0.025872 -0.130631 0.216587 0.012376 -0.340491 0.003065 -0.054505 -0.138863 0.033135 0.117226 -0.131172 0.121509 -0.159791 0.042273 0.066086 0.003004 0.022679 0.114555 0.296245 -0.200336 0.264080 -0.140261 0.110128 -0.041685 0.051553 0.131584 0.089248 -0.039119 -0.171174 -0.136828 -0.073277 0.152696 0.312685 0.118628 -0.018182 0.176531 -0.019677 -0.012164 -0.116803 0.113460 -0.238514 0.091930 -0.038585 -0.110791 0.137614 0.027322 -0.079771 0.208499 -0.222274 0.011040 0.261954 0.217553 0.202995 0.192383 -0.018774 0.102335 0.005633 -0.030760 0.038045 -0.076440 -0.146896 0.014735 -0.146018 0.164829 -0.031689 0.002410 0.001698 -0.071105 -0.039810 -0.144106 0.020778 0.056549 0.079952 0.131794
75 -0.041851 -0.097094 -0.018313 -0.086967 0.014890 -0.071517 0.089946 0.149919 0.028743 0.008705 -0.009286 0.224053 0.070078 -0.006047 -0.036961 -0.207515 -0.055370 -0.037634 0.095207 0.155343 0.086856 -0.074953 0.143503 0.102817 0.084397 0.008640 -0.248942 -0.000630 -0.012627 0.025073 0.041058 -0.080797 -0.020384 -0.115426 -0.047888 -0.085736 0.169047 0.029731 0.011011 0.024644 -0.053252 0.133643 0.182519 -0.047145 -0.090785 0.211852 0.028955 -0.053214 -0.033778 -0.062860 -0.022403 -0.065589 0.071471 -0.081083 -0.018706 -0.089871 0.160254 0.014000 -0.246749 -0.000003 -0.041754 -0.103138 0.026225 0.084284 -0.096422 0.089966 -0.115843 0.026988 0.050493 0.004739 0.017635 0.078513 0.221777 -0.150948 0.192750 -0.105727 0.077935 -0.024672 0.039395 0.096930 0.067403 -0.021611 -0.125217 -0.100624 -0.056473 0.107860 0.231899 0.090749 -0.016612 0.125999 -0.016019 -0.002645 -0.089687 0.082559 -0.181079 0.064960 -0.028985 -0.079541 0.103427 0.023391 -0.056540 0.150478 -0.163352 0.006838 0.185903 0.160222 0.150448 0.142095 -0.018789 0.074466 0.005135 -0.018579 0.032868 -0.053783 -0.106199 0.008042 -0.112054 0.123639 -0.028646 0.003514 -0.003071 -0.053401 -0.023553 -0.101178 0.016808 0.046867 0.056505 0.100275
31 -0.032243 -0.068575 -0.008637 -0.056656 0.009687 -0.058042 0.062597 0.105072 0.018815 0.008420 -0.006991 0.169185 0.056163 -0.009489 -0.026211 -0.151976 -0.045957 -0.024689 0.069430 0.109545 0.062901 -0.054145 0.104006 0.078581 0.063033 0.010998 -0.175419 0.000352 -0.009255 0.020217 0.028268 -0.056761 -0.018834 -0.082530 -0.033689 -0.059421 0.119951 0.020680 0.011827 0.013226 -0.038635 0.101735 0.130731 -0.034665 -0.068966 0.152724 0.015677 -0.041175 -0.027081 -0.045935 -0.019410 -0.045654 0.051508 -0.058815 -0.015382 -0.068096 0.118072 0.006391 -0.183478 -0.003192 -0.025079 -0.075492 0.013129 0.060644 -0.070462 0.062407 -0.090803 0.020758 0.034111 0.003979 0.010722 0.056726 0.160000 -0.107639 0.140159 -0.074481 0.062952 -0.021069 0.031681 0.073633 0.048939 -0.019908 -0.090102 -0.076030 -0.040612 0.078322 0.162081 0.060619 -0.010790 0.089791 -0.013161 -0.001524 -0.059887 0.059826 -0.131777 0.049230 -0.023956 -0.058289 0.071742 0.020115 -0.044863 0.110679 -0.117222 0.001070 0.135361 0.115762 0.108793 0.106451 -0.008891 0.055768 0.001638 -0.018948 0.018304 -0.041698 -0.077257 0.010372 -0.083852 0.092859 -0.022067 0.002159 -0.001161 -0.039581 -0.020826 -0.078223 0.010298 0.033886 0.037162 0.072654
57 -0.029083 -0.063204 -0.014231 -0.056670 0.010734 -0.048031 0.055168 0.098117 0.021072 0.007652 -0.009971 0.148734 0.050226 -0.005366 -0.025504 -0.137955 -0.040157 -0.023515 0.060595 0.099794 0.054551 -0.047288 0.099895 0.067136 0.053740 0.010970 -0.161965 0.000941 -0.007232 0.016500 0.025451 -0.051868 -0.013472 -0.076487 -0.032459 -0.053221 0.105311 0.017111 0.005595 0.017739 -0.033184 0.089476 0.118314 -0.031363 -0.061214 0.140887 0.018558 -0.035181 -0.022299 -0.040793 -0.018265 -0.042613 0.044615 -0.053064 -0.016649 -0.062497 0.105837 0.011197 -0.161774 0.002320 -0.028385 -0.063673 0.010846 0.058570 -0.059170 0.055256 -0.078493 0.018848 0.031328 0.004468 0.012314 0.055197 0.146507 -0.099849 0.128577 -0.069562 0.054514 -0.017450 0.028876 0.066413 0.043683 -0.013196 -0.076143 -0.065499 -0.034402 0.072705 0.150115 0.054474 -0.012174 0.086462 -0.006135 -0.002335 -0.060853 0.057340 -0.118855 0.045196 -0.018338 -0.051392 0.067637 0.012951 -0.035080 0.101207 -0.109637 0.000990 0.123529 0.107558 0.098678 0.097513 -0.010746 0.051914 0.006451 -0.013189 0.014740 -0.034127 -0.072355 0.006637 -0.069181 0.078021 -0.018114 -0.000082 0.003141 -0.035414 -0.019633 -0.067493 0.012305 0.026243 0.036643 0.063925
13 -0.026175 -0.060947 -0.008912 -0.054370 0.006970 -0.049412 0.056172 0.093018 0.021189 0.010315 -0.012089 0.142763 0.049180 -0.009649 -0.022262 -0.130600 -0.041322 -0.024498 0.058345 0.094301 0.059332 -0.046736 0.091337 0.068286 0.050613 0.010080 -0.151386 -0.001073 -0.007255 0.018376 0.024473 -0.050988 -0.014567 -0.077478 -0.031283 -0.057968 0.109809 0.022278 0.007643 0.013635 -0.032659 0.087164 0.113447 -0.026525 -0.058892 0.137906 0.017436 -0.031468 -0.024034 -0.040012 -0.017179 -0.040292 0.047240 -0.048391 -0.016261 -0.059891 0.098623 0.004494 -0.155047 -0.002715 -0.021873 -0.065291 0.013440 0.053746 -0.056176 0.052675 -0.078132 0.018028 0.034688 0.001058 0.006396 0.050214 0.139637 -0.097002 0.122706 -0.068174 0.050940 -0.018900 0.021893 0.059730 0.041570 -0.019144 -0.076968 -0.068288 -0.041291 0.068791 0.147608 0.054661 -0.013059 0.085302 -0.003733 -0.006129 -0.057560 0.050167 -0.112229 0.041326 -0.018490 -0.053932 0.060766 0.015297 -0.033195 0.097203 -0.104500 0.004256 0.119236 0.097047 0.096170 0.088100 -0.009704 0.044816 0.007604 -0.013886 0.016981 -0.031778 -0.072591 0.003235 -0.073540 0.081948 -0.015436 -0.001590 0.002410 -0.030547 -0.012181 -0.065392 0.008934 0.030230 0.036452 0.066287
34 -0.029840 -0.059677 -0.007253 -0.045769 0.011948 -0.046810 0.055325 0.087789 0.015705 0.006479 -0.012463 0.135542 0.044145 -0.005035 -0.023743 -0.123134 -0.030463 -0.020418 0.058711 0.092865 0.050735 -0.043595 0.091468 0.059325 0.050918 0.003954 -0.143220 -0.004323 -0.009160 0.018908 0.029294 -0.048263 -0.014996 -0.069093 -0.027605 -0.047863 0.102504 0.019004 0.007368 0.015724 -0.034326 0.084444 0.110147 -0.025557 -0.056574 0.122426 0.017249 -0.034010 -0.019252 -0.035950 -0.011751 -0.038745 0.044327 -0.044115 -0.015914 -0.058038 0.095955 0.006996 -0.147497 -0.000689 -0.024995 -0.058810 0.009547 0.052822 -0.055178 0.050256 -0.073208 0.014995 0.033268 0.003687 0.006997 0.047838 0.127167 -0.085868 0.112951 -0.061917 0.045182 -0.012349 0.023598 0.060282 0.035643 -0.017034 -0.070868 -0.062670 -0.031692 0.067069 0.135348 0.052740 -0.012363 0.078366 -0.010933 -0.003911 -0.052937 0.049659 -0.105993 0.042225 -0.019000 -0.044692 0.057974 0.012639 -0.034893 0.094379 -0.097120 0.000697 0.109063 0.094250 0.090579 0.084665 -0.009337 0.047236 0.005804 -0.011764 0.016857 -0.028931 -0.064580 0.004781 -0.064198 0.076329 -0.016650 0.003545 0.000728 -0.031610 -0.013294 -0.060105 0.005858 0.028656 0.035172 0.060347
46 -0.037708 -0.073113 -0.009162 -0.056782 0.013159 -0.050478 0.066286 0.110402 0.018568 0.007817 -0.006825 0.168044 0.048437 -0.001480 -0.027650 -0.151235 -0.038640 -0.026264 0.066654 0.111774 0.057708 -0.053898 0.106530 0.077806 0.064535 0.004342 -0.182043 -0.004428 -0.008677 0.016845 0.029620 -0.059340 -0.017026 -0.082011 -0.035363 -0.062566 0.118435 0.019447 0.011872 0.019942 -0.041246 0.097075 0.135364 -0.032808 -0.071652 0.155533 0.018858 -0.039202 -0.030762 -0.049511 -0.012406 -0.047068 0.050114 -0.055457 -0.020117 -0.064740 0.118652 0.007834 -0.183963 -0.001170 -0.028784 -0.075661 0.011936 0.061561 -0.070202 0.063961 -0.087575 0.020221 0.038217 0.001597 0.008350 0.057640 0.159301 -0.107449 0.141687 -0.074795 0.055774 -0.021413 0.025985 0.067501 0.050991 -0.020666 -0.093017 -0.074899 -0.038903 0.075649 0.166008 0.064563 -0.014888 0.097385 -0.006377 -0.003942 -0.062555 0.065656 -0.126251 0.049945 -0.022048 -0.056443 0.071473 0.016998 -0.044977 0.107602 -0.121583 0.003274 0.136367 0.114257 0.108828 0.106896 -0.007540 0.058301 0.003066 -0.011392 0.022674 -0.037280 -0.081102 0.004818 -0.077439 0.086965 -0.023035 -0.000196 -0.002716 -0.040268 -0.016166 -0.069302 0.013366 0.029129 0.038561 0.071150
9 -0.028869 -0.056659 -0.012393 -0.048987 0.009044 -0.045398 0.051625 0.092234 0.021318 0.004720 -0.007052 0.138300 0.043493 -0.010205 -0.022800 -0.123596 -0.035423 -0.019100 0.053668 0.091177 0.046939 -0.039238 0.091537 0.058262 0.049606 0.009573 -0.147548 -0.006079 -0.007058 0.018667 0.026231 -0.047808 -0.015589 -0.071401 -0.026920 -0.053366 0.102535 0.017373 0.003678 0.016792 -0.035177 0.076405 0.109835 -0.022494 -0.058502 0.122239 0.015251 -0.034878 -0.023612 -0.042850 -0.014611 -0.040114 0.039665 -0.044644 -0.011930 -0.055686 0.094021 0.007528 -0.148317 -0.000717 -0.023562 -0.061138 0.010655 0.054120 -0.052747 0.051443 -0.069238 0.018532 0.027765 0.002057 0.010469 0.051251 0.135020 -0.089659 0.116579 -0.063122 0.046916 -0.012471 0.019942 0.060290 0.040396 -0.016908 -0.076903 -0.064576 -0.034504 0.064165 0.135802 0.051173 -0.010783 0.077202 -0.005904 -0.004838 -0.048084 0.053069 -0.106654 0.037066 -0.017057 -0.048104 0.059480 0.016302 -0.037172 0.086535 -0.098855 0.003787 0.112577 0.094249 0.086569 0.089835 -0.013343 0.041751 0.007018 -0.011897 0.021441 -0.033427 -0.064623 0.004723 -0.068522 0.077456 -0.017162 0.002576 -0.000763 -0.033267 -0.017506 -0.062006 0.005720 0.029636 0.035060 0.062024
68 -0.026419 -0.045493 -0.006724 -0.040252 0.010347 -0.036631 0.046743 0.075608 0.013248 0.003252 -0.010118 0.119011 0.039279 -0.007530 -0.016792 -0.102938 -0.033233 -0.017607 0.048248 0.079750 0.042553 -0.035145 0.074558 0.056517 0.041719 0.006536 -0.127504 -0.001840 -0.005173 0.014617 0.023524 -0.042506 -0.010253 -0.057773 -0.023000 -0.044749 0.082349 0.016575 0.007443 0.011451 -0.024318 0.072467 0.090069 -0.025737 -0.044408 0.105080 0.015217 -0.024351 -0.021917 -0.030276 -0.011075 -0.036743 0.033776 -0.039887 -0.013514 -0.044011 0.080945 0.002817 -0.125103 0.001073 -0.017773 -0.054494 0.015644 0.046385 -0.043896 0.046811 -0.062955 0.015883 0.028821 0.005807 0.004122 0.037790 0.110987 -0.078624 0.094743 -0.050175 0.045116 -0.014188 0.017056 0.050965 0.032558 -0.009854 -0.064384 -0.051088 -0.026517 0.055445 0.115846 0.041797 -0.005800 0.068165 -0.003219 -0.002642 -0.045455 0.046026 -0.090683 0.034313 -0.015830 -0.041084 0.048693 0.011790 -0.029882 0.074619 -0.083734 0.004814 0.094421 0.080808 0.076431 0.071226 -0.010926 0.042647 0.003770 -0.007060 0.010990 -0.024664 -0.054558 0.005272 -0.054308 0.062143 -0.014627 0.001986 -0.003408 -0.022090 -0.009909 -0.050331 0.011086 0.024896 0.025430 0.052683
6 -0.030189 -0.064101 -0.009370 -0.049333 0.011370 -0.048213 0.059331 0.102027 0.018552 0.005281 -0.006735 0.148574 0.045451 -0.009053 -0.021832 -0.135689 -0.037452 -0.026711 0.062854 0.095751 0.054018 -0.048828 0.095148 0.064263 0.058722 0.004917 -0.160386 -0.005423 -0.006311 0.021655 0.028338 -0.059416 -0.013001 -0.076876 -0.032174 -0.055730 0.110693 0.022580 0.004678 0.011826 -0.036097 0.090395 0.123933 -0.030755 -0.065646 0.137852 0.018913 -0.040149 -0.021201 -0.040077 -0.013075 -0.042693 0.042946 -0.048803 -0.014979 -0.062446 0.105709 0.007428 -0.159866 -0.001372 -0.022906 -0.064428 0.014238 0.057888 -0.060568 0.055935 -0.081473 0.020792 0.029235 -0.001736 0.012365 0.052746 0.142571 -0.093720 0.127501 -0.068083 0.056758 -0.014744 0.023803 0.065354 0.038429 -0.014615 -0.079964 -0.064848 -0.032214 0.067531 0.152737 0.054567 -0.010325 0.083411 -0.006545 -0.002615 -0.055907 0.056833 -0.116330 0.045653 -0.020133 -0.057766 0.068198 0.014484 -0.034409 0.097405 -0.105315 0.003052 0.120631 0.106389 0.097337 0.099652 -0.008725 0.047703 0.007811 -0.011490 0.019027 -0.033408 -0.070003 0.010997 -0.070370 0.079355 -0.017156 -0.001459 0.001584 -0.036704 -0.014931 -0.073330 0.005071 0.030520 0.042778 0.062991
8 -0.027527 -0.060892 -0.007155 -0.046956 0.006856 -0.043871 0.053846 0.091111 0.017494 0.007873 -0.009565 0.135584 0.040294 -0.006640 -0.018724 -0.125363 -0.031450 -0.021475 0.059273 0.091953 0.049387 -0.042469 0.087311 0.057969 0.051539 0.010861 -0.146440 0.000585 -0.008045 0.019219 0.024303 -0.050525 -0.012446 -0.066945 -0.031414 -0.052108 0.103060 0.016558 0.010415 0.017574 -0.032461 0.080487 0.105927 -0.023108 -0.055136 0.127084 0.012528 -0.033021 -0.023716 -0.037011 -0.014387 -0.043001 0.046126 -0.042920 -0.018590 -0.054837 0.092419 0.006880 -0.149590 -0.000486 -0.026134 -0.063953 0.013870 0.053670 -0.053306 0.050491 -0.068211 0.017236 0.028430 -0.001386 0.006266 0.046975 0.129099 -0.088320 0.113043 -0.059774 0.047279 -0.017107 0.022015 0.057641 0.040051 -0.019221 -0.075885 -0.058838 -0.036113 0.068767 0.138507 0.051708 -0.007586 0.073056 -0.006223 -0.006135 -0.052773 0.049224 -0.106721 0.037832 -0.020305 -0.051924 0.056983 0.011562 -0.030667 0.086745 -0.100125 0.001209 0.115241 0.091119 0.091024 0.082893 -0.011179 0.042420 0.000671 -0.010175 0.019551 -0.032597 -0.068027 0.009536 -0.066874 0.072882 -0.017980 -0.000713 -0.000919 -0.034823 -0.012570 -0.062440 0.010059 0.022659 0.037216 0.057759
1 -0.031139 -0.059863 -0.005139 -0.049572 0.011129 -0.047799 0.050521 0.091701 0.019925 0.004743 -0.009245 0.131625 0.043856 -0.008221 -0.022968 -0.122720 -0.030450 -0.022894 0.057969 0.085106 0.050082 -0.041487 0.086327 0.061406 0.050457 0.007471 -0.141028 0.001914 -0.003999 0.014028 0.020818 -0.048458 -0.013547 -0.066543 -0.031836 -0.052619 0.094054 0.015445 0.010687 0.010060 -0.032949 0.075631 0.109680 -0.022984 -0.056146 0.118481 0.012353 -0.032389 -0.018067 -0.035072 -0.014827 -0.036583 0.039967 -0.039958 -0.019603 -0.052667 0.093539 0.011948 -0.146986 0.004073 -0.021765 -0.063221 0.009650 0.051103 -0.056688 0.053789 -0.068803 0.020138 0.024555 0.000909 0.008665 0.043598 0.132558 -0.086288 0.108459 -0.062121 0.052069 -0.018656 0.024293 0.053439 0.035392 -0.018577 -0.072709 -0.061794 -0.033403 0.060054 0.131166 0.049354 -0.004722 0.074659 -0.007090 -0.002714 -0.050820 0.048165 -0.104069 0.038869 -0.019594 -0.050737 0.061167 0.016123 -0.035471 0.090152 -0.091292 0.001328 0.111347 0.095579 0.089568 0.087463 -0.011677 0.044608 0.002828 -0.013472 0.018587 -0.028119 -0.064741 0.004889 -0.060911 0.074548 -0.018709 -0.002555 -0.000000 -0.028259 -0.018585 -0.061434 0.006165 0.025180 0.033994 0.060260
5 -0.030361 -0.067962 -0.013945 -0.054276 0.013212 -0.051952 0.061801 0.097879 0.023713 0.003508 -0.005893 0.154918 0.045390 -0.005869 -0.021730 -0.140910 -0.039734 -0.027663 0.061269 0.102993 0.058595 -0.044642 0.094853 0.073073 0.058814 0.005168 -0.164907 -0.006082 -0.008510 0.017721 0.025861 -0.058477 -0.016919 -0.076561 -0.031726 -0.060349 0.112481 0.021103 0.006974 0.016125 -0.032378 0.089156 0.119345 -0.029535 -0.064895 0.140554 0.017241 -0.037435 -0.024680 -0.045344 -0.014461 -0.042201 0.050407 -0.054664 -0.014434 -0.063418 0.109643 0.007659 -0.162835 -0.002181 -0.028298 -0.070795 0.017241 0.061728 -0.064637 0.060156 -0.076681 0.019871 0.034506 -0.000529 0.008076 0.054559 0.145170 -0.102262 0.128592 -0.071893 0.052937 -0.021486 0.022315 0.061795 0.040023 -0.016896 -0.083980 -0.068051 -0.039849 0.068232 0.154527 0.060887 -0.007801 0.085214 -0.005923 -0.005441 -0.056877 0.057492 -0.121093 0.046792 -0.024387 -0.056807 0.070837 0.019680 -0.041943 0.100977 -0.109817 -0.000301 0.121943 0.104846 0.100324 0.097017 -0.013515 0.049214 0.002249 -0.013362 0.021208 -0.038664 -0.074284 0.010948 -0.070037 0.083568 -0.014246 0.001163 0.000296 -0.033270 -0.016796 -0.073690 0.005717 0.031464 0.037437 0.071321
7 -0.018396 -0.045213 -0.010934 -0.039042 0.004045 -0.033192 0.041811 0.072056 0.017983 0.003812 -0.008423 0.108349 0.035046 -0.008745 -0.014397 -0.096413 -0.026216 -0.017613 0.041526 0.070623 0.041465 -0.035664 0.070195 0.052145 0.043402 0.003196 -0.119325 -0.004100 -0.008213 0.011898 0.022537 -0.036895 -0.012872 -0.058925 -0.026064 -0.041042 0.076627 0.009845 0.004114 0.008513 -0.029044 0.065150 0.086867 -0.018566 -0.044042 0.101300 0.013361 -0.025264 -0.014189 -0.030304 -0.012475 -0.029023 0.033369 -0.033247 -0.014289 -0.041050 0.076504 0.003715 -0.114056 0.004538 -0.017387 -0.047904 0.011512 0.043626 -0.044948 0.043504 -0.055171 0.018616 0.023371 -0.001118 0.005699 0.041093 0.100812 -0.068629 0.091163 -0.047260 0.038142 -0.011164 0.018222 0.043463 0.030902 -0.009173 -0.058751 -0.044457 -0.028095 0.048426 0.104713 0.041352 -0.009046 0.062635 -0.002680 -0.003403 -0.038466 0.038872 -0.084317 0.034740 -0.011779 -0.041685 0.044467 0.012135 -0.028531 0.072736 -0.080101 0.001304 0.088087 0.071560 0.066999 0.068850 -0.004062 0.036439 0.005011 -0.005800 0.012061 -0.028633 -0.053517 0.004387 -0.052500 0.056076 -0.015806 0.003616 -0.000984 -0.021308 -0.009130 -0.048489 0.004455 0.018896 0.030363 0.050839
54 -0.029759 -0.057675 -0.006656 -0.043153 0.005596 -0.044623 0.048960 0.080347 0.018909 0.003330 -0.011520 0.126373 0.042842 -0.002622 -0.022695 -0.113649 -0.035192 -0.022116 0.054921 0.083160 0.047776 -0.040620 0.084952 0.062260 0.048365 0.004101 -0.139928 -0.003304 -0.009745 0.012881 0.023946 -0.042688 -0.012152 -0.068911 -0.024293 -0.048017 0.091211 0.017792 0.009732 0.012389 -0.030577 0.076147 0.100715 -0.024594 -0.051546 0.120419 0.011304 -0.030088 -0.018755 -0.035546 -0.016524 -0.038021 0.043647 -0.045222 -0.012483 -0.053837 0.090948 0.007731 -0.138080 0.000398 -0.023841 -0.056573 0.010782 0.048069 -0.053435 0.046657 -0.066580 0.014290 0.029779 0.007536 0.012018 0.045874 0.123649 -0.080289 0.107608 -0.055097 0.043201 -0.016102 0.020910 0.054119 0.036056 -0.014099 -0.069074 -0.061076 -0.031889 0.057050 0.127367 0.046985 -0.012019 0.073257 -0.003581 -0.003956 -0.051109 0.046846 -0.096794 0.040665 -0.020061 -0.047361 0.058514 0.010825 -0.031437 0.083088 -0.088010 0.002133 0.105150 0.086789 0.087069 0.083394 -0.011639 0.047060 0.000156 -0.012233 0.015676 -0.028373 -0.064133 0.002304 -0.059640 0.067099 -0.012707 0.000195 0.000733 -0.026291 -0.015217 -0.060288 0.008934 0.025018 0.034800 0.056027
41 -0.024374 -0.046568 -0.005628 -0.035446 0.009302 -0.033410 0.041268 0.065562 0.014884 0.000717 -0.005788 0.103545 0.029406 -0.001898 -0.014571 -0.087918 -0.025403 -0.015202 0.042768 0.069485 0.036685 -0.035677 0.064141 0.044958 0.039098 0.006491 -0.113375 -0.001072 -0.005782 0.010560 0.018001 -0.033926 -0.012750 -0.050963 -0.022864 -0.035594 0.075447 0.011737 0.001715 0.010422 -0.021722 0.059294 0.081796 -0.024088 -0.040913 0.096200 0.014025 -0.020582 -0.015379 -0.031547 -0.009129 -0.030989 0.029796 -0.038518 -0.007047 -0.042794 0.073979 0.008255 -0.110688 -0.002934 -0.017428 -0.044070 0.011034 0.041981 -0.040466 0.040960 -0.057385 0.012547 0.024010 0.003860 0.008312 0.033423 0.100417 -0.064743 0.083611 -0.048325 0.038834 -0.011904 0.016871 0.047380 0.030679 -0.013035 -0.056523 -0.045805 -0.021634 0.044429 0.100960 0.039588 -0.006743 0.056238 -0.007574 -0.003206 -0.038399 0.035687 -0.080473 0.032354 -0.015226 -0.032477 0.046258 0.013544 -0.028515 0.064952 -0.069696 0.000340 0.087963 0.072110 0.066338 0.063566 -0.009894 0.035476 0.002504 -0.010212 0.009527 -0.026747 -0.051615 0.002194 -0.052563 0.055120 -0.011085 -0.001389 -0.002525 -0.025841 -0.010861 -0.041502 0.004475 0.018695 0.027974 0.041155
14 -0.023218 -0.049287 -0.003501 -0.042852 0.007894 -0.035096 0.039750 0.071666 0.013312 0.007828 -0.011016 0.111773 0.034480 -0.004573 -0.017253 -0.097471 -0.026401 -0.017284 0.046406 0.071512 0.043537 -0.031568 0.071555 0.053164 0.040529 0.009199 -0.115049 0.000849 -0.009561 0.015992 0.022236 -0.039948 -0.011243 -0.054548 -0.021980 -0.043224 0.078962 0.013957 0.004162 0.011138 -0.030111 0.066494 0.088852 -0.019442 -0.044764 0.103218 0.013138 -0.022991 -0.016567 -0.028076 -0.012505 -0.032564 0.033360 -0.036546 -0.009900 -0.045404 0.074028 0.008935 -0.122686 -0.001442 -0.019539 -0.053305 0.014423 0.039380 -0.047548 0.044903 -0.055182 0.012967 0.023893 0.001652 0.003681 0.041764 0.104137 -0.068003 0.095077 -0.048271 0.040937 -0.013546 0.018517 0.044707 0.029546 -0.011916 -0.055948 -0.046760 -0.031332 0.055104 0.108366 0.041110 -0.005310 0.061574 -0.006568 -0.004181 -0.042395 0.040054 -0.087528 0.036846 -0.016442 -0.035149 0.051456 0.012300 -0.030276 0.073623 -0.078777 0.005099 0.088156 0.079536 0.074090 0.073099 -0.010778 0.036512 -0.000797 -0.012931 0.011788 -0.024887 -0.048836 0.003590 -0.056244 0.058699 -0.013913 0.001665 0.000875 -0.026693 -0.012936 -0.052908 0.009182 0.019506 0.025090 0.048611
10 -0.027730 -0.058864 -0.011321 -0.047746 0.010796 -0.042250 0.054560 0.091186 0.021238 0.002741 -0.006129 0.140272 0.041076 -0.003544 -0.023540 -0.121423 -0.033029 -0.019558 0.054530 0.092365 0.053785 -0.043445 0.090008 0.066187 0.049622 0.006412 -0.146760 -0.005084 -0.007747 0.014755 0.022599 -0.054651 -0.011782 -0.067436 -0.033579 -0.052691 0.103834 0.014329 0.004212 0.010950 -0.034208 0.079856 0.113006 -0.023009 -0.053526 0.130327 0.019108 -0.033690 -0.018856 -0.042904 -0.011954 -0.040075 0.045905 -0.047812 -0.016842 -0.052962 0.098774 0.004568 -0.153085 0.003035 -0.022813 -0.061847 0.009882 0.054324 -0.055409 0.054811 -0.074237 0.016765 0.025734 -0.001404 0.011664 0.046019 0.136230 -0.089751 0.119171 -0.060339 0.049929 -0.018133 0.019587 0.058447 0.034625 -0.018681 -0.073807 -0.059352 -0.036675 0.066559 0.135178 0.049112 -0.009142 0.075306 -0.004883 -0.003152 -0.049336 0.053402 -0.106586 0.043690 -0.020196 -0.052057 0.061309 0.017062 -0.035816 0.089926 -0.098221 0.003697 0.111795 0.094584 0.093310 0.091373 -0.012551 0.047263 0.008210 -0.015968 0.019783 -0.034316 -0.063697 0.006529 -0.064990 0.077849 -0.017443 -0.003228 0.001162 -0.033832 -0.015864 -0.063858 0.012173 0.025412 0.032566 0.061910
12 -0.029872 -0.057776 -0.008543 -0.048560 0.006021 -0.044125 0.046591 0.080887 0.014938 0.008925 -0.004314 0.132232 0.040008 -0.003054 -0.020108 -0.112708 -0.036092 -0.019235 0.055190 0.081839 0.049667 -0.037581 0.084705 0.056831 0.044672 0.005985 -0.135668 -0.001397 -0.006650 0.015212 0.025678 -0.045657 -0.015677 -0.065387 -0.026526 -0.045775 0.092644 0.019014 0.006503 0.014865 -0.030452 0.076522 0.103465 -0.026342 -0.053417 0.122215 0.015932 -0.030279 -0.023575 -0.038357 -0.013963 -0.035896 0.039375 -0.048175 -0.015967 -0.054720 0.090884 0.007048 -0.139456 0.001950 -0.019663 -0.056292 0.010328 0.051891 -0.055470 0.050005 -0.064776 0.017578 0.031478 0.006915 0.011970 0.047980 0.125143 -0.082323 0.107990 -0.058432 0.049549 -0.012116 0.022242 0.059175 0.035601 -0.013552 -0.071520 -0.059879 -0.035153 0.064039 0.127710 0.048146 -0.011426 0.069270 -0.007689 -0.001017 -0.050501 0.046106 -0.097477 0.035665 -0.014238 -0.048585 0.057695 0.013114 -0.035813 0.082386 -0.091001 0.003944 0.106773 0.085395 0.083732 0.080503 -0.004933 0.039742 0.000355 -0.011977 0.015896 -0.028198 -0.059844 0.008696 -0.063489 0.072721 -0.018480 -0.003156 -0.000446 -0.031222 -0.012499 -0.055847 0.007002 0.025090 0.027608 0.056480
15 -0.028273 -0.054558 -0.005981 -0.047377 0.008194 -0.037654 0.049063 0.078425 0.017135 0.004619 -0.006366 0.123650 0.040407 -0.003786 -0.018185 -0.112694 -0.034982 -0.021644 0.047951 0.079307 0.050118 -0.037781 0.080777 0.058134 0.043792 0.008061 -0.135227 -0.003139 -0.006304 0.012421 0.020494 -0.043631 -0.008495 -0.064691 -0.026678 -0.047227 0.088869 0.015563 0.009733 0.014137 -0.032226 0.073909 0.096629 -0.023805 -0.047583 0.118170 0.009916 -0.029021 -0.020030 -0.037773 -0.012406 -0.036618 0.038132 -0.041194 -0.014769 -0.052923 0.083086 0.002754 -0.133410 0.002921 -0.017601 -0.052760 0.013619 0.044766 -0.048856 0.051353 -0.063543 0.016495 0.030334 0.006495 0.009765 0.042028 0.121815 -0.084178 0.101286 -0.056844 0.046171 -0.014940 0.017405 0.050246 0.035509 -0.011586 -0.065516 -0.059125 -0.034575 0.055819 0.122417 0.043506 -0.008246 0.072107 -0.004983 -0.001327 -0.044258 0.043476 -0.099815 0.039310 -0.014493 -0.039671 0.055977 0.016347 -0.027930 0.082083 -0.090737 0.004711 0.104762 0.083130 0.081837 0.079130 -0.008643 0.037894 0.003805 -0.012238 0.014299 -0.032533 -0.061434 0.008755 -0.058060 0.071259 -0.017367 0.003073 0.003699 -0.031036 -0.010517 -0.054113 0.004423 0.024128 0.032399 0.056756
51 -0.017181 -0.036409 -0.007674 -0.029851 0.005084 -0.028663 0.032489 0.055190 0.012619 0.006806 -0.004354 0.088161 0.027171 -0.005434 -0.014522 -0.080045 -0.022648 -0.011024 0.033317 0.055189 0.032060 -0.029181 0.058883 0.038086 0.034545 0.006163 -0.093314 -0.003253 -0.001381 0.013880 0.015534 -0.030983 -0.006932 -0.043390 -0.019377 -0.032866 0.067999 0.011051 0.001240 0.011568 -0.020163 0.054641 0.066094 -0.019889 -0.035616 0.083738 0.012567 -0.021433 -0.011775 -0.025051 -0.009246 -0.027991 0.030444 -0.034900 -0.010516 -0.037352 0.064089 0.000483 -0.094060 0.000554 -0.012127 -0.040413 0.006412 0.037867 -0.035501 0.037394 -0.048382 0.014224 0.017860 0.002061 0.007170 0.029808 0.084615 -0.060468 0.074954 -0.041247 0.034496 -0.011364 0.012137 0.034311 0.026732 -0.010239 -0.046171 -0.044021 -0.020269 0.043001 0.087017 0.035468 -0.009862 0.048968 -0.008558 0.000815 -0.031340 0.033281 -0.071423 0.022380 -0.014805 -0.029973 0.036158 0.011245 -0.020725 0.061928 -0.062208 0.003826 0.072371 0.058162 0.060377 0.058778 -0.006321 0.028745 0.003788 -0.005987 0.007264 -0.019118 -0.039094 0.006239 -0.040685 0.049440 -0.011362 0.001473 0.002660 -0.022169 -0.011164 -0.042281 0.007839 0.020069 0.020417 0.037047
16 -0.022402 -0.044710 -0.006350 -0.038392 0.005797 -0.035790 0.043459 0.069600 0.014571 0.005759 -0.009274 0.109132 0.032425 -0.000679 -0.013714 -0.098782 -0.030488 -0.020868 0.040572 0.068210 0.039528 -0.032539 0.072144 0.047410 0.041502 0.006132 -0.114374 -0.002873 -0.007478 0.009242 0.017624 -0.037632 -0.010663 -0.059404 -0.021712 -0.038561 0.082080 0.010606 0.002973 0.007161 -0.028033 0.067233 0.087708 -0.021177 -0.041931 0.098016 0.013910 -0.022280 -0.020242 -0.026915 -0.007417 -0.030581 0.034502 -0.035464 -0.009364 -0.042825 0.075530 0.006037 -0.116397 -0.002600 -0.016682 -0.052136 0.009423 0.037663 -0.041918 0.040692 -0.056584 0.018144 0.021851 -0.000822 0.009655 0.034420 0.104613 -0.072333 0.093073 -0.050305 0.041638 -0.014920 0.015685 0.047487 0.033963 -0.014263 -0.056763 -0.049761 -0.025700 0.054633 0.107920 0.044122 -0.005690 0.061687 -0.009459 -0.002091 -0.045230 0.041370 -0.082173 0.034062 -0.011301 -0.039347 0.045471 0.007081 -0.022989 0.073495 -0.073006 0.000076 0.086984 0.072046 0.067868 0.067724 -0.004095 0.037486 0.001942 -0.005973 0.009507 -0.023752 -0.048958 0.006822 -0.052868 0.060575 -0.011928 -0.002380 0.000174 -0.022770 -0.013791 -0.050377 0.010008 0.022670 0.027071 0.050836
33 -0.011880 -0.026680 -0.003204 -0.017127 0.006650 -0.022265 0.020870 0.041024 0.009857 0.002221 -0.001699 0.056959 0.018478 -0.004683 -0.005742 -0.049184 -0.015495 -0.006266 0.020502 0.037480 0.024307 -0.018169 0.039588 0.023115 0.018602 0.003039 -0.063513 -0.001088 -0.001348 0.008547 0.010182 -0.017504 -0.005447 -0.026035 -0.015591 -0.024043 0.041007 0.006989 -0.000680 0.009299 -0.014951 0.035703 0.047121 -0.013743 -0.024672 0.054810 0.005124 -0.016185 -0.012079 -0.016755 -0.006773 -0.013354 0.020064 -0.021572 -0.009554 -0.021416 0.038198 0.003980 -0.059125 0.002665 -0.005989 -0.029514 0.003207 0.023554 -0.020409 0.019256 -0.026324 0.005678 0.014044 0.004038 0.007077 0.019710 0.056093 -0.035455 0.045270 -0.023274 0.021599 -0.007141 0.010653 0.024031 0.020091 -0.008257 -0.031891 -0.027846 -0.013803 0.029523 0.055734 0.021349 -0.004008 0.033456 0.000011 0.000950 -0.022463 0.019443 -0.040996 0.020238 -0.009850 -0.023129 0.028435 0.004673 -0.016942 0.035588 -0.042283 0.005243 0.048817 0.036584 0.038234 0.037174 -0.001313 0.017294 0.000723 -0.004513 0.007993 -0.016604 -0.025127 0.003189 -0.027434 0.027342 -0.009746 -0.003275 0.002288 -0.013120 -0.003722 -0.024294 0.005029 0.009511 0.011422 0.022531
