30 15
20 -0.004795 -0.012511 0.000086 0.007308 -0.024047 -0.030636 0.029460 0.015606 -0.024058 -0.013369 -0.019119 -0.022672 0.033216 -0.004145 -0.012296
16 -0.003939 0.011717 0.007445 0.000798 -0.008951 -0.002115 0.021150 -0.008275 0.001555 0.006199 -0.020116 0.014218 -0.015013 0.026675 0.026061
23 0.005988 0.024822 -0.031576 0.010350 -0.005245 0.023125 -0.008308 0.027336 0.014940 -0.013447 -0.013253 0.003203 0.006159 -0.024570 -0.024147
1 -0.033227 -0.032695 0.031404 -0.022960 0.014459 -0.032115 -0.005544 0.023316 0.026525 0.001830 -0.019899 -0.006144 0.018552 -0.013381 -0.016612
18 0.011362 0.002825 -0.027845 -0.009501 0.014603 -0.008494 -0.029660 0.016183 0.022434 0.033087 -0.006616 0.023433 0.026211 -0.002824 0.008386
15 -0.030905 -0.019857 0.023486 -0.026735 0.008113 0.031701 0.016352 -0.030205 0.001148 -0.011845 0.013006 -0.002243 0.001871 0.013150 0.014206
6 0.008613 -0.008680 0.007737 0.030377 0.003664 0.010713 0.016370 0.020736 -0.003944 0.003483 0.011221 -0.006581 -0.010467 -0.015171 0.018242
9 -0.010413 0.004288 -0.027868 -0.007956 0.000710 0.000334 -0.004305 0.016352 0.032065 -0.005049 0.006919 0.026733 0.003418 -0.030202 -0.009500
17 -0.003692 -0.007930 0.006963 0.021359 -0.032208 -0.022255 0.018748 0.017136 0.031304 0.027467 0.012461 0.033398 0.015614 0.019700 -0.017126
28 -0.028043 -0.022601 0.033377 0.002137 -0.000416 0.026320 0.003878 -0.008745 -0.022861 -0.002617 0.013014 0.023515 -0.003248 0.022766 -0.019359
29 -0.008247 -0.000851 -0.018866 -0.013253 0.014626 -0.018498 -0.001247 -0.027312 -0.000315 0.011185 0.014276 0.029798 -0.016726 -0.011468 0.000119
25 -0.023910 -0.011685 -0.019651 -0.011579 -0.029601 -0.008540 -0.017722 -0.024055 0.030863 -0.004532 -0.012384 -0.019387 0.000632 0.025745 -0.007206
2 0.025698 -0.004492 -0.005937 -0.009008 -0.009133 0.002150 0.013342 0.019536 -0.029557 -0.003993 -0.010419 0.017610 0.017448 -0.020695 -0.005583
7 0.030621 0.003153 -0.029348 -0.007819 -0.026270 0.022144 0.006532 0.008416 0.031039 -0.006906 -0.014987 0.005243 0.007169 -0.032758 0.023660
24 0.018897 0.013743 0.024932 0.030857 0.009475 -0.006858 -0.002924 0.006734 0.010320 0.012333 0.029053 -0.002572 0.023915 -0.026584 -0.002555
3 -0.029704 0.006765 0.030308 0.005522 0.009444 -0.002278 0.017828 -0.000247 -0.031376 -0.012174 0.014521 -0.024692 -0.032406 -0.032023 -0.014779
4 -0.001249 0.031778 0.000631 0.013906 0.020355 -0.022033 -0.029559 0.033164 0.004994 -0.018805 0.029563 0.008364 0.022825 -0.008651 -0.008721
8 0.004552 -0.029725 0.017686 0.007225 -0.021760 0.011714 0.016675 0.006564 -0.001637 0.024633 -0.014580 0.000386 -0.021108 0.000634 0.025898
21 -0.027181 0.030900 0.002596 -0.031081 -0.030286 -0.006287 -0.008874 -0.022458 0.004419 0.031845 0.003429 0.002755 0.005764 -0.028526 -0.003175
0 -0.006685 -0.017587 0.001567 -0.032118 -0.026163 0.019673 -0.013052 -0.009583 -0.007919 0.000910 0.027561 0.001419 0.005730 -0.000049 0.028430
14 -0.014329 -0.019582 0.032277 -0.026366 0.017299 0.011390 -0.018713 -0.011200 -0.017786 0.017462 -0.032432 0.014686 -0.012092 -0.002150 0.000999
19 0.028939 -0.016432 0.029174 -0.016903 -0.008485 0.008808 -0.008307 -0.020251 0.017312 0.002964 -0.027276 0.020327 -0.009613 0.008018 -0.011349
27 0.017971 -0.032545 -0.021907 -0.027296 0.005450 0.012653 0.013872 0.029227 -0.023090 0.007301 -0.016562 -0.014702 -0.010271 0.028199 -0.003930
22 0.021124 -0.016077 -0.006795 0.000781 -0.004765 -0.022415 -0.009056 -0.009445 -0.020382 -0.010022 -0.011680 0.009709 0.018109 -0.016839 0.019090
11 -0.027528 -0.021718 0.012597 0.010626 0.017345 -0.013257 -0.024198 0.028031 0.022627 -0.027003 -0.005492 0.007494 -0.018190 0.020161 0.031240
26 0.026682 0.018940 0.006952 -0.011084 0.014369 -0.018507 0.015472 -0.013280 -0.032710 -0.014422 -0.011584 -0.027946 0.028901 -0.024134 -0.010191
10 0.006668 -0.003494 -0.017006 0.007374 0.014379 0.031888 0.019224 -0.001503 0.028268 -0.023885 0.018270 0.020820 -0.021242 0.025750 -0.012733
13 0.022415 0.003034 0.011969 -0.023621 -0.010058 -0.005989 0.009903 -0.022113 0.008177 0.023466 -0.018497 -0.021261 0.014432 -0.027713 0.009883
12 -0.032092 -0.026913 0.003305 -0.023149 -0.017377 -0.012188 -0.021755 -0.030837 -0.020237 0.022073 0.031862 0.033466 -0.008195 0.016766 0.001874
5 0.004772 -0.029019 -0.033196 -0.000805 0.024790 -0.010242 0.029162 -0.028719 0.031229 -0.022485 0.025432 0.024833 -0.024085 0.008260 0.017945
