198 128
67 -0.056265 -0.100429 0.042479 -0.183525 0.109566 0.060378 -0.000731 0.168289 0.154654 -0.090359 -0.081700 0.090318 0.038959 -0.062008 -0.144211 -0.142358 -0.065540 0.196244 -0.117118 -0.111949 0.094507 0.065595 -0.072315 0.127502 -0.063374 -0.002687 -0.078578 0.002206 -0.014679 -0.112063 0.125635 0.064545 -0.140066 -0.150459 0.001651 0.059187 -0.085924 -0.100510 0.043463 0.083731 -0.191443 0.100176 0.088461 -0.148641 -0.111453 0.097979 0.105951 -0.011964 -0.076477 -0.138956 0.018908 0.043441 0.101885 0.179985 0.027680 -0.255860 -0.086939 0.000149 -0.155685 0.012113 0.010506 -0.181054 -0.236391 0.101199 -0.243496 0.070371 0.041155 0.007299 -0.011306 0.098402 0.118966 -0.021667 0.110924 -0.135705 -0.007075 -0.009654 0.238005 -0.100355 0.042391 -0.131431 0.174580 -0.207841 -0.119951 -0.021891 0.050151 0.252212 0.193725 -0.014805 0.016686 0.060313 0.079099 0.249858 -0.111284 0.027418 -0.164292 0.102512 0.051751 -0.318238 0.098302 0.019226 -0.147595 0.098777 -0.067581 -0.005051 0.152693 0.003210 0.184905 0.069903 0.169059 0.045779 0.040882 -0.067159 0.089105 -0.011701 -0.015035 0.043827 0.008961 0.131964 -0.047692 0.126678 0.094997 -0.012388 0.051362 0.089224 0.017131 -0.017772 -0.129698 0.112933
7 -0.071304 -0.362969 0.284098 -0.197333 0.022714 0.046111 -0.137058 0.151959 0.120174 -0.062425 -0.161774 -0.051273 0.040805 -0.253713 -0.050320 -0.227155 0.098496 0.128337 0.063510 -0.189306 0.314893 0.076902 -0.041719 0.211626 0.018594 -0.010983 0.054978 -0.029485 -0.165616 -0.113661 0.273849 0.039697 -0.085479 -0.352988 -0.050378 0.057973 -0.061301 -0.096875 0.004257 0.033384 -0.303088 0.063635 -0.015489 0.046027 0.045201 0.040410 0.005563 0.102062 -0.073602 -0.156975 0.009081 0.236033 -0.105518 0.354916 -0.165599 -0.275431 -0.233452 0.247869 -0.112027 0.090023 -0.154314 -0.200655 0.086628 0.222334 -0.209342 0.008394 -0.044009 0.021816 -0.087945 -0.061874 0.052658 -0.059829 -0.000918 -0.046196 0.057742 0.119221 0.145796 -0.020439 -0.057999 -0.206409 0.117361 0.033943 0.021811 0.034202 -0.088744 0.261909 -0.034255 -0.014031 0.004281 -0.120331 0.138518 0.222109 -0.055303 -0.085058 -0.060558 0.132934 0.175045 -0.357730 0.162487 -0.060985 -0.223313 -0.216682 0.041128 -0.023963 0.095142 0.041950 0.125065 0.069286 0.157026 -0.158869 -0.006459 0.121673 0.079051 -0.201955 0.068704 -0.107191 -0.049767 0.140479 -0.052600 0.083493 0.019659 0.219931 0.154781 -0.212303 -0.242795 0.091394 0.047430 0.131959
20 -0.096679 -0.343266 0.303231 -0.216729 -0.026245 0.036818 -0.159412 0.199455 0.156099 -0.059775 -0.183771 -0.021133 0.058661 -0.336230 -0.084811 -0.321602 0.105170 0.164994 0.092209 -0.209674 0.356156 0.063032 -0.005208 0.217553 0.064791 0.071217 0.145404 -0.011246 -0.151461 -0.113920 0.269916 0.080637 -0.098380 -0.370778 -0.106245 0.035117 -0.058276 -0.056519 -0.002168 0.034817 -0.354139 0.055516 -0.001719 0.091602 0.048186 0.050534 -0.017036 0.137397 -0.078018 -0.149924 0.032140 0.257430 -0.107593 0.351122 -0.151765 -0.283888 -0.271529 0.239417 -0.128457 0.094664 -0.174746 -0.259896 0.109090 0.239503 -0.217027 -0.040787 -0.014189 -0.004972 -0.118379 -0.037958 0.050051 -0.065281 0.019241 -0.066833 0.086712 0.149559 0.191267 -0.040849 -0.058292 -0.259834 0.093032 0.031264 0.012297 0.029440 -0.142272 0.307897 -0.063724 0.021253 -0.005644 -0.103903 0.194591 0.249780 -0.029701 -0.090742 -0.074781 0.115066 0.153692 -0.393758 0.182359 -0.053676 -0.253732 -0.224074 0.042922 0.004359 0.109295 0.034998 0.140028 0.078854 0.202221 -0.198515 0.002207 0.131877 0.071202 -0.232817 0.066488 -0.113042 -0.080958 0.225500 -0.089289 0.114580 0.004217 0.231220 0.158022 -0.239500 -0.258682 0.057994 0.016346 0.153811
23 -0.143946 -0.343278 0.326926 -0.227940 -0.031140 0.057497 -0.168463 0.246428 0.162693 -0.017783 -0.227023 0.023919 0.082255 -0.412886 -0.067217 -0.360497 0.124791 0.189180 0.117185 -0.220420 0.364306 0.075707 0.004103 0.202485 0.087650 0.087234 0.226874 -0.021117 -0.155945 -0.121488 0.284625 0.056922 -0.103232 -0.374409 -0.159706 0.033449 -0.023729 -0.015738 -0.055089 0.055058 -0.340099 0.102191 -0.048829 0.071961 0.059981 0.043990 -0.016833 0.194080 -0.083407 -0.128058 0.061602 0.241882 -0.141857 0.317315 -0.145645 -0.292928 -0.290332 0.240652 -0.111468 0.071429 -0.164786 -0.288101 0.174004 0.262874 -0.213385 -0.068555 -0.015776 -0.029200 -0.112216 -0.031236 0.041108 -0.073163 0.008442 -0.015946 0.101652 0.161258 0.138059 -0.003146 -0.034322 -0.282700 0.073535 0.060256 0.015006 0.053162 -0.151871 0.333674 -0.124429 0.061693 -0.018015 -0.088734 0.222983 0.209718 -0.013754 -0.097691 -0.061984 0.097313 0.096365 -0.411021 0.131689 -0.036715 -0.245849 -0.223211 0.104277 0.040142 0.109970 0.011112 0.134725 0.085895 0.206411 -0.212285 0.001398 0.157720 0.061468 -0.261038 0.068711 -0.110113 -0.109887 0.231426 -0.134463 0.128913 0.013525 0.286289 0.122123 -0.263587 -0.228793 0.004728 0.006344 0.172252
90 0.049001 -0.283659 0.201859 -0.148293 0.188468 0.032306 0.019391 0.190559 0.054312 -0.173643 -0.181977 -0.198205 0.029997 -0.216730 -0.198389 -0.118385 0.062740 0.156215 0.005255 -0.173010 0.201319 0.068570 -0.090019 0.233767 -0.166014 -0.062592 -0.188309 -0.079203 -0.187676 -0.184191 0.205567 0.050397 -0.167813 -0.356489 -0.063238 0.060308 -0.080942 -0.145856 0.042664 -0.133440 -0.264757 0.162080 0.042119 -0.015219 -0.016349 -0.001137 0.072495 0.068780 -0.005533 -0.173714 -0.059052 0.145172 -0.037660 0.317531 -0.059923 -0.403223 -0.118398 0.241328 -0.225842 0.113629 -0.093800 -0.220999 -0.092023 0.226231 -0.296807 0.080858 -0.126550 0.093288 -0.026727 -0.014968 0.132487 0.033624 0.147418 -0.147054 -0.061603 0.046896 0.239182 -0.140815 -0.084593 -0.102768 0.245035 -0.179823 -0.035118 0.074716 0.035857 0.216254 0.111893 -0.002813 0.122607 -0.116598 0.101886 0.207766 -0.070249 0.056722 -0.005712 0.170444 0.191195 -0.339724 0.160787 -0.036977 -0.205567 -0.065115 0.063130 -0.070105 0.128146 0.102955 0.106592 -0.038039 0.154764 -0.046378 0.001522 0.012017 0.118467 0.066351 0.006857 -0.033112 -0.077816 0.121588 0.078668 0.179636 0.108854 0.076508 0.056241 -0.045744 -0.152568 0.118971 -0.067992 0.123691
70 -0.077306 -0.198085 -0.097797 -0.286972 0.240595 0.052410 0.072715 0.273719 0.108128 0.143812 -0.112853 0.295075 0.048102 0.103611 0.002555 -0.126611 -0.079591 0.217538 -0.287431 0.062789 -0.175469 0.124257 -0.102286 0.097726 -0.067311 -0.116676 -0.120381 0.129610 0.113030 -0.115341 0.170968 0.036261 -0.110156 -0.036588 -0.015133 0.080869 0.009284 -0.007866 0.027830 0.265601 -0.059271 0.259129 0.234908 -0.516781 -0.300294 0.130395 0.201900 0.009875 -0.096350 -0.213861 -0.050141 0.026488 0.203644 0.069439 -0.015916 -0.326214 0.081064 -0.161254 -0.160923 -0.025491 0.099263 -0.326395 -0.533491 0.061167 -0.321422 0.197378 0.014719 0.055559 0.084271 0.287225 0.155830 0.000639 0.171831 -0.159776 0.095935 -0.123604 0.172855 -0.084048 -0.021621 -0.092531 0.377454 -0.327847 -0.255851 -0.206748 0.337647 0.296507 0.430700 -0.017412 -0.081846 0.331039 0.076749 0.263626 -0.338022 0.125817 -0.324514 0.287127 0.018197 -0.466523 0.024567 0.009753 -0.183395 0.023709 -0.308213 0.120919 0.293382 -0.004913 0.262523 0.210865 -0.020784 0.231957 0.111645 -0.084130 0.010510 -0.088436 0.082538 0.151362 0.051642 0.042313 -0.247051 0.061079 0.116113 -0.096013 0.068596 0.322563 0.215777 0.027642 -0.259573 0.073689
18 -0.082848 -0.346127 0.299186 -0.217431 -0.004190 0.045970 -0.170110 0.177205 0.164148 -0.094867 -0.157902 -0.035139 0.042949 -0.292650 -0.103363 -0.295621 0.091889 0.161469 0.075047 -0.210981 0.373823 0.067137 -0.019537 0.237720 0.042668 0.054197 0.090301 -0.015426 -0.159588 -0.108810 0.270651 0.092458 -0.102899 -0.365067 -0.054180 0.040544 -0.093431 -0.093185 0.028248 0.035670 -0.369070 0.037092 0.005739 0.099676 0.046249 0.067618 -0.013975 0.099008 -0.087063 -0.159733 0.028109 0.252417 -0.090057 0.392308 -0.147211 -0.287369 -0.279286 0.249378 -0.140207 0.090186 -0.179632 -0.237428 0.074109 0.226140 -0.227327 -0.021177 -0.009287 0.002309 -0.121095 -0.058491 0.060799 -0.075321 0.017202 -0.095326 0.071738 0.146179 0.233623 -0.047409 -0.053882 -0.260099 0.099167 0.015070 0.016264 0.031381 -0.145849 0.310281 -0.025350 -0.015111 0.003049 -0.125388 0.168414 0.273708 -0.036634 -0.097840 -0.093852 0.124763 0.174694 -0.383506 0.215514 -0.061762 -0.260257 -0.196292 0.035394 -0.037043 0.108496 0.045045 0.149419 0.067762 0.215966 -0.196161 -0.003401 0.102591 0.088789 -0.225317 0.061911 -0.118447 -0.067031 0.215272 -0.050086 0.111497 0.009187 0.203686 0.173387 -0.227323 -0.272771 0.063478 0.026161 0.149338
32 -0.022651 -0.195716 -0.139533 -0.293463 0.251737 -0.002443 0.136948 0.363846 0.042415 0.258444 -0.176688 0.280079 0.069152 0.026537 0.027593 -0.187291 -0.001316 0.211515 -0.274386 0.171915 -0.300787 0.093462 -0.077638 0.092955 -0.050970 -0.083389 -0.088908 0.188099 0.160245 -0.142865 0.159175 0.070254 -0.104652 -0.041653 -0.195337 0.025373 0.104064 0.120336 0.007712 0.209831 -0.016830 0.390667 0.301261 -0.578360 -0.349771 0.074617 0.170554 0.116933 -0.027851 -0.215918 -0.104154 0.043778 0.181372 -0.044170 -0.047016 -0.386901 0.166520 -0.207773 -0.175697 0.031967 0.085181 -0.478275 -0.560886 0.086259 -0.315165 0.175685 -0.056877 0.076208 0.116797 0.364903 0.167063 0.074856 0.283268 -0.175922 0.152266 -0.139925 0.131043 -0.136504 -0.108536 -0.049843 0.442436 -0.356854 -0.291402 -0.244606 0.398721 0.271436 0.439293 0.080552 -0.076057 0.434514 0.142427 0.208668 -0.367219 0.214660 -0.291349 0.336899 0.012660 -0.521654 0.003174 -0.029008 -0.189194 -0.068917 -0.356971 0.226883 0.347431 0.016775 0.239480 0.191274 -0.109972 0.254727 0.158573 -0.035639 -0.052399 -0.075754 0.132646 0.210634 -0.048024 0.065745 -0.327519 0.078567 0.088398 -0.110932 0.006583 0.383421 0.273100 0.045419 -0.328249 0.050675
13 -0.139662 -0.303706 0.282828 -0.232805 -0.079031 0.047070 -0.200893 0.181522 0.199849 -0.014069 -0.154522 0.072519 0.058455 -0.317660 -0.046409 -0.353399 0.082027 0.153731 0.077548 -0.193515 0.362962 0.062366 0.009049 0.192776 0.124489 0.102298 0.227269 0.025098 -0.106653 -0.074980 0.262428 0.089480 -0.075821 -0.324490 -0.091459 0.024479 -0.052341 -0.022209 -0.000601 0.116112 -0.346974 0.026119 0.002012 0.090641 0.036551 0.086479 -0.029526 0.128561 -0.110736 -0.119442 0.072569 0.258282 -0.088877 0.327477 -0.153832 -0.230713 -0.298006 0.186231 -0.083576 0.063230 -0.171453 -0.253997 0.108736 0.204398 -0.177709 -0.066344 0.038647 -0.040981 -0.126966 -0.029806 0.025323 -0.098992 -0.021102 -0.048494 0.123225 0.151115 0.173096 -0.001832 -0.031589 -0.292102 0.041396 0.063228 0.006124 -0.008483 -0.181856 0.316589 -0.072806 0.016890 -0.054566 -0.062243 0.197336 0.258009 -0.033596 -0.130030 -0.117459 0.086191 0.112913 -0.387190 0.164973 -0.038319 -0.237611 -0.207390 0.014288 0.021689 0.106327 -0.005038 0.163146 0.120040 0.206680 -0.213926 0.017542 0.134296 0.058191 -0.303642 0.070236 -0.116843 -0.067422 0.241834 -0.147288 0.079691 -0.023464 0.231568 0.175506 -0.237681 -0.242833 0.018942 0.029426 0.153919
80 0.033709 -0.509539 0.317302 -0.159839 0.211165 0.038269 -0.045012 0.153621 -0.003988 -0.154006 -0.169309 -0.273721 0.011823 -0.182617 -0.120623 -0.087952 0.126808 0.109897 0.050215 -0.206279 0.271425 0.098361 -0.098811 0.283315 -0.165980 -0.150058 -0.215274 -0.085211 -0.265493 -0.181357 0.289305 0.017572 -0.128590 -0.420133 0.021185 0.095076 -0.094800 -0.198757 0.051816 -0.111449 -0.287004 0.129160 0.018550 0.008744 0.041700 -0.008928 0.073222 0.066731 -0.018928 -0.234290 -0.111123 0.236090 -0.128130 0.444770 -0.178889 -0.422191 -0.167408 0.385696 -0.218566 0.121900 -0.146954 -0.173541 -0.008487 0.265666 -0.316538 0.111114 -0.169530 0.131608 -0.050804 -0.126473 0.122716 -0.009569 0.074390 -0.118919 -0.029626 0.076969 0.207424 -0.092241 -0.134328 -0.125560 0.290375 -0.073733 0.015719 0.088658 0.035550 0.247745 0.081677 -0.079524 0.117343 -0.222954 0.083184 0.223207 -0.111412 0.001177 -0.007576 0.237113 0.294997 -0.380863 0.231042 -0.114988 -0.265608 -0.245497 0.054256 -0.120040 0.116010 0.138564 0.106941 -0.020686 0.103489 -0.099548 -0.048849 0.061207 0.130786 -0.039763 0.070956 -0.097445 -0.048439 0.069250 0.121355 0.110178 0.081321 0.169454 0.148291 -0.145395 -0.283843 0.216292 0.045424 0.120590
62 -0.006616 -0.200462 -0.040788 -0.223091 0.254728 0.047391 0.082877 0.232538 0.069611 0.020522 -0.108457 0.118375 0.032531 0.069987 -0.069425 -0.055439 -0.056676 0.189967 -0.233334 0.006130 -0.101911 0.109776 -0.119852 0.140143 -0.144507 -0.136206 -0.222025 0.056133 0.024391 -0.139090 0.153282 0.030605 -0.129477 -0.108777 0.003831 0.083203 -0.031326 -0.077605 0.051647 0.127308 -0.097599 0.237427 0.187011 -0.395068 -0.231524 0.087271 0.180174 -0.004868 -0.055302 -0.207481 -0.078161 0.036030 0.149691 0.133291 -0.006684 -0.359459 0.053278 -0.056593 -0.184541 0.017842 0.064464 -0.268206 -0.448034 0.085959 -0.317376 0.195733 -0.037308 0.088255 0.071956 0.196825 0.155218 0.021840 0.183547 -0.166693 0.018953 -0.095246 0.199855 -0.118792 -0.039286 -0.051746 0.370187 -0.319660 -0.198692 -0.129751 0.280080 0.244534 0.383004 -0.031592 0.001821 0.192604 0.054584 0.232582 -0.276429 0.125033 -0.228205 0.259907 0.089248 -0.404589 0.067655 0.003302 -0.171911 0.035422 -0.209795 0.041461 0.242168 0.039663 0.215656 0.114051 0.019557 0.197108 0.074867 -0.084593 0.056869 0.014454 0.055620 0.114187 0.024732 0.029686 -0.107967 0.085607 0.130859 -0.084286 0.045001 0.258924 0.135819 0.074196 -0.205655 0.069008
66 -0.084463 -0.186278 -0.119986 -0.313144 0.233789 0.033337 0.095292 0.327825 0.108796 0.204691 -0.144177 0.333594 0.067102 0.072779 0.021905 -0.174637 -0.066558 0.237512 -0.299600 0.107041 -0.229001 0.124228 -0.092205 0.099380 -0.045604 -0.103660 -0.083739 0.162794 0.146337 -0.134411 0.181395 0.045896 -0.114233 -0.035381 -0.091125 0.067539 0.049938 0.047121 0.015430 0.286663 -0.049912 0.322591 0.272035 -0.576162 -0.333639 0.124384 0.200102 0.050057 -0.089440 -0.214707 -0.056691 0.029506 0.213344 0.017208 -0.018396 -0.364548 0.104860 -0.206478 -0.169101 -0.013666 0.104650 -0.408639 -0.560336 0.069659 -0.327543 0.180211 0.001894 0.055049 0.103074 0.346951 0.167674 0.012444 0.209609 -0.160003 0.128304 -0.143823 0.162264 -0.097359 -0.043014 -0.090305 0.404050 -0.352119 -0.289330 -0.246078 0.367322 0.310024 0.446961 0.033692 -0.100336 0.408114 0.106303 0.261803 -0.367129 0.160005 -0.341983 0.310712 -0.005490 -0.513914 0.004773 0.010556 -0.176739 0.010861 -0.341320 0.178635 0.327029 -0.011620 0.271746 0.227035 -0.039063 0.256354 0.144455 -0.069572 -0.010426 -0.107779 0.101839 0.188531 0.030028 0.063285 -0.316465 0.065820 0.109925 -0.097476 0.043282 0.365481 0.258605 0.017074 -0.297894 0.074993
117 0.093599 -0.406461 0.269346 -0.153494 0.254473 0.027821 0.024438 0.190160 0.014683 -0.242969 -0.207870 -0.326200 0.015885 -0.224722 -0.218513 -0.080981 0.094895 0.161277 0.027069 -0.222679 0.241133 0.087745 -0.130581 0.293012 -0.245670 -0.133737 -0.304235 -0.119432 -0.266931 -0.228348 0.250006 0.050977 -0.193142 -0.451259 -0.039944 0.079497 -0.120493 -0.217506 0.070220 -0.208417 -0.310872 0.170281 0.041456 0.011254 0.015523 -0.027771 0.083533 0.063232 0.008741 -0.241416 -0.115885 0.193073 -0.079520 0.438103 -0.095773 -0.494077 -0.131598 0.353828 -0.280589 0.142716 -0.133413 -0.214505 -0.084997 0.271675 -0.358247 0.129896 -0.194830 0.145632 -0.020148 -0.068892 0.162099 0.050004 0.167325 -0.185635 -0.097371 0.056214 0.279168 -0.185895 -0.128095 -0.102973 0.324829 -0.191432 -0.019875 0.119114 0.054706 0.232531 0.141664 -0.044756 0.180661 -0.208901 0.100455 0.230715 -0.090603 0.064499 0.019161 0.223494 0.294794 -0.391147 0.239255 -0.086606 -0.259066 -0.131210 0.081575 -0.127500 0.130070 0.151995 0.108550 -0.071351 0.159387 -0.063885 -0.027619 0.022264 0.148140 0.112078 0.019881 -0.048008 -0.087636 0.110463 0.163285 0.198705 0.140284 0.097019 0.081683 -0.077135 -0.238445 0.209022 -0.038084 0.135261
19 -0.151300 -0.361605 0.286782 -0.254859 -0.076975 0.050087 -0.225322 0.157529 0.201006 0.009614 -0.130348 0.112800 0.045831 -0.256783 -0.007801 -0.339890 0.080433 0.143511 0.063071 -0.168075 0.359903 0.073074 0.009148 0.195147 0.150831 0.072270 0.215731 0.052200 -0.104310 -0.065414 0.289058 0.079247 -0.045141 -0.307510 -0.042312 0.043788 -0.070270 -0.035615 0.014311 0.177688 -0.341040 0.002613 0.019301 0.049939 0.028167 0.102176 -0.016595 0.101387 -0.125386 -0.140669 0.062033 0.273609 -0.078185 0.344336 -0.184621 -0.206357 -0.298445 0.197767 -0.063163 0.062249 -0.175094 -0.238184 0.083642 0.193084 -0.182707 -0.048190 0.058203 -0.036213 -0.140045 -0.034061 0.024076 -0.124258 -0.047449 -0.041070 0.148915 0.149109 0.170283 0.029895 -0.035934 -0.297325 0.057845 0.089923 0.006160 -0.041572 -0.157330 0.331365 -0.046157 -0.014658 -0.091777 -0.058267 0.175002 0.294257 -0.065837 -0.145744 -0.166020 0.118974 0.127232 -0.396498 0.180738 -0.058705 -0.247687 -0.248221 -0.038821 0.011631 0.116737 0.000999 0.176046 0.156276 0.176991 -0.204232 0.008573 0.132962 0.057279 -0.366113 0.097123 -0.122361 -0.024190 0.212805 -0.168980 0.041425 -0.045477 0.235710 0.220282 -0.242953 -0.250802 0.037626 0.047875 0.139550
35 -0.063458 -0.205649 -0.092890 -0.291213 0.255679 0.049235 0.090170 0.280912 0.102683 0.118707 -0.123044 0.259055 0.045466 0.094962 -0.020787 -0.128304 -0.074633 0.232213 -0.290679 0.060431 -0.169317 0.126051 -0.117458 0.127942 -0.093256 -0.131858 -0.164810 0.124745 0.093762 -0.142071 0.181906 0.043666 -0.126234 -0.068252 -0.022098 0.086233 -0.003678 -0.029862 0.045169 0.231626 -0.085584 0.281322 0.254358 -0.524016 -0.302728 0.117883 0.205949 0.007577 -0.087274 -0.231924 -0.066893 0.029057 0.203898 0.089201 -0.013832 -0.379648 0.083147 -0.146012 -0.188436 -0.008489 0.089279 -0.350098 -0.551681 0.077424 -0.349149 0.200120 -0.009694 0.078681 0.086896 0.289455 0.173224 0.011691 0.199897 -0.179341 0.084486 -0.131931 0.200924 -0.106814 -0.038982 -0.083007 0.406308 -0.361221 -0.261212 -0.209912 0.349646 0.307021 0.459751 -0.013116 -0.068600 0.326986 0.077776 0.278935 -0.349979 0.138559 -0.324182 0.299478 0.039536 -0.489767 0.044358 0.011468 -0.185599 0.025765 -0.311712 0.106907 0.307504 0.008508 0.266774 0.200544 -0.004631 0.241450 0.121090 -0.095300 0.025926 -0.061135 0.075277 0.162707 0.047929 0.049253 -0.228839 0.076842 0.128919 -0.099259 0.063659 0.335075 0.210343 0.049484 -0.268221 0.084224
74 -0.036494 -0.441827 0.245847 -0.187510 0.119021 0.046150 -0.111892 0.082383 0.066260 -0.110315 -0.084055 -0.105906 -0.015722 -0.061895 -0.040735 -0.103151 0.066880 0.093378 0.003247 -0.170029 0.252205 0.099899 -0.086630 0.228100 -0.073322 -0.125976 -0.134259 -0.019182 -0.177283 -0.107051 0.268639 0.021213 -0.074536 -0.300987 0.110290 0.096600 -0.125800 -0.195996 0.070349 0.035290 -0.270258 0.022707 0.059114 -0.005145 0.021238 0.047466 0.059068 -0.005160 -0.075869 -0.217654 -0.066732 0.222432 -0.053419 0.423950 -0.178043 -0.290687 -0.175455 0.295339 -0.143637 0.072724 -0.132346 -0.110770 -0.056814 0.172265 -0.261348 0.103026 -0.064810 0.089317 -0.071123 -0.093208 0.083009 -0.068980 0.000297 -0.108384 0.026787 0.069013 0.198298 -0.039769 -0.080694 -0.155140 0.215679 -0.034020 0.000346 0.008340 0.011922 0.241288 0.111183 -0.125212 0.018043 -0.153674 0.049607 0.263771 -0.137594 -0.072971 -0.111918 0.205009 0.251347 -0.330407 0.226969 -0.095894 -0.240168 -0.228739 -0.050644 -0.121442 0.105329 0.090504 0.134279 0.071034 0.087821 -0.094183 -0.035522 0.034338 0.111252 -0.145080 0.074502 -0.102188 0.029350 0.061704 0.051575 0.023355 0.033408 0.137812 0.217596 -0.124672 -0.250494 0.183885 0.059206 0.104535
101 -0.096497 -0.318583 0.301850 -0.211657 0.012715 0.055111 -0.135555 0.229096 0.148482 -0.078914 -0.220976 -0.031609 0.082708 -0.384970 -0.115783 -0.325910 0.114111 0.205366 0.105487 -0.222327 0.354433 0.069840 -0.023128 0.209893 0.023638 0.070306 0.140365 -0.043153 -0.166844 -0.145353 0.265452 0.069179 -0.133448 -0.387599 -0.152427 0.043593 -0.054555 -0.046710 -0.025800 -0.006896 -0.345575 0.115583 -0.035015 0.072236 0.050096 0.035579 -0.010722 0.166876 -0.060461 -0.139595 0.046383 0.226216 -0.114589 0.332710 -0.113390 -0.323930 -0.259602 0.250637 -0.140391 0.094103 -0.164605 -0.273242 0.117512 0.251333 -0.232545 -0.043697 -0.048610 -0.013216 -0.094161 -0.027654 0.067968 -0.044184 0.045550 -0.054367 0.059759 0.148555 0.174840 -0.051530 -0.038882 -0.255931 0.100492 -0.000329 -0.001339 0.075746 -0.129098 0.307135 -0.074799 0.056566 0.023232 -0.104576 0.214542 0.216161 -0.012477 -0.068673 -0.041399 0.100190 0.123088 -0.408391 0.148357 -0.038559 -0.247243 -0.179691 0.111885 0.018353 0.117798 0.028329 0.127420 0.056798 0.218191 -0.194253 -0.012047 0.130897 0.077870 -0.178004 0.050888 -0.090339 -0.112466 0.222247 -0.079091 0.159618 0.038200 0.241682 0.104887 -0.230838 -0.222989 0.027929 -0.012422 0.167971
42 -0.103191 -0.183545 -0.129936 -0.330889 0.249638 0.039090 0.094647 0.349976 0.126337 0.227094 -0.149406 0.372813 0.065547 0.075729 0.034496 -0.189969 -0.075677 0.244453 -0.323334 0.110029 -0.241622 0.129255 -0.090913 0.098988 -0.036646 -0.104071 -0.073243 0.176367 0.160056 -0.130034 0.186480 0.047765 -0.113275 -0.031892 -0.092430 0.065278 0.054606 0.055162 0.011401 0.309941 -0.047944 0.339921 0.279923 -0.610636 -0.354988 0.134495 0.215548 0.057608 -0.096280 -0.220345 -0.046593 0.023285 0.224016 0.009983 -0.019038 -0.375327 0.115865 -0.230608 -0.171957 -0.027747 0.114783 -0.431223 -0.596298 0.073935 -0.343187 0.199981 0.012324 0.056381 0.104832 0.373376 0.167863 0.015619 0.216187 -0.158957 0.146191 -0.147095 0.157733 -0.087507 -0.045569 -0.100000 0.421801 -0.367281 -0.306471 -0.274257 0.389630 0.332558 0.477830 0.031035 -0.120338 0.445211 0.114983 0.273449 -0.388814 0.159554 -0.372518 0.328007 -0.016685 -0.549614 -0.008732 0.023611 -0.189487 0.007242 -0.364539 0.192132 0.350224 -0.020190 0.301426 0.259652 -0.046345 0.271238 0.160467 -0.066696 -0.014187 -0.120992 0.102972 0.195163 0.027493 0.064517 -0.349976 0.065185 0.117148 -0.102997 0.041362 0.384211 0.285708 0.012663 -0.324590 0.082165
60 -0.088514 -0.181218 -0.112641 -0.313459 0.247099 0.042938 0.097774 0.355800 0.122930 0.216464 -0.170934 0.340753 0.064718 0.044066 0.027439 -0.187423 -0.064509 0.230909 -0.320466 0.096786 -0.240556 0.129784 -0.089474 0.109369 -0.051094 -0.095997 -0.061261 0.159442 0.150464 -0.138181 0.187098 0.043303 -0.109556 -0.053775 -0.111852 0.059519 0.059909 0.065598 0.014827 0.281669 -0.058732 0.345421 0.273730 -0.589853 -0.350595 0.124472 0.203829 0.068125 -0.084792 -0.204688 -0.045040 0.037384 0.206341 0.009493 -0.013922 -0.395541 0.108206 -0.220874 -0.171923 -0.015739 0.109092 -0.451925 -0.571145 0.087339 -0.346286 0.195701 0.002874 0.071137 0.099415 0.368573 0.157590 0.024765 0.207787 -0.150138 0.136845 -0.142506 0.151526 -0.086825 -0.056323 -0.098643 0.418528 -0.363561 -0.288390 -0.278331 0.379892 0.317792 0.448175 0.039392 -0.110045 0.426349 0.124126 0.255516 -0.371226 0.166941 -0.340678 0.327616 -0.005843 -0.539354 -0.016606 0.040283 -0.187045 0.001310 -0.335176 0.188934 0.336490 -0.013929 0.281344 0.247288 -0.033885 0.254355 0.160688 -0.051328 -0.020085 -0.108664 0.106539 0.182790 0.016752 0.071646 -0.342697 0.071275 0.114388 -0.098001 0.037941 0.368151 0.275438 0.025907 -0.327407 0.085384
33 -0.044818 -0.225377 -0.102182 -0.290168 0.272162 0.023203 0.108466 0.335392 0.068991 0.189676 -0.146437 0.267804 0.059666 0.055896 0.006132 -0.147718 -0.035624 0.224613 -0.280892 0.111783 -0.223301 0.113566 -0.091114 0.109404 -0.072212 -0.118446 -0.140048 0.156195 0.117721 -0.141110 0.174026 0.050606 -0.112347 -0.053715 -0.102037 0.059106 0.044841 0.039053 0.013367 0.226021 -0.040556 0.344092 0.274220 -0.561472 -0.328762 0.099318 0.194702 0.059250 -0.049242 -0.227937 -0.095708 0.033008 0.195283 0.025273 -0.041385 -0.379658 0.126153 -0.150322 -0.174382 0.015941 0.098061 -0.403607 -0.560273 0.078330 -0.332901 0.195007 -0.029330 0.077895 0.099561 0.323144 0.172033 0.035666 0.243752 -0.168362 0.126203 -0.124874 0.154213 -0.111223 -0.067685 -0.061411 0.442839 -0.350056 -0.278914 -0.218319 0.383962 0.294320 0.444491 0.024508 -0.076601 0.372820 0.107209 0.241436 -0.361336 0.175028 -0.304877 0.325096 0.024312 -0.507840 0.025553 -0.009108 -0.197837 -0.032425 -0.322311 0.171607 0.325372 0.017855 0.250179 0.191089 -0.069136 0.249679 0.131506 -0.066725 -0.010300 -0.072530 0.100998 0.174976 -0.003411 0.038894 -0.272757 0.063977 0.108915 -0.090661 0.046920 0.351930 0.248241 0.049681 -0.293746 0.064972
109 0.029861 -0.402668 0.203494 -0.159859 0.238265 0.036423 -0.002849 0.141797 0.010919 -0.126792 -0.123240 -0.183661 0.004717 -0.072231 -0.114474 -0.038507 0.056648 0.117936 -0.047627 -0.146058 0.156311 0.106878 -0.111155 0.242206 -0.185512 -0.167947 -0.253864 -0.059164 -0.192862 -0.163967 0.240512 0.008794 -0.125133 -0.319515 0.057816 0.096572 -0.099740 -0.199065 0.072588 -0.055917 -0.224033 0.143641 0.078160 -0.102332 -0.032826 0.014305 0.111941 0.013880 -0.027643 -0.224304 -0.106027 0.166459 -0.032893 0.367797 -0.117556 -0.397174 -0.094285 0.272025 -0.206338 0.085086 -0.077874 -0.160092 -0.149876 0.193367 -0.315834 0.148687 -0.128592 0.135994 -0.008238 -0.048086 0.124568 -0.006976 0.090307 -0.134721 -0.041450 0.016984 0.216213 -0.094876 -0.097473 -0.084309 0.315538 -0.151477 -0.038361 0.030823 0.111258 0.231434 0.182340 -0.095316 0.093577 -0.122773 0.043285 0.223961 -0.160687 0.031382 -0.061728 0.241799 0.244831 -0.357900 0.189065 -0.074251 -0.223848 -0.139747 -0.021335 -0.105415 0.136754 0.109236 0.134751 0.010344 0.081456 -0.004284 -0.022193 -0.005221 0.123835 0.006777 0.049820 -0.035523 -0.006741 0.043660 0.097603 0.097052 0.107035 0.079748 0.124177 -0.018377 -0.163285 0.193119 -0.016557 0.105620
133 -0.277029 -0.422805 0.330691 -0.287787 -0.076357 0.071524 -0.240678 0.270942 0.190017 0.142111 -0.209380 0.217817 0.080890 -0.371886 0.083966 -0.420489 0.124406 0.176636 0.089721 -0.190559 0.337664 0.116034 0.044290 0.150192 0.202790 0.084588 0.391133 0.057875 -0.090008 -0.081349 0.320430 0.011817 -0.033245 -0.305879 -0.130986 0.051382 0.022401 0.058719 -0.105572 0.254771 -0.283228 0.102929 -0.033178 -0.039273 0.021568 0.080687 0.001639 0.214048 -0.142606 -0.131696 0.092369 0.255732 -0.147021 0.284829 -0.202001 -0.224807 -0.296534 0.193184 -0.035838 0.007702 -0.138723 -0.302018 0.182833 0.239688 -0.206308 -0.072791 0.039041 -0.070459 -0.116995 0.006744 -0.013034 -0.139374 -0.084163 0.066138 0.221301 0.157981 0.030252 0.118720 -0.016681 -0.346974 0.054310 0.155603 -0.007667 -0.036054 -0.122097 0.393578 -0.137310 0.049449 -0.135960 0.020244 0.221396 0.206590 -0.077720 -0.167775 -0.164845 0.123833 0.019596 -0.450484 0.065339 -0.033224 -0.240147 -0.320944 0.031148 0.112310 0.131461 -0.034288 0.171411 0.211606 0.132895 -0.209606 0.018056 0.194288 0.017483 -0.448405 0.126601 -0.125728 -0.059451 0.214316 -0.283934 0.027831 -0.030347 0.342184 0.184281 -0.271347 -0.176480 -0.016198 0.018202 0.177335
93 -0.014373 -0.466266 0.238894 -0.175882 0.173200 0.036443 -0.072864 0.097357 0.026784 -0.087783 -0.094001 -0.131449 -0.022313 -0.046248 -0.034289 -0.068149 0.072010 0.084675 -0.015263 -0.136453 0.209763 0.110145 -0.092904 0.224811 -0.097269 -0.179853 -0.188958 -0.015384 -0.186049 -0.126195 0.265658 -0.009679 -0.063410 -0.284191 0.109154 0.106002 -0.113737 -0.198358 0.065116 0.004033 -0.218537 0.057296 0.080500 -0.059092 0.001447 0.024841 0.078920 -0.001424 -0.044379 -0.227421 -0.102197 0.197423 -0.038304 0.410127 -0.180610 -0.329376 -0.125333 0.324653 -0.150215 0.074377 -0.104741 -0.104016 -0.108824 0.163680 -0.280909 0.141692 -0.107762 0.132490 -0.051611 -0.077505 0.081584 -0.058108 0.015690 -0.105797 0.025745 0.055091 0.172074 -0.032120 -0.105953 -0.120877 0.267234 -0.059828 -0.005856 -0.000049 0.077382 0.231698 0.151572 -0.134256 0.022286 -0.145099 0.030062 0.234197 -0.161783 -0.031617 -0.096746 0.230732 0.241920 -0.318155 0.199622 -0.089711 -0.235372 -0.239945 -0.058880 -0.121621 0.100610 0.115463 0.119755 0.052706 0.037524 -0.054759 -0.034846 0.018635 0.097075 -0.100512 0.067981 -0.091279 0.037727 0.025894 0.073697 0.013297 0.044560 0.131270 0.218462 -0.092362 -0.214233 0.212739 0.043000 0.100546
111 0.055091 -0.511394 0.255472 -0.169717 0.258074 0.034156 -0.031146 0.123471 -0.023854 -0.132080 -0.113466 -0.240663 -0.018934 -0.056646 -0.097108 -0.026208 0.094196 0.084924 -0.020146 -0.153488 0.192396 0.113172 -0.117666 0.275261 -0.184834 -0.207767 -0.295900 -0.045192 -0.231693 -0.164522 0.274011 0.005338 -0.101455 -0.346588 0.100813 0.105039 -0.109141 -0.217927 0.089883 -0.072639 -0.231962 0.123807 0.080243 -0.071250 -0.006009 0.006659 0.103426 0.008711 -0.022910 -0.250160 -0.152972 0.206857 -0.062995 0.426002 -0.176085 -0.406514 -0.106192 0.351591 -0.212414 0.101745 -0.108154 -0.139275 -0.141657 0.207556 -0.329663 0.166296 -0.155466 0.164643 -0.032307 -0.093553 0.124955 -0.015848 0.073150 -0.147260 -0.026114 0.033465 0.223077 -0.083298 -0.141303 -0.087505 0.341490 -0.119032 -0.014521 0.037252 0.112316 0.237634 0.181753 -0.137796 0.090105 -0.175447 0.026126 0.239962 -0.179421 0.016375 -0.062585 0.283739 0.298687 -0.356532 0.229006 -0.120585 -0.249332 -0.234304 -0.040091 -0.141801 0.134263 0.148040 0.118415 -0.006361 0.049538 -0.030909 -0.036529 0.010201 0.127060 -0.029739 0.075088 -0.076610 -0.004902 0.019315 0.129305 0.067004 0.082340 0.106717 0.178513 -0.059873 -0.230649 0.243718 0.031027 0.096705
12 -0.141927 -0.372523 0.300711 -0.254929 -0.060107 0.044489 -0.212861 0.179623 0.186897 -0.021565 -0.143595 0.063338 0.047791 -0.289755 -0.043116 -0.346138 0.091759 0.159799 0.078469 -0.197398 0.375384 0.074088 0.005694 0.213944 0.116443 0.073020 0.188018 0.034514 -0.124415 -0.082863 0.291266 0.096010 -0.078977 -0.336625 -0.062868 0.041647 -0.074173 -0.048228 0.013978 0.127246 -0.363420 0.016041 0.028926 0.078167 0.033001 0.093501 -0.019180 0.112750 -0.117155 -0.157980 0.045053 0.281299 -0.090895 0.367007 -0.181823 -0.253352 -0.296235 0.223906 -0.101596 0.079110 -0.183291 -0.253292 0.082073 0.217461 -0.214054 -0.041157 0.033889 -0.024738 -0.131432 -0.031304 0.048429 -0.102562 -0.014018 -0.068950 0.131589 0.153242 0.205518 -0.006714 -0.048793 -0.294742 0.078401 0.062874 0.000802 -0.011942 -0.160183 0.337397 -0.042781 -0.011663 -0.055457 -0.084609 0.186884 0.297070 -0.060521 -0.131508 -0.142127 0.122641 0.151032 -0.415475 0.206673 -0.061915 -0.273964 -0.251680 -0.012871 0.005016 0.119255 0.013341 0.173032 0.129578 0.200571 -0.212217 0.006512 0.124804 0.062820 -0.318792 0.087718 -0.119315 -0.053415 0.237194 -0.137489 0.070282 -0.028136 0.228457 0.212156 -0.234738 -0.270314 0.049929 0.034218 0.151025
15 -0.195417 -0.333339 0.282110 -0.272444 -0.094848 0.065259 -0.232469 0.186717 0.221240 0.024125 -0.143397 0.160022 0.060090 -0.296543 -0.005280 -0.387781 0.077899 0.173462 0.063406 -0.189931 0.370333 0.081563 0.021652 0.180472 0.169970 0.107764 0.280075 0.054396 -0.086111 -0.069327 0.285706 0.086826 -0.055978 -0.299205 -0.070601 0.039662 -0.057970 -0.012009 -0.010451 0.200173 -0.349183 0.015454 0.011792 0.044299 0.027675 0.113567 -0.024190 0.127568 -0.140102 -0.133156 0.085001 0.264112 -0.077535 0.329492 -0.169733 -0.212208 -0.311607 0.165098 -0.064097 0.051371 -0.167450 -0.260157 0.098221 0.194122 -0.188486 -0.062713 0.072884 -0.061557 -0.135245 -0.002066 0.023777 -0.128825 -0.050115 -0.037616 0.159129 0.157354 0.168412 0.031640 -0.017314 -0.328598 0.037740 0.093024 -0.007980 -0.036686 -0.172572 0.360472 -0.068150 0.003882 -0.101195 -0.023641 0.199356 0.289877 -0.055095 -0.162966 -0.176052 0.104257 0.090599 -0.410013 0.160249 -0.042578 -0.246865 -0.233707 -0.025559 0.043119 0.130944 -0.024877 0.188730 0.171226 0.202239 -0.214290 0.020072 0.137624 0.044436 -0.388029 0.090600 -0.110384 -0.037980 0.243860 -0.207005 0.061592 -0.034642 0.246700 0.210598 -0.238011 -0.233063 -0.003913 0.026553 0.160792
14 -0.204540 -0.396683 0.324101 -0.287395 -0.102698 0.059831 -0.263649 0.199679 0.218720 0.042822 -0.158539 0.156937 0.057973 -0.321636 0.013089 -0.409348 0.107590 0.168835 0.088933 -0.196266 0.400914 0.087228 0.029051 0.199687 0.192389 0.106920 0.306959 0.067187 -0.106509 -0.059942 0.317292 0.085751 -0.052814 -0.324846 -0.073331 0.039182 -0.051959 -0.009875 -0.017849 0.209666 -0.370811 0.011629 0.012396 0.063384 0.035953 0.109238 -0.028155 0.146930 -0.143891 -0.142226 0.080864 0.300945 -0.106387 0.365042 -0.205722 -0.218820 -0.334847 0.212506 -0.066901 0.051647 -0.194557 -0.279332 0.130549 0.216147 -0.198970 -0.070963 0.066735 -0.059735 -0.154605 -0.029409 0.014907 -0.136846 -0.066428 -0.023334 0.190250 0.176796 0.163095 0.042401 -0.032063 -0.350115 0.041412 0.123797 0.008554 -0.031197 -0.185351 0.381832 -0.090742 0.001032 -0.105753 -0.047823 0.212070 0.298447 -0.066081 -0.173864 -0.180206 0.123956 0.108888 -0.439164 0.183450 -0.060749 -0.281813 -0.293722 -0.026468 0.044531 0.127647 -0.009053 0.194544 0.188244 0.191398 -0.240352 0.011950 0.160894 0.043384 -0.427204 0.115608 -0.138119 -0.047723 0.247429 -0.215896 0.047017 -0.052085 0.282075 0.236806 -0.282916 -0.265536 0.015300 0.045078 0.163791
89 0.047313 -0.267489 0.227974 -0.143151 0.161025 0.029395 0.015849 0.212897 0.051891 -0.167749 -0.208602 -0.209365 0.043756 -0.288038 -0.202590 -0.160064 0.084149 0.165135 0.043945 -0.182906 0.216709 0.055024 -0.077697 0.234102 -0.154379 -0.029698 -0.138929 -0.097112 -0.194430 -0.190923 0.202450 0.060313 -0.175745 -0.385234 -0.124938 0.038689 -0.062048 -0.118530 0.024746 -0.167816 -0.272752 0.175463 0.005566 0.015009 0.008429 -0.025473 0.045800 0.108642 0.007034 -0.162610 -0.047428 0.149658 -0.077253 0.305149 -0.053307 -0.406948 -0.131837 0.244943 -0.221644 0.126549 -0.111641 -0.242102 -0.023822 0.241258 -0.284321 0.054824 -0.139333 0.077423 -0.030267 -0.022654 0.122214 0.042786 0.161081 -0.134977 -0.055952 0.071167 0.226182 -0.144624 -0.087746 -0.120087 0.222221 -0.158920 -0.020038 0.100269 -0.004525 0.214806 0.060651 0.038808 0.132770 -0.124326 0.133214 0.185707 -0.041956 0.058053 0.028255 0.147325 0.188529 -0.350151 0.157302 -0.040280 -0.201640 -0.077166 0.111287 -0.037863 0.120511 0.100678 0.094814 -0.055867 0.169761 -0.077450 -0.005805 0.042664 0.105437 0.061209 0.007471 -0.036999 -0.118576 0.145061 0.064307 0.205744 0.107282 0.112247 0.024339 -0.081674 -0.165481 0.105654 -0.060593 0.132799
149 -0.194429 -0.437175 0.332291 -0.261161 -0.082858 0.045284 -0.254290 0.191616 0.186883 0.032174 -0.150490 0.100194 0.039997 -0.288822 0.022000 -0.366096 0.115676 0.130064 0.087700 -0.188345 0.380428 0.078722 0.029320 0.208160 0.167913 0.068890 0.254390 0.057335 -0.120380 -0.054458 0.316293 0.067673 -0.038047 -0.325442 -0.049521 0.040358 -0.050424 -0.027055 -0.014839 0.184902 -0.342403 -0.001984 0.019981 0.077809 0.044263 0.090292 -0.029336 0.130723 -0.136079 -0.164393 0.044315 0.303675 -0.127625 0.381862 -0.228070 -0.228077 -0.315428 0.246108 -0.069955 0.051690 -0.197549 -0.250894 0.135158 0.227806 -0.203328 -0.045577 0.035216 -0.026050 -0.148974 -0.049738 0.016232 -0.141404 -0.064254 -0.029624 0.184606 0.160978 0.148414 0.036849 -0.060378 -0.327725 0.074389 0.128609 0.017894 -0.033477 -0.158260 0.354391 -0.076353 -0.023685 -0.089049 -0.079338 0.183206 0.283587 -0.075237 -0.159088 -0.159705 0.145647 0.138310 -0.418256 0.201937 -0.078829 -0.289547 -0.323394 -0.031515 0.023277 0.114634 0.014490 0.176658 0.168514 0.154484 -0.232511 0.014920 0.159249 0.054444 -0.414803 0.123660 -0.151368 -0.037796 0.233713 -0.166926 0.017966 -0.050065 0.281790 0.251155 -0.283913 -0.287168 0.054787 0.068316 0.154865
137 -0.293378 -0.390536 0.335879 -0.307669 -0.115416 0.077033 -0.263429 0.283686 0.228159 0.149875 -0.223497 0.254999 0.099091 -0.420681 0.075177 -0.479365 0.132060 0.194885 0.104935 -0.199771 0.371444 0.107774 0.064372 0.151246 0.243418 0.128712 0.455007 0.064581 -0.080564 -0.074644 0.328221 0.039903 -0.037004 -0.317042 -0.159665 0.038244 0.026887 0.080386 -0.108115 0.275839 -0.315953 0.088318 -0.046670 -0.011561 0.027000 0.093666 -0.013040 0.237205 -0.150619 -0.110183 0.118801 0.271493 -0.151056 0.276878 -0.195931 -0.212095 -0.325308 0.169395 -0.030623 0.016116 -0.160535 -0.326064 0.209746 0.247414 -0.192963 -0.104542 0.065915 -0.096688 -0.140435 0.020980 -0.011420 -0.147411 -0.091474 0.062535 0.237543 0.179186 0.050284 0.119707 -0.003117 -0.378630 0.015787 0.166742 -0.002790 -0.044915 -0.169957 0.407807 -0.169097 0.076697 -0.155422 0.031734 0.248825 0.220342 -0.059676 -0.183593 -0.169936 0.105959 0.002865 -0.470248 0.067580 -0.017757 -0.247316 -0.306365 0.036149 0.137994 0.134293 -0.052966 0.183978 0.219309 0.169933 -0.234433 0.030316 0.216030 0.010772 -0.486360 0.122378 -0.130579 -0.069356 0.251593 -0.324570 0.045268 -0.040417 0.356839 0.180181 -0.296562 -0.188003 -0.054508 0.016161 0.184519
125 -0.064908 -0.277158 0.167773 -0.193460 0.088344 0.056735 -0.087441 0.128378 0.128767 -0.109451 -0.081701 0.005435 0.015235 -0.095632 -0.102144 -0.156963 0.006432 0.151544 -0.032564 -0.163581 0.228011 0.080976 -0.060893 0.185049 -0.039521 -0.038702 -0.072302 -0.006489 -0.114587 -0.111379 0.211216 0.052560 -0.098276 -0.239479 0.055301 0.081483 -0.114456 -0.148248 0.057863 0.072638 -0.253940 0.037750 0.075113 -0.047799 -0.029678 0.079507 0.068056 0.000239 -0.088841 -0.175184 -0.012441 0.147566 0.018699 0.323487 -0.085251 -0.269907 -0.165406 0.165890 -0.146354 0.038281 -0.079541 -0.146706 -0.117539 0.148333 -0.245978 0.060965 0.000462 0.034408 -0.067934 -0.005031 0.083230 -0.065292 0.028949 -0.113801 0.021854 0.054790 0.228390 -0.051763 -0.012035 -0.174781 0.165636 -0.092677 -0.043917 -0.000452 -0.004669 0.273640 0.122192 -0.067280 0.008826 -0.062349 0.075889 0.276376 -0.108559 -0.046074 -0.143680 0.136180 0.142905 -0.330962 0.169428 -0.029247 -0.202189 -0.078748 -0.041253 -0.068447 0.115101 0.038430 0.164200 0.078495 0.163541 -0.052626 0.003437 -0.012226 0.098241 -0.112521 0.019403 -0.049543 0.023887 0.130696 -0.001763 0.083404 0.055489 0.084941 0.162309 -0.056566 -0.146725 0.072294 -0.018640 0.121670
68 -0.079514 -0.186729 -0.126951 -0.304579 0.255140 0.023569 0.113549 0.359891 0.085363 0.249125 -0.170668 0.338626 0.068333 0.047155 0.050891 -0.178092 -0.044304 0.220500 -0.309140 0.136681 -0.275657 0.121765 -0.079590 0.096132 -0.048012 -0.102033 -0.071205 0.173018 0.162072 -0.134712 0.179387 0.043391 -0.105962 -0.036571 -0.134957 0.046374 0.081148 0.094708 0.005819 0.275792 -0.021723 0.374974 0.292010 -0.606962 -0.355698 0.100812 0.202833 0.090328 -0.070243 -0.208089 -0.069828 0.034697 0.194181 -0.024292 -0.031569 -0.387846 0.143695 -0.224424 -0.163506 -0.003789 0.107340 -0.463916 -0.566645 0.082835 -0.325214 0.196457 -0.021268 0.068370 0.122230 0.378527 0.153563 0.038630 0.231299 -0.153690 0.149291 -0.144491 0.127684 -0.092372 -0.076320 -0.076512 0.431541 -0.353436 -0.297944 -0.279354 0.402019 0.292997 0.452908 0.047283 -0.103797 0.448865 0.126581 0.226947 -0.381826 0.186849 -0.335154 0.333510 -0.007216 -0.527659 -0.025544 0.019924 -0.183210 -0.034020 -0.351917 0.210672 0.333416 -0.004217 0.272908 0.237720 -0.089178 0.272147 0.160546 -0.036102 -0.039395 -0.100283 0.120844 0.197431 0.000218 0.056328 -0.353452 0.063276 0.102911 -0.103299 0.025895 0.387956 0.291491 0.043394 -0.330841 0.063972
4 -0.173944 -0.332749 0.304997 -0.269777 -0.102656 0.047287 -0.233671 0.235857 0.218303 0.029996 -0.178216 0.135278 0.081204 -0.376732 -0.035162 -0.426120 0.111609 0.181252 0.099661 -0.178419 0.383472 0.062845 0.029814 0.196606 0.184585 0.140437 0.300592 0.056638 -0.090550 -0.077598 0.289820 0.101549 -0.071814 -0.335860 -0.143383 0.019185 -0.029944 0.020956 -0.025766 0.161022 -0.370447 0.050233 -0.001552 0.072233 0.031380 0.090962 -0.041217 0.168708 -0.118411 -0.125652 0.092174 0.274850 -0.103332 0.317259 -0.179947 -0.228020 -0.318545 0.181340 -0.074083 0.074532 -0.184242 -0.313299 0.132556 0.226177 -0.182480 -0.090401 0.045399 -0.062702 -0.145513 -0.011336 0.028981 -0.107212 -0.011882 -0.040626 0.176570 0.175076 0.171321 0.012230 -0.031739 -0.323455 0.040084 0.088104 -0.002920 -0.009892 -0.187344 0.364848 -0.100587 0.048706 -0.078099 -0.033009 0.233532 0.275936 -0.042735 -0.136417 -0.141772 0.096852 0.089610 -0.440589 0.167400 -0.052342 -0.270360 -0.247142 0.010819 0.075201 0.134008 -0.010001 0.174425 0.147126 0.210515 -0.233955 0.030410 0.161188 0.041927 -0.378521 0.095214 -0.114292 -0.092108 0.269492 -0.216528 0.085754 -0.040939 0.276415 0.179157 -0.272734 -0.244931 -0.012303 0.024957 0.166345
21 -0.208956 -0.386819 0.348072 -0.298593 -0.125165 0.043707 -0.255159 0.269229 0.224924 0.077686 -0.211298 0.151296 0.084987 -0.432412 -0.004195 -0.475416 0.142916 0.185979 0.120408 -0.192177 0.401946 0.070889 0.049884 0.211474 0.215065 0.153244 0.371827 0.064513 -0.098744 -0.077413 0.327764 0.099231 -0.065891 -0.366329 -0.180800 0.009579 -0.008836 0.053387 -0.044589 0.183711 -0.391407 0.072450 -0.009442 0.071093 0.032990 0.090055 -0.048945 0.214706 -0.125583 -0.133359 0.097145 0.316833 -0.137692 0.327893 -0.208875 -0.249671 -0.343100 0.198886 -0.077956 0.073718 -0.209757 -0.358572 0.177652 0.262332 -0.194262 -0.111114 0.047204 -0.073099 -0.159176 -0.012532 0.023431 -0.123884 -0.026223 -0.014428 0.212902 0.189170 0.145093 0.022722 -0.046715 -0.363086 0.039403 0.126991 0.003194 -0.026467 -0.204449 0.393084 -0.142244 0.062137 -0.092257 -0.028768 0.271377 0.275913 -0.046078 -0.138717 -0.147851 0.114594 0.089823 -0.477486 0.169003 -0.060896 -0.295877 -0.313505 0.008560 0.098851 0.149499 -0.010285 0.186185 0.168815 0.203144 -0.263761 0.038526 0.206378 0.030809 -0.436814 0.119261 -0.129217 -0.113850 0.295954 -0.256752 0.084054 -0.053804 0.316455 0.197872 -0.310158 -0.262790 -0.006093 0.025031 0.173792
37 -0.142290 -0.190154 -0.117732 -0.348915 0.243879 0.047955 0.080378 0.378274 0.158834 0.264631 -0.172559 0.431587 0.069397 0.047685 0.057406 -0.224927 -0.084367 0.250139 -0.351678 0.105595 -0.255616 0.155825 -0.080722 0.106619 -0.019112 -0.097354 -0.012888 0.183455 0.180798 -0.136807 0.210066 0.035114 -0.108167 -0.042931 -0.102342 0.062267 0.070581 0.079303 0.007960 0.357851 -0.051303 0.361795 0.295051 -0.649260 -0.385485 0.145190 0.226046 0.076410 -0.115176 -0.218338 -0.026096 0.039873 0.229082 0.005048 -0.019752 -0.399606 0.106823 -0.255577 -0.168097 -0.035394 0.114797 -0.482985 -0.610481 0.089825 -0.367386 0.203451 0.030886 0.063100 0.103374 0.408281 0.160961 0.005589 0.193006 -0.141711 0.172947 -0.149973 0.149069 -0.060634 -0.048717 -0.130590 0.428318 -0.378288 -0.315450 -0.331065 0.403471 0.358314 0.483996 0.045589 -0.152187 0.491351 0.122469 0.278793 -0.408300 0.165355 -0.397336 0.346777 -0.038645 -0.582531 -0.048790 0.059233 -0.191028 0.000755 -0.380948 0.208254 0.363148 -0.025193 0.327990 0.305493 -0.050465 0.279018 0.181527 -0.042706 -0.017113 -0.168553 0.120577 0.188005 0.038416 0.075051 -0.413752 0.053406 0.119327 -0.103105 0.053582 0.391039 0.313522 0.010175 -0.359489 0.091603
121 -0.192147 -0.262294 0.251066 -0.269434 -0.114074 0.061503 -0.212538 0.229931 0.236130 0.060934 -0.172656 0.202698 0.084281 -0.349495 -0.014804 -0.424444 0.076122 0.196358 0.062915 -0.168166 0.333496 0.070246 0.035040 0.156362 0.196330 0.143750 0.338335 0.061509 -0.048334 -0.072985 0.266967 0.095333 -0.067938 -0.286512 -0.145365 0.016701 -0.016887 0.042614 -0.039001 0.201072 -0.329832 0.063120 -0.004366 0.020364 0.000169 0.105269 -0.026521 0.163520 -0.127555 -0.105553 0.118854 0.239779 -0.074712 0.252278 -0.132708 -0.198629 -0.294429 0.102706 -0.060101 0.050515 -0.154165 -0.310157 0.103808 0.198482 -0.165417 -0.093398 0.085763 -0.088040 -0.123697 0.041225 0.020743 -0.108151 -0.020647 -0.020204 0.167168 0.149762 0.138314 0.025610 0.000455 -0.320053 0.018149 0.079839 -0.027859 -0.040035 -0.173727 0.351500 -0.086385 0.068605 -0.107551 0.030379 0.229392 0.257940 -0.039914 -0.135484 -0.159702 0.074317 0.040165 -0.425244 0.113618 -0.017087 -0.224518 -0.193283 -0.007030 0.102355 0.140270 -0.046046 0.183705 0.173284 0.213946 -0.194865 0.044116 0.149004 0.030177 -0.377231 0.084248 -0.089755 -0.072702 0.257458 -0.262642 0.085549 -0.035339 0.244671 0.149738 -0.215133 -0.177417 -0.052236 -0.009633 0.158199
119 0.075923 -0.481901 0.202834 -0.154090 0.274126 0.022501 0.005949 0.093335 -0.045702 -0.116722 -0.110599 -0.241932 -0.023387 0.006299 -0.065219 0.024914 0.078860 0.072642 -0.053535 -0.109742 0.126347 0.109874 -0.139354 0.250710 -0.208380 -0.242862 -0.347378 -0.041025 -0.206137 -0.155152 0.253262 -0.010516 -0.105762 -0.313860 0.105937 0.110993 -0.096128 -0.226479 0.090072 -0.068811 -0.193493 0.130963 0.093124 -0.122082 -0.027114 0.001223 0.106608 -0.009529 -0.021280 -0.257098 -0.158282 0.192592 -0.040032 0.396111 -0.178701 -0.394465 -0.059547 0.307523 -0.203040 0.104581 -0.098047 -0.124344 -0.179386 0.185613 -0.303606 0.191057 -0.177263 0.171688 -0.002023 -0.065532 0.135297 0.002261 0.093708 -0.147695 -0.037279 -0.003903 0.186343 -0.103843 -0.140405 -0.037641 0.355936 -0.142160 -0.025395 0.018052 0.162525 0.191653 0.227033 -0.137153 0.098747 -0.146188 0.001680 0.218569 -0.204274 0.040097 -0.064150 0.285633 0.307332 -0.337421 0.220932 -0.125940 -0.233127 -0.222444 -0.075528 -0.124780 0.133886 0.142215 0.112711 0.003565 0.006812 0.009863 -0.027835 0.006333 0.112973 0.005723 0.082132 -0.042347 0.016883 -0.023543 0.123583 0.047662 0.098771 0.069725 0.160586 -0.014252 -0.190110 0.266429 0.026990 0.071769
112 -0.056389 -0.420376 0.248625 -0.203947 0.080879 0.048266 -0.132006 0.090231 0.105030 -0.097414 -0.082301 -0.058346 -0.006281 -0.082742 -0.034614 -0.140928 0.054530 0.109043 -0.002648 -0.169815 0.275296 0.097382 -0.068794 0.216775 -0.035194 -0.100304 -0.079333 -0.006742 -0.159845 -0.100969 0.269470 0.031698 -0.068954 -0.292266 0.100249 0.097465 -0.123333 -0.172914 0.064524 0.068820 -0.288360 0.005548 0.061682 -0.001248 0.015377 0.065976 0.055952 0.005040 -0.088656 -0.208020 -0.042067 0.232913 -0.041716 0.418139 -0.170625 -0.275720 -0.195994 0.262735 -0.129091 0.066722 -0.136353 -0.126168 -0.057834 0.172529 -0.247512 0.078895 -0.030283 0.070000 -0.078774 -0.073829 0.074949 -0.084407 -0.016015 -0.102624 0.040415 0.085670 0.207824 -0.027348 -0.063065 -0.187773 0.190553 -0.018611 -0.001320 -0.009980 -0.013561 0.268366 0.105476 -0.115437 -0.003834 -0.135611 0.068921 0.286081 -0.134016 -0.091537 -0.137944 0.193782 0.227874 -0.345225 0.222117 -0.078271 -0.247423 -0.215231 -0.060239 -0.099523 0.108257 0.066535 0.157086 0.090390 0.117198 -0.106389 -0.021206 0.042581 0.101732 -0.191540 0.077824 -0.100515 0.037526 0.094393 0.005717 0.026480 0.022428 0.142394 0.229003 -0.141614 -0.248666 0.156021 0.058196 0.113415
31 -0.070876 -0.183318 -0.040828 -0.232016 0.161916 0.024864 0.077993 0.311150 0.003489 0.213168 -0.174690 0.231059 0.103715 -0.094128 0.028619 -0.212647 0.037837 0.209937 -0.118069 0.082926 -0.165487 0.052884 -0.032707 0.047945 0.001687 -0.010710 0.057529 0.131669 0.097840 -0.111000 0.124554 0.041405 -0.095479 -0.031387 -0.197101 0.038244 0.091616 0.119361 -0.062204 0.138304 -0.021065 0.312511 0.168951 -0.404668 -0.209605 0.053188 0.099762 0.159121 -0.013673 -0.144981 -0.076031 0.040382 0.069987 -0.026297 -0.043970 -0.260493 0.089158 -0.115161 -0.112644 -0.002069 0.054494 -0.360928 -0.303847 0.083328 -0.231292 0.069618 -0.058996 0.001695 0.075157 0.251750 0.126712 0.027098 0.211441 -0.090315 0.147830 -0.069240 0.049081 -0.092360 -0.041998 -0.083655 0.290090 -0.192876 -0.225136 -0.090719 0.266040 0.237589 0.202890 0.089336 -0.043700 0.292078 0.168018 0.114100 -0.227629 0.125312 -0.180344 0.219677 -0.036778 -0.409488 -0.001008 -0.043815 -0.190904 -0.098640 -0.182179 0.208486 0.262043 -0.016665 0.152920 0.144607 -0.060253 0.128422 0.083095 -0.000995 -0.070468 -0.101444 0.105109 0.145558 -0.083384 0.077177 -0.259507 0.093634 0.062214 0.019238 -0.001090 0.200754 0.184534 -0.020167 -0.230635 0.069485
128 -0.299866 -0.397398 0.340088 -0.311078 -0.129807 0.073231 -0.265565 0.285965 0.222060 0.163144 -0.227496 0.269803 0.099828 -0.433393 0.090608 -0.484255 0.140081 0.197263 0.113202 -0.198217 0.366105 0.106923 0.067043 0.139089 0.258923 0.135399 0.485188 0.070888 -0.079296 -0.075001 0.327914 0.025369 -0.027402 -0.319014 -0.176989 0.032948 0.037948 0.094621 -0.115459 0.284033 -0.313602 0.094529 -0.052941 -0.018782 0.032031 0.090087 -0.017031 0.243913 -0.155387 -0.114605 0.126655 0.273679 -0.161996 0.270101 -0.207886 -0.204922 -0.333039 0.172980 -0.020447 0.012258 -0.159074 -0.333043 0.232778 0.247959 -0.183519 -0.118305 0.067801 -0.100550 -0.135180 0.014937 -0.020136 -0.151228 -0.097187 0.083225 0.249066 0.183132 0.030582 0.130720 -0.005534 -0.389364 0.008970 0.186901 -0.002021 -0.046449 -0.171737 0.414498 -0.187841 0.079196 -0.164836 0.034085 0.259316 0.212927 -0.056148 -0.187705 -0.169156 0.107081 0.001253 -0.473247 0.065471 -0.021174 -0.250143 -0.326346 0.040642 0.144168 0.140143 -0.052475 0.189585 0.233474 0.157898 -0.244188 0.029707 0.229625 0.002318 -0.505732 0.130018 -0.127229 -0.078677 0.248959 -0.338181 0.040717 -0.049043 0.373055 0.184244 -0.304108 -0.191724 -0.052433 0.016395 0.187057
52 -0.065584 -0.168455 -0.109649 -0.298273 0.239954 0.045573 0.098028 0.313632 0.110838 0.140259 -0.132872 0.292802 0.061335 0.079017 -0.025291 -0.150008 -0.073545 0.243043 -0.302889 0.073822 -0.192551 0.118060 -0.105824 0.102504 -0.082907 -0.096730 -0.130014 0.139309 0.131764 -0.136088 0.162603 0.053787 -0.123086 -0.045555 -0.064419 0.071306 0.018111 0.010487 0.026641 0.245025 -0.063837 0.310891 0.255956 -0.538730 -0.323787 0.124331 0.203153 0.032655 -0.077375 -0.220382 -0.059307 0.017608 0.212192 0.041599 0.001470 -0.362517 0.098084 -0.190226 -0.180107 -0.006751 0.099542 -0.375820 -0.559909 0.064144 -0.338314 0.194756 0.008175 0.061324 0.089848 0.324267 0.168472 0.025042 0.224832 -0.174683 0.102028 -0.132261 0.185361 -0.116707 -0.022882 -0.083266 0.405847 -0.363935 -0.280132 -0.215694 0.350817 0.302620 0.450799 0.015760 -0.070351 0.366569 0.101616 0.267366 -0.347937 0.144573 -0.327431 0.289617 0.019119 -0.502083 0.022494 0.021287 -0.186888 0.041394 -0.311949 0.147990 0.321481 -0.001014 0.273591 0.203425 -0.016656 0.256435 0.131344 -0.088267 0.015214 -0.067967 0.081080 0.179612 0.015978 0.071504 -0.267006 0.085911 0.123478 -0.110858 0.033746 0.357190 0.249888 0.021140 -0.293467 0.078407
27 0.047519 -0.428109 0.209971 -0.169731 0.241703 0.032807 0.001394 0.131755 0.013486 -0.162726 -0.148898 -0.218458 -0.006705 -0.073258 -0.110545 -0.040598 0.066758 0.119464 -0.028837 -0.163261 0.174538 0.109755 -0.140458 0.249717 -0.200505 -0.198067 -0.299658 -0.069778 -0.208269 -0.178133 0.253825 0.005333 -0.135734 -0.353369 0.052827 0.102295 -0.117347 -0.224210 0.067508 -0.090536 -0.242525 0.118300 0.073149 -0.075399 -0.015329 0.002164 0.105074 0.009891 -0.023913 -0.247656 -0.111350 0.180469 -0.042105 0.416257 -0.130016 -0.418552 -0.096628 0.305803 -0.213165 0.106250 -0.102250 -0.146860 -0.145359 0.205373 -0.323241 0.168923 -0.163785 0.146697 -0.005203 -0.045223 0.132697 0.011833 0.105229 -0.153759 -0.051157 0.018400 0.216800 -0.121788 -0.115362 -0.082791 0.317685 -0.158836 -0.029240 0.039087 0.109960 0.210792 0.202759 -0.098614 0.095451 -0.149061 0.037602 0.231015 -0.158701 0.029284 -0.058884 0.244859 0.275117 -0.363121 0.213143 -0.085164 -0.243514 -0.169205 -0.010809 -0.119444 0.124646 0.136216 0.121738 0.005146 0.069447 -0.017689 -0.022025 0.009298 0.119450 0.027751 0.054338 -0.047428 -0.005132 0.033486 0.106364 0.096557 0.109734 0.088596 0.140738 -0.044285 -0.194936 0.230949 -0.010664 0.107039
75 0.052913 -0.530253 0.227471 -0.182013 0.283590 0.037964 -0.011543 0.089166 -0.015466 -0.132934 -0.104936 -0.228268 -0.024862 0.023212 -0.061736 0.017633 0.066926 0.084112 -0.065290 -0.133797 0.153725 0.127601 -0.160695 0.263910 -0.219280 -0.278670 -0.363958 -0.049085 -0.223093 -0.172484 0.285807 -0.015616 -0.101769 -0.336369 0.143160 0.136352 -0.126465 -0.262153 0.098346 -0.041283 -0.219463 0.113582 0.104274 -0.136546 -0.026609 0.013918 0.135331 -0.027083 -0.032597 -0.286100 -0.157945 0.206665 -0.033070 0.454234 -0.186074 -0.416920 -0.080089 0.343101 -0.208510 0.098867 -0.098441 -0.117796 -0.191408 0.192550 -0.346200 0.216574 -0.161725 0.177129 -0.005991 -0.077465 0.141758 -0.020737 0.070709 -0.148897 -0.030521 0.007245 0.203905 -0.082566 -0.135950 -0.065439 0.385936 -0.143069 -0.028951 0.005520 0.170884 0.222868 0.257703 -0.159109 0.080805 -0.165606 -0.004708 0.265386 -0.230073 0.014504 -0.097458 0.306774 0.323563 -0.377590 0.237349 -0.114270 -0.255921 -0.234449 -0.079065 -0.151010 0.130797 0.148410 0.139600 0.029650 0.015468 0.004413 -0.038824 0.001223 0.136714 -0.012444 0.084215 -0.063333 0.045365 -0.028168 0.124688 0.042209 0.097294 0.085599 0.197558 -0.024411 -0.207343 0.291723 0.031723 0.089149
168 -0.260131 -0.388384 0.343444 -0.319854 -0.136432 0.068954 -0.276843 0.275765 0.241548 0.128705 -0.228334 0.241122 0.104741 -0.437701 0.046560 -0.507478 0.141019 0.210461 0.114214 -0.191766 0.397283 0.093196 0.053459 0.171425 0.259219 0.154359 0.450375 0.077669 -0.084508 -0.080448 0.343155 0.070681 -0.050426 -0.347069 -0.189686 0.027721 0.012828 0.080064 -0.081498 0.255396 -0.361494 0.082529 -0.032468 0.021723 0.029274 0.099307 -0.041522 0.239230 -0.141617 -0.118971 0.128606 0.301443 -0.142816 0.299618 -0.208982 -0.225622 -0.350157 0.170882 -0.042028 0.054638 -0.192962 -0.362412 0.197294 0.250680 -0.182109 -0.123702 0.068637 -0.102819 -0.150929 0.020737 -0.002938 -0.138969 -0.065470 0.026592 0.239808 0.191560 0.088364 0.078041 -0.015384 -0.380524 0.011536 0.163394 -0.007713 -0.039880 -0.193435 0.414722 -0.158961 0.083036 -0.143489 0.024248 0.272320 0.256879 -0.049806 -0.178296 -0.170038 0.101813 0.039150 -0.496401 0.112183 -0.041326 -0.270560 -0.320951 0.016356 0.137332 0.148206 -0.044598 0.191974 0.215336 0.196375 -0.260076 0.037565 0.222907 0.013019 -0.493223 0.130824 -0.124169 -0.093656 0.277194 -0.325478 0.062962 -0.055783 0.352243 0.193473 -0.309127 -0.225143 -0.045564 0.022096 0.181699
173 -0.245285 -0.429176 0.385703 -0.323265 -0.137606 0.071385 -0.295528 0.261927 0.252688 0.080723 -0.218130 0.188624 0.092472 -0.439657 0.022427 -0.505197 0.143809 0.212807 0.129048 -0.225712 0.459591 0.092768 0.047665 0.209336 0.244842 0.148338 0.415132 0.064806 -0.115699 -0.081437 0.369102 0.088090 -0.059078 -0.390737 -0.154436 0.041281 -0.017210 0.032017 -0.062490 0.237419 -0.410178 0.056946 -0.036824 0.063403 0.053048 0.103470 -0.044217 0.223122 -0.151842 -0.144158 0.120887 0.328471 -0.146606 0.366820 -0.228341 -0.242031 -0.388804 0.230871 -0.058268 0.065815 -0.218241 -0.345887 0.216443 0.266267 -0.207500 -0.113337 0.067729 -0.087497 -0.169991 -0.019956 0.008311 -0.149531 -0.067031 0.009163 0.222874 0.217938 0.135010 0.067764 -0.024528 -0.394959 0.022974 0.165306 0.013482 -0.019371 -0.221237 0.433496 -0.163826 0.058207 -0.124122 -0.036908 0.273662 0.299447 -0.049525 -0.199895 -0.172124 0.112693 0.087467 -0.511286 0.155551 -0.058329 -0.299816 -0.338437 0.028081 0.094238 0.151075 -0.031340 0.204658 0.203012 0.227487 -0.282812 0.024253 0.216051 0.042652 -0.498856 0.129115 -0.154573 -0.086037 0.289894 -0.283154 0.073858 -0.056272 0.369192 0.226682 -0.342305 -0.285005 -0.017432 0.049095 0.193905
150 -0.258757 -0.414926 0.374493 -0.330132 -0.169398 0.050854 -0.303553 0.289739 0.254294 0.126257 -0.223862 0.223617 0.091584 -0.468266 0.038008 -0.542609 0.157327 0.196623 0.132268 -0.192536 0.419311 0.072805 0.074936 0.200392 0.278767 0.190186 0.472225 0.090959 -0.076278 -0.058530 0.345533 0.104748 -0.043225 -0.367201 -0.202063 0.008926 0.009222 0.090201 -0.072512 0.246531 -0.401904 0.065415 -0.013023 0.070780 0.041339 0.102170 -0.067190 0.247313 -0.149217 -0.133872 0.125890 0.339910 -0.161677 0.328188 -0.236801 -0.228646 -0.374906 0.187334 -0.045235 0.059824 -0.224676 -0.389358 0.222298 0.264614 -0.186470 -0.136937 0.075627 -0.103104 -0.173737 0.006498 -0.003821 -0.148574 -0.056709 0.010303 0.262329 0.207255 0.114364 0.062473 -0.045087 -0.413401 0.011362 0.181554 0.007988 -0.047385 -0.233402 0.429768 -0.182024 0.078028 -0.139990 0.005906 0.296407 0.284144 -0.051067 -0.177502 -0.175811 0.113048 0.069118 -0.509440 0.160675 -0.057056 -0.307780 -0.363527 -0.002110 0.134021 0.155184 -0.032540 0.208448 0.220201 0.198858 -0.287660 0.050630 0.240305 0.013129 -0.536059 0.148364 -0.145808 -0.117258 0.321403 -0.330783 0.055462 -0.079395 0.366134 0.222196 -0.343865 -0.269312 -0.027157 0.029007 0.188758
84 0.071223 -0.425976 0.205385 -0.149636 0.294063 0.035598 0.038857 0.155245 -0.022516 -0.143865 -0.141851 -0.245826 0.005716 -0.074914 -0.139082 -0.010524 0.075106 0.121808 -0.041759 -0.140531 0.125153 0.104050 -0.129243 0.256791 -0.236429 -0.199140 -0.332118 -0.068117 -0.210133 -0.195840 0.241635 0.014183 -0.148610 -0.341204 0.043352 0.101893 -0.095343 -0.205103 0.071185 -0.118068 -0.216108 0.185378 0.087217 -0.119786 -0.040049 -0.005469 0.121187 0.025632 -0.003994 -0.249163 -0.144677 0.158597 -0.038907 0.370331 -0.123090 -0.444107 -0.055632 0.296960 -0.241772 0.106956 -0.077955 -0.170304 -0.182527 0.218654 -0.342555 0.176296 -0.180003 0.161387 0.006735 -0.050934 0.152217 0.025545 0.132995 -0.161495 -0.063508 0.006939 0.231190 -0.129884 -0.127330 -0.054830 0.369325 -0.197619 -0.048765 0.056898 0.154548 0.220318 0.216627 -0.089947 0.127923 -0.131474 0.039643 0.214866 -0.172323 0.073110 -0.043146 0.273433 0.268017 -0.367561 0.197362 -0.088858 -0.228214 -0.149123 -0.015758 -0.114001 0.145791 0.135661 0.118059 -0.026207 0.065988 0.014640 -0.025430 -0.011494 0.130397 0.065577 0.049598 -0.020618 -0.022574 0.025659 0.128956 0.121382 0.122605 0.066949 0.104288 0.006878 -0.163297 0.217318 -0.030570 0.095571
51 -0.111445 -0.192055 -0.142508 -0.349788 0.246724 0.023650 0.105845 0.400864 0.125755 0.311038 -0.188192 0.417605 0.072124 0.029739 0.070896 -0.246185 -0.049309 0.247680 -0.345736 0.151952 -0.303820 0.135476 -0.069623 0.096747 -0.008696 -0.084489 -0.006425 0.205353 0.197614 -0.136301 0.205047 0.055428 -0.106426 -0.035187 -0.166866 0.041454 0.107104 0.129587 -0.000611 0.342332 -0.033879 0.400323 0.317802 -0.667858 -0.394921 0.127988 0.214980 0.108430 -0.090753 -0.217171 -0.051192 0.048550 0.222341 -0.045133 -0.034230 -0.416984 0.140551 -0.274003 -0.169116 -0.017699 0.112990 -0.532217 -0.622052 0.099877 -0.357132 0.197154 0.000646 0.063849 0.117618 0.429882 0.166100 0.030036 0.232078 -0.157263 0.191312 -0.158677 0.139549 -0.085779 -0.086350 -0.120325 0.452820 -0.382803 -0.324321 -0.342464 0.424190 0.343947 0.484909 0.076148 -0.152317 0.524358 0.144199 0.263737 -0.414495 0.198999 -0.389717 0.363460 -0.039407 -0.590462 -0.046977 0.036031 -0.196339 -0.033759 -0.401776 0.251774 0.374585 -0.024377 0.316491 0.296233 -0.085280 0.278487 0.190686 -0.024606 -0.053702 -0.159183 0.142491 0.212935 0.002978 0.084676 -0.437848 0.063389 0.104673 -0.110540 0.030717 0.413209 0.322365 0.024884 -0.373170 0.073996
165 -0.210062 -0.393604 0.351254 -0.286607 -0.122603 0.055496 -0.267235 0.234206 0.221189 0.061956 -0.192847 0.145408 0.078221 -0.399715 0.009631 -0.449251 0.133767 0.175684 0.115416 -0.203354 0.414248 0.074063 0.042757 0.196504 0.213229 0.136232 0.356341 0.052966 -0.110713 -0.076267 0.325662 0.086278 -0.053686 -0.360204 -0.138067 0.024451 -0.025928 0.022039 -0.042213 0.191463 -0.384804 0.043876 -0.020338 0.080909 0.055183 0.094771 -0.047781 0.193629 -0.129447 -0.128391 0.099159 0.312516 -0.140008 0.349481 -0.208316 -0.232295 -0.347505 0.217101 -0.059067 0.067609 -0.211060 -0.315290 0.186643 0.248114 -0.188027 -0.104609 0.051855 -0.068960 -0.158912 -0.021722 0.011441 -0.132665 -0.054267 -0.002558 0.200473 0.194234 0.136816 0.044750 -0.033937 -0.357387 0.029134 0.145590 0.014693 -0.019598 -0.206090 0.380590 -0.144885 0.039632 -0.106417 -0.047569 0.245937 0.275587 -0.038612 -0.171731 -0.148833 0.105935 0.093299 -0.459199 0.168948 -0.061250 -0.281580 -0.308758 0.014874 0.069661 0.125951 -0.016907 0.179494 0.177589 0.205373 -0.267007 0.019187 0.196127 0.036119 -0.441577 0.120584 -0.144079 -0.081573 0.269436 -0.243474 0.064738 -0.057922 0.325154 0.208858 -0.316717 -0.272288 0.004253 0.047780 0.173342
61 -0.009335 -0.211836 -0.102047 -0.259214 0.252712 -0.005349 0.127750 0.319779 0.028039 0.215278 -0.167066 0.202070 0.051252 0.037630 0.033632 -0.139654 0.007337 0.178623 -0.255071 0.136965 -0.272813 0.093805 -0.081414 0.100586 -0.080089 -0.118353 -0.123033 0.143560 0.117637 -0.140311 0.160924 0.042439 -0.104684 -0.073803 -0.152879 0.032268 0.087803 0.076412 0.019391 0.171268 -0.016429 0.356031 0.280177 -0.520965 -0.307642 0.058875 0.160904 0.100236 -0.022585 -0.208297 -0.107937 0.059330 0.148619 -0.007477 -0.054536 -0.382657 0.154607 -0.156165 -0.176064 0.030551 0.062579 -0.434204 -0.498894 0.096913 -0.304132 0.187300 -0.075338 0.089105 0.120383 0.319751 0.154042 0.076154 0.249367 -0.158891 0.119906 -0.133594 0.117272 -0.122699 -0.115674 -0.039351 0.432983 -0.330489 -0.258564 -0.234484 0.373768 0.230288 0.417170 0.045706 -0.050130 0.372992 0.114542 0.186887 -0.348872 0.195072 -0.255740 0.335916 0.050809 -0.480282 0.010373 -0.022750 -0.181931 -0.083343 -0.312751 0.182298 0.303967 0.025308 0.214071 0.177383 -0.108285 0.233754 0.133026 -0.017881 -0.033073 -0.053875 0.124495 0.184578 -0.036672 0.042728 -0.279673 0.070443 0.096289 -0.097414 0.008410 0.345831 0.222654 0.095024 -0.285360 0.042440
164 -0.226296 -0.418033 0.364311 -0.309877 -0.137323 0.063370 -0.292316 0.237028 0.230755 0.078242 -0.204113 0.181418 0.087084 -0.409330 0.030115 -0.471422 0.138340 0.188123 0.123912 -0.209970 0.435529 0.083867 0.039330 0.194164 0.237838 0.137145 0.397719 0.066469 -0.107713 -0.072317 0.351897 0.078235 -0.046690 -0.373667 -0.146068 0.037669 -0.023496 0.033792 -0.047907 0.225611 -0.395495 0.039122 -0.033237 0.071582 0.055290 0.099248 -0.049945 0.205692 -0.146472 -0.138030 0.111853 0.331130 -0.150251 0.358128 -0.233865 -0.224772 -0.366917 0.218566 -0.042881 0.068586 -0.221372 -0.324245 0.205734 0.248622 -0.180129 -0.111415 0.061237 -0.087273 -0.159943 -0.023164 0.001732 -0.144406 -0.073587 0.015143 0.219506 0.204781 0.117814 0.066334 -0.033210 -0.376682 0.016212 0.172778 0.020348 -0.027162 -0.217921 0.402464 -0.158805 0.046677 -0.127319 -0.039107 0.254707 0.287844 -0.048169 -0.192719 -0.162226 0.108395 0.095707 -0.484150 0.161959 -0.064433 -0.288605 -0.341972 0.011944 0.086198 0.140214 -0.025036 0.190230 0.195885 0.198269 -0.277805 0.013311 0.221093 0.034929 -0.487151 0.132794 -0.146329 -0.082099 0.267841 -0.276112 0.052073 -0.064274 0.352183 0.223406 -0.336072 -0.287553 -0.000705 0.061297 0.174883
100 0.084112 -0.480623 0.277435 -0.150842 0.289884 0.029371 0.020804 0.166413 -0.029245 -0.177698 -0.177633 -0.319773 0.009389 -0.142419 -0.156830 -0.015626 0.108210 0.116128 -0.001767 -0.179876 0.195764 0.101626 -0.135466 0.288260 -0.251503 -0.207020 -0.337234 -0.104311 -0.266942 -0.211868 0.270270 -0.003720 -0.153573 -0.416999 0.022247 0.105679 -0.099978 -0.221171 0.067317 -0.167903 -0.253191 0.189809 0.036150 -0.062103 0.001003 -0.032974 0.103966 0.051247 0.010081 -0.249804 -0.146334 0.193996 -0.088813 0.424453 -0.148062 -0.465786 -0.099264 0.366490 -0.249213 0.126451 -0.102837 -0.172111 -0.090565 0.256017 -0.343341 0.157673 -0.206947 0.164094 -0.006698 -0.093899 0.142552 0.027129 0.131943 -0.145174 -0.075692 0.039278 0.221776 -0.129432 -0.135672 -0.061792 0.357459 -0.161158 -0.006750 0.097673 0.115696 0.214833 0.154410 -0.080142 0.147890 -0.201308 0.052216 0.204733 -0.143388 0.058867 0.004799 0.265319 0.306168 -0.374442 0.216342 -0.103747 -0.245584 -0.184943 0.053631 -0.132006 0.121670 0.153736 0.098052 -0.051429 0.083754 -0.024947 -0.040020 0.023958 0.147990 0.067392 0.050296 -0.057562 -0.052458 0.031612 0.164571 0.136944 0.122260 0.118424 0.105213 -0.067399 -0.224036 0.239960 0.008935 0.104727
54 0.033800 -0.567409 0.252627 -0.182671 0.253106 0.031562 -0.041839 0.065684 -0.012800 -0.116311 -0.103275 -0.221819 -0.019482 0.035841 -0.028594 0.018974 0.073066 0.068132 -0.049948 -0.137558 0.171299 0.128283 -0.151587 0.264938 -0.190434 -0.283855 -0.338347 -0.043924 -0.226660 -0.156807 0.300319 -0.023122 -0.084293 -0.342710 0.154932 0.140231 -0.128567 -0.255890 0.100312 -0.018771 -0.227170 0.095050 0.093958 -0.115646 -0.012094 0.016391 0.113881 -0.025558 -0.037660 -0.287731 -0.159706 0.229985 -0.047460 0.470368 -0.219620 -0.393386 -0.095870 0.356470 -0.182393 0.103361 -0.115663 -0.099624 -0.158336 0.189733 -0.319505 0.202590 -0.157150 0.169705 -0.010543 -0.098332 0.128030 -0.034730 0.051142 -0.125141 -0.010391 0.023218 0.184134 -0.067909 -0.136429 -0.070668 0.367755 -0.098669 -0.015070 -0.003306 0.149632 0.211532 0.228887 -0.174164 0.065120 -0.179861 0.007121 0.262564 -0.231948 -0.012572 -0.096450 0.308001 0.335765 -0.381548 0.251691 -0.132602 -0.262336 -0.278872 -0.082510 -0.155504 0.121242 0.142860 0.138987 0.049859 -0.000806 -0.014034 -0.051550 0.022776 0.132057 -0.052846 0.097352 -0.078068 0.057030 -0.037525 0.119984 0.010399 0.078394 0.117639 0.213209 -0.063146 -0.238839 0.301752 0.074534 0.082296
38 -0.062940 -0.205797 -0.125265 -0.323183 0.280962 0.027767 0.118813 0.369389 0.106202 0.223089 -0.176129 0.326219 0.066106 0.061414 0.021495 -0.173998 -0.056955 0.239790 -0.337387 0.123581 -0.275746 0.135573 -0.099294 0.116597 -0.079393 -0.120882 -0.111672 0.160423 0.153181 -0.153780 0.191496 0.043917 -0.124769 -0.065380 -0.127257 0.057669 0.064533 0.059213 0.018817 0.268883 -0.048936 0.383108 0.312206 -0.626664 -0.379329 0.118332 0.221805 0.067926 -0.070099 -0.233773 -0.076217 0.038559 0.214903 0.004252 -0.022152 -0.437312 0.143388 -0.218619 -0.195770 0.001545 0.105374 -0.479078 -0.620103 0.088094 -0.367213 0.225238 -0.018132 0.087387 0.119300 0.388651 0.175619 0.043934 0.246825 -0.178304 0.131857 -0.155798 0.166279 -0.109151 -0.076172 -0.083021 0.470118 -0.403691 -0.311182 -0.289461 0.420049 0.314395 0.502975 0.034827 -0.096062 0.448989 0.124422 0.260052 -0.405072 0.197111 -0.354988 0.356692 0.013250 -0.565937 -0.011155 0.031786 -0.200012 -0.009138 -0.362453 0.189818 0.352758 0.002992 0.293296 0.245711 -0.068900 0.289306 0.164246 -0.051146 -0.015765 -0.085765 0.115316 0.201772 0.006928 0.060367 -0.346356 0.080537 0.129010 -0.126416 0.026359 0.412039 0.290603 0.058138 -0.351836 0.074309
166 -0.246360 -0.403979 0.344724 -0.320046 -0.121924 0.061946 -0.266777 0.259829 0.238672 0.085041 -0.214687 0.201311 0.090847 -0.413166 0.029599 -0.480465 0.127909 0.205996 0.101768 -0.203527 0.415579 0.092408 0.042134 0.198036 0.227020 0.138613 0.395175 0.064660 -0.096986 -0.085247 0.347857 0.085308 -0.066961 -0.357954 -0.152055 0.029612 -0.011678 0.040269 -0.064567 0.234728 -0.371980 0.059950 -0.014984 0.032199 0.036417 0.101322 -0.032953 0.214813 -0.151783 -0.144683 0.106366 0.307135 -0.128984 0.332913 -0.205348 -0.240244 -0.347123 0.196861 -0.057428 0.052601 -0.194230 -0.343507 0.174756 0.253039 -0.204835 -0.100455 0.061790 -0.085811 -0.148406 0.005349 0.014435 -0.141759 -0.054148 0.002410 0.217446 0.186112 0.126273 0.060057 -0.023287 -0.378713 0.037125 0.137979 -0.003212 -0.034379 -0.189924 0.418545 -0.133955 0.060258 -0.122502 0.000987 0.254123 0.281846 -0.057737 -0.177503 -0.174022 0.110201 0.070167 -0.486216 0.137775 -0.056632 -0.279456 -0.308697 0.011701 0.106973 0.146146 -0.033339 0.200578 0.204056 0.204683 -0.252503 0.030033 0.201615 0.028786 -0.467017 0.121323 -0.128491 -0.076675 0.279742 -0.279994 0.063783 -0.046336 0.336776 0.211729 -0.303842 -0.238822 -0.026162 0.020367 0.180445
170 -0.198599 -0.399746 0.346984 -0.289987 -0.109787 0.061485 -0.256016 0.226387 0.215412 0.043844 -0.197529 0.134618 0.082945 -0.395572 0.005126 -0.442207 0.136722 0.189060 0.116854 -0.205317 0.419895 0.084844 0.030589 0.205982 0.192942 0.115405 0.336161 0.046733 -0.124012 -0.090699 0.335629 0.085324 -0.062158 -0.372165 -0.134845 0.034407 -0.028621 0.009007 -0.038481 0.186827 -0.378483 0.042383 -0.028128 0.070167 0.051855 0.093345 -0.044801 0.188259 -0.136794 -0.141006 0.090405 0.308275 -0.132792 0.353387 -0.207241 -0.244205 -0.344997 0.221742 -0.067889 0.073914 -0.210048 -0.314750 0.186582 0.248974 -0.192016 -0.089056 0.044997 -0.071799 -0.154571 -0.022767 0.015585 -0.128608 -0.049673 -0.005673 0.184934 0.193507 0.137069 0.039496 -0.039954 -0.351546 0.039620 0.132244 0.017784 -0.015110 -0.195240 0.388446 -0.131272 0.041902 -0.097297 -0.049368 0.244103 0.277000 -0.046834 -0.170766 -0.144141 0.109086 0.104612 -0.464042 0.163176 -0.062936 -0.274398 -0.304184 0.023839 0.072345 0.131964 -0.011451 0.185002 0.165983 0.204129 -0.256768 0.015305 0.195265 0.045935 -0.426187 0.117143 -0.143019 -0.082110 0.256748 -0.233907 0.073663 -0.043432 0.321203 0.208394 -0.313619 -0.276040 0.004158 0.041796 0.173739
171 -0.242489 -0.406366 0.360013 -0.336431 -0.163341 0.066494 -0.307500 0.257647 0.275035 0.083075 -0.200140 0.221960 0.090173 -0.425216 0.015272 -0.521382 0.134022 0.212180 0.116381 -0.209279 0.462013 0.087861 0.048353 0.216092 0.264024 0.174124 0.429886 0.081515 -0.089541 -0.068189 0.363794 0.116312 -0.056976 -0.380305 -0.154613 0.028850 -0.032208 0.043721 -0.043693 0.257514 -0.432915 0.036216 -0.012693 0.066491 0.037888 0.125646 -0.057560 0.205229 -0.167473 -0.136575 0.129513 0.340708 -0.122173 0.368883 -0.225835 -0.228676 -0.392652 0.192167 -0.051212 0.077269 -0.232237 -0.364785 0.187053 0.255103 -0.192095 -0.126374 0.087888 -0.099913 -0.175156 -0.008972 0.009491 -0.151586 -0.064671 -0.010398 0.238930 0.215751 0.164837 0.052375 -0.024462 -0.408351 0.014954 0.158461 0.007026 -0.042020 -0.236294 0.437264 -0.141945 0.056503 -0.141299 -0.017989 0.282316 0.329709 -0.051168 -0.199437 -0.194997 0.108419 0.095057 -0.516788 0.178836 -0.059888 -0.304871 -0.324124 -0.015433 0.100197 0.161263 -0.038705 0.220856 0.213625 0.237826 -0.289641 0.033235 0.218920 0.030728 -0.525186 0.131572 -0.146228 -0.085404 0.307057 -0.306004 0.067092 -0.067431 0.345657 0.239247 -0.338885 -0.287962 -0.025172 0.038619 0.192599
56 -0.052313 -0.159904 -0.074480 -0.245259 0.190612 0.014322 0.070777 0.260635 0.088952 0.158781 -0.130672 0.226065 0.040222 0.025593 0.019395 -0.156849 -0.036262 0.168628 -0.228430 0.074485 -0.170075 0.096502 -0.073431 0.101772 -0.038335 -0.078359 -0.069492 0.115896 0.091572 -0.109516 0.159195 0.046565 -0.089234 -0.080325 -0.096760 0.034826 0.043129 0.042160 0.026577 0.199946 -0.064779 0.258162 0.221463 -0.418885 -0.254303 0.085320 0.141996 0.057490 -0.061706 -0.172150 -0.043216 0.055254 0.148107 0.034840 -0.028960 -0.319381 0.075721 -0.139651 -0.144419 0.011745 0.056474 -0.346552 -0.424604 0.087765 -0.261300 0.151162 -0.014254 0.065641 0.077327 0.260896 0.126216 0.026716 0.167233 -0.130333 0.091873 -0.098050 0.134949 -0.086717 -0.064333 -0.075420 0.330879 -0.270943 -0.208448 -0.211268 0.271774 0.229435 0.350367 0.032199 -0.066277 0.310268 0.100791 0.206438 -0.278682 0.132987 -0.255564 0.255510 0.030416 -0.426152 0.009504 0.013913 -0.154414 -0.026441 -0.267062 0.135952 0.245914 0.007543 0.217216 0.186064 -0.033842 0.175637 0.116948 -0.015656 -0.007749 -0.081870 0.089126 0.136074 0.009349 0.063889 -0.248540 0.057346 0.081607 -0.072117 0.032808 0.266092 0.168961 0.056501 -0.235098 0.064984
167 -0.257470 -0.418304 0.358338 -0.332337 -0.132475 0.064327 -0.286170 0.272733 0.243341 0.109890 -0.230322 0.223264 0.092897 -0.431299 0.050360 -0.507798 0.143971 0.211250 0.113333 -0.204650 0.416118 0.096468 0.053598 0.194056 0.253937 0.149690 0.441502 0.071705 -0.089871 -0.080433 0.359149 0.081430 -0.051019 -0.358578 -0.168348 0.033846 0.003202 0.060921 -0.073273 0.249650 -0.383308 0.069383 -0.026171 0.030437 0.041161 0.103337 -0.036058 0.234498 -0.157881 -0.132603 0.117430 0.315288 -0.146506 0.330883 -0.223219 -0.237538 -0.365878 0.197565 -0.044174 0.057615 -0.201700 -0.356635 0.201556 0.260007 -0.199352 -0.117373 0.066296 -0.095920 -0.158799 0.001107 0.000540 -0.141928 -0.068476 0.021486 0.235932 0.198326 0.107604 0.073420 -0.022918 -0.396245 0.020897 0.163447 -0.003386 -0.039211 -0.200696 0.427947 -0.162424 0.062944 -0.140142 0.003145 0.272344 0.279504 -0.057853 -0.190701 -0.176971 0.117038 0.064586 -0.505047 0.129798 -0.055963 -0.288564 -0.337185 0.009088 0.121620 0.157613 -0.033943 0.205777 0.215757 0.202496 -0.264491 0.033123 0.226735 0.016317 -0.506229 0.139208 -0.135967 -0.090407 0.285394 -0.310523 0.058512 -0.057957 0.364491 0.207630 -0.323670 -0.245678 -0.032746 0.025798 0.190645
10 -0.075059 -0.402816 0.240366 -0.189438 0.037159 0.028452 -0.148905 0.101392 0.107617 -0.068148 -0.069250 -0.034168 -0.015300 -0.096485 -0.030650 -0.171816 0.067831 0.086481 0.017332 -0.148651 0.261922 0.074538 -0.035838 0.215522 0.016341 -0.052052 -0.026250 0.019027 -0.132612 -0.068720 0.242671 0.049036 -0.046023 -0.260877 0.062697 0.060149 -0.104408 -0.137165 0.056009 0.075957 -0.273064 -0.023097 0.087830 0.041763 0.018695 0.069725 0.028309 0.009473 -0.083635 -0.198745 -0.043524 0.234461 -0.051712 0.386061 -0.181382 -0.238845 -0.197585 0.251264 -0.119185 0.055079 -0.140388 -0.138081 -0.032876 0.163869 -0.222155 0.055263 -0.017115 0.052362 -0.104028 -0.074836 0.061048 -0.099836 -0.006376 -0.101202 0.091144 0.089724 0.195698 -0.031596 -0.086113 -0.201314 0.160763 0.014573 0.004302 -0.014551 -0.048315 0.261844 0.067311 -0.111542 -0.016149 -0.123122 0.084720 0.273589 -0.113876 -0.080415 -0.142295 0.178946 0.207226 -0.328461 0.240585 -0.086161 -0.255457 -0.245278 -0.079107 -0.080515 0.092434 0.066157 0.150992 0.099356 0.095971 -0.124550 -0.003523 0.045147 0.084895 -0.221714 0.084852 -0.110002 0.012242 0.136288 -0.007800 0.005095 -0.005694 0.144692 0.239824 -0.152081 -0.250988 0.140835 0.056686 0.108461
24 -0.053561 -0.320013 0.325446 -0.183727 0.007411 0.026467 -0.126936 0.226527 0.146860 -0.123430 -0.200877 -0.109713 0.055223 -0.388201 -0.158318 -0.305412 0.110040 0.163025 0.113759 -0.231386 0.364686 0.053013 -0.017066 0.250260 0.009258 0.079511 0.075055 -0.054393 -0.183577 -0.129834 0.246577 0.093036 -0.138465 -0.410284 -0.133928 0.019453 -0.064242 -0.075155 0.003900 -0.063180 -0.372176 0.084827 -0.013203 0.142294 0.055569 0.023226 -0.020725 0.142976 -0.050402 -0.145123 0.026252 0.244005 -0.132349 0.370393 -0.114037 -0.327193 -0.267090 0.281917 -0.168334 0.106846 -0.177514 -0.272121 0.117890 0.262646 -0.243083 -0.041406 -0.051236 0.016423 -0.116634 -0.061480 0.078787 -0.034594 0.065887 -0.094613 0.044783 0.147085 0.224625 -0.090531 -0.070248 -0.239668 0.112954 -0.010077 0.022558 0.084004 -0.158960 0.281285 -0.066915 0.041751 0.061087 -0.152791 0.193467 0.236991 0.006734 -0.044272 -0.022613 0.110892 0.173713 -0.379460 0.202023 -0.051392 -0.261829 -0.170242 0.110305 -0.017727 0.095225 0.065186 0.121160 0.018579 0.228263 -0.198596 0.005668 0.108040 0.094902 -0.141387 0.032651 -0.110451 -0.124215 0.246132 -0.019107 0.165573 0.029963 0.207061 0.118852 -0.242612 -0.270180 0.063564 0.004567 0.166469
172 -0.231612 -0.401366 0.366889 -0.310310 -0.139473 0.066240 -0.290325 0.236695 0.245533 0.062358 -0.202814 0.176477 0.087547 -0.422571 0.013966 -0.481270 0.138141 0.198780 0.129047 -0.219394 0.455140 0.084354 0.041268 0.197846 0.229760 0.143487 0.399489 0.055679 -0.117497 -0.077246 0.348123 0.087817 -0.055932 -0.373972 -0.140525 0.037041 -0.027743 0.027037 -0.048766 0.217369 -0.408286 0.036881 -0.042084 0.086175 0.067759 0.105742 -0.057219 0.201823 -0.149538 -0.130103 0.119963 0.323486 -0.143318 0.361208 -0.223427 -0.224803 -0.383208 0.216530 -0.051709 0.066721 -0.226181 -0.322050 0.222343 0.256176 -0.187023 -0.121239 0.068645 -0.089158 -0.169314 -0.027888 -0.001532 -0.144916 -0.081987 0.011133 0.203773 0.215642 0.139626 0.059666 -0.023686 -0.388971 -0.002412 0.170464 0.020047 -0.011481 -0.230888 0.407441 -0.165008 0.046160 -0.114950 -0.054863 0.256615 0.289166 -0.035144 -0.199866 -0.152210 0.092473 0.089250 -0.477715 0.161204 -0.054035 -0.280644 -0.322616 0.025035 0.077249 0.134767 -0.027686 0.195094 0.192720 0.230272 -0.281147 0.017073 0.218714 0.034690 -0.482636 0.122368 -0.154060 -0.084827 0.279166 -0.269152 0.067527 -0.056060 0.355495 0.219934 -0.340591 -0.288243 -0.015879 0.054645 0.180397
152 -0.209987 -0.430502 0.370974 -0.309604 -0.131129 0.064015 -0.290653 0.230895 0.235579 0.044791 -0.194621 0.147419 0.074003 -0.396604 0.006120 -0.464454 0.143664 0.184104 0.118551 -0.212690 0.450790 0.083517 0.034253 0.222145 0.217547 0.130820 0.355040 0.061709 -0.121119 -0.074060 0.352308 0.094860 -0.060565 -0.382792 -0.124570 0.031680 -0.035242 0.008791 -0.028372 0.202823 -0.414650 0.033805 -0.019653 0.090034 0.057752 0.103771 -0.049220 0.188044 -0.147889 -0.142149 0.094344 0.342314 -0.138383 0.385429 -0.233203 -0.236313 -0.372707 0.236340 -0.061676 0.080471 -0.234280 -0.322326 0.188171 0.251325 -0.194120 -0.101238 0.057304 -0.069697 -0.168704 -0.045804 0.017107 -0.138368 -0.060530 -0.018553 0.209139 0.207420 0.157562 0.041082 -0.038663 -0.372779 0.030550 0.153079 0.023586 -0.024043 -0.224952 0.407383 -0.140661 0.030605 -0.102985 -0.063602 0.254330 0.306819 -0.054952 -0.186712 -0.162338 0.119062 0.127128 -0.479686 0.195391 -0.072936 -0.300236 -0.330877 0.000061 0.060586 0.140747 -0.012767 0.197790 0.183022 0.218816 -0.282918 0.015102 0.206873 0.049967 -0.471175 0.129588 -0.153649 -0.076199 0.276091 -0.238996 0.062065 -0.064505 0.337636 0.234463 -0.336496 -0.306299 0.012553 0.065368 0.175947
174 -0.193876 -0.357573 0.316293 -0.293129 -0.111630 0.063161 -0.247193 0.233154 0.228648 0.060785 -0.192697 0.173530 0.081587 -0.378307 0.001152 -0.449406 0.119543 0.194078 0.092455 -0.183351 0.387993 0.075310 0.029717 0.194740 0.202341 0.134816 0.340634 0.070473 -0.093583 -0.078307 0.314688 0.094849 -0.065676 -0.343406 -0.144262 0.031439 -0.024271 0.027730 -0.034508 0.198972 -0.373481 0.060245 -0.001077 0.040554 0.023301 0.099061 -0.039852 0.189647 -0.128016 -0.132576 0.102142 0.299196 -0.109282 0.325852 -0.200949 -0.237841 -0.328518 0.175845 -0.062161 0.072470 -0.201381 -0.332971 0.134252 0.232400 -0.190421 -0.091830 0.055007 -0.076915 -0.146770 0.003372 0.018547 -0.121108 -0.029445 -0.021197 0.190729 0.176658 0.152911 0.033278 -0.032837 -0.344023 0.037262 0.110496 -0.006644 -0.038944 -0.178960 0.379368 -0.108353 0.051217 -0.106794 -0.008223 0.246228 0.290306 -0.060654 -0.154367 -0.158399 0.113892 0.090080 -0.468788 0.154611 -0.052878 -0.267412 -0.280060 -0.010398 0.086831 0.154526 -0.019821 0.192182 0.180895 0.201252 -0.234640 0.026081 0.190042 0.036641 -0.429464 0.120717 -0.120517 -0.084301 0.258646 -0.263051 0.074563 -0.045265 0.291955 0.197814 -0.271818 -0.239406 -0.010579 0.022463 0.170187
123 0.018724 -0.201316 0.202728 -0.148933 0.140364 0.041162 0.016544 0.221622 0.087170 -0.183662 -0.220467 -0.163538 0.058504 -0.313181 -0.222208 -0.199168 0.060697 0.208290 0.046103 -0.198251 0.217338 0.055683 -0.078023 0.195674 -0.143294 -0.000469 -0.089648 -0.101272 -0.164842 -0.199694 0.187227 0.063239 -0.186183 -0.356562 -0.149440 0.049283 -0.084496 -0.112908 0.006129 -0.162873 -0.283855 0.159871 0.016996 0.022027 0.006681 -0.015429 0.046956 0.113820 0.011241 -0.149151 -0.019715 0.117862 -0.047864 0.292548 -0.016179 -0.397606 -0.139672 0.224202 -0.212348 0.113811 -0.093358 -0.237898 -0.031250 0.231161 -0.279800 0.032827 -0.120650 0.056433 -0.020069 0.009695 0.125847 0.039612 0.169630 -0.132169 -0.053760 0.080956 0.225965 -0.153147 -0.045048 -0.134829 0.192296 -0.168407 -0.051015 0.108189 -0.014592 0.223382 0.054434 0.056870 0.125838 -0.103422 0.163424 0.186664 -0.021241 0.048671 0.017994 0.104100 0.138174 -0.349168 0.137767 -0.008158 -0.204578 -0.028672 0.123003 -0.035771 0.113645 0.075216 0.096429 -0.046146 0.195562 -0.085726 -0.002735 0.034919 0.102336 0.083587 -0.017045 -0.012723 -0.110640 0.168355 0.047124 0.228176 0.115444 0.112693 0.017229 -0.077400 -0.137285 0.057822 -0.097392 0.154882
36 -0.060228 -0.224517 -0.119203 -0.317918 0.250289 0.001533 0.128715 0.386095 0.046296 0.323479 -0.198560 0.325264 0.071759 0.005273 0.086159 -0.224222 0.006231 0.208477 -0.277292 0.175774 -0.320800 0.108385 -0.056917 0.095023 -0.014022 -0.085363 -0.005803 0.196708 0.165041 -0.131587 0.188575 0.049465 -0.086731 -0.033313 -0.203424 0.030575 0.125331 0.151668 -0.012784 0.246549 -0.009021 0.399281 0.307994 -0.610305 -0.347602 0.084059 0.175859 0.148954 -0.047379 -0.195604 -0.092589 0.066815 0.168076 -0.057555 -0.058054 -0.378393 0.162061 -0.227725 -0.159368 0.005222 0.084116 -0.514019 -0.549142 0.101060 -0.323809 0.169071 -0.047180 0.071149 0.122870 0.385077 0.165015 0.051107 0.251642 -0.149077 0.180623 -0.155426 0.098178 -0.104778 -0.118903 -0.083634 0.433084 -0.337631 -0.299414 -0.281216 0.423639 0.283693 0.422952 0.090121 -0.106186 0.482716 0.158119 0.189508 -0.383099 0.218534 -0.299541 0.363572 -0.017614 -0.533776 -0.034397 -0.011594 -0.203068 -0.103877 -0.367193 0.256235 0.365994 -0.006482 0.248012 0.245583 -0.122597 0.248012 0.165910 -0.004760 -0.090545 -0.138274 0.152897 0.194040 -0.038851 0.056965 -0.383626 0.066509 0.081730 -0.079236 0.024275 0.377800 0.284699 0.043534 -0.339597 0.059638
169 -0.246820 -0.377319 0.337575 -0.329401 -0.162165 0.058111 -0.289062 0.278742 0.269658 0.115635 -0.208283 0.250957 0.097528 -0.433443 0.028876 -0.523556 0.126999 0.209178 0.110821 -0.185815 0.420543 0.079275 0.060850 0.191140 0.274465 0.176218 0.454754 0.096116 -0.065311 -0.065384 0.343184 0.111440 -0.054681 -0.355095 -0.180857 0.020010 -0.003181 0.075041 -0.061918 0.265933 -0.397903 0.063702 -0.017340 0.040791 0.028005 0.123659 -0.053620 0.222481 -0.153685 -0.122099 0.136165 0.326928 -0.123539 0.313997 -0.219170 -0.224128 -0.371453 0.155358 -0.046074 0.067068 -0.213444 -0.380969 0.176829 0.243934 -0.185798 -0.133964 0.093259 -0.104990 -0.163253 0.026210 0.008610 -0.141950 -0.052575 0.005095 0.242846 0.203816 0.137881 0.059586 -0.018710 -0.403059 0.006618 0.148069 -0.010846 -0.056498 -0.221013 0.433076 -0.152109 0.080119 -0.148707 0.018709 0.284369 0.303545 -0.053008 -0.183922 -0.192288 0.106759 0.060541 -0.515102 0.148530 -0.051264 -0.295960 -0.312140 -0.013984 0.131597 0.168617 -0.045109 0.217715 0.221897 0.219542 -0.268080 0.042267 0.223521 0.020750 -0.520091 0.138303 -0.132173 -0.097785 0.304870 -0.339526 0.064590 -0.067398 0.336278 0.209109 -0.310428 -0.248228 -0.046222 0.020597 0.184612
28 0.103130 -0.425294 0.158421 -0.135531 0.311166 0.025443 0.057332 0.117825 -0.062248 -0.126704 -0.097081 -0.241369 -0.022614 0.032699 -0.110832 0.057216 0.055648 0.076513 -0.082835 -0.087945 0.057927 0.101961 -0.139841 0.242207 -0.253773 -0.234064 -0.398927 -0.045193 -0.180551 -0.168789 0.212012 0.009907 -0.117742 -0.277990 0.095304 0.095245 -0.089749 -0.211824 0.100669 -0.096810 -0.164556 0.166053 0.118765 -0.156263 -0.068525 -0.006001 0.130664 -0.020116 -0.006246 -0.247079 -0.176543 0.145781 -0.005936 0.337819 -0.119073 -0.407977 -0.013018 0.249644 -0.231990 0.095894 -0.058660 -0.142059 -0.244429 0.173364 -0.323982 0.205765 -0.175538 0.184500 0.019733 -0.040214 0.154936 0.037620 0.128865 -0.181646 -0.067962 -0.029769 0.217005 -0.129248 -0.144599 -0.006362 0.385592 -0.216708 -0.052766 0.016845 0.203734 0.181788 0.275318 -0.120099 0.121912 -0.107388 -0.002449 0.203477 -0.210323 0.085607 -0.053070 0.290204 0.280355 -0.320455 0.197164 -0.109006 -0.211306 -0.140000 -0.081711 -0.126847 0.153117 0.147295 0.118034 -0.018039 0.011804 0.062916 -0.015597 -0.038056 0.112209 0.078632 0.061830 -0.008635 0.001645 -0.026394 0.140000 0.077245 0.118839 0.004840 0.110804 0.069584 -0.134479 0.241388 -0.026678 0.063174
55 0.082744 -0.513270 0.226105 -0.161513 0.312646 0.023813 0.030546 0.117334 -0.039435 -0.142039 -0.129843 -0.271893 -0.012518 -0.012122 -0.098209 0.031217 0.078817 0.098409 -0.053739 -0.134966 0.137054 0.118567 -0.159032 0.269829 -0.247248 -0.267429 -0.394748 -0.070782 -0.236166 -0.189296 0.274496 -0.017536 -0.122923 -0.354830 0.099872 0.127689 -0.114909 -0.250795 0.086495 -0.104832 -0.207256 0.165080 0.094957 -0.136843 -0.029474 -0.008625 0.133051 -0.001251 -0.005110 -0.284539 -0.175268 0.185175 -0.039611 0.428071 -0.173958 -0.446272 -0.052573 0.345380 -0.232151 0.111050 -0.084659 -0.136088 -0.189473 0.206718 -0.346637 0.215353 -0.195456 0.183746 0.011727 -0.074846 0.150923 0.014499 0.121628 -0.151378 -0.050249 0.002458 0.208734 -0.118057 -0.145858 -0.034312 0.404817 -0.177864 -0.031269 0.034894 0.180573 0.208168 0.244801 -0.135979 0.113302 -0.163506 0.014727 0.235397 -0.208600 0.054095 -0.056751 0.305895 0.319236 -0.372812 0.226411 -0.116671 -0.246491 -0.210151 -0.042229 -0.140383 0.140556 0.162362 0.121220 -0.007600 0.022610 0.020724 -0.039550 -0.001017 0.139478 0.049426 0.072855 -0.046429 0.011701 -0.028376 0.157291 0.069519 0.121246 0.082778 0.146403 -0.016443 -0.193239 0.283761 0.009177 0.090279
154 -0.060960 -0.164565 0.014181 -0.207284 0.147604 0.045817 0.011771 0.181126 0.121027 0.024503 -0.094098 0.146323 0.032223 0.023551 -0.030561 -0.099509 -0.059649 0.158169 -0.183183 -0.036374 -0.015105 0.100294 -0.089363 0.119186 -0.063922 -0.085444 -0.095090 0.039119 0.017140 -0.099567 0.155172 0.018083 -0.089496 -0.113363 0.004684 0.072703 -0.035404 -0.065314 0.034242 0.153393 -0.123176 0.151772 0.129276 -0.283186 -0.165630 0.089460 0.126307 -0.004374 -0.077698 -0.155056 -0.009253 0.062149 0.112754 0.137417 -0.022883 -0.275568 -0.021691 -0.038764 -0.124386 0.008200 0.030579 -0.223145 -0.303617 0.083585 -0.238485 0.134755 0.014266 0.048054 0.028497 0.151424 0.102170 -0.018567 0.092200 -0.101162 0.038745 -0.048573 0.147901 -0.054509 -0.010190 -0.096484 0.240086 -0.207680 -0.142793 -0.132537 0.163719 0.218994 0.265349 -0.029791 -0.037384 0.146562 0.060760 0.221054 -0.199039 0.046206 -0.205179 0.177145 0.057623 -0.349515 0.048561 0.030594 -0.140793 0.011108 -0.152796 0.033003 0.179305 0.011832 0.196427 0.141385 0.049695 0.109928 0.069618 -0.032759 0.052986 -0.064419 0.042432 0.059031 0.043745 0.058976 -0.135183 0.057145 0.091870 -0.025965 0.063611 0.141307 0.082528 0.051920 -0.146202 0.084111
73 -0.073766 -0.170122 -0.114082 -0.286176 0.213718 0.015589 0.088657 0.309651 0.089094 0.234171 -0.146325 0.314962 0.054214 0.058333 0.058777 -0.178818 -0.043952 0.186203 -0.285908 0.128788 -0.247077 0.107915 -0.073037 0.084423 -0.025048 -0.086921 -0.042508 0.168016 0.152602 -0.116076 0.166196 0.042426 -0.079994 -0.038355 -0.117425 0.035406 0.072322 0.081413 0.015119 0.264559 -0.031148 0.308680 0.267296 -0.538824 -0.318977 0.103756 0.170684 0.071387 -0.072923 -0.186512 -0.054630 0.047322 0.185693 -0.013723 -0.036302 -0.336921 0.116177 -0.209535 -0.139565 -0.002958 0.082116 -0.418956 -0.509137 0.069896 -0.291304 0.174013 -0.005180 0.060221 0.096320 0.339239 0.139123 0.031596 0.188445 -0.130809 0.143605 -0.135928 0.117132 -0.080661 -0.069679 -0.079481 0.380026 -0.315974 -0.255958 -0.274653 0.351302 0.263392 0.407570 0.042910 -0.107269 0.411215 0.106200 0.219319 -0.348265 0.160027 -0.312501 0.307077 0.000590 -0.483368 -0.014617 0.012986 -0.166413 -0.040798 -0.343482 0.188744 0.306290 -0.008714 0.248555 0.231457 -0.074327 0.225415 0.148454 -0.026126 -0.034158 -0.125054 0.116021 0.169233 0.008500 0.057299 -0.331219 0.044359 0.086696 -0.091582 0.032309 0.338244 0.250386 0.041339 -0.288102 0.057419
97 -0.014027 -0.337601 0.274731 -0.163941 0.128410 0.033261 -0.040893 0.207536 0.067361 -0.141545 -0.219735 -0.172124 0.052218 -0.313475 -0.152332 -0.197936 0.110605 0.171282 0.076401 -0.206901 0.271050 0.068460 -0.073321 0.220448 -0.100395 -0.040174 -0.064641 -0.090590 -0.208450 -0.184148 0.242907 0.039220 -0.153106 -0.390879 -0.115873 0.063803 -0.068851 -0.118982 -0.005121 -0.129295 -0.290304 0.137693 -0.012246 0.045949 0.037867 -0.019168 0.030829 0.125872 -0.007044 -0.178903 -0.034935 0.184843 -0.104287 0.358843 -0.092810 -0.380046 -0.173421 0.304188 -0.189367 0.109891 -0.130465 -0.224687 0.042746 0.245071 -0.272069 0.042681 -0.136587 0.067374 -0.043630 -0.046272 0.102127 0.004923 0.105050 -0.090682 -0.005404 0.100621 0.179089 -0.095649 -0.075549 -0.159124 0.196414 -0.073091 -0.001069 0.098986 -0.025010 0.236889 0.005759 0.025746 0.088298 -0.156315 0.149701 0.184347 -0.035107 0.006394 0.012861 0.146247 0.177481 -0.361485 0.165532 -0.052547 -0.240905 -0.163210 0.121292 -0.039763 0.101678 0.093846 0.090401 -0.008044 0.153168 -0.123124 -0.025047 0.076663 0.096887 -0.016994 0.029381 -0.067258 -0.095891 0.141637 0.044615 0.162515 0.083456 0.181486 0.089517 -0.163486 -0.213900 0.112135 -0.024345 0.148835
105 0.128466 -0.402700 0.239094 -0.143626 0.298478 0.020236 0.070735 0.212024 -0.027918 -0.217486 -0.204932 -0.338760 0.020258 -0.192254 -0.228398 -0.045119 0.107703 0.154001 0.007059 -0.173126 0.177306 0.083386 -0.135523 0.294255 -0.275290 -0.152608 -0.355401 -0.106344 -0.253407 -0.236698 0.232909 0.041099 -0.199176 -0.426264 -0.051063 0.074290 -0.093229 -0.209252 0.063521 -0.231715 -0.263257 0.222230 0.061988 -0.050626 -0.020225 -0.042604 0.098090 0.064489 0.031196 -0.248546 -0.144352 0.168491 -0.065440 0.385758 -0.093852 -0.507415 -0.077288 0.329758 -0.292278 0.157288 -0.108619 -0.229592 -0.139130 0.258992 -0.363523 0.152198 -0.224352 0.157927 0.000760 -0.045783 0.178916 0.070328 0.208328 -0.194690 -0.102688 0.025452 0.269235 -0.197696 -0.141111 -0.054623 0.367261 -0.237482 -0.034114 0.111761 0.120176 0.207798 0.181842 -0.037184 0.187804 -0.173432 0.082479 0.209133 -0.119806 0.113878 0.030424 0.249625 0.293121 -0.379847 0.216632 -0.090030 -0.242518 -0.124003 0.071126 -0.099972 0.145152 0.162619 0.096031 -0.093509 0.114296 -0.009620 -0.014474 0.003575 0.134250 0.149286 0.025298 -0.018986 -0.101167 0.071689 0.170770 0.201557 0.147453 0.066535 0.057689 -0.022510 -0.186112 0.216629 -0.061126 0.113314
114 -0.010936 -0.416005 0.188207 -0.173763 0.137618 0.025659 -0.083996 0.073958 0.047752 -0.079243 -0.048543 -0.088868 -0.029102 0.012553 -0.027446 -0.070595 0.051755 0.072215 -0.039986 -0.109383 0.171776 0.094895 -0.079799 0.214122 -0.070000 -0.144635 -0.176247 0.014478 -0.144592 -0.095714 0.232325 0.024326 -0.051874 -0.240479 0.127568 0.083811 -0.121240 -0.177026 0.098825 0.046060 -0.220112 0.016983 0.124536 -0.052479 -0.023005 0.049484 0.069757 -0.034021 -0.064817 -0.215591 -0.098608 0.206916 -0.011239 0.380034 -0.162916 -0.275541 -0.119370 0.248176 -0.145278 0.066792 -0.108611 -0.110929 -0.151218 0.136873 -0.257415 0.130922 -0.062467 0.116130 -0.057969 -0.056973 0.082686 -0.063359 0.014882 -0.128719 0.035458 0.038592 0.209440 -0.048533 -0.105043 -0.126840 0.249997 -0.066525 -0.024218 -0.041103 0.064398 0.218922 0.182741 -0.145159 0.006658 -0.107081 0.029654 0.260786 -0.178905 -0.034376 -0.137679 0.232185 0.242433 -0.311134 0.221653 -0.097415 -0.234734 -0.219030 -0.124997 -0.119866 0.114842 0.096363 0.139852 0.076449 0.045127 -0.043553 -0.015013 0.006231 0.086607 -0.130734 0.078672 -0.072664 0.044763 0.046629 0.046369 0.003657 0.026730 0.072834 0.228269 -0.058084 -0.209919 0.199187 0.039062 0.081254
47 -0.229974 -0.153878 -0.071546 -0.292419 0.130763 0.055503 0.014182 0.333466 0.147431 0.313167 -0.155095 0.469699 0.074812 -0.025512 0.144476 -0.237513 -0.053091 0.195209 -0.252557 0.073140 -0.188576 0.145743 -0.015008 0.025173 0.086119 -0.043583 0.181524 0.166066 0.161838 -0.088672 0.174673 -0.021929 -0.037254 0.001621 -0.107317 0.050803 0.108286 0.138423 -0.071697 0.393231 0.000909 0.287493 0.170418 -0.538485 -0.283405 0.117316 0.179169 0.111906 -0.126264 -0.125943 0.041718 0.019090 0.139084 -0.064425 -0.016292 -0.256436 0.052330 -0.227283 -0.064138 -0.096636 0.118048 -0.382156 -0.368778 0.073809 -0.257715 0.106128 0.071911 0.000566 0.070144 0.334951 0.065528 -0.046349 0.067068 -0.002647 0.193283 -0.102132 0.003733 0.064576 0.003375 -0.166786 0.261843 -0.203060 -0.235994 -0.284724 0.287413 0.313318 0.276275 0.068118 -0.196233 0.434439 0.118761 0.164861 -0.300027 0.072374 -0.332490 0.238792 -0.141451 -0.451486 -0.136340 0.088484 -0.114613 -0.027644 -0.256199 0.227548 0.256246 -0.068356 0.253250 0.307195 -0.056295 0.191308 0.146125 0.016349 -0.045881 -0.240787 0.106347 0.130087 0.040634 0.061730 -0.431069 0.004867 0.069906 0.001396 0.030080 0.258051 0.284009 -0.062153 -0.276352 0.094657
11 -0.077324 -0.319401 0.315051 -0.184474 0.015880 0.028961 -0.113529 0.245914 0.128691 -0.094843 -0.226446 -0.088229 0.059181 -0.402131 -0.127966 -0.310029 0.123203 0.168320 0.121887 -0.225863 0.339165 0.056984 -0.008570 0.219007 0.011442 0.069033 0.110253 -0.053775 -0.180851 -0.146277 0.248019 0.067435 -0.126178 -0.400746 -0.164928 0.023863 -0.035853 -0.041858 -0.027911 -0.049752 -0.331443 0.110181 -0.026678 0.106334 0.054454 0.008273 -0.009287 0.172864 -0.046189 -0.132782 0.026277 0.222289 -0.143707 0.326032 -0.111672 -0.331571 -0.247596 0.272319 -0.160802 0.099719 -0.160375 -0.277890 0.148622 0.270027 -0.238613 -0.043499 -0.068396 0.004325 -0.095246 -0.049007 0.064113 -0.030806 0.063543 -0.063544 0.052998 0.143846 0.178150 -0.067824 -0.068528 -0.241655 0.107441 0.004550 0.016879 0.083275 -0.140316 0.280121 -0.085121 0.060960 0.048838 -0.127206 0.198013 0.192594 0.008379 -0.037780 -0.008433 0.100513 0.136841 -0.376127 0.158018 -0.036992 -0.235104 -0.180616 0.129545 0.010258 0.094559 0.054209 0.108560 0.020266 0.205458 -0.197502 0.001142 0.131324 0.072450 -0.143228 0.040084 -0.102177 -0.136994 0.232596 -0.048349 0.161305 0.037345 0.225781 0.098223 -0.239169 -0.242132 0.041875 -0.013788 0.163604
122 -0.008845 -0.241078 0.201072 -0.143104 0.174809 0.045915 0.028799 0.228934 0.057126 -0.163824 -0.232664 -0.166659 0.061805 -0.296234 -0.177852 -0.166059 0.064153 0.202238 0.036443 -0.203741 0.181683 0.072611 -0.095949 0.180730 -0.166907 -0.048019 -0.099616 -0.121776 -0.177966 -0.212823 0.191489 0.016862 -0.186743 -0.344703 -0.134374 0.067840 -0.067914 -0.119478 -0.014573 -0.149156 -0.241336 0.183552 0.003977 -0.024918 0.006990 -0.032591 0.065236 0.117795 0.006476 -0.162099 -0.030973 0.100701 -0.066240 0.288999 -0.011318 -0.407722 -0.112609 0.239494 -0.209661 0.083340 -0.071710 -0.217899 -0.017454 0.232631 -0.300100 0.061841 -0.137810 0.067566 0.002316 0.013579 0.121979 0.042588 0.148534 -0.096090 -0.061335 0.059676 0.180745 -0.124342 -0.046205 -0.134371 0.215735 -0.157841 -0.045929 0.112830 0.025010 0.215576 0.058339 0.041539 0.125827 -0.099640 0.144917 0.146850 -0.032394 0.042351 0.024602 0.121749 0.129914 -0.345002 0.108054 -0.008308 -0.194685 -0.054019 0.138944 -0.026910 0.098225 0.077418 0.085752 -0.029469 0.165813 -0.064122 -0.014075 0.038237 0.092009 0.097388 -0.009912 -0.004876 -0.095706 0.136222 0.054948 0.211970 0.141293 0.122085 0.008326 -0.067048 -0.117189 0.076185 -0.097385 0.155475
139 0.005409 -0.243588 -0.003283 -0.180515 0.225820 0.029176 0.055140 0.134585 0.041983 0.018895 -0.082748 0.045336 0.000436 0.106352 -0.004905 -0.011583 -0.034838 0.108356 -0.192929 0.012322 -0.077584 0.108314 -0.128822 0.126483 -0.130738 -0.187904 -0.232167 0.037002 -0.012786 -0.114885 0.163798 -0.003034 -0.073969 -0.120871 0.051297 0.089018 -0.040309 -0.107292 0.057703 0.097887 -0.074245 0.167723 0.158548 -0.318769 -0.169083 0.055374 0.142383 -0.024603 -0.041745 -0.196920 -0.085824 0.059652 0.111495 0.162553 -0.057907 -0.303823 0.047965 0.017012 -0.139868 0.031634 0.026014 -0.175887 -0.355178 0.075275 -0.256439 0.190934 -0.060111 0.113951 0.057906 0.125224 0.117812 0.006636 0.111817 -0.123053 0.012380 -0.080960 0.134625 -0.073380 -0.059439 -0.023667 0.321690 -0.230125 -0.133786 -0.133177 0.252313 0.170267 0.324962 -0.063363 -0.011524 0.115786 0.006878 0.199800 -0.252120 0.076843 -0.178931 0.239420 0.129062 -0.328390 0.070362 -0.011916 -0.145197 -0.041589 -0.184862 -0.002796 0.169639 0.052450 0.161886 0.114198 -0.027469 0.146639 0.048928 -0.044164 0.051385 -0.009284 0.064630 0.065259 0.060685 -0.021523 -0.066430 0.023001 0.095584 -0.047578 0.077886 0.175326 0.061810 0.141124 -0.117673 0.054761
45 -0.055687 -0.218849 -0.124789 -0.322001 0.287899 0.022968 0.124958 0.381199 0.090471 0.244676 -0.184271 0.319303 0.064540 0.048852 0.031901 -0.184430 -0.035761 0.232414 -0.328107 0.143697 -0.281116 0.128610 -0.090980 0.120756 -0.066551 -0.116703 -0.106846 0.174512 0.150362 -0.150303 0.198609 0.052491 -0.117709 -0.059111 -0.136496 0.057598 0.069626 0.081205 0.021058 0.255682 -0.045355 0.389245 0.313609 -0.625875 -0.377694 0.103730 0.212180 0.089992 -0.059658 -0.224874 -0.083241 0.047629 0.206656 0.001260 -0.035250 -0.435599 0.149766 -0.206977 -0.190286 0.011180 0.098252 -0.487760 -0.619574 0.095395 -0.365326 0.217676 -0.035177 0.095258 0.116662 0.386823 0.179969 0.053079 0.250629 -0.178609 0.154167 -0.147783 0.156522 -0.106837 -0.093555 -0.070876 0.472592 -0.396047 -0.309239 -0.289447 0.429230 0.310209 0.492427 0.046134 -0.103504 0.451095 0.125044 0.250596 -0.404890 0.208271 -0.341206 0.369454 0.017634 -0.556226 -0.007878 0.022531 -0.205871 -0.038574 -0.372177 0.204516 0.361062 0.008911 0.285300 0.241267 -0.083902 0.284860 0.166334 -0.041344 -0.029985 -0.093175 0.126626 0.194882 -0.005187 0.050004 -0.346944 0.070718 0.117036 -0.120048 0.036457 0.403896 0.291127 0.060566 -0.343054 0.066554
76 -0.038308 -0.449400 0.218098 -0.186104 0.134188 0.032073 -0.105546 0.055522 0.071165 -0.108287 -0.062247 -0.093429 -0.026194 -0.004652 -0.017010 -0.078952 0.049613 0.079145 -0.025436 -0.145257 0.222213 0.102198 -0.099013 0.216851 -0.074835 -0.167684 -0.181739 -0.007342 -0.167739 -0.102407 0.267797 0.015605 -0.058909 -0.273907 0.148467 0.110041 -0.146118 -0.218436 0.092625 0.054268 -0.254737 -0.008691 0.106779 -0.032048 0.000780 0.055652 0.072786 -0.036989 -0.077435 -0.233852 -0.085389 0.221518 -0.023909 0.438610 -0.183144 -0.292363 -0.148531 0.291651 -0.138537 0.067528 -0.126833 -0.085172 -0.118544 0.148327 -0.262905 0.136539 -0.065544 0.105506 -0.060736 -0.076993 0.085896 -0.079607 0.000575 -0.122142 0.032748 0.054359 0.202868 -0.038257 -0.090619 -0.148247 0.241379 -0.038066 -0.013090 -0.026258 0.043176 0.234973 0.168562 -0.163385 0.008658 -0.147292 0.022964 0.288104 -0.173415 -0.071814 -0.146504 0.221331 0.261488 -0.332361 0.242707 -0.093554 -0.245799 -0.237429 -0.100576 -0.137179 0.098768 0.098452 0.148850 0.095021 0.069856 -0.073799 -0.029688 0.022820 0.103628 -0.137172 0.081389 -0.087853 0.067590 0.047164 0.054889 0.003205 0.029551 0.108414 0.249545 -0.095437 -0.242970 0.217808 0.067010 0.100476
44 -0.085175 -0.215030 -0.143368 -0.345642 0.286294 0.025583 0.123184 0.397534 0.099772 0.282234 -0.182965 0.372890 0.065369 0.057385 0.056094 -0.199203 -0.049022 0.235720 -0.345614 0.151280 -0.307686 0.143087 -0.090713 0.111560 -0.045808 -0.117008 -0.074341 0.195987 0.176669 -0.149689 0.203224 0.044717 -0.121584 -0.049906 -0.144522 0.051168 0.089365 0.101424 0.007558 0.302517 -0.032205 0.412694 0.324890 -0.671938 -0.397092 0.114889 0.222480 0.095644 -0.081417 -0.235164 -0.077569 0.042926 0.220001 -0.025860 -0.030797 -0.436842 0.160060 -0.245149 -0.184740 -0.014820 0.110865 -0.513489 -0.637549 0.091075 -0.373602 0.221956 -0.022915 0.083294 0.132921 0.421508 0.183278 0.043434 0.254064 -0.171649 0.166542 -0.166608 0.141271 -0.105357 -0.086175 -0.087901 0.482400 -0.409299 -0.329017 -0.322818 0.447990 0.329950 0.515238 0.054423 -0.126168 0.498872 0.129020 0.257639 -0.429222 0.206233 -0.377496 0.384349 -0.006928 -0.587170 -0.030409 0.025570 -0.201144 -0.032546 -0.394769 0.230544 0.379526 0.001100 0.309030 0.271986 -0.098750 0.300153 0.183178 -0.048208 -0.042914 -0.117743 0.132981 0.218542 0.001330 0.058968 -0.391972 0.066515 0.124206 -0.123661 0.028036 0.433168 0.320653 0.045127 -0.371483 0.068984
46 -0.109371 -0.188079 -0.129874 -0.326377 0.247507 0.033130 0.101563 0.380810 0.115997 0.281502 -0.168421 0.399994 0.062403 0.052632 0.063752 -0.215110 -0.054006 0.231621 -0.339816 0.142340 -0.285865 0.132274 -0.073062 0.099698 -0.018341 -0.093995 -0.027022 0.190169 0.185059 -0.131604 0.189903 0.045923 -0.103081 -0.022746 -0.134915 0.046282 0.085327 0.106975 0.007968 0.326494 -0.035928 0.371101 0.307078 -0.636686 -0.384603 0.130124 0.208985 0.088260 -0.094711 -0.208380 -0.044770 0.043895 0.211730 -0.029653 -0.028533 -0.389832 0.132056 -0.257582 -0.164512 -0.024514 0.111946 -0.493828 -0.606123 0.081021 -0.345848 0.197234 0.005575 0.061668 0.114301 0.403452 0.153902 0.025635 0.213063 -0.146379 0.180416 -0.151274 0.127873 -0.078336 -0.071407 -0.109900 0.435863 -0.369529 -0.313018 -0.325827 0.413439 0.323284 0.470917 0.053877 -0.142568 0.497460 0.133914 0.251045 -0.397830 0.187805 -0.371370 0.351848 -0.029129 -0.551067 -0.044466 0.040435 -0.194992 -0.028861 -0.387274 0.225030 0.356225 -0.019609 0.302567 0.283782 -0.075093 0.279238 0.177649 -0.030272 -0.040584 -0.147078 0.128360 0.193929 0.013732 0.065687 -0.408789 0.052633 0.100279 -0.113579 0.039273 0.403806 0.315128 0.021882 -0.357308 0.069501
